SVM-light Version V6.01
0 # kernel type
3 # kernel parameter -d 
1 # kernel parameter -g 
1 # kernel parameter -s 
1 # kernel parameter -r 
empty# kernel parameter -u 
5911 # highest feature index 
12886 # number of training documents 
2715 # number of support vectors plus 1 
0.24291353 # threshold b, each following line is a SV (starting with alpha*y)
-0.14884920601009582474816284047847 42:1 211:1 971:1 3043:1 4087:1 4121:1 #
0.050007294353040833423396094303826 72:1 797:1 971:1 1712:1 3193:1 3743:1 5498:1 5862:1 #
-0.14884920601009582474816284047847 971:1 1937:1 1941:1 2668:1 3924:1 4651:1 #
0.14884920601009582474816284047847 971:1 2668:1 5671:1 #
-0.046598826652355825050921822594319 223:1 516:1 971:1 1894:1 2288:1 3093:1 3736:1 4804:1 #
0.14884920601009582474816284047847 469:1 971:1 1475:1 1613:1 1645:1 1941:1 2098:1 2356:1 2543:1 2668:1 2787:1 2903:1 2942:1 3189:1 3193:1 3665:1 4202:1 4206:1 4517:1 4871:1 4967:1 4974:1 5058:1 5061:1 5189:1 5299:1 5775:1 5807:1 #
0.14884920601009582474816284047847 124:1 971:1 3196:1 4863:1 4967:1 #
0.14884920601009582474816284047847 971:1 982:1 5022:1 5213:1 #
-0.14884920601009582474816284047847 2023:1 4323:1 4967:1 5253:1 #
0.13576951210601412300960078027856 971:1 2131:1 2248:1 4967:1 5253:1 #
-0.13557623539450602834222081582993 73:1 96:1 164:1 809:1 861:1 971:1 1530:1 1694:1 1863:1 1914:1 1953:1 2804:1 2957:1 2993:1 3092:1 3188:1 3189:1 3193:1 3258:1 3519:1 4243:1 4277:1 4323:1 4439:1 4646:1 4967:1 5054:1 5094:1 5189:1 5668:1 #
-0.14884920601009582474816284047847 353:1 764:1 783:1 971:1 2668:1 2787:1 2818:1 4323:1 4517:1 4646:1 4967:1 5189:1 5213:1 5253:1 5683:1 #
0.14884920601009582474816284047847 971:1 2128:1 2178:1 #
-0.14884920601009582474816284047847 971:1 3139:1 3306:1 5213:1 #
-0.14884920601009582474816284047847 731:1 775:1 889:1 971:1 2148:1 2850:1 3193:1 3559:1 3627:1 4323:1 4517:1 4646:1 4699:1 4967:1 5189:1 5629:1 5641:1 #
-0.14884920601009582474816284047847 971:1 4967:1 5534:1 #
-0.14884920601009582474816284047847 31:1 621:1 666:1 971:1 2054:1 3193:1 3724:1 3909:1 4312:1 5054:1 5189:1 #
0.10491732158470923330639834603062 31:1 32:1 33:1 41:1 42:1 81:1 96:1 108:1 404:1 971:1 1173:1 1966:1 2580:1 2787:1 2840:1 2903:1 2938:1 2985:1 3093:1 4349:1 4517:1 4646:1 4681:1 4717:1 4974:1 5060:1 5439:1 5456:1 5582:1 #
0.013939548423137390967263549157451 45:1 164:1 516:1 755:1 784:1 971:1 1173:1 1198:1 1470:1 1609:1 1979:1 2010:1 2148:1 2707:1 2711:1 2962:1 3075:1 3085:1 3464:1 3534:1 4025:1 4531:1 4592:1 4651:1 4681:1 4802:1 4862:1 4995:1 5125:1 5639:1 5672:1 5725:1 5861:1 5869:1 #
0.14884920601009582474816284047847 2023:1 3409:1 3476:1 #
0.14884920601009582474816284047847 546:1 966:1 971:1 1173:1 1941:1 5299:1 5519:1 #
-0.14884920601009582474816284047847 448:1 489:1 540:1 731:1 971:1 4018:1 4412:1 #
0.14884920601009582474816284047847 72:1 301:1 971:1 3451:1 4465:1 5100:1 5253:1 #
-0.14884920601009582474816284047847 731:1 2106:1 3769:1 #
0.14884920601009582474816284047847 971:1 5198:1 5848:1 #
0.14884920601009582474816284047847 731:1 971:1 2098:1 2668:1 3193:1 3288:1 4323:1 4517:1 4699:1 5174:1 5228:1 #
0.14884920601009582474816284047847 971:1 1914:1 3889:1 4323:1 4555:1 #
0.14884920601009582474816284047847 164:1 425:1 546:1 629:1 731:1 971:1 1190:1 1641:1 2098:1 2551:1 2668:1 3193:1 3271:1 3797:1 4323:1 4646:1 4785:1 #
0.14884920601009582474816284047847 541:1 731:1 971:1 4323:1 5691:1 #
0.14884920601009582474816284047847 731:1 1657:1 4323:1 #
-0.14884920601009582474816284047847 96:1 553:1 971:1 1086:1 1348:1 2787:1 2938:1 3193:1 3306:1 4646:1 5189:1 #
-0.14884920601009582474816284047847 971:1 1921:1 2432:1 3116:1 3257:1 3555:1 4555:1 5189:1 #
-0.14884920601009582474816284047847 731:1 971:1 1864:1 3193:1 4555:1 5189:1 #
-0.14884920601009582474816284047847 1475:1 1816:1 2010:1 2023:1 3455:1 4206:1 4941:1 #
0.090153840850670283191270470979362 72:1 318:1 357:1 660:1 666:1 781:1 794:1 822:1 903:1 950:1 958:1 965:1 971:1 1173:1 1312:1 1657:1 1922:1 1941:1 2010:1 2028:1 2075:1 2101:1 2258:1 2281:1 2461:1 2815:1 2850:1 2942:1 2962:1 2993:1 3019:1 3043:1 3108:1 3258:1 3340:1 3451:1 3455:1 3476:1 3641:1 3828:1 3849:1 3928:1 3959:1 3968:1 3999:1 4160:1 4323:1 4393:1 4405:1 4589:1 4592:1 4679:1 4682:1 4697:1 4883:1 4898:1 4967:1 5189:1 5195:1 5198:1 5333:1 5342:1 5380:1 5433:1 5605:1 5783:1 5847:1 #
0.12766349556559616895690112414741 25:1 469:1 947:1 953:1 971:1 1086:1 1161:1 1834:1 1864:1 1941:1 1951:1 2066:1 2131:1 2286:1 2467:1 2482:1 2787:1 3093:1 3249:1 3288:1 3519:1 3559:1 3677:1 3715:1 3724:1 3776:1 3991:1 4108:1 4118:1 4197:1 4259:1 4323:1 4517:1 4652:1 4878:1 4881:1 4967:1 5027:1 5092:1 5100:1 5439:1 5540:1 5690:1 #
-0.14884920601009582474816284047847 971:1 4386:1 4576:1 #
0.14884920601009582474816284047847 370:1 971:1 1173:1 1300:1 2668:1 3093:1 3188:1 3189:1 3299:1 4517:1 4950:1 5869:1 #
0.14884920601009582474816284047847 72:1 397:1 971:1 1937:1 2248:1 2668:1 3193:1 4067:1 4967:1 5862:1 #
0.14884920601009582474816284047847 971:1 3666:1 5189:1 #
0.14884920601009582474816284047847 588:1 971:1 2543:1 3258:1 4651:1 5164:1 #
-0.14884920601009582474816284047847 971:1 2838:1 4074:1 #
-0.12728628783173151495233810237551 2023:1 2076:1 #
0.14884920601009582474816284047847 46:1 731:1 957:1 971:1 1183:1 1222:1 1941:1 2105:1 2668:1 2886:1 3093:1 3193:1 3397:1 3519:1 3724:1 3743:1 4010:1 4148:1 4517:1 4592:1 4681:1 4802:1 4967:1 5082:1 5253:1 #
0.14884920601009582474816284047847 394:1 534:1 971:1 1183:1 1864:1 1937:1 1941:1 2019:1 2023:1 2773:1 3193:1 3508:1 3519:1 3559:1 5209:1 5234:1 5433:1 5848:1 #
0.14884920601009582474816284047847 7:1 8:1 236:1 415:1 469:1 657:1 731:1 971:1 1183:1 2093:1 2291:1 2543:1 2668:1 2985:1 3095:1 3193:1 3332:1 3526:1 4662:1 4798:1 4841:1 4844:1 5125:1 5367:1 5547:1 #
0.14884920601009582474816284047847 731:1 752:1 971:1 1657:1 1941:1 2093:1 2127:1 3043:1 3193:1 3474:1 4210:1 4592:1 5380:1 #
0.14884920601009582474816284047847 971:1 1941:1 3075:1 3188:1 3189:1 3460:1 3647:1 4348:1 4534:1 4592:1 5221:1 5333:1 #
0.14884920601009582474816284047847 731:1 1914:1 2093:1 2543:1 3889:1 #
0.014340105156314260706484908780567 40:1 971:1 2577:1 3401:1 3584:1 5792:1 5838:1 #
0.14884920601009582474816284047847 971:1 2092:1 4517:1 #
0.13194557248215599276619514057529 507:1 971:1 1426:1 1641:1 3405:1 #
-0.13337035361488205897906311747647 731:1 971:1 1181:1 1288:1 2093:1 2787:1 3193:1 5342:1 5725:1 #
-0.14884920601009582474816284047847 971:1 3249:1 3258:1 5213:1 #
0.14884920601009582474816284047847 1086:1 2023:1 3786:1 #
0.14884920601009582474816284047847 48:1 96:1 971:1 1058:1 1167:1 1941:1 2668:1 3193:1 3519:1 3849:1 4517:1 4646:1 4681:1 4906:1 4958:1 5342:1 5725:1 #
0.14884920601009582474816284047847 96:1 301:1 432:1 775:1 971:1 1031:1 1475:1 2148:1 2543:1 2850:1 2866:1 3193:1 3968:1 4067:1 4646:1 4701:1 4967:1 5253:1 5439:1 #
0.14688497412633400029946528775326 342:1 886:1 969:1 971:1 1203:1 1346:1 1475:1 1536:1 1721:1 1941:1 1951:1 2103:1 2281:1 2346:1 2668:1 3013:1 3025:1 3249:1 3533:1 3559:1 3996:1 4118:1 4243:1 4326:1 4517:1 4592:1 5213:1 5253:1 5299:1 5495:1 #
0.029454769589817301339573774043856 971:1 3345:1 5189:1 5431:1 #
-0.014575104674125307843701726540075 96:1 351:1 440:1 634:1 902:1 971:1 1161:1 1167:1 1173:1 1527:1 1834:1 1941:1 2171:1 2240:1 2840:1 3193:1 4047:1 4592:1 4646:1 4681:1 5253:1 #
-0.14884920601009582474816284047847 31:1 32:1 96:1 621:1 971:1 1071:1 1079:1 1274:1 1328:1 1423:1 1864:1 1941:1 2010:1 2101:1 2511:1 2668:1 2942:1 3193:1 3291:1 3640:1 4517:1 4592:1 4646:1 4942:1 4967:1 5253:1 5397:1 #
0.14884920601009582474816284047847 971:1 4628:1 4967:1 #
-0.062170131225036971700514953909078 351:1 971:1 1375:1 1914:1 3347:1 4238:1 4386:1 5164:1 #
-0.080233958664437707297700796971185 307:1 397:1 971:1 1677:1 1680:1 1937:1 2290:1 2668:1 3193:1 3398:1 3584:1 4323:1 4517:1 4967:1 5253:1 5694:1 #
0.14884920601009582474816284047847 731:1 1941:1 2093:1 #
0.14884920601009582474816284047847 731:1 2093:1 2543:1 4967:1 #
0.14884920601009582474816284047847 731:1 1694:1 4337:1 5198:1 #
0.14884920601009582474816284047847 734:1 971:1 3908:1 #
-0.14884920601009582474816284047847 731:1 2367:1 2543:1 3397:1 3996:1 4898:1 #
0.14884920601009582474816284047847 971:1 1116:1 2249:1 3797:1 4232:1 4967:1 #
-0.07162759439521711180010044017763 621:1 781:1 971:1 1261:1 1657:1 2787:1 3193:1 3622:1 4323:1 4967:1 #
-0.023705183050657850640785540008437 110:1 114:1 199:1 316:1 481:1 700:1 971:1 1006:1 1021:1 1044:1 1113:1 1126:1 1674:1 2361:1 2401:1 2543:1 2742:1 2774:1 2925:1 2938:1 3053:1 3106:1 3120:1 3168:1 3193:1 3249:1 3258:1 3332:1 3397:1 3559:1 3689:1 3704:1 3839:1 3865:1 4343:1 4517:1 4568:1 5009:1 5049:1 5091:1 5204:1 5206:1 5220:1 5253:1 5256:1 5444:1 5583:1 5665:1 5683:1 #
0.081252174790533773784950710705743 164:1 971:1 1666:1 3188:1 3189:1 4393:1 4651:1 4967:1 #
0.14884920601009582474816284047847 307:1 971:1 1181:1 1423:1 1641:1 1914:1 1937:1 1941:1 2285:1 2492:1 3193:1 3397:1 4161:1 4970:1 5491:1 #
0.14884920601009582474816284047847 62:1 307:1 648:1 1179:1 1941:1 2023:1 2028:1 2101:1 2157:1 2404:1 2811:1 3193:1 3258:1 3778:1 3849:1 3909:1 4153:1 4323:1 4646:1 4883:1 4934:1 4967:1 5253:1 5380:1 #
0.091044827308439019164509886650194 971:1 3397:1 5033:1 #
-0.14884920601009582474816284047847 731:1 1900:1 4646:1 #
-0.14884920601009582474816284047847 31:1 197:1 380:1 384:1 516:1 563:1 648:1 971:1 1006:1 1199:1 1211:1 1289:1 1941:1 2091:1 2281:1 2577:1 2668:1 3193:1 3258:1 3324:1 3839:1 3886:1 4331:1 4555:1 4661:1 4699:1 4906:1 4967:1 5253:1 5683:1 5751:1 #
-0.14884920601009582474816284047847 32:1 41:1 96:1 668:1 971:1 1423:1 1657:1 2344:1 2469:1 2818:1 3095:1 3188:1 3189:1 3193:1 3460:1 3849:1 4592:1 4646:1 4679:1 4681:1 5160:1 5253:1 #
-0.13227733608564798406526108465187 469:1 971:1 1937:1 1941:1 2285:1 2985:1 3193:1 3258:1 4153:1 4294:1 4346:1 4442:1 4544:1 4592:1 4646:1 5848:1 #
-0.075597952087924150110787024914316 971:1 1894:1 2179:1 3093:1 3112:1 #
-0.1376091223740069091618920538167 67:1 307:1 501:1 903:1 971:1 1112:1 1914:1 2302:1 2668:1 3193:1 3641:1 3647:1 3815:1 4386:1 4863:1 4967:1 5164:1 #
0.14884920601009582474816284047847 731:1 2523:1 4323:1 4455:1 #
0.14884920601009582474816284047847 469:1 731:1 752:1 2543:1 5488:1 #
0.14884920601009582474816284047847 731:1 2093:1 2543:1 3005:1 3889:1 #
0.14884920601009582474816284047847 2023:1 3397:1 4778:1 #
-0.14884920601009582474816284047847 731:1 1914:1 2543:1 3519:1 3889:1 5253:1 #
-0.14884920601009582474816284047847 358:1 780:1 1609:1 2023:1 3093:1 3145:1 3584:1 4202:1 4651:1 4967:1 5125:1 5198:1 5258:1 5824:1 #
-0.14884920601009582474816284047847 731:1 2444:1 2492:1 3519:1 5381:1 #
-0.11484132113809349118316305293774 137:1 731:1 2543:1 5253:1 5415:1 #
0.14884920601009582474816284047847 971:1 3205:1 3911:1 4755:1 5189:1 5439:1 #
-0.14884920601009582474816284047847 1086:1 1475:1 2023:1 4701:1 #
0.093783872955729360998411436867173 96:1 971:1 1112:1 1365:1 2787:1 3193:1 3246:1 3581:1 3869:1 4294:1 4646:1 4701:1 4911:1 4941:1 #
0.14884920601009582474816284047847 971:1 4543:1 4967:1 #
0.14884920601009582474816284047847 971:1 2130:1 #
-0.14884920601009582474816284047847 96:1 553:1 725:1 950:1 1579:1 1941:1 2023:1 2787:1 3013:1 3476:1 3996:1 4017:1 4308:1 4646:1 4898:1 4974:1 5040:1 5861:1 #
-0.14884920601009582474816284047847 666:1 971:1 1166:1 1593:1 1941:1 1951:1 2131:1 2148:1 2585:1 3193:1 3249:1 3397:1 3559:1 4651:1 5299:1 #
0.14884920601009582474816284047847 971:1 3085:1 3093:1 3193:1 5253:1 #
-0.10962062803265623656123750606639 31:1 301:1 731:1 971:1 1140:1 1447:1 1619:1 1937:1 2059:1 2540:1 2909:1 3193:1 3559:1 3849:1 4323:1 4646:1 4967:1 5037:1 5189:1 5725:1 #
-0.13173787819316856717577479685133 379:1 971:1 1112:1 2434:1 #
-0.024335544426663854172820933285948 971:1 1937:1 3476:1 3959:1 4323:1 4967:1 5456:1 #
-0.14884920601009582474816284047847 971:1 1641:1 4323:1 4967:1 5253:1 #
0.14884920601009582474816284047847 731:1 1657:1 1941:1 2093:1 2402:1 3519:1 4763:1 4906:1 4967:1 5253:1 5593:1 #
0.14884920601009582474816284047847 666:1 971:1 1225:1 2281:1 2774:1 2945:1 2985:1 3043:1 3189:1 3193:1 3205:1 3953:1 4555:1 4681:1 5253:1 #
-0.074261778891479390818375350136193 73:1 731:1 950:1 971:1 2054:1 2093:1 3165:1 3205:1 4018:1 4967:1 5253:1 #
-0.14884920601009582474816284047847 731:1 950:1 1173:1 2093:1 4294:1 5253:1 5810:1 #
-0.14884920601009582474816284047847 32:1 34:1 657:1 1055:1 1475:1 2023:1 2483:1 2587:1 3584:1 4701:1 5253:1 5431:1 #
-0.14884920601009582474816284047847 534:1 971:1 1173:1 1641:1 1712:1 2010:1 2993:1 3193:1 4279:1 4555:1 5253:1 5439:1 #
-0.14884920601009582474816284047847 971:1 3120:1 4681:1 5228:1 #
0.14884920601009582474816284047847 50:1 96:1 634:1 731:1 971:1 1166:1 1173:1 1612:1 1941:1 2202:1 2281:1 3193:1 4230:1 4484:1 4646:1 4809:1 5861:1 #
0.0571665020353353953153074940019 96:1 110:1 198:1 971:1 1139:1 1330:1 1625:1 1941:1 2281:1 3013:1 3193:1 3249:1 4302:1 4525:1 4584:1 4646:1 5162:1 5189:1 5301:1 5626:1 5848:1 #
0.14884920601009582474816284047847 96:1 189:1 469:1 475:1 731:1 971:1 1161:1 1183:1 1941:1 2245:1 2564:1 2654:1 3043:1 3193:1 3405:1 3849:1 3951:1 4232:1 4323:1 4393:1 4592:1 4615:1 4646:1 4898:1 4967:1 5101:1 5718:1 #
0.14884920601009582474816284047847 971:1 5213:1 5838:1 #
0.14884920601009582474816284047847 971:1 1397:1 1941:1 2028:1 3193:1 3967:1 4153:1 4646:1 4898:1 5189:1 5848:1 #
-0.023243887278591692652218725356761 81:1 731:1 971:1 2616:1 3689:1 4555:1 #
0.070123225238270955883557178367482 343:1 971:1 1242:1 1864:1 2993:1 5253:1 5846:1 #
0.14884920601009582474816284047847 81:1 971:1 2130:1 3628:1 5483:1 #
-0.14884920601009582474816284047847 971:1 2530:1 3778:1 4245:1 #
-0.086063232781016490990921852244355 33:1 42:1 48:1 96:1 189:1 223:1 971:1 1140:1 1409:1 1699:1 1965:1 2320:1 2925:1 2993:1 3082:1 3091:1 3189:1 3193:1 3324:1 3508:1 4518:1 4646:1 4693:1 4778:1 5195:1 5324:1 5357:1 5366:1 5451:1 #
0.14884920601009582474816284047847 469:1 971:1 1937:1 2543:1 2587:1 2993:1 3249:1 3258:1 3922:1 4555:1 4634:1 5299:1 5582:1 5810:1 #
0.14884920601009582474816284047847 731:1 1173:1 2543:1 2587:1 4031:1 4555:1 5342:1 #
-0.14884920601009582474816284047847 33:1 971:1 2668:1 #
0.14884920601009582474816284047847 469:1 971:1 1937:1 2543:1 2587:1 3249:1 3258:1 3922:1 4555:1 4634:1 5299:1 5810:1 #
0.14884920601009582474816284047847 199:1 469:1 504:1 731:1 2023:1 2543:1 3193:1 3397:1 4323:1 4555:1 4967:1 5299:1 5333:1 #
-0.14884920601009582474816284047847 971:1 2682:1 3258:1 4864:1 5205:1 #
-0.14884920601009582474816284047847 731:1 971:1 1816:1 1941:1 3397:1 3584:1 4320:1 #
0.14884920601009582474816284047847 971:1 3043:1 5253:1 #
0.14884920601009582474816284047847 256:1 866:1 971:1 2903:1 3076:1 3193:1 4396:1 4681:1 5189:1 #
0.14884920601009582474816284047847 96:1 553:1 971:1 3117:1 3193:1 3666:1 3968:1 4067:1 4646:1 5040:1 5253:1 #
0.14884920601009582474816284047847 32:1 133:1 489:1 971:1 1361:1 3193:1 3584:1 4323:1 4345:1 5027:1 5198:1 5380:1 #
-0.14884920601009582474816284047847 971:1 2543:1 2668:1 3519:1 5189:1 #
0.14884920601009582474816284047847 971:1 4442:1 5253:1 #
-0.14884920601009582474816284047847 32:1 33:1 106:1 198:1 731:1 971:1 2397:1 2432:1 2925:1 3642:1 3810:1 5228:1 5342:1 5691:1 #
-0.0085558708200397948911986034659094 32:1 621:1 971:1 3257:1 3584:1 3828:1 3908:1 4555:1 4958:1 4967:1 5519:1 5534:1 #
-0.14884920601009582474816284047847 492:1 971:1 1112:1 1821:1 2310:1 3451:1 3617:1 4681:1 4763:1 5299:1 #
-0.14884920601009582474816284047847 971:1 2042:1 5366:1 #
0.14884920601009582474816284047847 731:1 3249:1 3397:1 4967:1 #
0.14884920601009582474816284047847 108:1 889:1 902:1 971:1 1184:1 1438:1 1579:1 1864:1 1941:1 2023:1 2270:1 3188:1 3189:1 3193:1 3258:1 3288:1 3519:1 3566:1 3672:1 4331:1 4518:1 4542:1 5034:1 5125:1 5861:1 #
-0.071287133501999500051482527851476 469:1 971:1 2028:1 2773:1 3315:1 5125:1 5901:1 #
0.14884920601009582474816284047847 73:1 261:1 657:1 680:1 694:1 971:1 1937:1 1941:1 2023:1 2469:1 3092:1 3193:1 3519:1 4568:1 4693:1 4967:1 5250:1 5449:1 #
0.14884920601009582474816284047847 950:1 2023:1 2543:1 2668:1 3193:1 3258:1 4653:1 5162:1 5792:1 5848:1 #
-0.017072005896245447120751492775526 31:1 42:1 249:1 367:1 463:1 588:1 686:1 928:1 971:1 1176:1 1469:1 1783:1 1889:1 2671:1 2773:1 3066:1 3094:1 3188:1 3189:1 3431:1 3886:1 3959:1 4678:1 4837:1 5126:1 #
-0.14884920601009582474816284047847 561:1 971:1 1579:1 2543:1 3889:1 #
-0.14029259350698664032819351632497 307:1 888:1 971:1 1083:1 1188:1 2286:1 2766:1 #
-0.14884920601009582474816284047847 657:1 971:1 2668:1 3093:1 3193:1 3479:1 4436:1 5189:1 5399:1 5722:1 #
-0.14884920601009582474816284047847 37:1 564:1 966:1 971:1 1530:1 1613:1 1657:1 3189:1 3193:1 3519:1 3746:1 3821:1 5189:1 #
-0.14884920601009582474816284047847 1173:1 1423:1 1438:1 2023:1 3193:1 4518:1 4568:1 #
0.062027601347222974248474258729402 76:1 533:1 564:1 971:1 2640:1 2840:1 3193:1 3869:1 5253:1 5836:1 #
0.14884920601009582474816284047847 546:1 971:1 1712:1 5253:1 #
0.04167508196073660409197714216134 971:1 1006:1 1173:1 1475:1 1657:1 2010:1 2076:1 3257:1 3462:1 4115:1 4255:1 4500:1 4592:1 4701:1 4816:1 5189:1 5253:1 5439:1 5698:1 #
-0.11789739291096551498938538315997 971:1 1941:1 2028:1 3519:1 3778:1 4898:1 5189:1 5427:1 #
0.087900376451758299722882838977966 31:1 32:1 33:1 42:1 544:1 971:1 1415:1 1475:1 2010:1 2315:1 2530:1 2903:1 3462:1 3792:1 3843:1 4202:1 4517:1 4678:1 4701:1 4941:1 5106:1 #
-0.10638024713549049105054677966109 31:1 32:1 72:1 238:1 343:1 617:1 680:1 693:1 701:1 783:1 971:1 1173:1 1545:1 1816:1 1914:1 1941:1 2010:1 2691:1 3258:1 3397:1 3605:1 3828:1 4942:1 4970:1 #
-0.14725376104295098689256349189236 590:1 971:1 3815:1 4967:1 #
-0.14884920601009582474816284047847 971:1 1112:1 1914:1 2840:1 3347:1 5164:1 #
-0.07737393969103338597914643059994 31:1 32:1 33:1 39:1 41:1 42:1 621:1 698:1 781:1 830:1 923:1 971:1 1635:1 1941:1 2101:1 2128:1 2482:1 2543:1 2918:1 3026:1 3584:1 3683:1 4662:1 5132:1 5222:1 5253:1 5366:1 5479:1 5690:1 5861:1 #
0.0040323494083255410902477677836941 31:1 32:1 33:1 34:1 42:1 73:1 272:1 522:1 657:1 748:1 910:1 944:1 971:1 1429:1 1816:1 1873:1 1937:1 1941:1 2101:1 2483:1 3032:1 3034:1 3095:1 3258:1 3476:1 3559:1 3686:1 3849:1 3922:1 3968:1 3996:1 4354:1 4651:1 4662:1 4967:1 4999:1 5366:1 5439:1 5659:1 5750:1 #
0.14884920601009582474816284047847 971:1 1112:1 1941:1 2042:1 3193:1 3332:1 3641:1 4412:1 4681:1 #
0.14884920601009582474816284047847 731:1 971:1 1517:1 2603:1 2668:1 2850:1 3093:1 3193:1 3519:1 3815:1 4232:1 4360:1 4651:1 4967:1 #
0.1177634340888719932660677613967 731:1 971:1 1687:1 1767:1 2668:1 3093:1 3193:1 3743:1 4699:1 5884:1 #
0.10043472210385971654655890006325 903:1 971:1 1477:1 1560:1 1922:1 2182:1 2302:1 2530:1 3193:1 3762:1 3959:1 4967:1 5641:1 5675:1 5848:1 #
0.14884920601009582474816284047847 33:1 132:1 307:1 327:1 461:1 731:1 734:1 922:1 971:1 1161:1 1211:1 1681:1 2397:1 2406:1 2595:1 2993:1 3085:1 3188:1 3189:1 3193:1 3345:1 3406:1 3559:1 3585:1 3627:1 3909:1 4323:1 4681:1 4699:1 4703:1 5100:1 5198:1 5213:1 5568:1 5593:1 #
-0.14884920601009582474816284047847 307:1 379:1 485:1 486:1 657:1 971:1 1138:1 1506:1 2580:1 2668:1 2840:1 2903:1 3193:1 3332:1 3852:1 4651:1 4763:1 5164:1 5541:1 5593:1 #
-0.12288558197297526353164442980415 46:1 272:1 666:1 971:1 2185:1 3188:1 3189:1 3193:1 3387:1 3996:1 4393:1 4662:1 4681:1 4841:1 4967:1 5189:1 5198:1 5299:1 #
-0.08776980479631529830086833499081 268:1 639:1 945:1 971:1 1112:1 1339:1 1657:1 1681:1 2787:1 3026:1 3193:1 3257:1 3332:1 4228:1 4595:1 4749:1 #
-0.083256810748037382574615605790314 307:1 331:1 351:1 489:1 648:1 704:1 745:1 971:1 1161:1 1171:1 1466:1 1487:1 1937:1 2010:1 2345:1 3193:1 3249:1 3332:1 3345:1 3551:1 3605:1 3641:1 3922:1 4333:1 4345:1 4457:1 4581:1 4592:1 4646:1 4650:1 4660:1 4681:1 4881:1 4967:1 5029:1 5359:1 5437:1 5725:1 #
0.14884920601009582474816284047847 318:1 492:1 659:1 971:1 1937:1 1938:1 1941:1 1972:1 2412:1 2489:1 2825:1 3093:1 3933:1 4728:1 5106:1 5178:1 5391:1 5439:1 #
0.090624111339868793080221109903505 389:1 971:1 3397:1 #
-0.14884920601009582474816284047847 122:1 731:1 971:1 2527:1 2993:1 3093:1 3524:1 4498:1 5142:1 #
0.14884920601009582474816284047847 801:1 1046:1 1938:1 2023:1 2543:1 3258:1 3324:1 3992:1 4540:1 5175:1 #
-0.14884920601009582474816284047847 971:1 1171:1 2773:1 2942:1 3778:1 4202:1 4345:1 4967:1 4974:1 5189:1 #
-0.12996215620727413764257107686717 31:1 233:1 1173:1 1841:1 1941:1 2023:1 3519:1 3584:1 4202:1 4871:1 5848:1 #
-0.14884920601009582474816284047847 694:1 1414:1 1941:1 2023:1 2439:1 2918:1 3476:1 3778:1 3959:1 4914:1 4974:1 5162:1 5181:1 5213:1 5848:1 #
-0.14884920601009582474816284047847 33:1 1941:1 2023:1 5848:1 #
-0.049601930896679871652033000373194 1941:1 2023:1 2530:1 4320:1 4906:1 #
-0.14884920601009582474816284047847 701:1 781:1 903:1 971:1 1536:1 1560:1 1603:1 1882:1 1937:1 1938:1 1941:1 2098:1 2128:1 2207:1 2840:1 3239:1 3258:1 3397:1 3738:1 4312:1 4967:1 5137:1 5433:1 5908:1 #
0.14426130200848921725231832624559 274:1 379:1 534:1 731:1 971:1 1112:1 1641:1 1690:1 2343:1 2543:1 2993:1 3193:1 3332:1 3397:1 4662:1 4769:1 5164:1 5242:1 5253:1 #
0.14884920601009582474816284047847 731:1 971:1 2366:1 2668:1 3193:1 3397:1 4681:1 4699:1 4967:1 5198:1 5439:1 5593:1 #
0.14884920601009582474816284047847 307:1 501:1 662:1 971:1 3460:1 5164:1 #
0.14884920601009582474816284047847 32:1 33:1 37:1 73:1 563:1 648:1 657:1 971:1 1602:1 1712:1 1900:1 1937:1 2075:1 2872:1 3189:1 3193:1 3315:1 3409:1 3584:1 4470:1 4681:1 4967:1 5090:1 5092:1 5178:1 5198:1 5456:1 5568:1 5698:1 #
-0.14884920601009582474816284047847 33:1 971:1 2713:1 3584:1 5198:1 #
-0.14884920601009582474816284047847 261:1 731:1 971:1 1158:1 2904:1 3193:1 3519:1 #
-0.092043574114563514454445680712524 971:1 2076:1 3258:1 4149:1 #
-0.14884920601009582474816284047847 42:1 110:1 971:1 1173:1 1642:1 1937:1 2131:1 2810:1 3091:1 3193:1 3519:1 3869:1 4177:1 4592:1 4744:1 5683:1 #
-0.14884920601009582474816284047847 971:1 1240:1 2543:1 2738:1 2959:1 2993:1 3258:1 #
-0.039975727563914230378028236145838 971:1 1608:1 4555:1 #
0.14884920601009582474816284047847 1173:1 1941:1 2023:1 2028:1 3034:1 4522:1 4958:1 5299:1 #
0.14884920601009582474816284047847 351:1 1113:1 1941:1 2023:1 2075:1 2319:1 3476:1 #
0.14884920601009582474816284047847 903:1 1941:1 2023:1 3108:1 4898:1 5189:1 #
0.14884920601009582474816284047847 1064:1 1914:1 1941:1 2023:1 4057:1 #
-0.10903098436561191320048891384431 662:1 686:1 1914:1 1922:1 2023:1 2469:1 3189:1 3584:1 3882:1 4057:1 4701:1 4838:1 5195:1 #
-0.14884920601009582474816284047847 1914:1 1941:1 2023:1 3889:1 5253:1 #
-0.14884920601009582474816284047847 1641:1 1767:1 1941:1 2023:1 3027:1 3093:1 3288:1 #
-0.14884920601009582474816284047847 1467:1 1941:1 2023:1 3926:1 4359:1 5189:1 5349:1 5848:1 5883:1 #
-0.14884920601009582474816284047847 1941:1 2023:1 3397:1 4778:1 5342:1 #
-0.14884920601009582474816284047847 971:1 1382:1 1937:1 1938:1 2993:1 4681:1 5059:1 5189:1 #
0.14884920601009582474816284047847 96:1 731:1 971:1 990:1 1055:1 1613:1 1834:1 2066:1 2179:1 2773:1 3193:1 3258:1 3519:1 3614:1 3723:1 4294:1 4592:1 4646:1 4758:1 4833:1 4855:1 4967:1 5253:1 #
0.14884920601009582474816284047847 284:1 657:1 901:1 971:1 1602:1 2042:1 2401:1 2668:1 2840:1 3091:1 3193:1 3258:1 3519:1 4281:1 4343:1 4681:1 5091:1 #
0.073797415328960475067177071650804 41:1 42:1 96:1 387:1 634:1 971:1 1044:1 1105:1 1495:1 1518:1 1559:1 1657:1 1687:1 1722:1 2066:1 2101:1 2148:1 2592:1 2807:1 3193:1 3232:1 3379:1 3519:1 3559:1 3563:1 3564:1 3571:1 4074:1 4360:1 4592:1 4646:1 4681:1 5189:1 5198:1 5517:1 #
-0.14884920601009582474816284047847 971:1 1571:1 1941:1 3093:1 3193:1 3968:1 5189:1 5439:1 #
-0.14884920601009582474816284047847 353:1 397:1 561:1 971:1 1112:1 1938:1 2543:1 2668:1 3193:1 3258:1 3628:1 4294:1 4393:1 4646:1 4699:1 5091:1 5253:1 5333:1 5399:1 5885:1 #
-0.12854201664112427372366198596865 436:1 659:1 788:1 971:1 1106:1 1152:1 1222:1 1909:1 1938:1 1993:1 1999:1 2773:1 2985:1 3232:1 3249:1 3258:1 3345:1 3886:1 3908:1 4393:1 4399:1 4517:1 4637:1 4919:1 4967:1 5029:1 5050:1 5178:1 5213:1 5299:1 #
0.14884920601009582474816284047847 351:1 569:1 971:1 2840:1 #
0.14884920601009582474816284047847 971:1 2668:1 2824:1 #
-0.14884920601009582474816284047847 72:1 971:1 3193:1 3258:1 4294:1 4681:1 4980:1 5189:1 5253:1 #
0.14884920601009582474816284047847 2023:1 3095:1 3584:1 4662:1 4701:1 5366:1 5848:1 #
0.14884920601009582474816284047847 164:1 2023:1 2787:1 5213:1 5848:1 #
0.14884920601009582474816284047847 971:1 1941:1 2023:1 2787:1 3193:1 4634:1 4681:1 4701:1 #
0.14884920601009582474816284047847 165:1 2023:1 3959:1 5848:1 #
0.14884920601009582474816284047847 781:1 2023:1 3974:1 4778:1 #
-0.14884920601009582474816284047847 657:1 1064:1 1367:1 2023:1 3397:1 4701:1 #
0.011847177717490008780343302419169 734:1 881:1 971:1 #
-0.14884920601009582474816284047847 48:1 469:1 622:1 648:1 1941:1 2023:1 2028:1 3108:1 3205:1 4958:1 4967:1 #
-0.14884920601009582474816284047847 1064:1 2023:1 2962:1 4069:1 4701:1 5228:1 #
0.085842623687977875901466973118659 720:1 971:1 1015:1 1134:1 1167:1 1536:1 1642:1 1951:1 2131:1 2223:1 2312:1 2314:1 2668:1 3010:1 3193:1 3258:1 3375:1 3548:1 3584:1 3909:1 4152:1 4517:1 4577:1 5691:1 #
0.10948575021125561690382710366976 584:1 971:1 1489:1 1579:1 1941:1 1951:1 2037:1 2432:1 2593:1 2634:1 2773:1 3026:1 3258:1 4118:1 4149:1 4207:1 4604:1 4624:1 4646:1 5189:1 5253:1 5589:1 5732:1 5751:1 #
-0.14884920601009582474816284047847 971:1 2993:1 #
0.14884920601009582474816284047847 764:1 971:1 2528:1 2668:1 3193:1 3246:1 3258:1 4074:1 4517:1 5253:1 #
0.14884920601009582474816284047847 261:1 971:1 1183:1 1864:1 3193:1 3559:1 3778:1 4323:1 4854:1 5189:1 5480:1 5750:1 5885:1 #
-0.11824633933652804740344066658508 140:1 971:1 3503:1 5813:1 #
-0.0055005076150419730460217060397099 41:1 698:1 971:1 1166:1 1699:1 1926:1 1941:1 1951:1 2075:1 2092:1 2101:1 2131:1 2281:1 2668:1 2879:1 3193:1 3315:1 3339:1 3462:1 4177:1 4517:1 4798:1 5078:1 5444:1 5665:1 #
-0.14884920601009582474816284047847 971:1 1064:1 4701:1 5213:1 #
-0.14884920601009582474816284047847 338:1 971:1 1126:1 1183:1 1240:1 1698:1 1936:1 1976:1 2568:1 2828:1 3193:1 3258:1 3889:1 4232:1 4269:1 4592:1 #
-0.0058245973145504767454205818921764 971:1 1635:1 2030:1 3695:1 4736:1 #
0.016052234478039731357945640866092 469:1 2023:1 3886:1 4098:1 5213:1 #
0.14884920601009582474816284047847 662:1 1064:1 2023:1 4701:1 5126:1 #
0.14884920601009582474816284047847 2023:1 2543:1 3889:1 4555:1 #
-0.14884920601009582474816284047847 2023:1 2543:1 3246:1 4778:1 4878:1 5848:1 #
-0.14884920601009582474816284047847 534:1 764:1 2023:1 2543:1 5253:1 #
-0.14884920601009582474816284047847 307:1 443:1 2023:1 2543:1 5253:1 #
-0.14884920601009582474816284047847 2023:1 2543:1 4986:1 5253:1 5848:1 #
-0.14884920601009582474816284047847 493:1 2023:1 2543:1 5253:1 #
0.14884920601009582474816284047847 422:1 485:1 486:1 563:1 648:1 660:1 893:1 903:1 971:1 1038:1 1092:1 1135:1 1626:1 1657:1 1793:1 1941:1 2333:1 2543:1 2657:1 2668:1 2801:1 3082:1 3193:1 3379:1 3519:1 3527:1 3627:1 3667:1 3797:1 3959:1 3994:1 4018:1 4160:1 4294:1 4331:1 4393:1 4517:1 5174:1 5312:1 5725:1 #
0.14884920601009582474816284047847 32:1 48:1 188:1 473:1 564:1 731:1 766:1 971:1 1381:1 1660:1 1827:1 1941:1 2042:1 2471:1 3188:1 3189:1 3193:1 3196:1 3205:1 3519:1 3584:1 3649:1 4484:1 4917:1 5142:1 5461:1 #
0.14884920601009582474816284047847 971:1 1158:1 1641:1 1657:1 1941:1 2010:1 2477:1 2993:1 3193:1 4681:1 5353:1 #
0.14884920601009582474816284047847 32:1 971:1 996:1 1433:1 1764:1 1968:1 2397:1 2668:1 2795:1 3193:1 3205:1 3950:1 4554:1 #
0.0029278231517638358440136503446638 40:1 307:1 648:1 745:1 971:1 1071:1 1712:1 3193:1 3288:1 4651:1 4681:1 5213:1 5380:1 #
-0.14884920601009582474816284047847 32:1 33:1 199:1 472:1 673:1 731:1 971:1 1941:1 3108:1 3188:1 3193:1 3397:1 3519:1 5189:1 5198:1 #
-0.097039095842447492534788011653291 12:1 52:1 188:1 221:1 472:1 490:1 583:1 731:1 806:1 940:1 971:1 1176:1 1538:1 1573:1 1764:1 1772:1 1922:1 2098:1 2134:1 2397:1 2668:1 2691:1 2827:1 2886:1 3193:1 3263:1 3413:1 3566:1 3778:1 3962:1 3974:1 4186:1 4246:1 4412:1 4451:1 4589:1 4646:1 4920:1 4967:1 4974:1 5040:1 5399:1 5491:1 5513:1 5725:1 #
-0.14884920601009582474816284047847 971:1 2263:1 5877:1 #
-0.14884920601009582474816284047847 301:1 971:1 1941:1 2587:1 3188:1 3332:1 3519:1 4701:1 5189:1 5213:1 5848:1 #
-0.14884920601009582474816284047847 564:1 766:1 971:1 2422:1 2840:1 3193:1 3519:1 4161:1 4555:1 5189:1 5198:1 #
-0.055736252533478039539183157558 553:1 2801:1 4517:1 #
0.14884920601009582474816284047847 2023:1 2543:1 3889:1 4382:1 5253:1 #
-0.10425574378763929894731177228095 971:1 1937:1 2010:1 3120:1 3519:1 4067:1 4800:1 4973:1 5212:1 5290:1 #
-0.014816208455655876727319331109811 971:1 3306:1 4323:1 4967:1 5253:1 #
-0.14884920601009582474816284047847 434:1 477:1 764:1 971:1 2543:1 4699:1 #
-0.14884920601009582474816284047847 2023:1 4703:1 4967:1 5750:1 #
-0.14884920601009582474816284047847 2023:1 2101:1 2530:1 5253:1 #
-0.14884920601009582474816284047847 218:1 971:1 5519:1 #
-0.14884920601009582474816284047847 1598:1 2023:1 2773:1 3849:1 4872:1 4967:1 #
-0.14429112547556904866397076148132 971:1 1475:1 2281:1 4701:1 #
0.050190270028543267077925094099555 33:1 2023:1 3397:1 4778:1 #
0.14884920601009582474816284047847 164:1 971:1 1370:1 3030:1 3188:1 3189:1 3193:1 3519:1 3968:1 4323:1 4592:1 5189:1 5213:1 #
-0.14884920601009582474816284047847 970:1 971:1 1361:1 5380:1 #
0.039002546316996108966002054785349 96:1 353:1 397:1 686:1 942:1 971:1 1112:1 1173:1 1937:1 2054:1 2148:1 3193:1 3519:1 3738:1 4312:1 4646:1 4896:1 5120:1 5189:1 5213:1 5480:1 #
0.14884920601009582474816284047847 96:1 971:1 1941:1 2084:1 3193:1 4646:1 5189:1 5198:1 5439:1 #
-0.14884920601009582474816284047847 96:1 463:1 575:1 686:1 971:1 2773:1 2956:1 3193:1 3540:1 3959:1 4048:1 4348:1 4646:1 5189:1 5433:1 #
-0.14884920601009582474816284047847 96:1 971:1 1941:1 2045:1 2492:1 3193:1 3968:1 4646:1 4651:1 #
-0.066331771769700925700519178462855 96:1 504:1 903:1 971:1 3193:1 4646:1 4681:1 5189:1 5420:1 5439:1 5721:1 #
0.041106214334777228802675352881124 971:1 5054:1 5519:1 #
0.14884920601009582474816284047847 2023:1 3091:1 4701:1 5848:1 #
0.097150395682886664383559605084884 81:1 469:1 2023:1 2543:1 2587:1 2985:1 3996:1 4967:1 5701:1 5848:1 #
-0.14646440979719679842396828917117 164:1 866:1 2023:1 2181:1 2543:1 5848:1 #
-0.049910165228304076423526680628129 513:1 662:1 1657:1 2023:1 4701:1 5333:1 #
-0.1280547542176539155267533942606 971:1 1657:1 1864:1 3815:1 4878:1 4971:1 #
-0.0020798221262061894303030396002896 731:1 2874:1 3826:1 4555:1 4863:1 4967:1 #
-0.14884920601009582474816284047847 662:1 2023:1 4701:1 #
0.14884920601009582474816284047847 41:1 232:1 564:1 629:1 971:1 1311:1 1392:1 1707:1 2122:1 3193:1 3332:1 3723:1 3732:1 3734:1 3998:1 4646:1 4681:1 #
-0.14884920601009582474816284047847 971:1 1941:1 3257:1 3397:1 #
0.027261690001572178032596127650322 72:1 282:1 490:1 971:1 1529:1 2092:1 2993:1 3193:1 3756:1 4099:1 4442:1 4646:1 5040:1 #
0.07559346984189314888613608900414 31:1 971:1 989:1 1208:1 1209:1 1610:1 1635:1 1938:1 2015:1 2101:1 2131:1 2492:1 3193:1 3258:1 3584:1 3617:1 3663:1 3876:1 3915:1 4026:1 4343:1 4457:1 4651:1 5224:1 5325:1 5420:1 #
0.14884920601009582474816284047847 33:1 96:1 553:1 648:1 657:1 971:1 3030:1 3193:1 4646:1 4681:1 5189:1 5380:1 5439:1 5593:1 #
-0.14884920601009582474816284047847 109:1 489:1 701:1 971:1 1162:1 2361:1 2494:1 2985:1 3193:1 3258:1 4124:1 4294:1 4554:1 4681:1 4913:1 5189:1 #
0.0022395205873662810992785754393708 971:1 1641:1 2006:1 2959:1 #
-0.14884920601009582474816284047847 32:1 72:1 971:1 2401:1 2543:1 2668:1 3026:1 3193:1 4412:1 4760:1 4967:1 5100:1 5253:1 #
-0.14884920601009582474816284047847 971:1 2242:1 2668:1 3193:1 4662:1 4681:1 5189:1 5213:1 #
0.14884920601009582474816284047847 1816:1 2023:1 3519:1 4320:1 #
0.14884920601009582474816284047847 2023:1 3786:1 4323:1 4967:1 #
0.14884920601009582474816284047847 2023:1 2710:1 4701:1 #
0.14884920601009582474816284047847 2023:1 4701:1 5022:1 #
-0.045188676732785627854216414789335 971:1 1673:1 2101:1 2491:1 3258:1 4010:1 4592:1 4681:1 4958:1 #
0.14884920601009582474816284047847 343:1 500:1 564:1 885:1 971:1 1657:1 1864:1 1882:1 1922:1 1940:1 1941:1 2201:1 2345:1 2469:1 2470:1 2543:1 2668:1 3043:1 3108:1 3451:1 4107:1 4182:1 4393:1 4514:1 4651:1 4967:1 5519:1 5856:1 #
0.14884920601009582474816284047847 971:1 1571:1 1941:1 2098:1 2668:1 3193:1 5189:1 5228:1 #
-0.14884920601009582474816284047847 1941:1 2023:1 3196:1 4098:1 4967:1 5342:1 #
-0.0071930246882544674261183992314272 127:1 449:1 731:1 971:1 1222:1 2010:1 2917:1 2962:1 3193:1 4555:1 4883:1 5198:1 5222:1 5253:1 #
-0.14884920601009582474816284047847 1941:1 2023:1 4098:1 5519:1 #
0.10720659123732531603501172412507 301:1 489:1 561:1 708:1 971:1 1038:1 1460:1 1715:1 1767:1 1888:1 2075:1 2098:1 2391:1 2530:1 2543:1 2730:1 2787:1 2840:1 2925:1 3075:1 3092:1 3093:1 3288:1 3315:1 3593:1 3605:1 4202:1 4323:1 4512:1 4618:1 4665:1 4887:1 4967:1 5126:1 5198:1 5222:1 5242:1 5299:1 5810:1 5853:1 5885:1 #
0.14884920601009582474816284047847 469:1 731:1 3328:1 #
0.14884920601009582474816284047847 32:1 73:1 177:1 276:1 731:1 971:1 2488:1 2543:1 2681:1 2840:1 3188:1 3189:1 3193:1 3258:1 4967:1 5202:1 5253:1 #
0.07235142125064566998027260069648 731:1 1261:1 1722:1 2098:1 2668:1 2728:1 2891:1 3193:1 3258:1 3572:1 3743:1 4153:1 4517:1 4646:1 5253:1 #
0.14884920601009582474816284047847 971:1 1811:1 2668:1 3397:1 #
0.14884920601009582474816284047847 2023:1 5054:1 5100:1 5519:1 5855:1 #
-0.14884920601009582474816284047847 31:1 32:1 72:1 120:1 358:1 460:1 493:1 561:1 731:1 971:1 1369:1 2093:1 3188:1 3189:1 3193:1 3472:1 4238:1 4393:1 4646:1 4900:1 5029:1 5189:1 5253:1 5376:1 #
-0.035684675386223253801265542506371 971:1 982:1 1657:1 1704:1 1764:1 2023:1 2395:1 3043:1 3062:1 3193:1 3258:1 3868:1 4442:1 4555:1 4646:1 4664:1 4712:1 4967:1 5907:1 #
-0.14884920601009582474816284047847 2023:1 4555:1 4701:1 4967:1 #
0.14884920601009582474816284047847 971:1 1941:1 3120:1 4681:1 #
0.14884920601009582474816284047847 971:1 1941:1 3519:1 4681:1 #
0.14884920601009582474816284047847 971:1 1941:1 2281:1 4681:1 #
0.14884920601009582474816284047847 1055:1 1941:1 2023:1 3120:1 4255:1 #
0.14884920601009582474816284047847 971:1 1941:1 4681:1 5342:1 #
-0.14884920601009582474816284047847 971:1 1536:1 1864:1 1979:1 2098:1 2993:1 3098:1 3288:1 3519:1 4294:1 4681:1 5106:1 5299:1 5339:1 5698:1 #
-0.14884920601009582474816284047847 971:1 1173:1 2098:1 2668:1 4294:1 4517:1 4681:1 5299:1 #
0.03116391263738488986989594309307 96:1 217:1 252:1 561:1 971:1 1657:1 2279:1 2350:1 3054:1 3193:1 3999:1 4324:1 4592:1 4646:1 5189:1 #
-0.14884920601009582474816284047847 971:1 1972:1 3724:1 4010:1 4681:1 5189:1 5253:1 #
-0.11676988646970974661254416560041 971:1 975:1 1941:1 2028:1 3108:1 3559:1 4531:1 4970:1 5380:1 #
0.14884920601009582474816284047847 460:1 489:1 731:1 843:1 971:1 1941:1 2023:1 2093:1 2163:1 3076:1 3152:1 3172:1 3193:1 3258:1 4048:1 4294:1 4350:1 4568:1 4967:1 4986:1 5213:1 5439:1 #
0.098411763345624264642808043390687 1346:1 2023:1 3786:1 4967:1 #
0.14884920601009582474816284047847 108:1 472:1 569:1 634:1 971:1 1145:1 1941:1 2430:1 2668:1 2942:1 3193:1 4555:1 4939:1 4967:1 5125:1 5471:1 5577:1 #
-0.14884920601009582474816284047847 971:1 2543:1 3340:1 5253:1 #
-0.14884920601009582474816284047847 902:1 924:1 1864:1 1937:1 2792:1 3076:1 3193:1 4348:1 4555:1 4967:1 5253:1 #
-0.14884920601009582474816284047847 731:1 971:1 1941:1 1967:1 2023:1 3193:1 4651:1 4967:1 #
-0.14884920601009582474816284047847 731:1 1941:1 3034:1 3093:1 3193:1 3397:1 4967:1 #
-0.067067798397442576763261001815408 52:1 117:1 731:1 950:1 1089:1 1938:1 1941:1 2113:1 2323:1 2543:1 2689:1 2774:1 3120:1 3188:1 3189:1 3476:1 3522:1 3584:1 3703:1 3953:1 3968:1 4261:1 4331:1 4470:1 4592:1 4758:1 4974:1 5089:1 5095:1 5253:1 5399:1 5665:1 5683:1 5701:1 5866:1 #
0.14884920601009582474816284047847 31:1 32:1 33:1 165:1 307:1 657:1 971:1 1098:1 1173:1 1176:1 1374:1 1642:1 1941:1 1951:1 2131:1 2530:1 3108:1 3460:1 3648:1 3778:1 3838:1 4240:1 4360:1 4804:1 4898:1 4974:1 5060:1 5189:1 5198:1 5634:1 5701:1 #
-0.14884920601009582474816284047847 569:1 731:1 886:1 971:1 1952:1 2093:1 3996:1 5333:1 #
0.14884920601009582474816284047847 971:1 2787:1 3908:1 4681:1 4958:1 5189:1 5213:1 5399:1 #
0.14884920601009582474816284047847 971:1 1867:1 2300:1 2938:1 3193:1 4010:1 4225:1 4294:1 4587:1 4681:1 5718:1 #
0.14884920601009582474816284047847 971:1 2347:1 3397:1 3908:1 4681:1 5198:1 5669:1 #
-0.14884920601009582474816284047847 971:1 1932:1 5198:1 #
-0.14884920601009582474816284047847 32:1 357:1 971:1 2066:1 2543:1 3451:1 3455:1 5189:1 #
-0.14884920601009582474816284047847 971:1 1161:1 4681:1 5100:1 5253:1 5439:1 #
0.14884920601009582474816284047847 971:1 2477:1 3397:1 5353:1 5519:1 #
0.014544776883693918967388469809521 971:1 1349:1 1878:1 2492:1 2691:1 3032:1 3193:1 3258:1 3519:1 3894:1 4047:1 5189:1 #
0.14884920601009582474816284047847 33:1 45:1 673:1 731:1 971:1 1608:1 1625:1 1711:1 1816:1 1864:1 1937:1 1941:1 1951:1 2075:1 2098:1 2469:1 2580:1 2993:1 3078:1 3095:1 3138:1 3280:1 3332:1 3397:1 3455:1 3647:1 4542:1 4662:1 4682:1 5242:1 5299:1 #
0.076147817186670102573842200399667 351:1 469:1 617:1 731:1 971:1 1941:1 2334:1 3093:1 3193:1 3397:1 4906:1 4967:1 #
0.14884920601009582474816284047847 731:1 971:1 1937:1 1941:1 1962:1 2023:1 2773:1 3193:1 3397:1 4153:1 4850:1 4967:1 #
-0.078909103330591867653254212200409 63:1 558:1 731:1 971:1 1687:1 1941:1 2374:1 3189:1 3193:1 3249:1 3258:1 3288:1 3397:1 3482:1 3559:1 3797:1 4323:1 4493:1 4586:1 5299:1 5370:1 5723:1 #
0.1162326525272143334932550828853 971:1 1938:1 2489:1 4243:1 4967:1 5253:1 #
-0.12239281110575672695262028355501 318:1 731:1 971:1 1937:1 2057:1 3193:1 3397:1 4323:1 4521:1 4967:1 #
0.14884920601009582474816284047847 971:1 3419:1 4967:1 #
-0.14884920601009582474816284047847 731:1 971:1 1941:1 2023:1 3193:1 3397:1 5439:1 5848:1 #
0.14884920601009582474816284047847 367:1 982:1 2023:1 3491:1 3519:1 4331:1 4555:1 4778:1 5125:1 5198:1 5380:1 #
0.044662824704254429353245114953097 120:1 534:1 971:1 1712:1 2919:1 3188:1 3189:1 3839:1 4592:1 4646:1 #
0.1184267481781147851593871678233 971:1 3868:1 3996:1 4760:1 4863:1 5253:1 #
0.14884920601009582474816284047847 602:1 971:1 1173:1 1613:1 2098:1 2456:1 3229:1 3393:1 3519:1 3685:1 4051:1 4087:1 4121:1 5181:1 5253:1 5276:1 5357:1 #
0.14884920601009582474816284047847 31:1 971:1 1375:1 2959:1 4967:1 5433:1 5472:1 #
-0.061448238051942175030895043619239 501:1 971:1 1922:1 1955:1 2075:1 2469:1 2543:1 2668:1 2958:1 3328:1 5090:1 #
-0.14884920601009582474816284047847 469:1 648:1 971:1 2028:1 3189:1 4517:1 4592:1 5397:1 #
-0.14884920601009582474816284047847 971:1 2151:1 2472:1 2814:1 3627:1 3756:1 3876:1 4294:1 5100:1 5213:1 5253:1 5503:1 5890:1 #
-0.14884920601009582474816284047847 108:1 971:1 2543:1 4331:1 5253:1 5471:1 #
-0.14884920601009582474816284047847 689:1 971:1 1642:1 1951:1 2131:1 2543:1 3188:1 3189:1 3584:1 3797:1 5253:1 #
0.14884920601009582474816284047847 731:1 752:1 971:1 1106:1 1657:1 1914:1 1941:1 2543:1 2938:1 3043:1 3093:1 3193:1 3889:1 4555:1 4681:1 #
0.081456780843592105356698596096976 561:1 731:1 971:1 1142:1 1283:1 2812:1 2938:1 3459:1 3999:1 4014:1 5198:1 5299:1 5725:1 #
0.14884920601009582474816284047847 17:1 511:1 731:1 971:1 3139:1 3193:1 4967:1 5043:1 5189:1 5439:1 5721:1 #
0.14884920601009582474816284047847 50:1 406:1 731:1 971:1 1941:1 2374:1 3193:1 3642:1 3797:1 4967:1 5189:1 #
0.14884920601009582474816284047847 731:1 971:1 3193:1 3397:1 4798:1 5158:1 5439:1 #
-0.14884920601009582474816284047847 372:1 731:1 785:1 971:1 2148:1 3085:1 3193:1 3837:1 4681:1 4967:1 5100:1 5189:1 #
-0.14884920601009582474816284047847 32:1 33:1 97:1 642:1 731:1 971:1 1584:1 1941:1 2101:1 2942:1 3120:1 3193:1 3397:1 3451:1 3559:1 3584:1 3849:1 4017:1 4331:1 4681:1 5189:1 #
0.14884920601009582474816284047847 971:1 1641:1 4939:1 #
0.14884920601009582474816284047847 81:1 971:1 1083:1 1112:1 1173:1 1864:1 1941:1 2028:1 3250:1 3332:1 3815:1 4087:1 4854:1 5029:1 5131:1 5213:1 5253:1 5451:1 5534:1 #
-0.14884920601009582474816284047847 165:1 971:1 4348:1 #
-0.14884920601009582474816284047847 971:1 1473:1 5901:1 #
0.036914372364794209580018957694847 42:1 1427:1 2023:1 3188:1 3584:1 4294:1 5253:1 #
0.14884920601009582474816284047847 2668:1 3076:1 4699:1 #
-0.14884920601009582474816284047847 971:1 2668:1 4517:1 4555:1 4967:1 #
-0.14884920601009582474816284047847 971:1 2668:1 3976:1 5213:1 #
0.14884920601009582474816284047847 469:1 648:1 731:1 971:1 1105:1 1941:1 2028:1 2030:1 2093:1 2127:1 2281:1 2343:1 2993:1 3193:1 3288:1 4331:1 4736:1 4870:1 4906:1 5189:1 5198:1 5439:1 #
0.14884920601009582474816284047847 32:1 722:1 731:1 971:1 1642:1 1951:1 2131:1 2904:1 2950:1 3085:1 3193:1 3909:1 #
0.14884920601009582474816284047847 971:1 1006:1 1864:1 2493:1 3193:1 3420:1 3519:1 4681:1 5189:1 5198:1 5228:1 5683:1 5879:1 #
0.14884920601009582474816284047847 492:1 795:1 971:1 1031:1 1540:1 1937:1 1941:1 2010:1 3193:1 3988:1 4841:1 5372:1 #
0.09085370773499826246855093359045 58:1 417:1 648:1 1173:1 1914:1 2023:1 2989:1 3409:1 4406:1 5213:1 5470:1 5631:1 5861:1 #
-0.14884920601009582474816284047847 164:1 971:1 988:1 1173:1 1957:1 3193:1 3519:1 4145:1 4592:1 4967:1 5253:1 5568:1 5624:1 5683:1 #
-0.14884920601009582474816284047847 971:1 3257:1 #
-0.12890993675106382498896095967211 971:1 1334:1 1370:1 1710:1 1816:1 1937:1 1941:1 2668:1 3193:1 3205:1 3425:1 4320:1 4592:1 4883:1 5189:1 5568:1 #
0.14884920601009582474816284047847 318:1 2023:1 3725:1 4693:1 5195:1 5270:1 #
0.14884920601009582474816284047847 731:1 980:1 2189:1 2424:1 3258:1 4118:1 4323:1 4592:1 4967:1 #
0.14884920601009582474816284047847 731:1 2543:1 4555:1 #
0.05804882341467996337280865759567 971:1 4370:1 5253:1 5620:1 #
-0.14884920601009582474816284047847 50:1 731:1 1031:1 1249:1 2220:1 3120:1 4999:1 5461:1 #
-0.14884920601009582474816284047847 213:1 971:1 3093:1 4662:1 5366:1 #
-0.14884920601009582474816284047847 971:1 4681:1 5213:1 5380:1 5399:1 #
0.068840957536846283937315149614733 797:1 971:1 1607:1 3026:1 3258:1 4592:1 4681:1 4898:1 4967:1 5189:1 #
-0.14884920601009582474816284047847 971:1 1941:1 5253:1 #
0.14884920601009582474816284047847 971:1 1941:1 2668:1 3193:1 4681:1 5189:1 5399:1 #
0.14884920601009582474816284047847 971:1 4132:1 4967:1 #
0.14884920601009582474816284047847 971:1 1941:1 2253:1 3193:1 3258:1 3460:1 4348:1 4878:1 #
-0.14884920601009582474816284047847 657:1 971:1 2468:1 2668:1 2889:1 3046:1 3193:1 3479:1 4681:1 5189:1 5399:1 #
-0.026801847546078477746434032269462 966:1 971:1 1106:1 1613:1 1941:1 3030:1 3332:1 3537:1 3584:1 4360:1 4465:1 4977:1 5189:1 #
-0.045930753167231261335778924603801 971:1 1571:1 1914:1 1938:1 1941:1 2543:1 3093:1 3193:1 4031:1 5189:1 5650:1 #
-0.084835031582818742901253017407726 384:1 707:1 971:1 3519:1 4736:1 4798:1 #
-0.14884920601009582474816284047847 971:1 2493:1 3193:1 4681:1 5189:1 5439:1 #
0.14884920601009582474816284047847 731:1 1914:1 2543:1 3889:1 4555:1 #
-0.00539785560126110081774486459949 971:1 2668:1 3193:1 4568:1 4662:1 4681:1 5189:1 5399:1 5431:1 #
0.14884920601009582474816284047847 731:1 1914:1 2543:1 4057:1 4555:1 #
0.065862638301954518071923416755453 971:1 3193:1 3563:1 4878:1 5189:1 5198:1 #
-0.14884920601009582474816284047847 971:1 1914:1 2543:1 2580:1 3258:1 3889:1 5253:1 5861:1 #
-0.14884920601009582474816284047847 1914:1 2023:1 2543:1 3889:1 4253:1 #
0.14884920601009582474816284047847 436:1 971:1 1173:1 1523:1 1571:1 1938:1 1941:1 2530:1 2975:1 3076:1 3093:1 3193:1 3462:1 4252:1 4572:1 5189:1 #
0.14884920601009582474816284047847 472:1 971:1 1361:1 1698:1 1941:1 3157:1 3193:1 3998:1 4015:1 4681:1 5189:1 5342:1 #
0.14884920601009582474816284047847 32:1 33:1 126:1 971:1 1635:1 1970:1 2042:1 2393:1 2530:1 2993:1 3030:1 3093:1 3193:1 3519:1 4572:1 4662:1 5189:1 5198:1 5253:1 5722:1 #
0.14884920601009582474816284047847 425:1 764:1 971:1 2493:1 3193:1 4331:1 4681:1 5189:1 5198:1 5380:1 #
0.14884920601009582474816284047847 307:1 971:1 1157:1 1173:1 1570:1 1638:1 1941:1 2492:1 2993:1 3085:1 3093:1 3193:1 3724:1 4517:1 4681:1 5189:1 5299:1 #
-0.06098622604298220561958032703842 415:1 600:1 971:1 1816:1 2397:1 2432:1 2532:1 2787:1 3257:1 3345:1 3517:1 3829:1 3908:1 4926:1 5021:1 #
-0.14884920601009582474816284047847 467:1 648:1 971:1 2098:1 3193:1 4681:1 5189:1 5198:1 5593:1 #
0.14884920601009582474816284047847 657:1 971:1 2042:1 2668:1 3095:1 3193:1 4662:1 5189:1 5399:1 #
-0.14884920601009582474816284047847 971:1 2543:1 2668:1 4982:1 5253:1 #
0.14884920601009582474816284047847 731:1 1914:1 3889:1 4294:1 5253:1 5431:1 #
0.14884920601009582474816284047847 971:1 1914:1 2543:1 3889:1 4555:1 #
0.14884920601009582474816284047847 971:1 1914:1 3889:1 4294:1 5253:1 #
-0.14884920601009582474816284047847 1173:1 1914:1 3076:1 3889:1 4555:1 #
-0.072883198707409654892863670738734 731:1 1914:1 4057:1 4555:1 #
-0.14884920601009582474816284047847 42:1 731:1 1976:1 3258:1 3584:1 4294:1 4555:1 5125:1 #
-0.037838012526774739141544046105992 971:1 2815:1 3908:1 4681:1 5021:1 #
-0.14884920601009582474816284047847 971:1 1210:1 2891:1 4555:1 5299:1 #
0.14884920601009582474816284047847 188:1 397:1 731:1 971:1 1161:1 1222:1 1252:1 1330:1 1527:1 1593:1 1922:1 2247:1 2477:1 2809:1 2886:1 3188:1 3189:1 3193:1 3501:1 3909:1 4066:1 4681:1 4927:1 5189:1 5691:1 5792:1 #
-0.094817775121166555929441699390736 31:1 34:1 251:1 489:1 511:1 715:1 731:1 1173:1 1183:1 1656:1 1886:1 1922:1 1938:1 2074:1 2075:1 2483:1 2514:1 2738:1 3076:1 3108:1 3131:1 3193:1 3315:1 3455:1 3504:1 3587:1 3724:1 3778:1 3909:1 4294:1 4550:1 5072:1 5100:1 #
-0.14884920601009582474816284047847 33:1 188:1 731:1 971:1 1167:1 1222:1 1593:1 1770:1 2397:1 2492:1 2886:1 2903:1 3193:1 3584:1 4243:1 5725:1 #
0.068715427784594593219047453658277 971:1 1487:1 1529:1 2668:1 2703:1 4967:1 #
-0.14884920601009582474816284047847 32:1 584:1 731:1 971:1 1179:1 3193:1 3397:1 3666:1 4442:1 4646:1 4855:1 4919:1 #
0.14884920601009582474816284047847 164:1 318:1 2023:1 2066:1 3519:1 #
0.14884920601009582474816284047847 199:1 780:1 971:1 1937:1 1941:1 2010:1 2850:1 3069:1 3093:1 3108:1 3519:1 3778:1 4542:1 4974:1 #
-0.14884920601009582474816284047847 1682:1 2023:1 2493:1 2993:1 3258:1 3519:1 #
-0.051098914117406586676839452820786 597:1 657:1 971:1 2838:1 4074:1 4274:1 5593:1 #
0.14884920601009582474816284047847 73:1 2023:1 5848:1 #
-0.14884920601009582474816284047847 1914:1 2023:1 2543:1 3889:1 5848:1 #
0.14884920601009582474816284047847 731:1 971:1 1941:1 2093:1 3193:1 4517:1 5213:1 5397:1 #
0.14884920601009582474816284047847 140:1 971:1 5189:1 #
-0.11574291026284247441147101653769 553:1 971:1 5519:1 #
-0.1435807055223178030356478984686 25:1 971:1 5722:1 #
-0.13183233249694253919059860891139 971:1 3296:1 3305:1 4568:1 5547:1 #
-0.041244556358982900623466605338763 731:1 971:1 1517:1 1937:1 3193:1 4517:1 4555:1 4967:1 #
-0.091384374235362511584845890411088 971:1 1246:1 1641:1 5276:1 #
-0.14884920601009582474816284047847 731:1 971:1 1105:1 1657:1 1811:1 1864:1 1908:1 2668:1 3193:1 3559:1 4592:1 #
-0.14884920601009582474816284047847 731:1 971:1 2093:1 2668:1 2894:1 3193:1 4517:1 5189:1 #
-0.14884920601009582474816284047847 971:1 1641:1 2235:1 2956:1 3193:1 4067:1 4321:1 5213:1 5582:1 #
0.071241856168812123240030587112415 309:1 435:1 825:1 928:1 1211:1 1979:1 2023:1 2037:1 2985:1 3188:1 3189:1 3584:1 4294:1 4442:1 4784:1 5312:1 #
0.14884920601009582474816284047847 2023:1 2754:1 5439:1 5848:1 #
-0.049782111025702763251743476757838 731:1 971:1 1641:1 2093:1 3030:1 3258:1 #
0.14751332290262500479549601095641 338:1 1702:1 2023:1 4101:1 5848:1 #
-0.14884920601009582474816284047847 971:1 1641:1 4555:1 4967:1 #
0.14884920601009582474816284047847 731:1 971:1 3397:1 3519:1 #
-0.14884920601009582474816284047847 971:1 1641:1 5073:1 5439:1 #
-0.14884920601009582474816284047847 648:1 971:1 1641:1 4555:1 4986:1 #
0.14884920601009582474816284047847 971:1 2668:1 4132:1 4967:1 #
0.017806831972742964698142031920725 731:1 760:1 971:1 1157:1 1313:1 1915:1 2493:1 3193:1 3246:1 3258:1 3332:1 5189:1 #
0.14884920601009582474816284047847 96:1 648:1 731:1 971:1 1773:1 1914:1 1941:1 1952:1 2028:1 2101:1 2808:1 3108:1 3193:1 3479:1 3519:1 3933:1 4312:1 4455:1 4646:1 5708:1 #
0.14884920601009582474816284047847 731:1 971:1 1280:1 1797:1 2281:1 2543:1 2748:1 3193:1 4603:1 4778:1 #
0.1043363588559765853247540690063 715:1 731:1 971:1 2054:1 2511:1 3193:1 3559:1 5189:1 #
-0.14884920601009582474816284047847 731:1 971:1 1161:1 1797:1 1908:1 3193:1 4393:1 #
-0.14884920601009582474816284047847 96:1 731:1 971:1 3193:1 4384:1 4646:1 5162:1 5793:1 #
-0.14884920601009582474816284047847 213:1 734:1 880:1 971:1 1203:1 1319:1 3076:1 3096:1 3112:1 3193:1 3474:1 3559:1 5439:1 #
-0.080615281275964983942472485978215 232:1 971:1 3043:1 3085:1 3193:1 3559:1 4555:1 #
-0.14884920601009582474816284047847 370:1 504:1 715:1 731:1 971:1 1553:1 1977:1 2093:1 3193:1 3519:1 5100:1 5189:1 5855:1 5902:1 #
0.14884920601009582474816284047847 31:1 971:1 1079:1 1941:1 1976:1 2577:1 2580:1 3519:1 4681:1 4701:1 4941:1 5000:1 5027:1 5861:1 #
0.14884920601009582474816284047847 686:1 971:1 1941:1 3258:1 4592:1 4681:1 #
0.14884920601009582474816284047847 2023:1 2787:1 3324:1 4323:1 4393:1 4701:1 4967:1 5178:1 5213:1 5848:1 #
0.14884920601009582474816284047847 971:1 1941:1 4681:1 5593:1 #
0.14884920601009582474816284047847 971:1 1173:1 1941:1 4681:1 #
-0.14884920601009582474816284047847 971:1 2393:1 3519:1 5130:1 #
0.14884920601009582474816284047847 971:1 3409:1 3476:1 #
0.14884920601009582474816284047847 32:1 971:1 4699:1 #
0.14884920601009582474816284047847 971:1 2668:1 4067:1 5397:1 #
0.10465047493477572237985384617787 731:1 3397:1 3609:1 #
0.14884920601009582474816284047847 731:1 971:1 2093:1 3193:1 3397:1 3474:1 3519:1 4021:1 #
0.14884920601009582474816284047847 96:1 199:1 731:1 1560:1 3193:1 3519:1 4646:1 5626:1 5848:1 #
0.14884920601009582474816284047847 225:1 902:1 903:1 971:1 2148:1 2397:1 3193:1 4442:1 4459:1 4590:1 4646:1 #
0.14884920601009582474816284047847 490:1 731:1 1186:1 2668:1 3193:1 4920:1 #
-0.14884920601009582474816284047847 32:1 731:1 780:1 1609:1 2397:1 2755:1 3057:1 3188:1 3189:1 3315:1 3805:1 3928:1 4592:1 5698:1 #
-0.14884920601009582474816284047847 382:1 397:1 731:1 1914:1 2543:1 3889:1 5253:1 #
-0.14884920601009582474816284047847 50:1 731:1 971:1 2028:1 2131:1 3258:1 4592:1 5307:1 #
0.14884920601009582474816284047847 32:1 579:1 971:1 1938:1 1941:1 2367:1 4967:1 5178:1 5793:1 #
0.14884920601009582474816284047847 971:1 1941:1 3559:1 4681:1 4967:1 5342:1 5399:1 #
0.14884920601009582474816284047847 971:1 1941:1 2098:1 4967:1 4970:1 5189:1 #
0.14884920601009582474816284047847 971:1 2128:1 4967:1 #
0.14884920601009582474816284047847 971:1 1641:1 3405:1 #
-0.14884920601009582474816284047847 489:1 971:1 1173:1 4323:1 4967:1 5189:1 5399:1 #
-0.14884920601009582474816284047847 584:1 971:1 3288:1 4015:1 4967:1 5189:1 #
-0.14884920601009582474816284047847 971:1 4323:1 4967:1 5189:1 5399:1 #
0.14884920601009582474816284047847 971:1 3258:1 4149:1 5054:1 #
0.14884920601009582474816284047847 731:1 971:1 2543:1 5624:1 #
-0.14884920601009582474816284047847 110:1 342:1 731:1 788:1 971:1 1816:1 1941:1 3397:1 3628:1 3683:1 3723:1 4320:1 4651:1 4655:1 5195:1 5270:1 5690:1 5836:1 #
-0.14884920601009582474816284047847 971:1 3249:1 3258:1 4323:1 4592:1 4651:1 4967:1 #
-0.14884920601009582474816284047847 971:1 1941:1 3363:1 3397:1 #
-0.14884920601009582474816284047847 63:1 72:1 731:1 971:1 1126:1 1280:1 1312:1 1941:1 2098:1 2551:1 2668:1 3193:1 3397:1 3439:1 3474:1 4021:1 4592:1 5725:1 #
-0.14884920601009582474816284047847 971:1 2181:1 4040:1 #
0.14884920601009582474816284047847 971:1 4323:1 4555:1 4967:1 #
0.14884920601009582474816284047847 782:1 971:1 1864:1 4323:1 4555:1 4967:1 #
0.14884920601009582474816284047847 971:1 4701:1 5848:1 #
-0.14884920601009582474816284047847 971:1 4323:1 4798:1 4967:1 5189:1 5399:1 #
-0.14884920601009582474816284047847 425:1 971:1 4323:1 4517:1 4967:1 5253:1 #
-0.14884920601009582474816284047847 971:1 4323:1 4967:1 5189:1 5593:1 #
0.14884920601009582474816284047847 512:1 1183:1 1568:1 1864:1 1941:1 2023:1 2163:1 3076:1 3193:1 4393:1 4491:1 4657:1 5439:1 #
-0.1216133649588741899583155259279 880:1 971:1 3258:1 4399:1 4841:1 4967:1 5502:1 #
-0.14884920601009582474816284047847 971:1 1203:1 #
-0.14884920601009582474816284047847 673:1 731:1 971:1 2093:1 3093:1 3519:1 5178:1 #
-0.14884920601009582474816284047847 33:1 731:1 1183:1 1219:1 2093:1 3043:1 3998:1 4967:1 5178:1 #
-0.013582471873792032260319651015834 489:1 971:1 1657:1 2668:1 3193:1 4136:1 4763:1 5263:1 5399:1 #
0.14884920601009582474816284047847 493:1 971:1 3519:1 4323:1 4809:1 4967:1 4973:1 #
0.10537295862544422686557510360217 31:1 32:1 33:1 42:1 282:1 306:1 370:1 490:1 797:1 971:1 1169:1 1979:1 2580:1 2671:1 2762:1 3558:1 4323:1 4517:1 4967:1 5050:1 5100:1 5253:1 5474:1 #
0.14884920601009582474816284047847 731:1 971:1 1660:1 1937:1 2696:1 4021:1 4323:1 4967:1 #
0.14884920601009582474816284047847 14:1 971:1 1894:1 3193:1 3519:1 4592:1 4681:1 4967:1 5189:1 #
0.14884920601009582474816284047847 41:1 759:1 971:1 1767:1 3093:1 4967:1 #
-0.14884920601009582474816284047847 698:1 971:1 1106:1 1161:1 3193:1 3288:1 3519:1 4681:1 4967:1 #
-0.12963096287001532602722875253676 32:1 275:1 307:1 612:1 648:1 971:1 1540:1 1720:1 1864:1 1937:1 2129:1 3482:1 3519:1 3584:1 3685:1 4274:1 4798:1 4804:1 #
-0.016793689257885918014734372150087 164:1 971:1 1173:1 1797:1 3193:1 3519:1 4555:1 4967:1 #
-0.14884920601009582474816284047847 971:1 1006:1 2084:1 2098:1 4035:1 4809:1 4854:1 #
0.14884920601009582474816284047847 731:1 1941:1 2093:1 4646:1 5189:1 #
0.14884920601009582474816284047847 72:1 731:1 904:1 971:1 5253:1 #
0.14884920601009582474816284047847 276:1 327:1 731:1 1900:1 1941:1 4555:1 4646:1 5681:1 #
0.14884920601009582474816284047847 731:1 2668:1 3193:1 4517:1 5253:1 #
0.052204055622253768553786557049534 148:1 781:1 971:1 #
-0.14884920601009582474816284047847 327:1 611:1 701:1 731:1 1938:1 2281:1 2668:1 3193:1 4517:1 5253:1 5439:1 #
-0.14884920601009582474816284047847 96:1 469:1 731:1 4194:1 4215:1 4646:1 #
-0.01650061687476123833961949571858 257:1 731:1 752:1 1864:1 2093:1 3299:1 #
0.13888191312997452686595067916642 307:1 971:1 1712:1 2098:1 2543:1 2787:1 2903:1 2971:1 3189:1 3193:1 3451:1 3864:1 4017:1 4380:1 4642:1 4699:1 4883:1 5568:1 5775:1 #
0.14884920601009582474816284047847 971:1 1140:1 1268:1 1757:1 2738:1 3519:1 5725:1 5826:1 #
0.14884920601009582474816284047847 32:1 39:1 42:1 469:1 485:1 486:1 971:1 1083:1 1126:1 1166:1 1530:1 1816:1 1951:1 2028:1 2131:1 2288:1 2484:1 2543:1 2668:1 2787:1 2869:1 2891:1 3193:1 3519:1 3584:1 4142:1 4344:1 5126:1 5189:1 5213:1 5589:1 5725:1 5885:1 #
0.14884920601009582474816284047847 971:1 1941:1 2787:1 4681:1 #
-0.14884920601009582474816284047847 307:1 971:1 1816:1 1941:1 2787:1 4232:1 5189:1 #
-0.14884920601009582474816284047847 91:1 110:1 342:1 612:1 636:1 942:1 971:1 1764:1 1937:1 1968:1 2010:1 2098:1 2117:1 2144:1 2787:1 3093:1 3496:1 3519:1 3976:1 4118:1 4302:1 4393:1 4517:1 4806:1 5189:1 5276:1 5299:1 5690:1 #
-0.14884920601009582474816284047847 261:1 969:1 971:1 1816:1 3519:1 4592:1 5189:1 #
0.062721399851729406349498674444476 971:1 2185:1 2461:1 4517:1 5838:1 5861:1 #
0.0099315314540838698503799619743404 96:1 417:1 534:1 648:1 701:1 3076:1 3193:1 3246:1 3584:1 4517:1 4646:1 4967:1 5253:1 5379:1 #
0.14884920601009582474816284047847 164:1 731:1 1173:1 1530:1 3516:1 3778:1 4681:1 4967:1 4974:1 5253:1 #
0.14884920601009582474816284047847 731:1 1750:1 3397:1 3724:1 5100:1 5290:1 #
-0.14884920601009582474816284047847 731:1 2023:1 3193:1 3397:1 4323:1 4350:1 4967:1 #
0.010018886723552120412983335029367 33:1 292:1 971:1 2668:1 4517:1 5054:1 #
0.14884920601009582474816284047847 731:1 2903:1 5213:1 5253:1 #
-0.14884920601009582474816284047847 971:1 1712:1 3642:1 #
-0.14884920601009582474816284047847 1445:1 2023:1 2101:1 2543:1 3868:1 5253:1 #
0.10390069128144169274818864323606 942:1 971:1 1173:1 1657:1 1816:1 2010:1 3193:1 3249:1 3344:1 3462:1 3519:1 4017:1 4320:1 5189:1 #
0.11870727656093554847061000145914 13:1 91:1 96:1 463:1 558:1 612:1 621:1 657:1 971:1 1038:1 2243:1 2308:1 3193:1 3625:1 3742:1 3959:1 4185:1 4592:1 4646:1 4999:1 5750:1 #
0.077552248939728701815354838799976 370:1 621:1 971:1 1179:1 1816:1 2483:1 3724:1 4294:1 4592:1 4840:1 5189:1 #
-0.14884920601009582474816284047847 96:1 971:1 1941:1 3318:1 4646:1 5848:1 #
-0.14884920601009582474816284047847 971:1 4323:1 4699:1 4967:1 #
-0.14884920601009582474816284047847 971:1 2054:1 3193:1 4294:1 4681:1 5189:1 5253:1 #
-0.14884920601009582474816284047847 950:1 971:1 1210:1 1941:1 3152:1 3908:1 4320:1 5189:1 #
-0.14884920601009582474816284047847 72:1 971:1 2054:1 3724:1 4681:1 5189:1 5253:1 #
-0.14884920601009582474816284047847 307:1 583:1 971:1 3193:1 4017:1 4294:1 4312:1 4681:1 4693:1 5189:1 #
-0.14884920601009582474816284047847 971:1 2148:1 2176:1 4254:1 4538:1 5091:1 5189:1 #
0.12154971313166368362956859527912 1222:1 1579:1 1680:1 2023:1 2492:1 4967:1 5050:1 5199:1 5243:1 5683:1 #
-0.058201770383389757335113046110564 469:1 971:1 1938:1 4681:1 5191:1 #
0.14884920601009582474816284047847 1967:1 2023:1 4967:1 #
-0.034854668440206446056173206216044 971:1 1880:1 2815:1 3193:1 4108:1 4294:1 4359:1 4709:1 5007:1 5901:1 #
-0.034843894134562514164343838274362 657:1 971:1 1694:1 2401:1 5472:1 #
-0.14884920601009582474816284047847 32:1 1941:1 2023:1 3584:1 4253:1 4967:1 #
-0.14884920601009582474816284047847 2023:1 3409:1 4714:1 4967:1 #
-0.14464153665156348482767612040334 970:1 1291:1 2023:1 3032:1 4967:1 5568:1 #
-0.14884920601009582474816284047847 2023:1 4967:1 #
0.14884920601009582474816284047847 31:1 686:1 781:1 971:1 2098:1 4681:1 5189:1 5439:1 #
0.14884920601009582474816284047847 467:1 971:1 1941:1 4681:1 4840:1 5189:1 5198:1 5228:1 5342:1 #
0.14884920601009582474816284047847 971:1 1475:1 1941:1 2579:1 2587:1 3868:1 3959:1 5189:1 5253:1 #
-0.14884920601009582474816284047847 971:1 4294:1 4736:1 #
-0.14884920601009582474816284047847 971:1 3193:1 3828:1 4393:1 4681:1 5189:1 5439:1 #
-0.14884920601009582474816284047847 971:1 3046:1 3193:1 4681:1 5189:1 5228:1 #
-0.14884920601009582474816284047847 971:1 3013:1 3193:1 3828:1 4194:1 4393:1 4681:1 5189:1 5439:1 #
-0.06064870747647046339556808902671 31:1 33:1 971:1 1922:1 1972:1 2089:1 2288:1 2348:1 2795:1 3125:1 3126:1 3193:1 3332:1 3462:1 4615:1 4681:1 5195:1 5283:1 5366:1 5669:1 5903:1 #
0.14884920601009582474816284047847 2023:1 4253:1 4967:1 #
0.14884920601009582474816284047847 2023:1 2989:1 3409:1 4967:1 #
-0.14884920601009582474816284047847 971:1 2310:1 4793:1 #
0.13091159678881281180906626104843 1086:1 2023:1 3409:1 4253:1 #
0.14884920601009582474816284047847 781:1 971:1 2668:1 #
-0.14884920601009582474816284047847 1941:1 2023:1 4701:1 4967:1 5253:1 5342:1 #
-0.14884920601009582474816284047847 1941:1 2023:1 3849:1 3959:1 4253:1 #
0.14884920601009582474816284047847 971:1 1816:1 4320:1 5253:1 #
0.14884920601009582474816284047847 469:1 969:1 971:1 3152:1 3193:1 3455:1 4294:1 4681:1 5189:1 #
0.14884920601009582474816284047847 971:1 1222:1 3193:1 3288:1 4681:1 5164:1 5189:1 5323:1 #
0.14884920601009582474816284047847 731:1 971:1 2054:1 2093:1 3193:1 4412:1 5299:1 #
-0.14884920601009582474816284047847 33:1 731:1 971:1 2093:1 3193:1 3584:1 4294:1 4412:1 5189:1 #
-0.14884920601009582474816284047847 96:1 971:1 1938:1 2439:1 3193:1 3519:1 3663:1 4223:1 4646:1 5299:1 #
-0.14884920601009582474816284047847 731:1 971:1 3193:1 3559:1 4681:1 5299:1 #
-0.038025657582906609299744360441764 666:1 731:1 971:1 1173:1 1937:1 3193:1 3968:1 4651:1 5380:1 5593:1 #
0.14884920601009582474816284047847 1529:1 1941:1 2023:1 3476:1 #
0.14884920601009582474816284047847 72:1 2023:1 2587:1 4041:1 4393:1 4701:1 5100:1 5253:1 #
0.14884920601009582474816284047847 971:1 4967:1 5054:1 #
-0.14884920601009582474816284047847 1475:1 2023:1 2587:1 4701:1 #
-0.14884920601009582474816284047847 2023:1 2587:1 4701:1 #
0.14884920601009582474816284047847 96:1 971:1 1167:1 1941:1 3193:1 3519:1 3849:1 4646:1 4681:1 4906:1 4958:1 5342:1 5725:1 #
0.14884920601009582474816284047847 41:1 971:1 1173:1 1666:1 1952:1 2530:1 2543:1 3193:1 3559:1 3587:1 3588:1 4245:1 4294:1 5189:1 5679:1 #
-0.14884920601009582474816284047847 971:1 2796:1 #
-0.14884920601009582474816284047847 469:1 971:1 1941:1 3460:1 4906:1 5253:1 5372:1 #
0.14884920601009582474816284047847 731:1 950:1 1509:1 1795:1 3232:1 3519:1 3584:1 4149:1 #
0.14884920601009582474816284047847 382:1 731:1 3397:1 #
0.14884920601009582474816284047847 2023:1 2837:1 4701:1 #
0.14884920601009582474816284047847 2023:1 3955:1 4701:1 #
0.14884920601009582474816284047847 561:1 731:1 2010:1 2397:1 3397:1 #
-0.14884920601009582474816284047847 1529:1 2023:1 2461:1 4018:1 #
0.14884920601009582474816284047847 1914:1 2023:1 3605:1 4455:1 #
-0.14884920601009582474816284047847 2023:1 2101:1 2543:1 2787:1 3476:1 #
-0.14884920601009582474816284047847 1017:1 2228:1 2530:1 3010:1 3076:1 #
-0.14884920601009582474816284047847 2023:1 5810:1 #
0.047102043021868988947886691676104 731:1 971:1 2543:1 3193:1 4651:1 4989:1 5189:1 #
0.14884920601009582474816284047847 50:1 388:1 957:1 971:1 1183:1 1941:1 3093:1 3246:1 4967:1 5253:1 #
0.14884920601009582474816284047847 971:1 1941:1 4681:1 5399:1 #
-0.1120767264355874842651772382851 199:1 335:1 455:1 971:1 1183:1 1937:1 1941:1 2010:1 2028:1 2367:1 2787:1 2821:1 3034:1 3085:1 3093:1 3120:1 3288:1 3397:1 3519:1 3724:1 4048:1 4149:1 4393:1 4765:1 4967:1 5036:1 5100:1 5253:1 5568:1 5690:1 #
-0.094845761400777370275783084707655 461:1 534:1 971:1 1179:1 1895:1 1900:1 1938:1 1941:1 2042:1 2066:1 2668:1 3093:1 3118:1 3188:1 3189:1 3193:1 3324:1 3476:1 3536:1 3559:1 3595:1 4331:1 4333:1 4662:1 5197:1 5366:1 5433:1 5444:1 #
-0.14884920601009582474816284047847 2023:1 5351:1 5439:1 #
-0.14884920601009582474816284047847 218:1 971:1 #
0.082036740508031363861007889681787 971:1 3363:1 3397:1 3724:1 #
0.14884920601009582474816284047847 225:1 2023:1 2101:1 4254:1 #
0.1048404380190779278114732164795 2023:1 2101:1 3849:1 4254:1 #
0.061102004947741879459233160787335 971:1 2010:1 3013:1 5253:1 #
0.14884920601009582474816284047847 1659:1 2023:1 2444:1 4280:1 4399:1 5634:1 #
0.12560478554339055135002922725107 2023:1 2889:1 2993:1 4253:1 4354:1 #
-0.14884920601009582474816284047847 351:1 621:1 2023:1 2027:1 2101:1 3258:1 5488:1 #
-0.14884920601009582474816284047847 73:1 2023:1 3933:1 #
-0.0096442152753555780014815823619756 126:1 664:1 971:1 1753:1 2293:1 2402:1 2870:1 5049:1 5439:1 #
-0.14884920601009582474816284047847 388:1 2023:1 #
-0.045707441098750717367593665585446 469:1 731:1 1173:1 1183:1 1712:1 2028:1 2093:1 2493:1 2543:1 2668:1 2834:1 2903:1 2993:1 3193:1 3246:1 3926:1 5253:1 #
0.14884920601009582474816284047847 971:1 1941:1 3120:1 3889:1 4555:1 #
0.14884920601009582474816284047847 971:1 1941:1 4555:1 #
0.14884920601009582474816284047847 694:1 971:1 1132:1 1941:1 2985:1 3095:1 3189:1 3584:1 3778:1 3828:1 4596:1 4662:1 4974:1 5189:1 5195:1 #
0.14884920601009582474816284047847 971:1 1941:1 2491:1 3093:1 5722:1 #
-0.14884920601009582474816284047847 32:1 971:1 1135:1 1173:1 1941:1 2946:1 2985:1 3205:1 3909:1 4661:1 5189:1 #
-0.14884920601009582474816284047847 971:1 1660:1 1941:1 3095:1 3397:1 3622:1 4277:1 5189:1 #
-0.14884920601009582474816284047847 781:1 971:1 1941:1 3627:1 5189:1 5439:1 #
-0.14884920601009582474816284047847 971:1 1941:1 3363:1 4751:1 5342:1 #
0.035753500913136941619097086686452 914:1 971:1 1291:1 2027:1 2101:1 2391:1 3584:1 3849:1 4151:1 4633:1 5884:1 #
0.14884920601009582474816284047847 971:1 3419:1 5312:1 #
0.14884920601009582474816284047847 971:1 4701:1 5213:1 5848:1 #
-0.14884920601009582474816284047847 971:1 2054:1 4555:1 4967:1 5253:1 5698:1 #
-0.14884920601009582474816284047847 966:1 971:1 1864:1 1937:1 2660:1 2773:1 3862:1 4354:1 4728:1 4967:1 5253:1 #
-0.14884920601009582474816284047847 568:1 971:1 2286:1 3193:1 4294:1 4967:1 5253:1 #
-0.14884920601009582474816284047847 971:1 4323:1 4517:1 4967:1 5253:1 #
0.14884920601009582474816284047847 469:1 731:1 781:1 971:1 1021:1 1699:1 1941:1 2151:1 2543:1 2925:1 2959:1 3324:1 3328:1 3474:1 3808:1 4202:1 4269:1 5299:1 #
0.14884920601009582474816284047847 188:1 329:1 489:1 950:1 971:1 1381:1 1941:1 2093:1 2492:1 3345:1 3584:1 3622:1 4118:1 4396:1 4881:1 5050:1 5461:1 5861:1 #
0.14884920601009582474816284047847 96:1 971:1 1941:1 3034:1 3193:1 4646:1 5189:1 #
0.14884920601009582474816284047847 96:1 971:1 1173:1 1941:1 2028:1 2815:1 3117:1 3193:1 4646:1 5189:1 #
0.14884920601009582474816284047847 971:1 1941:1 2066:1 3098:1 3193:1 3455:1 3968:1 5189:1 5228:1 #
-0.086112832201859487724071584580088 50:1 971:1 1941:1 1943:1 2252:1 3335:1 3584:1 3873:1 3968:1 4340:1 5189:1 #
-0.075418822043097785701171176242497 316:1 481:1 662:1 971:1 1021:1 1044:1 1084:1 2391:1 2401:1 2668:1 #
-0.070153405527013421028037498672347 96:1 971:1 1941:1 3093:1 3193:1 4186:1 4225:1 4350:1 4568:1 4646:1 5189:1 5198:1 5228:1 5869:1 #
0.14884920601009582474816284047847 971:1 2306:1 2668:1 3193:1 3559:1 4323:1 4967:1 #
0.14884920601009582474816284047847 971:1 4323:1 4555:1 #
0.14884920601009582474816284047847 516:1 3076:1 3085:1 3193:1 3323:1 4323:1 4331:1 5862:1 #
-0.14884920601009582474816284047847 950:1 971:1 1221:1 1530:1 1914:1 3120:1 3193:1 3797:1 4323:1 5189:1 5213:1 5342:1 5885:1 #
-0.14884920601009582474816284047847 971:1 1641:1 4555:1 5792:1 #
-0.14884920601009582474816284047847 971:1 1914:1 2668:1 3889:1 4323:1 5189:1 5399:1 #
0.14884920601009582474816284047847 731:1 971:1 5253:1 #
0.07065074718316433077802685147617 781:1 971:1 2993:1 4967:1 #
0.14884920601009582474816284047847 971:1 1941:1 3107:1 3811:1 5198:1 5380:1 #
0.14884920601009582474816284047847 971:1 982:1 1487:1 1941:1 3188:1 3189:1 4442:1 4646:1 5253:1 #
-0.14884920601009582474816284047847 971:1 3188:1 3189:1 4555:1 5312:1 #
0.14884920601009582474816284047847 2023:1 4941:1 #
-0.013268318688928509158087010177951 971:1 982:1 1941:1 3034:1 3849:1 3959:1 #
-0.08061788773678041364334490026522 686:1 827:1 982:1 1941:1 3076:1 4967:1 5848:1 #
-0.14884920601009582474816284047847 971:1 1031:1 3460:1 #
0.11390483016685008788027033688195 32:1 316:1 971:1 1243:1 1514:1 1938:1 2042:1 2408:1 2668:1 3010:1 3126:1 3193:1 4854:1 5189:1 5213:1 5399:1 5444:1 #
0.14884920601009582474816284047847 96:1 971:1 4646:1 5848:1 #
0.14884920601009582474816284047847 657:1 971:1 1937:1 2787:1 3046:1 3479:1 4967:1 5189:1 #
0.14884920601009582474816284047847 971:1 1161:1 1914:1 2023:1 3193:1 3288:1 4323:1 5189:1 5342:1 5725:1 5737:1 #
0.14884920601009582474816284047847 971:1 3120:1 5253:1 #
-0.14884920601009582474816284047847 971:1 3193:1 3519:1 4681:1 4727:1 5189:1 #
0.14884920601009582474816284047847 31:1 32:1 33:1 42:1 694:1 965:1 971:1 1173:1 1941:1 2985:1 3584:1 3740:1 3828:1 5189:1 5198:1 5228:1 5342:1 #
0.14884920601009582474816284047847 971:1 1706:1 1941:1 4067:1 #
0.14884920601009582474816284047847 971:1 1641:1 1941:1 4555:1 #
0.14884920601009582474816284047847 971:1 1941:1 3976:1 5342:1 #
0.14884920601009582474816284047847 3027:1 3076:1 3315:1 4067:1 #
0.14884920601009582474816284047847 971:1 1941:1 4681:1 #
-0.14884920601009582474816284047847 971:1 3120:1 4555:1 4967:1 #
-0.14884920601009582474816284047847 694:1 731:1 971:1 1641:1 1941:1 4081:1 5253:1 5342:1 #
0.016007839546514364414964148863874 971:1 2668:1 3095:1 3584:1 4662:1 5189:1 5326:1 5366:1 5399:1 #
-0.14884920601009582474816284047847 971:1 1941:1 2023:1 3476:1 4489:1 5519:1 #
-0.14884920601009582474816284047847 971:1 4323:1 4651:1 4967:1 #
-0.084566783137482490206870977544895 781:1 971:1 1941:1 2668:1 3474:1 #
0.14884920601009582474816284047847 971:1 2401:1 2668:1 3193:1 4664:1 5142:1 #
-0.14884920601009582474816284047847 32:1 327:1 367:1 971:1 1233:1 1793:1 3193:1 4592:1 4967:1 5034:1 5242:1 5610:1 5725:1 #
0.14884920601009582474816284047847 971:1 1706:1 2668:1 #
-0.13626782677151166867091092171904 165:1 971:1 1471:1 1699:1 2281:1 2587:1 2993:1 3045:1 3193:1 3258:1 3559:1 4348:1 5314:1 #
-0.14884920601009582474816284047847 971:1 2206:1 3193:1 3431:1 4717:1 4854:1 4941:1 #
0.14884920601009582474816284047847 971:1 1941:1 4681:1 5178:1 5342:1 5399:1 #
0.14884920601009582474816284047847 448:1 971:1 1941:1 3188:1 3189:1 3409:1 4592:1 4681:1 4906:1 5003:1 #
0.14884920601009582474816284047847 418:1 971:1 3189:1 4681:1 5253:1 5399:1 5439:1 #
-0.14884920601009582474816284047847 971:1 3496:1 3724:1 4681:1 5189:1 5253:1 #
-0.14884920601009582474816284047847 81:1 971:1 3889:1 4681:1 #
-0.071578739280200864847358843690017 12:1 96:1 554:1 971:1 1354:1 1816:1 3397:1 3584:1 3849:1 4118:1 4679:1 4681:1 4862:1 5198:1 #
0.14884920601009582474816284047847 924:1 966:1 971:1 1025:1 1613:1 1937:1 2023:1 2773:1 2840:1 2889:1 2993:1 3193:1 3815:1 3988:1 4032:1 4946:1 5189:1 5228:1 5719:1 #
-0.038790889479697020225668069315361 33:1 351:1 731:1 971:1 2668:1 3193:1 3205:1 3584:1 3966:1 3968:1 4323:1 4517:1 4967:1 5253:1 #
0.010190242289776911197018982591089 965:1 971:1 1941:1 2587:1 4699:1 4701:1 4941:1 5342:1 #
-0.05920974258149466762368717809295 588:1 971:1 1149:1 #
-0.14884920601009582474816284047847 1941:1 2023:1 4206:1 5342:1 5848:1 #
0.14884920601009582474816284047847 463:1 971:1 2773:1 3959:1 4098:1 5213:1 #
0.14884920601009582474816284047847 971:1 982:1 1487:1 5253:1 #
0.14884920601009582474816284047847 971:1 2543:1 3889:1 4681:1 #
0.14884920601009582474816284047847 971:1 2543:1 3460:1 3889:1 #
-0.14884920601009582474816284047847 971:1 1914:1 2543:1 3519:1 3889:1 5253:1 #
-0.14884920601009582474816284047847 971:1 2543:1 3889:1 5142:1 #
-0.14884920601009582474816284047847 971:1 2543:1 3889:1 5189:1 #
-0.14884920601009582474816284047847 971:1 2543:1 3889:1 5253:1 #
0.14884920601009582474816284047847 103:1 489:1 584:1 760:1 902:1 951:1 954:1 971:1 1055:1 1657:1 1864:1 1941:1 2028:1 2075:1 2145:1 2243:1 2781:1 3093:1 3536:1 3762:1 4048:1 4065:1 4412:1 4581:1 4854:1 4896:1 5295:1 5299:1 5464:1 5689:1 #
0.14884920601009582474816284047847 96:1 971:1 1844:1 1941:1 2148:1 2469:1 3140:1 3193:1 3476:1 3968:1 4610:1 4615:1 4646:1 4701:1 5519:1 5848:1 #
-0.14884920601009582474816284047847 971:1 4555:1 5519:1 #
-0.14884920601009582474816284047847 666:1 971:1 1641:1 3397:1 #
0.14884920601009582474816284047847 731:1 3397:1 5690:1 #
0.14884920601009582474816284047847 731:1 1641:1 4727:1 #
0.14884920601009582474816284047847 32:1 731:1 3397:1 #
0.14884920601009582474816284047847 731:1 3397:1 4646:1 #
-0.063858278181098820924788128650107 731:1 3397:1 3559:1 4323:1 4967:1 #
-0.14884920601009582474816284047847 191:1 257:1 731:1 4360:1 4941:1 #
-0.14884920601009582474816284047847 731:1 971:1 5198:1 #
0.14884920601009582474816284047847 40:1 96:1 971:1 1772:1 1941:1 3108:1 3193:1 3519:1 3584:1 3778:1 4069:1 4646:1 4699:1 4749:1 4967:1 4974:1 #
0.14884920601009582474816284047847 248:1 780:1 790:1 971:1 982:1 1192:1 1570:1 1941:1 2098:1 2985:1 3093:1 3193:1 3719:1 3778:1 4232:1 4294:1 4681:1 4881:1 4967:1 4974:1 5167:1 5189:1 #
0.14884920601009582474816284047847 209:1 249:1 747:1 971:1 1941:1 2023:1 3193:1 3466:1 3584:1 3903:1 4442:1 4455:1 4555:1 4646:1 4934:1 5189:1 5869:1 #
-0.14884920601009582474816284047847 72:1 912:1 971:1 1941:1 2493:1 3095:1 3193:1 4662:1 5862:1 #
0.032966844253346831716822151747692 971:1 972:1 5178:1 #
-0.14884920601009582474816284047847 585:1 971:1 1941:1 2066:1 3778:1 5189:1 #
0.14884920601009582474816284047847 971:1 1914:1 2157:1 2543:1 3922:1 4555:1 #
0.14884920601009582474816284047847 2023:1 4350:1 #
-0.14884920601009582474816284047847 971:1 1941:1 3476:1 #
0.14884920601009582474816284047847 731:1 971:1 1834:1 1914:1 2543:1 3193:1 3889:1 4062:1 4681:1 #
-0.14884920601009582474816284047847 96:1 987:1 1055:1 1687:1 1922:1 2023:1 2469:1 3193:1 3732:1 3911:1 4106:1 4314:1 4646:1 #
0.14884920601009582474816284047847 648:1 971:1 1105:1 1885:1 1941:1 2402:1 3193:1 3756:1 4517:1 4906:1 4967:1 5108:1 5397:1 5885:1 #
0.14884920601009582474816284047847 690:1 971:1 1941:1 4681:1 #
-0.14884920601009582474816284047847 971:1 2903:1 2942:1 4542:1 4681:1 5380:1 #
-0.14884920601009582474816284047847 469:1 971:1 3189:1 5213:1 5333:1 5534:1 #
0.14884920601009582474816284047847 971:1 3397:1 4778:1 #
-0.093335045259784657489809944763692 971:1 3460:1 3838:1 4967:1 #
0.032977341922427579057330859768626 971:1 3353:1 5178:1 #
0.056473199170050544792864855025982 2023:1 2703:1 3085:1 #
0.14884920601009582474816284047847 971:1 3627:1 5027:1 #
-0.001900888417562256356430072656849 296:1 751:1 964:1 971:1 1338:1 1549:1 1630:1 1956:1 2028:1 2032:1 2444:1 2787:1 2804:1 3043:1 3193:1 3196:1 3258:1 3519:1 3724:1 4654:1 5218:1 5909:1 #
0.043739786450994876110254239165442 1571:1 2209:1 3076:1 4967:1 #
-0.026255539204992378587988355320704 41:1 351:1 965:1 1864:1 2010:1 2023:1 2112:1 2148:1 2236:1 2576:1 2942:1 3691:1 4701:1 5198:1 5389:1 5407:1 5846:1 #
0.0037317712637383714663341649497852 201:1 971:1 2357:1 4751:1 5861:1 #
-0.14884920601009582474816284047847 971:1 1173:1 2023:1 2427:1 2543:1 3193:1 3521:1 4153:1 4442:1 5253:1 #
0.14884920601009582474816284047847 32:1 971:1 3363:1 3584:1 5253:1 #
-0.14884920601009582474816284047847 2023:1 2543:1 4442:1 4646:1 4701:1 5253:1 #
0.14884920601009582474816284047847 469:1 971:1 2543:1 2993:1 4555:1 5333:1 #
0.14884920601009582474816284047847 469:1 971:1 1875:1 1941:1 5333:1 #
0.14884920601009582474816284047847 971:1 1938:1 3596:1 3598:1 4215:1 4651:1 5650:1 #
-0.14884920601009582474816284047847 971:1 1641:1 4062:1 4555:1 #
-0.00068233310057946264682443571203407 971:1 1945:1 4763:1 #
0.058554820086660706868197934227283 971:1 1140:1 3717:1 5312:1 5725:1 #
0.018985920529322422578566431639047 731:1 971:1 3193:1 3243:1 3329:1 3397:1 4323:1 4699:1 #
-0.14884920601009582474816284047847 469:1 731:1 971:1 2093:1 2993:1 3093:1 3193:1 3315:1 3328:1 3474:1 5178:1 #
0.12162379723968813616252759857161 971:1 3092:1 4514:1 #
0.14884920601009582474816284047847 2023:1 4701:1 5253:1 #
-0.14884920601009582474816284047847 1941:1 2023:1 4701:1 4967:1 5848:1 #
-0.14884920601009582474816284047847 1941:1 2023:1 4883:1 4967:1 5253:1 #
-0.14884920601009582474816284047847 1173:1 2023:1 3959:1 4253:1 4323:1 4967:1 #
0.14884920601009582474816284047847 971:1 2543:1 3889:1 4555:1 #
-0.049115428207747321986964550433186 666:1 731:1 971:1 3258:1 3622:1 4309:1 5253:1 #
0.14884920601009582474816284047847 686:1 971:1 2099:1 3193:1 4153:1 4442:1 4646:1 5848:1 #
0.14884920601009582474816284047847 971:1 2258:1 2543:1 4555:1 #
-0.14884920601009582474816284047847 781:1 1941:1 2023:1 2787:1 #
-0.14884920601009582474816284047847 1764:1 3076:1 4215:1 #
-0.14884920601009582474816284047847 971:1 2668:1 2706:1 3140:1 3793:1 3886:1 4315:1 4610:1 5189:1 #
-0.14884920601009582474816284047847 971:1 1914:1 2543:1 3889:1 5189:1 #
-0.044356108009708787587310752087433 971:1 2530:1 3193:1 3728:1 4681:1 #
0.14884920601009582474816284047847 971:1 1849:1 4240:1 #
-0.14884920601009582474816284047847 971:1 3193:1 4294:1 4681:1 5189:1 5253:1 #
0.14884920601009582474816284047847 971:1 1914:1 1941:1 3345:1 4681:1 5342:1 #
-0.14884920601009582474816284047847 686:1 971:1 1184:1 2897:1 4967:1 #
-0.14884920601009582474816284047847 971:1 2042:1 4662:1 5366:1 #
-0.14884920601009582474816284047847 840:1 971:1 1086:1 5722:1 #
-0.14884920601009582474816284047847 561:1 570:1 971:1 1635:1 2042:1 4592:1 4967:1 #
-0.14884920601009582474816284047847 971:1 1940:1 3519:1 3677:1 4841:1 #
0.14884920601009582474816284047847 731:1 971:1 2585:1 3193:1 3397:1 #
0.14884920601009582474816284047847 971:1 3474:1 4699:1 #
0.14884920601009582474816284047847 971:1 2942:1 3724:1 5100:1 5189:1 #
0.085002253518291312484045363362384 971:1 1161:1 2942:1 3188:1 3189:1 3724:1 3928:1 5100:1 5189:1 #
-0.14884920601009582474816284047847 971:1 2891:1 2942:1 3193:1 3724:1 3968:1 4681:1 5100:1 5189:1 5198:1 5253:1 #
-0.14884920601009582474816284047847 971:1 1157:1 3093:1 3193:1 3724:1 4681:1 5189:1 5439:1 #
0.14884920601009582474816284047847 149:1 971:1 4323:1 5198:1 5669:1 #
0.14884920601009582474816284047847 971:1 1941:1 4067:1 5722:1 #
0.14884920601009582474816284047847 3076:1 4939:1 5198:1 #
0.14884920601009582474816284047847 199:1 971:1 3397:1 3839:1 4517:1 4568:1 5198:1 #
-0.14884920601009582474816284047847 971:1 1106:1 1666:1 2530:1 2668:1 3114:1 3188:1 3189:1 4854:1 4920:1 5043:1 5444:1 #
-0.14884920601009582474816284047847 388:1 891:1 971:1 1462:1 1712:1 2010:1 3122:1 3196:1 5228:1 #
-0.14884920601009582474816284047847 73:1 198:1 648:1 662:1 971:1 1699:1 1914:1 2668:1 3189:1 4662:1 5701:1 #
0.14884920601009582474816284047847 971:1 2668:1 3397:1 4118:1 #
0.14884920601009582474816284047847 971:1 3193:1 4294:1 4651:1 4681:1 4967:1 5198:1 #
0.14884920601009582474816284047847 971:1 3193:1 4681:1 4699:1 4967:1 5439:1 #
0.14884920601009582474816284047847 971:1 3791:1 5213:1 #
-0.053278407197507274273284849641641 731:1 971:1 1083:1 1937:1 2148:1 3193:1 3397:1 3519:1 4681:1 4967:1 5198:1 #
-0.13368831624311747208189160573966 731:1 971:1 2093:1 2098:1 3519:1 3828:1 4255:1 5439:1 #
0.013212412552639883275840126941603 971:1 3519:1 4491:1 5161:1 5189:1 5399:1 5628:1 5698:1 5763:1 #
0.14884920601009582474816284047847 971:1 1423:1 1860:1 2709:1 3247:1 4018:1 4853:1 5270:1 #
0.14884920601009582474816284047847 971:1 1571:1 2668:1 #
-0.14884920601009582474816284047847 1941:1 3076:1 4699:1 5342:1 #
-0.14884920601009582474816284047847 971:1 1641:1 1941:1 4699:1 #
-0.14884920601009582474816284047847 971:1 1941:1 4699:1 #
-0.14884920601009582474816284047847 370:1 971:1 1173:1 #
0.14884920601009582474816284047847 971:1 2148:1 2652:1 3193:1 3397:1 3627:1 3968:1 4118:1 4531:1 #
0.045384553597657750767524476032122 379:1 657:1 902:1 971:1 1106:1 1112:1 1579:1 1968:1 2018:1 3032:1 3193:1 3205:1 3350:1 4354:1 4808:1 4881:1 4922:1 5198:1 5312:1 #
0.14884920601009582474816284047847 731:1 2148:1 3193:1 3397:1 #
-0.14884920601009582474816284047847 96:1 463:1 464:1 971:1 1389:1 1414:1 2668:1 3193:1 3397:1 4646:1 #
-0.14884920601009582474816284047847 96:1 731:1 2076:1 2754:1 3193:1 4098:1 4646:1 #
-0.14884920601009582474816284047847 72:1 73:1 971:1 1209:1 1937:1 2379:1 3106:1 3193:1 3332:1 3627:1 4202:1 4651:1 5100:1 5253:1 5754:1 #
-0.0057935988484677340693007607796972 971:1 1941:1 2390:1 3091:1 5420:1 5848:1 #
0.14884920601009582474816284047847 140:1 971:1 1211:1 1941:1 4681:1 #
-0.14884920601009582474816284047847 971:1 4809:1 5198:1 5250:1 #
-0.14884920601009582474816284047847 425:1 971:1 4681:1 5228:1 #
-0.14884920601009582474816284047847 731:1 971:1 3397:1 4681:1 #
0.093464366082984209893602667307277 971:1 5027:1 5213:1 #
0.14884920601009582474816284047847 967:1 971:1 1937:1 1955:1 2126:1 2440:1 4495:1 #
-0.14884920601009582474816284047847 31:1 40:1 218:1 971:1 1315:1 2515:1 2668:1 3193:1 3584:1 3808:1 5079:1 #
0.14884920601009582474816284047847 971:1 1006:1 1626:1 2530:1 4681:1 5198:1 #
0.14884920601009582474816284047847 971:1 1135:1 1941:1 4681:1 5342:1 5725:1 #
0.14884920601009582474816284047847 971:1 1722:1 1922:1 1941:1 2281:1 4681:1 #
-0.14884920601009582474816284047847 971:1 1849:1 2773:1 3968:1 4967:1 5189:1 #
-0.14884920601009582474816284047847 971:1 1941:1 2668:1 3397:1 4118:1 #
-0.10254219817975067374771214190332 39:1 971:1 1233:1 1514:1 1937:1 1938:1 2584:1 3193:1 4026:1 4739:1 5519:1 5669:1 5787:1 #
0.023865364900824199978490725015945 42:1 146:1 189:1 534:1 775:1 902:1 971:1 1679:1 2032:1 2148:1 2668:1 3043:1 3193:1 3251:1 3584:1 3585:1 4021:1 4074:1 4182:1 4312:1 4559:1 4589:1 4651:1 4937:1 4967:1 5433:1 5688:1 #
0.14884920601009582474816284047847 257:1 731:1 1205:1 2092:1 2668:1 3193:1 4517:1 5294:1 #
-0.14884920601009582474816284047847 971:1 1657:1 2010:1 2668:1 3193:1 4517:1 #
0.0007695885876299370922590248333961 12:1 694:1 971:1 1044:1 1089:1 1542:1 3584:1 4967:1 5189:1 5228:1 5399:1 5698:1 #
0.14884920601009582474816284047847 31:1 648:1 971:1 1223:1 1413:1 1423:1 1941:1 3584:1 4699:1 #
0.085590841688833532718838625896751 223:1 971:1 2754:1 3189:1 3258:1 3728:1 4592:1 4646:1 4701:1 4967:1 5848:1 #
0.12579904663125315855687347266212 124:1 1173:1 2136:1 3076:1 3542:1 4967:1 5091:1 #
-0.14884920601009582474816284047847 342:1 971:1 1166:1 1951:1 2131:1 3584:1 4118:1 4592:1 4967:1 #
0.10946990353659886985315807805819 227:1 971:1 1240:1 2668:1 3093:1 3193:1 3519:1 3724:1 4517:1 5253:1 #
0.020689325428645710669428581240936 971:1 1938:1 2668:1 2807:1 3876:1 5299:1 #
0.14884920601009582474816284047847 731:1 971:1 2668:1 3193:1 4517:1 5054:1 #
0.036634484372973556698394048680711 443:1 971:1 1559:1 4699:1 #
0.14884920601009582474816284047847 33:1 2023:1 3373:1 3584:1 4138:1 #
0.14884920601009582474816284047847 448:1 971:1 1955:1 4967:1 #
0.098071710134988970830605126138835 971:1 3756:1 4442:1 4646:1 5253:1 #
0.14884920601009582474816284047847 971:1 1941:1 2023:1 2101:1 3193:1 4681:1 5749:1 #
-0.14884920601009582474816284047847 971:1 1874:1 2638:1 2993:1 #
0.14884920601009582474816284047847 971:1 1112:1 2543:1 5126:1 5135:1 5189:1 #
0.14884920601009582474816284047847 903:1 971:1 1941:1 2958:1 3959:1 4124:1 4592:1 5189:1 #
0.14884920601009582474816284047847 96:1 971:1 1641:1 3193:1 4646:1 5474:1 #
0.14884920601009582474816284047847 666:1 731:1 971:1 1173:1 3193:1 3717:1 4062:1 4198:1 #
-0.14884920601009582474816284047847 971:1 1682:1 1922:1 2903:1 4067:1 #
0.14884920601009582474816284047847 971:1 3043:1 4967:1 5397:1 #
0.14884920601009582474816284047847 971:1 1941:1 2789:1 3325:1 #
0.14884920601009582474816284047847 178:1 971:1 1941:1 2556:1 #
0.14884920601009582474816284047847 816:1 2023:1 2392:1 3493:1 3519:1 4798:1 #
0.11029663215756350946872288432132 971:1 2010:1 3120:1 4900:1 5253:1 #
0.14884920601009582474816284047847 971:1 2543:1 2703:1 3193:1 3324:1 3462:1 4518:1 4967:1 #
0.14884920601009582474816284047847 971:1 1571:1 3093:1 #
-0.050628393767835483396666518274287 731:1 2985:1 3996:1 4679:1 #
-0.11221348552054175029546456698881 41:1 73:1 96:1 742:1 971:1 1126:1 1951:1 2148:1 2257:1 2786:1 2850:1 3193:1 3460:1 3649:1 3899:1 4646:1 5725:1 #
-0.045913719706591339664303319523242 33:1 63:1 242:1 307:1 370:1 397:1 469:1 569:1 709:1 783:1 885:1 902:1 971:1 1615:1 1712:1 1941:1 2010:1 2046:1 2098:1 2343:1 2569:1 2818:1 3757:1 3953:1 4124:1 4592:1 4871:1 4906:1 4967:1 4989:1 5049:1 5367:1 5683:1 #
-0.14884920601009582474816284047847 469:1 546:1 971:1 1173:1 2010:1 2818:1 2962:1 3043:1 3193:1 4153:1 4442:1 4646:1 5189:1 5213:1 #
-0.14884920601009582474816284047847 971:1 1722:1 2148:1 3192:1 3193:1 3908:1 4199:1 4958:1 5213:1 5507:1 #
0.14884920601009582474816284047847 971:1 2568:1 3397:1 #
0.031728855626694946190369250871299 31:1 39:1 270:1 351:1 971:1 1371:1 1434:1 1635:1 1641:1 1914:1 1937:1 2307:1 2316:1 2543:1 2620:1 2891:1 2993:1 3093:1 3193:1 3584:1 4048:1 4067:1 4182:1 4274:1 4386:1 4651:1 4967:1 5049:1 5126:1 5253:1 5278:1 5380:1 5519:1 #
0.14884920601009582474816284047847 50:1 174:1 213:1 357:1 379:1 971:1 1019:1 1864:1 1887:1 1890:1 2010:1 2543:1 2792:1 2872:1 2923:1 3106:1 3120:1 3315:1 3324:1 3332:1 3394:1 3455:1 4048:1 4050:1 4141:1 4592:1 4700:1 4841:1 4878:1 5125:1 5132:1 5214:1 5234:1 5261:1 5264:1 5270:1 5547:1 #
0.079731959953201772539621572377655 47:1 110:1 318:1 342:1 469:1 543:1 731:1 788:1 921:1 971:1 1106:1 1641:1 1941:1 2090:1 2131:1 2148:1 2208:1 2474:1 3030:1 3120:1 3258:1 3397:1 3628:1 3738:1 3778:1 3886:1 3968:1 4010:1 4118:1 4517:1 4555:1 4604:1 4711:1 4974:1 5253:1 5635:1 #
0.14884920601009582474816284047847 100:1 971:1 2942:1 3710:1 4323:1 4881:1 #
0.14884920601009582474816284047847 971:1 2543:1 2668:1 4393:1 5178:1 5683:1 #
-0.14884920601009582474816284047847 1475:1 2023:1 2587:1 #
-0.14884920601009582474816284047847 731:1 734:1 783:1 971:1 1240:1 3258:1 3409:1 #
-0.14884920601009582474816284047847 971:1 2668:1 3249:1 3258:1 4517:1 #
-0.14884920601009582474816284047847 971:1 1938:1 3106:1 3324:1 3999:1 4062:1 4517:1 5253:1 #
-0.14884920601009582474816284047847 971:1 2492:1 2954:1 3054:1 3332:1 3519:1 4700:1 4733:1 4967:1 5010:1 5299:1 5371:1 #
0.14884920601009582474816284047847 971:1 3091:1 3193:1 4153:1 4194:1 4646:1 4701:1 4941:1 5308:1 #
0.14884920601009582474816284047847 716:1 971:1 982:1 3193:1 4153:1 4294:1 4568:1 4699:1 4967:1 5893:1 #
0.03246044622964937981235422626014 731:1 792:1 971:1 5213:1 5253:1 #
-0.13069696672163269579591826641263 971:1 2796:1 4010:1 4067:1 #
0.14884920601009582474816284047847 198:1 971:1 1941:1 2042:1 3189:1 3193:1 3683:1 3778:1 4974:1 5189:1 #
-0.074982588575742775693910857626179 213:1 824:1 971:1 1173:1 1183:1 1579:1 1977:1 2366:1 3093:1 3358:1 3778:1 4087:1 4251:1 4438:1 4592:1 5199:1 5861:1 #
0.14884920601009582474816284047847 971:1 4439:1 5669:1 #
-0.14884920601009582474816284047847 469:1 971:1 1895:1 2366:1 2530:1 3193:1 4592:1 4675:1 #
0.14884920601009582474816284047847 467:1 657:1 971:1 1055:1 2587:1 3166:1 3743:1 4186:1 #
0.14884920601009582474816284047847 397:1 546:1 971:1 2850:1 2959:1 3926:1 5610:1 #
0.14884920601009582474816284047847 971:1 2668:1 3682:1 5213:1 5593:1 #
0.14884920601009582474816284047847 469:1 971:1 2543:1 3328:1 4555:1 #
0.14884920601009582474816284047847 971:1 4067:1 5027:1 #
-0.14884920601009582474816284047847 39:1 971:1 1086:1 4067:1 #
-0.14884920601009582474816284047847 478:1 971:1 4067:1 5040:1 5547:1 5613:1 #
-0.14884920601009582474816284047847 33:1 887:1 971:1 1171:1 1203:1 2101:1 2388:1 2773:1 3091:1 4345:1 4967:1 5135:1 5189:1 5249:1 #
-0.14884920601009582474816284047847 971:1 1086:1 2556:1 #
-0.14884920601009582474816284047847 165:1 971:1 982:1 2016:1 #
0.14884920601009582474816284047847 731:1 1941:1 3093:1 3397:1 3584:1 3838:1 4592:1 4804:1 5365:1 5366:1 5701:1 #
0.1117753374840431412895469520663 731:1 1173:1 2787:1 2891:1 3075:1 3093:1 3193:1 3397:1 3628:1 4202:1 4393:1 #
0.14884920601009582474816284047847 2023:1 4253:1 #
-0.14884920601009582474816284047847 199:1 731:1 1173:1 1941:1 2028:1 2938:1 3397:1 #
-0.14884920601009582474816284047847 666:1 731:1 1659:1 2136:1 2468:1 2668:1 3193:1 3397:1 4651:1 5861:1 #
-0.14884920601009582474816284047847 731:1 1941:1 3288:1 3397:1 #
-0.14884920601009582474816284047847 731:1 1941:1 3076:1 3397:1 #
0.14884920601009582474816284047847 42:1 971:1 2746:1 4132:1 4323:1 5725:1 #
0.0045342665662934794612581868022971 32:1 33:1 307:1 378:1 902:1 971:1 1105:1 1374:1 1855:1 2397:1 3186:1 3797:1 4554:1 5253:1 #
0.14884920601009582474816284047847 971:1 1556:1 3112:1 3832:1 5189:1 5439:1 5568:1 #
0.14884920601009582474816284047847 379:1 971:1 1475:1 1487:1 3088:1 3868:1 3959:1 4651:1 4800:1 5439:1 #
-0.051472122402648090577770290110493 971:1 2668:1 4215:1 4517:1 #
-0.09623392483805884300984700985282 31:1 32:1 33:1 387:1 971:1 1625:1 1951:1 2397:1 2471:1 3232:1 3249:1 3482:1 3584:1 4118:1 5691:1 #
-0.14884920601009582474816284047847 257:1 397:1 399:1 887:1 971:1 1442:1 3093:1 3188:1 3189:1 3584:1 4251:1 4517:1 4906:1 4967:1 5135:1 5189:1 #
-0.14884920601009582474816284047847 971:1 2417:1 3078:1 3095:1 4662:1 5189:1 #
-0.14884920601009582474816284047847 72:1 899:1 971:1 2023:1 3193:1 5253:1 5439:1 #
0.14884920601009582474816284047847 33:1 257:1 662:1 698:1 731:1 824:1 971:1 1106:1 1941:1 2399:1 2668:1 2699:1 2960:1 3193:1 3397:1 3584:1 3958:1 4154:1 4651:1 4798:1 5005:1 5030:1 5126:1 5604:1 5717:1 #
0.14884920601009582474816284047847 731:1 3397:1 4345:1 5079:1 #
-0.027319491968471922016536979072043 971:1 2051:1 3460:1 #
0.14884920601009582474816284047847 33:1 731:1 2540:1 2543:1 3288:1 3397:1 4044:1 #
0.096776834962781915772112029117125 731:1 3276:1 3397:1 3869:1 #
-0.14884920601009582474816284047847 149:1 731:1 2815:1 5478:1 #
-0.14884920601009582474816284047847 731:1 971:1 2346:1 3093:1 4592:1 4641:1 #
-0.14884920601009582474816284047847 731:1 971:1 1941:1 3397:1 5253:1 #
-0.14884920601009582474816284047847 469:1 584:1 731:1 3288:1 3683:1 5253:1 #
-0.14884920601009582474816284047847 731:1 1941:1 3397:1 4514:1 #
0.14884920601009582474816284047847 971:1 1413:1 2010:1 2023:1 3193:1 4681:1 5253:1 5439:1 #
0.14884920601009582474816284047847 561:1 608:1 971:1 2919:1 3095:1 3193:1 3559:1 4662:1 5366:1 5439:1 #
0.14884920601009582474816284047847 971:1 1941:1 2023:1 2889:1 3193:1 3431:1 4681:1 5253:1 5342:1 #
0.14884920601009582474816284047847 370:1 573:1 971:1 1641:1 2668:1 3193:1 3483:1 5198:1 5690:1 #
-0.14884920601009582474816284047847 33:1 902:1 971:1 2023:1 3193:1 4457:1 4681:1 5198:1 5253:1 5382:1 #
-0.083802942617644163303403104237077 621:1 937:1 971:1 2326:1 2405:1 3193:1 3508:1 4646:1 4681:1 5342:1 #
-0.14884920601009582474816284047847 971:1 1419:1 2023:1 3193:1 4253:1 4681:1 #
-0.14884920601009582474816284047847 971:1 4555:1 4967:1 #
-0.14884920601009582474816284047847 971:1 1161:1 2023:1 3193:1 4294:1 4681:1 4958:1 5725:1 #
0.14884920601009582474816284047847 731:1 1914:1 3889:1 4294:1 5253:1 #
0.040875463184563629037704401980591 31:1 318:1 397:1 731:1 1274:1 1887:1 1937:1 1941:1 2193:1 2432:1 3397:1 4018:1 4324:1 4784:1 4906:1 4967:1 5253:1 5583:1 5701:1 5799:1 #
0.14884920601009582474816284047847 731:1 1914:1 3889:1 5253:1 #
0.14884920601009582474816284047847 621:1 731:1 971:1 1173:1 1842:1 2101:1 3188:1 3189:1 3363:1 3397:1 3849:1 4323:1 #
0.081020763265544193387768245884217 32:1 489:1 731:1 1353:1 3397:1 3996:1 4563:1 4731:1 4758:1 #
-0.14884920601009582474816284047847 731:1 971:1 1757:1 2333:1 2543:1 3193:1 5253:1 #
-0.14884920601009582474816284047847 731:1 1937:1 2648:1 5198:1 5253:1 5823:1 #
0.14884920601009582474816284047847 971:1 1592:1 1641:1 3193:1 4681:1 4939:1 5198:1 #
0.14884920601009582474816284047847 971:1 1659:1 2387:1 2668:1 2826:1 3259:1 4681:1 5281:1 5472:1 #
-0.029975559268347360536433043876059 240:1 971:1 2098:1 3828:1 4681:1 #
0.14884920601009582474816284047847 781:1 971:1 3093:1 3306:1 4693:1 #
0.12546401417950861501005022091704 191:1 731:1 971:1 3397:1 5213:1 #
-0.14884920601009582474816284047847 33:1 73:1 971:1 1885:1 2808:1 2847:1 3205:1 3258:1 3363:1 4194:1 4723:1 5108:1 5195:1 #
-0.064689278912263656340364548213984 971:1 2668:1 3193:1 3881:1 4323:1 4967:1 5178:1 #
0.14884920601009582474816284047847 731:1 971:1 1161:1 1941:1 2093:1 3193:1 5299:1 5519:1 5725:1 #
0.14884920601009582474816284047847 971:1 1941:1 3024:1 4906:1 5253:1 #
0.14884920601009582474816284047847 971:1 1004:1 1937:1 3258:1 3482:1 3622:1 3724:1 4118:1 5253:1 #
-0.14884920601009582474816284047847 731:1 971:1 1941:1 2652:1 3397:1 #
-0.14884920601009582474816284047847 731:1 971:1 1941:1 3193:1 3397:1 4531:1 #
-0.14884920601009582474816284047847 489:1 731:1 971:1 1126:1 1145:1 2083:1 3193:1 3263:1 3999:1 4198:1 4210:1 #
-0.14884920601009582474816284047847 731:1 904:1 971:1 3724:1 5054:1 #
-0.14412915353488214842414549821115 971:1 982:1 1941:1 2985:1 4124:1 4294:1 4412:1 5189:1 #
0.14884920601009582474816284047847 122:1 715:1 731:1 959:1 1348:1 2098:1 2391:1 2985:1 2993:1 3193:1 3423:1 4967:1 5558:1 #
0.14884920601009582474816284047847 472:1 946:1 971:1 1112:1 1135:1 1334:1 1553:1 2668:1 3193:1 4132:1 4323:1 4514:1 4592:1 #
0.14884920601009582474816284047847 971:1 3258:1 4854:1 4967:1 5197:1 5444:1 5845:1 #
0.14884920601009582474816284047847 149:1 971:1 2543:1 3519:1 4393:1 4482:1 5189:1 5593:1 #
-0.049029418052503631608729506297095 971:1 2668:1 4763:1 #
-0.10797209235299932983398463193225 660:1 971:1 2668:1 2850:1 3193:1 3519:1 4136:1 4568:1 4875:1 4920:1 5593:1 #
-0.084728852228666051704664141652756 775:1 971:1 1261:1 1894:1 2469:1 3777:1 4967:1 5270:1 #
-0.14884920601009582474816284047847 42:1 971:1 3584:1 3732:1 3734:1 #
0.14884920601009582474816284047847 33:1 971:1 1240:1 1598:1 1976:1 2010:1 2530:1 2976:1 3152:1 3193:1 4555:1 #
0.14884920601009582474816284047847 731:1 971:1 1941:1 2351:1 2399:1 3249:1 3397:1 3559:1 4967:1 5178:1 #
0.14884920601009582474816284047847 971:1 5054:1 5198:1 #
0.1273443789960131411476140783634 164:1 731:1 971:1 2668:1 3193:1 3397:1 3425:1 3519:1 3540:1 3584:1 4113:1 4592:1 5751:1 #
0.14884920601009582474816284047847 971:1 2668:1 2840:1 3120:1 4699:1 #
-0.043123642141050022580373024538858 236:1 971:1 1382:1 2930:1 3915:1 4762:1 4798:1 4827:1 #
-0.10837938301032365440157434477442 189:1 731:1 971:1 2101:1 2434:1 2942:1 3193:1 3258:1 3728:1 4854:1 #
-0.046003745606630834508177230190995 1660:1 1761:1 2248:1 2354:1 3076:1 4967:1 4973:1 5850:1 #
-0.047431973154139259185591015466343 971:1 1292:1 1311:1 3647:1 3815:1 4345:1 4798:1 5131:1 #
0.14884920601009582474816284047847 31:1 2787:1 4587:1 4681:1 5718:1 #
0.090738614017363328212439910203102 446:1 857:1 971:1 1937:1 2668:1 3193:1 3519:1 4081:1 4202:1 4246:1 5189:1 #
0.14884920601009582474816284047847 971:1 2093:1 3584:1 3828:1 5189:1 #
0.14884920601009582474816284047847 96:1 971:1 1864:1 2885:1 3193:1 3519:1 3886:1 4646:1 5027:1 #
0.064998391245746078848100069080829 971:1 2101:1 2439:1 3476:1 4078:1 4967:1 #
-0.14884920601009582474816284047847 965:1 971:1 2010:1 3120:1 3193:1 4294:1 4681:1 4855:1 5033:1 5189:1 #
0.14884920601009582474816284047847 971:1 1540:1 4180:1 4615:1 4655:1 4967:1 #
0.14884920601009582474816284047847 971:1 1390:1 2076:1 2767:1 3008:1 3304:1 #
-0.14884920601009582474816284047847 813:1 971:1 5126:1 #
-0.14884920601009582474816284047847 31:1 42:1 971:1 3205:1 4386:1 5213:1 5433:1 5749:1 #
-0.03425107512158422073955676978585 971:1 1089:1 1702:1 4252:1 4568:1 #
-0.14884920601009582474816284047847 1487:1 3076:1 4881:1 5213:1 5437:1 #
-0.11744141171157887471032665871462 971:1 2959:1 3491:1 3519:1 4067:1 4323:1 4967:1 #
0.14884920601009582474816284047847 271:1 971:1 4294:1 #
0.14884920601009582474816284047847 971:1 2101:1 3849:1 3969:1 4681:1 4693:1 4703:1 4967:1 5750:1 #
0.14884920601009582474816284047847 971:1 1941:1 2258:1 3363:1 5179:1 #
0.14884920601009582474816284047847 971:1 3120:1 4751:1 #
-0.14884920601009582474816284047847 971:1 4681:1 5198:1 5299:1 #
-0.14884920601009582474816284047847 96:1 903:1 938:1 971:1 1694:1 3474:1 3932:1 4048:1 4646:1 #
-0.14884920601009582474816284047847 971:1 2889:1 4681:1 #
0.11328757279243981126448659324524 96:1 971:1 3193:1 4646:1 5848:1 #
-0.11837841375867803883625839489468 36:1 164:1 370:1 971:1 2402:1 3193:1 3258:1 3532:1 3558:1 4010:1 4592:1 4678:1 5663:1 #
-0.14884920601009582474816284047847 731:1 2580:1 2668:1 2993:1 3519:1 #
-0.14884920601009582474816284047847 731:1 971:1 4243:1 4967:1 5792:1 #
0.14884920601009582474816284047847 971:1 4098:1 5198:1 #
0.14884920601009582474816284047847 636:1 971:1 1662:1 3957:1 4449:1 4646:1 4967:1 #
-0.14884920601009582474816284047847 971:1 1262:1 #
0.14884920601009582474816284047847 2023:1 4098:1 4967:1 #
0.14884920601009582474816284047847 199:1 824:1 971:1 2093:1 3189:1 3968:1 4651:1 #
-0.14884920601009582474816284047847 971:1 2577:1 2579:1 4681:1 5198:1 5253:1 5596:1 #
-0.14884920601009582474816284047847 388:1 971:1 1095:1 3193:1 3213:1 3409:1 4153:1 4442:1 4646:1 4703:1 5213:1 5380:1 #
0.027002402440786874016076524185337 731:1 764:1 928:1 971:1 1106:1 1579:1 2220:1 2249:1 2993:1 3193:1 3525:1 4477:1 4967:1 5869:1 #
0.1282058574128855377161073647585 108:1 117:1 144:1 971:1 1157:1 2010:1 2993:1 3093:1 3193:1 3288:1 4437:1 4555:1 4699:1 4967:1 5859:1 #
0.12033248658587174240164330285552 493:1 589:1 971:1 1938:1 2108:1 2668:1 3193:1 3523:1 3963:1 4568:1 4673:1 5189:1 5680:1 #
-0.14884920601009582474816284047847 469:1 971:1 1809:1 2530:1 2668:1 3193:1 4568:1 #
-0.14884920601009582474816284047847 478:1 971:1 1635:1 2668:1 3193:1 4081:1 4517:1 4568:1 4662:1 5519:1 #
-0.14884920601009582474816284047847 731:1 971:1 1641:1 3193:1 #
-0.14884920601009582474816284047847 32:1 971:1 3193:1 4517:1 #
-0.14884920601009582474816284047847 469:1 971:1 2179:1 3193:1 3460:1 5406:1 #
0.14884920601009582474816284047847 971:1 4681:1 5253:1 #
0.14884920601009582474816284047847 2023:1 2787:1 4206:1 4941:1 5213:1 #
0.14884920601009582474816284047847 971:1 2580:1 3196:1 3258:1 3397:1 4819:1 5198:1 5430:1 5861:1 #
0.14884920601009582474816284047847 31:1 32:1 33:1 634:1 971:1 981:1 1657:1 2098:1 2668:1 3095:1 3193:1 3288:1 3292:1 3425:1 3584:1 4323:1 5299:1 5326:1 5811:1 #
-0.11759907964497721966079524236193 140:1 971:1 1183:1 3778:1 4681:1 4974:1 #
0.14884920601009582474816284047847 950:1 971:1 2023:1 2824:1 3193:1 3559:1 5683:1 #
0.14884920601009582474816284047847 40:1 469:1 971:1 1937:1 2543:1 3922:1 4555:1 #
0.14884920601009582474816284047847 351:1 683:1 971:1 1941:1 2668:1 2956:1 3193:1 3849:1 4651:1 5593:1 #
0.071326723330780258947036998051772 63:1 351:1 425:1 971:1 3519:1 4651:1 #
0.14884920601009582474816284047847 272:1 971:1 1171:1 1203:1 1821:1 1937:1 2412:1 3193:1 3724:1 4345:1 4651:1 4967:1 #
-0.14884920601009582474816284047847 389:1 546:1 553:1 971:1 2023:1 2540:1 2684:1 3193:1 3519:1 4134:1 4651:1 #
-0.11854437406390772036246517018299 152:1 657:1 694:1 902:1 971:1 1020:1 1044:1 1937:1 1955:1 2023:1 3193:1 3886:1 4074:1 4592:1 4999:1 5100:1 5253:1 5523:1 5861:1 #
-0.082122950033152328219721027835476 75:1 971:1 1487:1 2488:1 3193:1 4699:1 5198:1 5276:1 5437:1 #
-0.14884920601009582474816284047847 96:1 971:1 1941:1 4646:1 5658:1 5848:1 #
0.12520296679145795359922033185285 438:1 971:1 1183:1 1413:1 1816:1 2111:1 2120:1 3205:1 3299:1 3584:1 4594:1 5189:1 5195:1 5198:1 #
0.14884920601009582474816284047847 163:1 307:1 971:1 2054:1 2959:1 #
0.14884920601009582474816284047847 72:1 971:1 1641:1 4727:1 4783:1 #
0.14884920601009582474816284047847 313:1 971:1 4646:1 5054:1 #
0.14884920601009582474816284047847 971:1 4646:1 5054:1 #
-0.14884920601009582474816284047847 731:1 1941:1 3085:1 3397:1 #
0.0044014714723101385981940403269164 32:1 971:1 4517:1 5253:1 #
0.14884920601009582474816284047847 32:1 662:1 971:1 3584:1 4651:1 5437:1 #
0.023549452934836664907969350224448 96:1 971:1 2469:1 2668:1 3193:1 3519:1 4646:1 4651:1 5795:1 #
0.14884920601009582474816284047847 731:1 3120:1 3397:1 #
0.14884920601009582474816284047847 731:1 2903:1 3397:1 #
0.14884920601009582474816284047847 734:1 971:1 2668:1 #
-0.14884920601009582474816284047847 731:1 1222:1 4883:1 #
-0.14884920601009582474816284047847 731:1 904:1 3724:1 5054:1 #
-0.14884920601009582474816284047847 72:1 731:1 1937:1 2987:1 3828:1 5380:1 #
-0.14884920601009582474816284047847 731:1 971:1 2787:1 #
0.14884920601009582474816284047847 971:1 1173:1 1941:1 3034:1 3085:1 5253:1 5439:1 5848:1 #
-0.14884920601009582474816284047847 199:1 584:1 971:1 1158:1 2098:1 2113:1 3193:1 5253:1 #
-0.027716297074742598377516955565625 971:1 1864:1 1941:1 2010:1 2157:1 2405:1 3126:1 3193:1 4657:1 5198:1 5253:1 #
0.010444200023340802219173895082349 489:1 971:1 1192:1 3431:1 4202:1 4758:1 5838:1 #
0.14884920601009582474816284047847 971:1 2128:1 4883:1 #
0.14884920601009582474816284047847 79:1 971:1 1374:1 2128:1 2190:1 2942:1 4039:1 5263:1 #
0.14884920601009582474816284047847 31:1 971:1 2668:1 5838:1 #
0.11842485855710227493631236939109 971:1 2253:1 3849:1 #
-0.14884920601009582474816284047847 731:1 971:1 4967:1 #
0.093415784932037823629080719456397 971:1 1595:1 1636:1 2230:1 3053:1 3193:1 3540:1 5040:1 5049:1 5253:1 5433:1 5658:1 #
0.13772964857311378872317675359227 657:1 971:1 1864:1 1934:1 3043:1 4048:1 5253:1 #
0.14884920601009582474816284047847 662:1 971:1 3193:1 4699:1 5164:1 #
0.14884920601009582474816284047847 569:1 971:1 5198:1 #
-0.00079132832526263756703355234378705 235:1 380:1 648:1 902:1 971:1 1488:1 1682:1 2075:1 2668:1 2923:1 3193:1 3258:1 3519:1 5090:1 5583:1 #
-0.13506285259667516474024751005345 39:1 971:1 1314:1 1413:1 1560:1 3193:1 3519:1 3821:1 4294:1 4302:1 5189:1 5213:1 #
-0.14884920601009582474816284047847 971:1 1844:1 2903:1 3193:1 4061:1 4343:1 4918:1 #
0.064965635260025605957068250972952 731:1 2438:1 3093:1 3397:1 4967:1 #
0.023674350941402865639018315846442 971:1 4828:1 5253:1 #
-0.14884920601009582474816284047847 493:1 731:1 4967:1 #
0.14014127839438056399856691314199 42:1 971:1 1937:1 2397:1 2668:1 3193:1 3305:1 3431:1 3584:1 3585:1 4602:1 4999:1 5691:1 #
0.14884920601009582474816284047847 612:1 671:1 971:1 1240:1 1482:1 2023:1 3091:1 3188:1 3193:1 4132:1 #
0.14884920601009582474816284047847 971:1 2787:1 4350:1 5213:1 #
0.13524863654043700611495637531334 928:1 971:1 1086:1 3120:1 3193:1 3460:1 3932:1 4107:1 5848:1 #
-0.14884920601009582474816284047847 163:1 971:1 3193:1 4517:1 5889:1 #
-0.14884920601009582474816284047847 648:1 971:1 2098:1 2131:1 2477:1 2651:1 2668:1 3193:1 4517:1 4681:1 5253:1 5353:1 5395:1 #
-0.14884920601009582474816284047847 41:1 42:1 301:1 648:1 971:1 1711:1 1725:1 1997:1 3193:1 4733:1 5213:1 #
0.068848858406418897426526370963984 971:1 2668:1 4967:1 5838:1 #
0.14884920601009582474816284047847 731:1 3397:1 4967:1 5690:1 #
