SVM-light Version V6.01
0 # kernel type
3 # kernel parameter -d 
1 # kernel parameter -g 
1 # kernel parameter -s 
1 # kernel parameter -r 
empty# kernel parameter -u 
1400 # highest feature index 
870 # number of training documents 
372 # number of support vectors plus 1 
0.25531533 # threshold b, each following line is a SV (starting with alpha*y)
-0.14700596680022898210538073726639 51:1 468:1 488:1 526:1 628:1 632:1 1058:1 #
0.14700596680022898210538073726639 42:1 327:1 468:1 527:1 1255:1 1301:1 #
-0.14700596680022898210538073726639 1:1 487:1 942:1 1301:1 #
-0.14700596680022898210538073726639 489:1 1301:1 #
-0.018729234821541051320137327707016 31:1 33:1 45:1 165:1 190:1 268:1 379:1 426:1 632:1 681:1 1007:1 1185:1 #
-0.14700596680022898210538073726639 59:1 603:1 1301:1 #
0.14700596680022898210538073726639 256:1 426:1 1058:1 1301:1 #
0.1095312828510635883016988145755 632:1 758:1 888:1 #
0.10259759823768294095813757849101 43:1 158:1 190:1 338:1 471:1 592:1 632:1 886:1 1289:1 1301:1 1306:1 #
0.0098902545612752149062352202690818 32:1 66:1 421:1 587:1 608:1 632:1 888:1 932:1 1319:1 1337:1 1359:1 #
-0.14700596680022898210538073726639 112:1 471:1 487:1 632:1 888:1 1301:1 1312:1 #
-0.022630496516047204913490986655233 72:1 241:1 466:1 592:1 632:1 888:1 972:1 1089:1 1312:1 1345:1 #
-0.14700596680022898210538073726639 190:1 487:1 490:1 551:1 632:1 761:1 888:1 1301:1 1345:1 #
-0.14700596680022898210538073726639 471:1 487:1 632:1 888:1 1312:1 #
0.015488549429049206646036296319835 66:1 229:1 254:1 329:1 357:1 422:1 426:1 448:1 463:1 468:1 523:1 538:1 569:1 588:1 590:1 631:1 713:1 735:1 739:1 820:1 847:1 851:1 865:1 916:1 957:1 970:1 981:1 1012:1 1062:1 1113:1 1120:1 1133:1 1141:1 1209:1 1234:1 1301:1 1335:1 1341:1 1353:1 #
0.011469658160905334826074053466982 12:1 15:1 32:1 33:1 37:1 39:1 40:1 43:1 53:1 62:1 64:1 65:1 93:1 139:1 154:1 219:1 220:1 241:1 262:1 271:1 297:1 307:1 325:1 347:1 349:1 364:1 390:1 419:1 421:1 426:1 447:1 468:1 480:1 504:1 514:1 527:1 533:1 540:1 543:1 552:1 560:1 565:1 566:1 612:1 678:1 682:1 691:1 696:1 716:1 722:1 732:1 793:1 799:1 814:1 824:1 859:1 888:1 907:1 913:1 914:1 923:1 938:1 939:1 942:1 965:1 970:1 1007:1 1012:1 1030:1 1034:1 1062:1 1118:1 1140:1 1174:1 1179:1 1205:1 1207:1 1217:1 1232:1 1251:1 1284:1 1301:1 1305:1 1310:1 1379:1 1394:1 #
0.13382371784340624243370143631182 65:1 189:1 190:1 287:1 305:1 308:1 342:1 527:1 533:1 772:1 932:1 994:1 1070:1 1301:1 1361:1 #
-0.01164524895660319116219572066484 361:1 601:1 656:1 1278:1 1295:1 1301:1 1317:1 #
0.14700596680022898210538073726639 31:1 241:1 378:1 400:1 873:1 1065:1 1196:1 1301:1 #
0.14700596680022898210538073726639 42:1 166:1 241:1 375:1 883:1 1301:1 1323:1 #
0.14700596680022898210538073726639 471:1 487:1 1301:1 #
-0.076214125313213226808883860030619 107:1 132:1 307:1 308:1 560:1 629:1 751:1 846:1 1301:1 #
-0.021546294895088174276009951313426 120:1 301:1 422:1 533:1 542:1 560:1 846:1 934:1 1035:1 1243:1 1301:1 #
-2.798367626742407280037447728227e-06 132:1 542:1 1301:1 1327:1 #
0.13396834237352767127404717939498 47:1 190:1 376:1 426:1 440:1 471:1 487:1 559:1 621:1 632:1 709:1 849:1 855:1 888:1 957:1 1343:1 #
-0.099306460508361324435178119074408 7:1 426:1 632:1 697:1 758:1 1301:1 #
0.14700596680022898210538073726639 59:1 190:1 219:1 290:1 361:1 487:1 632:1 836:1 888:1 #
0.022631075078610785045185593844508 114:1 190:1 487:1 632:1 888:1 970:1 1343:1 #
0.11395341978686644723861576267154 7:1 190:1 265:1 295:1 390:1 392:1 597:1 632:1 888:1 1089:1 1334:1 #
-0.14700596680022898210538073726639 273:1 542:1 1301:1 #
-0.030507884465994387912513019500693 108:1 190:1 271:1 468:1 603:1 632:1 697:1 753:1 888:1 #
0.013809828789110710489662636746289 191:1 211:1 213:1 251:1 487:1 518:1 592:1 632:1 797:1 859:1 888:1 895:1 1194:1 #
-0.14502691366207018375256154740782 63:1 190:1 361:1 426:1 487:1 527:1 713:1 758:1 931:1 1092:1 1222:1 1301:1 #
0.08575479055292840879776150586622 54:1 471:1 487:1 560:1 888:1 1222:1 #
0.14700596680022898210538073726639 471:1 632:1 713:1 957:1 1087:1 #
0.14700596680022898210538073726639 560:1 588:1 846:1 874:1 1301:1 #
0.14700596680022898210538073726639 190:1 261:1 538:1 687:1 888:1 911:1 1014:1 1109:1 1301:1 #
0.068518563789780953521280082441081 134:1 277:1 560:1 758:1 846:1 1027:1 1301:1 #
0.11825705997075423858699849688492 32:1 62:1 115:1 139:1 215:1 334:1 527:1 533:1 538:1 560:1 814:1 846:1 935:1 976:1 1089:1 1301:1 1359:1 #
-0.14700596680022898210538073726639 59:1 976:1 1196:1 1301:1 #
0.039226480991047474322641619437491 471:1 487:1 560:1 846:1 888:1 #
-0.14700596680022898210538073726639 277:1 1261:1 1301:1 #
-0.023977729268802764478474287557219 190:1 308:1 426:1 471:1 555:1 966:1 1055:1 1092:1 1301:1 #
-0.019194552694936483500098844956483 158:1 518:1 976:1 1301:1 #
0.14700596680022898210538073726639 16:1 102:1 126:1 185:1 187:1 190:1 370:1 426:1 447:1 456:1 468:1 582:1 632:1 888:1 1222:1 1359:1 1363:1 #
0.14700596680022898210538073726639 78:1 190:1 216:1 500:1 632:1 888:1 1262:1 #
0.024243641674965562410326569420249 65:1 72:1 112:1 190:1 256:1 394:1 400:1 422:1 426:1 466:1 471:1 486:1 592:1 594:1 632:1 861:1 864:1 888:1 920:1 959:1 1273:1 1341:1 #
0.14700596680022898210538073726639 72:1 153:1 190:1 225:1 308:1 466:1 542:1 808:1 863:1 887:1 888:1 981:1 994:1 1301:1 #
0.14700596680022898210538073726639 7:1 49:1 150:1 190:1 578:1 592:1 691:1 738:1 861:1 888:1 958:1 1007:1 1301:1 1362:1 #
-0.067890699405852628078861243920983 16:1 31:1 78:1 216:1 619:1 767:1 932:1 1230:1 1301:1 #
0.030002268123737282912166790538322 190:1 632:1 753:1 758:1 953:1 1279:1 1301:1 #
-0.014503087264951402407531233507143 43:1 44:1 129:1 190:1 240:1 261:1 426:1 428:1 443:1 533:1 549:1 592:1 594:1 646:1 809:1 888:1 924:1 1168:1 1192:1 1265:1 1301:1 1359:1 #
-0.088745427751761002399533140305721 225:1 235:1 487:1 560:1 594:1 632:1 709:1 762:1 887:1 888:1 920:1 927:1 1014:1 1052:1 1142:1 1210:1 1220:1 1352:1 #
-0.074083721614649919451345283505361 118:1 216:1 241:1 501:1 592:1 594:1 660:1 776:1 888:1 950:1 957:1 1134:1 1204:1 1267:1 #
0.14700596680022898210538073726639 256:1 487:1 1058:1 1301:1 1312:1 #
0.14700596680022898210538073726639 426:1 1208:1 1301:1 #
0.14700596680022898210538073726639 426:1 1301:1 #
0.14700596680022898210538073726639 112:1 608:1 758:1 1301:1 #
0.14700596680022898210538073726639 31:1 320:1 713:1 748:1 791:1 962:1 1301:1 #
-0.14700596680022898210538073726639 256:1 480:1 1058:1 1143:1 1301:1 1388:1 #
0.062166535166516330435104720208983 348:1 379:1 632:1 888:1 1058:1 1320:1 #
0.06263933165104580702564618377437 11:1 487:1 758:1 957:1 1087:1 1301:1 #
0.037140346345354569024266311316751 241:1 560:1 758:1 1301:1 #
-0.018114749994728587129122487908717 23:1 32:1 556:1 592:1 601:1 697:1 802:1 849:1 853:1 903:1 937:1 941:1 1169:1 1171:1 1301:1 1359:1 #
0.072404611189030299023272618796909 139:1 226:1 251:1 263:1 322:1 357:1 418:1 468:1 472:1 487:1 490:1 516:1 533:1 560:1 697:1 709:1 841:1 860:1 888:1 898:1 932:1 1012:1 1107:1 1187:1 1291:1 1325:1 1333:1 1335:1 #
0.14700596680022898210538073726639 129:1 251:1 330:1 390:1 418:1 490:1 560:1 706:1 862:1 888:1 #
0.074536017475312771329853944735078 7:1 31:1 44:1 142:1 197:1 361:1 519:1 616:1 632:1 888:1 965:1 969:1 1007:1 1014:1 1188:1 1224:1 1315:1 #
0.019003228416201559808351717606456 190:1 241:1 379:1 411:1 451:1 554:1 650:1 674:1 709:1 761:1 816:1 888:1 1074:1 1222:1 1345:1 #
-0.015843842148156542931625168080245 251:1 273:1 560:1 697:1 876:1 888:1 994:1 #
-0.012630563685264514436901173155547 308:1 807:1 1146:1 1225:1 1301:1 #
-0.14700596680022898210538073726639 632:1 888:1 1287:1 1345:1 #
-0.14700596680022898210538073726639 210:1 551:1 632:1 761:1 888:1 1345:1 #
-0.14700596680022898210538073726639 299:1 543:1 632:1 888:1 932:1 1225:1 #
0.14700596680022898210538073726639 118:1 225:1 240:1 241:1 311:1 349:1 386:1 443:1 887:1 1045:1 1058:1 1301:1 #
0.14700596680022898210538073726639 110:1 307:1 471:1 592:1 687:1 713:1 784:1 1092:1 1301:1 #
0.14700596680022898210538073726639 33:1 592:1 797:1 1301:1 #
0.10517632140814608954215714220481 153:1 190:1 323:1 368:1 387:1 442:1 486:1 592:1 711:1 715:1 809:1 869:1 1092:1 1160:1 1244:1 1296:1 1301:1 1314:1 #
0.081985150661427683149717893229536 797:1 957:1 1301:1 #
-0.14700596680022898210538073726639 31:1 190:1 229:1 308:1 527:1 567:1 768:1 887:1 1007:1 1058:1 1211:1 1222:1 1301:1 #
-0.076749459932903954517691147430014 23:1 42:1 88:1 190:1 308:1 455:1 713:1 1032:1 1289:1 1301:1 1314:1 #
-0.14700596680022898210538073726639 42:1 153:1 190:1 432:1 527:1 601:1 1007:1 1242:1 1301:1 #
-0.14700596680022898210538073726639 78:1 134:1 216:1 592:1 1238:1 1301:1 #
-0.14700596680022898210538073726639 66:1 109:1 190:1 443:1 487:1 527:1 533:1 758:1 1235:1 1301:1 1364:1 #
0.14700596680022898210538073726639 76:1 487:1 632:1 888:1 957:1 1157:1 1345:1 #
0.14700596680022898210538073726639 379:1 632:1 761:1 888:1 1345:1 #
0.14700596680022898210538073726639 44:1 158:1 190:1 256:1 426:1 632:1 812:1 849:1 888:1 #
0.14700596680022898210538073726639 632:1 888:1 1014:1 1152:1 #
-0.14700596680022898210538073726639 43:1 379:1 426:1 592:1 632:1 761:1 855:1 888:1 #
-0.14700596680022898210538073726639 379:1 487:1 632:1 761:1 888:1 1312:1 1345:1 #
-0.14700596680022898210538073726639 311:1 487:1 632:1 715:1 808:1 888:1 1355:1 #
-0.14700596680022898210538073726639 414:1 632:1 888:1 1208:1 1342:1 #
0.14700596680022898210538073726639 379:1 487:1 632:1 761:1 1301:1 1345:1 #
0.14700596680022898210538073726639 63:1 229:1 293:1 422:1 758:1 988:1 1301:1 #
0.029702113601034772771836145466295 1:1 78:1 156:1 159:1 384:1 468:1 608:1 660:1 723:1 876:1 966:1 1012:1 1074:1 1087:1 1229:1 1240:1 1267:1 1301:1 #
0.14700596680022898210538073726639 66:1 112:1 229:1 471:1 527:1 1255:1 1301:1 #
0.14700596680022898210538073726639 65:1 190:1 308:1 416:1 471:1 527:1 713:1 953:1 1301:1 #
-0.14700596680022898210538073726639 190:1 229:1 758:1 875:1 1301:1 #
-0.14700596680022898210538073726639 63:1 190:1 199:1 476:1 490:1 527:1 533:1 713:1 981:1 1014:1 1301:1 #
-0.099541198329756497287235106341541 28:1 241:1 426:1 471:1 1068:1 1301:1 #
-0.14700596680022898210538073726639 426:1 471:1 1014:1 1301:1 #
0.14700596680022898210538073726639 59:1 487:1 632:1 888:1 1291:1 #
0.14700596680022898210538073726639 487:1 632:1 888:1 1004:1 #
0.14700596680022898210538073726639 106:1 134:1 379:1 632:1 761:1 888:1 1345:1 #
0.084963512835962179403637151153816 160:1 357:1 412:1 487:1 632:1 824:1 888:1 1263:1 #
-0.14700596680022898210538073726639 76:1 487:1 632:1 948:1 #
-0.14700596680022898210538073726639 487:1 632:1 676:1 888:1 1225:1 #
-0.14700596680022898210538073726639 487:1 632:1 875:1 888:1 #
-0.14700596680022898210538073726639 456:1 487:1 632:1 758:1 888:1 898:1 1312:1 #
0.14700596680022898210538073726639 471:1 542:1 697:1 1301:1 #
0.14700596680022898210538073726639 190:1 426:1 487:1 758:1 940:1 1263:1 1301:1 1333:1 #
-0.14700596680022898210538073726639 65:1 390:1 444:1 587:1 664:1 697:1 713:1 755:1 1004:1 1096:1 1301:1 #
-0.14700596680022898210538073726639 48:1 112:1 241:1 943:1 966:1 1208:1 1301:1 #
0.047191722928789807400828948402705 468:1 994:1 1301:1 #
-0.0014908602689765260498888643780901 46:1 78:1 109:1 216:1 351:1 359:1 406:1 487:1 560:1 749:1 785:1 846:1 1158:1 1219:1 1289:1 1301:1 1302:1 1375:1 1384:1 #
-0.10320175298650198503214170386855 7:1 578:1 976:1 1301:1 1315:1 #
0.14700596680022898210538073726639 23:1 190:1 410:1 549:1 632:1 754:1 780:1 849:1 888:1 968:1 970:1 #
0.14700596680022898210538073726639 1:1 503:1 519:1 758:1 1301:1 #
0.14700596680022898210538073726639 114:1 533:1 632:1 713:1 888:1 #
0.14286986921802355410271445634862 42:1 159:1 210:1 468:1 709:1 888:1 957:1 1301:1 #
0.14700596680022898210538073726639 348:1 379:1 632:1 888:1 #
-0.14700596680022898210538073726639 301:1 632:1 713:1 888:1 #
-0.14700596680022898210538073726639 632:1 888:1 1103:1 1130:1 #
-0.14700596680022898210538073726639 632:1 888:1 974:1 #
-0.036788693622388818349477901392675 109:1 315:1 357:1 422:1 507:1 521:1 522:1 533:1 557:1 594:1 632:1 715:1 824:1 888:1 909:1 1009:1 1091:1 1196:1 1274:1 1286:1 1323:1 #
0.14700596680022898210538073726639 261:1 308:1 371:1 487:1 1301:1 #
0.14700596680022898210538073726639 760:1 1014:1 1301:1 #
0.14700596680022898210538073726639 16:1 190:1 426:1 487:1 563:1 758:1 925:1 966:1 1301:1 #
0.14700596680022898210538073726639 174:1 423:1 981:1 1301:1 #
-0.14700596680022898210538073726639 487:1 566:1 603:1 758:1 1301:1 #
-0.037682705807752181481617981262389 16:1 24:1 134:1 177:1 487:1 560:1 627:1 687:1 697:1 1213:1 1301:1 #
-0.14700596680022898210538073726639 154:1 185:1 487:1 664:1 846:1 957:1 1087:1 1138:1 1273:1 1301:1 #
-0.14700596680022898210538073726639 114:1 156:1 808:1 1087:1 1092:1 1301:1 #
0.097806822011243091385956915928546 215:1 238:1 560:1 592:1 632:1 846:1 888:1 1104:1 #
0.14700596680022898210538073726639 189:1 632:1 888:1 994:1 #
0.14700596680022898210538073726639 471:1 632:1 888:1 #
0.1185901775875417285543989009966 471:1 479:1 632:1 888:1 1059:1 #
0.14700596680022898210538073726639 632:1 758:1 808:1 888:1 #
-0.14700596680022898210538073726639 32:1 426:1 471:1 888:1 1255:1 1291:1 #
-0.14700596680022898210538073726639 471:1 632:1 888:1 1312:1 #
-0.13533342922998969903858323959867 379:1 426:1 632:1 888:1 1215:1 #
-0.043322315345551185017392015197402 134:1 487:1 632:1 653:1 670:1 976:1 1301:1 #
0.14700596680022898210538073726639 237:1 487:1 1089:1 1301:1 #
0.14700596680022898210538073726639 487:1 1054:1 1301:1 #
0.14700596680022898210538073726639 11:1 487:1 1301:1 #
0.14700596680022898210538073726639 443:1 471:1 487:1 957:1 959:1 1087:1 1301:1 #
-0.14700596680022898210538073726639 22:1 487:1 490:1 957:1 1301:1 #
-0.14700596680022898210538073726639 487:1 680:1 1301:1 #
-0.14700596680022898210538073726639 487:1 1136:1 1301:1 #
-0.032882487565533330409195400534372 533:1 758:1 849:1 861:1 1301:1 1312:1 #
0.14700596680022898210538073726639 241:1 632:1 831:1 888:1 1033:1 1255:1 1359:1 #
0.14700596680022898210538073726639 114:1 632:1 713:1 888:1 #
-0.14700596680022898210538073726639 72:1 112:1 190:1 538:1 713:1 888:1 901:1 979:1 1101:1 1301:1 #
-0.14700596680022898210538073726639 96:1 109:1 156:1 190:1 219:1 632:1 849:1 880:1 1301:1 1345:1 1359:1 #
-0.076107523495719711648099803369405 361:1 423:1 443:1 632:1 749:1 888:1 976:1 1091:1 1273:1 1359:1 #
-0.14584483960058711171647871651658 241:1 308:1 361:1 547:1 888:1 1287:1 #
-0.10470409016965585846659081425969 9:1 82:1 187:1 241:1 281:1 287:1 351:1 360:1 488:1 753:1 888:1 1012:1 #
0.14700596680022898210538073726639 32:1 285:1 487:1 1301:1 1374:1 #
0.14343429043219169116696320998017 327:1 351:1 555:1 771:1 824:1 914:1 966:1 1058:1 1174:1 1196:1 1301:1 #
0.14700596680022898210538073726639 368:1 461:1 718:1 720:1 869:1 1001:1 1010:1 1273:1 1301:1 1344:1 #
0.14700596680022898210538073726639 280:1 1301:1 #
-0.14700596680022898210538073726639 487:1 490:1 1255:1 1301:1 #
0.14700596680022898210538073726639 560:1 705:1 846:1 888:1 1012:1 #
0.11636643693637917229555256426465 190:1 487:1 538:1 560:1 632:1 686:1 753:1 888:1 901:1 1004:1 1157:1 #
-0.10649275146174254358388822083725 361:1 652:1 1301:1 #
-0.10135285290397204327472735485571 190:1 199:1 251:1 560:1 1211:1 1301:1 #
-0.14700596680022898210538073726639 76:1 632:1 839:1 1303:1 #
-0.056457023780881764041250647778725 133:1 190:1 225:1 471:1 487:1 542:1 560:1 563:1 846:1 888:1 1006:1 1301:1 1312:1 #
-0.14700596680022898210538073726639 190:1 542:1 560:1 671:1 713:1 888:1 1122:1 1301:1 #
-0.14700596680022898210538073726639 37:1 132:1 632:1 843:1 888:1 1345:1 #
0.14700596680022898210538073726639 156:1 487:1 706:1 1301:1 #
0.14700596680022898210538073726639 42:1 471:1 527:1 1255:1 1301:1 #
0.14700596680022898210538073726639 713:1 1301:1 #
0.14700596680022898210538073726639 105:1 199:1 468:1 1255:1 1301:1 #
0.14700596680022898210538073726639 167:1 1301:1 #
-0.14700596680022898210538073726639 779:1 970:1 1301:1 #
-0.14700596680022898210538073726639 603:1 758:1 1301:1 #
-0.14700596680022898210538073726639 270:1 1014:1 1301:1 #
-0.053122530132480749731627156506875 43:1 65:1 103:1 185:1 266:1 403:1 407:1 422:1 520:1 720:1 721:1 825:1 922:1 1042:1 1179:1 1301:1 #
-0.11666742473790819856205303040042 16:1 158:1 190:1 251:1 409:1 487:1 525:1 627:1 888:1 1019:1 1089:1 1247:1 1301:1 #
-0.030535194107645005634488200030319 16:1 426:1 471:1 632:1 944:1 1236:1 #
0.14700596680022898210538073726639 421:1 587:1 1150:1 1301:1 #
0.14700596680022898210538073726639 105:1 1301:1 1385:1 #
0.14700596680022898210538073726639 421:1 1301:1 #
0.14700596680022898210538073726639 112:1 758:1 1301:1 #
-0.14700596680022898210538073726639 32:1 592:1 713:1 849:1 1261:1 1301:1 #
-0.13589432973240070379183919158095 1074:1 1136:1 1301:1 #
-0.14700596680022898210538073726639 186:1 1301:1 1325:1 #
-0.14700596680022898210538073726639 713:1 890:1 1301:1 #
-0.14700596680022898210538073726639 699:1 713:1 1301:1 #
0.034178099268162266677339999887408 1:1 201:1 471:1 632:1 888:1 1014:1 #
0.14700596680022898210538073726639 379:1 487:1 632:1 888:1 1222:1 1345:1 #
0.14700596680022898210538073726639 65:1 183:1 190:1 261:1 383:1 394:1 557:1 713:1 888:1 944:1 1037:1 1301:1 1316:1 1374:1 #
0.14154322661120549708968496815942 158:1 190:1 377:1 560:1 592:1 632:1 761:1 1087:1 1345:1 #
-0.015475215423316094481842597474497 632:1 888:1 942:1 944:1 #
0.06572607605398217422987272584578 63:1 175:1 190:1 487:1 797:1 888:1 1301:1 #
0.14700596680022898210538073726639 215:1 1301:1 #
0.14700596680022898210538073726639 713:1 758:1 1301:1 #
0.14700596680022898210538073726639 471:1 487:1 542:1 937:1 1301:1 #
-0.14700596680022898210538073726639 183:1 487:1 709:1 1012:1 1233:1 1301:1 1352:1 #
-0.065208902408675412099015034073091 65:1 72:1 190:1 374:1 422:1 487:1 808:1 937:1 976:1 1010:1 1301:1 #
-0.14700596680022898210538073726639 42:1 190:1 327:1 527:1 560:1 603:1 846:1 888:1 913:1 1222:1 1301:1 #
0.14700596680022898210538073726639 262:1 302:1 412:1 440:1 486:1 490:1 632:1 701:1 1192:1 #
0.010970411249386680802020421765519 76:1 471:1 487:1 632:1 #
-0.14700596680022898210538073726639 632:1 888:1 976:1 #
-0.11168308149772146475875445048587 713:1 716:1 888:1 942:1 1255:1 1331:1 #
-0.14700596680022898210538073726639 271:1 632:1 888:1 1352:1 #
0.058623562852859446847819668846569 143:1 158:1 199:1 487:1 527:1 758:1 1177:1 1301:1 #
0.14700596680022898210538073726639 59:1 487:1 1301:1 #
0.14700596680022898210538073726639 1004:1 1301:1 #
0.14700596680022898210538073726639 30:1 1004:1 1301:1 #
0.14700596680022898210538073726639 528:1 782:1 906:1 1262:1 1301:1 1359:1 #
-0.14700596680022898210538073726639 490:1 862:1 957:1 1087:1 1301:1 #
-0.14700596680022898210538073726639 1301:1 1311:1 #
-0.074545364601541291849073900266376 239:1 368:1 487:1 490:1 746:1 1301:1 #
-0.012792642718064625023677294279878 481:1 486:1 594:1 620:1 632:1 762:1 858:1 888:1 1213:1 1340:1 1352:1 1363:1 #
-0.14700596680022898210538073726639 652:1 1301:1 #
-0.14700596680022898210538073726639 134:1 177:1 1301:1 #
-0.098871399358925887712601365819864 190:1 241:1 245:1 406:1 632:1 697:1 845:1 849:1 1174:1 1301:1 #
-0.14700596680022898210538073726639 394:1 426:1 471:1 1301:1 #
-0.094205593015372610099511518910731 190:1 191:1 308:1 422:1 1284:1 1301:1 #
0.14700596680022898210538073726639 62:1 114:1 190:1 198:1 750:1 807:1 888:1 920:1 1301:1 #
0.14700596680022898210538073726639 158:1 229:1 555:1 1301:1 #
-0.042138786418522769516847858994879 190:1 197:1 403:1 407:1 553:1 745:1 888:1 1066:1 1091:1 1301:1 #
0.14700596680022898210538073726639 308:1 487:1 758:1 898:1 1301:1 1318:1 #
-0.14700596680022898210538073726639 59:1 487:1 632:1 888:1 1312:1 1359:1 #
-0.14700596680022898210538073726639 33:1 42:1 606:1 867:1 1301:1 #
-0.14700596680022898210538073726639 487:1 560:1 758:1 888:1 1312:1 #
0.14700596680022898210538073726639 706:1 1196:1 1301:1 #
0.14700596680022898210538073726639 63:1 487:1 758:1 1002:1 1301:1 #
0.14700596680022898210538073726639 394:1 487:1 706:1 1301:1 #
0.14700596680022898210538073726639 62:1 66:1 126:1 578:1 1301:1 #
0.14700596680022898210538073726639 44:1 59:1 592:1 1301:1 #
0.14700596680022898210538073726639 443:1 468:1 1012:1 1301:1 #
0.14700596680022898210538073726639 758:1 1301:1 #
-0.14700596680022898210538073726639 190:1 273:1 488:1 758:1 944:1 1196:1 1301:1 #
-0.068697095943546393481682343917782 27:1 426:1 533:1 538:1 555:1 592:1 632:1 933:1 991:1 1058:1 1272:1 1335:1 #
-0.11675568886070600282955922466499 109:1 194:1 533:1 592:1 632:1 684:1 934:1 1003:1 1012:1 1301:1 1333:1 #
-0.038170774206477214862687219465442 187:1 190:1 426:1 471:1 1014:1 1123:1 1301:1 1318:1 1388:1 #
0.14700596680022898210538073726639 468:1 1301:1 #
0.14700596680022898210538073726639 487:1 758:1 1301:1 #
-0.029130818389078334817998694461494 32:1 132:1 527:1 557:1 601:1 604:1 687:1 726:1 1021:1 1073:1 1301:1 #
-0.1188643104728074884057775761903 96:1 118:1 225:1 307:1 424:1 438:1 561:1 577:1 603:1 607:1 758:1 1089:1 1301:1 #
-0.14700596680022898210538073726639 245:1 443:1 1301:1 #
-0.14700596680022898210538073726639 308:1 443:1 1025:1 1301:1 #
-0.14700596680022898210538073726639 542:1 902:1 1301:1 #
-0.14700596680022898210538073726639 301:1 487:1 1301:1 #
-0.14700596680022898210538073726639 251:1 400:1 1301:1 #
-0.14700596680022898210538073726639 487:1 1225:1 1301:1 #
0.14700596680022898210538073726639 587:1 758:1 1301:1 #
-0.14700596680022898210538073726639 190:1 308:1 426:1 471:1 632:1 697:1 753:1 758:1 1255:1 1301:1 #
-0.14700596680022898210538073726639 762:1 1301:1 #
-0.14700596680022898210538073726639 113:1 158:1 783:1 1136:1 1301:1 #
-0.14700596680022898210538073726639 261:1 587:1 976:1 1301:1 #
-0.0098153689895757734173997732796124 13:1 31:1 32:1 33:1 44:1 89:1 110:1 117:1 132:1 214:1 255:1 275:1 291:1 307:1 327:1 356:1 406:1 448:1 467:1 468:1 482:1 490:1 536:1 633:1 773:1 842:1 851:1 976:1 1044:1 1063:1 1195:1 1202:1 1224:1 1239:1 1301:1 #
-0.14700596680022898210538073726639 673:1 890:1 1301:1 #
-0.14700596680022898210538073726639 1208:1 1301:1 1382:1 #
0.14305801270322612839258624717331 241:1 368:1 400:1 713:1 877:1 1004:1 1301:1 #
0.14700596680022898210538073726639 289:1 487:1 632:1 1152:1 1301:1 #
0.14700596680022898210538073726639 471:1 545:1 849:1 1301:1 #
0.14700596680022898210538073726639 471:1 713:1 1065:1 1301:1 #
0.14700596680022898210538073726639 632:1 1146:1 1301:1 1343:1 1359:1 #
-0.14700596680022898210538073726639 713:1 896:1 1301:1 #
-0.058922663935280616964718092276598 456:1 487:1 898:1 942:1 1301:1 #
0.14700596680022898210538073726639 190:1 289:1 308:1 471:1 542:1 588:1 713:1 863:1 888:1 1301:1 #
0.044420435203623140352213738424325 308:1 483:1 487:1 794:1 797:1 888:1 #
0.14700596680022898210538073726639 59:1 190:1 487:1 514:1 533:1 888:1 1089:1 1301:1 #
0.083146422795671137695450170213007 190:1 400:1 526:1 533:1 797:1 888:1 922:1 928:1 968:1 1301:1 #
0.14700596680022898210538073726639 308:1 797:1 1301:1 #
-0.14700596680022898210538073726639 190:1 455:1 487:1 809:1 849:1 888:1 1134:1 1301:1 #
-0.14117677665493957861464480174618 308:1 1067:1 1301:1 1399:1 #
-0.14700596680022898210538073726639 308:1 1301:1 #
0.14700596680022898210538073726639 16:1 134:1 487:1 758:1 1301:1 #
0.14700596680022898210538073726639 218:1 458:1 471:1 487:1 1029:1 1301:1 #
0.082272304755684783073022003918595 308:1 797:1 925:1 1301:1 #
0.14700596680022898210538073726639 371:1 487:1 632:1 957:1 #
0.056876225391344958914885410194984 204:1 797:1 1255:1 1301:1 #
-0.027122570924982027096294956436395 153:1 248:1 251:1 472:1 476:1 542:1 724:1 740:1 1020:1 1058:1 1254:1 1301:1 1363:1 #
-0.14700596680022898210538073726639 245:1 1289:1 1301:1 #
0.14700596680022898210538073726639 241:1 361:1 471:1 544:1 587:1 817:1 1301:1 #
0.14700596680022898210538073726639 76:1 471:1 994:1 1301:1 #
0.14700596680022898210538073726639 797:1 1222:1 1301:1 #
-0.075350358039632164830479155170906 875:1 1301:1 #
-0.074174204366779891706151772723388 1103:1 1130:1 1301:1 1381:1 #
-0.01116363996928373264472256209956 26:1 1261:1 1301:1 #
0.14700596680022898210538073726639 241:1 627:1 797:1 1301:1 #
-0.046291619867601545290636266827278 193:1 398:1 551:1 1301:1 #
0.029877887103559090664628428157812 468:1 888:1 959:1 1012:1 #
0.14700596680022898210538073726639 797:1 1093:1 1301:1 #
-0.14700596680022898210538073726639 664:1 1301:1 #
-0.01314380838175068649809063003886 467:1 551:1 1301:1 #
-0.14700596680022898210538073726639 533:1 542:1 942:1 994:1 1301:1 #
-0.14700596680022898210538073726639 222:1 301:1 758:1 976:1 1301:1 #
-0.14700596680022898210538073726639 471:1 487:1 632:1 888:1 1042:1 1312:1 #
-0.14700596680022898210538073726639 471:1 487:1 888:1 957:1 1312:1 #
-0.10503186151077728571756608744181 190:1 426:1 471:1 472:1 487:1 632:1 727:1 753:1 1301:1 #
-0.14700596680022898210538073726639 487:1 560:1 592:1 758:1 1301:1 1312:1 #
0.14700596680022898210538073726639 758:1 849:1 1301:1 #
0.094213018579865817625496049458889 53:1 59:1 579:1 632:1 821:1 911:1 997:1 1301:1 #
0.14700596680022898210538073726639 277:1 542:1 758:1 953:1 1301:1 #
0.14700596680022898210538073726639 758:1 1014:1 1301:1 #
0.11140175576868342754988105980374 758:1 852:1 1058:1 1186:1 1301:1 #
-0.10511337832163618333236598800795 538:1 594:1 828:1 888:1 901:1 957:1 968:1 1077:1 1087:1 1301:1 #
-0.14700596680022898210538073726639 16:1 361:1 888:1 #
-0.093020913564075075052883789794578 426:1 471:1 988:1 1301:1 #
0.023602578436631060226913447763764 156:1 471:1 487:1 592:1 748:1 791:1 953:1 1012:1 1087:1 1301:1 1388:1 #
-0.14700596680022898210538073726639 487:1 560:1 758:1 908:1 1301:1 1312:1 #
-0.14700596680022898210538073726639 31:1 426:1 471:1 487:1 1301:1 #
0.045379429041412358558638118211093 77:1 207:1 220:1 349:1 487:1 627:1 672:1 758:1 1301:1 #
0.14700596680022898210538073726639 560:1 713:1 758:1 1301:1 #
-0.14700596680022898210538073726639 308:1 1238:1 1301:1 #
-0.14700596680022898210538073726639 132:1 190:1 394:1 426:1 471:1 632:1 888:1 1301:1 #
-0.064539862655345656139438403897657 66:1 134:1 190:1 527:1 758:1 1014:1 1301:1 1306:1 1312:1 #
-0.053808858737610980316201647610796 308:1 651:1 697:1 758:1 1261:1 1284:1 1301:1 #
-0.049979998010167822619642663539707 301:1 592:1 720:1 808:1 888:1 1001:1 1301:1 #
0.14700596680022898210538073726639 114:1 487:1 632:1 888:1 1291:1 #
0.024300852991357386329029921512301 487:1 560:1 632:1 687:1 846:1 876:1 987:1 1036:1 1249:1 #
0.14700596680022898210538073726639 379:1 487:1 632:1 761:1 888:1 1345:1 #
-0.077166082573559294233156435893761 74:1 135:1 330:1 713:1 888:1 1352:1 #
-0.13488432989802795480827057872375 251:1 574:1 713:1 1301:1 #
-0.14700596680022898210538073726639 239:1 241:1 746:1 779:1 1301:1 #
-0.14700596680022898210538073726639 713:1 1261:1 1301:1 #
-0.035083151248813580769247977286796 105:1 190:1 405:1 693:1 888:1 899:1 1273:1 1301:1 1352:1 #
-0.14700596680022898210538073726639 426:1 471:1 957:1 1301:1 #
-0.14700596680022898210538073726639 426:1 471:1 487:1 1301:1 #
-0.093880106084121797693775590687437 426:1 471:1 487:1 515:1 1301:1 #
-0.12387553955321001231126842867525 251:1 400:1 627:1 999:1 1301:1 #
-0.039456446268397164789387687733324 367:1 488:1 615:1 1301:1 #
-0.03810805496580085827140749188402 190:1 459:1 542:1 594:1 740:1 849:1 888:1 968:1 1301:1 #
-0.027493621361419216808652521422118 453:1 713:1 849:1 1225:1 1301:1 #
-0.061125318212639022374954578253892 387:1 426:1 632:1 697:1 758:1 888:1 1252:1 #
-0.070391121711128101789967104195966 190:1 467:1 487:1 551:1 888:1 1008:1 1301:1 #
0.14700596680022898210538073726639 65:1 394:1 471:1 713:1 1301:1 #
0.11353422682905016383170249127943 44:1 394:1 706:1 713:1 1301:1 #
0.14700596680022898210538073726639 59:1 487:1 632:1 957:1 #
0.064569920946189240940071840668679 419:1 471:1 500:1 888:1 1014:1 1174:1 #
-0.14700596680022898210538073726639 109:1 487:1 1301:1 #
0.12768507030473943975046324794675 229:1 468:1 622:1 1273:1 1301:1 #
-0.14700596680022898210538073726639 944:1 1301:1 1383:1 #
0.14700596680022898210538073726639 471:1 487:1 632:1 888:1 #
-0.08753630204188887764527038370943 713:1 1225:1 1301:1 #
-0.064837509940798440655207457439246 490:1 592:1 859:1 1301:1 #
-0.14700596680022898210538073726639 632:1 875:1 888:1 944:1 #
0.14700596680022898210538073726639 758:1 925:1 1301:1 #
-0.0088583763070680769657894160218348 226:1 632:1 888:1 976:1 1301:1 #
0.010970411249386479574097208455896 471:1 487:1 632:1 830:1 #
-0.13694333063902489056040678860882 16:1 426:1 632:1 697:1 758:1 #
-0.013472131748919487226334723573018 31:1 32:1 44:1 132:1 158:1 190:1 357:1 542:1 592:1 594:1 632:1 695:1 715:1 787:1 808:1 849:1 880:1 889:1 911:1 957:1 976:1 997:1 1047:1 1265:1 1301:1 1338:1 1370:1 1396:1 #
-0.12659785759243347147418035092414 271:1 487:1 888:1 1255:1 1352:1 #
-0.00020199177486364297377796628296664 109:1 713:1 849:1 1301:1 #
-0.034754638667151512010367042648795 63:1 487:1 758:1 1040:1 1301:1 1312:1 #
0.034897839349048449808510241609838 146:1 196:1 687:1 888:1 911:1 952:1 970:1 1004:1 #
-0.074178911200136019021833533315657 603:1 957:1 1087:1 1089:1 1301:1 #
-0.059099055484312233710308959189206 426:1 471:1 542:1 560:1 1167:1 1301:1 #
-0.14700596680022898210538073726639 487:1 942:1 1301:1 #
0.14700596680022898210538073726639 487:1 797:1 1301:1 #
0.015985712656646725721154567168014 471:1 632:1 888:1 1058:1 #
-0.025004116165412110933674583179709 426:1 471:1 487:1 542:1 1301:1 #
0.010870297261547468697928664482788 190:1 471:1 801:1 888:1 925:1 953:1 1007:1 1014:1 1092:1 1301:1 #
0.075810343229973611856031823208468 487:1 632:1 758:1 1301:1 #
-0.00040433744461383170146207000072991 56:1 92:1 132:1 251:1 260:1 261:1 307:1 475:1 490:1 531:1 537:1 538:1 560:1 601:1 617:1 718:1 793:1 856:1 892:1 903:1 1004:1 1018:1 1072:1 1096:1 1097:1 1153:1 1301:1 #
-0.024899499720202826480441871126459 490:1 849:1 1301:1 #
-0.017533648847834967798853256226721 944:1 1067:1 1301:1 #
-0.0031517600879082678828890795585949 72:1 342:1 888:1 976:1 1301:1 1359:1 #
0.0031358183741421689211259504759255 32:1 335:1 487:1 669:1 797:1 968:1 1301:1 #
-0.0018626706085445655144278154224935 487:1 668:1 758:1 1301:1 1312:1 #
-0.0018626706085446752356876709555422 487:1 758:1 1024:1 1301:1 1312:1 #
-0.0017892065560045802667665792995422 385:1 487:1 758:1 1301:1 1312:1 #
-0.0037705014331870963240067595734217 301:1 1301:1 #
-0.0038893434031785295915129019306278 942:1 1301:1 1363:1 #
0.0013233315731885587560046069199871 487:1 588:1 758:1 1301:1 #
0.0074905584793392571141268376777589 114:1 487:1 632:1 888:1 970:1 1343:1 #
