SVM-light Version V6.01
0 # kernel type
3 # kernel parameter -d 
1 # kernel parameter -g 
1 # kernel parameter -s 
1 # kernel parameter -r 
empty# kernel parameter -u 
4913 # highest feature index 
9228 # number of training documents 
1670 # number of support vectors plus 1 
-0.23060975 # threshold b, each following line is a SV (starting with alpha*y)
-0.0019353985305418587754833215086592 2488:1 2803:1 3108:1 4502:1 #
-0.17080557310012603466908842619887 939:1 2095:1 3578:1 4109:1 #
-0.17080557310012603466908842619887 1227:1 2488:1 3242:1 3252:1 #
-0.17080557310012603466908842619887 2488:1 3235:1 4502:1 #
-0.17080557310012603466908842619887 221:1 2488:1 #
0.17080557310012603466908842619887 1997:1 2488:1 #
-0.17080557310012603466908842619887 122:1 833:1 1621:1 2488:1 #
-0.17080557310012603466908842619887 2640:1 3578:1 4109:1 4137:1 #
0.013235120554727588040866415042274 2191:1 2488:1 4311:1 #
0.17080557310012603466908842619887 2195:1 2488:1 #
-0.17080557310012603466908842619887 1595:1 2118:1 2488:1 3231:1 4873:1 #
-0.17080557310012603466908842619887 1618:1 2118:1 2488:1 3017:1 4873:1 #
-0.17080557310012603466908842619887 550:1 2488:1 4873:1 #
-0.17080557310012603466908842619887 1760:1 2118:1 2488:1 2682:1 3092:1 3144:1 #
-0.17080557310012603466908842619887 1612:1 2488:1 2668:1 2682:1 #
0.068450647842044770596814373675443 291:1 510:1 1698:1 2560:1 2864:1 3408:1 4109:1 4840:1 #
0.17080557310012603466908842619887 510:1 572:1 606:1 736:1 754:1 755:1 1431:1 1607:1 1618:1 1756:1 1806:1 2095:1 2118:1 2132:1 2300:1 2558:1 2619:1 3884:1 3928:1 4109:1 4286:1 4495:1 4722:1 #
0.17080557310012603466908842619887 26:1 510:1 545:1 808:1 982:1 996:1 1291:1 1616:1 1621:1 1668:1 2310:1 2619:1 2944:1 2989:1 3513:1 4289:1 4412:1 4652:1 #
0.066403598904379884659832100624044 25:1 273:1 510:1 830:1 1107:1 1169:1 1905:1 2095:1 2395:1 2520:1 2619:1 2631:1 3202:1 3294:1 3320:1 3445:1 3777:1 4016:1 4293:1 4471:1 #
0.17080557310012603466908842619887 510:1 1748:1 2499:1 2553:1 2619:1 3202:1 3578:1 3604:1 3892:1 3911:1 4109:1 #
-0.17080557310012603466908842619887 60:1 308:1 510:1 996:1 1748:1 2422:1 2491:1 2619:1 2884:1 3202:1 3688:1 4003:1 4101:1 4213:1 4339:1 4635:1 #
0.17080557310012603466908842619887 2191:1 2488:1 #
-0.17080557310012603466908842619887 2095:1 2118:1 2493:1 #
-0.17080557310012603466908842619887 346:1 2488:1 4493:1 4885:1 #
-0.17080557310012603466908842619887 996:1 2930:1 3505:1 #
0.0056538041757274136445143852824913 140:1 814:1 911:1 939:1 982:1 1370:1 1550:1 1621:1 1693:1 1821:1 2422:1 2461:1 2488:1 2500:1 2528:1 2697:1 2890:1 2930:1 3034:1 3132:1 3138:1 3218:1 3263:1 3287:1 3324:1 3363:1 3578:1 3731:1 3773:1 3859:1 4372:1 4382:1 4695:1 4801:1 #
0.013616264260534648861122875018737 683:1 1634:1 2488:1 3067:1 3237:1 3865:1 #
0.17080557310012603466908842619887 46:1 2488:1 #
0.17080557310012603466908842619887 285:1 363:1 544:1 621:1 790:1 1268:1 1306:1 1621:1 2201:1 2488:1 3512:1 4293:1 4317:1 #
0.089640020013583857072525518105977 2488:1 3595:1 4197:1 4478:1 #
-0.17080557310012603466908842619887 1268:1 1674:1 2095:1 2180:1 2488:1 2619:1 3642:1 4109:1 4339:1 4873:1 #
-0.17080557310012603466908842619887 2095:1 2488:1 2619:1 3309:1 3884:1 4109:1 4308:1 #
-0.17080557310012603466908842619887 27:1 92:1 996:1 1127:1 2341:1 2488:1 2603:1 2616:1 2619:1 2989:1 3202:1 3837:1 3892:1 4241:1 4293:1 #
-0.17080557310012603466908842619887 451:1 1618:1 1959:1 2095:1 2488:1 2530:1 2619:1 3343:1 4493:1 #
-0.17080557310012603466908842619887 33:1 161:1 2488:1 2614:1 2616:1 3396:1 4293:1 #
0.17080557310012603466908842619887 308:1 996:1 1535:1 1621:1 2300:1 #
0.17080557310012603466908842619887 308:1 996:1 1621:1 1821:1 2300:1 4854:1 #
0.10118486961562311865492347351392 1007:1 2095:1 #
-0.17080557310012603466908842619887 2488:1 2714:1 3138:1 4502:1 #
0.17080557310012603466908842619887 308:1 808:1 996:1 2760:1 #
0.0035639762550041978288184463252719 68:1 380:1 481:1 982:1 996:1 1621:1 2395:1 2417:1 2422:1 2433:1 2488:1 2501:1 2614:1 2616:1 2619:1 2682:1 2930:1 3794:1 4301:1 4382:1 4452:1 4633:1 4897:1 #
-0.1340287804946306282616319549561 510:1 1185:1 1621:1 1748:1 4109:1 4760:1 #
-0.022757633315531718143365225159869 308:1 996:1 1535:1 4358:1 #
-0.17080557310012603466908842619887 221:1 2488:1 4308:1 #
-0.073875207667471312622531343095034 996:1 1163:1 1959:1 #
0.17080557310012603466908842619887 2095:1 4832:1 #
-0.17080557310012603466908842619887 996:1 1411:1 2763:1 4031:1 #
0.17080557310012603466908842619887 344:1 510:1 685:1 4109:1 4339:1 #
-0.17080557310012603466908842619887 60:1 879:1 996:1 4213:1 4339:1 #
0.17080557310012603466908842619887 996:1 3576:1 4830:1 #
0.17080557310012603466908842619887 1409:1 2395:1 2640:1 3396:1 #
-0.17080557310012603466908842619887 1621:1 2433:1 2640:1 3396:1 #
-0.021663875456411942066470288636992 177:1 285:1 307:1 380:1 410:1 420:1 434:1 510:1 615:1 718:1 759:1 832:1 844:1 860:1 879:1 922:1 982:1 1264:1 1500:1 1507:1 1710:1 1722:1 1739:1 1834:1 1994:1 2053:1 2213:1 2246:1 2310:1 2336:1 2377:1 2468:1 2586:1 2594:1 2666:1 2729:1 2758:1 2774:1 2778:1 2795:1 2823:1 2870:1 2877:1 2930:1 3013:1 3034:1 3101:1 3128:1 3228:1 3239:1 3360:1 3444:1 3487:1 3501:1 3553:1 3578:1 3794:1 3846:1 3884:1 3900:1 3966:1 4013:1 4031:1 4045:1 4109:1 4161:1 4286:1 4290:1 4293:1 4339:1 4366:1 4508:1 4644:1 4741:1 4776:1 4874:1 #
-0.17080557310012603466908842619887 26:1 35:1 510:1 1081:1 1653:1 2461:1 2488:1 2619:1 4109:1 4677:1 #
-0.057044093561525129054690097518687 510:1 1188:1 1230:1 1545:1 1585:1 1612:1 1618:1 1689:1 2034:1 2095:1 2619:1 2917:1 2930:1 3676:1 3794:1 4516:1 4616:1 4770:1 4833:1 #
0.17080557310012603466908842619887 308:1 996:1 1748:1 2027:1 3202:1 #
-0.17080557310012603466908842619887 1320:1 2118:1 2488:1 3231:1 #
0.17080557310012603466908842619887 308:1 996:1 3576:1 4308:1 #
0.033712422257572448314189017537501 121:1 308:1 549:1 633:1 884:1 978:1 984:1 996:1 1316:1 1511:1 1599:1 1634:1 1907:1 1908:1 1922:1 2530:1 2669:1 3087:1 3370:1 3452:1 3846:1 4057:1 4078:1 4217:1 4746:1 4757:1 4844:1 #
0.17080557310012603466908842619887 308:1 363:1 996:1 4308:1 #
0.11396520787928920981357805430889 2406:1 2488:1 2560:1 #
-0.17080557310012603466908842619887 178:1 308:1 404:1 996:1 3303:1 3515:1 3866:1 4286:1 4308:1 4437:1 #
-0.17080557310012603466908842619887 308:1 996:1 3202:1 4177:1 #
-0.17080557310012603466908842619887 308:1 996:1 3967:1 4308:1 #
-0.17080557310012603466908842619887 308:1 996:1 1254:1 1959:1 2682:1 3202:1 3638:1 4574:1 #
0.17080557310012603466908842619887 26:1 35:1 408:1 652:1 808:1 971:1 1621:1 1689:1 2461:1 2488:1 2553:1 2570:1 2619:1 2930:1 2989:1 3439:1 3502:1 3578:1 3640:1 3884:1 4109:1 4217:1 #
0.17080557310012603466908842619887 60:1 1595:1 2488:1 3231:1 4339:1 #
-0.071710280945529308871400075986458 318:1 1471:1 2118:1 2488:1 2535:1 4286:1 #
0.17080557310012603466908842619887 2077:1 2095:1 #
0.09479159227249821240146587797426 27:1 645:1 1550:1 2488:1 2619:1 2989:1 3372:1 4193:1 4293:1 #
-0.061088564513196420835416944328244 78:1 2390:1 2488:1 3758:1 4262:1 4586:1 #
-0.17080557310012603466908842619887 1595:1 2095:1 2118:1 3543:1 4339:1 #
-0.091584922454079162323914431453886 25:1 26:1 27:1 510:1 652:1 690:1 765:1 1621:1 1748:1 1775:1 2067:1 2118:1 2405:1 2488:1 2631:1 2989:1 3866:1 4437:1 4531:1 4722:1 4874:1 #
-0.17080557310012603466908842619887 35:1 510:1 800:1 939:1 982:1 1211:1 1507:1 1621:1 2488:1 2619:1 2989:1 3174:1 3884:1 #
0.010695186513945076356435492925812 205:1 363:1 510:1 1387:1 1748:1 2076:1 2144:1 2300:1 2621:1 2630:1 2990:1 3263:1 3675:1 3959:1 4274:1 4339:1 4567:1 4874:1 #
0.17080557310012603466908842619887 308:1 996:1 2461:1 2533:1 3425:1 #
0.17080557310012603466908842619887 996:1 1595:1 2118:1 2530:1 3381:1 3914:1 #
0.17080557310012603466908842619887 308:1 996:1 1871:1 2436:1 3068:1 4293:1 #
0.17080557310012603466908842619887 308:1 996:1 1959:1 2095:1 2619:1 3500:1 3977:1 4502:1 #
0.17080557310012603466908842619887 308:1 996:1 3202:1 #
-0.17080557310012603466908842619887 308:1 996:1 1871:1 3068:1 4339:1 #
-0.17080557310012603466908842619887 308:1 989:1 996:1 1383:1 2095:1 2619:1 #
-0.087807594223992646575993603619281 1621:1 2149:1 2350:1 2488:1 2656:1 2930:1 3465:1 3794:1 4707:1 #
0.067494004668484042230858221955714 2095:1 3811:1 #
-0.17080557310012603466908842619887 308:1 838:1 996:1 3373:1 4339:1 4529:1 #
0.060022922068880671386814640300145 27:1 37:1 61:1 280:1 394:1 503:1 510:1 518:1 524:1 702:1 808:1 988:1 1127:1 1363:1 1619:1 1621:1 1722:1 2078:1 2079:1 2310:1 2356:1 2391:1 2643:1 2708:1 2755:1 2872:1 2930:1 2994:1 3005:1 3169:1 3372:1 3704:1 3866:1 3881:1 4043:1 4050:1 4109:1 4235:1 4443:1 4677:1 #
0.021383501963979686943950753175159 25:1 26:1 27:1 267:1 510:1 558:1 775:1 1530:1 1621:1 2070:1 2142:1 2253:1 2488:1 2493:1 2619:1 2631:1 2880:1 2989:1 3217:1 3794:1 4109:1 4293:1 4579:1 #
0.065679652335221480607962973863323 510:1 711:1 975:1 982:1 1087:1 1476:1 1621:1 1722:1 1796:1 2146:1 2488:1 2614:1 2616:1 3087:1 3731:1 4131:1 4308:1 4412:1 4468:1 4635:1 4785:1 #
0.090152819951053092539794420190447 141:1 257:1 385:1 503:1 808:1 922:1 1030:1 1108:1 1618:1 1621:1 1674:1 1709:1 1745:1 1773:1 2775:1 2965:1 3510:1 3611:1 3758:1 3794:1 4048:1 4049:1 4050:1 4308:1 4874:1 #
0.17080557310012603466908842619887 510:1 579:1 1371:1 1621:1 2488:1 2497:1 2619:1 2930:1 4109:1 4313:1 4339:1 4360:1 4760:1 #
0.0093088617609690706145020300255055 115:1 454:1 683:1 922:1 1187:1 1383:1 1621:1 1633:1 1748:1 1848:1 2502:1 2965:1 3865:1 4031:1 4317:1 4587:1 #
-0.17080557310012603466908842619887 2310:1 2488:1 3309:1 #
-0.070742779095491675755980054418615 42:1 791:1 1137:1 1183:1 1218:1 1616:1 1621:1 1777:1 2488:1 2619:1 2930:1 3101:1 3505:1 3743:1 4573:1 #
-0.01483601783206367659417868054561 122:1 267:1 808:1 1406:1 1621:1 1773:1 1908:1 2060:1 2410:1 2488:1 2619:1 2823:1 2989:1 4301:1 4424:1 4493:1 4829:1 #
-0.17080557310012603466908842619887 390:1 391:1 431:1 2457:1 2488:1 2930:1 3284:1 4683:1 #
0.056185149262283053117617015459473 61:1 69:1 74:1 557:1 645:1 767:1 808:1 860:1 936:1 982:1 996:1 1205:1 1270:1 1343:1 1427:1 1507:1 1763:1 1780:1 2226:1 2669:1 3013:1 3177:1 3222:1 3228:1 3322:1 3353:1 3409:1 4163:1 4290:1 4495:1 4908:1 #
0.17080557310012603466908842619887 308:1 860:1 996:1 1081:1 1228:1 1427:1 1608:1 1621:1 2095:1 2619:1 3420:1 #
0.17080557310012603466908842619887 308:1 996:1 1222:1 4031:1 4181:1 #
0.17080557310012603466908842619887 2118:1 2488:1 4109:1 4873:1 #
0.038537854731393442198061904946371 2261:1 2488:1 4109:1 #
-0.17080557310012603466908842619887 1274:1 2300:1 2488:1 #
0.17080557310012603466908842619887 1651:1 2488:1 #
0.17080557310012603466908842619887 35:1 510:1 1583:1 2488:1 2619:1 2682:1 2962:1 4127:1 4161:1 #
0.17080557310012603466908842619887 404:1 982:1 1507:1 1616:1 1621:1 1724:1 2488:1 3303:1 4290:1 4339:1 4726:1 #
0.080938394324880119645726495036797 425:1 955:1 998:1 1139:1 1179:1 1618:1 1897:1 2118:1 2154:1 2488:1 2501:1 2682:1 2717:1 2763:1 2930:1 3135:1 3284:1 3545:1 3729:1 4103:1 4109:1 4136:1 4290:1 4587:1 #
0.048463706344395597602758840594106 27:1 939:1 1222:1 1366:1 1621:1 1634:1 1743:1 2488:1 2880:1 3133:1 3977:1 #
0.12466844353498077180297798349784 25:1 60:1 79:1 2129:1 2488:1 2631:1 2778:1 2884:1 3327:1 3846:1 #
-0.17080557310012603466908842619887 2095:1 3046:1 4293:1 #
-0.014242805697501867770449202055261 61:1 382:1 430:1 505:1 511:1 790:1 1621:1 1712:1 1994:1 2118:1 2200:1 2301:1 2422:1 2461:1 2488:1 2506:1 2531:1 2553:1 2682:1 2708:1 2714:1 2861:1 2965:1 3169:1 3202:1 3345:1 3405:1 3777:1 3793:1 4050:1 4109:1 4116:1 4196:1 4209:1 4288:1 4293:1 4339:1 4502:1 4873:1 #
-0.085638235860570829927063130071474 122:1 285:1 394:1 438:1 788:1 813:1 982:1 1621:1 1704:1 1957:1 2078:1 2488:1 2533:1 2553:1 2664:1 3303:1 3553:1 3777:1 3884:1 3955:1 4724:1 #
-0.16112168330329063037353876097768 27:1 79:1 510:1 902:1 982:1 1621:1 1674:1 2096:1 2488:1 2619:1 3846:1 4137:1 4507:1 4645:1 #
0.17080557310012603466908842619887 652:1 996:1 1124:1 1653:1 4141:1 #
0.17080557310012603466908842619887 308:1 930:1 996:1 3217:1 3248:1 #
0.17080557310012603466908842619887 860:1 996:1 1427:1 1621:1 1905:1 2300:1 #
0.17080557310012603466908842619887 930:1 996:1 1334:1 2530:1 2823:1 2944:1 3756:1 #
0.17080557310012603466908842619887 996:1 1535:1 1621:1 2300:1 #
-0.17080557310012603466908842619887 860:1 1427:1 2300:1 2488:1 #
-0.17080557310012603466908842619887 996:1 1621:1 2553:1 2670:1 3695:1 3794:1 4109:1 4181:1 #
-0.17080557310012603466908842619887 579:1 655:1 996:1 1094:1 1965:1 2146:1 2884:1 2989:1 3165:1 3794:1 4313:1 4874:1 #
-0.069652215091642669109184282660863 34:1 426:1 750:1 898:1 996:1 1618:1 2631:1 2647:1 3032:1 3289:1 #
0.17080557310012603466908842619887 2488:1 2680:1 4484:1 #
0.032132691508842702032833216208019 141:1 363:1 394:1 533:1 1113:1 1550:1 1621:1 1674:1 1906:1 2013:1 2359:1 2422:1 2488:1 2680:1 2930:1 3320:1 3553:1 3794:1 4109:1 4177:1 4567:1 4718:1 4752:1 4825:1 4850:1 #
0.17080557310012603466908842619887 141:1 510:1 533:1 2070:1 2461:1 2658:1 4028:1 4031:1 #
-0.17080557310012603466908842619887 652:1 1183:1 1604:1 1618:1 1621:1 1689:1 2488:1 2535:1 4635:1 #
0.17080557310012603466908842619887 602:1 808:1 1169:1 1282:1 1353:1 1489:1 1653:1 1733:1 1748:1 1773:1 2095:1 2118:1 2165:1 2417:1 2930:1 3202:1 3553:1 3884:1 4207:1 4293:1 4440:1 4642:1 4885:1 4893:1 #
-0.17080557310012603466908842619887 1621:1 2433:1 2488:1 2930:1 #
-0.17080557310012603466908842619887 815:1 879:1 2095:1 2350:1 2452:1 2488:1 2501:1 2619:1 3005:1 3415:1 3437:1 4339:1 4718:1 4843:1 #
-0.17080557310012603466908842619887 440:1 572:1 808:1 814:1 897:1 1185:1 1619:1 2310:1 2459:1 2488:1 2946:1 3008:1 #
-0.17080557310012603466908842619887 1595:1 1616:1 1621:1 2488:1 3381:1 4336:1 4652:1 #
0.13530487681044092718174454148539 474:1 652:1 996:1 2833:1 4109:1 #
0.17080557310012603466908842619887 26:1 140:1 257:1 996:1 1621:1 2142:1 3309:1 3336:1 4109:1 4137:1 #
0.17080557310012603466908842619887 122:1 551:1 996:1 1621:1 2422:1 #
0.17080557310012603466908842619887 996:1 1621:1 2530:1 3134:1 3507:1 #
0.17080557310012603466908842619887 996:1 1959:1 2118:1 2422:1 2619:1 3795:1 4020:1 4109:1 #
-0.15581137009646101043713883882447 83:1 414:1 461:1 481:1 996:1 1086:1 1224:1 1260:1 1550:1 1821:1 2422:1 2461:1 3343:1 3747:1 4339:1 #
-0.17080557310012603466908842619887 481:1 996:1 1222:1 2530:1 4031:1 4109:1 #
-0.17080557310012603466908842619887 1612:1 2488:1 3138:1 3553:1 #
0.17080557310012603466908842619887 1997:1 2488:1 2631:1 #
-0.17080557310012603466908842619887 996:1 1222:1 2395:1 2530:1 4031:1 4109:1 #
0.17027807876670711384470280336245 139:1 246:1 321:1 387:1 446:1 510:1 524:1 576:1 1359:1 1406:1 1621:1 1724:1 1738:1 1985:1 2100:1 2300:1 2488:1 2521:1 2884:1 2965:1 3217:1 3777:1 4286:1 4308:1 4317:1 4339:1 4382:1 4470:1 4495:1 4503:1 #
0.070060117514113048886592594044487 27:1 390:1 391:1 2310:1 2488:1 3876:1 4114:1 4150:1 4286:1 4308:1 #
0.017321387831011059166286258914624 156:1 400:1 510:1 808:1 939:1 1061:1 1366:1 1406:1 2045:1 2067:1 2335:1 2410:1 2488:1 2561:1 2614:1 2616:1 2619:1 2682:1 2790:1 2799:1 3101:1 3794:1 3799:1 3884:1 3922:1 4134:1 4154:1 4237:1 4250:1 4269:1 4318:1 4424:1 4502:1 4757:1 4774:1 #
0.17080557310012603466908842619887 510:1 996:1 2433:1 3909:1 #
0.052593971960336577398109625391953 390:1 391:1 982:1 2488:1 3088:1 4308:1 #
-0.17080557310012603466908842619887 510:1 1905:1 2488:1 2619:1 3456:1 4308:1 4495:1 #
-0.17080557310012603466908842619887 985:1 2488:1 2535:1 4308:1 4873:1 #
0.1022100096642763328302905279088 60:1 922:1 3601:1 #
-0.17080557310012603466908842619887 390:1 391:1 2235:1 2488:1 #
-0.17080557310012603466908842619887 207:1 456:1 510:1 1583:1 2095:1 2619:1 2682:1 2950:1 4043:1 4338:1 4567:1 4718:1 #
0.17080557310012603466908842619887 338:1 768:1 790:1 1124:1 1184:1 1612:1 1621:1 1689:1 2095:1 2553:1 2619:1 3291:1 3553:1 3570:1 4109:1 4452:1 4688:1 4718:1 #
0.17080557310012603466908842619887 996:1 2142:1 3578:1 4031:1 4109:1 #
0.084535510961648491212727662968973 380:1 1604:1 1991:1 2095:1 2350:1 2631:1 2668:1 2893:1 3101:1 3966:1 4116:1 4437:1 #
0.17080557310012603466908842619887 996:1 1621:1 1821:1 2530:1 3165:1 4854:1 #
-0.17080557310012603466908842619887 221:1 2640:1 4109:1 #
-0.17080557310012603466908842619887 27:1 70:1 257:1 312:1 380:1 1000:1 1334:1 1595:1 1743:1 2619:1 2631:1 2640:1 2775:1 2913:1 3336:1 3410:1 3532:1 4240:1 4382:1 4502:1 #
-0.015967168597526327361579845387496 510:1 533:1 1350:1 2255:1 2417:1 4502:1 #
0.049147054370085291319369957818708 56:1 708:1 2488:1 #
0.099716244136462225955419569345395 494:1 510:1 736:1 879:1 996:1 1636:1 1689:1 2499:1 2605:1 2619:1 2652:1 2851:1 3213:1 3820:1 3856:1 4331:1 #
-0.17080557310012603466908842619887 1621:1 1839:1 2488:1 #
0.076398776531828083147246388762142 510:1 720:1 801:1 996:1 1150:1 1317:1 1510:1 1550:1 1618:1 1821:1 1907:1 2616:1 2619:1 2882:1 3284:1 4109:1 4179:1 #
-0.17080557310012603466908842619887 922:1 1222:1 2530:1 4031:1 4493:1 4885:1 #
-0.17080557310012603466908842619887 996:1 3217:1 #
-0.17080557310012603466908842619887 510:1 2333:1 2823:1 3177:1 3328:1 4161:1 4308:1 4656:1 #
-0.17080557310012603466908842619887 1618:1 2488:1 3578:1 4109:1 4873:1 #
-0.17080557310012603466908842619887 510:1 1796:1 3578:1 4873:1 #
-0.17080557310012603466908842619887 510:1 2095:1 3578:1 4293:1 4873:1 #
0.17080557310012603466908842619887 510:1 1287:1 4109:1 4137:1 #
-0.17080557310012603466908842619887 34:1 35:1 1612:1 2488:1 2631:1 3846:1 3884:1 #
-0.12515334391814972314627141258825 510:1 1507:1 2289:1 2324:1 4161:1 #
0.17080557310012603466908842619887 1619:1 2488:1 3750:1 #
-0.17080557310012603466908842619887 2488:1 2683:1 4502:1 #
0.17080557310012603466908842619887 996:1 1595:1 2433:1 3231:1 3695:1 #
0.097164028499831855967272531415801 2488:1 4401:1 #
-0.17080557310012603466908842619887 308:1 440:1 996:1 1653:1 1743:1 2310:1 2619:1 2708:1 3056:1 3217:1 4141:1 4202:1 4339:1 4452:1 #
-0.17080557310012603466908842619887 26:1 939:1 2488:1 2619:1 3164:1 4624:1 #
-0.17080557310012603466908842619887 1595:1 2118:1 2433:1 2488:1 3231:1 #
-0.17080557310012603466908842619887 104:1 1124:1 1653:1 2488:1 2619:1 3758:1 3769:1 4339:1 #
0.13884849538196478158091906607297 521:1 801:1 1674:1 1793:1 2078:1 2095:1 2211:1 2290:1 2310:1 2930:1 2989:1 3372:1 3578:1 4109:1 4633:1 #
0.17080557310012603466908842619887 2095:1 3578:1 4109:1 4128:1 4177:1 #
0.17080557310012603466908842619887 665:1 996:1 2833:1 2843:1 2884:1 3578:1 4109:1 #
0.01854898079427125950902066620074 510:1 572:1 1504:1 3633:1 4109:1 4181:1 4535:1 #
0.17080557310012603466908842619887 1653:1 1775:1 2488:1 3578:1 4109:1 4452:1 #
-0.051737141802163447157347775373637 25:1 61:1 194:1 510:1 1406:1 2390:1 2884:1 2989:1 3578:1 4109:1 4874:1 #
-0.17080557310012603466908842619887 2095:1 3578:1 4109:1 4181:1 #
-0.17080557310012603466908842619887 257:1 2095:1 2433:1 2528:1 2535:1 2763:1 3578:1 4109:1 4452:1 #
-0.16947759571057616212463869942439 581:1 2095:1 3578:1 4051:1 4109:1 4825:1 #
0.12696921285799100953539664260461 922:1 1621:1 1743:1 1910:1 2596:1 2905:1 3488:1 4874:1 #
0.17080557310012603466908842619887 996:1 1450:1 1618:1 1676:1 1743:1 2488:1 2619:1 4293:1 #
0.17080557310012603466908842619887 27:1 308:1 996:1 1621:1 1678:1 2118:1 2488:1 2619:1 2708:1 3794:1 3853:1 4873:1 #
0.054860760107535933016720264276955 122:1 464:1 510:1 517:1 1766:1 2095:1 2142:1 2278:1 2619:1 3058:1 3242:1 3392:1 3409:1 3782:1 3932:1 4313:1 4442:1 #
0.12030980084929000784033092941172 361:1 510:1 576:1 2087:1 2682:1 4308:1 #
-0.10699024788942936015079254730153 37:1 727:1 808:1 1748:1 2488:1 3458:1 3683:1 3941:1 4502:1 4706:1 #
-0.17080557310012603466908842619887 930:1 996:1 2488:1 2619:1 3396:1 #
-0.17080557310012603466908842619887 996:1 2142:1 2488:1 2619:1 4109:1 #
-0.17080557310012603466908842619887 791:1 879:1 1245:1 1535:1 2488:1 4358:1 #
-0.17080557310012603466908842619887 996:1 2488:1 2530:1 2619:1 4308:1 4351:1 #
-0.089619478599540169927450961040449 1184:1 2095:1 2118:1 #
0.17080557310012603466908842619887 1595:1 2640:1 3381:1 3578:1 3758:1 #
0.17080557310012603466908842619887 2095:1 2118:1 3343:1 4109:1 #
0.12764404212798352578062122120173 430:1 629:1 1192:1 1471:1 2095:1 2535:1 2763:1 #
0.17080557310012603466908842619887 257:1 943:1 1616:1 1621:1 2095:1 3642:1 4652:1 #
0.17080557310012603466908842619887 363:1 1621:1 2095:1 2144:1 2989:1 3758:1 4339:1 #
-0.17080557310012603466908842619887 1621:1 2095:1 4873:1 #
-0.17080557310012603466908842619887 550:1 2095:1 4873:1 #
-0.17080557310012603466908842619887 2095:1 3578:1 4567:1 4873:1 #
-0.17080557310012603466908842619887 2433:1 2488:1 3578:1 #
-0.17080557310012603466908842619887 551:1 1401:1 2095:1 #
0.17080557310012603466908842619887 930:1 996:1 1251:1 2310:1 2488:1 2530:1 2619:1 4109:1 4286:1 #
-0.10907205456121528419632937811912 795:1 996:1 1471:1 2461:1 2535:1 2680:1 3061:1 4339:1 #
0.17080557310012603466908842619887 2488:1 3898:1 4308:1 #
-0.17080557310012603466908842619887 545:1 1427:1 2300:1 2488:1 2660:1 3352:1 4109:1 #
0.12761361750691707639404626206669 40:1 503:1 733:1 996:1 2142:1 2310:1 2488:1 2619:1 2682:1 2989:1 4109:1 #
-0.17080557310012603466908842619887 996:1 1743:1 1959:1 2310:1 2530:1 3177:1 4031:1 4069:1 4109:1 4452:1 #
-0.11497172643599903874012113647041 308:1 855:1 987:1 996:1 1232:1 2300:1 2335:1 2488:1 2619:1 2965:1 3479:1 4109:1 4837:1 #
-0.093065917111782331394564948823245 142:1 308:1 996:1 1793:1 2192:1 2356:1 2619:1 3165:1 3284:1 4109:1 4228:1 4378:1 #
-0.099283231139380867524835139192874 308:1 996:1 1709:1 1793:1 1986:1 2300:1 2619:1 2754:1 3068:1 4109:1 4593:1 #
-0.087392680567982591877118636602972 26:1 27:1 308:1 996:1 1399:1 1507:1 1618:1 2078:1 2488:1 2530:1 2619:1 2694:1 2930:1 2989:1 3309:1 3431:1 #
0.17080557310012603466908842619887 1612:1 1621:1 2095:1 #
0.17080557310012603466908842619887 510:1 996:1 2433:1 #
0.17080557310012603466908842619887 67:1 229:1 579:1 1621:1 2023:1 2095:1 2300:1 2482:1 2823:1 2841:1 3142:1 4313:1 4416:1 #
0.17080557310012603466908842619887 1621:1 2095:1 2233:1 4240:1 #
0.17080557310012603466908842619887 1621:1 2095:1 4240:1 #
-0.10990671178342441283160013654197 510:1 579:1 837:1 1203:1 1604:1 1621:1 1674:1 1724:1 2183:1 2234:1 2497:1 2553:1 2744:1 2864:1 2921:1 3135:1 3613:1 3731:1 4087:1 4290:1 4293:1 4313:1 4339:1 4683:1 4866:1 4879:1 #
-0.17080557310012603466908842619887 1227:1 2095:1 #
-0.13243713314348767862149713891995 1621:1 1748:1 2040:1 2095:1 2433:1 4286:1 4293:1 4555:1 #
-0.12625658240378115348967469344643 630:1 1138:1 1169:1 1621:1 1689:1 2095:1 2682:1 3070:1 3518:1 #
-0.15079511810242346436794491637556 85:1 503:1 900:1 1621:1 2310:1 2333:1 2383:1 2446:1 2488:1 3177:1 3794:1 4390:1 4463:1 #
0.17080557310012603466908842619887 26:1 61:1 226:1 510:1 594:1 973:1 1046:1 1212:1 1406:1 1793:1 2045:1 2529:1 2619:1 2682:1 3578:1 3852:1 3892:1 4213:1 4404:1 4486:1 4567:1 #
0.13463161806499632233702357098082 60:1 122:1 510:1 790:1 1267:1 1405:1 1689:1 2300:1 2309:1 2310:1 2488:1 2619:1 2989:1 3669:1 3794:1 4043:1 4069:1 4101:1 4308:1 4627:1 4825:1 #
0.17080557310012603466908842619887 32:1 61:1 239:1 299:1 550:1 559:1 922:1 982:1 1012:1 1399:1 1618:1 1748:1 1793:1 2356:1 3174:1 3413:1 3578:1 4033:1 4109:1 4452:1 #
0.17080557310012603466908842619887 269:1 996:1 2300:1 2488:1 2619:1 4109:1 4873:1 #
0.17080557310012603466908842619887 996:1 2488:1 2533:1 2619:1 2965:1 3035:1 3578:1 4873:1 #
-0.15577020812541306216125747141632 837:1 982:1 1612:1 1905:1 2488:1 2619:1 3343:1 4109:1 4452:1 4718:1 #
-0.17080557310012603466908842619887 404:1 996:1 2488:1 2592:1 2619:1 4109:1 4174:1 4584:1 #
0.083756822856627458073752734435402 1735:1 2095:1 #
0.12122569156203936990845448917753 60:1 257:1 380:1 404:1 411:1 503:1 790:1 1401:1 1621:1 1674:1 1716:1 1760:1 1913:1 1949:1 2070:1 2079:1 2095:1 2142:1 2253:1 2332:1 2446:1 2553:1 3135:1 3388:1 3390:1 3570:1 3739:1 4293:1 4405:1 #
0.17080557310012603466908842619887 545:1 1743:1 1915:1 2095:1 2530:1 2679:1 3202:1 3222:1 3490:1 4293:1 #
0.070393917811830949982088156957616 125:1 2095:1 4031:1 4151:1 4650:1 #
0.17080557310012603466908842619887 2488:1 3505:1 4587:1 #
0.17080557310012603466908842619887 2095:1 2338:1 3758:1 4293:1 #
-0.1574016663559917317272152104124 2095:1 2680:1 3758:1 4308:1 4349:1 #
-0.17080557310012603466908842619887 42:1 378:1 533:1 2095:1 2682:1 2814:1 2965:1 3464:1 3758:1 3855:1 4839:1 #
-0.17080557310012603466908842619887 1676:1 2095:1 2142:1 2930:1 #
0.12146648729198518401606321504005 2049:1 2213:1 2488:1 #
0.037792971447262291295743352748104 129:1 221:1 510:1 581:1 606:1 922:1 1184:1 1618:1 2189:1 2461:1 2488:1 2619:1 2941:1 3284:1 4101:1 4109:1 4648:1 4718:1 #
0.17080557310012603466908842619887 308:1 510:1 996:1 1621:1 2024:1 2488:1 2619:1 2979:1 3202:1 3935:1 4109:1 #
0.12536969000489964209954507623479 79:1 376:1 579:1 717:1 911:1 939:1 1138:1 1332:1 1383:1 1621:1 1748:1 1848:1 2027:1 2142:1 2300:1 2461:1 2488:1 4024:1 4087:1 4109:1 4286:1 4313:1 4502:1 4567:1 4587:1 4645:1 4724:1 4769:1 4830:1 #
-0.1487868479848398484133298325105 308:1 510:1 608:1 736:1 996:1 1044:1 1621:1 2619:1 4050:1 #
0.17080557310012603466908842619887 308:1 833:1 996:1 2433:1 #
0.17080557310012603466908842619887 2488:1 2985:1 4308:1 #
0.17080557310012603466908842619887 2095:1 3898:1 #
0.17080557310012603466908842619887 446:1 996:1 1674:1 2142:1 2930:1 4382:1 #
0.12134400623000662911010749667184 122:1 308:1 833:1 996:1 1639:1 2823:1 2989:1 3846:1 4286:1 #
-0.013087099563197963567051651523343 27:1 127:1 229:1 446:1 738:1 1550:1 2095:1 2930:1 3966:1 4161:1 4283:1 4356:1 #
-0.17080557310012603466908842619887 342:1 387:1 2118:1 2640:1 2930:1 4724:1 #
-0.17080557310012603466908842619887 922:1 982:1 2708:1 2883:1 4137:1 4412:1 #
-0.17080557310012603466908842619887 284:1 1291:1 1622:1 1674:1 1748:1 2488:1 2989:1 3408:1 3884:1 4109:1 4724:1 #
0.17080557310012603466908842619887 229:1 841:1 933:1 996:1 1086:1 1507:1 2053:1 2436:1 2619:1 2870:1 3794:1 4293:1 #
0.17080557310012603466908842619887 879:1 996:1 1203:1 1504:1 1956:1 2194:1 2619:1 3091:1 #
0.073400961927119937056041010237095 374:1 510:1 533:1 1306:1 1577:1 1578:1 2259:1 2614:1 2619:1 2911:1 3569:1 3613:1 3794:1 4010:1 4293:1 4339:1 #
0.17080557310012603466908842619887 879:1 996:1 2488:1 2619:1 3794:1 4339:1 #
0.11406757919893099895158883327895 25:1 27:1 308:1 510:1 996:1 1489:1 2329:1 2488:1 2619:1 3234:1 3587:1 3638:1 3747:1 4452:1 4718:1 #
-0.17080557310012603466908842619887 2118:1 2488:1 4264:1 #
-0.17080557310012603466908842619887 550:1 982:1 2488:1 4427:1 #
-0.17080557310012603466908842619887 996:1 4035:1 4308:1 #
0.17080557310012603466908842619887 510:1 902:1 1618:1 1621:1 1905:1 3409:1 3884:1 4874:1 #
0.0049990406337562069694069322167707 299:1 380:1 654:1 939:1 982:1 1329:1 1550:1 1684:1 2118:1 2461:1 2488:1 2553:1 2621:1 2628:1 2990:1 3321:1 3794:1 3856:1 3866:1 4109:1 4807:1 #
0.17080557310012603466908842619887 510:1 736:1 939:1 982:1 1174:1 1528:1 2989:1 4436:1 4478:1 4502:1 #
0.17080557310012603466908842619887 2640:1 2930:1 3491:1 3578:1 4293:1 #
0.17080557310012603466908842619887 922:1 982:1 1576:1 1621:1 2535:1 3217:1 3359:1 #
-0.17080557310012603466908842619887 140:1 226:1 510:1 1595:1 1760:1 2614:1 2616:1 2930:1 3794:1 4543:1 4677:1 4718:1 4874:1 #
-0.17080557310012603466908842619887 229:1 498:1 510:1 724:1 736:1 1618:1 1621:1 1793:1 1956:1 2356:1 3296:1 4553:1 #
-0.17080557310012603466908842619887 363:1 510:1 922:1 1621:1 #
-0.17080557310012603466908842619887 996:1 1997:1 #
-0.17080557310012603466908842619887 394:1 2300:1 2488:1 4023:1 #
0.17080557310012603466908842619887 308:1 996:1 4109:1 4137:1 #
0.17080557310012603466908842619887 996:1 2310:1 3390:1 4137:1 #
-0.17080557310012603466908842619887 510:1 550:1 2488:1 4137:1 #
-0.17080557310012603466908842619887 1322:1 2488:1 4358:1 #
-0.17080557310012603466908842619887 2142:1 2488:1 3364:1 3409:1 4240:1 #
-0.17080557310012603466908842619887 1417:1 1612:1 1743:1 2142:1 2488:1 4382:1 4502:1 #
-0.065528675597928451312945696827228 79:1 887:1 996:1 1662:1 1674:1 2372:1 3217:1 3503:1 3846:1 #
-0.17080557310012603466908842619887 2142:1 2436:1 2488:1 #
0.13826645236820875317640400226082 121:1 443:1 510:1 658:1 724:1 759:1 1618:1 1621:1 1748:1 1854:1 2193:1 2619:1 2669:1 4457:1 4840:1 #
0.17080557310012603466908842619887 35:1 386:1 461:1 510:1 1029:1 1291:1 1619:1 2118:1 2488:1 2567:1 2614:1 2616:1 2619:1 2755:1 #
0.015643489049079275371445518771907 18:1 45:1 223:1 510:1 597:1 658:1 784:1 895:1 994:1 1022:1 1201:1 1217:1 1308:1 1549:1 1567:1 1618:1 1641:1 1683:1 1753:1 1820:1 1893:1 2443:1 2528:1 2682:1 2703:1 2729:1 2823:1 2863:1 2930:1 2932:1 3177:1 3244:1 3320:1 3638:1 3863:1 4644:1 4661:1 4727:1 4802:1 #
0.17080557310012603466908842619887 510:1 814:1 1748:1 3532:1 4109:1 4339:1 #
0.14958550477433577019503729843564 34:1 35:1 510:1 1065:1 1222:1 1287:1 2519:1 2658:1 3341:1 4031:1 4109:1 4768:1 #
-0.037275322651884781888220743439888 510:1 941:1 1287:1 1965:1 2077:1 2080:1 2619:1 3214:1 3493:1 3642:1 #
-0.17080557310012603466908842619887 510:1 813:1 1905:1 2077:1 2640:1 3578:1 4041:1 4109:1 4339:1 #
-0.17080557310012603466908842619887 996:1 1045:1 #
-0.0038900944714478588072614773096802 308:1 996:1 2300:1 3487:1 3490:1 #
0.17080557310012603466908842619887 2142:1 2488:1 2930:1 4855:1 #
0.17080557310012603466908842619887 42:1 922:1 1621:1 2142:1 #
0.17080557310012603466908842619887 1709:1 2142:1 2488:1 4031:1 4493:1 #
0.17080557310012603466908842619887 431:1 788:1 1621:1 2488:1 #
0.17080557310012603466908842619887 633:1 1621:1 2488:1 2890:1 4161:1 #
-0.17080557310012603466908842619887 1621:1 2142:1 2488:1 4137:1 #
-0.084026979917512706341753414562845 1618:1 1621:1 2488:1 2979:1 3165:1 #
-0.17080557310012603466908842619887 1621:1 1653:1 2488:1 2535:1 2841:1 3348:1 #
-0.17080557310012603466908842619887 117:1 982:1 1621:1 2433:1 2488:1 #
-0.17080557310012603466908842619887 1621:1 2488:1 3695:1 4109:1 4840:1 #
0.17080557310012603466908842619887 2640:1 3578:1 3642:1 4293:1 4437:1 #
0.17080557310012603466908842619887 2015:1 2488:1 #
0.17080557310012603466908842619887 510:1 996:1 2619:1 2884:1 2973:1 4109:1 4339:1 #
0.07009158171441082219033091860183 47:1 321:1 481:1 510:1 1287:1 2077:1 2619:1 4468:1 #
0.035624350128246211333316040281716 1760:1 2095:1 2395:1 2501:1 2619:1 3336:1 4339:1 4425:1 4770:1 #
-0.17080557310012603466908842619887 510:1 2095:1 2461:1 2619:1 2812:1 3584:1 #
0.17080557310012603466908842619887 107:1 510:1 4016:1 #
-0.17080557310012603466908842619887 27:1 321:1 510:1 544:1 1567:1 1709:1 1997:1 3091:1 3570:1 4221:1 #
-0.17080557310012603466908842619887 510:1 549:1 1162:1 1583:1 2095:1 2275:1 2619:1 2669:1 4574:1 #
0.085337603576992035470105690819764 510:1 1530:1 4109:1 4664:1 #
0.051540938833423609322093028595191 228:1 395:1 404:1 544:1 1270:1 1489:1 1618:1 1621:1 1653:1 1869:1 2144:1 2488:1 2522:1 2535:1 2538:1 2614:1 2616:1 2708:1 3135:1 3222:1 3623:1 3866:1 4412:1 #
0.17080557310012603466908842619887 272:1 394:1 1621:1 2488:1 3837:1 4874:1 #
0.17080557310012603466908842619887 1621:1 2488:1 3758:1 4412:1 #
0.17080557310012603466908842619887 164:1 1621:1 2488:1 2823:1 #
0.17080557310012603466908842619887 1621:1 1819:1 2488:1 #
-0.17080557310012603466908842619887 202:1 2488:1 2682:1 3758:1 4109:1 4286:1 #
0.17080557310012603466908842619887 996:1 2930:1 4308:1 4873:1 #
-0.17080557310012603466908842619887 1621:1 2433:1 2488:1 3252:1 #
-0.11527950123829695805444117695515 1086:1 1535:1 1561:1 1621:1 1748:1 2488:1 4109:1 4498:1 #
-0.17080557310012603466908842619887 2070:1 2488:1 3500:1 3758:1 3966:1 #
0.031634109363833255723630344391495 1406:1 2480:1 2488:1 2931:1 2989:1 4118:1 #
0.17080557310012603466908842619887 629:1 2095:1 3242:1 #
-0.1476715882700493642776251590476 205:1 510:1 790:1 1621:1 2499:1 2605:1 2619:1 3169:1 4016:1 #
0.17080557310012603466908842619887 24:1 996:1 1862:1 2488:1 2619:1 #
-0.047907533151164916063180498895235 257:1 293:1 385:1 510:1 572:1 929:1 1207:1 1304:1 2095:1 2436:1 2535:1 2619:1 2658:1 4502:1 #
-0.17080557310012603466908842619887 510:1 1222:1 2095:1 3337:1 #
-0.17080557310012603466908842619887 446:1 510:1 1957:1 2095:1 2619:1 3124:1 3466:1 #
-0.17080557310012603466908842619887 141:1 1045:1 1780:1 2095:1 3707:1 #
-0.17080557310012603466908842619887 26:1 299:1 510:1 1556:1 2310:1 2608:1 2619:1 2989:1 3425:1 3570:1 3884:1 4136:1 4398:1 4495:1 #
0.17080557310012603466908842619887 420:1 1120:1 2118:1 2433:1 2461:1 2488:1 2682:1 2930:1 4308:1 4812:1 #
-0.17080557310012603466908842619887 2488:1 3577:1 #
0.17080557310012603466908842619887 1910:1 2118:1 2488:1 2682:1 3397:1 3758:1 4825:1 #
0.088165987188402655805319341197901 42:1 83:1 503:1 521:1 533:1 551:1 1022:1 1090:1 1164:1 1212:1 1621:1 1639:1 1709:1 1933:1 2047:1 2118:1 2136:1 2153:1 2310:1 2395:1 2469:1 2488:1 2682:1 2930:1 3031:1 3503:1 3604:1 3758:1 3788:1 3835:1 4022:1 4050:1 4087:1 4136:1 4496:1 4873:1 #
-0.022070487822209015893459849166902 510:1 1621:1 2727:1 4352:1 4760:1 #
-0.17080557310012603466908842619887 344:1 364:1 2118:1 2433:1 2488:1 2619:1 3117:1 4177:1 #
-0.17080557310012603466908842619887 1618:1 2118:1 2433:1 2461:1 2488:1 4784:1 #
-0.17080557310012603466908842619887 2118:1 2433:1 2488:1 3017:1 #
-0.13474014746005569254094780262676 2118:1 2461:1 2488:1 4127:1 #
-0.17080557310012603466908842619887 635:1 1619:1 2194:1 2488:1 2619:1 2755:1 2920:1 3548:1 3857:1 4136:1 #
0.039025908061672769100436397593512 2029:1 2488:1 4109:1 #
0.17080557310012603466908842619887 510:1 640:1 988:1 1401:1 1621:1 3235:1 4286:1 4453:1 #
0.17080557310012603466908842619887 510:1 1012:1 3102:1 4677:1 4831:1 #
-0.17080557310012603466908842619887 25:1 376:1 510:1 808:1 1359:1 1621:1 2989:1 3294:1 3604:1 4489:1 4760:1 #
-0.02448557081334345672529728688005 122:1 347:1 374:1 394:1 412:1 510:1 790:1 808:1 1081:1 1621:1 1743:1 2076:1 2126:1 2144:1 2285:1 2302:1 2448:1 2510:1 2708:1 2884:1 3396:1 3510:1 3777:1 3838:1 3857:1 3903:1 4101:1 4170:1 4470:1 4493:1 4528:1 4637:1 4744:1 4874:1 #
-0.17080557310012603466908842619887 939:1 1621:1 2095:1 4109:1 #
-0.17080557310012603466908842619887 308:1 996:1 1621:1 2095:1 2553:1 2619:1 3747:1 #
0.059655902469709490287819164677785 285:1 2433:1 2488:1 3165:1 #
0.17080557310012603466908842619887 2465:1 2488:1 #
0.17080557310012603466908842619887 1212:1 2080:1 2433:1 2488:1 2890:1 3902:1 4041:1 4502:1 #
0.051045955677248018578229249442302 1689:1 1700:1 2488:1 2720:1 3048:1 #
0.111019246386269837545412997315 2433:1 2488:1 4003:1 #
-0.17080557310012603466908842619887 2433:1 2488:1 2533:1 3578:1 #
-0.17080557310012603466908842619887 2433:1 2488:1 3578:1 4109:1 4627:1 #
-0.17080557310012603466908842619887 510:1 1576:1 2488:1 3322:1 4109:1 #
-0.17080557310012603466908842619887 510:1 1621:1 1748:1 2930:1 4760:1 #
-0.17080557310012603466908842619887 2142:1 2488:1 2682:1 3217:1 #
0.17080557310012603466908842619887 541:1 996:1 1045:1 1621:1 2148:1 2530:1 2546:1 2816:1 2883:1 2930:1 3138:1 3761:1 3866:1 4050:1 4308:1 4382:1 4704:1 #
0.11204588911897341019230367464843 267:1 404:1 463:1 510:1 768:1 853:1 1036:1 1621:1 2095:1 2553:1 2619:1 4109:1 4495:1 #
0.1068590366935154856165013370628 321:1 510:1 1287:1 2142:1 2682:1 2930:1 3794:1 3935:1 4109:1 #
0.13335398934963382799878672813065 308:1 461:1 533:1 855:1 939:1 988:1 996:1 1412:1 1621:1 1821:1 2095:1 2300:1 2696:1 2870:1 2930:1 2948:1 3165:1 3217:1 3455:1 3731:1 3794:1 3980:1 4109:1 4293:1 4382:1 #
0.17080557310012603466908842619887 982:1 1076:1 1148:1 1371:1 1417:1 1595:1 2118:1 2153:1 2365:1 2488:1 2538:1 2869:1 2930:1 3347:1 3578:1 4040:1 4087:1 4290:1 4437:1 4503:1 4726:1 #
0.17080557310012603466908842619887 982:1 2488:1 3343:1 4293:1 #
0.11947261896191571639569417584426 1254:1 2461:1 2488:1 2989:1 #
0.17080557310012603466908842619887 549:1 2488:1 3857:1 #
0.09395160366925980888197500462411 85:1 2488:1 3356:1 4157:1 4463:1 #
-0.14776021119802432157719351835112 1811:1 2138:1 2422:1 2488:1 2930:1 3343:1 4308:1 #
-0.17080557310012603466908842619887 1118:1 1507:1 2002:1 2300:1 2488:1 2538:1 2588:1 2876:1 4109:1 4873:1 #
-0.17080557310012603466908842619887 982:1 2488:1 2560:1 2614:1 4109:1 4339:1 #
-0.17080557310012603466908842619887 1965:1 2488:1 2682:1 3739:1 3758:1 3794:1 4308:1 #
0.17080557310012603466908842619887 342:1 996:1 1618:1 2889:1 4136:1 #
-0.16176473947176051026985987846274 57:1 440:1 481:1 996:1 1427:1 #
0.17080557310012603466908842619887 218:1 922:1 996:1 1738:1 2619:1 3217:1 #
-0.17080557310012603466908842619887 922:1 982:1 996:1 2310:1 2390:1 2530:1 2619:1 3965:1 #
0.17080557310012603466908842619887 26:1 652:1 996:1 2944:1 4109:1 #
-0.17080557310012603466908842619887 996:1 2461:1 2530:1 2833:1 4109:1 #
-0.17080557310012603466908842619887 168:1 308:1 996:1 1356:1 2107:1 3866:1 4116:1 4437:1 4854:1 #
0.08656608934506219987792263736992 510:1 572:1 652:1 4109:1 #
0.10466764626872453181061217719616 1595:1 2395:1 2488:1 3500:1 4308:1 4339:1 4718:1 #
0.049579009991266589918446072715597 1254:1 2488:1 2498:1 #
0.17080557310012603466908842619887 2488:1 3401:1 #
0.17080557310012603466908842619887 982:1 1227:1 1621:1 2488:1 2883:1 4339:1 #
-0.073464860267611245547847431680566 558:1 2095:1 2118:1 #
-0.17080557310012603466908842619887 1595:1 1796:1 2118:1 2488:1 3231:1 3892:1 4339:1 #
-0.10555208829143258864036170052714 510:1 3392:1 3758:1 4109:1 #
-0.17080557310012603466908842619887 1595:1 2118:1 2488:1 3347:1 4339:1 #
0.17080557310012603466908842619887 996:1 1621:1 1821:1 2300:1 4854:1 #
0.17080557310012603466908842619887 996:1 2461:1 3726:1 4109:1 #
0.17080557310012603466908842619887 34:1 996:1 2142:1 3827:1 4109:1 #
0.17080557310012603466908842619887 996:1 2095:1 2530:1 2534:1 2619:1 #
-0.17080557310012603466908842619887 550:1 2095:1 4339:1 #
-0.012828013515992321008640786317301 736:1 996:1 1810:1 2485:1 2890:1 3309:1 4109:1 #
-0.17080557310012603466908842619887 533:1 652:1 860:1 996:1 1621:1 1748:1 2373:1 3035:1 3320:1 3612:1 4339:1 #
-0.075655996740801936817355510811467 911:1 996:1 1821:1 2022:1 2300:1 #
-0.17080557310012603466908842619887 576:1 930:1 996:1 2682:1 4109:1 4335:1 #
0.17080557310012603466908842619887 911:1 996:1 1796:1 2433:1 #
0.17080557310012603466908842619887 1595:1 2390:1 2488:1 3231:1 4339:1 #
0.17080557310012603466908842619887 2488:1 2680:1 3415:1 3437:1 4339:1 #
0.17080557310012603466908842619887 318:1 1618:1 1743:1 2118:1 2455:1 2488:1 2538:1 2930:1 3866:1 4109:1 4437:1 #
-0.17080557310012603466908842619887 318:1 1618:1 2118:1 2433:1 2488:1 #
-0.17080557310012603466908842619887 224:1 1618:1 1641:1 2105:1 2215:1 2488:1 3597:1 4011:1 #
-0.17080557310012603466908842619887 1227:1 2488:1 3242:1 4308:1 #
-0.17080557310012603466908842619887 2488:1 2930:1 #
0.17080557310012603466908842619887 308:1 996:1 1572:1 3164:1 4897:1 #
0.17080557310012603466908842619887 996:1 2077:1 4855:1 #
0.17080557310012603466908842619887 2095:1 2118:1 2560:1 2714:1 #
-0.17080557310012603466908842619887 308:1 996:1 4339:1 4893:1 #
-0.17080557310012603466908842619887 60:1 996:1 2078:1 2930:1 3202:1 4339:1 4399:1 #
-0.17080557310012603466908842619887 308:1 996:1 4339:1 #
-0.17080557310012603466908842619887 60:1 308:1 996:1 4339:1 #
0.10966059466109603914851788886153 224:1 409:1 595:1 1965:1 2488:1 2778:1 #
0.17080557310012603466908842619887 576:1 1621:1 1853:1 2433:1 2488:1 2833:1 2989:1 #
0.17080557310012603466908842619887 1222:1 2488:1 2530:1 3553:1 3967:1 #
0.17080557310012603466908842619887 1674:1 2417:1 2433:1 2488:1 2614:1 2616:1 3553:1 4452:1 #
0.17080557310012603466908842619887 331:1 510:1 2118:1 2488:1 2619:1 #
-0.11476655176759233134564652800691 27:1 122:1 510:1 854:1 2095:1 2908:1 2989:1 #
-0.17080557310012603466908842619887 510:1 1287:1 2488:1 2989:1 #
-0.17080557310012603466908842619887 321:1 510:1 2488:1 2619:1 2932:1 #
0.021810698608416341504057101019498 406:1 988:1 996:1 1959:1 2078:1 2079:1 2107:1 2230:1 2488:1 2530:1 2619:1 2682:1 2708:1 2724:1 3336:1 3419:1 3794:1 3823:1 4339:1 #
0.17080557310012603466908842619887 996:1 3217:1 4339:1 4763:1 #
0.15945219921185452283118877403467 38:1 153:1 996:1 1516:1 2142:1 2528:1 2717:1 3217:1 3341:1 3480:1 4137:1 4339:1 4751:1 #
0.17080557310012603466908842619887 60:1 581:1 996:1 1165:1 1709:1 2078:1 2461:1 3810:1 4458:1 4830:1 #
-0.068746664060912954230531113353209 996:1 3064:1 3819:1 4543:1 #
0.0061509319652474948869613768920317 79:1 511:1 922:1 982:1 1905:1 2118:1 3174:1 3846:1 4109:1 4181:1 4286:1 4335:1 4339:1 4890:1 #
-0.17080557310012603466908842619887 996:1 2530:1 3217:1 #
-0.17080557310012603466908842619887 1618:1 1621:1 2488:1 3898:1 #
0.17080557310012603466908842619887 394:1 510:1 566:1 1081:1 1371:1 1618:1 1880:1 2631:1 3016:1 3337:1 3393:1 4109:1 4339:1 4627:1 4776:1 #
0.16481372099957727894725678652321 902:1 943:1 2488:1 3535:1 4718:1 #
0.028999446980781405647231707689571 35:1 321:1 510:1 2989:1 4339:1 #
-0.17080557310012603466908842619887 855:1 2300:1 2488:1 #
-0.17080557310012603466908842619887 510:1 1689:1 2526:1 2619:1 3268:1 4109:1 4161:1 4387:1 #
-0.17080557310012603466908842619887 510:1 902:1 1575:1 2096:1 2488:1 2619:1 2702:1 3827:1 4010:1 4056:1 4109:1 4161:1 #
-0.17080557310012603466908842619887 510:1 606:1 871:1 988:1 1041:1 1371:1 1689:1 2619:1 4016:1 #
0.17080557310012603466908842619887 1222:1 2488:1 2530:1 2708:1 4031:1 4293:1 #
0.17080557310012603466908842619887 404:1 669:1 996:1 1777:1 3018:1 4213:1 4617:1 4893:1 #
0.17080557310012603466908842619887 1222:1 2488:1 2530:1 4031:1 4109:1 #
-0.17080557310012603466908842619887 221:1 2488:1 3217:1 #
-0.17080557310012603466908842619887 61:1 1331:1 1621:1 1796:1 2461:1 2488:1 2614:1 2616:1 3353:1 3967:1 4041:1 4567:1 #
-0.17080557310012603466908842619887 1222:1 2142:1 2488:1 2530:1 4031:1 #
-0.17080557310012603466908842619887 31:1 40:1 386:1 1371:1 1535:1 2488:1 2538:1 2614:1 2616:1 2680:1 2989:1 3138:1 3861:1 3866:1 4495:1 #
0.1586535648902448192298919593668 510:1 1748:1 2073:1 2619:1 2930:1 3919:1 3930:1 #
0.17080557310012603466908842619887 510:1 741:1 3380:1 4109:1 #
-0.17080557310012603466908842619887 510:1 1961:1 2095:1 4003:1 4308:1 #
-0.17080557310012603466908842619887 1674:1 2095:1 2433:1 2930:1 #
-0.011460631240501088431993359506578 26:1 32:1 34:1 305:1 510:1 1212:1 1621:1 1748:1 2153:1 2619:1 3930:1 4090:1 4293:1 4760:1 #
-0.17080557310012603466908842619887 1722:1 2095:1 2930:1 #
-0.17080557310012603466908842619887 510:1 1748:1 3884:1 4308:1 #
0.17080557310012603466908842619887 26:1 380:1 638:1 1621:1 1689:1 2153:1 2488:1 3758:1 3902:1 #
0.17080557310012603466908842619887 1621:1 2488:1 4240:1 #
0.17080557310012603466908842619887 982:1 1621:1 2488:1 4240:1 #
-0.17080557310012603466908842619887 982:1 1621:1 2488:1 3018:1 3161:1 #
-0.097123889954729300533209368495591 1207:1 1621:1 1686:1 2454:1 2488:1 2880:1 2989:1 4043:1 #
-0.17080557310012603466908842619887 1621:1 2488:1 2883:1 3341:1 #
0.17080557310012603466908842619887 510:1 4308:1 4495:1 4508:1 4760:1 #
0.17080557310012603466908842619887 510:1 627:1 1082:1 #
0.17080557310012603466908842619887 481:1 2095:1 #
0.17080557310012603466908842619887 510:1 1748:1 4308:1 4760:1 #
-0.17080557310012603466908842619887 2488:1 3578:1 3757:1 4109:1 #
-0.070911754799606166455028244399728 390:1 391:1 463:1 510:1 572:1 1270:1 1876:1 2615:1 3815:1 4308:1 4495:1 #
-0.17080557310012603466908842619887 510:1 2627:1 2884:1 3633:1 4003:1 4127:1 4495:1 #
-0.17080557310012603466908842619887 420:1 510:1 3529:1 3637:1 4317:1 #
0.17080557310012603466908842619887 1621:1 2488:1 2989:1 3217:1 #
0.17080557310012603466908842619887 27:1 320:1 710:1 996:1 2989:1 4029:1 4267:1 #
0.027714478653658242840451819688496 187:1 289:1 402:1 541:1 933:1 982:1 1041:1 1045:1 1573:1 1595:1 1621:1 1674:1 2302:1 2310:1 2335:1 2488:1 2535:1 2609:1 2915:1 2916:1 3591:1 3604:1 3902:1 4050:1 4140:1 4243:1 4328:1 4382:1 4502:1 4637:1 #
0.17080557310012603466908842619887 1621:1 2488:1 2683:1 #
-0.17080557310012603466908842619887 1212:1 1959:1 2153:1 2488:1 2989:1 3758:1 3902:1 4553:1 #
-0.17080557310012603466908842619887 27:1 2488:1 2989:1 #
-0.0089880383413459725983063464127554 25:1 26:1 550:1 1709:1 2312:1 2488:1 2619:1 2989:1 4805:1 #
-0.048417118893711946769897735975974 1621:1 1784:1 2488:1 2989:1 3794:1 4293:1 4339:1 4398:1 #
0.17080557310012603466908842619887 510:1 560:1 680:1 879:1 1507:1 2729:1 3501:1 3549:1 #
0.064542797232146217889514616672386 112:1 348:1 510:1 623:1 671:1 1618:1 1965:1 2053:1 2089:1 2303:1 2682:1 2872:1 2930:1 2954:1 3091:1 3371:1 3559:1 3751:1 #
0.17080557310012603466908842619887 510:1 2341:1 3411:1 4177:1 #
0.17080557310012603466908842619887 344:1 510:1 2306:1 2775:1 #
0.17080557310012603466908842619887 286:1 510:1 2133:1 4016:1 4490:1 #
-0.17080557310012603466908842619887 510:1 1748:1 3202:1 3217:1 #
-0.17080557310012603466908842619887 1612:1 2488:1 4308:1 #
-0.020119792123272497302854944223327 244:1 458:1 510:1 1621:1 2454:1 2560:1 3794:1 4718:1 4760:1 #
-0.17080557310012603466908842619887 510:1 1748:1 2503:1 3328:1 3833:1 4286:1 #
-0.031168365075046639001143944369687 344:1 510:1 1124:1 1384:1 1653:1 1748:1 3337:1 #
0.074367609027567102564226786398649 26:1 40:1 810:1 1653:1 2488:1 2553:1 2614:1 2631:1 2989:1 3884:1 #
0.17080557310012603466908842619887 446:1 892:1 1319:1 1689:1 2488:1 2989:1 4041:1 4308:1 #
0.13940759018251921985687147298449 25:1 26:1 27:1 939:1 1306:1 2118:1 2488:1 2493:1 2989:1 4326:1 4874:1 #
-0.13051822102217289223169416345627 996:1 4109:1 4584:1 #
0.17080557310012603466908842619887 390:1 391:1 1331:1 1514:1 2488:1 2614:1 2616:1 4041:1 4339:1 4502:1 #
-0.17080557310012603466908842619887 996:1 2144:1 2680:1 2989:1 4874:1 #
-0.17080557310012603466908842619887 2488:1 2668:1 2683:1 4502:1 #
0.026084354484728188711128993304555 982:1 2488:1 4046:1 4660:1 #
0.17080557310012603466908842619887 309:1 1997:1 2488:1 #
0.15740791102972842563367805723828 1298:1 2488:1 #
-0.17080557310012603466908842619887 60:1 996:1 2930:1 3695:1 4131:1 4339:1 4356:1 #
-0.17080557310012603466908842619887 1689:1 2095:1 2714:1 3794:1 4308:1 #
-0.17080557310012603466908842619887 510:1 2095:1 #
-0.17080557310012603466908842619887 1012:1 2095:1 4896:1 #
-0.17080557310012603466908842619887 2095:1 3235:1 3553:1 #
-0.17080557310012603466908842619887 2095:1 2417:1 #
0.17080557310012603466908842619887 996:1 1535:1 1621:1 4873:1 #
0.17080557310012603466908842619887 467:1 1621:1 2488:1 #
0.17080557310012603466908842619887 922:1 1621:1 3758:1 #
-0.17080557310012603466908842619887 550:1 939:1 982:1 2488:1 #
-0.17080557310012603466908842619887 1621:1 1748:1 2433:1 2488:1 #
0.17080557310012603466908842619887 988:1 1997:1 2390:1 2488:1 #
-0.17080557310012603466908842619887 696:1 1621:1 2461:1 2488:1 4041:1 #
0.17080557310012603466908842619887 2095:1 2118:1 3144:1 3231:1 #
0.052988697912562561509464131859204 465:1 2433:1 2488:1 #
0.12369855541104014806652600100279 1645:1 1760:1 2095:1 3370:1 4031:1 4127:1 #
0.17080557310012603466908842619887 2095:1 3578:1 4109:1 4286:1 #
0.17080557310012603466908842619887 2095:1 4241:1 #
-0.17080557310012603466908842619887 2095:1 3578:1 4109:1 4873:1 #
-0.17080557310012603466908842619887 2095:1 4109:1 #
-0.17080557310012603466908842619887 1709:1 2095:1 3231:1 3758:1 #
-0.17080557310012603466908842619887 2095:1 2546:1 3758:1 3794:1 4109:1 #
0.17080557310012603466908842619887 510:1 1621:1 2433:1 2488:1 3638:1 #
0.17080557310012603466908842619887 204:1 1621:1 2433:1 2488:1 #
0.17080557310012603466908842619887 2461:1 2488:1 4293:1 4339:1 #
-0.17080557310012603466908842619887 27:1 510:1 558:1 2118:1 2488:1 2989:1 #
-0.17080557310012603466908842619887 549:1 622:1 2488:1 4286:1 4293:1 #
-0.17080557310012603466908842619887 1621:1 2433:1 2488:1 3336:1 #
-0.17080557310012603466908842619887 1621:1 2433:1 2488:1 #
-0.17080557310012603466908842619887 27:1 1184:1 2118:1 2488:1 #
0.17080557310012603466908842619887 982:1 1743:1 2488:1 3343:1 #
0.12733498646498059292397897479532 2095:1 3877:1 4676:1 #
0.17080557310012603466908842619887 549:1 2488:1 3758:1 4127:1 #
0.038865881805954419214721440312132 2488:1 4109:1 4753:1 #
-0.17080557310012603466908842619887 2399:1 2640:1 2965:1 4109:1 4219:1 #
-0.17080557310012603466908842619887 922:1 1743:1 2312:1 #
0.17080557310012603466908842619887 2107:1 2488:1 3320:1 3794:1 3884:1 3938:1 4339:1 4502:1 4724:1 #
0.0017244372310959853351886028605122 1507:1 1595:1 1790:1 1915:1 2021:1 2194:1 2350:1 2488:1 2870:1 2930:1 #
0.17080557310012603466908842619887 444:1 2488:1 4502:1 #
-0.096453174365977278892358981465804 61:1 925:1 2488:1 2619:1 3177:1 3282:1 3398:1 3578:1 3638:1 4592:1 4825:1 #
-0.0051939422708073314238763629191453 1238:1 2488:1 3638:1 4502:1 #
-0.034478970343734309522698566752297 550:1 572:1 656:1 754:1 1868:1 2333:1 2488:1 2622:1 2623:1 2624:1 2823:1 2841:1 3177:1 3609:1 3884:1 4286:1 4884:1 #
-0.17080557310012603466908842619887 446:1 2142:1 2488:1 4240:1 #
0.17080557310012603466908842619887 996:1 2312:1 #
0.17080557310012603466908842619887 996:1 1714:1 2312:1 2619:1 2640:1 #
0.055288755273949517776710393945905 430:1 440:1 754:1 837:1 1356:1 2640:1 2668:1 2910:1 3031:1 4109:1 #
0.17080557310012603466908842619887 1621:1 2095:1 2560:1 3642:1 #
-0.17080557310012603466908842619887 2285:1 2488:1 2803:1 #
-0.17080557310012603466908842619887 855:1 2300:1 2640:1 #
-0.17080557310012603466908842619887 996:1 2944:1 4339:1 #
0.17080557310012603466908842619887 2095:1 4177:1 #
-0.17080557310012603466908842619887 374:1 380:1 404:1 1621:1 2095:1 2433:1 #
0.05531808360923762268868131286581 1618:1 2488:1 2535:1 4109:1 4339:1 #
-0.066793075873757587479495612114988 550:1 2488:1 4137:1 #
0.17080557310012603466908842619887 2488:1 2587:1 4308:1 #
0.027643806618413854780946792288887 939:1 1689:1 1700:1 1959:1 2488:1 2535:1 3048:1 3161:1 4109:1 #
0.17080557310012603466908842619887 1709:1 2640:1 3738:1 4308:1 #
-0.17080557310012603466908842619887 551:1 1642:1 2488:1 4109:1 #
-0.17080557310012603466908842619887 482:1 2488:1 4109:1 #
-0.17080557310012603466908842619887 510:1 2488:1 2528:1 2560:1 3642:1 #
-0.17080557310012603466908842619887 930:1 2488:1 4109:1 #
0.17080557310012603466908842619887 122:1 961:1 1621:1 1743:1 2095:1 2841:1 #
0.17080557310012603466908842619887 27:1 1621:1 2095:1 2803:1 3907:1 #
0.17080557310012603466908842619887 1621:1 2095:1 3642:1 4412:1 #
0.041048276517065093726976954258134 470:1 2488:1 #
0.17080557310012603466908842619887 1621:1 2095:1 2683:1 #
-0.17080557310012603466908842619887 1621:1 2095:1 2433:1 3303:1 3500:1 #
-0.17080557310012603466908842619887 1621:1 2095:1 2433:1 #
0.050538656449379958102152698984355 532:1 996:1 1645:1 4291:1 4308:1 4525:1 4873:1 #
-0.17080557310012603466908842619887 1621:1 2095:1 2433:1 3396:1 #
-0.033982103072347683014875485696393 1322:1 1770:1 2300:1 2488:1 3617:1 4033:1 #
0.17080557310012603466908842619887 510:1 640:1 2530:1 2989:1 3396:1 3794:1 4109:1 4339:1 4553:1 #
0.17080557310012603466908842619887 1205:1 2488:1 3420:1 3578:1 4109:1 4339:1 4825:1 #
-0.17080557310012603466908842619887 939:1 2488:1 2533:1 3578:1 #
-0.17080557310012603466908842619887 2488:1 2682:1 3217:1 3578:1 4109:1 4339:1 #
-0.17080557310012603466908842619887 26:1 2488:1 3578:1 4109:1 4339:1 #
-0.17080557310012603466908842619887 579:1 580:1 1674:1 2488:1 2823:1 3177:1 3578:1 4109:1 4127:1 4313:1 4339:1 #
0.17080557310012603466908842619887 2488:1 4177:1 #
-0.019519370450019987717205083299632 665:1 996:1 2436:1 4741:1 #
0.098191603617594172548344033657486 572:1 602:1 808:1 2095:1 2300:1 2433:1 2823:1 #
0.17080557310012603466908842619887 510:1 1621:1 2433:1 4016:1 #
0.17080557310012603466908842619887 2095:1 3964:1 #
0.11729588761989018230735837278189 929:1 2095:1 2422:1 2433:1 #
-0.051360904000555089587987112054179 1606:1 1621:1 2488:1 2680:1 4344:1 #
-0.17080557310012603466908842619887 1287:1 2095:1 2461:1 #
-0.17080557310012603466908842619887 318:1 2095:1 2118:1 2433:1 3018:1 #
0.018546226480195680819118564386372 2488:1 3540:1 4177:1 #
-0.17080557310012603466908842619887 336:1 510:1 871:1 911:1 1743:1 2087:1 2619:1 4035:1 4502:1 4874:1 #
-0.17080557310012603466908842619887 373:1 510:1 549:1 1689:1 2930:1 4508:1 #
-0.17080557310012603466908842619887 933:1 1674:1 2640:1 3280:1 #
0.17080557310012603466908842619887 652:1 930:1 996:1 4308:1 #
0.17080557310012603466908842619887 996:1 4109:1 4399:1 4587:1 #
0.17080557310012603466908842619887 922:1 1689:1 2553:1 3009:1 3303:1 3578:1 3794:1 #
-0.17080557310012603466908842619887 122:1 123:1 1724:1 2095:1 2908:1 #
-0.17080557310012603466908842619887 317:1 996:1 2107:1 3172:1 4031:1 4109:1 #
-0.17080557310012603466908842619887 141:1 996:1 1716:1 2930:1 3177:1 3419:1 3533:1 4109:1 4757:1 #
0.038949283394297311289289353908316 255:1 2488:1 4109:1 #
0.17080557310012603466908842619887 510:1 911:1 4003:1 4339:1 #
-0.020487396900113689912625858369211 510:1 1621:1 1828:1 3884:1 4874:1 #
0.17080557310012603466908842619887 510:1 558:1 871:1 1111:1 1724:1 2087:1 3405:1 3735:1 4109:1 #
0.17080557310012603466908842619887 510:1 853:1 939:1 2488:1 2619:1 3578:1 #
0.066604259382170322156824227022298 510:1 2087:1 4874:1 #
-0.17080557310012603466908842619887 510:1 961:1 2488:1 #
-0.17080557310012603466908842619887 61:1 939:1 2488:1 4168:1 4658:1 #
-0.17080557310012603466908842619887 35:1 564:1 565:1 922:1 1612:1 2078:1 2367:1 2488:1 2619:1 3505:1 3663:1 #
-0.17080557310012603466908842619887 510:1 2488:1 3240:1 #
-0.17080557310012603466908842619887 2488:1 2683:1 #
0.17080557310012603466908842619887 996:1 1841:1 2619:1 2930:1 3035:1 4109:1 #
0.17080557310012603466908842619887 308:1 996:1 2253:1 3396:1 4109:1 #
0.15699155903141898127373110582994 1206:1 2095:1 2350:1 4286:1 4567:1 #
0.17080557310012603466908842619887 308:1 996:1 2841:1 3018:1 4109:1 #
0.059440848879134915161426278018553 60:1 1618:1 2095:1 2446:1 2841:1 3810:1 #
0.17080557310012603466908842619887 549:1 2488:1 4677:1 #
0.12557728289150255074346773653815 1550:1 2488:1 2930:1 3177:1 3290:1 3518:1 #
0.14391651449490117098406471995986 2488:1 2533:1 3960:1 #
0.17080557310012603466908842619887 350:1 385:1 565:1 1621:1 1872:1 2488:1 2682:1 3076:1 #
-0.17080557310012603466908842619887 911:1 922:1 3018:1 4584:1 #
-0.17080557310012603466908842619887 2640:1 3884:1 4109:1 #
-0.17080557310012603466908842619887 2488:1 3018:1 3309:1 4308:1 4627:1 #
0.17080557310012603466908842619887 380:1 996:1 2670:1 2763:1 3638:1 3883:1 4440:1 4527:1 4874:1 #
0.17080557310012603466908842619887 996:1 2661:1 #
-0.17080557310012603466908842619887 308:1 996:1 1101:1 1315:1 3638:1 4082:1 4339:1 #
-0.17080557310012603466908842619887 982:1 996:1 1959:1 4339:1 #
-0.067091763090936465396829646579135 60:1 879:1 996:1 1504:1 4213:1 4339:1 4695:1 #
0.049492832898222330340054497810343 52:1 1254:1 2488:1 #
0.17080557310012603466908842619887 2095:1 3884:1 4109:1 #
-0.17080557310012603466908842619887 344:1 510:1 1621:1 2884:1 4109:1 #
0.17080557310012603466908842619887 911:1 1222:1 1628:1 2095:1 2530:1 2614:1 2616:1 3757:1 #
0.0097285504948685565945742936833085 2095:1 3583:1 4109:1 #
0.038975969781653914403296568025326 2488:1 3551:1 4109:1 #
-0.17080557310012603466908842619887 25:1 380:1 544:1 985:1 1550:1 1614:1 2095:1 2619:1 2965:1 3228:1 4109:1 4373:1 4504:1 4597:1 4741:1 4825:1 #
-0.11691487323045270108057280822322 25:1 510:1 533:1 853:1 1406:1 1621:1 1751:1 2045:1 2497:1 2619:1 4109:1 4349:1 #
-0.17080557310012603466908842619887 2095:1 2433:1 3578:1 4109:1 #
0.17080557310012603466908842619887 308:1 996:1 2404:1 #
-0.056731381566667377081003564853745 996:1 1621:1 3035:1 4567:1 #
0.17080557310012603466908842619887 59:1 996:1 1366:1 2550:1 #
0.17080557310012603466908842619887 996:1 1366:1 1409:1 #
-0.17080557310012603466908842619887 59:1 2488:1 2989:1 3239:1 3252:1 3396:1 #
-0.17080557310012603466908842619887 308:1 996:1 4177:1 #
-0.17080557310012603466908842619887 308:1 404:1 996:1 4177:1 4701:1 #
0.17080557310012603466908842619887 510:1 835:1 4109:1 4339:1 4495:1 #
0.17080557310012603466908842619887 510:1 4109:1 4161:1 4339:1 #
0.17080557310012603466908842619887 510:1 572:1 4109:1 4339:1 #
0.033636173520395822034156907420765 1621:1 1743:1 2433:1 2488:1 2619:1 2640:1 3635:1 4050:1 4308:1 #
-0.16138752683770826723552715975529 26:1 510:1 572:1 1997:1 2395:1 2827:1 4050:1 4286:1 4293:1 4769:1 #
-0.17080557310012603466908842619887 510:1 2124:1 2658:1 3320:1 4234:1 #
-0.036442555813278265652854770451086 65:1 510:1 1997:1 2412:1 2946:1 3501:1 4161:1 4308:1 4815:1 #
-0.17080557310012603466908842619887 510:1 2100:1 3320:1 4308:1 #
-0.13670077319401330306902764277766 510:1 790:1 1268:1 1621:1 3966:1 4016:1 4333:1 4412:1 #
0.17080557310012603466908842619887 308:1 996:1 2560:1 4567:1 4587:1 #
0.17080557310012603466908842619887 308:1 996:1 3576:1 #
0.17080557310012603466908842619887 308:1 939:1 996:1 2533:1 3622:1 #
-0.17080557310012603466908842619887 841:1 996:1 3915:1 4109:1 #
-0.17080557310012603466908842619887 996:1 1997:1 2461:1 4109:1 #
-0.17080557310012603466908842619887 60:1 308:1 996:1 3117:1 4339:1 #
0.17080557310012603466908842619887 207:1 321:1 510:1 562:1 1618:1 4177:1 #
0.063436082933085571888831566411682 60:1 336:1 510:1 1402:1 1641:1 2064:1 2432:1 2619:1 2631:1 2886:1 2989:1 3384:1 4031:1 4633:1 4866:1 4898:1 #
0.17080557310012603466908842619887 25:1 1621:1 2095:1 2144:1 3977:1 #
0.17080557310012603466908842619887 510:1 736:1 4177:1 #
-0.17080557310012603466908842619887 394:1 510:1 533:1 1111:1 1618:1 2310:1 3337:1 #
-0.17080557310012603466908842619887 186:1 510:1 1709:1 2144:1 3091:1 4016:1 #
-0.071105824840683132248564390920365 378:1 633:1 1621:1 1848:1 2095:1 2631:1 4174:1 4495:1 #
-0.17080557310012603466908842619887 510:1 864:1 1607:1 1618:1 3570:1 #
-0.027614795032658279866355499621022 226:1 510:1 814:1 1621:1 3543:1 4874:1 #
0.11864064904196831851113103084572 996:1 2531:1 4109:1 4349:1 4873:1 #
0.17080557310012603466908842619887 1846:1 2488:1 #
0.17080557310012603466908842619887 996:1 2338:1 3396:1 #
-0.17080557310012603466908842619887 286:1 532:1 2488:1 #
-0.17080557310012603466908842619887 2417:1 2488:1 4452:1 #
-0.17080557310012603466908842619887 1222:1 2530:1 2640:1 4031:1 4109:1 #
-0.17080557310012603466908842619887 2488:1 3578:1 4109:1 4873:1 #
-0.17080557310012603466908842619887 2488:1 3189:1 3604:1 #
-0.17080557310012603466908842619887 446:1 510:1 1507:1 4109:1 #
0.17080557310012603466908842619887 510:1 1287:1 3320:1 4339:1 #
0.17080557310012603466908842619887 510:1 572:1 4308:1 4339:1 #
0.17080557310012603466908842619887 510:1 565:1 990:1 4308:1 #
0.17080557310012603466908842619887 510:1 1507:1 2528:1 4339:1 #
-0.17080557310012603466908842619887 84:1 510:1 1111:1 1621:1 2430:1 2619:1 3807:1 4028:1 4339:1 4567:1 4760:1 #
-0.17080557310012603466908842619887 25:1 27:1 452:1 510:1 572:1 626:1 659:1 982:1 1169:1 1674:1 2461:1 2759:1 2833:1 #
-0.17080557310012603466908842619887 10:1 27:1 510:1 1507:1 2989:1 3884:1 #
-0.17080557310012603466908842619887 510:1 4308:1 4677:1 #
0.17080557310012603466908842619887 1618:1 1997:1 2488:1 4109:1 #
0.17080557310012603466908842619887 801:1 1621:1 2488:1 3177:1 4427:1 #
0.17080557310012603466908842619887 801:1 1621:1 2488:1 3177:1 #
-0.045332631638129006201864967806614 996:1 1101:1 2461:1 2530:1 4031:1 4109:1 #
-0.17080557310012603466908842619887 572:1 2488:1 2682:1 3217:1 #
-0.17080557310012603466908842619887 559:1 996:1 4011:1 4339:1 #
-0.17080557310012603466908842619887 1621:1 2488:1 3035:1 #
0.13396016552218895090398120828468 922:1 1550:1 1743:1 1884:1 2433:1 3089:1 3123:1 3138:1 3533:1 3570:1 3578:1 3604:1 3805:1 4810:1 #
0.17080557310012603466908842619887 510:1 2430:1 3183:1 4760:1 #
0.17080557310012603466908842619887 510:1 2669:1 4567:1 4760:1 #
0.17080557310012603466908842619887 27:1 530:1 2640:1 2989:1 #
-0.17080557310012603466908842619887 51:1 285:1 510:1 3529:1 3549:1 #
-0.17080557310012603466908842619887 510:1 1234:1 1618:1 4487:1 4808:1 #
-0.17080557310012603466908842619887 510:1 3033:1 3320:1 3622:1 #
-0.17080557310012603466908842619887 1287:1 2095:1 #
0.17080557310012603466908842619887 533:1 2118:1 2488:1 2682:1 3231:1 3629:1 4339:1 4825:1 #
-0.072918610959508300961573468157439 510:1 1621:1 2497:1 4313:1 4760:1 4866:1 #
0.12275630634973282162558660957075 1693:1 2488:1 2682:1 4403:1 #
-0.17080557310012603466908842619887 2433:1 2488:1 2560:1 2670:1 3578:1 4109:1 #
-0.17080557310012603466908842619887 1150:1 2118:1 2433:1 2488:1 3284:1 #
0.17080557310012603466908842619887 510:1 2015:1 3320:1 3622:1 #
0.17080557310012603466908842619887 37:1 510:1 1621:1 2325:1 2579:1 2619:1 2640:1 2979:1 3445:1 4016:1 #
0.17080557310012603466908842619887 1621:1 1651:1 1819:1 2095:1 #
-0.17080557310012603466908842619887 939:1 1621:1 1743:1 2095:1 4507:1 #
-0.17080557310012603466908842619887 549:1 2095:1 2341:1 4094:1 4307:1 #
-0.17080557310012603466908842619887 221:1 602:1 1739:1 2095:1 2989:1 #
-0.17080557310012603466908842619887 1621:1 2095:1 4137:1 #
0.11046695737029813000340539019817 61:1 72:1 363:1 982:1 1618:1 1743:1 1748:1 2118:1 2191:1 2461:1 2488:1 2503:1 2708:1 2833:1 2930:1 3578:1 3884:1 4109:1 4382:1 4495:1 4627:1 #
0.17080557310012603466908842619887 933:1 982:1 1371:1 1674:1 2433:1 2488:1 3981:1 #
-0.17080557310012603466908842619887 996:1 1725:1 #
0.17080557310012603466908842619887 2095:1 4286:1 4502:1 #
0.17080557310012603466908842619887 2095:1 2118:1 2461:1 3035:1 3857:1 4308:1 #
0.17080557310012603466908842619887 6:1 1621:1 2095:1 3491:1 4308:1 #
0.17080557310012603466908842619887 107:1 2095:1 4293:1 #
0.17080557310012603466908842619887 2095:1 2235:1 #
-0.17080557310012603466908842619887 1651:1 2640:1 #
-0.067328518073850776581856791835889 32:1 517:1 545:1 753:1 855:1 974:1 1634:1 1777:1 2300:1 2533:1 2640:1 2682:1 2754:1 #
-0.17080557310012603466908842619887 2300:1 2469:1 2640:1 2870:1 3617:1 #
-0.17080557310012603466908842619887 2095:1 2892:1 4308:1 #
-0.17080557310012603466908842619887 123:1 2095:1 4308:1 #
0.049749416385027382669914430834979 700:1 2095:1 #
0.17080557310012603466908842619887 510:1 4308:1 4840:1 4847:1 #
-0.17080557310012603466908842619887 964:1 1642:1 1743:1 2409:1 2488:1 3501:1 3758:1 4109:1 #
0.17080557310012603466908842619887 2640:1 3818:1 4293:1 #
0.17080557310012603466908842619887 2640:1 3505:1 3547:1 #
0.17080557310012603466908842619887 633:1 1280:1 1291:1 2095:1 2118:1 2682:1 3092:1 4874:1 #
-0.17080557310012603466908842619887 390:1 391:1 2095:1 2550:1 4293:1 #
-0.17080557310012603466908842619887 2191:1 2640:1 #
-0.17080557310012603466908842619887 510:1 1621:1 4760:1 4874:1 #
0.16874711194461539109923364776478 10:1 386:1 549:1 1507:1 1642:1 1698:1 2488:1 2989:1 3466:1 4286:1 #
0.17080557310012603466908842619887 1022:1 1491:1 2341:1 2488:1 4213:1 4547:1 #
0.17080557310012603466908842619887 638:1 2640:1 3909:1 #
-0.17080557310012603466908842619887 2488:1 4627:1 #
-0.17080557310012603466908842619887 2488:1 3396:1 3577:1 #
0.17080557310012603466908842619887 60:1 2095:1 2930:1 3145:1 #
-0.17080557310012603466908842619887 465:1 708:1 911:1 2095:1 2711:1 #
-0.17080557310012603466908842619887 35:1 550:1 2095:1 2841:1 #
0.17080557310012603466908842619887 482:1 2107:1 2488:1 3108:1 #
0.17080557310012603466908842619887 2488:1 4202:1 #
0.11054556330430342914183938773931 941:1 1298:1 1965:1 2317:1 2488:1 4056:1 4454:1 #
0.022276944938676025709245465122876 1642:1 2488:1 4339:1 #
0.029063216710747543508608359275058 257:1 2078:1 2095:1 2689:1 3284:1 4129:1 #
-0.17080557310012603466908842619887 2488:1 3108:1 3553:1 4101:1 4829:1 #
-0.17080557310012603466908842619887 2436:1 2488:1 #
-0.17080557310012603466908842619887 2488:1 4308:1 #
-0.17080557310012603466908842619887 34:1 495:1 1621:1 2433:1 2488:1 4533:1 4718:1 #
-0.17080557310012603466908842619887 2488:1 3553:1 #
0.17080557310012603466908842619887 510:1 708:1 4231:1 #
0.17080557310012603466908842619887 510:1 2264:1 3150:1 3252:1 4109:1 4242:1 #
0.098697175339421475137591244219948 1591:1 2095:1 3395:1 3525:1 3807:1 #
0.17080557310012603466908842619887 510:1 2823:1 3239:1 4273:1 #
-0.17080557310012603466908842619887 510:1 2930:1 3758:1 4109:1 4217:1 #
-0.15650611124996646750240358869632 510:1 1507:1 1621:1 2930:1 4109:1 4760:1 #
-0.04778172888167770554490587642249 510:1 1621:1 2930:1 2989:1 3206:1 4080:1 4760:1 #
-0.17080557310012603466908842619887 510:1 2095:1 2930:1 4293:1 4559:1 #
-0.17080557310012603466908842619887 510:1 790:1 1621:1 4109:1 4760:1 #
0.17080557310012603466908842619887 1012:1 1621:1 2488:1 2493:1 2522:1 2538:1 #
-0.011647757258781595013363840962484 446:1 510:1 1965:1 1985:1 3214:1 4339:1 4691:1 #
0.056277967548809988695968087313304 2144:1 2310:1 2488:1 4308:1 #
0.13782777253174346987485421323072 788:1 2488:1 2544:1 2619:1 2930:1 3578:1 4041:1 4101:1 4181:1 4567:1 4874:1 #
-0.17080557310012603466908842619887 123:1 2461:1 2488:1 4308:1 #
-0.17080557310012603466908842619887 1238:1 2488:1 4308:1 #
-0.17080557310012603466908842619887 257:1 2142:1 2488:1 #
-0.17080557310012603466908842619887 1725:1 2488:1 #
0.17080557310012603466908842619887 510:1 857:1 2930:1 4109:1 #
0.17080557310012603466908842619887 510:1 1211:1 4109:1 4169:1 4664:1 #
0.17080557310012603466908842619887 510:1 1748:1 4109:1 4760:1 #
-0.17080557310012603466908842619887 510:1 1653:1 1748:1 2619:1 4109:1 4452:1 4829:1 #
-0.17080557310012603466908842619887 510:1 544:1 1724:1 3068:1 4109:1 4432:1 #
0.17080557310012603466908842619887 936:1 1502:1 2488:1 4293:1 #
0.17080557310012603466908842619887 1621:1 1967:1 2488:1 4293:1 4382:1 #
0.17080557310012603466908842619887 107:1 2488:1 4293:1 #
0.17080557310012603466908842619887 2433:1 2488:1 4293:1 #
-0.17080557310012603466908842619887 467:1 2488:1 4293:1 #
-0.17080557310012603466908842619887 2488:1 4293:1 #
-0.17080557310012603466908842619887 33:1 57:1 2488:1 4293:1 #
-0.17080557310012603466908842619887 1621:1 2433:1 2461:1 2488:1 4293:1 #
-0.17080557310012603466908842619887 57:1 60:1 996:1 4339:1 #
0.17080557310012603466908842619887 996:1 1604:1 3695:1 4109:1 4873:1 #
0.080083294223600706707166807518661 1745:1 1775:1 1793:1 2285:1 2436:1 2640:1 2965:1 #
0.15862567665874349742693993903231 476:1 510:1 1801:1 3458:1 4109:1 #
0.17080557310012603466908842619887 1621:1 1739:1 2640:1 2989:1 3013:1 3445:1 #
0.17080557310012603466908842619887 996:1 1796:1 4411:1 4617:1 #
-0.17080557310012603466908842619887 2640:1 3642:1 4109:1 #
-0.17080557310012603466908842619887 510:1 2144:1 2285:1 4161:1 #
-0.17080557310012603466908842619887 2640:1 3857:1 3884:1 #
-0.17080557310012603466908842619887 510:1 1905:1 2144:1 2285:1 #
-0.17080557310012603466908842619887 510:1 1248:1 1689:1 4098:1 #
0.10356501537499109011353226605934 352:1 1339:1 1619:1 2142:1 2488:1 2930:1 3180:1 4339:1 4635:1 #
0.17080557310012603466908842619887 128:1 1653:1 2488:1 4031:1 4452:1 #
0.17080557310012603466908842619887 60:1 1080:1 1709:1 2488:1 3108:1 4141:1 #
-0.17080557310012603466908842619887 2488:1 4452:1 #
-0.17080557310012603466908842619887 2118:1 2488:1 3180:1 4339:1 #
-0.17080557310012603466908842619887 1653:1 2488:1 4452:1 #
-0.17080557310012603466908842619887 2488:1 #
0.17080557310012603466908842619887 446:1 1743:1 2433:1 2640:1 3739:1 #
0.013353128977484030048827889913809 1651:1 2488:1 2620:1 #
-0.17080557310012603466908842619887 401:1 446:1 510:1 4567:1 #
-0.17080557310012603466908842619887 61:1 1331:1 1621:1 2095:1 4041:1 #
-0.17080557310012603466908842619887 2095:1 2803:1 #
0.17080557310012603466908842619887 2488:1 3884:1 #
0.17080557310012603466908842619887 784:1 2488:1 3884:1 #
0.069984260454152583119658004306984 1331:1 2488:1 2791:1 2890:1 3884:1 #
0.09000741968915706991971603656566 510:1 1034:1 1106:1 2258:1 2989:1 3138:1 3244:1 4066:1 4760:1 #
0.17080557310012603466908842619887 481:1 1704:1 2488:1 #
-0.17080557310012603466908842619887 1227:1 2488:1 #
-0.17080557310012603466908842619887 2488:1 3010:1 #
0.028880728183424915489485584885188 639:1 2310:1 2488:1 2883:1 4308:1 #
0.13101620158685042816237853458006 2095:1 2191:1 #
-0.17080557310012603466908842619887 346:1 2095:1 #
-0.17080557310012603466908842619887 2095:1 #
-0.17080557310012603466908842619887 1049:1 2095:1 #
-0.17080557310012603466908842619887 1401:1 2095:1 #
0.17080557310012603466908842619887 35:1 1355:1 1634:1 2488:1 2666:1 2989:1 3578:1 4873:1 #
0.17080557310012603466908842619887 1618:1 2461:1 2488:1 #
0.17080557310012603466908842619887 14:1 2461:1 2488:1 #
0.030606616018244475058152076485385 900:1 943:1 1417:1 2095:1 4766:1 #
0.056255254133063516130963677142063 31:1 470:1 519:1 1429:1 2021:1 2095:1 #
0.074500627863881993540040582502115 2488:1 3401:1 4308:1 #
0.17080557310012603466908842619887 26:1 2095:1 2144:1 #
-0.17080557310012603466908842619887 27:1 996:1 2536:1 2989:1 4286:1 #
-0.17080557310012603466908842619887 1890:1 2488:1 #
-0.17080557310012603466908842619887 2488:1 3181:1 #
-0.17080557310012603466908842619887 122:1 510:1 572:1 808:1 2682:1 3884:1 4470:1 4493:1 #
-0.17080557310012603466908842619887 2488:1 3252:1 #
0.17080557310012603466908842619887 2095:1 2436:1 3757:1 4293:1 #
0.1349707157741051044563818095412 27:1 2095:1 3965:1 #
0.17080557310012603466908842619887 2095:1 3018:1 3109:1 #
0.17080557310012603466908842619887 2095:1 3965:1 #
0.021933582090304146183790123814106 27:1 2095:1 3508:1 #
-0.17080557310012603466908842619887 2095:1 2461:1 3642:1 4141:1 #
-0.17080557310012603466908842619887 286:1 959:1 2095:1 #
-0.17080557310012603466908842619887 268:1 446:1 1296:1 2095:1 4443:1 #
0.14133925720784432100707306290133 122:1 431:1 1555:1 2488:1 3443:1 #
0.071104071414259562011750404053601 510:1 1222:1 2488:1 4109:1 4286:1 4470:1 #
0.17080557310012603466908842619887 1331:1 2488:1 3884:1 4041:1 #
0.17080557310012603466908842619887 510:1 2188:1 2488:1 #
0.17080557310012603466908842619887 996:1 1730:1 4830:1 #
0.17080557310012603466908842619887 996:1 4029:1 #
-0.17080557310012603466908842619887 510:1 1618:1 1834:1 4286:1 4677:1 4718:1 #
-0.17080557310012603466908842619887 275:1 517:1 2488:1 3390:1 4741:1 #
-0.17080557310012603466908842619887 321:1 510:1 3239:1 #
0.17080557310012603466908842619887 42:1 922:1 1621:1 #
0.17080557310012603466908842619887 2095:1 2118:1 2488:1 2619:1 2668:1 4468:1 #
-0.17080557310012603466908842619887 1621:1 2095:1 4181:1 #
-0.17080557310012603466908842619887 922:1 1621:1 2015:1 #
0.17080557310012603466908842619887 510:1 526:1 1026:1 #
0.17080557310012603466908842619887 510:1 526:1 1767:1 #
0.17080557310012603466908842619887 510:1 1127:1 3396:1 4157:1 #
0.17080557310012603466908842619887 510:1 708:1 1359:1 1905:1 2087:1 #
-0.17080557310012603466908842619887 510:1 526:1 1287:1 1482:1 2422:1 3091:1 #
-0.17080557310012603466908842619887 510:1 3881:1 4308:1 4874:1 #
-0.17080557310012603466908842619887 510:1 1748:1 4706:1 #
0.17080557310012603466908842619887 83:1 808:1 1621:1 2433:1 2488:1 3436:1 3856:1 #
0.17080557310012603466908842619887 26:1 380:1 939:1 1621:1 2488:1 2631:1 3553:1 4181:1 #
0.17080557310012603466908842619887 363:1 1399:1 1621:1 2488:1 2715:1 #
0.17080557310012603466908842619887 1621:1 1775:1 2488:1 2708:1 #
0.17080557310012603466908842619887 510:1 1287:1 4308:1 4840:1 #
0.13305461181964781114395179884013 510:1 1883:1 3111:1 3204:1 4308:1 #
0.17080557310012603466908842619887 510:1 1287:1 4181:1 4308:1 #
0.17080557310012603466908842619887 510:1 1748:1 4760:1 #
-0.17080557310012603466908842619887 510:1 1371:1 1997:1 2708:1 #
0.0024567037856497689514434501489859 510:1 605:1 939:1 1392:1 1588:1 1689:1 2186:1 2224:1 2333:1 2444:1 2529:1 2614:1 2616:1 2930:1 2989:1 3009:1 3013:1 3348:1 4350:1 #
0.17080557310012603466908842619887 61:1 148:1 996:1 1322:1 1748:1 1858:1 2014:1 2682:1 3910:1 4652:1 #
0.17080557310012603466908842619887 185:1 843:1 1205:1 2640:1 4741:1 #
0.17080557310012603466908842619887 308:1 996:1 2841:1 4401:1 #
-0.17080557310012603466908842619887 60:1 308:1 996:1 4177:1 #
-0.13521780060902680031809097727091 996:1 3505:1 #
-0.17080557310012603466908842619887 308:1 996:1 4213:1 4339:1 #
-0.13702498524227196829983199677372 60:1 612:1 930:1 996:1 1709:1 2610:1 4339:1 #
0.17080557310012603466908842619887 510:1 1111:1 2930:1 4339:1 #
-0.17080557310012603466908842619887 2640:1 #
-0.17080557310012603466908842619887 27:1 2118:1 2191:1 2436:1 2640:1 2989:1 3990:1 #
-0.17080557310012603466908842619887 1653:1 2461:1 2640:1 #
-0.17080557310012603466908842619887 2142:1 2640:1 #
0.17080557310012603466908842619887 996:1 2433:1 4308:1 #
0.17080557310012603466908842619887 996:1 2433:1 #
0.17080557310012603466908842619887 308:1 996:1 2433:1 #
0.17080557310012603466908842619887 652:1 996:1 1167:1 #
-0.17080557310012603466908842619887 996:1 1550:1 4339:1 #
-0.17080557310012603466908842619887 996:1 1222:1 2530:1 2930:1 4031:1 4109:1 #
-0.17080557310012603466908842619887 996:1 2077:1 3489:1 4308:1 #
-0.17080557310012603466908842619887 879:1 996:1 4339:1 4671:1 #
0.17080557310012603466908842619887 1997:1 2640:1 #
0.17080557310012603466908842619887 2142:1 2640:1 3827:1 #
0.17080557310012603466908842619887 2640:1 4911:1 #
-0.17080557310012603466908842619887 1621:1 2142:1 2433:1 2640:1 #
0.17062069074192540152345998194505 1653:1 2095:1 2461:1 2614:1 2616:1 4109:1 4339:1 #
0.17080557310012603466908842619887 2488:1 3495:1 4308:1 #
0.0048641915643416648931673940126075 122:1 470:1 519:1 1621:1 2488:1 2841:1 2989:1 3884:1 4862:1 4873:1 #
0.17080557310012603466908842619887 446:1 2095:1 3794:1 4339:1 #
-0.17080557310012603466908842619887 1705:1 2095:1 3553:1 #
-0.17080557310012603466908842619887 1906:1 2095:1 3777:1 #
-0.17080557310012603466908842619887 996:1 2350:1 2930:1 3695:1 4339:1 #
-0.17080557310012603466908842619887 554:1 996:1 4339:1 #
0.17080557310012603466908842619887 2095:1 2433:1 2619:1 4081:1 4109:1 4502:1 4718:1 #
0.17080557310012603466908842619887 60:1 510:1 953:1 4746:1 4760:1 #
-0.17080557310012603466908842619887 510:1 1287:1 1691:1 2682:1 4479:1 #
0.17080557310012603466908842619887 724:1 996:1 #
-0.17080557310012603466908842619887 996:1 1618:1 4109:1 4246:1 4286:1 #
-0.17080557310012603466908842619887 996:1 1045:1 4109:1 #
0.17080557310012603466908842619887 510:1 1287:1 4339:1 #
0.15063873050717060952941039886355 1689:1 2488:1 3695:1 4308:1 4339:1 #
-0.17080557310012603466908842619887 510:1 4003:1 4308:1 #
-0.17080557310012603466908842619887 122:1 510:1 961:1 2488:1 4493:1 #
-0.17080557310012603466908842619887 291:1 510:1 1603:1 2378:1 2528:1 2864:1 #
0.17080557310012603466908842619887 996:1 3695:1 4109:1 4873:1 #
0.17080557310012603466908842619887 996:1 2433:1 4109:1 #
0.17080557310012603466908842619887 996:1 2433:1 3592:1 4109:1 #
-0.17080557310012603466908842619887 192:1 996:1 4109:1 #
0.17080557310012603466908842619887 510:1 2076:1 3202:1 4308:1 #
-0.17080557310012603466908842619887 930:1 996:1 4109:1 #
-0.17080557310012603466908842619887 996:1 1796:1 1959:1 4109:1 #
-0.17080557310012603466908842619887 2461:1 2488:1 3553:1 3758:1 #
0.096000584116058426675799353233742 362:1 2488:1 2778:1 #
0.1027118187401473425879316891951 165:1 510:1 992:1 1401:1 2142:1 2488:1 2708:1 2965:1 3553:1 #
0.082440145105049197904456548258167 510:1 1082:1 2488:1 2619:1 4507:1 #
0.14370755476841137743271303861547 510:1 2095:1 4177:1 #
0.015472057901631162957212239916771 2488:1 3811:1 3944:1 #
0.17080557310012603466908842619887 996:1 2338:1 4109:1 #
0.17080557310012603466908842619887 996:1 3576:1 #
-0.17080557310012603466908842619887 996:1 1357:1 1709:1 3091:1 4339:1 #
-0.13631635930371174825204150238278 60:1 996:1 1670:1 3062:1 3222:1 3532:1 3570:1 3850:1 4339:1 #
-0.17080557310012603466908842619887 60:1 996:1 3837:1 4339:1 #
-0.17080557310012603466908842619887 996:1 3695:1 3999:1 4339:1 #
-0.17080557310012603466908842619887 749:1 916:1 996:1 3794:1 #
0.032704828980208426603137894517204 2488:1 3113:1 4029:1 4215:1 #
0.039093466316139094396397979380708 47:1 510:1 771:1 783:1 930:1 933:1 1112:1 1152:1 1336:1 1593:1 1806:1 1914:1 2169:1 2499:1 2530:1 2552:1 2574:1 2617:1 2619:1 2852:1 3916:1 4109:1 4807:1 #
0.042595830340759824328422666894767 25:1 470:1 2488:1 2989:1 4308:1 4884:1 #
0.07878661845993119305919805128724 107:1 1653:1 2488:1 4109:1 4452:1 #
0.1699953118268631435672233465084 1216:1 2488:1 3348:1 3518:1 3589:1 #
0.17080557310012603466908842619887 318:1 2535:1 2640:1 3396:1 4339:1 #
0.17080557310012603466908842619887 996:1 1086:1 1793:1 1959:1 2870:1 2944:1 4854:1 #
0.17080557310012603466908842619887 996:1 4181:1 #
-0.17080557310012603466908842619887 2095:1 2138:1 #
-0.17080557310012603466908842619887 2095:1 4624:1 #
-0.17080557310012603466908842619887 1725:1 2095:1 #
0.17080557310012603466908842619887 510:1 1959:1 4109:1 4339:1 #
0.00097615462707816859876108761540081 782:1 1007:1 2095:1 #
0.070628382595370964303072014445206 1860:1 2095:1 2930:1 #
0.070628382595370686747315858156071 1799:1 2095:1 2930:1 #
0.070415575850434924953802351410559 1651:1 2095:1 #
0.17080557310012603466908842619887 922:1 1725:1 #
0.17080557310012603466908842619887 42:1 922:1 1621:1 3794:1 4874:1 #
0.027618642310751576052219036228053 25:1 439:1 996:1 1206:1 1408:1 2696:1 3202:1 3756:1 4107:1 4122:1 4267:1 4718:1 #
0.038537854731393164642305748657236 1438:1 2488:1 4109:1 #
0.17080557310012603466908842619887 633:1 922:1 1187:1 1583:1 1748:1 2003:1 4502:1 4868:1 #
-0.17080557310012603466908842619887 510:1 1371:1 3884:1 4807:1 #
-0.17080557310012603466908842619887 510:1 1628:1 1690:1 3337:1 #
-0.17080557310012603466908842619887 380:1 1337:1 1621:1 2223:1 2640:1 3228:1 4041:1 #
0.17080557310012603466908842619887 2095:1 3553:1 4339:1 #
-0.11988913879741265600120669887474 280:1 996:1 1637:1 2350:1 #
-0.041077772711073969047479437222137 510:1 807:1 3444:1 4352:1 4502:1 #
0.0051903767439862450241983005128077 2488:1 2684:1 2930:1 #
-0.17080557310012603466908842619887 2095:1 3553:1 4706:1 #
-0.17080557310012603466908842619887 221:1 2095:1 4308:1 #
0.10243265773841393750931416661842 2223:1 2640:1 4391:1 #
0.17080557310012603466908842619887 510:1 572:1 652:1 4567:1 #
-0.15706707226844288105560565327323 398:1 996:1 3061:1 4339:1 4897:1 #
0.17080557310012603466908842619887 2095:1 3884:1 #
0.17080557310012603466908842619887 2080:1 2095:1 3273:1 3884:1 #
0.17080557310012603466908842619887 2095:1 3088:1 3884:1 4502:1 #
0.059628740244054956320951532688923 2095:1 2985:1 4308:1 #
0.17080557310012603466908842619887 1507:1 2095:1 4339:1 #
-0.17080557310012603466908842619887 446:1 2079:1 2095:1 3260:1 4452:1 #
0.17080557310012603466908842619887 996:1 3018:1 3035:1 #
0.041314695312943357230484053843611 308:1 996:1 2153:1 3902:1 4064:1 4087:1 4533:1 #
-0.17080557310012603466908842619887 26:1 308:1 996:1 3967:1 #
-0.17080557310012603466908842619887 996:1 1068:1 2930:1 3884:1 #
-0.17080557310012603466908842619887 60:1 308:1 996:1 4213:1 4339:1 #
0.17080557310012603466908842619887 2066:1 2095:1 #
0.17080557310012603466908842619887 95:1 2095:1 #
-0.17080557310012603466908842619887 1222:1 2095:1 2530:1 3881:1 4874:1 #
-0.17080557310012603466908842619887 763:1 982:1 1621:1 2095:1 3680:1 #
-0.17080557310012603466908842619887 221:1 2095:1 #
0.044100485929688820752048172835202 996:1 1872:1 2682:1 2823:1 2944:1 3000:1 4186:1 4308:1 4452:1 #
0.10776008588800695120468731147412 27:1 257:1 308:1 982:1 996:1 1905:1 1915:1 1997:1 4308:1 #
0.17080557310012603466908842619887 996:1 4830:1 #
0.17080557310012603466908842619887 911:1 996:1 1366:1 2550:1 #
-0.17080557310012603466908842619887 996:1 4020:1 #
-0.10598605478011000058380375321576 118:1 461:1 489:1 636:1 996:1 1997:1 2384:1 2729:1 3172:1 4109:1 #
-0.12283232248728222224531947404103 996:1 1870:1 2989:1 3082:1 4105:1 4254:1 #
-0.17080557310012603466908842619887 996:1 2501:1 3415:1 3437:1 #
0.17080557310012603466908842619887 60:1 510:1 2095:1 2312:1 #
-0.097123422946987905679527841584786 106:1 109:1 510:1 622:1 922:1 1773:1 1949:1 2118:1 3388:1 3780:1 #
-0.17080557310012603466908842619887 257:1 510:1 551:1 895:1 3396:1 #
-0.17080557310012603466908842619887 257:1 510:1 2144:1 3100:1 4293:1 #
0.17080557310012603466908842619887 107:1 996:1 #
0.17080557310012603466908842619887 996:1 2338:1 #
0.17080557310012603466908842619887 308:1 996:1 1222:1 2433:1 #
-0.17080557310012603466908842619887 808:1 996:1 #
-0.17080557310012603466908842619887 996:1 1040:1 4308:1 #
0.17080557310012603466908842619887 510:1 2078:1 2992:1 4109:1 4141:1 #
0.17080557310012603466908842619887 25:1 510:1 3204:1 4109:1 #
0.17080557310012603466908842619887 510:1 2884:1 4109:1 4155:1 #
-0.17080557310012603466908842619887 2300:1 2640:1 4023:1 4109:1 #
0.17080557310012603466908842619887 996:1 3035:1 4308:1 #
0.17080557310012603466908842619887 996:1 3396:1 4873:1 #
-0.17080557310012603466908842619887 238:1 996:1 2884:1 3788:1 #
-0.17080557310012603466908842619887 996:1 1507:1 3974:1 4109:1 #
0.17080557310012603466908842619887 35:1 141:1 331:1 495:1 1621:1 2488:1 2989:1 4527:1 #
0.17080557310012603466908842619887 2144:1 2640:1 #
0.17080557310012603466908842619887 1621:1 1743:1 2201:1 2488:1 4617:1 #
0.15057598463461188686984826290427 927:1 1618:1 1648:1 1674:1 1906:1 2488:1 3604:1 #
-0.17080557310012603466908842619887 269:1 1364:1 2300:1 2640:1 #
0.087684953953245825530871115915943 481:1 510:1 2488:1 2682:1 4264:1 #
0.17080557310012603466908842619887 2488:1 3543:1 #
0.17080557310012603466908842619887 505:1 606:1 2488:1 #
0.17080557310012603466908842619887 1045:1 1344:1 2488:1 #
0.17080557310012603466908842619887 27:1 1997:1 2488:1 #
0.17080557310012603466908842619887 996:1 4029:1 4267:1 #
0.17080557310012603466908842619887 2640:1 4362:1 #
0.17080557310012603466908842619887 1186:1 2640:1 #
0.17080557310012603466908842619887 1375:1 2640:1 #
0.17080557310012603466908842619887 2489:1 2640:1 #
0.17080557310012603466908842619887 497:1 2640:1 #
-0.17080557310012603466908842619887 2640:1 3309:1 3622:1 #
-0.17080557310012603466908842619887 1595:1 2118:1 2640:1 2841:1 2930:1 3231:1 #
0.17080557310012603466908842619887 27:1 510:1 2253:1 2488:1 4293:1 #
-0.088929639889054210022401036894735 491:1 510:1 1176:1 1189:1 4293:1 #
-0.17080557310012603466908842619887 420:1 510:1 4479:1 4621:1 #
0.14774939821069810186315862665651 1862:1 2640:1 #
0.17080557310012603466908842619887 2640:1 4085:1 #
0.17080557310012603466908842619887 2640:1 2976:1 #
0.10799704108162833104955780072487 308:1 461:1 996:1 3035:1 4735:1 #
0.17080557310012603466908842619887 700:1 2640:1 #
-0.17080557310012603466908842619887 2640:1 3642:1 #
-0.17080557310012603466908842619887 939:1 1621:1 2640:1 #
0.17080557310012603466908842619887 510:1 517:1 4109:1 4339:1 #
0.17080557310012603466908842619887 939:1 982:1 2488:1 2530:1 2619:1 3967:1 4308:1 #
0.17080557310012603466908842619887 875:1 2640:1 2930:1 #
-0.17080557310012603466908842619887 2095:1 2892:1 4502:1 #
0.17080557310012603466908842619887 996:1 2661:1 3576:1 #
0.17080557310012603466908842619887 996:1 2673:1 2823:1 3013:1 #
0.053770355550507881181587777064124 394:1 510:1 939:1 1283:1 1399:1 1618:1 1621:1 1901:1 2078:1 2488:1 2619:1 3011:1 3411:1 4071:1 4229:1 #
-0.17080557310012603466908842619887 996:1 1400:1 2680:1 3291:1 3336:1 3553:1 4339:1 #
-0.17080557310012603466908842619887 465:1 996:1 4339:1 #
0.072732689827871857546348621781362 1240:1 2095:1 2380:1 2682:1 #
0.17080557310012603466908842619887 1997:1 2095:1 #
-0.17080557310012603466908842619887 446:1 2095:1 #
-0.17080557310012603466908842619887 122:1 961:1 2095:1 2908:1 #
-0.17080557310012603466908842619887 510:1 1429:1 1748:1 1811:1 2422:1 3884:1 #
0.10693336670142100652824979079014 60:1 802:1 1170:1 1491:1 1781:1 2275:1 2488:1 4213:1 4339:1 #
-0.17080557310012603466908842619887 26:1 517:1 1274:1 2300:1 2640:1 4109:1 #
0.17080557310012603466908842619887 996:1 1796:1 2433:1 2461:1 3553:1 3883:1 #
-0.17080557310012603466908842619887 996:1 1997:1 2930:1 #
-0.17080557310012603466908842619887 2095:1 3642:1 #
-0.17080557310012603466908842619887 285:1 1234:1 1596:1 1621:1 2095:1 #
-0.17080557310012603466908842619887 1621:1 2095:1 3273:1 3345:1 #
0.17080557310012603466908842619887 996:1 1959:1 3584:1 4873:1 #
-0.05401357460942465826825298336189 25:1 379:1 510:1 1040:1 1618:1 2614:1 2616:1 3320:1 4495:1 4771:1 #
-0.17080557310012603466908842619887 591:1 996:1 2680:1 3553:1 4339:1 #
-0.17080557310012603466908842619887 746:1 803:1 996:1 3993:1 4177:1 #
-0.073964959832789972660194166564906 996:1 1621:1 3035:1 4109:1 4152:1 #
0.17080557310012603466908842619887 510:1 1914:1 2528:1 3217:1 4339:1 #
0.17080557310012603466908842619887 510:1 559:1 1748:1 4339:1 #
-0.17080557310012603466908842619887 373:1 510:1 549:1 1689:1 4161:1 #
0.17080557310012603466908842619887 996:1 3547:1 3592:1 4840:1 #
0.17080557310012603466908842619887 510:1 3320:1 4109:1 4339:1 #
-0.17080557310012603466908842619887 1502:1 2118:1 2488:1 #
-0.15493800227904527821998215131316 123:1 175:1 996:1 3018:1 4339:1 #
-0.17080557310012603466908842619887 510:1 1595:1 3320:1 3884:1 4370:1 4677:1 #
-0.17080557310012603466908842619887 308:1 996:1 3117:1 4213:1 4339:1 #
-0.17080557310012603466908842619887 996:1 1959:1 #
-0.025415413143330574385903020129263 510:1 2892:1 4016:1 4293:1 #
-0.17080557310012603466908842619887 2433:1 2488:1 2560:1 3578:1 4109:1 #
-0.17080557310012603466908842619887 2433:1 2488:1 3578:1 4109:1 #
-0.17080557310012603466908842619887 854:1 1287:1 2488:1 4109:1 #
-0.17080557310012603466908842619887 2356:1 2488:1 2614:1 3421:1 4308:1 #
0.076291537576516590957176333631651 208:1 257:1 380:1 498:1 794:1 930:1 1222:1 1536:1 1876:1 2095:1 2619:1 2747:1 3045:1 3293:1 3451:1 3489:1 4003:1 4037:1 4116:1 4391:1 4567:1 #
0.08087888352464274455133619312619 61:1 187:1 252:1 572:1 808:1 915:1 1045:1 1073:1 1356:1 1360:1 1396:1 1401:1 1621:1 1722:1 1748:1 2118:1 2350:1 2409:1 2422:1 2461:1 2488:1 2647:1 2682:1 2820:1 3034:1 3318:1 3333:1 3397:1 3417:1 3444:1 3455:1 3484:1 3503:1 3578:1 3633:1 3794:1 3856:1 3884:1 3910:1 3999:1 4109:1 4243:1 4290:1 4317:1 4331:1 4339:1 4352:1 4382:1 4415:1 4452:1 4477:1 4502:1 4724:1 4873:1 #
0.17080557310012603466908842619887 308:1 510:1 892:1 996:1 2619:1 #
0.11738074564840379754304677817345 141:1 299:1 556:1 982:1 1001:1 1550:1 1621:1 1674:1 1698:1 2488:1 2538:1 2864:1 3220:1 3408:1 3642:1 3866:1 4217:1 4261:1 4382:1 4874:1 #
0.17080557310012603466908842619887 61:1 267:1 299:1 911:1 982:1 1507:1 1621:1 1689:1 2459:1 2488:1 2833:1 3578:1 4101:1 4382:1 #
-0.17080557310012603466908842619887 299:1 982:1 1212:1 2488:1 3902:1 4502:1 #
-0.058150268440636268540977482643939 35:1 481:1 510:1 537:1 1486:1 1621:1 1689:1 1743:1 1748:1 1900:1 2823:1 2911:1 3177:1 3294:1 4041:1 4437:1 4474:1 4502:1 #
-0.035548000657562639492681455521961 35:1 102:1 380:1 815:1 1190:1 1216:1 1507:1 1603:1 1621:1 1674:1 1997:1 2275:1 2422:1 2488:1 2560:1 2930:1 3135:1 3243:1 3343:1 3589:1 3680:1 3795:1 3884:1 4269:1 4286:1 4290:1 4339:1 4790:1 #
-0.17080557310012603466908842619887 510:1 982:1 1507:1 2488:1 2619:1 3165:1 4677:1 #
-0.17080557310012603466908842619887 60:1 107:1 753:1 1769:1 2077:1 2095:1 2619:1 3638:1 4502:1 4706:1 #
0.17080557310012603466908842619887 510:1 516:1 996:1 2058:1 2841:1 3756:1 4109:1 4718:1 #
0.17080557310012603466908842619887 510:1 724:1 996:1 4109:1 #
0.17080557310012603466908842619887 57:1 996:1 2350:1 3695:1 4109:1 4873:1 #
0.109843552967489807570267146275 129:1 510:1 943:1 1618:1 2058:1 3001:1 4718:1 #
-0.17080557310012603466908842619887 996:1 2530:1 3794:1 4339:1 #
-0.17080557310012603466908842619887 25:1 308:1 545:1 996:1 1635:1 1668:1 4109:1 #
-0.17080557310012603466908842619887 503:1 879:1 996:1 2965:1 #
-0.17080557310012603466908842619887 363:1 510:1 1618:1 1619:1 2442:1 2930:1 3570:1 3638:1 4495:1 4893:1 #
0.17080557310012603466908842619887 25:1 328:1 364:1 382:1 1621:1 1872:1 2147:1 2488:1 2553:1 2619:1 2631:1 3053:1 3578:1 3892:1 4213:1 4382:1 4627:1 #
-0.17080557310012603466908842619887 2433:1 2640:1 3578:1 4109:1 #
0.17080557310012603466908842619887 1693:1 1915:1 2095:1 2118:1 2493:1 4014:1 #
0.17080557310012603466908842619887 1594:1 2095:1 #
0.095437170987660704946087264488597 181:1 2095:1 #
0.12722204485517568661734344459546 1453:1 2095:1 3801:1 #
0.083833928976782629005626290563669 1729:1 2095:1 #
-0.17080557310012603466908842619887 996:1 1997:1 3108:1 4308:1 #
-0.067378386632157130642362119488098 933:1 996:1 1550:1 2350:1 3674:1 3884:1 4505:1 4513:1 #
0.048353332079265010090551868415787 164:1 510:1 933:1 1050:1 1743:1 1745:1 2045:1 2619:1 2832:1 3745:1 4354:1 4452:1 4549:1 4565:1 4647:1 4658:1 #
0.10049960405723537548716706169216 510:1 964:1 2045:1 2930:1 3294:1 3303:1 3846:1 4286:1 4319:1 4339:1 4412:1 #
-0.061013437030958309059691657694202 285:1 310:1 511:1 790:1 921:1 922:1 1502:1 1674:1 2213:1 2446:1 2658:1 2682:1 2890:1 3578:1 3679:1 3794:1 3846:1 #
-0.044645809336412468903976247247556 452:1 510:1 808:1 2433:1 3578:1 4109:1 #
0.17080557310012603466908842619887 1959:1 2488:1 4339:1 #
0.0835749207105630220748793135499 1846:1 2095:1 #
0.12721577471165795847340973523387 2095:1 2543:1 4156:1 #
0.025722530850220838571917880699402 2095:1 2537:1 #
-0.17080557310012603466908842619887 930:1 996:1 3217:1 #
-0.17080557310012603466908842619887 996:1 1739:1 2416:1 #
-0.17080557310012603466908842619887 344:1 996:1 1281:1 #
0.17080557310012603466908842619887 510:1 1748:1 4758:1 4760:1 #
0.12443624148195399359284607498921 57:1 60:1 122:1 510:1 736:1 1555:1 3040:1 3202:1 3278:1 #
0.052422063583813766074470663625107 510:1 808:1 1220:1 1801:1 3614:1 #
0.17080557310012603466908842619887 59:1 996:1 3345:1 3925:1 4873:1 #
0.059364575270403424633869349236193 27:1 280:1 285:1 1024:1 1176:1 1200:1 1527:1 1550:1 1621:1 1659:1 1780:1 1965:1 2027:1 2095:1 2310:1 2363:1 2395:1 2454:1 2989:1 3284:1 3708:1 3731:1 3739:1 3893:1 4103:1 4163:1 4468:1 4567:1 4879:1 #
0.0057859999547096455443928597617287 2095:1 2105:1 4339:1 #
0.17080557310012603466908842619887 510:1 2191:1 2488:1 #
0.17080557310012603466908842619887 2395:1 2488:1 2680:1 4339:1 #
0.17080557310012603466908842619887 2488:1 3336:1 4339:1 #
0.17080557310012603466908842619887 510:1 2551:1 2682:1 2820:1 3827:1 #
-0.13667675347475749525472110690316 766:1 996:1 4789:1 4869:1 #
-0.040079468619831658260377338365288 446:1 996:1 2619:1 2944:1 #
-0.13778857455641882467922698651819 587:1 918:1 996:1 1620:1 #
0.077271832127840611725844155444065 281:1 510:1 724:1 3017:1 4109:1 #
0.17080557310012603466908842619887 996:1 3138:1 4382:1 4897:1 #
0.15822134944921545374185711807513 181:1 308:1 996:1 2095:1 2619:1 #
0.17080557310012603466908842619887 2640:1 4177:1 #
0.060348891929426773383937643302488 380:1 404:1 852:1 911:1 969:1 971:1 1085:1 1420:1 1550:1 1621:1 1739:1 1947:1 2041:1 2107:1 2118:1 2329:1 2395:1 2488:1 2538:1 2582:1 2744:1 2758:1 2930:1 2970:1 3000:1 3005:1 3135:1 3390:1 3578:1 3610:1 3758:1 3884:1 4101:1 4118:1 4237:1 4243:1 4286:1 4290:1 4382:1 4398:1 4533:1 4645:1 4724:1 4873:1 #
0.17080557310012603466908842619887 2488:1 3553:1 4339:1 #
0.17080557310012603466908842619887 2043:1 2095:1 #
-0.17080557310012603466908842619887 26:1 2142:1 2488:1 #
-0.17080557310012603466908842619887 510:1 1621:1 1698:1 4567:1 4760:1 4874:1 #
-0.17080557310012603466908842619887 2488:1 2714:1 4109:1 #
-0.17080557310012603466908842619887 482:1 791:1 1689:1 2461:1 2488:1 2535:1 #
-0.17080557310012603466908842619887 318:1 638:1 1366:1 1471:1 2118:1 2488:1 2535:1 4403:1 #
0.069834312541372414728790829485661 116:1 516:1 996:1 1550:1 1627:1 2146:1 2488:1 2614:1 2616:1 2619:1 3794:1 4109:1 4339:1 4495:1 #
0.050373554820216041860714284439382 1022:1 1417:1 1618:1 1793:1 1994:1 2095:1 2436:1 2535:1 2613:1 2619:1 2682:1 2965:1 2998:1 3415:1 3437:1 #
0.17080557310012603466908842619887 996:1 2433:1 3217:1 #
0.17080557310012603466908842619887 996:1 1796:1 2433:1 4109:1 #
0.17080557310012603466908842619887 31:1 579:1 2118:1 2488:1 3091:1 4109:1 4286:1 4789:1 4866:1 4873:1 #
0.097219213185097838603176967353647 2488:1 4484:1 #
0.1122247355079645375619534775069 222:1 257:1 280:1 318:1 380:1 911:1 1162:1 1618:1 1801:1 1847:1 2034:1 2053:1 2118:1 2350:1 2461:1 2488:1 2682:1 3135:1 3439:1 3506:1 3578:1 4069:1 4109:1 4873:1 #
0.11283050806177417901832171764909 285:1 510:1 666:1 1162:1 2144:1 2488:1 2619:1 2989:1 3294:1 3578:1 3887:1 4873:1 #
0.17080557310012603466908842619887 510:1 2406:1 4109:1 4912:1 #
-0.17080557310012603466908842619887 2488:1 4109:1 4276:1 #
-0.17080557310012603466908842619887 1049:1 1287:1 2488:1 #
-0.17080557310012603466908842619887 576:1 1212:1 2027:1 2095:1 4293:1 #
-0.17080557310012603466908842619887 2488:1 3505:1 #
-0.17080557310012603466908842619887 1124:1 1612:1 1653:1 2488:1 2614:1 2616:1 2631:1 2989:1 #
0.17080557310012603466908842619887 996:1 2461:1 2535:1 2680:1 4382:1 #
0.017983154129087394745845074339741 93:1 108:1 308:1 461:1 1471:1 2045:1 2436:1 2535:1 2640:1 2930:1 3217:1 3794:1 3967:1 4032:1 4308:1 4534:1 4874:1 4897:1 #
0.15040871385363618895070203507203 1471:1 2535:1 2640:1 2841:1 4109:1 #
0.088031145992365417152214490670303 510:1 2168:1 2186:1 3411:1 4031:1 4109:1 #
0.034123115190020127107661807031036 384:1 386:1 464:1 510:1 585:1 684:1 718:1 723:1 738:1 895:1 943:1 1507:1 1621:1 1742:1 2433:1 2544:1 2729:1 2763:1 2824:1 3036:1 3130:1 3513:1 3659:1 3750:1 3754:1 3756:1 3846:1 3856:1 4005:1 4011:1 4131:1 4286:1 4523:1 4553:1 #
-0.17080557310012603466908842619887 510:1 2528:1 2820:1 3235:1 #
-0.17080557310012603466908842619887 550:1 2095:1 2433:1 #
-0.17080557310012603466908842619887 1612:1 2640:1 #
-0.17080557310012603466908842619887 59:1 1837:1 2095:1 2682:1 3396:1 4502:1 #
-0.083550559221076167726316441530798 380:1 1417:1 1621:1 2488:1 2619:1 3036:1 3370:1 3571:1 4260:1 4595:1 #
-0.17080557310012603466908842619887 141:1 299:1 677:1 982:1 1550:1 2488:1 2535:1 3642:1 #
-0.17080557310012603466908842619887 1124:1 1621:1 1653:1 2433:1 2488:1 #
-0.17080557310012603466908842619887 1621:1 2488:1 4029:1 #
0.17080557310012603466908842619887 1128:1 2095:1 #
0.17080557310012603466908842619887 2095:1 3534:1 #
0.083891011797985082232287368242396 2095:1 2465:1 #
0.17080557310012603466908842619887 817:1 2095:1 #
-0.17080557310012603466908842619887 2095:1 3700:1 4293:1 #
-0.081286686868537016970037711871555 510:1 1205:1 1674:1 2001:1 2118:1 2341:1 2488:1 2560:1 2619:1 3092:1 4109:1 4231:1 4463:1 4718:1 #
-0.019951347596097006309445731631058 550:1 1045:1 2488:1 2989:1 3217:1 3547:1 4308:1 #
-0.17080557310012603466908842619887 446:1 922:1 #
-0.010979652929071546593742247921455 510:1 1621:1 1795:1 2255:1 2682:1 4760:1 #
-0.17080557310012603466908842619887 2488:1 4897:1 #
0.078817154830414432042928751798172 2095:1 2684:1 #
0.17080557310012603466908842619887 2095:1 4709:1 #
0.17080557310012603466908842619887 1927:1 2095:1 #
0.17080557310012603466908842619887 2095:1 4173:1 #
0.08389101179798510998786298387131 2095:1 3200:1 #
0.17080557310012603466908842619887 2095:1 3059:1 #
-0.048785122503590246101357053021275 430:1 510:1 572:1 837:1 871:1 1621:1 1686:1 1793:1 2461:1 2616:1 2930:1 3405:1 4760:1 #
-0.058653028441344880195007505108151 27:1 714:1 766:1 1124:1 1146:1 1653:1 2238:1 2255:1 2360:1 2488:1 2631:1 3036:1 3165:1 3262:1 4168:1 4807:1 #
-0.17080557310012603466908842619887 510:1 2461:1 4109:1 4161:1 4584:1 #
-0.17080557310012603466908842619887 308:1 996:1 1618:1 2461:1 3967:1 4308:1 #
0.068820401303452419239370385639631 34:1 1274:1 1412:1 2015:1 2488:1 3738:1 #
0.17080557310012603466908842619887 996:1 1222:1 2488:1 2530:1 2619:1 4031:1 4293:1 4382:1 #
-0.17080557310012603466908842619887 2488:1 3337:1 3794:1 #
-0.17080557310012603466908842619887 510:1 854:1 2488:1 #
-0.17080557310012603466908842619887 1238:1 2488:1 #
-0.17080557310012603466908842619887 854:1 2488:1 #
-0.17080557310012603466908842619887 2138:1 2488:1 #
0.17080557310012603466908842619887 26:1 996:1 2433:1 2488:1 3695:1 #
0.11710831554025169509714032756165 1012:1 1124:1 1653:1 2488:1 3312:1 #
0.17080557310012603466908842619887 996:1 1796:1 2433:1 4308:1 #
-0.17080557310012603466908842619887 2436:1 2488:1 3642:1 #
0.13796320475842471786620535567636 26:1 404:1 1621:1 2144:1 2488:1 2989:1 3441:1 3977:1 4119:1 4758:1 #
0.17080557310012603466908842619887 2488:1 2534:1 4161:1 #
0.040254112731910422773307089983064 572:1 1763:1 1951:1 2488:1 4286:1 4317:1 4596:1 4724:1 4769:1 #
0.17080557310012603466908842619887 308:1 996:1 3035:1 #
0.09328357302973956655112175440081 378:1 2095:1 2560:1 4339:1 #
-0.016762977886056077553300625027077 996:1 4246:1 4286:1 #
0.0076631690604372281958034385240808 1045:1 2488:1 3533:1 3638:1 4109:1 #
0.17080557310012603466908842619887 595:1 1689:1 2461:1 2488:1 #
0.16475423227156205108201447728788 791:1 837:1 988:1 1550:1 2118:1 2488:1 2682:1 4091:1 4109:1 4873:1 #
0.079327956653071393655629606200819 2488:1 2682:1 3324:1 4403:1 4875:1 #
-0.17080557310012603466908842619887 2118:1 2433:1 2488:1 3231:1 #
-0.17080557310012603466908842619887 543:1 2118:1 2433:1 2488:1 #
-0.17080557310012603466908842619887 2118:1 2433:1 2488:1 3648:1 #
-0.17080557310012603466908842619887 1066:1 2118:1 2433:1 2488:1 #
-0.17080557310012603466908842619887 2118:1 2433:1 2488:1 4403:1 #
0.17080557310012603466908842619887 510:1 736:1 4308:1 4760:1 #
-0.046926710308050276210245499441953 1227:1 1525:1 1621:1 2095:1 2605:1 2619:1 2775:1 4308:1 #
-0.14938559812590027076062426658609 510:1 996:1 2619:1 2843:1 4246:1 4286:1 4308:1 4383:1 #
-0.17080557310012603466908842619887 60:1 308:1 996:1 1843:1 4213:1 4339:1 #
-0.17080557310012603466908842619887 2640:1 3309:1 4308:1 #
-0.032920344018885258630113810340845 1621:1 2095:1 2605:1 2652:1 2682:1 2737:1 4185:1 4200:1 4452:1 #
0.11214990844680913784081610629073 546:1 1124:1 1618:1 1653:1 2433:1 2488:1 3017:1 #
0.17080557310012603466908842619887 1959:1 2488:1 4426:1 #
0.17080557310012603466908842619887 2077:1 2488:1 #
-0.17080557310012603466908842619887 1618:1 2488:1 3051:1 4276:1 #
-0.17080557310012603466908842619887 1471:1 1638:1 2488:1 2535:1 3576:1 3578:1 4109:1 #
-0.0024888004434344339170503968006187 37:1 85:1 146:1 158:1 168:1 186:1 248:1 280:1 373:1 380:1 384:1 394:1 404:1 420:1 461:1 549:1 623:1 645:1 657:1 663:1 685:1 753:1 791:1 847:1 879:1 895:1 982:1 988:1 1209:1 1351:1 1425:1 1469:1 1508:1 1550:1 1595:1 1603:1 1604:1 1616:1 1619:1 1621:1 1637:1 1689:1 1724:1 1905:1 1994:1 2078:1 2192:1 2211:1 2350:1 2423:1 2454:1 2488:1 2528:1 2648:1 2672:1 2682:1 2872:1 2873:1 2930:1 2965:1 3105:1 3170:1 3223:1 3239:1 3355:1 3409:1 3422:1 3441:1 3561:1 3575:1 3774:1 3798:1 3843:1 3860:1 3866:1 3892:1 3901:1 3967:1 4011:1 4084:1 4087:1 4092:1 4144:1 4239:1 4252:1 4407:1 4519:1 4539:1 4600:1 4665:1 4686:1 4718:1 4745:1 4760:1 4776:1 4791:1 #
-0.17080557310012603466908842619887 2488:1 3578:1 4109:1 4587:1 #
-0.17080557310012603466908842619887 2488:1 2553:1 3578:1 4109:1 #
0.17080557310012603466908842619887 982:1 996:1 2433:1 #
0.17080557310012603466908842619887 996:1 2365:1 2433:1 #
0.17080557310012603466908842619887 996:1 2433:1 2493:1 #
-0.17080557310012603466908842619887 902:1 996:1 1821:1 3091:1 3518:1 4854:1 #
-0.13216338818943718091958317017998 996:1 1796:1 2024:1 2457:1 2682:1 2704:1 4307:1 #
-0.17080557310012603466908842619887 180:1 996:1 2682:1 4135:1 4286:1 #
-0.17080557310012603466908842619887 308:1 996:1 3303:1 #
-0.17080557310012603466908842619887 922:1 2892:1 4293:1 #
0.17080557310012603466908842619887 35:1 191:1 1306:1 1621:1 2488:1 3098:1 4109:1 4127:1 #
-0.17080557310012603466908842619887 982:1 1507:1 1621:1 1637:1 2488:1 2560:1 4290:1 #
0.060195034482217191218467178259743 1209:1 1674:1 2433:1 2640:1 #
-0.17080557310012603466908842619887 182:1 766:1 2488:1 3165:1 4127:1 #
-0.17080557310012603466908842619887 1621:1 2488:1 2841:1 #
-0.16360875440358832455522986037977 26:1 247:1 510:1 572:1 606:1 655:1 958:1 1371:1 1417:1 1748:1 2682:1 2989:1 4141:1 4567:1 #
-0.17080557310012603466908842619887 929:1 982:1 1621:1 1905:1 2535:1 2640:1 #
-0.062075111735688179304126776969497 550:1 1725:1 2095:1 2338:1 #
-0.17080557310012603466908842619887 142:1 1322:1 2488:1 #
-0.17080557310012603466908842619887 122:1 551:1 2488:1 #
0.17080557310012603466908842619887 1595:1 2488:1 3231:1 4286:1 #
0.17080557310012603466908842619887 1618:1 2488:1 2891:1 4308:1 #
0.17080557310012603466908842619887 2488:1 2891:1 3396:1 #
0.13394135206257287706854697262315 1595:1 2262:1 2488:1 2775:1 3138:1 3500:1 #
-0.17080557310012603466908842619887 2488:1 4308:1 4829:1 #
-0.17080557310012603466908842619887 33:1 2488:1 3396:1 #
0.17080557310012603466908842619887 1621:1 2153:1 2422:1 2488:1 2989:1 3174:1 4087:1 4453:1 4509:1 #
-0.17080557310012603466908842619887 1621:1 2095:1 2433:1 4293:1 #
0.17080557310012603466908842619887 2488:1 3200:1 #
-0.17080557310012603466908842619887 1621:1 2095:1 2907:1 4181:1 4293:1 #
0.16226872778296988486523844130716 2488:1 3252:1 4427:1 #
0.17080557310012603466908842619887 930:1 2488:1 2661:1 #
0.17080557310012603466908842619887 1254:1 2488:1 #
