SVM-light Version V6.01
0 # kernel type
3 # kernel parameter -d 
1 # kernel parameter -g 
1 # kernel parameter -s 
1 # kernel parameter -r 
empty# kernel parameter -u 
4601 # highest feature index 
5677 # number of training documents 
1539 # number of support vectors plus 1 
0.25685913 # threshold b, each following line is a SV (starting with alpha*y)
0.037191418380291212109067799929107 352:1 356:1 1123:1 2795:1 3121:1 3909:1 4465:1 #
-0.13811183343235725051734164026129 1204:1 3007:1 4225:1 #
-0.13811183343235725051734164026129 879:1 1075:1 1134:1 1204:1 3121:1 3352:1 3578:1 4225:1 4325:1 #
0.13811183343235725051734164026129 834:1 1174:1 2279:1 2482:1 3121:1 3728:1 #
-0.13811183343235725051734164026129 1204:1 1990:1 3121:1 4457:1 #
0.11616363175305613464338705398404 1204:1 3007:1 4122:1 4225:1 #
-0.11455487947806675119721830924391 515:1 1204:1 1234:1 3244:1 #
0.13811183343235725051734164026129 534:1 1239:1 2755:1 3121:1 3861:1 #
0.13811183343235725051734164026129 1511:1 2567:1 2653:1 2778:1 3121:1 3339:1 3643:1 #
-0.019807593337337503491824008960975 1204:1 2766:1 3569:1 4225:1 4325:1 #
-0.13811183343235725051734164026129 925:1 1511:1 1597:1 2111:1 3081:1 3121:1 4259:1 #
-0.13811183343235725051734164026129 162:1 3121:1 3376:1 3861:1 4259:1 #
-0.13811183343235725051734164026129 925:1 2528:1 3032:1 3121:1 3376:1 3861:1 4259:1 #
-0.13811183343235725051734164026129 143:1 925:1 3121:1 3376:1 3861:1 4259:1 #
-0.13811183343235725051734164026129 925:1 3121:1 3185:1 3376:1 3861:1 4259:1 #
0.074829607443992751658612405663007 44:1 62:1 65:1 84:1 95:1 106:1 109:1 140:1 266:1 270:1 347:1 374:1 383:1 402:1 414:1 499:1 542:1 594:1 632:1 749:1 754:1 925:1 933:1 1061:1 1101:1 1204:1 1294:1 1417:1 1448:1 1470:1 1507:1 1508:1 1509:1 1511:1 1532:1 1533:1 1541:1 1546:1 1568:1 1580:1 1613:1 1620:1 1631:1 1670:1 1718:1 1756:1 1990:1 2096:1 2097:1 2126:1 2167:1 2177:1 2188:1 2597:1 2606:1 2755:1 2800:1 2959:1 2985:1 3039:1 3121:1 3161:1 3164:1 3364:1 3376:1 3523:1 3558:1 3728:1 3832:1 3855:1 3861:1 4047:1 4082:1 4090:1 4122:1 4144:1 4182:1 4257:1 4334:1 4370:1 4431:1 4486:1 #
0.11713688996697607658248330153583 33:1 347:1 581:1 806:1 885:1 1101:1 1204:1 1294:1 1332:1 1394:1 1443:1 1448:1 1509:1 1511:1 1636:1 1670:1 1990:1 2025:1 2218:1 2322:1 2415:1 2477:1 2479:1 2482:1 2606:1 2755:1 2763:1 2812:1 2825:1 3121:1 3167:1 3189:1 3552:1 3578:1 3671:1 3817:1 3842:1 3960:1 4428:1 #
-0.13811183343235725051734164026129 1206:1 1511:1 3121:1 3797:1 #
0.13811183343235725051734164026129 925:1 1204:1 3578:1 4090:1 4225:1 #
-0.09305205216363478248897678213325 517:1 534:1 2648:1 3121:1 #
-0.0097734468159446016843894255998748 31:1 33:1 34:1 37:1 39:1 42:1 44:1 48:1 110:1 143:1 217:1 224:1 234:1 244:1 245:1 292:1 309:1 333:1 341:1 347:1 365:1 371:1 402:1 414:1 451:1 473:1 490:1 499:1 508:1 540:1 581:1 668:1 743:1 754:1 773:1 788:1 836:1 886:1 897:1 925:1 933:1 950:1 960:1 977:1 983:1 988:1 1003:1 1076:1 1115:1 1134:1 1204:1 1207:1 1246:1 1322:1 1414:1 1417:1 1448:1 1508:1 1511:1 1541:1 1551:1 1568:1 1580:1 1609:1 1614:1 1670:1 1678:1 1697:1 1793:1 1821:1 1923:1 2020:1 2096:1 2168:1 2177:1 2218:1 2223:1 2261:1 2289:1 2290:1 2331:1 2349:1 2361:1 2366:1 2369:1 2371:1 2374:1 2411:1 2422:1 2434:1 2489:1 2516:1 2527:1 2543:1 2587:1 2653:1 2676:1 2688:1 2709:1 2719:1 2723:1 2755:1 2778:1 2812:1 2907:1 2943:1 2954:1 2986:1 3009:1 3011:1 3027:1 3032:1 3096:1 3121:1 3122:1 3138:1 3160:1 3169:1 3225:1 3242:1 3328:1 3352:1 3361:1 3364:1 3376:1 3425:1 3429:1 3431:1 3473:1 3518:1 3525:1 3550:1 3563:1 3578:1 3615:1 3637:1 3685:1 3725:1 3752:1 3776:1 3797:1 3817:1 3832:1 3861:1 3967:1 3970:1 3974:1 4032:1 4041:1 4048:1 4049:1 4090:1 4097:1 4102:1 4108:1 4182:1 4225:1 4229:1 4262:1 4325:1 4356:1 4370:1 4414:1 4428:1 4431:1 4436:1 4439:1 #
-0.13811183343235725051734164026129 3121:1 3782:1 4205:1 4229:1 #
-0.13811183343235725051734164026129 691:1 1135:1 1718:1 2279:1 2966:1 3121:1 3871:1 4057:1 #
-0.12551396932171848819237425232131 66:1 476:1 1204:1 1509:1 1631:1 1775:1 1799:1 2567:1 3007:1 3550:1 3699:1 4106:1 4225:1 4351:1 4400:1 4531:1 #
-0.13811183343235725051734164026129 540:1 1744:1 1818:1 2131:1 2543:1 3121:1 3685:1 3871:1 4362:1 #
0.13811183343235725051734164026129 839:1 1324:1 1446:1 1511:1 2062:1 2253:1 2352:1 2482:1 3052:1 3121:1 3226:1 4041:1 4259:1 4405:1 4584:1 #
0.13811183343235725051734164026129 65:1 508:1 925:1 1568:1 1603:1 2843:1 2912:1 3121:1 3962:1 #
0.13811183343235725051734164026129 71:1 143:1 162:1 2025:1 2482:1 3121:1 3376:1 3728:1 3842:1 4439:1 #
0.13811183343235725051734164026129 1597:1 3081:1 3121:1 3945:1 4259:1 #
0.13811183343235725051734164026129 167:1 375:1 2482:1 2648:1 3121:1 3376:1 3728:1 3861:1 #
-0.13811183343235725051734164026129 1635:1 1803:1 2029:1 2325:1 2482:1 2995:1 3121:1 3339:1 3651:1 3974:1 4090:1 4229:1 #
-0.050621763531378455303055829972436 148:1 863:1 1063:1 1204:1 1394:1 1951:1 1990:1 2025:1 2430:1 2477:1 2479:1 2482:1 2653:1 2778:1 3063:1 3121:1 3364:1 3404:1 3651:1 3728:1 3842:1 4428:1 4457:1 #
-0.13811183343235725051734164026129 1990:1 2168:1 3121:1 3319:1 #
-0.12628100440681858107616619690816 37:1 120:1 215:1 245:1 281:1 435:1 515:1 549:1 581:1 728:1 925:1 937:1 1000:1 1174:1 1204:1 1274:1 1448:1 1486:1 1546:1 1605:1 1631:1 2223:1 2325:1 2352:1 2462:1 2477:1 2479:1 2482:1 2488:1 2843:1 2943:1 2982:1 3056:1 3121:1 3150:1 3160:1 3185:1 3355:1 3405:1 3578:1 4047:1 4129:1 4144:1 4148:1 4239:1 4266:1 4457:1 4505:1 #
-0.13811183343235725051734164026129 560:1 1511:1 2238:1 2253:1 2325:1 2479:1 2482:1 2543:1 3121:1 3287:1 3321:1 4090:1 #
-0.13811183343235725051734164026129 706:1 869:1 1339:1 1386:1 2477:1 2479:1 3121:1 3216:1 3525:1 4041:1 #
0.13811183343235725051734164026129 33:1 1204:1 1470:1 1511:1 1990:1 2279:1 2410:1 3089:1 4057:1 4225:1 #
0.13811183343235725051734164026129 31:1 33:1 34:1 44:1 172:1 761:1 1204:1 1979:1 2089:1 3007:1 3242:1 3525:1 3861:1 4090:1 4225:1 #
0.13811183343235725051734164026129 65:1 351:1 528:1 1204:1 1631:1 1990:1 2567:1 2709:1 2801:1 3861:1 4225:1 #
0.082395887491952313208543046130217 51:1 66:1 97:1 115:1 156:1 217:1 265:1 281:1 347:1 373:1 414:1 427:1 475:1 499:1 600:1 605:1 608:1 648:1 663:1 732:1 822:1 879:1 885:1 886:1 925:1 933:1 1003:1 1105:1 1212:1 1227:1 1414:1 1444:1 1508:1 1511:1 1568:1 1576:1 1580:1 1607:1 1631:1 1635:1 1740:1 1775:1 1793:1 1845:1 1906:1 1930:1 1963:1 1990:1 2168:1 2177:1 2203:1 2253:1 2261:1 2289:1 2303:1 2543:1 2567:1 2584:1 2587:1 2624:1 2648:1 2665:1 2708:1 2755:1 2778:1 2786:1 2901:1 3007:1 3086:1 3092:1 3117:1 3121:1 3174:1 3216:1 3376:1 3412:1 3433:1 3510:1 3525:1 3550:1 3578:1 3587:1 3618:1 3653:1 3817:1 3820:1 3836:1 3861:1 3902:1 3989:1 3995:1 4024:1 4122:1 4148:1 4171:1 4172:1 4182:1 4217:1 4432:1 4473:1 4579:1 #
-0.13811183343235725051734164026129 33:1 65:1 1204:1 1635:1 2543:1 3164:1 3637:1 4057:1 4170:1 4225:1 #
-0.13811183343235725051734164026129 2326:1 2982:1 3121:1 3861:1 #
-0.13811183343235725051734164026129 332:1 418:1 1635:1 1990:1 2477:1 2479:1 2482:1 3121:1 3185:1 4233:1 #
-0.13811183343235725051734164026129 33:1 65:1 1204:1 2331:1 3861:1 4225:1 #
0.13811183343235725051734164026129 3121:1 3578:1 3732:1 #
0.13811183343235725051734164026129 97:1 499:1 504:1 587:1 1157:1 1775:1 1869:1 2482:1 3121:1 3420:1 3651:1 3728:1 4048:1 4409:1 4567:1 #
0.063160457544814890828988040993863 38:1 217:1 241:1 245:1 252:1 400:1 614:1 707:1 776:1 1480:1 1511:1 1561:1 1584:1 1650:1 1741:1 1793:1 2017:1 2325:1 2454:1 2477:1 2479:1 2482:1 2488:1 2536:1 2569:1 2824:1 2990:1 3057:1 3096:1 3121:1 3218:1 3578:1 3680:1 3786:1 4001:1 4165:1 4322:1 4564:1 4572:1 #
0.030288546417650212549954602536673 61:1 245:1 270:1 365:1 427:1 640:1 671:1 740:1 749:1 925:1 960:1 1101:1 1354:1 1508:1 1511:1 1607:1 1652:1 1884:1 2200:1 2218:1 2279:1 2325:1 2477:1 2479:1 2482:1 2485:1 2486:1 2515:1 2516:1 2531:1 2533:1 2535:1 2543:1 2587:1 2755:1 2901:1 2990:1 3096:1 3121:1 3287:1 3376:1 3488:1 3777:1 3933:1 3937:1 3995:1 4053:1 4090:1 4204:1 4219:1 4568:1 #
0.13811183343235725051734164026129 1511:1 1775:1 2238:1 2325:1 2352:1 2482:1 3121:1 4090:1 #
0.13811183343235725051734164026129 217:1 471:1 499:1 1508:1 1775:1 2143:1 2325:1 2482:1 3121:1 3287:1 #
-0.13811183343235725051734164026129 1204:1 1546:1 3198:1 3219:1 #
-0.13811183343235725051734164026129 414:1 1076:1 2279:1 3121:1 3578:1 #
0.13811183343235725051734164026129 1204:1 3728:1 4017:1 4041:1 #
-0.11819312742085744116771195422189 244:1 620:1 925:1 1020:1 1113:1 1365:1 1438:1 1580:1 1775:1 1990:1 2243:1 2482:1 2577:1 2750:1 2796:1 2977:1 3121:1 3133:1 3339:1 3404:1 3420:1 3560:1 3578:1 3705:1 3962:1 3995:1 4090:1 4103:1 4567:1 #
-0.13811183343235725051734164026129 499:1 694:1 1631:1 1906:1 2279:1 2325:1 2352:1 2467:1 2567:1 3121:1 3407:1 3653:1 4048:1 #
0.014390806295275915607789762873381 31:1 37:1 39:1 42:1 44:1 65:1 289:1 572:1 611:1 691:1 822:1 895:1 897:1 1101:1 1347:1 1500:1 1509:1 1546:1 1729:1 1838:1 1864:1 1949:1 1952:1 2180:1 2413:1 2421:1 2550:1 2597:1 2688:1 2847:1 2851:1 2973:1 3142:1 3257:1 3443:1 3515:1 3548:1 3575:1 3728:1 3822:1 3919:1 4047:1 4063:1 4183:1 4229:1 4325:1 4454:1 4462:1 4474:1 #
0.049324921761770071371167034612881 31:1 33:1 34:1 35:1 44:1 65:1 217:1 390:1 508:1 579:1 711:1 742:1 761:1 1118:1 1414:1 1455:1 1508:1 1511:1 1635:1 1941:1 2364:1 2366:1 2413:1 2543:1 2709:1 2778:1 2873:1 2995:1 3052:1 3096:1 3121:1 3402:1 3629:1 3637:1 3861:1 3897:1 4170:1 4229:1 4400:1 4472:1 #
0.13811183343235725051734164026129 1204:1 2482:1 3121:1 3319:1 #
-0.13811183343235725051734164026129 517:1 1812:1 3121:1 4259:1 #
0.13811183343235725051734164026129 476:1 1204:1 2567:1 4225:1 4229:1 4531:1 #
-0.13811183343235725051734164026129 865:1 1204:1 2663:1 3742:1 3973:1 4057:1 4225:1 #
-0.13811183343235725051734164026129 217:1 3121:1 3667:1 #
-0.13811183343235725051734164026129 2352:1 2698:1 3121:1 3550:1 3861:1 #
-0.12722770231452015798900845311437 31:1 39:1 42:1 44:1 65:1 167:1 208:1 539:1 577:1 852:1 937:1 1023:1 1371:1 1511:1 1554:1 2342:1 2354:1 2397:1 2413:1 2482:1 2648:1 2795:1 3121:1 3196:1 3378:1 3580:1 3637:1 4090:1 4319:1 4371:1 #
0.056794622523618186471505708823315 31:1 39:1 45:1 217:1 374:1 381:1 463:1 499:1 710:1 1168:1 1294:1 1511:1 1651:1 1930:1 2150:1 2325:1 2410:1 2482:1 2513:1 2795:1 2892:1 3034:1 3121:1 3411:1 3578:1 3942:1 3951:1 4075:1 #
0.13811183343235725051734164026129 499:1 810:1 1509:1 1511:1 1614:1 1923:1 2482:1 2543:1 2587:1 2719:1 3121:1 3287:1 3407:1 3544:1 3705:1 3871:1 4090:1 #
0.13811183343235725051734164026129 757:1 1063:1 1204:1 1522:1 1658:1 2331:1 2482:1 2543:1 3096:1 3121:1 3653:1 4012:1 4439:1 4567:1 #
0.13811183343235725051734164026129 65:1 287:1 2397:1 2543:1 3121:1 3637:1 4057:1 4131:1 #
0.086850019572768680231611426734162 37:1 39:1 44:1 65:1 66:1 143:1 371:1 446:1 925:1 1048:1 1204:1 1239:1 1294:1 1474:1 1494:1 1568:1 1884:1 1990:1 2017:1 2236:1 2251:1 2261:1 2325:1 2352:1 2394:1 2482:1 2567:1 3121:1 3287:1 3348:1 3376:1 3488:1 3578:1 3637:1 3938:1 3974:1 4030:1 4041:1 4048:1 #
0.13811183343235725051734164026129 162:1 270:1 499:1 1568:1 2482:1 2543:1 2696:1 2935:1 3121:1 3185:1 3311:1 3871:1 4501:1 #
0.11003987719038156589679289254491 162:1 1508:1 1660:1 2709:1 2928:1 3121:1 #
-0.13811183343235725051734164026129 251:1 620:1 749:1 925:1 1204:1 1294:1 1546:1 1639:1 1949:1 1990:1 2325:1 2482:1 2567:1 3121:1 3355:1 3807:1 4018:1 4021:1 #
-0.13811183343235725051734164026129 246:1 690:1 730:1 1204:1 1375:1 1484:1 1522:1 1546:1 2244:1 2325:1 2482:1 2778:1 3121:1 3142:1 4457:1 #
-0.13811183343235725051734164026129 148:1 317:1 354:1 499:1 767:1 2543:1 2768:1 3089:1 3121:1 3525:1 #
-0.13457464559991685892903490184835 414:1 534:1 1199:1 2482:1 2959:1 3121:1 3728:1 #
0.034757269471094878743322453829023 31:1 33:1 34:1 65:1 67:1 79:1 85:1 245:1 336:1 375:1 463:1 499:1 515:1 591:1 618:1 631:1 645:1 925:1 939:1 953:1 1064:1 1141:1 1297:1 1441:1 1508:1 1521:1 1775:1 1780:1 1866:1 1874:1 1945:1 2029:1 2092:1 2253:1 2288:1 2344:1 2352:1 2422:1 2427:1 2443:1 2579:1 2597:1 2614:1 2755:1 2812:1 2824:1 3121:1 3185:1 3287:1 3377:1 3404:1 3407:1 3500:1 3531:1 3539:1 3578:1 3637:1 3651:1 3661:1 3666:1 3714:1 3842:1 3872:1 3970:1 3999:1 4090:1 4122:1 4144:1 4175:1 4286:1 4294:1 4431:1 #
0.13811183343235725051734164026129 2325:1 2467:1 3121:1 #
-0.071451492797471205520309922576416 1348:1 2421:1 3068:1 3121:1 3407:1 3856:1 #
0.13811183343235725051734164026129 31:1 33:1 1104:1 1239:1 1511:1 1632:1 1886:1 2186:1 2205:1 2477:1 2479:1 2482:1 2606:1 2795:1 3121:1 3287:1 3330:1 3651:1 3817:1 4567:1 #
0.13811183343235725051734164026129 3121:1 3153:1 3185:1 #
-0.13811183343235725051734164026129 3121:1 3298:1 3934:1 #
-0.12692229661471549073681330810359 33:1 199:1 209:1 217:1 622:1 1508:1 1521:1 1979:1 2352:1 2477:1 2479:1 2482:1 2579:1 2755:1 2951:1 3121:1 3618:1 3736:1 3871:1 4383:1 #
-0.13811183343235725051734164026129 252:1 733:1 1204:1 1273:1 2482:1 3121:1 4057:1 #
-0.13811183343235725051734164026129 517:1 2785:1 3121:1 4259:1 #
-0.02708911140964958760846137408862 31:1 33:1 37:1 112:1 171:1 296:1 499:1 508:1 575:1 660:1 706:1 756:1 1048:1 1204:1 1317:1 1328:1 1332:1 1394:1 1509:1 1568:1 1630:1 1635:1 1802:1 2167:1 2457:1 2482:1 2606:1 2696:1 2709:1 2941:1 3121:1 3420:1 3578:1 3861:1 4057:1 4217:1 4341:1 #
0.13811183343235725051734164026129 1204:1 2412:1 4041:1 4048:1 4225:1 #
0.13811183343235725051734164026129 31:1 782:1 1963:1 2261:1 2488:1 3121:1 3226:1 3563:1 4048:1 4198:1 #
0.13811183343235725051734164026129 66:1 3068:1 3121:1 3549:1 3970:1 4405:1 #
0.13811183343235725051734164026129 1493:1 3121:1 3352:1 #
0.13811183343235725051734164026129 863:1 1204:1 1635:1 2331:1 2770:1 3653:1 4048:1 4090:1 4567:1 #
-0.13811183343235725051734164026129 333:1 1204:1 1239:1 2409:1 3121:1 3376:1 4567:1 #
-0.13811183343235725051734164026129 1239:1 3121:1 3376:1 3861:1 4567:1 #
-0.0097180017763826165994034411710345 12:1 33:1 34:1 1414:1 1597:1 1941:1 2111:1 2200:1 2325:1 2785:1 2795:1 3081:1 3121:1 3651:1 3970:1 4090:1 #
-0.13811183343235725051734164026129 3728:1 3938:1 4567:1 #
-0.13811183343235725051734164026129 646:1 1204:1 1414:1 1494:1 1519:1 1874:1 2397:1 2874:1 3092:1 3216:1 3637:1 3861:1 #
0.13811183343235725051734164026129 33:1 143:1 217:1 345:1 754:1 1195:1 1204:1 1930:1 2253:1 2406:1 2479:1 2482:1 2755:1 2977:1 3121:1 3436:1 3501:1 3736:1 4225:1 4542:1 #
0.041949008706546504765544369774943 217:1 466:1 560:1 904:1 1508:1 1631:1 1990:1 2129:1 2305:1 2352:1 2482:1 2755:1 2897:1 3121:1 3185:1 3588:1 3728:1 3897:1 4048:1 4090:1 4259:1 4439:1 4504:1 #
0.13811183343235725051734164026129 23:1 33:1 44:1 172:1 364:1 560:1 657:1 1076:1 1204:1 1295:1 1990:1 2325:1 2477:1 2479:1 2482:1 2840:1 3121:1 3540:1 3992:1 4225:1 4463:1 #
-0.13811183343235725051734164026129 143:1 690:1 925:1 1522:1 2325:1 3121:1 4134:1 #
0.13811183343235725051734164026129 33:1 44:1 50:1 143:1 370:1 499:1 1509:1 2177:1 2352:1 2482:1 2709:1 2796:1 2943:1 3121:1 3651:1 3736:1 3861:1 3963:1 4559:1 #
-0.13372523116637843876297608858295 44:1 143:1 414:1 640:1 758:1 810:1 886:1 925:1 977:1 1210:1 1266:1 1614:1 1636:1 1640:1 1780:1 1990:1 2434:1 2709:1 3057:1 3121:1 3637:1 4047:1 4428:1 4431:1 #
-0.084116770769444862421160280518961 217:1 364:1 390:1 560:1 690:1 706:1 729:1 885:1 908:1 925:1 935:1 1448:1 1455:1 1470:1 1508:1 1550:1 2219:1 2253:1 2327:1 2352:1 2473:1 3015:1 3019:1 3022:1 3052:1 3096:1 3121:1 3122:1 3355:1 3402:1 3407:1 3456:1 3538:1 3595:1 3810:1 3897:1 4022:1 4041:1 4090:1 4505:1 #
-0.13811183343235725051734164026129 31:1 143:1 560:1 627:1 1522:1 1632:1 2423:1 2482:1 3121:1 3185:1 3378:1 3926:1 #
-0.06797179431086262935135522411656 499:1 1528:1 1603:1 2261:1 2325:1 2482:1 3121:1 3578:1 3651:1 #
0.13811183343235725051734164026129 2025:1 2403:1 2735:1 3376:1 3728:1 4439:1 #
0.13811183343235725051734164026129 51:1 3376:1 3728:1 3861:1 4386:1 #
-0.13811183343235725051734164026129 333:1 499:1 1511:1 3121:1 4237:1 #
0.13811183343235725051734164026129 1522:1 1546:1 2795:1 2909:1 3728:1 4567:1 #
0.098865991139449826974328061623964 31:1 33:1 34:1 236:1 310:1 476:1 1204:1 1546:1 2795:1 3263:1 3312:1 3830:1 4084:1 4531:1 4567:1 #
-0.043422517539618940562995419440995 1033:1 1507:1 2755:1 3376:1 3573:1 3728:1 3797:1 3861:1 4474:1 4537:1 #
0.13811183343235725051734164026129 2709:1 3121:1 3185:1 #
0.11848800137710811808400279687703 333:1 3121:1 3339:1 #
-0.13811183343235725051734164026129 1546:1 1568:1 2536:1 2795:1 3325:1 3728:1 4067:1 #
-0.0040294335152888530529602384433474 144:1 172:1 1204:1 4225:1 #
0.13811183343235725051734164026129 19:1 162:1 518:1 925:1 1511:1 1568:1 2482:1 3096:1 3121:1 3642:1 4148:1 4371:1 #
0.13811183343235725051734164026129 1151:1 1225:1 1394:1 1632:1 2482:1 3121:1 3185:1 3352:1 3578:1 3705:1 #
0.13811183343235725051734164026129 953:1 1509:1 1511:1 1538:1 2352:1 2421:1 2482:1 3121:1 3407:1 3456:1 3539:1 3802:1 #
0.13811183343235725051734164026129 130:1 749:1 1035:1 1394:1 1511:1 1830:1 2325:1 2482:1 3121:1 3429:1 4090:1 #
0.13811183343235725051734164026129 66:1 628:1 1511:1 2152:1 2287:1 2482:1 2484:1 3121:1 3578:1 #
-0.13811183343235725051734164026129 333:1 347:1 1443:1 1509:1 1511:1 1670:1 2177:1 2352:1 2356:1 2477:1 2482:1 2597:1 3121:1 3411:1 3578:1 3705:1 3777:1 4119:1 #
-0.13811183343235725051734164026129 333:1 499:1 939:1 1511:1 2403:1 2482:1 2672:1 3121:1 3288:1 3578:1 3802:1 3817:1 3842:1 4372:1 #
-0.13811183343235725051734164026129 749:1 1493:1 1568:1 2116:1 2186:1 2467:1 2482:1 2567:1 2648:1 2778:1 2943:1 3121:1 3578:1 3651:1 #
-0.13811183343235725051734164026129 31:1 44:1 162:1 397:1 499:1 1328:1 1394:1 2203:1 2482:1 2943:1 3121:1 3578:1 3705:1 3861:1 3871:1 3926:1 3962:1 4504:1 4540:1 4567:1 #
-0.13811183343235725051734164026129 217:1 347:1 371:1 2279:1 2421:1 2482:1 3014:1 3121:1 3578:1 #
0.13811183343235725051734164026129 33:1 65:1 275:1 1546:1 1614:1 2413:1 2421:1 2795:1 3728:1 4047:1 #
0.13811183343235725051734164026129 1204:1 2122:1 3861:1 4567:1 #
0.13811183343235725051734164026129 518:1 1204:1 1546:1 3121:1 #
0.027980621169025814837238996801716 33:1 1204:1 1546:1 2130:1 2795:1 4057:1 #
0.13811183343235725051734164026129 1204:1 1239:1 4567:1 #
-0.13811183343235725051734164026129 66:1 706:1 1063:1 1546:1 2795:1 3728:1 3938:1 #
-0.13811183343235725051734164026129 1151:1 3728:1 4057:1 4439:1 #
-0.13811183343235725051734164026129 1151:1 1204:1 1546:1 2177:1 4057:1 #
-0.037963684597123834030263367367297 499:1 1394:1 1416:1 1511:1 2482:1 3121:1 3160:1 3732:1 3904:1 4428:1 #
-0.13811183343235725051734164026129 217:1 1151:1 3121:1 4057:1 #
-0.13811183343235725051734164026129 1821:1 2352:1 2467:1 3121:1 #
0.13811183343235725051734164026129 217:1 333:1 390:1 499:1 721:1 1317:1 1455:1 1511:1 1580:1 2482:1 2543:1 2606:1 2755:1 2778:1 2818:1 3121:1 3319:1 3355:1 3774:1 3871:1 3926:1 3967:1 4292:1 4505:1 #
-0.13811183343235725051734164026129 535:1 1204:1 3747:1 4229:1 #
0.096577512669692208713279057974432 143:1 333:1 364:1 499:1 1066:1 1448:1 1511:1 1568:1 1777:1 1899:1 2227:1 2289:1 2359:1 2541:1 2755:1 3121:1 3352:1 3578:1 3861:1 3938:1 4292:1 4428:1 4458:1 4522:1 4538:1 #
0.13811183343235725051734164026129 573:1 2279:1 2352:1 2482:1 2935:1 3121:1 4334:1 4409:1 #
-0.0088442237336667124669720152496666 217:1 402:1 463:1 499:1 544:1 1470:1 1510:1 1511:1 1666:1 1882:1 1916:1 2025:1 2218:1 2482:1 2543:1 2648:1 2755:1 2778:1 3121:1 3287:1 3352:1 3563:1 3578:1 3861:1 3999:1 4153:1 4213:1 4230:1 #
-0.13811183343235725051734164026129 1511:1 1929:1 2177:1 2477:1 2479:1 2709:1 2755:1 2925:1 3121:1 3705:1 3861:1 3995:1 4048:1 4122:1 #
-0.13811183343235725051734164026129 66:1 3728:1 3938:1 #
-0.094568761666239717356141625259625 116:1 347:1 499:1 1448:1 1509:1 1511:1 1696:1 1941:1 2755:1 2764:1 2795:1 3121:1 3531:1 3861:1 3970:1 3995:1 #
-0.00091763335889917898614831504033873 31:1 42:1 83:1 87:1 195:1 333:1 345:1 749:1 757:1 1414:1 1508:1 1511:1 1990:1 2168:1 2394:1 2463:1 2477:1 2479:1 2482:1 2914:1 3121:1 3221:1 3352:1 3373:1 3540:1 3563:1 3624:1 3665:1 3861:1 3899:1 3967:1 4090:1 4291:1 4456:1 4472:1 4567:1 #
-0.014197803773182875522462786932465 277:1 370:1 822:1 1204:1 1864:1 1867:1 2126:1 2209:1 2256:1 3243:1 4225:1 #
0.13811183343235725051734164026129 42:1 560:1 2409:1 3121:1 3376:1 4081:1 #
0.13811183343235725051734164026129 707:1 1493:1 1555:1 2837:1 3014:1 3121:1 3411:1 3856:1 #
0.10109088805404183031289022665078 31:1 266:1 863:1 1204:1 1677:1 #
0.13811183343235725051734164026129 566:1 1294:1 1509:1 2421:1 2597:1 3376:1 3728:1 4439:1 #
-0.13811183343235725051734164026129 1949:1 2053:1 2409:1 3121:1 3376:1 4259:1 #
-0.13811183343235725051734164026129 42:1 364:1 755:1 925:1 1204:1 1568:1 1775:1 2283:1 2482:1 2543:1 3081:1 3479:1 3968:1 4192:1 #
-0.13811183343235725051734164026129 517:1 1596:1 1896:1 3121:1 3420:1 3985:1 4259:1 4586:1 #
0.040574445826530379510810320198289 2025:1 3121:1 3666:1 3842:1 #
-0.13811183343235725051734164026129 1204:1 1225:1 1493:1 4370:1 #
0.13811183343235725051734164026129 499:1 1295:1 1511:1 2167:1 2325:1 2467:1 2477:1 2479:1 3121:1 3327:1 #
0.13279514977735676350967253256385 95:1 162:1 184:1 369:1 499:1 542:1 706:1 749:1 879:1 1199:1 1332:1 1509:1 1511:1 1519:1 1830:1 2025:1 2279:1 2410:1 2471:1 2529:1 2543:1 2778:1 2779:1 2792:1 2822:1 2874:1 2914:1 3121:1 3376:1 3402:1 3429:1 3531:1 3861:1 4035:1 4122:1 4149:1 #
0.13811183343235725051734164026129 499:1 925:1 1063:1 1414:1 1511:1 1693:1 2613:1 2653:1 2709:1 2755:1 3121:1 3185:1 3364:1 3736:1 3817:1 3861:1 4041:1 4339:1 #
0.13811183343235725051734164026129 44:1 534:1 656:1 885:1 925:1 1332:1 1511:1 1568:1 2186:1 2200:1 2253:1 2477:1 2479:1 2482:1 2795:1 3121:1 3185:1 3861:1 4090:1 #
-0.024981931205983479160614990632894 252:1 1582:1 1906:1 2263:1 3121:1 3725:1 3861:1 4041:1 #
-0.13811183343235725051734164026129 1204:1 3121:1 3550:1 3861:1 4457:1 4567:1 #
-0.13811183343235725051734164026129 65:1 217:1 499:1 1508:1 1511:1 2410:1 2606:1 3121:1 3861:1 #
-0.10975784489999997062259495805847 33:1 347:1 435:1 499:1 690:1 1063:1 1508:1 1522:1 3121:1 3185:1 3511:1 3578:1 3933:1 #
0.13811183343235725051734164026129 3121:1 4237:1 4259:1 #
0.048756390005286899536063316418222 143:1 217:1 397:1 1077:1 1204:1 1448:1 1541:1 2177:1 2283:1 2289:1 2482:1 2760:1 3009:1 3121:1 3452:1 3479:1 3578:1 #
0.13811183343235725051734164026129 31:1 217:1 2990:1 2991:1 3121:1 3563:1 4048:1 #
0.12950574632887473791598154093663 37:1 203:1 270:1 423:1 1199:1 1294:1 1906:1 2177:1 2352:1 2482:1 2755:1 3121:1 3578:1 3685:1 #
0.13811183343235725051734164026129 690:1 1204:1 1522:1 2126:1 2482:1 2995:1 3043:1 3312:1 3861:1 3974:1 4132:1 4144:1 4428:1 #
0.13811183343235725051734164026129 423:1 1204:1 1636:1 2577:1 3705:1 #
-0.13811183343235725051734164026129 1204:1 1296:1 3185:1 4041:1 #
-0.13811183343235725051734164026129 53:1 217:1 499:1 925:1 1141:1 1455:1 2287:1 2328:1 2352:1 2482:1 3062:1 3121:1 3666:1 4421:1 #
-0.13811183343235725051734164026129 423:1 656:1 863:1 1726:1 3121:1 #
-0.13811183343235725051734164026129 1204:1 2653:1 3634:1 4567:1 #
-0.13811183343235725051734164026129 2279:1 2289:1 2653:1 3121:1 3672:1 4041:1 4057:1 #
0.13811183343235725051734164026129 42:1 508:1 620:1 706:1 925:1 1990:1 2025:1 2256:1 2279:1 2331:1 2482:1 2795:1 3089:1 3121:1 3485:1 3626:1 4122:1 4311:1 4372:1 #
0.13811183343235725051734164026129 397:1 863:1 2838:1 3098:1 3121:1 3445:1 4229:1 #
0.13811183343235725051734164026129 31:1 33:1 34:1 44:1 499:1 640:1 706:1 1511:1 2089:1 2325:1 2352:1 2482:1 2488:1 2795:1 2976:1 3121:1 3287:1 3531:1 3629:1 4090:1 4229:1 #
0.13811183343235725051734164026129 260:1 384:1 387:1 882:1 925:1 1511:1 1892:1 2325:1 2482:1 2536:1 2543:1 2567:1 2648:1 2719:1 2959:1 3407:1 3420:1 3500:1 3651:1 3728:1 4001:1 4048:1 4567:1 #
-0.13811183343235725051734164026129 1990:1 2118:1 2325:1 3121:1 4018:1 #
0.13811183343235725051734164026129 921:1 2279:1 3121:1 3861:1 #
0.13811183343235725051734164026129 1031:1 1348:1 1508:1 1990:1 2008:1 2482:1 2901:1 2906:1 3081:1 3121:1 3422:1 3705:1 3856:1 4057:1 #
-0.13811183343235725051734164026129 2:1 187:1 2943:1 3121:1 3378:1 3737:1 #
0.13811183343235725051734164026129 333:1 1204:1 2257:1 3861:1 #
0.13811183343235725051734164026129 217:1 555:1 795:1 3032:1 3121:1 3624:1 3938:1 4233:1 4393:1 #
0.13811183343235725051734164026129 518:1 3121:1 4021:1 #
0.13811183343235725051734164026129 933:1 976:1 1861:1 2253:1 3121:1 3133:1 3938:1 3970:1 4428:1 #
0.13811183343235725051734164026129 1151:1 1511:1 3121:1 4147:1 #
0.13811183343235725051734164026129 1508:1 1529:1 2124:1 2243:1 2352:1 2477:1 2479:1 3121:1 3287:1 4057:1 #
-0.13811183343235725051734164026129 65:1 3121:1 3988:1 4287:1 #
-0.13811183343235725051734164026129 270:1 518:1 560:1 749:1 1511:1 1775:1 2070:1 2279:1 2325:1 3121:1 3311:1 4053:1 #
-0.13811183343235725051734164026129 12:1 217:1 839:1 933:1 1605:1 2543:1 3121:1 3242:1 3287:1 4041:1 #
-0.016825907924999317782921437469668 1294:1 1297:1 1455:1 2352:1 2421:1 3121:1 3407:1 3840:1 #
0.13811183343235725051734164026129 246:1 370:1 1204:1 1511:1 1546:1 1631:1 1990:1 2177:1 2200:1 2325:1 2482:1 2567:1 2614:1 3097:1 3121:1 3378:1 3445:1 3728:1 3897:1 3926:1 4027:1 4457:1 #
0.13811183343235725051734164026129 31:1 352:1 356:1 1141:1 1414:1 1941:1 2325:1 3081:1 3121:1 3160:1 3242:1 3373:1 3651:1 3861:1 4083:1 #
-0.13811183343235725051734164026129 2653:1 3121:1 3667:1 #
0.13811183343235725051734164026129 749:1 2325:1 3121:1 #
-0.13811183343235725051734164026129 65:1 499:1 1098:1 1295:1 1508:1 1607:1 2177:1 2421:1 2437:1 2482:1 2866:1 3121:1 3282:1 3319:1 4601:1 #
-0.059778466003390810790119047624103 476:1 656:1 1453:1 1475:1 1508:1 1509:1 1775:1 1996:1 2177:1 2352:1 2482:1 2516:1 3121:1 3160:1 3185:1 3564:1 3624:1 3897:1 3988:1 4144:1 #
-0.13811183343235725051734164026129 1204:1 1448:1 2430:1 4366:1 4468:1 #
-0.090460581241498055904415309669275 31:1 375:1 499:1 535:1 654:1 670:1 1124:1 1204:1 1910:1 2331:1 2450:1 2482:1 3007:1 4090:1 4225:1 4355:1 4504:1 #
0.1308479211133529163113564663945 33:1 364:1 566:1 1064:1 2648:1 3121:1 3555:1 3684:1 3705:1 #
0.13811183343235725051734164026129 217:1 933:1 1225:1 3121:1 3578:1 4041:1 4057:1 4199:1 #
0.13811183343235725051734164026129 2178:1 3121:1 3777:1 4053:1 4409:1 #
-0.13811183343235725051734164026129 333:1 1511:1 3121:1 3685:1 #
-0.07742616917517369801160498354875 12:1 51:1 175:1 749:1 1040:1 1064:1 1199:1 1414:1 1595:1 1945:1 2018:1 2279:1 2320:1 2430:1 2819:1 2901:1 3121:1 3416:1 3653:1 3861:1 4555:1 #
-0.13811183343235725051734164026129 1580:1 2325:1 2570:1 3121:1 3261:1 4048:1 4428:1 #
-0.031819966987485778786570733700501 33:1 34:1 358:1 428:1 464:1 508:1 522:1 667:1 803:1 1061:1 1100:1 1202:1 1281:1 1377:1 1414:1 1775:1 2301:1 2397:1 2413:1 3089:1 3121:1 3552:1 3637:1 3843:1 3861:1 4041:1 4090:1 4223:1 4311:1 4453:1 #
-0.036707630139348940145893607223115 1508:1 1514:1 3121:1 3134:1 #
0.13811183343235725051734164026129 822:1 1204:1 1347:1 1509:1 1511:1 2482:1 2966:1 3121:1 4225:1 4374:1 #
-0.13811183343235725051734164026129 3298:1 3728:1 4439:1 #
-0.13811183343235725051734164026129 1204:1 4225:1 #
0.13811183343235725051734164026129 47:1 143:1 270:1 885:1 1081:1 1204:1 1494:1 1509:1 1511:1 1568:1 1613:1 1951:1 2261:1 2366:1 2795:1 3007:1 3600:1 3871:1 3926:1 4122:1 4225:1 4472:1 #
-0.092377833665912664762309702837229 162:1 863:1 1151:1 1509:1 2409:1 2482:1 2543:1 2795:1 3063:1 3121:1 3185:1 3578:1 3871:1 3995:1 #
-0.13811183343235725051734164026129 162:1 1113:1 2042:1 2543:1 2755:1 3121:1 3185:1 3407:1 #
-0.13811183343235725051734164026129 984:1 1204:1 2218:1 2269:1 2543:1 2630:1 2719:1 2907:1 3081:1 3968:1 #
-0.038877648359959930679519146679013 423:1 1204:1 1941:1 1990:1 2482:1 2653:1 3081:1 3328:1 3728:1 #
-0.024704101917866944787549599027443 172:1 1204:1 1472:1 1674:1 4200:1 4225:1 #
-0.13811183343235725051734164026129 1328:1 3121:1 3352:1 #
0.057001561649522941577217238773301 97:1 156:1 217:1 265:1 345:1 347:1 535:1 646:1 1414:1 1448:1 1508:1 1511:1 1580:1 1625:1 1635:1 1775:1 1780:1 1794:1 1851:1 1944:1 1989:1 1990:1 2177:1 2218:1 2287:1 2331:1 2362:1 2653:1 2685:1 2688:1 2693:1 3121:1 3129:1 3176:1 3216:1 3352:1 3377:1 3578:1 3590:1 3628:1 3673:1 3861:1 4041:1 4048:1 4057:1 4081:1 4090:1 4122:1 4428:1 4537:1 4567:1 #
0.13811183343235725051734164026129 598:1 1546:1 2352:1 2754:1 2795:1 3121:1 3871:1 #
0.0094647628290653110227914623919787 89:1 252:1 317:1 2025:1 3089:1 3121:1 3842:1 4090:1 #
0.13811183343235725051734164026129 469:1 1775:1 2167:1 2352:1 3121:1 #
-0.13811183343235725051734164026129 2325:1 2673:1 3121:1 3624:1 3653:1 4041:1 #
-0.13811183343235725051734164026129 143:1 217:1 382:1 600:1 706:1 962:1 3121:1 3578:1 4199:1 4311:1 #
-0.13811183343235725051734164026129 252:1 336:1 1348:1 1544:1 1546:1 2755:1 3121:1 3122:1 3285:1 3376:1 3429:1 3856:1 4090:1 4122:1 #
-0.10907848546442204529238750865261 508:1 1448:1 1511:1 1568:1 2025:1 2279:1 2482:1 3121:1 3685:1 3842:1 #
-0.13811183343235725051734164026129 1348:1 3121:1 3587:1 4462:1 #
0.097543275454509040245376638722519 144:1 360:1 361:1 515:1 1204:1 1949:1 1984:1 2200:1 2252:1 2325:1 2466:1 2543:1 2807:1 3185:1 3261:1 3420:1 3471:1 3734:1 3736:1 3857:1 3995:1 4191:1 4428:1 #
0.13811183343235725051734164026129 33:1 1204:1 1632:1 2709:1 4225:1 #
0.13811183343235725051734164026129 1101:1 2352:1 3121:1 4057:1 #
-0.13811183343235725051734164026129 429:1 1931:1 2279:1 2352:1 2606:1 3121:1 #
-0.076062273121053791680168387756567 33:1 342:1 1204:1 2167:1 2256:1 2374:1 2543:1 3089:1 4225:1 4292:1 #
-0.13811183343235725051734164026129 217:1 969:1 3121:1 #
-0.053473212149512297508557878700231 749:1 846:1 1204:1 1511:1 1589:1 2482:1 3350:1 3732:1 4428:1 #
-0.13811183343235725051734164026129 65:1 1789:1 3121:1 3962:1 4505:1 #
-0.13811183343235725051734164026129 446:1 2959:1 3728:1 3801:1 4057:1 #
0.016839275457275634795273333566001 65:1 217:1 1225:1 1486:1 2421:1 2482:1 3121:1 3578:1 3610:1 3618:1 #
0.13811183343235725051734164026129 217:1 389:1 1069:1 1448:1 2279:1 3121:1 3563:1 3897:1 3938:1 #
0.13811183343235725051734164026129 217:1 414:1 1443:1 1446:1 2325:1 2482:1 3121:1 3578:1 3788:1 3811:1 #
0.13811183343235725051734164026129 1979:1 2359:1 3121:1 3578:1 3653:1 3705:1 4090:1 4229:1 4436:1 #
0.13811183343235725051734164026129 199:1 252:1 287:1 402:1 581:1 600:1 761:1 1406:1 1448:1 1478:1 1511:1 1830:1 2021:1 2203:1 2279:1 2305:1 2410:1 2482:1 2708:1 2812:1 3121:1 3287:1 3383:1 3394:1 3422:1 3578:1 3629:1 3856:1 3861:1 3954:1 4041:1 4067:1 4229:1 4332:1 #
-0.13811183343235725051734164026129 469:1 908:1 1225:1 2289:1 2482:1 2719:1 2778:1 3121:1 3352:1 3578:1 3651:1 3732:1 #
-0.13811183343235725051734164026129 1511:1 3121:1 3842:1 #
-0.13811183343235725051734164026129 31:1 499:1 626:1 1522:1 1636:1 2482:1 2795:1 2901:1 3114:1 3121:1 3153:1 3705:1 4095:1 #
-0.13811183343235725051734164026129 2025:1 2305:1 3298:1 3728:1 #
-0.13811183343235725051734164026129 217:1 1508:1 2812:1 2822:1 3121:1 3897:1 4183:1 #
0.13811183343235725051734164026129 51:1 413:1 471:1 553:1 722:1 770:1 846:1 872:1 1204:1 1307:1 1511:1 2376:1 3373:1 3817:1 4049:1 4225:1 #
0.13811183343235725051734164026129 722:1 770:1 1204:1 4225:1 4292:1 4551:1 #
0.13811183343235725051734164026129 333:1 722:1 1204:1 3861:1 4225:1 #
0.13811183343235725051734164026129 2430:1 2604:1 2653:1 3728:1 3861:1 4439:1 #
0.13811183343235725051734164026129 1204:1 4225:1 4551:1 #
-0.13811183343235725051734164026129 387:1 1204:1 1225:1 4567:1 #
-0.13811183343235725051734164026129 61:1 1204:1 2654:1 3074:1 3081:1 3203:1 3807:1 3861:1 #
0.13811183343235725051734164026129 1620:1 3121:1 4057:1 #
-0.019684123291722116499968819880451 1204:1 2081:1 2229:1 2331:1 3054:1 3861:1 4225:1 4304:1 #
-0.13811183343235725051734164026129 270:1 518:1 925:1 1511:1 2200:1 3121:1 3161:1 4018:1 #
0.13811183343235725051734164026129 281:1 370:1 618:1 831:1 858:1 925:1 1102:1 1317:1 1990:1 2202:1 2218:1 2288:1 2352:1 2479:1 2482:1 2543:1 2766:1 2777:1 2795:1 3116:1 3121:1 3122:1 3705:1 4370:1 4578:1 #
0.13811183343235725051734164026129 455:1 499:1 690:1 758:1 1294:1 2482:1 3121:1 3352:1 3637:1 3732:1 4076:1 4134:1 #
0.049486435935393792429071169181043 33:1 65:1 364:1 2482:1 2785:1 3019:1 3121:1 3705:1 3934:1 3939:1 4144:1 4259:1 #
-0.13811183343235725051734164026129 690:1 3121:1 3376:1 3861:1 4090:1 #
-0.04615765378393361234587999319956 91:1 217:1 1141:1 2167:1 2253:1 2477:1 2479:1 2755:1 3121:1 3861:1 #
0.13811183343235725051734164026129 690:1 3121:1 4090:1 #
-0.13811183343235725051734164026129 33:1 34:1 184:1 844:1 882:1 1063:1 1530:1 1631:1 1702:1 1990:1 2325:1 2424:1 2482:1 2536:1 2567:1 2790:1 3121:1 3122:1 #
-0.13811183343235725051734164026129 1407:1 2325:1 2482:1 2614:1 3121:1 3700:1 3728:1 4048:1 #
-0.011664764367046689258478053830004 172:1 1081:1 1204:1 1288:1 1379:1 1414:1 2590:1 2736:1 2755:1 2795:1 2966:1 3339:1 3768:1 4063:1 4225:1 4279:1 4325:1 #
-0.13811183343235725051734164026129 515:1 2959:1 2995:1 3728:1 4162:1 #
0.13811183343235725051734164026129 435:1 1204:1 1546:1 1580:1 2348:1 3861:1 #
0.13811183343235725051734164026129 1204:1 1546:1 2959:1 3797:1 3861:1 #
0.13811183343235725051734164026129 39:1 140:1 383:1 1204:1 1486:1 1508:1 1690:1 1769:1 2025:1 2411:1 2477:1 2755:1 3376:1 #
0.13811183343235725051734164026129 163:1 224:1 365:1 878:1 1204:1 1405:1 1516:1 1747:1 2168:1 2543:1 2795:1 3578:1 3861:1 4548:1 #
0.13811183343235725051734164026129 61:1 158:1 511:1 629:1 1204:1 4225:1 #
-0.087766411149524797830068223447597 364:1 845:1 1160:1 2606:1 2736:1 3121:1 3666:1 3933:1 #
-0.059109652021975440938650336875071 158:1 761:1 1204:1 2543:1 3376:1 3578:1 3861:1 4090:1 4225:1 #
-0.1205761848388978152435413448984 364:1 410:1 423:1 783:1 1141:1 1204:1 1294:1 1468:1 1472:1 1568:1 1830:1 1964:1 2025:1 2503:1 2534:1 2671:1 2973:1 3237:1 3287:1 3371:1 3531:1 3637:1 3724:1 3842:1 4068:1 4090:1 4102:1 4229:1 4374:1 4428:1 #
-0.13811183343235725051734164026129 140:1 383:1 1151:1 1204:1 1546:1 3861:1 #
-0.012149234422291132692861559405628 370:1 499:1 532:1 690:1 1522:1 1891:1 3121:1 3185:1 3578:1 #
0.074594036016667988886474915943836 244:1 252:1 939:1 1180:1 1448:1 1509:1 1607:1 1793:1 1906:1 2253:1 2261:1 2279:1 2325:1 2482:1 2577:1 2795:1 2925:1 3121:1 3261:1 3288:1 3402:1 3429:1 3456:1 3736:1 3995:1 4053:1 4057:1 4428:1 4457:1 #
0.13811183343235725051734164026129 33:1 150:1 217:1 245:1 251:1 362:1 954:1 1113:1 1486:1 1511:1 1793:1 2482:1 2543:1 2692:1 2795:1 3089:1 3121:1 3132:1 3728:1 4053:1 4266:1 4567:1 #
0.07293658552718056131691781729387 281:1 1511:1 1929:1 2251:1 2325:1 2482:1 2498:1 2777:1 3121:1 3429:1 3728:1 3800:1 4259:1 #
0.13811183343235725051734164026129 1151:1 1326:1 1508:1 1509:1 1990:1 2218:1 2352:1 2597:1 2606:1 3121:1 3319:1 #
0.13811183343235725051734164026129 499:1 1486:1 2279:1 2352:1 2482:1 2755:1 3121:1 3311:1 #
-0.028772150881288077045594420155794 31:1 39:1 65:1 91:1 237:1 270:1 375:1 676:1 933:1 1204:1 1440:1 1511:1 1622:1 1653:1 2352:1 2430:1 2482:1 2494:1 2543:1 2795:1 2990:1 3121:1 3163:1 3378:1 3453:1 3778:1 3871:1 4261:1 4412:1 #
-0.013921272882056828779084867164784 31:1 82:1 435:1 466:1 620:1 740:1 757:1 846:1 1036:1 1775:1 2109:1 2168:1 2257:1 2352:1 2467:1 2482:1 2543:1 2755:1 2795:1 2862:1 2952:1 3019:1 3121:1 3381:1 3578:1 3684:1 3736:1 3962:1 4359:1 #
0.046587812589211172187297904656589 385:1 3121:1 4259:1 #
-0.13811183343235725051734164026129 217:1 341:1 1486:1 1510:1 2218:1 2279:1 2352:1 2482:1 2763:1 3121:1 3661:1 #
0.13811183343235725051734164026129 1546:1 1842:1 2534:1 2543:1 3085:1 3327:1 3651:1 3728:1 3861:1 #
0.13811183343235725051734164026129 347:1 535:1 842:1 1204:1 1646:1 1880:1 2422:1 3007:1 4041:1 4090:1 4225:1 #
0.13811183343235725051734164026129 1204:1 4090:1 4225:1 4300:1 4428:1 #
0.13811183343235725051734164026129 1204:1 4090:1 4225:1 #
0.13811183343235725051734164026129 1141:1 1745:1 2177:1 2279:1 2482:1 3121:1 3767:1 3861:1 3953:1 4090:1 4225:1 4521:1 #
-0.11903278712822369655999210635855 1990:1 2253:1 3121:1 4567:1 #
-0.063323151914540937168496270714968 438:1 1204:1 2653:1 3104:1 4225:1 #
-0.13811183343235725051734164026129 65:1 761:1 2325:1 2653:1 3121:1 3653:1 #
-0.096479381513491460631293250571616 1204:1 3787:1 4225:1 #
0.023935041164884440084703598472515 31:1 1239:1 1467:1 2675:1 2795:1 3121:1 4457:1 #
-0.063858149531036675905504296224535 65:1 499:1 508:1 542:1 1332:1 1343:1 1507:1 1613:1 1951:1 2168:1 2477:1 2479:1 2482:1 2755:1 2795:1 3063:1 3121:1 3861:1 4521:1 #
-0.13811183343235725051734164026129 1511:1 1580:1 2152:1 2352:1 2482:1 2709:1 3121:1 3705:1 #
0.13811183343235725051734164026129 59:1 140:1 383:1 446:1 1204:1 1511:1 1580:1 1990:1 2434:1 2482:1 2606:1 3138:1 3728:1 4229:1 4431:1 #
0.13811183343235725051734164026129 5:1 558:1 606:1 1204:1 1509:1 1511:1 2095:1 2482:1 2587:1 3081:1 3578:1 3652:1 3777:1 4229:1 4436:1 4453:1 #
0.13811183343235725051734164026129 285:1 810:1 1511:1 1614:1 1990:1 2567:1 2778:1 2943:1 3080:1 3728:1 4252:1 #
0.12918622129662662989524335444003 283:1 1225:1 2200:1 3121:1 3122:1 3578:1 #
-0.091122843791539578917060282492457 44:1 933:1 1508:1 1990:1 2155:1 2482:1 3096:1 3578:1 3728:1 4006:1 #
-0.095425124349799619882794843306328 1141:1 1183:1 1266:1 1926:1 3121:1 3705:1 3717:1 #
0.054343660851432711023090149637937 333:1 1204:1 1590:1 2795:1 3861:1 #
-0.095251258229742188921029821813136 31:1 97:1 1546:1 1990:1 2001:1 3590:1 3728:1 4432:1 #
-0.13811183343235725051734164026129 66:1 1546:1 2543:1 3492:1 3728:1 3938:1 #
0.13811183343235725051734164026129 518:1 620:1 2167:1 2325:1 2482:1 3121:1 3861:1 4057:1 #
-0.015857412278957278700675104232687 45:1 1511:1 2305:1 2352:1 2430:1 2709:1 2951:1 3121:1 #
0.13811183343235725051734164026129 600:1 2116:1 2118:1 2482:1 2653:1 3121:1 3352:1 3651:1 #
-0.0036668720886979563715335483919944 375:1 540:1 831:1 1313:1 1990:1 2279:1 2477:1 2479:1 2482:1 3121:1 3970:1 3995:1 #
-0.12168880090625511236623879085528 1204:1 1631:1 2464:1 4225:1 #
-0.13811183343235725051734164026129 33:1 34:1 1204:1 1208:1 1930:1 2116:1 2482:1 2795:1 3121:1 3129:1 3861:1 3988:1 #
-0.13811183343235725051734164026129 518:1 749:1 2070:1 2243:1 2325:1 2482:1 3121:1 3277:1 3651:1 4057:1 #
-0.090828423506807504095306171620905 217:1 245:1 690:1 768:1 1326:1 2482:1 3121:1 3142:1 3160:1 3376:1 3861:1 4090:1 4144:1 #
0.13811183343235725051734164026129 143:1 1511:1 1989:1 1990:1 2126:1 2567:1 3728:1 #
0.13811183343235725051734164026129 167:1 1063:1 1511:1 2543:1 2648:1 3728:1 3970:1 #
0.13811183343235725051734164026129 1343:1 1511:1 3728:1 3974:1 #
0.13811183343235725051734164026129 962:1 3285:1 3728:1 4017:1 #
0.13811183343235725051734164026129 962:1 1023:1 3728:1 #
0.13811183343235725051734164026129 1775:1 2409:1 3121:1 3420:1 #
-0.13811183343235725051734164026129 1225:1 3146:1 3728:1 4167:1 4268:1 4438:1 #
-0.13811183343235725051734164026129 1225:1 1511:1 3728:1 #
0.13286542509752796714650457943208 1204:1 2025:1 3842:1 4273:1 4457:1 #
-0.13811183343235725051734164026129 3728:1 3938:1 3974:1 #
0.032327842665230872853943111522312 33:1 217:1 245:1 266:1 333:1 364:1 783:1 925:1 1104:1 1533:1 1568:1 1676:1 1816:1 1916:1 1930:1 2200:1 2543:1 2650:1 2653:1 2709:1 3121:1 3287:1 3328:1 3339:1 3376:1 3479:1 3571:1 3619:1 3861:1 3871:1 4090:1 4251:1 #
0.13811183343235725051734164026129 925:1 1913:1 2223:1 2325:1 2482:1 3121:1 3376:1 3685:1 3861:1 4057:1 4080:1 4090:1 #
0.13811183343235725051734164026129 143:1 1098:1 1204:1 1511:1 1546:1 1568:1 1670:1 1990:1 2223:1 2430:1 2482:1 2770:1 2778:1 3121:1 3705:1 4090:1 4457:1 #
-0.13811183343235725051734164026129 1098:1 1511:1 2482:1 2543:1 2606:1 2912:1 3121:1 3319:1 4090:1 4457:1 #
0.13811183343235725051734164026129 749:1 952:1 1199:1 2017:1 3121:1 4048:1 4567:1 #
0.13811183343235725051734164026129 2922:1 3728:1 4567:1 #
0.13811183343235725051734164026129 270:1 1655:1 3728:1 #
0.13811183343235725051734164026129 749:1 2111:1 2325:1 2413:1 2536:1 2795:1 3637:1 3728:1 4170:1 4373:1 #
-0.13811183343235725051734164026129 210:1 1551:1 1568:1 2409:1 3364:1 3615:1 3728:1 4063:1 4567:1 #
-0.13811183343235725051734164026129 755:1 3121:1 4048:1 #
-0.10775003659093873586982681445079 43:1 514:1 1194:1 1204:1 1448:1 1670:1 1696:1 1759:1 2167:1 2203:1 2223:1 3133:1 3243:1 3881:1 4057:1 4090:1 4225:1 4409:1 4542:1 #
-0.13811183343235725051734164026129 706:1 977:1 2693:1 3728:1 4047:1 4567:1 #
-0.099402936294587365684272128873999 102:1 181:1 272:1 435:1 515:1 532:1 618:1 1093:1 1332:1 1440:1 1486:1 1812:1 2330:1 2331:1 2450:1 2467:1 2567:1 2676:1 2943:1 3003:1 3121:1 3158:1 3160:1 3404:1 3578:1 3598:1 3726:1 3871:1 3934:1 4014:1 4522:1 4551:1 #
0.13811183343235725051734164026129 245:1 515:1 749:1 1266:1 1348:1 1888:1 2482:1 2543:1 3121:1 3325:1 3505:1 4033:1 #
0.13811183343235725051734164026129 925:1 1511:1 1582:1 2003:1 3032:1 3121:1 3319:1 4048:1 4148:1 #
0.13811183343235725051734164026129 31:1 518:1 1165:1 1511:1 1990:1 2795:1 3121:1 #
-0.1225325461212441735536771147963 31:1 162:1 532:1 925:1 1594:1 1990:1 2200:1 2482:1 2488:1 2795:1 3121:1 3402:1 3505:1 4471:1 #
0.13811183343235725051734164026129 2325:1 3121:1 3378:1 4057:1 #
-0.13064358182641677696977922096266 333:1 1511:1 2177:1 2449:1 2482:1 2755:1 3121:1 3287:1 3479:1 4134:1 #
-0.13811183343235725051734164026129 162:1 630:1 1511:1 1580:1 2648:1 2709:1 2807:1 3121:1 3578:1 3817:1 4148:1 #
-0.019177078017935562936902016417662 252:1 2161:1 2322:1 2482:1 3121:1 3705:1 4526:1 #
0.13811183343235725051734164026129 1949:1 2959:1 3728:1 3797:1 3861:1 #
0.04730019447935079890399379110022 66:1 252:1 307:1 761:1 1204:1 1546:1 2482:1 3728:1 3842:1 4567:1 #
0.13811183343235725051734164026129 33:1 1061:1 1204:1 2130:1 2795:1 #
-0.13811183343235725051734164026129 477:1 863:1 1204:1 1509:1 1631:1 1914:1 2401:1 2482:1 2959:1 3121:1 3376:1 3728:1 3861:1 4090:1 #
-0.13811183343235725051734164026129 3376:1 3728:1 3861:1 4090:1 #
-0.13811183343235725051734164026129 270:1 1990:1 2122:1 2325:1 3429:1 3728:1 #
-0.014125929772483411181460688510469 1204:1 1434:1 2167:1 4225:1 4292:1 #
-0.13811183343235725051734164026129 1488:1 2430:1 3121:1 4453:1 #
0.13811183343235725051734164026129 1511:1 3121:1 3817:1 #
0.13811183343235725051734164026129 217:1 706:1 1622:1 1631:1 3121:1 3938:1 #
0.13811183343235725051734164026129 1063:1 2709:1 3019:1 3121:1 3185:1 3653:1 4144:1 #
0.13811183343235725051734164026129 1225:1 1511:1 3121:1 3813:1 #
-0.13811183343235725051734164026129 33:1 1225:1 1511:1 1576:1 2709:1 3121:1 3185:1 3319:1 3842:1 4048:1 #
-0.13811183343235725051734164026129 217:1 749:1 1199:1 1511:1 1906:1 2495:1 3121:1 3345:1 4292:1 #
-0.13811183343235725051734164026129 1511:1 2331:1 2477:1 2479:1 2648:1 2709:1 2778:1 2816:1 3121:1 3134:1 3705:1 3836:1 3866:1 3947:1 4048:1 4079:1 4090:1 4567:1 #
-0.076298244832489231503913629239833 217:1 749:1 925:1 1141:1 1266:1 1446:1 2167:1 2482:1 2606:1 2991:1 3121:1 3364:1 3377:1 #
-0.0029468287073589312721755284485425 150:1 217:1 657:1 750:1 1511:1 1886:1 2177:1 2825:1 3121:1 3133:1 3481:1 3736:1 3806:1 3817:1 #
0.13811183343235725051734164026129 668:1 1063:1 1486:1 1990:1 2325:1 2795:1 3021:1 3216:1 3242:1 3550:1 3728:1 3861:1 4187:1 #
0.13811183343235725051734164026129 477:1 1990:1 2030:1 2179:1 2352:1 2430:1 2482:1 3121:1 3728:1 3861:1 4090:1 #
0.13811183343235725051734164026129 1990:1 3578:1 3728:1 4090:1 #
-0.13811183343235725051734164026129 1063:1 1990:1 3728:1 4266:1 #
-0.13811183343235725051734164026129 1990:1 3578:1 3728:1 #
0.13811183343235725051734164026129 333:1 2243:1 3121:1 3861:1 #
0.13811183343235725051734164026129 65:1 2709:1 3121:1 #
0.12873415888124195571862173892441 88:1 217:1 755:1 925:1 1448:1 1494:1 1511:1 2543:1 2666:1 2943:1 3014:1 3121:1 3479:1 3675:1 3871:1 4047:1 4122:1 4266:1 #
-0.13811183343235725051734164026129 1064:1 1509:1 1522:1 2143:1 2482:1 2825:1 3121:1 3287:1 3974:1 4384:1 #
-0.13811183343235725051734164026129 33:1 273:1 589:1 1204:1 1343:1 1509:1 1546:1 2482:1 2543:1 2553:1 2755:1 2795:1 3550:1 3861:1 3974:1 3989:1 4567:1 #
-0.13811183343235725051734164026129 65:1 1065:1 1931:1 2024:1 2543:1 2653:1 3121:1 3871:1 3926:1 #
-0.064322275002525228226879505655234 370:1 471:1 1412:1 1508:1 1509:1 2168:1 2430:1 2543:1 2579:1 3121:1 3563:1 3607:1 3653:1 3927:1 4149:1 4271:1 #
-0.13811183343235725051734164026129 364:1 2279:1 2795:1 3121:1 3302:1 3861:1 3871:1 4041:1 #
0.13811183343235725051734164026129 397:1 1460:1 3121:1 3376:1 #
0.13811183343235725051734164026129 65:1 167:1 1511:1 1580:1 1745:1 2648:1 2736:1 3728:1 3807:1 #
0.13811183343235725051734164026129 364:1 397:1 452:1 1460:1 1949:1 2203:1 2411:1 2482:1 3121:1 3250:1 3376:1 4558:1 #
0.13811183343235725051734164026129 287:1 690:1 1204:1 1522:1 1874:1 2349:1 2482:1 3618:1 4336:1 4400:1 #
-0.13811183343235725051734164026129 217:1 761:1 822:1 845:1 918:1 922:1 1204:1 1347:1 1874:1 2482:1 2590:1 2931:1 3121:1 3189:1 3666:1 3970:1 4090:1 4225:1 #
-0.13811183343235725051734164026129 1448:1 1949:1 2482:1 2577:1 3546:1 3728:1 #
-0.081304272336293059719736220358755 217:1 706:1 925:1 1063:1 2482:1 2979:1 3121:1 3172:1 3298:1 3728:1 4120:1 #
-0.13811183343235725051734164026129 690:1 1522:1 2482:1 3121:1 3728:1 #
0.071242319152131416970519239839632 558:1 657:1 3121:1 3479:1 3685:1 3869:1 #
0.13811183343235725051734164026129 33:1 273:1 1509:1 1990:1 2477:1 2479:1 2597:1 2795:1 3121:1 3339:1 4057:1 #
0.13811183343235725051734164026129 65:1 162:1 1509:1 1990:1 2477:1 2479:1 2755:1 3119:1 3121:1 3829:1 3861:1 4311:1 4339:1 #
0.13811183343235725051734164026129 333:1 499:1 3101:1 3121:1 #
-0.13811183343235725051734164026129 1508:1 3121:1 3134:1 #
0.074372544582204630492228147886635 65:1 347:1 749:1 1000:1 1032:1 1204:1 1693:1 2200:1 2482:1 2543:1 3060:1 3705:1 3728:1 3861:1 3974:1 4041:1 4063:1 4457:1 4504:1 4567:1 #
0.041268612331062458353780897368779 162:1 863:1 3121:1 #
-0.13811183343235725051734164026129 397:1 2116:1 2325:1 3121:1 3376:1 3861:1 4090:1 #
-0.064911944703959709168650249466737 92:1 162:1 189:1 221:1 245:1 270:1 477:1 499:1 1209:1 1295:1 1425:1 1631:1 2003:1 2019:1 2982:1 3096:1 3121:1 3122:1 3651:1 3861:1 4048:1 4057:1 4090:1 4567:1 #
-0.09391182163685474204584124890971 37:1 50:1 133:1 375:1 1036:1 1509:1 1511:1 1605:1 1958:1 2089:1 2223:1 2325:1 2411:1 2479:1 2488:1 2802:1 2803:1 2885:1 3121:1 3306:1 3454:1 4282:1 4439:1 #
0.13811183343235725051734164026129 214:1 925:1 1204:1 1511:1 1636:1 2482:1 3389:1 3817:1 3974:1 4041:1 #
0.13811183343235725051734164026129 822:1 1204:1 1260:1 1347:1 2482:1 2723:1 3013:1 3121:1 4225:1 4259:1 #
0.059611521076784662609426845847338 217:1 2482:1 2959:1 3121:1 3728:1 3797:1 #
-0.025625512960734512374338933682338 217:1 1508:1 3121:1 3287:1 3563:1 3897:1 #
-0.13811183343235725051734164026129 518:1 2785:1 3121:1 3651:1 4057:1 #
-0.13811183343235725051734164026129 66:1 410:1 600:1 850:1 1204:1 1459:1 2171:1 2177:1 2397:1 2543:1 2709:1 2766:1 3577:1 4225:1 4327:1 #
-0.13811183343235725051734164026129 217:1 364:1 707:1 1990:1 2482:1 2837:1 3121:1 3728:1 4175:1 #
0.039409504227872739490212694590809 65:1 1670:1 2482:1 3121:1 3728:1 4217:1 4259:1 #
0.10493415184441104437418346151389 252:1 925:1 933:1 1448:1 1509:1 1906:1 2025:1 2073:1 2289:1 2577:1 2812:1 3121:1 3288:1 4090:1 4439:1 #
0.13811183343235725051734164026129 2251:1 2352:1 3121:1 #
-0.13811183343235725051734164026129 65:1 206:1 215:1 546:1 1509:1 1681:1 1812:1 2186:1 3121:1 3210:1 3505:1 3550:1 3578:1 3819:1 4090:1 4336:1 #
-0.13811183343235725051734164026129 1511:1 3121:1 3253:1 4090:1 #
-0.13811183343235725051734164026129 2813:1 3121:1 3736:1 3737:1 3974:1 4057:1 4436:1 #
0.13811183343235725051734164026129 374:1 925:1 1204:1 1990:1 2421:1 2482:1 3728:1 #
0.011324934315363643227980716687853 143:1 372:1 690:1 977:1 2084:1 2293:1 2352:1 2482:1 2901:1 3121:1 3122:1 3457:1 3742:1 #
-0.13811183343235725051734164026129 499:1 925:1 1204:1 1979:1 2482:1 3121:1 3685:1 #
-0.082857277179591362625821204801468 711:1 925:1 1369:1 1990:1 2200:1 3728:1 #
0.13811183343235725051734164026129 217:1 1151:1 2331:1 3121:1 #
0.13811183343235725051734164026129 162:1 217:1 375:1 2331:1 3121:1 #
0.13811183343235725051734164026129 1511:1 3121:1 3479:1 3583:1 4134:1 #
0.13811183343235725051734164026129 1021:1 1050:1 1508:1 1518:1 1631:1 2446:1 3121:1 3273:1 #
0.13811183343235725051734164026129 1812:1 3121:1 4259:1 #
-0.13804748441620448562439094075671 217:1 245:1 260:1 637:1 1568:1 1830:1 1916:1 2317:1 2482:1 2907:1 3121:1 3198:1 3339:1 3624:1 3769:1 3921:1 #
0.041413670270463352751644237059736 205:1 414:1 641:1 873:1 924:1 1245:1 1414:1 1508:1 1660:1 2488:1 2529:1 2982:1 3121:1 3134:1 3548:1 3685:1 3861:1 4090:1 4122:1 4567:1 #
-0.13811183343235725051734164026129 217:1 1296:1 1494:1 1568:1 3121:1 #
-0.13811183343235725051734164026129 162:1 217:1 1508:1 2482:1 2543:1 2653:1 3021:1 3121:1 3341:1 3861:1 4041:1 4195:1 4586:1 #
0.13811183343235725051734164026129 749:1 925:1 1151:1 1448:1 1511:1 1949:1 2077:1 2366:1 2693:1 2755:1 2807:1 3089:1 3404:1 3538:1 3728:1 4122:1 4229:1 #
0.13811183343235725051734164026129 44:1 66:1 901:1 925:1 1875:1 1934:1 1990:1 2144:1 2482:1 2817:1 3121:1 3764:1 3884:1 4238:1 #
0.13811183343235725051734164026129 730:1 919:1 1064:1 1990:1 2261:1 2413:1 2482:1 2825:1 3121:1 3378:1 3637:1 4047:1 4259:1 4325:1 4567:1 #
0.13811183343235725051734164026129 925:1 3121:1 3378:1 4057:1 #
0.13811183343235725051734164026129 65:1 1925:1 2709:1 3121:1 #
-0.13811183343235725051734164026129 167:1 740:1 1631:1 1990:1 2352:1 2482:1 3121:1 #
-0.0017704256720627411288843111591973 71:1 414:1 749:1 761:1 769:1 781:1 853:1 1080:1 1084:1 1225:1 1294:1 1297:1 1299:1 1313:1 1414:1 1443:1 1453:1 1508:1 1511:1 1635:1 1775:1 2066:1 2261:1 2352:1 2394:1 2421:1 2536:1 2608:1 2732:1 2995:1 3007:1 3121:1 3127:1 3216:1 3242:1 3373:1 3378:1 3525:1 3578:1 3800:1 3861:1 3998:1 4041:1 4148:1 4275:1 4390:1 4405:1 #
-0.13811183343235725051734164026129 2223:1 2352:1 3089:1 3121:1 3700:1 4057:1 #
0.01771697595845872497122286404192 499:1 757:1 885:1 1016:1 1294:1 2042:1 3121:1 3342:1 3363:1 3423:1 3578:1 3800:1 3861:1 4090:1 #
0.13811183343235725051734164026129 1239:1 3121:1 #
0.13811183343235725051734164026129 217:1 3096:1 3121:1 3573:1 #
0.056299934019699848786189022575854 333:1 3116:1 3121:1 3705:1 3861:1 #
-0.079165302922538705043820073115057 499:1 1348:1 3121:1 3339:1 3404:1 3782:1 3861:1 4314:1 #
-0.13811183343235725051734164026129 162:1 499:1 3121:1 3296:1 3652:1 #
-0.13811183343235725051734164026129 2177:1 3121:1 3325:1 3782:1 3861:1 #
0.095799530431649293493734376170323 1204:1 1352:1 1631:1 1990:1 2243:1 2409:1 2482:1 3121:1 3339:1 3685:1 3856:1 4057:1 4090:1 #
0.13811183343235725051734164026129 31:1 44:1 437:1 839:1 848:1 871:1 933:1 1295:1 1394:1 1522:1 1874:1 1900:1 1990:1 2099:1 2482:1 2584:1 3121:1 3133:1 3352:1 3531:1 4090:1 #
-0.13811183343235725051734164026129 217:1 636:1 1252:1 1266:1 1508:1 2143:1 2482:1 2901:1 3121:1 3287:1 3573:1 3665:1 4057:1 #
-0.084987209854465159408754004743969 252:1 1348:1 2482:1 2585:1 3121:1 3422:1 3728:1 3856:1 #
-0.13811183343235725051734164026129 925:1 2116:1 2325:1 3081:1 3121:1 3651:1 4057:1 4081:1 #
-0.13811183343235725051734164026129 627:1 976:1 1294:1 1324:1 1670:1 1775:1 2482:1 2615:1 2755:1 2785:1 2928:1 3121:1 3958:1 4339:1 #
0.13811183343235725051734164026129 65:1 347:1 1113:1 2421:1 2567:1 2778:1 3071:1 3121:1 3376:1 4022:1 #
0.13811183343235725051734164026129 558:1 1511:1 3121:1 4018:1 #
0.073663146113284977412050125167298 886:1 1613:1 3121:1 3842:1 4134:1 4597:1 #
0.13811183343235725051734164026129 925:1 1159:1 1568:1 2474:1 3121:1 #
0.13811183343235725051734164026129 691:1 2795:1 3121:1 3589:1 4568:1 #
-0.03313202973196942985323332209191 2064:1 2168:1 3121:1 3185:1 3861:1 4453:1 #
-0.13811183343235725051734164026129 519:1 1204:1 4229:1 4457:1 #
-0.13233074552839743653898096908961 517:1 1239:1 2261:1 3121:1 3705:1 #
-0.060579385333599487795108728960258 12:1 31:1 42:1 44:1 309:1 913:1 916:1 1202:1 2427:1 2541:1 2927:1 3121:1 3128:1 3705:1 4041:1 4325:1 #
0.13811183343235725051734164026129 336:1 532:1 540:1 567:1 1838:1 2180:1 2482:1 2885:1 2907:1 3042:1 3121:1 3319:1 3525:1 3578:1 3934:1 #
0.13811183343235725051734164026129 217:1 252:1 1141:1 1239:1 2236:1 2482:1 2606:1 3121:1 3361:1 3385:1 3578:1 3919:1 4567:1 #
0.13811183343235725051734164026129 419:1 640:1 872:1 2482:1 3068:1 3121:1 3485:1 #
0.13811183343235725051734164026129 549:1 1400:1 2253:1 2352:1 2421:1 2482:1 2755:1 3121:1 3457:1 3578:1 #
-0.13811183343235725051734164026129 143:1 499:1 1949:1 1990:1 2755:1 3121:1 3578:1 #
-0.038964916811246051719930250101243 2167:1 3061:1 3728:1 4211:1 #
-0.13811183343235725051734164026129 51:1 143:1 160:1 1405:1 1803:1 2125:1 2430:1 2943:1 3014:1 3105:1 3121:1 3578:1 3802:1 #
0.13811183343235725051734164026129 375:1 1511:1 2177:1 2279:1 2410:1 3121:1 3861:1 4041:1 #
0.13811183343235725051734164026129 333:1 1204:1 2243:1 2445:1 2482:1 2543:1 3376:1 3861:1 4041:1 4195:1 4339:1 4457:1 4485:1 #
-0.13811183343235725051734164026129 31:1 217:1 602:1 1511:1 2200:1 2223:1 2325:1 2482:1 2709:1 3121:1 3861:1 #
0.13811183343235725051734164026129 3121:1 3732:1 4057:1 #
-0.056367420165806834952970660879146 2:1 925:1 1511:1 2482:1 3121:1 3138:1 3861:1 4514:1 #
-0.13811183343235725051734164026129 300:1 872:1 896:1 1511:1 2543:1 2709:1 2795:1 3121:1 4057:1 4137:1 #
0.13811183343235725051734164026129 162:1 245:1 560:1 749:1 1949:1 3121:1 #
0.13811183343235725051734164026129 499:1 3121:1 3557:1 #
0.098609638593996531974461561276257 476:1 1631:1 1957:1 2791:1 3121:1 3616:1 3975:1 4504:1 #
-0.13811183343235725051734164026129 66:1 3728:1 3950:1 #
-0.13811183343235725051734164026129 749:1 962:1 1949:1 2543:1 2755:1 3099:1 3121:1 #
-0.13811183343235725051734164026129 749:1 1493:1 2305:1 3121:1 #
-0.13811183343235725051734164026129 517:1 534:1 3728:1 4090:1 #
-0.13811183343235725051734164026129 517:1 749:1 3121:1 4090:1 #
0.10322236693221827075195307088507 245:1 317:1 333:1 354:1 1044:1 1113:1 1204:1 1511:1 1631:1 2095:1 2362:1 2477:1 2479:1 2482:1 3121:1 3578:1 3861:1 4009:1 4148:1 4327:1 4546:1 #
0.048446427110537794435973779627602 215:1 1365:1 1918:1 2709:1 2755:1 3121:1 3705:1 3753:1 4137:1 4292:1 4311:1 #
0.13811183343235725051734164026129 151:1 2352:1 3121:1 4057:1 #
0.13811183343235725051734164026129 435:1 2223:1 2543:1 3728:1 3861:1 #
0.13811183343235725051734164026129 65:1 2709:1 3003:1 3728:1 #
-0.13811183343235725051734164026129 34:1 375:1 1028:1 1061:1 1204:1 1225:1 2243:1 2685:1 2755:1 4146:1 #
0.02068525454596750398628124401057 3728:1 3970:1 4090:1 #
0.0052720131033138200454812860584752 31:1 42:1 44:1 499:1 537:1 761:1 902:1 2352:1 2541:1 2543:1 2795:1 3121:1 3871:1 4057:1 4129:1 4170:1 4220:1 #
0.079228363622534894727955645521433 2785:1 3121:1 3185:1 4259:1 #
-0.074524320238556832074472424665146 281:1 882:1 1141:1 1990:1 2178:1 2477:1 2479:1 2536:1 2543:1 2777:1 3096:1 3113:1 3121:1 3728:1 #
-0.13811183343235725051734164026129 2543:1 3121:1 3325:1 3861:1 #
-0.13811183343235725051734164026129 333:1 2261:1 3121:1 3651:1 #
-0.045013513377851650798522342711294 355:1 2167:1 3002:1 3121:1 3484:1 3685:1 #
0.0791688509704734366678735568712 217:1 333:1 1324:1 2907:1 3121:1 #
0.13811183343235725051734164026129 333:1 2305:1 3728:1 4048:1 #
0.13811183343235725051734164026129 1348:1 2403:1 2430:1 3028:1 3121:1 #
0.13811183343235725051734164026129 270:1 1204:1 2140:1 2795:1 3319:1 4567:1 #
-0.13811183343235725051734164026129 387:1 1113:1 1204:1 4567:1 #
-0.13811183343235725051734164026129 33:1 433:1 1204:1 1679:1 1837:1 2795:1 #
-0.024532134469444251412273416690368 66:1 70:1 133:1 140:1 580:1 1204:1 1745:1 2218:1 2482:1 2999:1 3019:1 3172:1 3273:1 3600:1 3892:1 4225:1 4311:1 4325:1 4567:1 #
-0.13811183343235725051734164026129 31:1 33:1 1838:1 2180:1 2529:1 3121:1 3651:1 3763:1 3827:1 3974:1 4090:1 #
0.13811183343235725051734164026129 476:1 3121:1 4057:1 4465:1 #
0.13811183343235725051734164026129 65:1 499:1 3121:1 3938:1 #
0.13811183343235725051734164026129 1399:1 3121:1 3782:1 #
0.13811183343235725051734164026129 3121:1 3705:1 4229:1 #
-0.13811183343235725051734164026129 162:1 1242:1 2352:1 3121:1 4057:1 #
-0.13811183343235725051734164026129 162:1 2003:1 3121:1 4057:1 #
-0.13811183343235725051734164026129 2253:1 2352:1 3121:1 3667:1 4057:1 #
-0.13811183343235725051734164026129 308:1 2352:1 3121:1 4057:1 #
-0.13811183343235725051734164026129 2025:1 3121:1 3185:1 #
0.047718696245781858089607396777865 31:1 42:1 44:1 214:1 364:1 657:1 706:1 1511:1 1838:1 2180:1 2411:1 2477:1 2479:1 2795:1 3121:1 3161:1 3270:1 3449:1 3473:1 3817:1 4122:1 4183:1 4567:1 #
0.010579323039331975028765064905656 31:1 33:1 34:1 46:1 427:1 600:1 707:1 1007:1 1337:1 1580:1 1635:1 2325:1 2676:1 2990:1 3121:1 4019:1 4041:1 4057:1 #
-0.060703725917419466828750529430181 414:1 640:1 2371:1 3728:1 #
0.13811183343235725051734164026129 1775:1 3121:1 3185:1 4057:1 #
0.13811183343235725051734164026129 3121:1 3827:1 #
0.13811183343235725051734164026129 1919:1 1990:1 3121:1 3574:1 #
-0.13811183343235725051734164026129 749:1 1580:1 3121:1 3705:1 3861:1 4041:1 4049:1 #
-0.064555402355933391711495517029107 42:1 217:1 414:1 707:1 1635:1 1682:1 2177:1 2337:1 3089:1 3121:1 3352:1 4041:1 4065:1 #
-0.13811183343235725051734164026129 1348:1 1718:1 2279:1 2289:1 2482:1 2755:1 3121:1 4041:1 #
-0.13811183343235725051734164026129 125:1 604:1 2055:1 2253:1 3121:1 3552:1 4041:1 #
-0.13811183343235725051734164026129 42:1 1511:1 2218:1 2488:1 3121:1 3871:1 4259:1 #
0.017715522336324972252352694113142 33:1 276:1 1566:1 2162:1 2210:1 2218:1 2685:1 2688:1 2778:1 3121:1 3363:1 3578:1 3938:1 4067:1 4148:1 4262:1 #
-0.13811183343235725051734164026129 1016:1 1035:1 1979:1 2778:1 3121:1 #
-0.054979003757537711627456644691847 270:1 1990:1 2491:1 2777:1 3665:1 3728:1 4266:1 4364:1 #
-0.13811183343235725051734164026129 1675:1 3121:1 3653:1 #
-0.13811183343235725051734164026129 3728:1 3938:1 3970:1 #
0.036921927945093704903634090896958 701:1 2907:1 3121:1 4259:1 #
0.10199897925517054098065727885114 44:1 827:1 1060:1 1275:1 1294:1 1880:1 2488:1 2755:1 3121:1 3861:1 #
0.13811183343235725051734164026129 2325:1 3121:1 4057:1 #
0.13811183343235725051734164026129 1348:1 1508:1 1603:1 1783:1 2301:1 2543:1 3121:1 3339:1 3844:1 #
0.13811183343235725051734164026129 217:1 1752:1 2352:1 2482:1 2543:1 2977:1 3121:1 4457:1 #
0.13811183343235725051734164026129 1810:1 2929:1 3121:1 3861:1 4474:1 #
-0.13811183343235725051734164026129 1511:1 2467:1 2709:1 3081:1 3121:1 3861:1 #
-0.11298917252843275471629880257751 312:1 476:1 1508:1 1509:1 1990:1 2411:1 2488:1 2795:1 2827:1 2840:1 3121:1 3317:1 3789:1 3861:1 4449:1 4504:1 #
-0.13811183343235725051734164026129 1348:1 3121:1 3432:1 3861:1 #
-0.13811183343235725051734164026129 1348:1 3121:1 3372:1 3861:1 #
-0.13811183343235725051734164026129 44:1 1508:1 1521:1 2096:1 2352:1 2467:1 3121:1 3432:1 4292:1 4399:1 #
0.13811183343235725051734164026129 292:1 379:1 925:1 1414:1 1990:1 2177:1 2482:1 3121:1 3578:1 3728:1 4090:1 #
0.13811183343235725051734164026129 217:1 649:1 1486:1 1990:1 2482:1 2719:1 3121:1 3728:1 4266:1 #
0.13811183343235725051734164026129 188:1 3728:1 #
-0.13774039754968092630349474347895 1990:1 2177:1 2959:1 3429:1 3728:1 4090:1 4454:1 #
-0.13811183343235725051734164026129 515:1 2482:1 3728:1 #
-0.13811183343235725051734164026129 1199:1 1990:1 2614:1 2709:1 3728:1 #
0.13811183343235725051734164026129 2352:1 3121:1 3232:1 3578:1 3861:1 #
0.13811183343235725051734164026129 151:1 2279:1 3121:1 3861:1 #
0.13811183343235725051734164026129 162:1 3121:1 3702:1 3861:1 #
0.13811183343235725051734164026129 2995:1 3121:1 3861:1 #
0.13811183343235725051734164026129 258:1 3121:1 3378:1 3861:1 #
0.024424228832614587603178080144062 375:1 548:1 743:1 749:1 886:1 1239:1 1507:1 1511:1 1635:1 1859:1 1990:1 2025:1 2261:1 2411:1 2413:1 2719:1 2982:1 2995:1 3081:1 3121:1 3285:1 3327:1 3540:1 3615:1 3637:1 3666:1 3728:1 4047:1 4170:1 4171:1 4266:1 4396:1 4567:1 #
-0.13811183343235725051734164026129 558:1 925:1 1812:1 3121:1 3376:1 3861:1 #
-0.13811183343235725051734164026129 397:1 1436:1 3121:1 3319:1 3578:1 3861:1 #
0.13811183343235725051734164026129 538:1 2959:1 3728:1 4090:1 #
0.016186272707958890976209787027074 3328:1 3728:1 3970:1 4090:1 #
0.13811183343235725051734164026129 749:1 3121:1 3807:1 4292:1 #
0.13811183343235725051734164026129 2371:1 2709:1 3728:1 #
0.13811183343235725051734164026129 2516:1 3728:1 3797:1 3832:1 #
-0.13811183343235725051734164026129 1128:1 3728:1 4057:1 #
-0.13811183343235725051734164026129 3121:1 3550:1 4057:1 #
-0.13811183343235725051734164026129 3728:1 3938:1 #
0.13811183343235725051734164026129 27:1 397:1 515:1 589:1 2168:1 2482:1 2698:1 3121:1 3210:1 3319:1 3732:1 3934:1 #
0.13811183343235725051734164026129 558:1 925:1 1511:1 2430:1 3121:1 #
-0.13811183343235725051734164026129 347:1 581:1 1511:1 2482:1 3052:1 3121:1 4090:1 4382:1 #
0.13811183343235725051734164026129 333:1 1204:1 4567:1 #
0.072849801973762590145966555610357 766:1 2017:1 2540:1 3121:1 #
-0.12064166381372866398979937230251 620:1 656:1 706:1 1136:1 1332:1 1949:1 2000:1 2325:1 2347:1 2352:1 2482:1 2755:1 3121:1 3235:1 3378:1 3564:1 3637:1 3861:1 4170:1 4177:1 4205:1 #
0.13811183343235725051734164026129 1204:1 3081:1 3601:1 #
0.13811183343235725051734164026129 1204:1 2362:1 2910:1 3600:1 4225:1 #
0.13811183343235725051734164026129 1204:1 2948:1 3687:1 3861:1 #
-0.13811183343235725051734164026129 65:1 1204:1 2421:1 3407:1 4567:1 #
-0.13811183343235725051734164026129 1204:1 1795:1 2709:1 3328:1 3600:1 4225:1 #
-0.13811183343235725051734164026129 1204:1 1615:1 2430:1 4567:1 #
0.13811183343235725051734164026129 217:1 427:1 499:1 590:1 686:1 1511:1 2126:1 2281:1 2482:1 2648:1 3104:1 3121:1 3287:1 3871:1 3942:1 #
-0.040401194957514673100629210011903 928:1 1200:1 1204:1 1470:1 2301:1 2482:1 2543:1 3068:1 3408:1 3644:1 3728:1 3861:1 4048:1 4225:1 #
-0.13811183343235725051734164026129 217:1 2371:1 2430:1 3063:1 3121:1 3817:1 3861:1 #
-0.13811183343235725051734164026129 162:1 515:1 2168:1 3121:1 4053:1 #
-0.13811183343235725051734164026129 31:1 2279:1 2795:1 3121:1 3380:1 3992:1 #
0.13811183343235725051734164026129 1204:1 3492:1 3968:1 4090:1 #
0.13811183343235725051734164026129 1204:1 3047:1 4229:1 4567:1 #
0.13811183343235725051734164026129 39:1 476:1 1204:1 2795:1 3843:1 4090:1 4225:1 #
-0.13811183343235725051734164026129 1204:1 4567:1 #
-0.13811183343235725051734164026129 517:1 3121:1 4259:1 #
-0.13811183343235725051734164026129 1042:1 3121:1 3563:1 #
-0.050472141649158100418226524652709 1204:1 1474:1 1869:1 2405:1 2505:1 3969:1 4225:1 #
0.13811183343235725051734164026129 1812:1 2430:1 3121:1 #
0.13811183343235725051734164026129 1812:1 2553:1 3121:1 #
0.11334313290610376068201503585442 430:1 1225:1 1508:1 3121:1 3866:1 #
0.068974021578243144281472609691264 1225:1 1508:1 1851:1 3121:1 3578:1 3628:1 #
0.11650227392979257967642325866109 65:1 1204:1 2257:1 2709:1 4057:1 #
0.13811183343235725051734164026129 1204:1 1509:1 1635:1 2709:1 3897:1 4057:1 4225:1 4233:1 #
-0.033680904964947473712033598758353 471:1 839:1 1511:1 2543:1 2755:1 3121:1 3456:1 #
-0.13811183343235725051734164026129 1204:1 1722:1 2279:1 2785:1 3121:1 3288:1 3888:1 4041:1 4057:1 #
0.13811183343235725051734164026129 1204:1 2199:1 2243:1 3861:1 #
0.075211994204732887658870765790198 270:1 2019:1 2422:1 3728:1 3861:1 4032:1 #
-0.13811183343235725051734164026129 1151:1 2025:1 3728:1 4057:1 #
-0.13811183343235725051734164026129 3728:1 3801:1 3861:1 #
-0.13811183343235725051734164026129 1204:1 3376:1 3861:1 4090:1 #
0.13811183343235725051734164026129 2279:1 3121:1 3938:1 #
0.13811183343235725051734164026129 518:1 1148:1 1990:1 3121:1 3440:1 3688:1 #
0.13811183343235725051734164026129 217:1 3121:1 3287:1 4229:1 #
-0.13811183343235725051734164026129 3121:1 3211:1 3897:1 4439:1 #
-0.13811183343235725051734164026129 1317:1 2243:1 2284:1 2755:1 3121:1 #
-0.13811183343235725051734164026129 39:1 102:1 2482:1 2795:1 3121:1 3705:1 4340:1 #
-0.13811183343235725051734164026129 1113:1 3121:1 3811:1 #
-0.068686155704672818833600445032062 1990:1 3121:1 3884:1 3934:1 #
0.13811183343235725051734164026129 1958:1 2025:1 3728:1 3861:1 4534:1 #
0.13811183343235725051734164026129 3138:1 3728:1 3734:1 3861:1 #
0.06135970755476086863078322153342 1239:1 2614:1 3728:1 3861:1 #
0.13811183343235725051734164026129 2755:1 3615:1 3728:1 3861:1 4041:1 4436:1 4439:1 #
0.13811183343235725051734164026129 1620:1 3728:1 3861:1 #
-0.13811183343235725051734164026129 93:1 508:1 734:1 1523:1 1718:1 3728:1 3861:1 #
-0.13811183343235725051734164026129 1511:1 1620:1 3728:1 3861:1 4567:1 #
-0.13811183343235725051734164026129 2959:1 3728:1 3861:1 4209:1 #
0.013149259313135718690856990065186 466:1 1879:1 2109:1 2709:1 2795:1 3121:1 3861:1 4041:1 4586:1 #
0.13811183343235725051734164026129 918:1 1199:1 3121:1 4057:1 #
0.13811183343235725051734164026129 1098:1 1204:1 1509:1 1990:1 2302:1 2482:1 3121:1 3429:1 3817:1 4090:1 4457:1 #
0.13811183343235725051734164026129 3121:1 3185:1 4057:1 #
0.13811183343235725051734164026129 2785:1 3121:1 3542:1 #
-0.13811183343235725051734164026129 1135:1 2279:1 3121:1 3823:1 4057:1 #
-0.13811183343235725051734164026129 217:1 3121:1 4057:1 4453:1 #
0.13811183343235725051734164026129 1204:1 2959:1 3797:1 #
0.13811183343235725051734164026129 258:1 1204:1 1679:1 4567:1 #
-0.13811183343235725051734164026129 1204:1 2546:1 4457:1 #
-0.13811183343235725051734164026129 1204:1 3030:1 4457:1 #
0.13811183343235725051734164026129 702:1 2116:1 2123:1 3121:1 4057:1 #
0.13811183343235725051734164026129 2244:1 3121:1 4057:1 #
0.010178247440909556770227695210451 217:1 499:1 924:1 2186:1 2482:1 2778:1 3121:1 4057:1 #
0.13811183343235725051734164026129 690:1 1134:1 1800:1 3121:1 3578:1 #
-0.13811183343235725051734164026129 690:1 3121:1 3298:1 3578:1 4090:1 #
-0.13811183343235725051734164026129 1207:1 1511:1 2201:1 2212:1 2296:1 2482:1 2541:1 2648:1 3121:1 3383:1 3578:1 #
0.13811183343235725051734164026129 309:1 499:1 925:1 1063:1 1204:1 1337:1 1511:1 2025:1 2755:1 3531:1 4365:1 #
-0.13811183343235725051734164026129 1204:1 1493:1 2243:1 3060:1 3121:1 4041:1 #
-0.13811183343235725051734164026129 2025:1 3106:1 3121:1 #
-0.13811183343235725051734164026129 499:1 2243:1 2747:1 3121:1 3861:1 4405:1 #
-0.021698866085816687770959632075574 3728:1 3766:1 4453:1 #
0.13811183343235725051734164026129 2352:1 3121:1 4175:1 4229:1 #
0.13811183343235725051734164026129 162:1 1299:1 3121:1 3147:1 #
0.13811183343235725051734164026129 3121:1 3705:1 #
0.13811183343235725051734164026129 576:1 3121:1 3654:1 3705:1 #
0.13811183343235725051734164026129 2329:1 2653:1 3121:1 #
-0.13811183343235725051734164026129 2838:1 3121:1 4229:1 4504:1 #
-0.13811183343235725051734164026129 1509:1 2368:1 2482:1 3121:1 3361:1 3778:1 3897:1 #
-0.13811183343235725051734164026129 2482:1 3121:1 #
-0.13811183343235725051734164026129 244:1 1180:1 1394:1 1507:1 2352:1 2482:1 3121:1 #
0.13811183343235725051734164026129 1511:1 2177:1 2410:1 2943:1 3121:1 3352:1 3861:1 4041:1 #
0.13811183343235725051734164026129 2243:1 3121:1 #
0.0012049026022064274026035501918841 2648:1 3121:1 4525:1 #
-0.13811183343235725051734164026129 1055:1 1511:1 2325:1 2943:1 3121:1 3797:1 #
-0.13811183343235725051734164026129 162:1 1508:1 3121:1 3800:1 3861:1 4041:1 #
0.0012049026022059529557328705351438 2648:1 3121:1 3756:1 #
0.13811183343235725051734164026129 414:1 1204:1 1456:1 1635:1 2482:1 2610:1 2995:1 3121:1 #
0.13811183343235725051734164026129 2168:1 2482:1 3121:1 3319:1 #
-0.13811183343235725051734164026129 726:1 987:1 995:1 1239:1 1990:1 2482:1 3121:1 4510:1 4567:1 #
0.13811183343235725051734164026129 167:1 1511:1 1580:1 2648:1 3121:1 #
-0.13811183343235725051734164026129 1780:1 2352:1 2755:1 3121:1 3861:1 3962:1 4366:1 #
0.13811183343235725051734164026129 749:1 2186:1 3121:1 #
0.13811183343235725051734164026129 217:1 749:1 1343:1 3121:1 4057:1 #
0.13811183343235725051734164026129 119:1 1509:1 2167:1 3121:1 3578:1 4090:1 #
-0.13811183343235725051734164026129 1511:1 2025:1 3121:1 3842:1 4148:1 #
-0.13811183343235725051734164026129 755:1 2982:1 3121:1 3539:1 #
-0.13811183343235725051734164026129 1140:1 2279:1 3121:1 #
-0.13811183343235725051734164026129 1328:1 2362:1 3121:1 #
-0.063315262563919505467424642120022 65:1 581:1 1204:1 1324:1 1546:1 2445:1 2482:1 2543:1 2755:1 3376:1 3420:1 3578:1 3817:1 #
0.13811183343235725051734164026129 1204:1 1239:1 3974:1 4567:1 #
0.13811183343235725051734164026129 3121:1 4567:1 #
-0.13811183343235725051734164026129 2150:1 3121:1 4567:1 #
-0.13811183343235725051734164026129 2352:1 3063:1 3121:1 4057:1 #
0.13811183343235725051734164026129 347:1 2577:1 3121:1 4504:1 #
0.13811183343235725051734164026129 534:1 1187:1 2467:1 3121:1 #
0.13811183343235725051734164026129 2479:1 3121:1 3364:1 4320:1 #
-0.13811183343235725051734164026129 340:1 515:1 1580:1 2243:1 3121:1 #
-0.13811183343235725051734164026129 534:1 2467:1 3121:1 #
-0.13811183343235725051734164026129 534:1 3121:1 #
-0.035152027266046208253680305233502 252:1 3069:1 3121:1 3685:1 4439:1 #
0.13811183343235725051734164026129 762:1 1204:1 2573:1 2948:1 4567:1 #
0.054798578991474250488025177219242 678:1 754:1 781:1 863:1 925:1 1204:1 1388:1 1511:1 1636:1 2130:1 2513:1 2911:1 3433:1 3687:1 3777:1 3778:1 4047:1 4090:1 4311:1 #
-0.03674062063810583367295947709863 1200:1 1204:1 2170:1 3434:1 3600:1 4057:1 4453:1 #
0.13811183343235725051734164026129 2785:1 3121:1 4573:1 #
0.13811183343235725051734164026129 2785:1 3121:1 3914:1 #
0.13811183343235725051734164026129 2785:1 3121:1 #
0.13811183343235725051734164026129 2430:1 3121:1 #
0.13811183343235725051734164026129 3121:1 3185:1 #
-0.13811183343235725051734164026129 2003:1 3121:1 3185:1 3871:1 #
-0.13811183343235725051734164026129 749:1 2062:1 3121:1 3185:1 3667:1 3861:1 #
-0.13811183343235725051734164026129 3121:1 3185:1 4185:1 #
0.13811183343235725051734164026129 34:1 65:1 2364:1 2488:1 2543:1 2776:1 3121:1 4057:1 4090:1 4225:1 4325:1 #
0.13811183343235725051734164026129 1204:1 1635:1 2543:1 3007:1 4090:1 4225:1 #
-0.13811183343235725051734164026129 1511:1 3121:1 3871:1 4090:1 #
0.13811183343235725051734164026129 1752:1 3121:1 3185:1 #
0.13811183343235725051734164026129 364:1 834:1 1266:1 2148:1 3121:1 3214:1 3861:1 #
-0.13811183343235725051734164026129 33:1 34:1 1259:1 3121:1 3287:1 3777:1 3855:1 4041:1 4229:1 #
0.13811183343235725051734164026129 37:1 517:1 2482:1 3004:1 3067:1 3121:1 3752:1 3871:1 4259:1 #
-0.13811183343235725051734164026129 517:1 560:1 3121:1 4259:1 #
-0.13811183343235725051734164026129 333:1 476:1 517:1 1399:1 3121:1 #
-0.13811183343235725051734164026129 143:1 925:1 1511:1 2543:1 3121:1 3732:1 3871:1 #
0.13811183343235725051734164026129 499:1 2352:1 3121:1 3670:1 #
0.13811183343235725051734164026129 2150:1 3121:1 4057:1 #
0.13811183343235725051734164026129 1509:1 2943:1 3121:1 3871:1 4057:1 #
0.13811183343235725051734164026129 560:1 1415:1 1507:1 2362:1 3121:1 3436:1 #
0.12831309249517691695174903543375 3121:1 3185:1 4259:1 #
-0.050050627857462420822187709745776 51:1 252:1 3121:1 4266:1 4386:1 #
-0.1162532131704183402387542400902 44:1 252:1 466:1 1949:1 3121:1 3445:1 3457:1 3705:1 #
-0.13811183343235725051734164026129 476:1 2838:1 3121:1 3419:1 #
-0.13811183343235725051734164026129 308:1 3121:1 3445:1 4229:1 #
0.13811183343235725051734164026129 3121:1 3807:1 #
0.13811183343235725051734164026129 2070:1 3121:1 3934:1 #
0.072910797262709783894685244831635 1507:1 1900:1 2111:1 3081:1 3121:1 3861:1 #
0.020528446860139909491138610064809 42:1 142:1 639:1 1925:1 2477:1 2995:1 3121:1 4072:1 #
-0.13811183343235725051734164026129 8:1 39:1 2352:1 2606:1 3121:1 4582:1 #
-0.040760858305509954646606018968669 397:1 1628:1 2736:1 2755:1 3121:1 3705:1 4063:1 #
-0.13811183343235725051734164026129 3121:1 4033:1 4048:1 4428:1 #
-0.098340281357663802963564592118928 690:1 1204:1 1522:1 3121:1 3754:1 #
-0.13811183343235725051734164026129 3121:1 3858:1 #
0.13811183343235725051734164026129 1204:1 4041:1 4057:1 4436:1 #
0.13811183343235725051734164026129 303:1 435:1 3728:1 3861:1 #
0.13811183343235725051734164026129 558:1 3121:1 3705:1 #
0.13811183343235725051734164026129 333:1 925:1 1204:1 2371:1 3861:1 3974:1 #
0.11863567179296401199461996611717 39:1 1631:1 1670:1 2150:1 2467:1 2477:1 2479:1 2482:1 2795:1 3121:1 4053:1 #
0.13811183343235725051734164026129 252:1 518:1 1509:1 2482:1 3121:1 #
0.13811183343235725051734164026129 897:1 1961:1 2834:1 3121:1 4428:1 #
0.13811183343235725051734164026129 2352:1 2409:1 3121:1 #
-0.13811183343235725051734164026129 1855:1 3728:1 #
0.13811183343235725051734164026129 3121:1 4048:1 4259:1 #
0.13811183343235725051734164026129 2546:1 3121:1 3122:1 3363:1 3578:1 #
0.13811183343235725051734164026129 2279:1 3121:1 4196:1 #
0.13811183343235725051734164026129 217:1 2576:1 3121:1 #
-0.13811183343235725051734164026129 710:1 3121:1 3897:1 4134:1 4407:1 #
-0.069429155795968575115573173661687 1101:1 1474:1 3019:1 3063:1 3121:1 3185:1 3210:1 3473:1 4057:1 4462:1 #
-0.13811183343235725051734164026129 788:1 1387:1 1606:1 1795:1 2279:1 2352:1 2482:1 3121:1 3861:1 4041:1 4336:1 #
-0.13811183343235725051734164026129 3121:1 3861:1 3990:1 #
-0.13811183343235725051734164026129 3121:1 3861:1 #
-0.13811183343235725051734164026129 2257:1 3121:1 3488:1 3861:1 4314:1 #
-0.13811183343235725051734164026129 65:1 217:1 2421:1 3121:1 3563:1 #
-0.13811183343235725051734164026129 44:1 518:1 1511:1 2795:1 3121:1 #
-0.13811183343235725051734164026129 2325:1 2352:1 2482:1 3121:1 3429:1 3651:1 4339:1 #
-0.13811183343235725051734164026129 65:1 2421:1 2778:1 3121:1 3563:1 #
0.1240267650881277800012369993965 1432:1 1509:1 2709:1 3121:1 3861:1 3897:1 #
0.13811183343235725051734164026129 31:1 560:1 1162:1 1295:1 1620:1 2352:1 3081:1 3121:1 3985:1 #
0.13811183343235725051734164026129 1620:1 3121:1 3861:1 #
0.13811183343235725051734164026129 3121:1 3574:1 3653:1 3861:1 #
0.13811183343235725051734164026129 3121:1 3337:1 3861:1 #
-0.13811183343235725051734164026129 162:1 1821:1 3121:1 3861:1 #
-0.13811183343235725051734164026129 1445:1 3121:1 3856:1 3861:1 4237:1 4314:1 #
-0.13811183343235725051734164026129 1511:1 2352:1 2709:1 3121:1 3861:1 #
-0.13811183343235725051734164026129 217:1 1094:1 1580:1 2709:1 3121:1 3376:1 3861:1 4041:1 #
0.13811183343235725051734164026129 518:1 1207:1 1508:1 3121:1 3578:1 #
0.13811183343235725051734164026129 976:1 1199:1 1990:1 2177:1 2778:1 3121:1 4090:1 4449:1 #
0.13811183343235725051734164026129 65:1 1276:1 3121:1 #
0.13811183343235725051734164026129 162:1 3121:1 #
0.13811183343235725051734164026129 162:1 2994:1 3121:1 #
-0.13811183343235725051734164026129 749:1 1026:1 3121:1 3653:1 4198:1 #
-0.13811183343235725051734164026129 518:1 2543:1 3121:1 3574:1 3651:1 #
0.0031874588343038545192043020648498 2785:1 3121:1 3222:1 4259:1 #
0.042088289301584806689771056653626 656:1 2352:1 2709:1 3121:1 3861:1 #
0.13811183343235725051734164026129 2352:1 2709:1 3121:1 #
0.13811183343235725051734164026129 2352:1 2467:1 2709:1 3121:1 3861:1 #
-0.13811183343235725051734164026129 2253:1 2352:1 2709:1 3121:1 3376:1 3861:1 #
-0.13811183343235725051734164026129 1055:1 1996:1 2325:1 2371:1 2755:1 3121:1 3861:1 4270:1 #
-0.13811183343235725051734164026129 1628:1 2541:1 3121:1 3861:1 #
0.13811183343235725051734164026129 143:1 749:1 1568:1 2482:1 2705:1 3121:1 3728:1 3800:1 4018:1 4041:1 #
0.017533691671971010639374810580193 98:1 191:1 397:1 1201:1 1343:1 1460:1 2200:1 2482:1 3121:1 #
-0.13811183343235725051734164026129 217:1 252:1 1343:1 2482:1 3121:1 3414:1 3904:1 #
-0.032674667427037305811321488135945 252:1 2778:1 2844:1 3121:1 3339:1 #
-0.033186024690160915995296164737738 208:1 1509:1 1529:1 1949:1 1990:1 2755:1 3728:1 3861:1 #
0.11922491965947938641345871246813 2352:1 2409:1 2709:1 2755:1 3121:1 #
0.13811183343235725051734164026129 217:1 2409:1 3121:1 #
0.13811183343235725051734164026129 217:1 1134:1 3121:1 #
0.13811183343235725051734164026129 217:1 1225:1 3121:1 3578:1 #
-0.017747509942580591557614866360382 214:1 217:1 252:1 992:1 3121:1 #
-0.13811183343235725051734164026129 165:1 3121:1 3578:1 #
-0.13811183343235725051734164026129 653:1 3121:1 3649:1 3705:1 4505:1 #
-0.13811183343235725051734164026129 554:1 749:1 2838:1 3121:1 3705:1 #
0.13811183343235725051734164026129 245:1 499:1 886:1 1979:1 2325:1 2482:1 3121:1 3287:1 3728:1 4053:1 #
-0.13811183343235725051734164026129 414:1 442:1 1118:1 1603:1 2325:1 2477:1 2479:1 3121:1 #
0.13811183343235725051734164026129 691:1 3121:1 3666:1 3842:1 #
0.13811183343235725051734164026129 1900:1 3121:1 3861:1 #
0.0047291767012405767564575675976357 1239:1 2352:1 2606:1 3121:1 4567:1 #
0.13811183343235725051734164026129 476:1 1900:1 3121:1 3419:1 #
-0.13811183343235725051734164026129 1614:1 3121:1 4522:1 #
-0.13811183343235725051734164026129 1675:1 3121:1 3442:1 #
-0.13811183343235725051734164026129 1930:1 2693:1 3121:1 #
-0.13811183343235725051734164026129 1726:1 3121:1 4057:1 #
-0.13811183343235725051734164026129 2409:1 3325:1 3728:1 #
0.10532272973562759044163783528347 42:1 1511:1 1698:1 2477:1 2479:1 2482:1 2567:1 3121:1 3185:1 3540:1 3861:1 4259:1 #
0.13811183343235725051734164026129 162:1 2325:1 3121:1 #
0.13811183343235725051734164026129 2243:1 3121:1 4057:1 #
-0.0067590620081761443663226351930007 66:1 133:1 849:1 921:1 1204:1 1303:1 1745:1 2167:1 2482:1 2653:1 2795:1 2955:1 3089:1 3096:1 3888:1 4014:1 4225:1 4230:1 #
-0.13811183343235725051734164026129 162:1 2127:1 2325:1 3121:1 3801:1 3861:1 4338:1 #
-0.13811183343235725051734164026129 162:1 1979:1 3121:1 3185:1 #
-0.13811183343235725051734164026129 44:1 1511:1 1620:1 2325:1 3121:1 #
-0.13811183343235725051734164026129 252:1 1204:1 2243:1 2482:1 3121:1 3408:1 3861:1 4405:1 #
0.13811183343235725051734164026129 960:1 3121:1 #
0.13811183343235725051734164026129 960:1 3121:1 4021:1 #
0.13811183343235725051734164026129 821:1 3121:1 #
0.13811183343235725051734164026129 3121:1 #
0.13811183343235725051734164026129 3121:1 4596:1 #
-0.13811183343235725051734164026129 933:1 970:1 1281:1 1509:1 3121:1 #
-0.13811183343235725051734164026129 1294:1 3121:1 3555:1 4041:1 #
-0.12372557280342631746972159589859 33:1 2177:1 2795:1 3121:1 3227:1 3352:1 3550:1 #
-0.13811183343235725051734164026129 3121:1 3991:1 4230:1 #
-0.13811183343235725051734164026129 1668:1 3121:1 3805:1 3897:1 #
0.13811183343235725051734164026129 162:1 3121:1 3914:1 #
0.13811183343235725051734164026129 162:1 3121:1 4057:1 #
0.11575970209141644984285335340246 471:1 1127:1 1696:1 1998:1 2755:1 3013:1 3121:1 3637:1 3861:1 4080:1 4170:1 4522:1 #
-0.13811183343235725051734164026129 181:1 1348:1 1580:1 3121:1 4057:1 4370:1 #
-0.13811183343235725051734164026129 217:1 749:1 2261:1 3063:1 3121:1 4057:1 #
-0.022177106707039147964755088082711 397:1 847:1 3030:1 3121:1 4048:1 #
0.13811183343235725051734164026129 2325:1 3121:1 #
0.13811183343235725051734164026129 1030:1 2325:1 3121:1 #
0.13811183343235725051734164026129 2325:1 2833:1 3121:1 #
0.13811183343235725051734164026129 2325:1 2353:1 3121:1 #
-0.13811183343235725051734164026129 517:1 2200:1 2325:1 3121:1 4259:1 #
-0.13811183343235725051734164026129 1509:1 2325:1 2430:1 3121:1 4453:1 #
-0.13811183343235725051734164026129 2325:1 3121:1 3376:1 3861:1 4090:1 #
-0.13811183343235725051734164026129 690:1 1486:1 1905:1 2420:1 3121:1 4505:1 #
0.04583087325013975033005664272423 44:1 151:1 2352:1 2795:1 3121:1 4057:1 #
0.13811183343235725051734164026129 749:1 3121:1 #
0.13811183343235725051734164026129 560:1 749:1 2116:1 2186:1 3121:1 #
-0.13811183343235725051734164026129 560:1 749:1 1199:1 1990:1 3121:1 #
-0.13811183343235725051734164026129 2331:1 2653:1 3121:1 #
-0.13811183343235725051734164026129 2218:1 3121:1 3895:1 4041:1 #
-0.089340976825905457636700646162353 252:1 657:1 1486:1 3121:1 3802:1 #
-0.13811183343235725051734164026129 65:1 476:1 1511:1 2709:1 3121:1 #
0.13811183343235725051734164026129 2653:1 3121:1 3732:1 #
0.13811183343235725051734164026129 252:1 2051:1 2653:1 3121:1 3557:1 3794:1 4090:1 #
0.13811183343235725051734164026129 1509:1 3121:1 #
0.13811183343235725051734164026129 3121:1 3326:1 #
-0.13650613939799030593924555887497 125:1 1821:1 3121:1 3319:1 3780:1 4223:1 4513:1 #
-0.037311809496320180734585392201552 513:1 3068:1 3121:1 3563:1 3897:1 4198:1 #
-0.13811183343235725051734164026129 1113:1 3121:1 3185:1 3926:1 #
0.024319569734965539031801284863832 2648:1 3121:1 #
0.13811183343235725051734164026129 1471:1 1949:1 2709:1 3089:1 3121:1 #
0.13811183343235725051734164026129 3121:1 3185:1 3842:1 #
0.12214407168700835981667296437081 3121:1 3185:1 3378:1 4292:1 #
0.13811183343235725051734164026129 2243:1 3121:1 4465:1 #
0.095838084956332503239195830246899 114:1 464:1 1012:1 1089:1 1729:1 2063:1 2244:1 3121:1 4124:1 4395:1 4461:1 4576:1 #
-0.13811183343235725051734164026129 515:1 1076:1 2243:1 2873:1 3121:1 4441:1 #
-0.13811183343235725051734164026129 65:1 1511:1 2709:1 3121:1 #
0.13811183343235725051734164026129 499:1 1220:1 3121:1 3856:1 4370:1 #
0.13811183343235725051734164026129 3121:1 3856:1 #
0.13446545608236504243393483193358 587:1 730:1 932:1 1204:1 2482:1 3121:1 3261:1 3355:1 3488:1 3563:1 3609:1 3732:1 4457:1 #
0.13811183343235725051734164026129 1348:1 2430:1 3121:1 3861:1 4259:1 #
0.13811183343235725051734164026129 921:1 1135:1 2279:1 3121:1 3861:1 #
-0.13811183343235725051734164026129 1135:1 2279:1 3121:1 3284:1 #
-0.13811183343235725051734164026129 499:1 532:1 1509:1 1990:1 3121:1 3578:1 4144:1 #
0.13811183343235725051734164026129 3121:1 4057:1 4161:1 #
0.13811183343235725051734164026129 1399:1 3121:1 4057:1 #
0.13811183343235725051734164026129 3121:1 4057:1 4144:1 #
0.13811183343235725051734164026129 217:1 3121:1 4057:1 #
-0.13811183343235725051734164026129 740:1 1726:1 2614:1 3089:1 3121:1 4057:1 #
-0.13811183343235725051734164026129 1726:1 1956:1 2352:1 3121:1 4057:1 #
-0.13811183343235725051734164026129 1726:1 2352:1 3121:1 4057:1 #
-0.13811183343235725051734164026129 749:1 1328:1 2778:1 3121:1 4057:1 #
0.13811183343235725051734164026129 91:1 499:1 1775:1 2279:1 2482:1 2971:1 3121:1 3409:1 #
0.13811183343235725051734164026129 446:1 2025:1 2279:1 3121:1 3615:1 #
0.13811183343235725051734164026129 1187:1 1509:1 1603:1 2279:1 3121:1 #
-0.13675592747774548141315165139531 567:1 2025:1 2279:1 3121:1 3298:1 #
-0.13811183343235725051734164026129 517:1 2025:1 2279:1 3121:1 3842:1 #
-0.13811183343235725051734164026129 1931:1 2279:1 3121:1 4229:1 #
0.13811183343235725051734164026129 143:1 2352:1 3121:1 4057:1 #
0.13811183343235725051734164026129 749:1 3121:1 3253:1 4057:1 #
0.13811183343235725051734164026129 749:1 3121:1 4021:1 4057:1 #
0.13811183343235725051734164026129 3121:1 3378:1 4057:1 #
0.073298776460732392723507189202792 66:1 740:1 1579:1 2352:1 2606:1 3121:1 4090:1 #
0.13811183343235725051734164026129 2279:1 3121:1 3842:1 #
0.039010630117942993178026256373414 2279:1 2470:1 3121:1 3842:1 #
-0.13811183343235725051734164026129 66:1 3341:1 3728:1 3970:1 #
-0.082685449736985064395078381949133 884:1 1810:1 2311:1 3121:1 3134:1 #
-0.13811183343235725051734164026129 3121:1 3134:1 3934:1 #
0.13811183343235725051734164026129 711:1 1225:1 1580:1 3088:1 3121:1 3578:1 4505:1 #
-0.13811183343235725051734164026129 499:1 1204:1 1546:1 3121:1 3563:1 3578:1 3897:1 #
0.13811183343235725051734164026129 2122:1 3121:1 3861:1 3934:1 #
0.13811183343235725051734164026129 499:1 1911:1 2352:1 2411:1 2482:1 2614:1 3121:1 3728:1 3897:1 #
-0.13811183343235725051734164026129 181:1 1580:1 2352:1 3121:1 #
-0.13811183343235725051734164026129 463:1 831:1 1151:1 2411:1 3121:1 #
-0.13811183343235725051734164026129 2352:1 3121:1 3823:1 #
0.13811183343235725051734164026129 2430:1 3121:1 3671:1 #
0.11708988814914385312437872244118 66:1 2709:1 3121:1 3445:1 4041:1 4586:1 #
0.13811183343235725051734164026129 33:1 3121:1 4129:1 #
-0.13811183343235725051734164026129 66:1 1603:1 3121:1 3445:1 3651:1 4090:1 #
0.13811183343235725051734164026129 1134:1 2352:1 3121:1 #
0.13811183343235725051734164026129 2243:1 2403:1 3121:1 #
0.13811183343235725051734164026129 65:1 589:1 1226:1 2567:1 2676:1 3121:1 3897:1 #
-0.13811183343235725051734164026129 2243:1 3121:1 3861:1 4366:1 #
-0.13811183343235725051734164026129 144:1 2178:1 3121:1 #
-0.13811183343235725051734164026129 706:1 1330:1 3728:1 #
0.13811183343235725051734164026129 336:1 2795:1 3121:1 3871:1 4573:1 #
0.13811183343235725051734164026129 463:1 532:1 2543:1 3121:1 #
-0.03856707653309127820095980609949 252:1 619:1 1446:1 1888:1 2013:1 3121:1 3736:1 #
0.0091888407488945507417543723249764 333:1 499:1 1118:1 2409:1 3121:1 3705:1 3861:1 #
-0.13811183343235725051734164026129 217:1 252:1 2479:1 3121:1 4176:1 #
-0.11166924556519285116618078745887 340:1 515:1 2305:1 3121:1 4129:1 #
0.13811183343235725051734164026129 749:1 1199:1 3121:1 #
0.13811183343235725051734164026129 476:1 2755:1 3121:1 4531:1 #
0.13811183343235725051734164026129 863:1 3121:1 3705:1 #
0.13811183343235725051734164026129 217:1 1632:1 1677:1 3121:1 #
-0.13811183343235725051734164026129 1979:1 3121:1 #
-0.13811183343235725051734164026129 1055:1 3121:1 3653:1 3934:1 #
-0.13811183343235725051734164026129 3121:1 3298:1 3378:1 3934:1 #
-0.13811183343235725051734164026129 459:1 3121:1 3992:1 4092:1 4582:1 #
0.13811183343235725051734164026129 3034:1 3121:1 #
-0.13811183343235725051734164026129 237:1 881:1 3121:1 3429:1 3777:1 #
0.13811183343235725051734164026129 3121:1 3934:1 #
-0.13811183343235725051734164026129 3121:1 3705:1 3858:1 #
-0.13811183343235725051734164026129 2935:1 3121:1 3185:1 4217:1 #
0.095208129260646590097394437179901 560:1 591:1 2044:1 2477:1 2479:1 3052:1 3121:1 3887:1 #
-0.10456324245749951118433784813533 476:1 1486:1 3121:1 3653:1 4114:1 4390:1 #
-0.089355550352898563404302478829777 1906:1 1930:1 2427:1 2482:1 3121:1 4041:1 4048:1 4370:1 4457:1 #
0.13811183343235725051734164026129 333:1 3121:1 3653:1 3861:1 #
0.12280494028994762278905739094625 1957:1 2825:1 3121:1 3319:1 3705:1 3861:1 #
-0.13811183343235725051734164026129 542:1 2570:1 3650:1 3728:1 4229:1 4547:1 #
0.13811183343235725051734164026129 2177:1 3032:1 3121:1 3685:1 #
0.13811183343235725051734164026129 2352:1 2709:1 3121:1 3185:1 #
0.13811183343235725051734164026129 66:1 142:1 333:1 2409:1 3121:1 4048:1 4072:1 4567:1 #
-0.13811183343235725051734164026129 534:1 1103:1 3121:1 #
0.13811183343235725051734164026129 499:1 2943:1 3003:1 3121:1 4568:1 #
0.13811183343235725051734164026129 2329:1 3121:1 #
0.13811183343235725051734164026129 2994:1 3121:1 #
0.13811183343235725051734164026129 926:1 3121:1 3702:1 #
0.13811183343235725051734164026129 1677:1 3121:1 #
-0.13811183343235725051734164026129 477:1 3486:1 3728:1 #
-0.13811183343235725051734164026129 65:1 499:1 2421:1 3121:1 3407:1 #
-0.039307687784750744430795066364226 2305:1 3121:1 3198:1 3219:1 #
0.13811183343235725051734164026129 2186:1 3121:1 #
0.13811183343235725051734164026129 242:1 2186:1 3121:1 #
0.13811183343235725051734164026129 2062:1 2325:1 3121:1 #
0.13811183343235725051734164026129 2409:1 3121:1 3445:1 #
-0.13811183343235725051734164026129 2003:1 3121:1 3454:1 3861:1 #
0.032421278558460046859135417207654 2648:1 3121:1 3473:1 #
0.13811183343235725051734164026129 34:1 162:1 3121:1 4048:1 4259:1 #
-0.13811183343235725051734164026129 2243:1 3121:1 4229:1 4355:1 #
-0.13811183343235725051734164026129 1628:1 2822:1 3121:1 3861:1 #
-0.13811183343235725051734164026129 1328:1 1884:1 2071:1 3121:1 3861:1 #
-0.13811183343235725051734164026129 397:1 1328:1 3121:1 3861:1 #
0.048638063789533711456236630965577 2003:1 3121:1 4090:1 4501:1 #
0.13811183343235725051734164026129 1266:1 1460:1 3121:1 3364:1 #
-0.07371462361984522371205486024337 45:1 129:1 162:1 217:1 333:1 687:1 1146:1 1326:1 1511:1 1775:1 1990:1 2253:1 2482:1 3121:1 3319:1 3618:1 3695:1 3702:1 3736:1 3817:1 3985:1 4364:1 #
-0.13811183343235725051734164026129 33:1 97:1 254:1 1486:1 1557:1 2167:1 2261:1 2795:1 3121:1 3122:1 3817:1 3861:1 3899:1 4191:1 4400:1 4474:1 #
-0.13811183343235725051734164026129 560:1 749:1 1134:1 1949:1 2482:1 2568:1 2755:1 2838:1 3057:1 3107:1 3121:1 3363:1 3381:1 3578:1 3728:1 4048:1 4374:1 4428:1 #
-0.11137987074621012728581348483203 414:1 471:1 749:1 1632:1 2186:1 2325:1 2482:1 2543:1 3121:1 3133:1 3356:1 3407:1 4018:1 #
-0.13811183343235725051734164026129 44:1 292:1 1002:1 1414:1 2279:1 2516:1 3057:1 3121:1 3287:1 4057:1 #
0.13811183343235725051734164026129 217:1 477:1 690:1 1204:1 1266:1 1416:1 1603:1 1679:1 2116:1 2325:1 2362:1 2430:1 2482:1 3121:1 3125:1 3420:1 3429:1 3651:1 3802:1 4229:1 4428:1 #
0.13811183343235725051734164026129 217:1 1076:1 1486:1 1568:1 2482:1 3121:1 3376:1 3420:1 3445:1 3574:1 3871:1 #
0.13811183343235725051734164026129 217:1 560:1 640:1 706:1 1328:1 1455:1 1522:1 1669:1 2025:1 2303:1 2778:1 3052:1 3121:1 3133:1 3861:1 4122:1 #
0.13811183343235725051734164026129 732:1 1204:1 1401:1 2418:1 3861:1 4036:1 4041:1 #
0.090018836678714783672283772375522 830:1 1065:1 1204:1 1930:1 2025:1 2482:1 3341:1 3782:1 3861:1 4292:1 4308:1 4567:1 #
0.13811183343235725051734164026129 534:1 2467:1 3121:1 4090:1 #
-0.13811183343235725051734164026129 297:1 1204:1 1225:1 1509:1 1568:1 4225:1 #
-0.089790258202504955042932976994052 435:1 485:1 761:1 1204:1 1511:1 1842:1 2025:1 2403:1 2430:1 2482:1 2543:1 2755:1 3133:1 #
-0.13811183343235725051734164026129 535:1 1204:1 3007:1 #
-0.13811183343235725051734164026129 1204:1 3344:1 4567:1 #
0.13811183343235725051734164026129 1546:1 1990:1 2223:1 2795:1 3327:1 3728:1 #
0.0479388097587200370797155812852 278:1 281:1 347:1 380:1 725:1 863:1 1233:1 1817:1 2359:1 2477:1 2479:1 2665:1 3121:1 3138:1 3173:1 3352:1 3651:1 3866:1 4172:1 #
0.13811183343235725051734164026129 2330:1 2352:1 3121:1 #
0.13811183343235725051734164026129 1628:1 2982:1 3121:1 3861:1 4259:1 4292:1 #
0.066673204174683864398076593715814 162:1 656:1 2352:1 2482:1 2577:1 2812:1 3096:1 3121:1 3228:1 #
-0.13811183343235725051734164026129 383:1 1266:1 1522:1 1546:1 2606:1 3121:1 4273:1 #
-0.13811183343235725051734164026129 217:1 252:1 857:1 1299:1 1575:1 2409:1 2482:1 3121:1 3871:1 4497:1 #
-0.13811183343235725051734164026129 110:1 1615:1 2203:1 2482:1 2614:1 2819:1 2959:1 3121:1 3728:1 4036:1 #
0.13811183343235725051734164026129 1204:1 1990:1 2482:1 3653:1 3665:1 3728:1 4122:1 4229:1 4567:1 #
0.13811183343235725051734164026129 1204:1 1568:1 2482:1 3728:1 4041:1 4269:1 #
-0.13811183343235725051734164026129 577:1 925:1 962:1 1620:1 1900:1 1990:1 2482:1 2620:1 3121:1 3800:1 3884:1 #
-0.13811183343235725051734164026129 215:1 252:1 827:1 1064:1 1294:1 2244:1 2409:1 2482:1 2755:1 2778:1 3121:1 3728:1 3812:1 3856:1 #
-0.02517487521702157712844005743591 360:1 361:1 374:1 540:1 925:1 1198:1 1664:1 1715:1 1990:1 2002:1 2477:1 2479:1 2482:1 2795:1 3121:1 3185:1 3531:1 3540:1 3550:1 3578:1 3740:1 3995:1 4215:1 4217:1 4235:1 4567:1 4576:1 #
-0.071494379384413414557641885949124 402:1 885:1 1204:1 1768:1 1990:1 2411:1 2755:1 2837:1 3097:1 3273:1 3685:1 4567:1 #
-0.13811183343235725051734164026129 162:1 3121:1 3651:1 4292:1 #
0.13811183343235725051734164026129 42:1 749:1 2251:1 3081:1 3121:1 #
0.13811183343235725051734164026129 1309:1 1508:1 1568:1 1631:1 2261:1 3121:1 3420:1 3705:1 #
-0.13811183343235725051734164026129 188:1 1568:1 3121:1 3705:1 #
-0.13811183343235725051734164026129 3121:1 3420:1 3651:1 4090:1 #
-0.13811183343235725051734164026129 1508:1 1509:1 1568:1 2482:1 2631:1 3121:1 3578:1 4047:1 4412:1 #
-0.13811183343235725051734164026129 24:1 33:1 156:1 427:1 1080:1 1294:1 1580:1 1930:1 3121:1 3176:1 3636:1 3817:1 3998:1 4041:1 #
0.018250415683482287126926379983161 499:1 550:1 749:1 925:1 1077:1 1204:1 1507:1 1511:1 1541:1 1546:1 1597:1 1775:1 1990:1 2268:1 2325:1 2648:1 2696:1 2807:1 3007:1 3081:1 3121:1 3216:1 3457:1 3861:1 4090:1 #
-0.087198160973376279136992650364846 350:1 508:1 519:1 1064:1 1294:1 1394:1 1416:1 2042:1 2177:1 2352:1 2391:1 2482:1 2614:1 2696:1 2755:1 3089:1 3121:1 3261:1 3926:1 4090:1 4129:1 4336:1 4390:1 4428:1 4490:1 4570:1 #
-0.13811183343235725051734164026129 198:1 1511:1 2186:1 2785:1 3121:1 4259:1 #
0.13811183343235725051734164026129 1620:1 2279:1 3121:1 #
0.13811183343235725051734164026129 1949:1 3327:1 3728:1 4098:1 #
0.090193111333930472972575387302641 217:1 662:1 690:1 827:1 911:1 937:1 1204:1 1309:1 1328:1 1388:1 1508:1 1939:1 2095:1 2223:1 2401:1 2482:1 2499:1 2577:1 3121:1 3160:1 3319:1 3908:1 #
-0.13811183343235725051734164026129 627:1 1775:1 2785:1 3121:1 4144:1 #
0.13811183343235725051734164026129 2352:1 2754:1 3121:1 #
-0.13811183343235725051734164026129 446:1 822:1 1204:1 1347:1 1448:1 2137:1 2167:1 4090:1 4225:1 #
-0.13811183343235725051734164026129 188:1 230:1 410:1 1358:1 2070:1 3081:1 3115:1 3121:1 #
-0.13811183343235725051734164026129 34:1 2684:1 2795:1 3121:1 3133:1 #
0.13811183343235725051734164026129 34:1 65:1 743:1 1614:1 2404:1 2421:1 2482:1 2614:1 2770:1 3728:1 3861:1 #
0.12427714463941848255235100850769 707:1 758:1 885:1 1414:1 1486:1 1494:1 1507:1 1650:1 1990:1 2096:1 2177:1 2595:1 2837:1 2959:1 3121:1 3140:1 3312:1 3653:1 3861:1 3913:1 4047:1 4122:1 4567:1 #
0.13811183343235725051734164026129 1775:1 3121:1 #
-0.13811183343235725051734164026129 65:1 91:1 2482:1 3121:1 3627:1 3988:1 #
-0.022839508974040328981303105138068 79:1 131:1 217:1 360:1 361:1 499:1 749:1 947:1 1204:1 1973:1 1990:1 2054:1 2089:1 2482:1 3121:1 3319:1 3563:1 3782:1 #
-0.13811183343235725051734164026129 1775:1 3121:1 3705:1 4355:1 #
0.13811183343235725051734164026129 1204:1 3732:1 3861:1 4457:1 #
-0.13811183343235725051734164026129 217:1 3121:1 3376:1 3861:1 4090:1 #
-0.13811183343235725051734164026129 924:1 1141:1 1204:1 1508:1 1511:1 1632:1 2482:1 3121:1 3685:1 4122:1 #
0.13811183343235725051734164026129 3121:1 3337:1 #
0.13811183343235725051734164026129 518:1 1632:1 3121:1 #
-0.13811183343235725051734164026129 518:1 996:1 1297:1 1613:1 2129:1 2795:1 3121:1 3651:1 3897:1 4057:1 4436:1 #
-0.019170165733347323266944073338891 690:1 1295:1 1522:1 1883:1 2467:1 3121:1 #
0.054683477085739125300722918154861 1204:1 1448:1 1635:1 2717:1 2795:1 2881:1 2995:1 #
0.13811183343235725051734164026129 463:1 3121:1 3220:1 #
-0.13811183343235725051734164026129 760:1 1204:1 2708:1 4057:1 4225:1 #
-0.13811183343235725051734164026129 172:1 1204:1 3637:1 4170:1 4225:1 #
-0.069635631039868695069117165985517 535:1 1204:1 3007:1 4229:1 4473:1 #
-0.13811183343235725051734164026129 3121:1 3801:1 4057:1 4567:1 #
0.060838445910749605616274493513629 71:1 125:1 217:1 540:1 600:1 1511:1 1653:1 2140:1 2543:1 2957:1 2988:1 3121:1 3242:1 3490:1 3525:1 3624:1 3861:1 3866:1 3871:1 4041:1 4063:1 4090:1 4436:1 #
-0.13811183343235725051734164026129 217:1 414:1 2422:1 2653:1 3121:1 #
-0.022220652671391255550403798224579 515:1 1568:1 2482:1 3121:1 3578:1 3685:1 3933:1 3937:1 3995:1 4131:1 4301:1 4378:1 #
-0.13811183343235725051734164026129 2279:1 2409:1 2755:1 3121:1 3302:1 #
0.13811183343235725051734164026129 747:1 1511:1 1580:1 1745:1 3728:1 3855:1 4122:1 #
0.13811183343235725051734164026129 188:1 3728:1 3861:1 #
-0.13811183343235725051734164026129 335:1 402:1 2186:1 2736:1 3121:1 3801:1 #
-0.13811183343235725051734164026129 863:1 1348:1 3121:1 3172:1 #
0.11875911541069546217830321666042 1204:1 1631:1 2430:1 2534:1 2755:1 2863:1 3327:1 3651:1 4122:1 #
-0.029011696540005123962080446631262 150:1 245:1 381:1 788:1 1204:1 1352:1 1511:1 1546:1 1622:1 2477:1 2479:1 2482:1 3190:1 3705:1 3817:1 #
-0.13811183343235725051734164026129 188:1 1204:1 1600:1 2868:1 3578:1 #
-0.13811183343235725051734164026129 118:1 933:1 2279:1 2394:1 2755:1 3121:1 3816:1 3871:1 4409:1 4495:1 4540:1 #
-0.024656908322816906836694172966418 1235:1 2755:1 3066:1 3121:1 3352:1 3445:1 3651:1 3871:1 4090:1 4223:1 #
-0.044250882841878037832206160828719 31:1 33:1 287:1 522:1 822:1 1204:1 1347:1 2112:1 2795:1 3351:1 3868:1 4057:1 4225:1 4382:1 #
-0.10309692225213437644093517064903 34:1 1204:1 2795:1 4057:1 4225:1 4473:1 #
-0.13811183343235725051734164026129 535:1 1204:1 4212:1 #
-0.033106299085003731974552465544548 1204:1 4170:1 4225:1 #
0.13811183343235725051734164026129 749:1 2017:1 3121:1 #
-0.13811183343235725051734164026129 252:1 863:1 2325:1 2482:1 3121:1 3705:1 #
-0.13811183343235725051734164026129 1511:1 2709:1 3121:1 #
-0.13811183343235725051734164026129 336:1 2352:1 3121:1 3653:1 3861:1 #
-0.13811183343235725051734164026129 31:1 822:1 1347:1 2693:1 2795:1 3728:1 4106:1 4292:1 #
-0.08984928165467859217940826965787 1670:1 1949:1 2223:1 2430:1 2482:1 3063:1 3121:1 3728:1 3974:1 4229:1 4311:1 4439:1 #
-0.13811183343235725051734164026129 3121:1 3445:1 3665:1 3861:1 #
0.13811183343235725051734164026129 977:1 1135:1 1374:1 1508:1 2203:1 2279:1 2410:1 2653:1 2755:1 3121:1 3174:1 3285:1 3777:1 3933:1 4057:1 #
0.13811183343235725051734164026129 2755:1 3121:1 3705:1 4057:1 #
0.13811183343235725051734164026129 65:1 2482:1 3121:1 3185:1 3339:1 3578:1 3583:1 3926:1 4041:1 #
0.13811183343235725051734164026129 390:1 827:1 1294:1 1830:1 2381:1 2755:1 3121:1 3185:1 4111:1 #
0.13811183343235725051734164026129 3728:1 3861:1 4551:1 #
-0.059473632150090431636169086004884 33:1 34:1 262:1 266:1 397:1 519:1 549:1 1507:1 1546:1 1874:1 2243:1 2795:1 3121:1 3420:1 4048:1 #
-0.13811183343235725051734164026129 65:1 1511:1 2653:1 2709:1 3121:1 3861:1 #
0.02931895417777988233076769120089 142:1 499:1 518:1 1263:1 2717:1 2795:1 3121:1 3454:1 3668:1 3871:1 4134:1 4358:1 4400:1 4457:1 #
0.059001531141404717217824327235576 217:1 850:1 888:1 1035:1 1204:1 1343:1 1395:1 1434:1 1631:1 1771:1 2253:1 2437:1 2482:1 2543:1 2577:1 2606:1 2664:1 2916:1 2943:1 3044:1 3121:1 3160:1 3578:1 3871:1 4076:1 4225:1 4579:1 #
0.13811183343235725051734164026129 1055:1 1775:1 2122:1 3121:1 3861:1 3934:1 #
-0.13811183343235725051734164026129 1042:1 3121:1 3653:1 4567:1 #
0.13811183343235725051734164026129 397:1 3121:1 4057:1 #
0.015782145920581469589194512082031 162:1 258:1 2706:1 3728:1 4439:1 #
-0.019020636331344480118854534111961 508:1 1910:1 3121:1 3667:1 3835:1 4057:1 4134:1 #
-0.069727188371660642207672253789497 162:1 976:1 1568:1 1609:1 1990:1 2403:1 2430:1 2763:1 3578:1 3728:1 #
0.13811183343235725051734164026129 162:1 749:1 1199:1 3121:1 #
-0.13811183343235725051734164026129 477:1 1568:1 3728:1 #
-0.13811183343235725051734164026129 1348:1 3121:1 4314:1 #
-0.13811183343235725051734164026129 3121:1 3185:1 3861:1 4453:1 #
-0.13811183343235725051734164026129 224:1 300:1 749:1 2279:1 2352:1 2410:1 2482:1 2812:1 3121:1 3376:1 3705:1 3861:1 #
-0.079509293969745362118395348716149 208:1 259:1 508:1 1465:1 1508:1 1568:1 1631:1 2168:1 2352:1 2479:1 2482:1 2755:1 2782:1 2905:1 3121:1 3188:1 3363:1 3728:1 4266:1 4382:1 4547:1 #
0.13811183343235725051734164026129 364:1 962:1 1949:1 3728:1 4017:1 #
0.13811183343235725051734164026129 499:1 3121:1 3122:1 3445:1 3578:1 3653:1 4090:1 #
0.13811183343235725051734164026129 446:1 842:1 976:1 3121:1 3133:1 #
0.13811183343235725051734164026129 761:1 1546:1 2795:1 3578:1 3728:1 4041:1 #
-0.11539624114180679903540749364765 375:1 1511:1 2026:1 2430:1 3121:1 3312:1 3420:1 #
0.13811183343235725051734164026129 2070:1 2325:1 3121:1 3542:1 #
0.13811183343235725051734164026129 347:1 446:1 3121:1 3685:1 3802:1 4571:1 #
0.13811183343235725051734164026129 761:1 1204:1 1546:1 3216:1 3974:1 4041:1 #
0.13811183343235725051734164026129 2430:1 3121:1 3328:1 3695:1 4339:1 #
0.13811183343235725051734164026129 1204:1 1414:1 2516:1 3797:1 #
0.13811183343235725051734164026129 476:1 2543:1 3121:1 3782:1 4465:1 4567:1 #
0.13811183343235725051734164026129 863:1 3121:1 4018:1 #
0.13811183343235725051734164026129 863:1 2467:1 3121:1 #
0.13811183343235725051734164026129 217:1 3121:1 3938:1 #
0.13811183343235725051734164026129 16:1 3174:1 3728:1 4439:1 #
-0.13811183343235725051734164026129 446:1 2167:1 3728:1 4211:1 #
-0.13811183343235725051734164026129 1225:1 1631:1 1849:1 2479:1 3032:1 3121:1 3651:1 #
-0.13811183343235725051734164026129 162:1 2696:1 2935:1 3121:1 4217:1 #
-0.13811183343235725051734164026129 397:1 1628:1 2200:1 2477:1 2755:1 3121:1 3578:1 4057:1 #
0.13811183343235725051734164026129 652:1 1239:1 1546:1 1990:1 3121:1 3352:1 3363:1 4567:1 #
0.13811183343235725051734164026129 2325:1 2795:1 3121:1 3871:1 #
-0.12993498409385956238182302513451 351:1 1990:1 3121:1 3242:1 3377:1 4567:1 #
-0.13811183343235725051734164026129 3121:1 3185:1 4453:1 #
-0.13811183343235725051734164026129 217:1 885:1 925:1 1568:1 2606:1 3121:1 3794:1 3839:1 4041:1 4134:1 4199:1 #
-0.067539124186864710197575334404974 217:1 364:1 452:1 885:1 1127:1 1221:1 1494:1 1775:1 1874:1 1982:1 2413:1 2421:1 2570:1 2606:1 2966:1 3121:1 3736:1 4047:1 4048:1 #
-0.12637791592446132038496386940096 33:1 347:1 925:1 1204:1 1546:1 1990:1 2759:1 3121:1 3381:1 4310:1 #
0.13811183343235725051734164026129 2325:1 2409:1 3121:1 #
0.13811183343235725051734164026129 2251:1 3121:1 3685:1 #
-0.13811183343235725051734164026129 2325:1 3121:1 3134:1 #
-0.13811183343235725051734164026129 1511:1 2325:1 2995:1 3121:1 4567:1 #
