SVM-light Version V6.01
0 # kernel type
3 # kernel parameter -d 
1 # kernel parameter -g 
1 # kernel parameter -s 
1 # kernel parameter -r 
empty# kernel parameter -u 
2375 # highest feature index 
2102 # number of training documents 
700 # number of support vectors plus 1 
1.3464194 # threshold b, each following line is a SV (starting with alpha*y)
0.013098350029842213693154207021507 113:1 236:1 249:1 441:1 489:1 816:1 1382:1 2092:1 #
-0.05394736561928904772234005804421 352:1 441:1 534:1 816:1 950:1 1434:1 1556:1 1659:1 #
0.086941575962846309733045302436949 816:1 1621:1 1876:1 1941:1 #
-0.046235502586654056433879134146991 53:1 189:1 479:1 558:1 665:1 796:1 816:1 866:1 950:1 1411:1 1488:1 1523:1 1621:1 1886:1 2209:1 2284:1 #
0.13988976996574414846108425081184 816:1 950:1 1575:1 1876:1 2344:1 #
0.13988976996574414846108425081184 249:1 441:1 571:1 816:1 1316:1 1803:1 #
0.13988976996574414846108425081184 358:1 532:1 816:1 950:1 1659:1 #
0.13988976996574414846108425081184 816:1 1621:1 2326:1 #
-0.13988976996574414846108425081184 4:1 12:1 441:1 564:1 816:1 1136:1 1621:1 1869:1 #
0.13086887543065717220969190748292 816:1 1223:1 1260:1 1876:1 #
-0.10929657567678964513735451191678 20:1 21:1 117:1 532:1 564:1 816:1 990:1 1474:1 1621:1 2062:1 2301:1 2307:1 2344:1 #
-0.13988976996574414846108425081184 816:1 950:1 1786:1 1836:1 #
-0.13988976996574414846108425081184 816:1 1136:1 1621:1 1876:1 2344:1 #
-0.13988976996574414846108425081184 21:1 441:1 532:1 644:1 816:1 1136:1 1621:1 #
-0.13988976996574414846108425081184 374:1 441:1 816:1 1136:1 1217:1 1621:1 2344:1 #
0.13988976996574414846108425081184 189:1 313:1 441:1 659:1 866:1 950:1 1118:1 1240:1 1621:1 2085:1 #
0.13988976996574414846108425081184 6:1 182:1 183:1 189:1 816:1 950:1 1129:1 1164:1 1313:1 2017:1 2062:1 #
0.062025656891221983557649366503028 816:1 950:1 1609:1 #
0.081503065605237234869662188430084 28:1 30:1 87:1 134:1 189:1 238:1 511:1 532:1 754:1 816:1 950:1 1256:1 1292:1 1309:1 1353:1 1380:1 1639:1 1801:1 1836:1 #
0.13988976996574414846108425081184 809:1 816:1 950:1 1556:1 2349:1 #
-0.13988976996574414846108425081184 649:1 1118:1 1876:1 #
-0.028615687799515142353268259967081 346:1 403:1 722:1 816:1 1133:1 1621:1 1676:1 1787:1 2241:1 2341:1 #
-0.11603029189107236240907639057696 189:1 249:1 534:1 564:1 644:1 816:1 940:1 1080:1 1261:1 1316:1 1497:1 1578:1 1653:1 1730:1 1961:1 2145:1 #
-0.090781209659310052595415641008003 20:1 816:1 964:1 1393:1 1695:1 #
-0.093618972242796583138613186747534 816:1 925:1 1081:1 1386:1 2098:1 #
0.13988976996574414846108425081184 20:1 25:1 97:1 349:1 816:1 1621:1 #
0.13988976996574414846108425081184 249:1 582:1 754:1 816:1 1136:1 1693:1 2344:1 #
-0.12927633387309925283581435451197 54:1 860:1 1118:1 1155:1 1876:1 #
-0.12967742882724267450278432534105 816:1 1296:1 1403:1 1513:1 1621:1 1961:1 1965:1 2289:1 2344:1 #
0.13988976996574414846108425081184 45:1 816:1 939:1 967:1 1813:1 1989:1 #
0.013204410004506408893298896600754 441:1 816:1 1414:1 1621:1 #
-0.088756605107855143788064822274464 313:1 816:1 925:1 1138:1 1309:1 1333:1 1345:1 1388:1 1611:1 2142:1 2259:1 #
-0.0082707179539693587155824161527562 182:1 183:1 674:1 816:1 855:1 1045:1 2154:1 #
-0.015053317233911671368939977355694 441:1 767:1 816:1 821:1 865:1 925:1 950:1 1556:1 2174:1 2280:1 2303:1 #
-0.0543240612193349112213347495981 441:1 497:1 534:1 582:1 816:1 942:1 1434:1 1556:1 1619:1 2092:1 #
0.071533240465449010603293800159008 189:1 564:1 666:1 745:1 816:1 950:1 957:1 1138:1 1294:1 1309:1 1316:1 1432:1 1813:1 1989:1 2044:1 2118:1 #
0.13988976996574414846108425081184 113:1 480:1 633:1 816:1 #
0.13988976996574414846108425081184 20:1 189:1 367:1 534:1 644:1 811:1 816:1 1619:1 1935:1 2016:1 2018:1 2062:1 2229:1 #
0.078009547590070449363253146657371 20:1 21:1 249:1 338:1 389:1 479:1 532:1 663:1 816:1 864:1 950:1 1207:1 1536:1 1659:1 1836:1 1919:1 2356:1 #
0.09394588244761174766761513410529 189:1 292:1 315:1 414:1 684:1 762:1 816:1 950:1 1019:1 1316:1 1353:1 1629:1 1709:1 1766:1 1982:1 1999:1 2096:1 2280:1 #
-0.084888023991007074964265655125928 20:1 87:1 122:1 189:1 236:1 367:1 558:1 816:1 827:1 950:1 983:1 1058:1 1171:1 1368:1 1836:1 2023:1 2095:1 2280:1 2344:1 #
-0.13988976996574414846108425081184 816:1 950:1 1427:1 1836:1 #
-0.0029801179182511118755105616884293 20:1 21:1 23:1 189:1 209:1 317:1 532:1 693:1 759:1 770:1 816:1 827:1 1153:1 1281:1 1294:1 1316:1 1502:1 1659:1 1686:1 1886:1 1909:1 2062:1 2280:1 2344:1 #
0.13988976996574414846108425081184 816:1 925:1 950:1 1876:1 #
0.13988976996574414846108425081184 441:1 816:1 925:1 950:1 1939:1 #
0.10822323262098887397542057442479 55:1 182:1 183:1 264:1 265:1 377:1 390:1 395:1 479:1 495:1 506:1 534:1 757:1 791:1 801:1 816:1 1073:1 1136:1 1147:1 1376:1 1585:1 1621:1 1668:1 1724:1 1727:1 1886:1 1911:1 1945:1 2144:1 2280:1 2345:1 #
0.13988976996574414846108425081184 64:1 441:1 489:1 534:1 816:1 1333:1 1603:1 1621:1 #
0.13988976996574414846108425081184 41:1 249:1 558:1 767:1 803:1 816:1 841:1 873:1 950:1 1164:1 1371:1 1386:1 1390:1 1419:1 1556:1 1571:1 1799:1 1820:1 1929:1 2022:1 2154:1 2263:1 2346:1 #
0.13988976996574414846108425081184 441:1 489:1 497:1 534:1 816:1 1621:1 #
0.13988976996574414846108425081184 113:1 438:1 441:1 1118:1 #
-0.13988976996574414846108425081184 113:1 441:1 1118:1 1556:1 1558:1 1621:1 1813:1 2280:1 #
-0.13988976996574414846108425081184 146:1 257:1 816:1 1359:1 1621:1 1813:1 1876:1 1989:1 2012:1 2014:1 2077:1 2241:1 2254:1 #
-0.071323942425078334927945888921386 55:1 166:1 189:1 249:1 816:1 851:1 967:1 1346:1 1390:1 1611:1 1621:1 2028:1 2078:1 2226:1 2228:1 2238:1 #
-0.13988976996574414846108425081184 54:1 950:1 1118:1 1876:1 #
0.042797459358512784932671024762385 55:1 101:1 140:1 243:1 360:1 369:1 486:1 531:1 671:1 685:1 713:1 751:1 816:1 925:1 952:1 966:1 1030:1 1058:1 1303:1 1439:1 1467:1 1511:1 1554:1 1571:1 1621:1 1644:1 1707:1 1714:1 1719:1 1818:1 1839:1 1845:1 1885:1 1939:1 1944:1 2116:1 2238:1 2284:1 2345:1 #
0.13988976996574414846108425081184 83:1 183:1 189:1 287:1 372:1 407:1 419:1 499:1 598:1 816:1 876:1 950:1 1095:1 1232:1 1556:1 1672:1 1835:1 2274:1 2344:1 #
0.13988976996574414846108425081184 183:1 189:1 232:1 764:1 816:1 1147:1 1390:1 1550:1 1552:1 1609:1 1730:1 1965:1 2142:1 #
0.13988976996574414846108425081184 20:1 189:1 282:1 532:1 706:1 807:1 816:1 1556:1 1820:1 1945:1 1978:1 2154:1 2315:1 #
0.13988976996574414846108425081184 123:1 532:1 816:1 950:1 1316:1 1659:1 1836:1 #
0.10745480389457813530373897492609 189:1 246:1 313:1 334:1 369:1 816:1 883:1 1172:1 1260:1 1287:1 1556:1 1565:1 1740:1 1854:1 1911:1 1975:1 2152:1 2244:1 2290:1 2320:1 2344:1 #
-0.037995131676928861619302324470482 111:1 249:1 447:1 816:1 1136:1 1217:1 1813:1 2145:1 #
-0.077353141169467537485715524780971 268:1 816:1 955:1 1333:1 1630:1 1799:1 #
0.074526437162287559323736729766097 816:1 846:1 950:1 1876:1 #
0.093831134325636542103943327219895 801:1 816:1 1659:1 1876:1 #
0.013333357942961131595294155260945 441:1 816:1 1129:1 2083:1 #
0.13988976996574414846108425081184 113:1 317:1 1118:1 1316:1 1621:1 1911:1 2088:1 #
-0.13374512611437833209393488687056 453:1 816:1 950:1 1676:1 #
0.02250649459487276751734619040235 54:1 225:1 236:1 256:1 377:1 558:1 594:1 703:1 767:1 816:1 827:1 1048:1 1124:1 1202:1 1260:1 1301:1 1310:1 1562:1 1602:1 1621:1 1645:1 1664:1 1689:1 1697:1 1704:1 1756:1 1832:1 1876:1 1988:1 2143:1 2172:1 2244:1 2253:1 #
0.13988976996574414846108425081184 9:1 257:1 816:1 1094:1 1110:1 1217:1 1359:1 1556:1 1813:1 1836:1 2238:1 2347:1 #
-0.078143399917296865742066813709243 37:1 715:1 816:1 2229:1 #
-0.13988976996574414846108425081184 23:1 199:1 249:1 369:1 445:1 816:1 1526:1 1558:1 1813:1 1836:1 1892:1 2018:1 2092:1 #
-0.13988976996574414846108425081184 189:1 816:1 909:1 1074:1 1386:1 1621:1 1836:1 2238:1 #
-0.061654110491756161649412604219833 816:1 885:1 1749:1 2187:1 #
-0.13988976996574414846108425081184 544:1 816:1 1813:1 1958:1 #
-0.13988976996574414846108425081184 544:1 816:1 925:1 1536:1 1813:1 1989:1 #
0.13988976996574414846108425081184 532:1 816:1 1316:1 1556:1 1659:1 2328:1 #
0.13988976996574414846108425081184 111:1 473:1 564:1 816:1 876:1 925:1 950:1 1041:1 1135:1 1226:1 1494:1 1520:1 1537:1 1554:1 1556:1 1571:1 1619:1 1621:1 1645:1 1869:1 2262:1 #
0.13988976996574414846108425081184 12:1 189:1 816:1 873:1 924:1 1164:1 1556:1 1659:1 #
0.086074534759135484796033210841415 532:1 816:1 1813:1 1836:1 1945:1 2226:1 #
0.13988976996574414846108425081184 107:1 479:1 816:1 860:1 925:1 1556:1 1876:1 2229:1 #
-0.13988976996574414846108425081184 816:1 950:1 1792:1 2349:1 #
-0.13988976996574414846108425081184 506:1 600:1 816:1 1309:1 1536:1 #
7.295786190126907829345964673351e-05 816:1 950:1 1621:1 1813:1 2145:1 #
-0.0080456484922153143762857396836807 25:1 123:1 280:1 428:1 453:1 489:1 536:1 649:1 661:1 709:1 816:1 962:1 1108:1 1135:1 1206:1 1316:1 1453:1 1537:1 1556:1 1595:1 1609:1 1659:1 1820:1 1841:1 1918:1 1999:1 2018:1 2085:1 2154:1 2238:1 2280:1 #
0.028821629815117221634634958604693 11:1 189:1 249:1 441:1 534:1 653:1 816:1 1271:1 1621:1 1659:1 1716:1 2044:1 #
0.13988976996574414846108425081184 21:1 25:1 349:1 458:1 532:1 816:1 1836:1 2021:1 2154:1 #
0.13988976996574414846108425081184 816:1 1365:1 1989:1 2154:1 #
0.13988976996574414846108425081184 6:1 9:1 189:1 816:1 1118:1 1813:1 #
0.13988976996574414846108425081184 30:1 650:1 742:1 816:1 950:1 1235:1 1611:1 1676:1 #
0.13988976996574414846108425081184 649:1 742:1 812:1 816:1 950:1 981:1 1207:1 1222:1 1276:1 1531:1 1676:1 #
-0.13988976996574414846108425081184 113:1 816:1 1316:1 1589:1 #
0.13988976996574414846108425081184 816:1 1911:1 1965:1 #
-0.13988976996574414846108425081184 816:1 873:1 1390:1 1432:1 1989:1 #
-0.13988976996574414846108425081184 527:1 644:1 816:1 1164:1 1371:1 2016:1 #
-0.042082235838762936663837166406665 816:1 873:1 1390:1 1989:1 #
-0.13988976996574414846108425081184 334:1 506:1 816:1 1559:1 1669:1 2022:1 2344:1 #
0.13988976996574414846108425081184 816:1 950:1 1210:1 1536:1 1621:1 1832:1 2358:1 #
0.050951964562089384347398635100035 41:1 60:1 73:1 87:1 175:1 234:1 257:1 292:1 392:1 425:1 487:1 527:1 559:1 624:1 684:1 706:1 785:1 816:1 863:1 985:1 1006:1 1010:1 1089:1 1156:1 1316:1 1362:1 1386:1 1440:1 1458:1 1552:1 1556:1 1599:1 1619:1 1621:1 1659:1 1670:1 1726:1 1752:1 1784:1 1894:1 1911:1 1995:1 2059:1 2062:1 2078:1 2085:1 2141:1 2159:1 2181:1 2230:1 2271:1 2284:1 2290:1 2328:1 2332:1 #
0.13988976996574414846108425081184 249:1 816:1 950:1 1556:1 1659:1 #
0.13988976996574414846108425081184 816:1 950:1 1309:1 1556:1 1578:1 1621:1 1676:1 1719:1 1876:1 #
-0.0601064102692341825640021113486 230:1 249:1 750:1 816:1 882:1 950:1 1136:1 1210:1 1621:1 1659:1 1876:1 #
-0.13988976996574414846108425081184 816:1 1171:1 1386:1 1619:1 1659:1 1836:1 #
-0.13988976996574414846108425081184 60:1 441:1 816:1 950:1 1556:1 1621:1 #
-0.13988976996574414846108425081184 441:1 816:1 950:1 1556:1 1621:1 #
-0.13988976996574414846108425081184 189:1 644:1 658:1 816:1 950:1 1136:1 1621:1 1676:1 1876:1 #
0.0099937952404437462722297524919668 115:1 334:1 363:1 478:1 489:1 498:1 532:1 599:1 686:1 767:1 792:1 816:1 1061:1 1193:1 1316:1 1371:1 1521:1 1531:1 1836:1 1852:1 1961:1 #
0.13988976996574414846108425081184 369:1 527:1 626:1 1118:1 1125:1 1316:1 1915:1 2062:1 2344:1 #
0.13988976996574414846108425081184 113:1 534:1 816:1 1813:1 1989:1 #
0.13988976996574414846108425081184 816:1 1813:1 1989:1 #
-0.079534739673309221008601355151768 262:1 453:1 816:1 #
0.039842092434886802743143618954491 138:1 450:1 479:1 816:1 950:1 1151:1 1494:1 1609:1 #
-0.017129829270558113302191927118656 377:1 667:1 1118:1 1164:1 1813:1 1836:1 1989:1 #
-0.11009092803623787837352665519575 816:1 1141:1 1892:1 #
-0.0047437795917354688354783398551717 21:1 183:1 189:1 292:1 532:1 564:1 644:1 752:1 816:1 950:1 1164:1 1300:1 1818:1 1869:1 1982:1 #
0.13988976996574414846108425081184 374:1 441:1 644:1 816:1 950:1 1621:1 #
0.095027338458149174238442924433912 189:1 441:1 471:1 773:1 806:1 816:1 846:1 950:1 1164:1 1621:1 #
0.13448782496868985636417903606343 205:1 377:1 441:1 499:1 816:1 1617:1 1820:1 #
0.013380107111235509109725683174474 34:1 100:1 147:1 209:1 244:1 249:1 441:1 458:1 625:1 795:1 801:1 811:1 816:1 879:1 925:1 1012:1 1230:1 1320:1 1336:1 1346:1 1394:1 1395:1 1550:1 1621:1 1659:1 1686:1 1770:1 1845:1 1858:1 1940:1 1961:1 1991:1 2018:1 2106:1 2118:1 #
0.13988976996574414846108425081184 441:1 816:1 827:1 #
-0.069299479109382181030163394552801 367:1 534:1 816:1 827:1 836:1 950:1 1466:1 1803:1 2229:1 #
-0.13988976996574414846108425081184 189:1 532:1 816:1 950:1 1164:1 1550:1 2088:1 #
-0.13988976996574414846108425081184 162:1 189:1 249:1 334:1 816:1 898:1 950:1 1164:1 1621:1 2097:1 2205:1 #
-0.13988976996574414846108425081184 715:1 816:1 950:1 990:1 1537:1 #
0.13988976996574414846108425081184 816:1 1316:1 1556:1 #
0.13988976996574414846108425081184 377:1 1118:1 1609:1 2088:1 #
0.13988976996574414846108425081184 816:1 950:1 1136:1 1609:1 #
0.13988976996574414846108425081184 816:1 1556:1 #
-0.01548776578469738922361198518729 816:1 827:1 974:1 1153:1 1531:1 1619:1 1645:1 #
-0.13988976996574414846108425081184 113:1 441:1 816:1 1556:1 1832:1 #
-0.12519517288307016600334975464648 816:1 1616:1 1836:1 1978:1 #
-0.13988976996574414846108425081184 816:1 950:1 1349:1 1419:1 1609:1 #
0.13988976996574414846108425081184 441:1 644:1 816:1 2092:1 #
0.055014752776033397363431021176439 189:1 309:1 816:1 846:1 950:1 953:1 1863:1 1876:1 2133:1 #
0.015640771940225870612062308850909 50:1 249:1 816:1 925:1 1453:1 1570:1 1637:1 1659:1 1876:1 2328:1 #
0.13988976996574414846108425081184 210:1 249:1 497:1 610:1 816:1 873:1 1044:1 1408:1 1431:1 1617:1 1676:1 1820:1 #
-0.043957047253259641517164624247016 816:1 950:1 1164:1 1207:1 #
-0.13988976996574414846108425081184 249:1 816:1 1659:1 #
-0.092773872014068586855373155231064 249:1 304:1 816:1 1124:1 1286:1 1659:1 2344:1 #
-0.045091601627589718292998810511563 249:1 816:1 1316:1 1659:1 1719:1 2062:1 2280:1 #
-0.13988976996574414846108425081184 816:1 1659:1 2017:1 #
0.13988976996574414846108425081184 816:1 950:1 1486:1 1556:1 #
0.13988976996574414846108425081184 816:1 1056:1 1556:1 #
0.13988976996574414846108425081184 441:1 633:1 816:1 1556:1 1621:1 1939:1 #
0.13988976996574414846108425081184 441:1 644:1 715:1 816:1 2012:1 #
0.064724432558207797838711883287033 21:1 441:1 532:1 816:1 858:1 950:1 1492:1 1803:1 #
-0.13988976996574414846108425081184 441:1 644:1 715:1 816:1 1556:1 1621:1 #
-0.13988976996574414846108425081184 441:1 644:1 816:1 1556:1 1621:1 #
-0.11337215484657096886689231496348 257:1 441:1 715:1 816:1 950:1 1024:1 1051:1 1390:1 1556:1 1621:1 1719:1 1750:1 1813:1 1852:1 1940:1 1957:1 2284:1 #
-0.13988976996574414846108425081184 441:1 816:1 1556:1 1621:1 #
-0.13988976996574414846108425081184 441:1 532:1 816:1 950:1 1556:1 #
0.13988976996574414846108425081184 249:1 254:1 816:1 1659:1 2344:1 2367:1 #
0.13988976996574414846108425081184 115:1 189:1 249:1 816:1 833:1 1005:1 1316:1 1556:1 1659:1 1929:1 1945:1 2349:1 #
0.13988976996574414846108425081184 593:1 816:1 1659:1 2344:1 #
0.13988976996574414846108425081184 816:1 1621:1 1813:1 2145:1 #
0.13988976996574414846108425081184 302:1 722:1 816:1 1554:1 1556:1 1659:1 #
-0.13888546330926246352710506926087 346:1 736:1 816:1 950:1 990:1 1518:1 1659:1 2349:1 #
-0.13988976996574414846108425081184 221:1 453:1 479:1 816:1 904:1 1659:1 1671:1 1686:1 1876:1 2062:1 2344:1 #
-0.13988976996574414846108425081184 21:1 532:1 816:1 1583:1 1659:1 2344:1 #
-0.13988976996574414846108425081184 403:1 816:1 1659:1 1818:1 2133:1 #
-0.094923348304100610417499694904109 115:1 302:1 541:1 816:1 1554:1 2142:1 #
0.072539214724694336955401752220496 341:1 441:1 644:1 715:1 816:1 1621:1 #
0.066293087181401283425330461795966 29:1 30:1 313:1 340:1 441:1 472:1 715:1 816:1 827:1 1024:1 1124:1 1621:1 #
0.12198264630889661674917334721613 441:1 534:1 767:1 816:1 1268:1 1432:1 1621:1 #
-0.011689729250531070980922976332295 262:1 367:1 534:1 816:1 827:1 1046:1 1050:1 2229:1 2355:1 #
-0.028074543594665310464186802619224 441:1 489:1 534:1 644:1 816:1 869:1 1136:1 1621:1 #
-0.13988976996574414846108425081184 816:1 1005:1 1501:1 1621:1 1719:1 1945:1 2226:1 #
-0.13988976996574414846108425081184 816:1 1416:1 1617:1 1621:1 1812:1 #
-0.13988976996574414846108425081184 564:1 816:1 1621:1 1942:1 2168:1 #
-0.13988976996574414846108425081184 795:1 816:1 996:1 1621:1 1645:1 1876:1 2018:1 #
0.13988976996574414846108425081184 816:1 1556:1 1659:1 #
0.13988976996574414846108425081184 816:1 950:1 990:1 1659:1 2161:1 #
0.13988976996574414846108425081184 334:1 532:1 816:1 1118:1 2228:1 #
-0.03434267241528483893819867489583 23:1 816:1 1749:1 1903:1 #
0.060461932144778761377690301515031 20:1 35:1 55:1 309:1 363:1 649:1 746:1 816:1 926:1 1095:1 1554:1 1629:1 1659:1 1756:1 1818:1 2133:1 2228:1 2318:1 2348:1 #
-0.13988976996574414846108425081184 511:1 532:1 816:1 1619:1 1659:1 1860:1 2228:1 2280:1 #
-0.061596891177249361859491472159789 27:1 55:1 249:1 420:1 500:1 534:1 764:1 767:1 816:1 877:1 950:1 1494:1 1631:1 1651:1 2228:1 2363:1 #
-0.13988976996574414846108425081184 715:1 816:1 950:1 1420:1 1619:1 1637:1 1813:1 #
-0.13988976996574414846108425081184 801:1 816:1 962:1 1070:1 1316:1 1458:1 1659:1 2228:1 #
-0.084984774312274830032620798192511 242:1 387:1 816:1 879:1 950:1 1316:1 1650:1 1659:1 1677:1 2003:1 2044:1 #
0.13988976996574414846108425081184 113:1 138:1 189:1 318:1 816:1 1316:1 1621:1 1801:1 2016:1 #
0.028073033227230450442624132278979 113:1 376:1 537:1 630:1 816:1 1621:1 1813:1 1989:1 2018:1 #
-0.058350260511527501927631078615377 816:1 1156:1 2152:1 #
0.13988976996574414846108425081184 816:1 1553:1 1621:1 2344:1 #
0.13988976996574414846108425081184 534:1 644:1 816:1 1621:1 1876:1 #
-0.035826434078258299897878913498062 281:1 441:1 816:1 1556:1 #
-0.036834748146305849869630577586577 73:1 386:1 441:1 816:1 821:1 929:1 950:1 1362:1 1556:1 2332:1 #
-0.048511324008674298891019560642235 21:1 111:1 113:1 479:1 532:1 534:1 816:1 957:1 1113:1 1137:1 1482:1 1486:1 1552:1 1621:1 1779:1 1791:1 2092:1 2135:1 #
-0.13988976996574414846108425081184 816:1 1056:1 1485:1 1621:1 #
0.13988976996574414846108425081184 21:1 23:1 37:1 816:1 871:1 1234:1 1252:1 1619:1 1766:1 1971:1 2150:1 2204:1 2221:1 #
0.13988976996574414846108425081184 221:1 554:1 816:1 950:1 #
0.13988976996574414846108425081184 380:1 381:1 816:1 950:1 1933:1 2018:1 2044:1 2304:1 #
0.13988976996574414846108425081184 564:1 666:1 745:1 816:1 950:1 994:1 1153:1 1719:1 1876:1 2012:1 2044:1 2062:1 #
0.13988976996574414846108425081184 816:1 950:1 1609:1 2280:1 #
-0.13988976996574414846108425081184 54:1 124:1 182:1 183:1 189:1 816:1 950:1 1411:1 1609:1 1836:1 1913:1 #
-0.13988976996574414846108425081184 816:1 950:1 1556:1 1609:1 2088:1 #
-0.13988976996574414846108425081184 438:1 816:1 950:1 1486:1 1836:1 #
-0.087786646695992939792851927904849 816:1 1891:1 #
-0.13988976996574414846108425081184 221:1 479:1 816:1 950:1 1609:1 2062:1 #
-0.019600118191423949315366215273571 441:1 786:1 816:1 1556:1 #
-0.13988976996574414846108425081184 66:1 84:1 189:1 700:1 816:1 939:1 1316:1 1621:1 1929:1 #
-0.10060049676556037656638409316656 23:1 189:1 249:1 595:1 786:1 816:1 844:1 1092:1 1294:1 1454:1 1621:1 1659:1 1929:1 #
-0.0136243543634813318171650209365 20:1 113:1 183:1 189:1 278:1 292:1 296:1 556:1 713:1 765:1 816:1 844:1 925:1 1056:1 1204:1 1294:1 1494:1 1929:1 1982:1 2304:1 #
-0.040252073757447194568559467597879 249:1 374:1 441:1 816:1 1556:1 1929:1 1945:1 2118:1 #
-0.10971566721729435200938240768664 249:1 816:1 1386:1 1799:1 1929:1 1945:1 #
0.13988976996574414846108425081184 7:1 816:1 950:1 1836:1 #
0.13988976996574414846108425081184 633:1 816:1 950:1 1836:1 #
0.13988976996574414846108425081184 434:1 534:1 816:1 950:1 1019:1 1460:1 #
0.13988976996574414846108425081184 113:1 478:1 532:1 816:1 1322:1 2145:1 2228:1 #
0.13988976996574414846108425081184 816:1 950:1 1165:1 1207:1 1965:1 #
-0.053654631726082979703562614304246 113:1 115:1 182:1 183:1 236:1 532:1 534:1 816:1 950:1 1249:1 1752:1 2159:1 2330:1 #
-0.13988976996574414846108425081184 816:1 950:1 1836:1 1978:1 #
-0.12252522783473598910752855317696 32:1 532:1 666:1 816:1 863:1 950:1 1008:1 1055:1 1213:1 #
-0.13988976996574414846108425081184 816:1 950:1 1566:1 1659:1 1764:1 2344:1 #
0.13988976996574414846108425081184 249:1 479:1 816:1 1621:1 1929:1 2142:1 2181:1 2335:1 #
0.13988976996574414846108425081184 816:1 1621:1 1945:1 2118:1 2181:1 2182:1 #
0.13988976996574414846108425081184 249:1 379:1 532:1 816:1 1945:1 2226:1 2336:1 #
0.13988976996574414846108425081184 249:1 334:1 816:1 1365:1 1621:1 2142:1 2205:1 #
0.13988976996574414846108425081184 6:1 146:1 189:1 249:1 441:1 761:1 816:1 1314:1 1371:1 1407:1 1575:1 1965:1 #
-0.052667560188325517056551205996584 115:1 249:1 532:1 534:1 684:1 816:1 990:1 1035:1 1099:1 1362:1 1629:1 1782:1 1965:1 2029:1 #
-0.13988976996574414846108425081184 249:1 377:1 816:1 1217:1 1621:1 2001:1 #
-0.13988976996574414846108425081184 691:1 816:1 846:1 1054:1 2120:1 2142:1 2335:1 #
-0.13988976996574414846108425081184 100:1 644:1 715:1 816:1 1222:1 1371:1 1621:1 2145:1 #
0.13988976996574414846108425081184 363:1 564:1 816:1 950:1 1807:1 1836:1 2238:1 2334:1 2344:1 #
0.13988976996574414846108425081184 816:1 950:1 1486:1 2044:1 #
0.13988976996574414846108425081184 221:1 816:1 822:1 915:1 950:1 1056:1 1659:1 #
0.13988976996574414846108425081184 374:1 816:1 925:1 950:1 2083:1 #
-0.10702871873804266356078329636148 479:1 816:1 925:1 950:1 1569:1 2014:1 2044:1 #
-0.13988976996574414846108425081184 479:1 816:1 950:1 1124:1 1876:1 2238:1 2242:1 #
-0.059724079651823011594125034662284 30:1 31:1 189:1 221:1 479:1 532:1 667:1 816:1 860:1 950:1 1118:1 1359:1 2222:1 2280:1 2373:1 #
-0.13988976996574414846108425081184 816:1 950:1 1695:1 2044:1 #
0.13988976996574414846108425081184 358:1 644:1 715:1 816:1 1621:1 #
0.13988976996574414846108425081184 358:1 644:1 715:1 816:1 1621:1 2344:1 #
0.13988976996574414846108425081184 816:1 1096:1 1244:1 1316:1 1621:1 2344:1 #
0.13988976996574414846108425081184 441:1 644:1 715:1 816:1 #
-0.13988976996574414846108425081184 644:1 816:1 1485:1 1621:1 #
-0.073222759884721835832444014613429 644:1 673:1 715:1 816:1 1668:1 2334:1 #
-0.0087183511505222778537049777014545 154:1 644:1 809:1 816:1 1621:1 1965:1 #
0.13359036162507817446787328208302 20:1 31:1 479:1 527:1 532:1 816:1 820:1 838:1 916:1 950:1 1344:1 1713:1 1929:1 2068:1 #
0.13988976996574414846108425081184 479:1 816:1 950:1 1318:1 #
0.13988976996574414846108425081184 115:1 479:1 532:1 816:1 950:1 1371:1 1549:1 1609:1 1638:1 1961:1 #
0.13988976996574414846108425081184 527:1 816:1 950:1 1171:1 1609:1 1670:1 2062:1 #
-0.020232646191852374228936639610765 816:1 1407:1 2062:1 2344:1 #
-0.13988976996574414846108425081184 257:1 321:1 816:1 883:1 950:1 1241:1 1494:1 1609:1 1659:1 1775:1 1790:1 2062:1 #
-0.13988976996574414846108425081184 20:1 21:1 374:1 527:1 532:1 809:1 816:1 950:1 990:1 1621:1 1659:1 1818:1 2344:1 #
-0.12132355636744089621981146365215 571:1 816:1 1316:1 1566:1 2215:1 #
-0.05538804709362211975420819953797 189:1 534:1 564:1 816:1 950:1 1346:1 1377:1 1447:1 #
0.13988976996574414846108425081184 185:1 426:1 816:1 1965:1 #
0.13988976996574414846108425081184 441:1 644:1 715:1 816:1 1836:1 2238:1 #
0.07894535082934235614704476802217 335:1 816:1 1621:1 1876:1 1965:1 #
0.13988976996574414846108425081184 249:1 666:1 816:1 2118:1 2256:1 #
-0.13988976996574414846108425081184 249:1 759:1 1118:1 1645:1 1803:1 1836:1 1876:1 1967:1 2118:1 2347:1 #
-0.053283912893723237025334071859106 127:1 249:1 479:1 816:1 1336:1 2022:1 2344:1 #
-0.024803155689892841112564880745595 816:1 1518:1 1686:1 1836:1 #
0.13988976996574414846108425081184 757:1 816:1 950:1 1876:1 #
0.027937569549970436150188035639985 21:1 225:1 310:1 757:1 816:1 950:1 1286:1 1317:1 1611:1 1616:1 1629:1 1659:1 1818:1 1911:1 1926:1 2040:1 2053:1 2092:1 2163:1 2302:1 #
0.13988976996574414846108425081184 534:1 701:1 816:1 950:1 1621:1 #
0.081314182354067204849812355860195 816:1 950:1 990:1 1619:1 1659:1 1790:1 1876:1 #
-0.13988976996574414846108425081184 12:1 757:1 816:1 950:1 1611:1 1676:1 2193:1 2238:1 #
-0.13988976996574414846108425081184 706:1 816:1 950:1 1371:1 1621:1 1961:1 #
-0.13988976996574414846108425081184 123:1 257:1 684:1 761:1 816:1 950:1 1156:1 1621:1 1659:1 1663:1 2011:1 2238:1 #
-0.13988976996574414846108425081184 441:1 816:1 950:1 1556:1 #
-0.13988976996574414846108425081184 816:1 950:1 1486:1 1621:1 #
0.053007928824948272183981146099541 321:1 497:1 558:1 564:1 614:1 816:1 1084:1 1238:1 1463:1 1494:1 1621:1 1687:1 1813:1 2014:1 2072:1 2180:1 2344:1 #
0.13988976996574414846108425081184 81:1 189:1 816:1 1127:1 1947:1 2233:1 2290:1 2344:1 #
0.13988976996574414846108425081184 409:1 816:1 2344:1 #
0.13988976996574414846108425081184 422:1 816:1 841:1 1340:1 1476:1 1556:1 1813:1 2226:1 #
0.13988976996574414846108425081184 532:1 816:1 827:1 1316:1 1536:1 1659:1 1836:1 1940:1 1991:1 #
-0.13988976996574414846108425081184 816:1 925:1 1068:1 2344:1 #
-0.13988976996574414846108425081184 374:1 816:1 827:1 1621:1 1978:1 #
-0.13988976996574414846108425081184 1118:1 1876:1 2344:1 #
-0.13988976996574414846108425081184 816:1 2344:1 #
-0.13988976996574414846108425081184 816:1 1659:1 #
0.035955444268830662191138713978944 115:1 441:1 742:1 816:1 950:1 1371:1 1453:1 1621:1 1676:1 1961:1 #
0.13988976996574414846108425081184 816:1 819:1 950:1 1621:1 #
0.13988976996574414846108425081184 816:1 950:1 1621:1 2267:1 #
0.13988976996574414846108425081184 816:1 819:1 950:1 1621:1 1734:1 #
0.13988976996574414846108425081184 816:1 950:1 1621:1 2326:1 #
-0.13988976996574414846108425081184 534:1 816:1 829:1 950:1 1419:1 1621:1 1965:1 #
-0.13988976996574414846108425081184 487:1 532:1 816:1 950:1 1316:1 1420:1 1621:1 #
-0.025995295869904205821043774449208 441:1 715:1 816:1 950:1 1024:1 1136:1 1586:1 1621:1 1975:1 #
-0.061384399957885242560262639699431 816:1 1136:1 1621:1 1876:1 #
-0.13988976996574414846108425081184 441:1 558:1 816:1 950:1 1136:1 1621:1 #
0.13988976996574414846108425081184 816:1 1244:1 2344:1 #
0.13988976996574414846108425081184 262:1 816:1 1230:1 2114:1 #
0.13988976996574414846108425081184 816:1 921:1 1333:1 #
0.036970151867304727744123482580108 189:1 607:1 680:1 816:1 974:1 1577:1 1876:1 2143:1 2344:1 #
-0.0022626938317732866144671444175174 189:1 278:1 309:1 816:1 1127:1 1222:1 1750:1 1936:1 #
-0.13988976996574414846108425081184 713:1 816:1 1402:1 1876:1 #
-0.10735175367312989325174754640102 107:1 816:1 1333:1 1541:1 2120:1 #
-0.13988976996574414846108425081184 377:1 499:1 544:1 816:1 1365:1 #
-0.13988976996574414846108425081184 564:1 816:1 1011:1 1749:1 #
0.13988976996574414846108425081184 54:1 441:1 534:1 816:1 950:1 #
0.13988976996574414846108425081184 7:1 558:1 816:1 950:1 1316:1 1419:1 1659:1 #
0.13988976996574414846108425081184 21:1 441:1 816:1 950:1 1425:1 #
0.13988976996574414846108425081184 31:1 182:1 199:1 441:1 816:1 950:1 1621:1 #
-0.070595279853115783241790381907776 37:1 177:1 182:1 183:1 558:1 607:1 715:1 816:1 833:1 950:1 1316:1 1523:1 1537:1 1617:1 1619:1 1712:1 1836:1 2087:1 #
-0.13988976996574414846108425081184 34:1 441:1 461:1 816:1 950:1 1676:1 2062:1 #
-0.078904867700005210107150332987658 182:1 742:1 816:1 950:1 1129:1 1312:1 1621:1 1786:1 2170:1 2280:1 #
-0.13988976996574414846108425081184 441:1 544:1 816:1 950:1 #
0.13988976996574414846108425081184 53:1 356:1 363:1 550:1 742:1 816:1 925:1 1353:1 1556:1 1621:1 1676:1 1805:1 1820:1 #
0.13988976996574414846108425081184 112:1 377:1 499:1 816:1 1836:1 #
0.13988976996574414846108425081184 499:1 816:1 1966:1 #
0.13988976996574414846108425081184 564:1 816:1 1126:1 #
0.13988976996574414846108425081184 123:1 816:1 860:1 #
-0.085223026916201496949732074881467 28:1 268:1 816:1 860:1 1758:1 #
-0.070676715670568310279087143044308 31:1 302:1 816:1 924:1 1035:1 1176:1 1945:1 1968:1 2209:1 2330:1 #
-0.13459012584244753329976163058745 816:1 1453:1 1659:1 1731:1 2017:1 #
-0.13988976996574414846108425081184 564:1 816:1 990:1 1308:1 #
-0.018137517347974332210247538910153 816:1 842:1 862:1 1432:1 1891:1 #
-0.042696180459775377735720525151919 347:1 497:1 809:1 816:1 1621:1 #
0.13988976996574414846108425081184 816:1 950:1 1065:1 1609:1 2016:1 2062:1 #
0.13988976996574414846108425081184 12:1 527:1 816:1 950:1 1666:1 #
0.13988976996574414846108425081184 487:1 532:1 633:1 816:1 950:1 #
-0.055628116394635628016995809730361 309:1 816:1 883:1 907:1 #
-0.067539840613936114044335567996313 816:1 950:1 1589:1 2012:1 2362:1 #
-0.13988976996574414846108425081184 534:1 816:1 950:1 1530:1 2092:1 #
0.13988976996574414846108425081184 473:1 553:1 571:1 816:1 990:1 1621:1 #
0.13988976996574414846108425081184 54:1 189:1 281:1 441:1 816:1 1961:1 #
-0.13988976996574414846108425081184 441:1 816:1 1333:1 1556:1 1621:1 #
-0.13988976996574414846108425081184 113:1 441:1 532:1 816:1 1204:1 1556:1 #
-0.087651373915346886267485615462647 189:1 309:1 460:1 562:1 816:1 1416:1 1418:1 1619:1 1621:1 1832:1 1837:1 #
-0.045131706509517074965565086586139 167:1 189:1 441:1 811:1 816:1 1157:1 1556:1 2344:1 #
-0.043312649691794609385642189636201 54:1 133:1 816:1 864:1 1680:1 1767:1 #
0.13988976996574414846108425081184 816:1 950:1 1149:1 1712:1 1876:1 #
0.13988976996574414846108425081184 644:1 816:1 950:1 1876:1 2145:1 #
0.13988976996574414846108425081184 801:1 816:1 950:1 1125:1 1625:1 1659:1 #
-0.066865693237744813770540019959299 406:1 527:1 809:1 816:1 950:1 994:1 1164:1 1371:1 1621:1 1863:1 1873:1 1876:1 2086:1 2097:1 2317:1 #
-0.13988976996574414846108425081184 111:1 816:1 950:1 1371:1 1739:1 1961:1 #
-0.13988976996574414846108425081184 816:1 950:1 1316:1 2044:1 #
0.13988976996574414846108425081184 113:1 816:1 1335:1 1344:1 #
0.13988976996574414846108425081184 816:1 1284:1 1536:1 1621:1 #
-0.13988976996574414846108425081184 304:1 392:1 494:1 816:1 1621:1 1659:1 2229:1 #
-0.13988976996574414846108425081184 12:1 271:1 564:1 770:1 816:1 822:1 950:1 1621:1 1869:1 #
-0.093891614103972495519734309255 816:1 1149:1 1441:1 1776:1 2145:1 #
0.13988976996574414846108425081184 441:1 816:1 950:1 1832:1 1836:1 #
0.13988976996574414846108425081184 441:1 816:1 839:1 1695:1 #
0.13988976996574414846108425081184 441:1 816:1 1333:1 #
0.13988976996574414846108425081184 441:1 816:1 1316:1 2228:1 #
0.10710367723977530507450950381099 113:1 441:1 816:1 950:1 1290:1 1619:1 1836:1 #
-0.13988976996574414846108425081184 249:1 441:1 544:1 816:1 863:1 1965:1 2290:1 #
-0.045574676096641272837750591406802 225:1 816:1 1090:1 1559:1 2005:1 2226:1 #
-0.13988976996574414846108425081184 816:1 1316:1 1719:1 1734:1 2044:1 #
0.13988976996574414846108425081184 168:1 296:1 363:1 725:1 816:1 950:1 1318:1 1556:1 1621:1 1659:1 #
0.13988976996574414846108425081184 816:1 950:1 1212:1 1621:1 1659:1 1977:1 2326:1 #
0.13988976996574414846108425081184 97:1 377:1 816:1 1621:1 2226:1 #
0.13988976996574414846108425081184 111:1 487:1 816:1 1621:1 2326:1 #
-0.13988976996574414846108425081184 816:1 902:1 950:1 1486:1 1621:1 #
-0.13988976996574414846108425081184 441:1 816:1 950:1 1136:1 1621:1 #
-0.13988976996574414846108425081184 766:1 816:1 1621:1 1695:1 #
-0.06256396038545754267889975608341 30:1 33:1 280:1 558:1 816:1 950:1 1071:1 1526:1 #
0.13988976996574414846108425081184 123:1 249:1 334:1 816:1 1316:1 #
0.072059825491531712127191156014305 29:1 162:1 218:1 816:1 1129:1 1609:1 1832:1 1965:1 #
0.12313565102196370737441810661039 52:1 86:1 95:1 254:1 478:1 488:1 579:1 816:1 825:1 894:1 1279:1 1909:1 1929:1 #
-0.13988976996574414846108425081184 264:1 377:1 541:1 767:1 801:1 816:1 845:1 1928:1 1945:1 2154:1 #
-0.030677870707920502912902094294623 115:1 257:1 661:1 816:1 976:1 1061:1 1145:1 1156:1 1344:1 1372:1 1538:1 1659:1 1841:1 #
-0.13988976996574414846108425081184 384:1 816:1 1235:1 1659:1 #
-0.059723514966586302432638433401735 111:1 115:1 313:1 750:1 761:1 816:1 839:1 1164:1 1419:1 1659:1 #
-0.13988976996574414846108425081184 554:1 556:1 816:1 1020:1 1619:1 #
0.13988976996574414846108425081184 816:1 950:1 1598:1 1621:1 2118:1 2345:1 #
0.13988976996574414846108425081184 816:1 1244:1 1621:1 1695:1 #
0.13988976996574414846108425081184 185:1 816:1 1621:1 #
0.13988976996574414846108425081184 7:1 816:1 950:1 1621:1 #
-0.13988976996574414846108425081184 816:1 950:1 1411:1 1621:1 #
-0.13988976996574414846108425081184 816:1 950:1 1416:1 1621:1 #
-0.050118156831321501731846268512527 453:1 816:1 1129:1 1221:1 1621:1 #
-0.007337161970705507324508332089863 816:1 827:1 950:1 1558:1 1621:1 2241:1 #
0.13988976996574414846108425081184 63:1 482:1 816:1 1006:1 1148:1 1458:1 1471:1 1659:1 1852:1 #
0.13988976996574414846108425081184 20:1 532:1 816:1 1201:1 1476:1 1659:1 #
0.13988976996574414846108425081184 264:1 369:1 377:1 380:1 381:1 398:1 816:1 937:1 1123:1 1834:1 2111:1 #
0.13988976996574414846108425081184 441:1 816:1 950:1 2092:1 #
-0.032197189651857922865207939366883 35:1 189:1 242:1 380:1 381:1 534:1 536:1 547:1 740:1 746:1 816:1 996:1 1086:1 1314:1 1340:1 1371:1 1393:1 1435:1 #
-0.13988976996574414846108425081184 20:1 264:1 377:1 532:1 541:1 653:1 816:1 1711:1 #
0.13988976996574414846108425081184 816:1 950:1 2092:1 2181:1 #
0.13988976996574414846108425081184 441:1 564:1 816:1 950:1 1869:1 #
-0.13988976996574414846108425081184 706:1 816:1 950:1 1836:1 1989:1 2072:1 #
-0.021436774966947728937594064291261 58:1 230:1 251:1 267:1 313:1 366:1 534:1 816:1 874:1 950:1 1073:1 1293:1 1537:1 1676:1 2133:1 2309:1 #
-0.13988976996574414846108425081184 816:1 950:1 1589:1 1836:1 #
-0.078464718813381767459347315707419 88:1 93:1 215:1 816:1 950:1 1078:1 2051:1 #
0.10674525471893435424330931482473 28:1 115:1 146:1 363:1 480:1 532:1 550:1 816:1 827:1 1621:1 #
0.13988976996574414846108425081184 334:1 532:1 593:1 816:1 1235:1 2344:1 #
-0.13988976996574414846108425081184 441:1 644:1 816:1 1136:1 1621:1 #
-0.13988976996574414846108425081184 146:1 532:1 595:1 644:1 666:1 816:1 1164:1 1316:1 1621:1 #
0.13988976996574414846108425081184 268:1 816:1 950:1 1553:1 2016:1 #
0.13988976996574414846108425081184 816:1 950:1 1125:1 1225:1 #
-0.025171153871805719559606728807921 21:1 189:1 279:1 532:1 816:1 927:1 950:1 994:1 1186:1 1260:1 1286:1 1327:1 1562:1 1750:1 1801:1 1974:1 2011:1 2017:1 #
-0.13988976996574414846108425081184 394:1 480:1 668:1 715:1 816:1 950:1 1518:1 #
-0.093237755205734018648655592187424 189:1 816:1 950:1 1047:1 1494:1 1973:1 #
-0.08347434269898802716713959171102 268:1 320:1 816:1 950:1 1858:1 #
-0.13988976996574414846108425081184 816:1 950:1 1978:1 #
0.13988976996574414846108425081184 644:1 715:1 816:1 1621:1 2181:1 2344:1 #
0.013822255476735935755816520043027 441:1 816:1 1621:1 1646:1 #
0.13988976996574414846108425081184 816:1 1621:1 1659:1 1943:1 2161:1 2238:1 #
-0.13988976996574414846108425081184 296:1 558:1 713:1 816:1 1168:1 1390:1 1813:1 1989:1 2226:1 #
-0.13988976996574414846108425081184 60:1 816:1 1316:1 1659:1 2062:1 2344:1 #
-0.13988976996574414846108425081184 9:1 816:1 1390:1 1621:1 #
0.011187024767433526722948400333735 189:1 713:1 816:1 851:1 950:1 1494:1 1911:1 1916:1 1989:1 #
0.13988976996574414846108425081184 550:1 672:1 801:1 816:1 950:1 1617:1 1950:1 2032:1 2345:1 #
0.030779610358792990759679852885711 441:1 480:1 816:1 950:1 1836:1 #
0.13988976996574414846108425081184 441:1 816:1 950:1 1836:1 #
-0.084009925870940832526301278448955 16:1 278:1 410:1 784:1 816:1 950:1 1453:1 1939:1 2238:1 #
-0.13988976996574414846108425081184 441:1 816:1 950:1 1136:1 1621:1 1676:1 #
0.13988976996574414846108425081184 445:1 816:1 1813:1 2145:1 #
0.13988976996574414846108425081184 816:1 1217:1 1325:1 1332:1 1813:1 #
-0.13988976996574414846108425081184 113:1 731:1 816:1 1112:1 1542:1 2145:1 #
-0.10473906420146827933592703629984 816:1 937:1 1286:1 2290:1 #
-0.11072693311136261318239348838688 73:1 435:1 497:1 543:1 816:1 1362:1 1554:1 1839:1 2209:1 #
-0.13988976996574414846108425081184 113:1 1118:1 1876:1 #
-0.13988976996574414846108425081184 441:1 816:1 1556:1 1965:1 #
0.13988976996574414846108425081184 60:1 816:1 950:1 1621:1 1876:1 #
-0.035535941298670485621880033022535 532:1 809:1 816:1 1836:1 1929:1 1945:1 2118:1 #
0.13988976996574414846108425081184 441:1 816:1 1621:1 #
0.13988976996574414846108425081184 16:1 55:1 138:1 189:1 377:1 816:1 866:1 1270:1 1344:1 2344:1 #
0.13988976996574414846108425081184 441:1 644:1 816:1 1820:1 #
0.13988976996574414846108425081184 4:1 742:1 816:1 1676:1 2326:1 #
-0.12178472634500646376576327156727 6:1 312:1 816:1 936:1 1010:1 1401:1 1538:1 1836:1 2238:1 #
0.13988976996574414846108425081184 7:1 816:1 950:1 1316:1 1621:1 #
0.13069209386972738262677751208685 633:1 816:1 950:1 1922:1 2082:1 2321:1 #
0.13988976996574414846108425081184 633:1 816:1 839:1 950:1 #
0.13988976996574414846108425081184 633:1 816:1 950:1 1621:1 #
-0.062511282628796696614337236042047 74:1 81:1 189:1 674:1 750:1 769:1 816:1 950:1 1269:1 1623:1 1999:1 2154:1 #
0.13988976996574414846108425081184 441:1 816:1 1223:1 1538:1 1836:1 2344:1 #
0.13988976996574414846108425081184 816:1 1333:1 1814:1 1911:1 2280:1 2344:1 #
0.13988976996574414846108425081184 123:1 816:1 1659:1 #
-0.13988976996574414846108425081184 441:1 816:1 950:1 1316:1 1556:1 #
0.11832402261302822632504927469199 358:1 497:1 615:1 795:1 816:1 1621:1 #
0.13988976996574414846108425081184 111:1 816:1 950:1 1876:1 #
0.13988976996574414846108425081184 816:1 886:1 950:1 1876:1 #
0.074345474072503400786438021441427 73:1 113:1 441:1 816:1 846:1 1362:1 1845:1 #
-0.13988976996574414846108425081184 115:1 123:1 183:1 189:1 268:1 633:1 816:1 950:1 1556:1 1659:1 #
-0.025941453219120284151566480090878 92:1 184:1 189:1 306:1 313:1 349:1 458:1 531:1 786:1 816:1 930:1 1552:1 1645:1 2018:1 2230:1 2280:1 #
-0.13988976996574414846108425081184 564:1 816:1 1447:1 1820:1 2344:1 #
-0.13988976996574414846108425081184 644:1 816:1 1702:1 2018:1 #
-0.13988976996574414846108425081184 816:1 1092:1 1820:1 2344:1 #
0.029741578488136521940532475127839 31:1 133:1 189:1 280:1 313:1 816:1 925:1 950:1 1129:1 1371:1 1454:1 1911:1 1975:1 2086:1 2280:1 2282:1 #
0.13988976996574414846108425081184 124:1 816:1 950:1 1609:1 #
0.11685914752876380706680947696441 183:1 658:1 680:1 816:1 950:1 1171:1 1911:1 #
0.13988976996574414846108425081184 816:1 950:1 1836:1 1876:1 #
-0.13988976996574414846108425081184 816:1 950:1 1486:1 1836:1 #
0.13988976996574414846108425081184 334:1 816:1 2083:1 2228:1 2230:1 2344:1 #
0.13988976996574414846108425081184 262:1 816:1 1621:1 2083:1 #
0.13988976996574414846108425081184 816:1 950:1 1125:1 1659:1 1790:1 #
0.023389294863748466557495930828736 189:1 257:1 274:1 369:1 441:1 669:1 744:1 816:1 950:1 1184:1 1400:1 1538:1 1552:1 1621:1 1890:1 1992:1 2167:1 2225:1 2344:1 2368:1 #
0.13988976996574414846108425081184 564:1 816:1 1244:1 1621:1 2344:1 #
0.13988976996574414846108425081184 816:1 1621:1 2181:1 2344:1 2356:1 #
0.13988976996574414846108425081184 816:1 1031:1 1244:1 1621:1 #
0.13988976996574414846108425081184 287:1 633:1 816:1 950:1 1803:1 #
0.13988976996574414846108425081184 113:1 633:1 816:1 950:1 1204:1 1316:1 2092:1 2238:1 #
0.13988976996574414846108425081184 668:1 816:1 950:1 1876:1 #
-0.13988976996574414846108425081184 138:1 816:1 950:1 1171:1 1316:1 1386:1 #
-0.13435102742607302195310126080585 576:1 816:1 950:1 1181:1 1933:1 2121:1 #
-0.011303915890585896145137390078617 21:1 162:1 767:1 816:1 877:1 950:1 1162:1 1316:1 1424:1 1450:1 1818:1 1933:1 1999:1 #
-0.13988976996574414846108425081184 499:1 673:1 816:1 950:1 1668:1 1820:1 2334:1 #
-0.13792739763429698318653038313641 113:1 249:1 387:1 441:1 816:1 950:1 1316:1 1552:1 1556:1 1791:1 1804:1 2092:1 #
0.1013954955184838135906488787441 358:1 816:1 1621:1 1795:1 1989:1 #
0.13988976996574414846108425081184 441:1 816:1 827:1 1517:1 1989:1 #
-0.024677400535471249315433439619483 110:1 262:1 441:1 816:1 1556:1 1695:1 #
-0.13988976996574414846108425081184 249:1 287:1 534:1 816:1 1074:1 1659:1 #
0.13988976996574414846108425081184 816:1 1609:1 #
-0.13988976996574414846108425081184 54:1 571:1 1118:1 1876:1 #
-0.050048494441017096767687633018795 189:1 350:1 386:1 713:1 816:1 914:1 950:1 1110:1 1403:1 1493:1 1531:1 1659:1 1696:1 2042:1 #
-0.10509173457760555281392811366459 816:1 950:1 1553:1 2002:1 2062:1 2344:1 #
-0.0020743438472499982176688870794123 189:1 199:1 396:1 470:1 479:1 542:1 690:1 816:1 854:1 925:1 950:1 1045:1 1138:1 1294:1 1304:1 1370:1 1478:1 1633:1 1725:1 2090:1 #
0.13988976996574414846108425081184 441:1 816:1 1965:1 #
0.13988976996574414846108425081184 816:1 1813:1 2145:1 #
-0.017303703119500787876994252201257 94:1 113:1 309:1 816:1 1068:1 1316:1 1552:1 #
-0.00046796316972162488876177399710343 4:1 456:1 816:1 1891:1 #
-0.13988976996574414846108425081184 113:1 816:1 1836:1 2001:1 #
-0.13988976996574414846108425081184 816:1 818:1 #
-0.13988976996574414846108425081184 479:1 742:1 816:1 1068:1 1157:1 #
-0.00081936394774671100771357146186347 264:1 377:1 816:1 1929:1 2062:1 2154:1 #
0.01480664725340270597431224786078 247:1 532:1 816:1 950:1 1235:1 1507:1 1659:1 1855:1 1876:1 #
-0.13988976996574414846108425081184 441:1 489:1 816:1 950:1 1556:1 1989:1 #
-0.13988976996574414846108425081184 816:1 1235:1 1611:1 1659:1 #
-0.098858404059151458453946759163955 131:1 189:1 450:1 816:1 925:1 950:1 1060:1 1618:1 1659:1 2011:1 2024:1 2229:1 #
0.13988976996574414846108425081184 189:1 742:1 816:1 1571:1 1676:1 #
0.13988976996574414846108425081184 441:1 782:1 816:1 989:1 #
-0.05182003769951271099358791616396 20:1 189:1 199:1 352:1 369:1 403:1 441:1 534:1 750:1 816:1 834:1 1124:1 1316:1 1550:1 1556:1 1695:1 1765:1 1820:1 1876:1 1939:1 2250:1 2263:1 2357:1 #
-0.13988976996574414846108425081184 816:1 1061:1 2152:1 #
-0.044603159845692165463848510853495 189:1 500:1 816:1 950:1 1731:1 2028:1 #
-0.11221229405656833744142630848728 55:1 816:1 1425:1 2241:1 #
0.13988976996574414846108425081184 756:1 816:1 950:1 1609:1 1611:1 #
0.13988976996574414846108425081184 54:1 816:1 950:1 1609:1 #
-0.13988976996574414846108425081184 816:1 950:1 1676:1 1820:1 2263:1 #
-0.13987984637130054799136757992528 182:1 183:1 564:1 605:1 776:1 816:1 950:1 1379:1 #
0.13988976996574414846108425081184 441:1 644:1 816:1 1836:1 #
0.039931497403984453353764649818913 349:1 358:1 816:1 1836:1 2344:1 #
0.13988976996574414846108425081184 441:1 487:1 816:1 #
-0.13988976996574414846108425081184 441:1 816:1 1136:1 1621:1 1965:1 #
-0.13988976996574414846108425081184 441:1 816:1 950:1 1556:1 1832:1 #
-0.087364229508855487105201120812126 15:1 218:1 441:1 816:1 950:1 1556:1 #
-0.13988976996574414846108425081184 55:1 441:1 816:1 950:1 1556:1 #
-0.13988976996574414846108425081184 715:1 816:1 1184:1 1390:1 1676:1 1813:1 2022:1 2217:1 2354:1 #
-0.034833268424230776072469950577215 58:1 100:1 113:1 189:1 250:1 789:1 816:1 914:1 1045:1 1312:1 1316:1 1598:1 1760:1 1914:1 1987:1 2045:1 2109:1 2154:1 #
-0.094802193060126813128896117177646 350:1 532:1 766:1 816:1 1294:1 1621:1 1684:1 1929:1 2118:1 #
-0.042292442439868738190966723777819 21:1 81:1 103:1 189:1 249:1 401:1 425:1 534:1 782:1 808:1 816:1 1333:1 1336:1 1531:1 1676:1 1921:1 1976:1 #
-0.11499459941275963492657297138066 372:1 816:1 965:1 1417:1 1441:1 2145:1 2154:1 #
-0.016029441635277520000757434104344 532:1 816:1 1660:1 1786:1 1977:1 2118:1 #
-0.087338346064713037741888967957493 377:1 816:1 829:1 1419:1 #
-0.13988976996574414846108425081184 12:1 644:1 715:1 816:1 #
-0.042690816307668313922540903604386 23:1 532:1 816:1 1390:1 1989:1 2228:1 #
0.090655084732141053005527453478862 441:1 479:1 532:1 725:1 816:1 957:1 1040:1 1094:1 1217:1 1327:1 1365:1 1462:1 1556:1 1630:1 1631:1 1659:1 1667:1 1668:1 1790:1 1852:1 1940:1 #
0.0042889345523848786123632947919759 26:1 28:1 34:1 35:1 124:1 158:1 174:1 249:1 257:1 492:1 551:1 816:1 967:1 1053:1 1085:1 1410:1 1454:1 1514:1 1621:1 1630:1 1693:1 1785:1 1813:1 1829:1 1991:1 2118:1 2143:1 2170:1 2228:1 2335:1 2340:1 #
-0.13988976996574414846108425081184 816:1 950:1 1619:1 1917:1 #
-0.0086698131106780363525077248709749 163:1 230:1 302:1 565:1 757:1 767:1 810:1 816:1 827:1 920:1 1049:1 1071:1 1156:1 1164:1 1286:1 1357:1 1399:1 1496:1 1519:1 1552:1 1676:1 1820:1 1842:1 1845:1 1876:1 2018:1 2088:1 2262:1 2304:1 2356:1 2363:1 #
-0.13988976996574414846108425081184 809:1 816:1 950:1 1617:1 1621:1 #
0.0036780173203998169258188699615175 249:1 334:1 479:1 816:1 1235:1 1876:1 2169:1 2230:1 #
-0.13988976996574414846108425081184 816:1 950:1 1420:1 1621:1 2012:1 #
0.13988976996574414846108425081184 185:1 816:1 846:1 950:1 1316:1 1659:1 #
0.12081684575420145733026799916843 31:1 55:1 506:1 532:1 558:1 816:1 950:1 1185:1 1571:1 1621:1 2012:1 2256:1 #
0.09164950393910460679780527470939 55:1 441:1 564:1 816:1 2012:1 #
-0.13988976996574414846108425081184 134:1 189:1 281:1 564:1 816:1 990:1 1064:1 1164:1 1531:1 1621:1 2344:1 #
-0.1023505786849440019059542805735 526:1 816:1 882:1 925:1 1287:1 1637:1 2344:1 #
0.058518920005715985288574643163884 386:1 454:1 505:1 816:1 950:1 1619:1 1659:1 1876:1 #
0.13988976996574414846108425081184 441:1 816:1 950:1 #
0.13988976996574414846108425081184 388:1 441:1 816:1 950:1 #
0.05826221435347545690719428534976 441:1 444:1 554:1 816:1 950:1 2344:1 2360:1 #
-0.050508535215343895730111256625605 64:1 441:1 816:1 950:1 1556:1 2371:1 #
-0.089466155674966602040498742098862 534:1 816:1 939:1 950:1 1129:1 1659:1 1927:1 1965:1 1977:1 2044:1 #
-0.072605564630754806931811629056028 85:1 182:1 183:1 246:1 479:1 527:1 816:1 950:1 1294:1 1309:1 1645:1 1659:1 1940:1 1977:1 #
-0.13988976996574414846108425081184 369:1 441:1 816:1 950:1 1556:1 1820:1 #
0.13988976996574414846108425081184 816:1 1813:1 2098:1 #
0.13988976996574414846108425081184 816:1 851:1 1813:1 2145:1 #
0.13988976996574414846108425081184 668:1 816:1 1876:1 #
0.13988976996574414846108425081184 55:1 816:1 1504:1 1676:1 1876:1 2018:1 2092:1 #
-0.13988976996574414846108425081184 816:1 950:1 1235:1 1659:1 1845:1 2062:1 2344:1 #
-0.13988976996574414846108425081184 801:1 816:1 1355:1 2229:1 #
-0.13988976996574414846108425081184 816:1 860:1 1136:1 1621:1 1876:1 2118:1 #
-0.070330193447241867721331232132798 361:1 816:1 883:1 1900:1 2142:1 #
0.13093357618129719543986766439048 441:1 564:1 816:1 1942:1 1965:1 2332:1 #
0.13988976996574414846108425081184 441:1 564:1 816:1 950:1 #
0.13988976996574414846108425081184 644:1 715:1 816:1 1911:1 #
0.041138257958102497635621830340824 257:1 816:1 860:1 938:1 1659:1 1799:1 1911:1 #
-0.13988976996574414846108425081184 564:1 816:1 1836:1 2241:1 #
-0.0078436684593690582378844311506327 816:1 950:1 1164:1 1549:1 1672:1 2059:1 2262:1 #
-0.1115294568931141094836334559659 453:1 499:1 816:1 #
-0.13988976996574414846108425081184 600:1 816:1 950:1 1516:1 2088:1 #
-0.13988976996574414846108425081184 816:1 846:1 950:1 1420:1 #
-0.13988976996574414846108425081184 1118:1 1876:1 #
-0.13988976996574414846108425081184 55:1 377:1 441:1 463:1 816:1 1556:1 #
-0.13988976996574414846108425081184 6:1 54:1 1118:1 1876:1 #
0.054264463863572809376734085162752 441:1 564:1 816:1 1836:1 #
0.13988976996574414846108425081184 564:1 816:1 1244:1 1621:1 #
0.13988976996574414846108425081184 358:1 816:1 950:1 990:1 1619:1 1659:1 1836:1 #
0.13988976996574414846108425081184 12:1 816:1 950:1 1911:1 #
0.13988976996574414846108425081184 358:1 564:1 816:1 1621:1 #
-0.13988976996574414846108425081184 816:1 950:1 1427:1 #
-0.091079095268032692067627920096129 124:1 816:1 950:1 1189:1 1750:1 #
-0.13988976996574414846108425081184 816:1 839:1 950:1 1411:1 #
-0.13988976996574414846108425081184 644:1 816:1 1164:1 1617:1 1621:1 #
-0.053069901394501170499573561301077 369:1 644:1 715:1 816:1 1054:1 1235:1 #
-0.033264497250844279885306775668141 6:1 22:1 816:1 821:1 828:1 1043:1 1098:1 1453:1 1537:1 1659:1 1818:1 #
-0.051270016444842768377210262542576 31:1 414:1 532:1 558:1 633:1 816:1 950:1 1556:1 1818:1 #
0.13988976996574414846108425081184 644:1 715:1 816:1 846:1 1876:1 #
0.13988976996574414846108425081184 816:1 1621:1 1813:1 1958:1 #
0.13988976996574414846108425081184 441:1 786:1 816:1 1621:1 #
-0.13988976996574414846108425081184 487:1 809:1 816:1 950:1 1222:1 1621:1 2145:1 #
-0.13988976996574414846108425081184 55:1 441:1 816:1 1136:1 1621:1 #
-0.016278129695459109260724517298513 55:1 392:1 564:1 770:1 816:1 1068:1 1554:1 #
-0.019524166406924226002672639879165 189:1 816:1 880:1 950:1 960:1 1217:1 1435:1 1915:1 2062:1 2294:1 #
-0.13988976996574414846108425081184 466:1 816:1 1680:1 #
0.10038697968310221486643030175401 363:1 749:1 816:1 846:1 1006:1 1458:1 1556:1 1659:1 1876:1 2149:1 #
-0.073194444715809131585260161045881 119:1 212:1 816:1 1812:1 #
-0.024764534569147192422100545172725 42:1 816:1 1142:1 1371:1 1548:1 1568:1 1959:1 #
0.054158406072656123386721560564183 558:1 816:1 1331:1 1609:1 2088:1 #
0.01456071645771526111567961692117 479:1 816:1 934:1 1060:1 1316:1 1609:1 1879:1 #
0.086767364863360577076356605630281 816:1 1333:1 1338:1 1609:1 #
0.13988976996574414846108425081184 441:1 816:1 839:1 950:1 #
-0.13988976996574414846108425081184 441:1 644:1 816:1 1556:1 #
-0.13988976996574414846108425081184 441:1 534:1 816:1 950:1 1556:1 1659:1 1965:1 1977:1 #
-0.13988976996574414846108425081184 441:1 497:1 816:1 1556:1 #
0.11756840980360176718289011432717 249:1 816:1 1621:1 1876:1 1977:1 2364:1 #
0.13988976996574414846108425081184 816:1 1876:1 2315:1 2344:1 #
0.13988976996574414846108425081184 816:1 836:1 1621:1 1876:1 #
-0.077256745430662771001451005759009 64:1 189:1 380:1 381:1 441:1 497:1 534:1 816:1 974:1 1294:1 1556:1 1621:1 2018:1 2061:1 #
-0.046826292362177543426859926967154 816:1 827:1 950:1 1405:1 2022:1 #
0.061127641232228809020643467420086 527:1 644:1 772:1 816:1 1531:1 1876:1 2088:1 #
0.13988976996574414846108425081184 497:1 633:1 816:1 1621:1 #
0.07025492036527211658913927294634 497:1 816:1 1064:1 1609:1 #
0.13988976996574414846108425081184 441:1 564:1 816:1 #
0.13988976996574414846108425081184 816:1 1813:1 1836:1 2145:1 #
0.13988976996574414846108425081184 816:1 950:1 990:1 1125:1 1625:1 1659:1 2328:1 #
0.13988976996574414846108425081184 441:1 816:1 950:1 1832:1 #
-0.013191942642156206585979383305585 94:1 249:1 564:1 706:1 816:1 950:1 1369:1 1566:1 2344:1 #
0.035448346773652487928796261940079 441:1 816:1 937:1 950:1 1207:1 #
-0.13988976996574414846108425081184 309:1 816:1 950:1 1312:1 #
-0.089428831070000242009498947481916 441:1 811:1 816:1 1556:1 1870:1 1939:1 #
-0.13988976996574414846108425081184 441:1 816:1 1333:1 1556:1 #
0.059898868571188798592963564715319 793:1 816:1 1609:1 1965:1 #
-0.13988976996574414846108425081184 441:1 816:1 937:1 950:1 1556:1 #
-0.06870568993289105641508740518475 760:1 816:1 1494:1 1619:1 2238:1 2318:1 #
-0.10385529757981333542904422984066 313:1 316:1 479:1 816:1 1223:1 1538:1 1645:1 #
-0.044353892766683451764908596715031 713:1 816:1 950:1 1518:1 1621:1 1744:1 #
0.044440899899320950028336341119939 816:1 1052:1 1213:1 1911:1 2344:1 #
-0.11111375256104588649108677600452 816:1 950:1 1047:1 1973:1 #
0.018493356819337704310957093412071 816:1 950:1 1354:1 1621:1 1876:1 2324:1 #
-0.075956921619108358489924626155698 569:1 816:1 916:1 1786:1 1836:1 #
-0.13988976996574414846108425081184 28:1 532:1 816:1 1559:1 1820:1 2344:1 #
-0.13988976996574414846108425081184 816:1 1589:1 1836:1 2262:1 #
-0.069334466311644110669831775339844 31:1 37:1 532:1 816:1 956:1 1164:1 2262:1 #
-0.11274557849184647928542091221971 816:1 957:1 1390:1 1836:1 1989:1 2356:1 #
-0.035191291873913239929283491846945 342:1 603:1 816:1 950:1 1044:1 1961:1 2280:1 #
-0.13988976996574414846108425081184 816:1 950:1 1136:1 1621:1 1876:1 #
-0.13554599408042086738923615030217 532:1 816:1 1316:1 1369:1 1945:1 2062:1 2230:1 #
-0.13988976996574414846108425081184 816:1 1286:1 2344:1 #
-0.057090847784489660854401194001184 20:1 307:1 532:1 816:1 836:1 1726:1 1833:1 2062:1 2226:1 #
0.13988976996574414846108425081184 441:1 644:1 816:1 2262:1 #
-0.13988976996574414846108425081184 816:1 1228:1 2018:1 #
0.13988976996574414846108425081184 816:1 851:1 1813:1 1989:1 #
-0.048157950249578203305578227855221 189:1 436:1 471:1 531:1 674:1 816:1 1045:1 1371:1 2154:1 2156:1 #
-0.13988976996574414846108425081184 816:1 1156:1 #
-0.061270151171358734620842056983747 199:1 816:1 1333:1 1390:1 1621:1 1676:1 2344:1 #
-0.090616661494597280923635196359101 816:1 1570:1 1891:1 #
0.074039963214927437262780074433977 816:1 1570:1 1911:1 2196:1 #
0.025957208193009881358470636314451 816:1 950:1 1659:1 1876:1 2102:1 #
-0.13988976996574414846108425081184 816:1 1441:1 2145:1 #
-0.026919430953877283851927160185369 426:1 809:1 816:1 1333:1 1621:1 #
-0.13988976996574414846108425081184 644:1 809:1 816:1 950:1 1621:1 #
-0.019173354017562434237209600951246 134:1 189:1 199:1 388:1 449:1 644:1 816:1 950:1 1558:1 2044:1 #
0.058427312815277646085299068090535 309:1 372:1 532:1 816:1 1244:1 1621:1 1897:1 1971:1 2152:1 2282:1 #
0.078476581383148502624180764541961 111:1 417:1 445:1 816:1 1813:1 2147:1 2238:1 #
0.13636905784081934656093437752133 358:1 816:1 950:1 990:1 1617:1 1619:1 1621:1 1659:1 1680:1 #
0.12670662507840449451101960676169 441:1 816:1 950:1 1230:1 #
-0.021856406386802362806776045545121 248:1 397:1 441:1 816:1 1136:1 1621:1 #
0.0061407852239219358481125965454339 190:1 374:1 816:1 1659:1 1911:1 2238:1 #
0.10715428210008219600535284143916 441:1 816:1 860:1 1621:1 #
-0.069575090935694514082676676025585 21:1 68:1 534:1 816:1 950:1 967:1 #
-0.10075258024576864979149348755527 113:1 816:1 1316:1 1786:1 2361:1 #
-0.055023117537400162424532368277141 221:1 527:1 816:1 1316:1 1393:1 1566:1 #
-0.13988976996574414846108425081184 816:1 950:1 1731:1 #
-0.13988976996574414846108425081184 816:1 1575:1 1965:1 2062:1 2344:1 #
-0.13988976996574414846108425081184 816:1 950:1 1447:1 #
-0.13988976996574414846108425081184 816:1 829:1 950:1 #
0.13988976996574414846108425081184 816:1 1609:1 1965:1 #
-0.072755976697756019611063038610155 816:1 950:1 1044:1 1164:1 1621:1 #
-0.13988976996574414846108425081184 816:1 950:1 1420:1 1621:1 #
0.13988976996574414846108425081184 113:1 441:1 816:1 1836:1 #
0.12668264224960631980643199767655 37:1 816:1 1609:1 #
-0.13988976996574414846108425081184 441:1 816:1 827:1 1556:1 #
-0.061803592783024885459752795213717 425:1 674:1 816:1 1071:1 1965:1 #
-0.034567736713428019734717366873156 706:1 745:1 816:1 950:1 1247:1 1566:1 #
-0.050929727772846329625355821235644 12:1 558:1 816:1 950:1 2263:1 #
-0.043305351464330933686230906687342 365:1 458:1 541:1 816:1 1619:1 2154:1 #
-0.077122547083585443750131105389301 634:1 816:1 950:1 2022:1 #
0.094542384455098951723250877421378 34:1 816:1 1621:1 1676:1 1876:1 #
0.13988976996574414846108425081184 441:1 668:1 816:1 950:1 #
-0.13988976996574414846108425081184 441:1 816:1 1556:1 #
0.11065463756544818840765742606891 23:1 816:1 950:1 1911:1 2088:1 #
-0.06224001910784882768412629161503 339:1 766:1 816:1 #
-0.13988976996574414846108425081184 816:1 1129:1 1137:1 #
-0.049121077127399118134043476402439 64:1 489:1 809:1 816:1 950:1 1621:1 #
-0.020775454964822283321357332397383 55:1 816:1 1891:1 #
-0.036911514894121269514393191002455 816:1 1005:1 1124:1 2142:1 2335:1 #
0.13988976996574414846108425081184 644:1 816:1 1621:1 1876:1 #
-0.086178082178545473146513700157811 816:1 950:1 1411:1 1836:1 #
0.13988976996574414846108425081184 816:1 950:1 1621:1 1876:1 #
-0.13988976996574414846108425081184 816:1 1136:1 1621:1 1876:1 1965:1 #
-0.13988976996574414846108425081184 816:1 1891:1 1965:1 #
-0.046440113848683080288726188200599 816:1 846:1 950:1 1164:1 2059:1 #
-0.032825932063159736495894236441018 143:1 249:1 653:1 816:1 1016:1 1621:1 1786:1 1929:1 1945:1 2142:1 #
-0.045739583229625242755123082361024 441:1 534:1 644:1 786:1 816:1 1136:1 1621:1 1832:1 #
-0.017066971743254735760508822295378 189:1 281:1 381:1 501:1 534:1 653:1 816:1 1078:1 1287:1 1294:1 1621:1 #
-0.027722223683078427852732872338493 100:1 816:1 1820:1 1929:1 #
0.041449188907373195334127302658089 111:1 441:1 816:1 1425:1 1965:1 #
-0.083061240533990735035452246393106 816:1 1068:1 1287:1 1316:1 #
-0.026463573126576558913747305723518 181:1 441:1 574:1 816:1 1556:1 #
-0.026030290191039716363174960633842 352:1 441:1 497:1 582:1 816:1 1434:1 1556:1 #
-0.079493799763623571030812797744147 441:1 811:1 816:1 827:1 1556:1 #
-0.024857725901200743157115624626385 189:1 441:1 497:1 649:1 816:1 1057:1 1222:1 1478:1 1536:1 1554:1 1556:1 1695:1 2135:1 2280:1 2306:1 #
-0.019987189333146034020405323872183 20:1 30:1 189:1 770:1 816:1 844:1 964:1 1017:1 1294:1 1929:1 1999:1 2145:1 #
-0.013894963573905648457351702518281 60:1 816:1 950:1 1124:1 1621:1 1965:1 2024:1 2229:1 #
-0.080348994953543168007215058423753 816:1 950:1 1486:1 #
0.036177981346027371367668479251734 9:1 352:1 532:1 816:1 1813:1 1852:1 #
-0.0028084178721084515455153063356875 55:1 479:1 759:1 816:1 877:1 950:1 1347:1 1429:1 1999:1 2242:1 #
-0.025617940063558584246061755607116 614:1 644:1 706:1 816:1 1066:1 1566:1 1603:1 #
-0.0029073921975833762719465536150665 113:1 816:1 1820:1 2001:1 #
-0.039974074646203831828739083675828 286:1 458:1 564:1 816:1 1405:1 1786:1 #
-0.035997217326238707679753048296334 816:1 1164:1 1621:1 2304:1 #
0.13055146004859319308621934396797 816:1 1316:1 1813:1 1836:1 1989:1 #
0.034011881327760000448545696372094 534:1 816:1 950:1 1609:1 2088:1 2262:1 #
-0.0098993356522524035556731547558229 268:1 816:1 1538:1 #
-0.014409711497780187255957073944046 249:1 434:1 636:1 816:1 2022:1 2168:1 2220:1 #
0.13988976996574414846108425081184 816:1 950:1 1911:1 #
-0.016762744810276800078163716989366 816:1 883:1 1611:1 1617:1 1619:1 2186:1 #
-0.065834873805751564779242812619486 441:1 497:1 816:1 1556:1 1820:1 #
-0.0019094730628405338478809083468946 6:1 183:1 249:1 287:1 474:1 532:1 694:1 742:1 767:1 816:1 1103:1 1235:1 1316:1 1521:1 1536:1 1556:1 1607:1 1638:1 1928:1 2356:1 #
0.021132204875754873052429161361943 458:1 816:1 1191:1 1621:1 1876:1 #
0.13988976996574414846108425081184 441:1 816:1 1621:1 1965:1 #
-0.019162773855454187654778763771901 23:1 532:1 544:1 793:1 816:1 925:1 1575:1 1965:1 #
-0.06120226626938846808956284917258 816:1 1136:1 1621:1 1813:1 1929:1 #
-0.010754200160759758153616871823033 306:1 816:1 950:1 984:1 1294:1 2115:1 2232:1 #
-0.10258328399529437202630788306124 644:1 809:1 816:1 1621:1 #
-0.024432376130543713432796693041382 816:1 1447:1 #
-0.030110161421102264039939555573255 248:1 441:1 816:1 1556:1 #
-0.0055128815588863407104458502772104 17:1 816:1 1061:1 1154:1 1419:1 1552:1 #
-0.0050743434914834245272330370823965 136:1 441:1 816:1 1556:1 1921:1 #
-0.015106092250604495272336968980653 64:1 441:1 816:1 1556:1 #
-0.0012688236411819773900855334858306 189:1 497:1 595:1 816:1 950:1 1390:1 1565:1 1621:1 1841:1 1955:1 1989:1 2044:1 #
-0.00093592633944435100167014152106049 468:1 816:1 1891:1 #
0.0030071568165119556825803925903529 349:1 816:1 1876:1 2344:1 #
