SVM-light Version V6.01
0 # kernel type
3 # kernel parameter -d 
1 # kernel parameter -g 
1 # kernel parameter -s 
1 # kernel parameter -r 
empty# kernel parameter -u 
3402 # highest feature index 
3448 # number of training documents 
976 # number of support vectors plus 1 
0.31148467 # threshold b, each following line is a SV (starting with alpha*y)
-0.13806703267375333710198503922584 197:1 1207:1 2716:1 3022:1 3378:1 #
0.11156919078613608542482893426495 928:1 1593:1 2185:1 3045:1 3286:1 #
0.13806703267375333710198503922584 23:1 2185:1 3045:1 #
-0.13806703267375333710198503922584 1677:1 2028:1 2817:1 3190:1 3378:1 #
0.048885950537471307975057044359346 1746:1 2185:1 3045:1 #
0.076506285901675893934559269382589 1052:1 1597:1 1857:1 1945:1 2053:1 2185:1 2815:1 2868:1 #
0.13806703267375333710198503922584 829:1 928:1 1529:1 1776:1 1837:1 2868:1 #
0.13806703267375333710198503922584 1708:1 1741:1 2185:1 3014:1 3045:1 #
0.13806703267375333710198503922584 1052:1 2185:1 2762:1 2815:1 #
0.0084929674184924235785798529718704 254:1 2648:1 2690:1 3296:1 #
-0.13806703267375333710198503922584 111:1 254:1 621:1 651:1 717:1 991:1 1081:1 1091:1 1161:1 1248:1 1468:1 1511:1 1772:1 1834:1 1835:1 1878:1 2394:1 2550:1 2652:1 2917:1 3045:1 3290:1 #
0.13806703267375333710198503922584 2185:1 3045:1 3290:1 #
-0.13806703267375333710198503922584 254:1 348:1 793:1 1155:1 1480:1 1683:1 1834:1 1835:1 2608:1 2652:1 3014:1 3045:1 #
-0.016842989086489613265174014600234 111:1 197:1 499:1 588:1 683:1 716:1 717:1 1109:1 1155:1 1198:1 1247:1 1274:1 1827:1 1834:1 1835:1 1921:1 2072:1 2349:1 2563:1 2812:1 2818:1 2854:1 2902:1 3045:1 #
-0.13806703267375333710198503922584 1155:1 1238:1 1719:1 1837:1 2185:1 2637:1 2866:1 2868:1 3045:1 #
0.13806703267375333710198503922584 197:1 216:1 1038:1 1137:1 1262:1 1481:1 1702:1 2268:1 2845:1 #
0.13806703267375333710198503922584 197:1 375:1 412:1 512:1 1152:1 2028:1 3204:1 3290:1 #
0.13806703267375333710198503922584 197:1 945:1 3378:1 #
0.13806703267375333710198503922584 197:1 938:1 1525:1 2561:1 2652:1 3378:1 #
0.09726051036626337520374363521114 197:1 273:1 2652:1 3378:1 3381:1 #
-0.13806703267375333710198503922584 413:1 717:1 928:1 945:1 3378:1 #
0.13806703267375333710198503922584 928:1 2003:1 2959:1 #
-0.13806703267375333710198503922584 23:1 24:1 158:1 375:1 585:1 663:1 717:1 928:1 1152:1 1229:1 1251:1 1297:1 1380:1 1413:1 1677:1 1879:1 2279:1 2415:1 2528:1 2546:1 2652:1 2697:1 2868:1 2917:1 2922:1 3005:1 3378:1 #
-0.038681195015653355162577042847261 197:1 723:1 1198:1 1361:1 2366:1 2450:1 2652:1 2825:1 3086:1 3378:1 3381:1 #
-0.13806703267375333710198503922584 197:1 302:1 1193:1 1511:1 2008:1 2053:1 2652:1 3004:1 3146:1 3378:1 3381:1 #
0.069128238670690969613907839175226 131:1 133:1 158:1 212:1 430:1 523:1 550:1 772:1 826:1 1155:1 1176:1 1277:1 1436:1 1480:1 1660:1 1834:1 1835:1 2126:1 2156:1 2177:1 2185:1 2229:1 2550:1 2612:1 2676:1 2827:1 2866:1 2868:1 3045:1 3225:1 3283:1 3298:1 #
0.13806703267375333710198503922584 254:1 1127:1 1155:1 1697:1 1837:1 2185:1 2652:1 2868:1 3045:1 #
0.030230817995693166910786686685242 22:1 23:1 24:1 28:1 111:1 197:1 254:1 336:1 353:1 366:1 375:1 429:1 449:1 463:1 478:1 584:1 602:1 624:1 647:1 650:1 704:1 717:1 721:1 723:1 744:1 754:1 829:1 838:1 928:1 943:1 960:1 1044:1 1109:1 1152:1 1153:1 1155:1 1187:1 1198:1 1226:1 1237:1 1249:1 1262:1 1269:1 1275:1 1362:1 1408:1 1416:1 1455:1 1476:1 1621:1 1628:1 1658:1 1718:1 1732:1 1744:1 1755:1 1777:1 1778:1 1779:1 1793:1 1798:1 1834:1 1835:1 1837:1 1908:1 1989:1 2025:1 2028:1 2058:1 2109:1 2145:1 2173:1 2175:1 2185:1 2193:1 2205:1 2210:1 2250:1 2264:1 2308:1 2314:1 2366:1 2412:1 2430:1 2442:1 2450:1 2455:1 2472:1 2481:1 2508:1 2604:1 2608:1 2628:1 2690:1 2705:1 2768:1 2796:1 2815:1 2866:1 2868:1 2966:1 3005:1 3011:1 3014:1 3015:1 3027:1 3029:1 3040:1 3070:1 3086:1 3112:1 3185:1 3225:1 3292:1 3295:1 3296:1 3344:1 3362:1 #
0.13806703267375333710198503922584 254:1 586:1 853:1 1109:1 1248:1 1480:1 1683:1 1695:1 1814:1 1834:1 1835:1 1837:1 1878:1 2185:1 2508:1 2843:1 3378:1 #
-0.077160832363119782884020025903737 254:1 902:1 1164:1 1198:1 1468:1 1908:1 3296:1 #
-0.028615842667578404723283114208243 22:1 31:1 53:1 128:1 138:1 172:1 266:1 587:1 765:1 809:1 829:1 922:1 1002:1 1014:1 1137:1 1153:1 1207:1 1353:1 1374:1 1436:1 1480:1 1572:1 1701:1 1775:1 1803:1 1834:1 1835:1 1837:1 2028:1 2185:1 2302:1 2314:1 2432:1 2481:1 2529:1 2634:1 2698:1 2703:1 2765:1 2769:1 2799:1 2868:1 2925:1 3014:1 3135:1 3147:1 3219:1 3240:1 3298:1 3346:1 #
-0.13806703267375333710198503922584 254:1 405:1 1481:1 1546:1 1834:1 1835:1 1837:1 2028:1 2185:1 2628:1 2868:1 3045:1 3290:1 #
0.048879219053068502509606929606889 82:1 2185:1 3045:1 #
0.13806703267375333710198503922584 254:1 1837:1 2185:1 2476:1 2690:1 #
-0.13806703267375333710198503922584 773:1 2185:1 #
0.085154853862473539605204564395535 81:1 111:1 224:1 286:1 375:1 405:1 639:1 660:1 717:1 725:1 880:1 945:1 954:1 1026:1 1081:1 1104:1 1109:1 1155:1 1207:1 1219:1 1511:1 1724:1 1764:1 1827:1 2028:1 2034:1 2185:1 2200:1 2406:1 2430:1 2628:1 2630:1 2917:1 2965:1 3011:1 3045:1 3079:1 3225:1 3378:1 #
0.13806703267375333710198503922584 138:1 928:1 1155:1 1207:1 1448:1 1511:1 2332:1 #
0.13806703267375333710198503922584 1481:1 2028:1 2185:1 2513:1 3045:1 #
0.094156537354211644608170672654524 197:1 741:1 970:1 1297:1 1343:1 1719:1 2008:1 2053:1 2442:1 2926:1 3069:1 3378:1 #
0.08268137722763377328583089820313 22:1 23:1 24:1 30:1 31:1 103:1 263:1 432:1 479:1 596:1 668:1 691:1 717:1 768:1 812:1 872:1 927:1 940:1 1115:1 1155:1 1187:1 1192:1 1250:1 1251:1 1406:1 1873:1 2200:1 2398:1 2517:1 2573:1 2608:1 2795:1 2951:1 3005:1 3054:1 #
-0.13806703267375333710198503922584 53:1 197:1 362:1 928:1 1155:1 1507:1 1837:1 2003:1 2039:1 2053:1 2442:1 2601:1 3027:1 3070:1 3206:1 3378:1 #
-0.13806703267375333710198503922584 992:1 2185:1 #
0.13806703267375333710198503922584 254:1 1659:1 1683:1 2868:1 3296:1 #
-0.10423329549424528717160853830137 138:1 683:1 928:1 1049:1 1094:1 1109:1 1122:1 1169:1 1176:1 1248:1 1500:1 1628:1 1873:1 1891:1 1921:1 2053:1 2654:1 3059:1 #
-0.13806703267375333710198503922584 1571:1 1638:1 2185:1 2652:1 #
0.13806703267375333710198503922584 31:1 254:1 330:1 639:1 1511:1 1575:1 1837:1 1878:1 1891:1 2185:1 2339:1 2454:1 2628:1 #
0.13806703267375333710198503922584 829:1 2185:1 2866:1 2868:1 3045:1 #
0.014520884332214710130126711362664 254:1 340:1 472:1 719:1 758:1 833:1 1150:1 1526:1 1546:1 1837:1 1878:1 2028:1 2185:1 2812:1 2815:1 3045:1 3290:1 #
0.08888924405973934461666630113541 14:1 254:1 992:1 1575:1 1834:1 1835:1 1837:1 1878:1 1935:1 2185:1 2868:1 3023:1 3070:1 #
0.0059545128150945989334297259176765 85:1 717:1 1057:1 2185:1 2815:1 #
-0.13806703267375333710198503922584 254:1 1837:1 2185:1 2508:1 2690:1 2868:1 3022:1 3045:1 3296:1 #
-0.13806703267375333710198503922584 928:1 1052:1 1155:1 1238:1 #
0.044379298855042825788785876284237 138:1 928:1 2850:1 #
-0.13806703267375333710198503922584 340:1 1708:1 1837:1 2112:1 2185:1 3045:1 #
0.13806703267375333710198503922584 197:1 2015:1 2850:1 3003:1 #
0.1150503511961861596857303879915 24:1 53:1 301:1 405:1 436:1 556:1 709:1 1066:1 1081:1 1198:1 1312:1 1353:1 1778:1 1785:1 1879:1 2018:1 2430:1 2637:1 2697:1 3011:1 3054:1 3122:1 3190:1 3276:1 #
0.032217855442943650612352968209962 23:1 197:1 593:1 928:1 1155:1 1525:1 1529:1 1645:1 1719:1 1834:1 1835:1 1957:1 2053:1 2062:1 2850:1 3094:1 #
-0.13806703267375333710198503922584 892:1 928:1 2300:1 3022:1 3298:1 #
0.13806703267375333710198503922584 197:1 304:1 582:1 1155:1 1238:1 1645:1 1719:1 1837:1 1879:1 1930:1 2293:1 2762:1 2894:1 2992:1 #
0.035889254029702347126296047008509 928:1 1908:1 2003:1 2762:1 3039:1 #
-0.13806703267375333710198503922584 405:1 928:1 1237:1 1930:1 2167:1 3151:1 #
-0.13806703267375333710198503922584 53:1 219:1 928:1 1349:1 1879:1 3104:1 3353:1 3378:1 #
-0.0080429942111100872353945945292253 891:1 991:1 1198:1 1455:1 1837:1 2185:1 3127:1 #
0.13806703267375333710198503922584 197:1 1462:1 1724:1 1908:1 2868:1 3045:1 #
0.13806703267375333710198503922584 1198:1 1683:1 2185:1 2868:1 3045:1 #
0.13806703267375333710198503922584 639:1 683:1 992:1 1198:1 1237:1 1575:1 1837:1 2185:1 2454:1 2508:1 #
0.043960174268799057095691296126461 254:1 786:1 826:1 1187:1 1248:1 1376:1 1516:1 1837:1 1878:1 2075:1 2185:1 2245:1 2868:1 3045:1 3185:1 3381:1 #
0.13806703267375333710198503922584 190:1 362:1 464:1 991:1 1155:1 1749:1 1837:1 2185:1 2193:1 2295:1 2652:1 2915:1 3014:1 3078:1 3165:1 #
0.13806703267375333710198503922584 118:1 388:1 407:1 683:1 991:1 1010:1 1153:1 1511:1 1834:1 1835:1 1837:1 2185:1 3045:1 3175:1 3290:1 #
-0.027486001299281030002541470480537 160:1 427:1 940:1 979:1 1151:1 1354:1 1575:1 1796:1 1834:1 1835:1 1837:1 1987:1 2028:1 2129:1 2185:1 2481:1 2628:1 2632:1 2637:1 2652:1 2815:1 3044:1 #
-0.13806703267375333710198503922584 1155:1 2185:1 3045:1 #
0.13806703267375333710198503922584 1238:1 2185:1 3191:1 #
-0.039137882392272511922204358825184 237:1 916:1 1715:1 2185:1 2437:1 2509:1 3269:1 #
0.097082555138373327618950270334608 113:1 2185:1 2286:1 3045:1 #
0.040273883437375194993546045907351 197:1 542:1 555:1 658:1 674:1 717:1 734:1 750:1 1085:1 1248:1 1349:1 1406:1 1465:1 1536:1 1879:1 1891:1 2028:1 2039:1 2044:1 2151:1 2250:1 2506:1 2583:1 2692:1 2917:1 3087:1 3146:1 3206:1 #
0.13806703267375333710198503922584 1481:1 2185:1 3045:1 #
0.13806703267375333710198503922584 30:1 197:1 261:1 1137:1 1332:1 1361:1 1511:1 2003:1 2221:1 2705:1 2863:1 3378:1 #
0.13806703267375333710198503922584 704:1 2185:1 2442:1 2481:1 3070:1 #
0.13806703267375333710198503922584 197:1 340:1 348:1 1137:1 1198:1 1293:1 1327:1 1837:1 2015:1 2366:1 2522:1 2652:1 3378:1 #
-0.13806703267375333710198503922584 197:1 254:1 258:1 311:1 741:1 1295:1 1406:1 1645:1 1837:1 1921:1 2652:1 2697:1 2948:1 3112:1 3151:1 3276:1 3292:1 #
-0.043475916420520815952599491538422 316:1 683:1 717:1 1052:1 1155:1 2028:1 2185:1 2815:1 #
-0.13806703267375333710198503922584 362:1 1511:1 2028:1 2053:1 2185:1 2513:1 2815:1 3290:1 #
-0.13806703267375333710198503922584 197:1 1930:1 2015:1 2167:1 #
-0.13806703267375333710198503922584 254:1 2058:1 2494:1 2705:1 3381:1 #
0.13806703267375333710198503922584 717:1 1155:1 1338:1 1587:1 1837:1 2185:1 2628:1 #
0.13806703267375333710198503922584 191:1 405:1 492:1 680:1 928:1 940:1 1155:1 1349:1 1449:1 1673:1 1680:1 1776:1 1777:1 1837:1 2028:1 2922:1 3321:1 #
0.13806703267375333710198503922584 239:1 934:1 1155:1 1198:1 1251:1 1593:1 1620:1 1779:1 1837:1 2028:1 2141:1 2185:1 2298:1 2421:1 2489:1 2738:1 2762:1 3314:1 3375:1 #
0.13806703267375333710198503922584 22:1 361:1 631:1 796:1 928:1 991:1 1120:1 1155:1 1238:1 1328:1 1353:1 1384:1 1416:1 1420:1 1424:1 1540:1 1641:1 1665:1 1695:1 1837:1 2028:1 2185:1 2509:1 2592:1 2622:1 2651:1 2953:1 3091:1 3117:1 3219:1 #
0.13806703267375333710198503922584 859:1 1155:1 2185:1 2628:1 2769:1 3094:1 #
0.13806703267375333710198503922584 668:1 1238:1 2185:1 #
0.046155590916322569716712109766377 725:1 1022:1 1137:1 1837:1 2028:1 2185:1 2815:1 #
-0.054232926643468001848269466336205 37:1 369:1 449:1 555:1 665:1 928:1 965:1 997:1 1137:1 1155:1 1198:1 1229:1 1837:1 1979:1 2028:1 2141:1 2185:1 2214:1 3045:1 3118:1 3369:1 #
-0.1015677006918564578841213119631 304:1 316:1 1155:1 2028:1 2148:1 2185:1 2513:1 2868:1 3045:1 3094:1 #
-0.13806703267375333710198503922584 1155:1 2185:1 2815:1 #
0.11039337511602657915243952402307 53:1 254:1 301:1 717:1 723:1 1225:1 1628:1 1643:1 1647:1 1837:1 1844:1 1878:1 1921:1 2067:1 2148:1 2340:1 2697:1 3112:1 #
0.13806703267375333710198503922584 197:1 254:1 571:1 902:1 975:1 994:1 1155:1 1660:1 1719:1 1739:1 1834:1 1835:1 1837:1 1908:1 1919:1 1927:1 1984:1 2145:1 2490:1 2705:1 2713:1 2781:1 2832:1 3276:1 3296:1 3314:1 #
-0.13806703267375333710198503922584 928:1 1155:1 1238:1 2028:1 #
0.13806703267375333710198503922584 254:1 1155:1 1242:1 1511:1 1915:1 1995:1 2608:1 #
0.13806703267375333710198503922584 197:1 429:1 786:1 1406:1 1589:1 2053:1 2652:1 2868:1 2966:1 3027:1 #
0.13806703267375333710198503922584 1724:1 2185:1 2868:1 3070:1 #
0.13806703267375333710198503922584 1349:1 2185:1 3045:1 #
0.038610351491104658028241658485058 928:1 1775:1 2850:1 #
-0.13806703267375333710198503922584 254:1 1406:1 1878:1 #
-0.11153814588785479489096985616925 197:1 899:1 2706:1 2927:1 #
0.13806703267375333710198503922584 23:1 597:1 1011:1 1198:1 1834:1 1837:1 1989:1 2028:1 2185:1 2637:1 3045:1 #
0.13806703267375333710198503922584 2185:1 2508:1 2628:1 2868:1 #
0.018676941659219598035335252461664 928:1 1416:1 2850:1 #
0.0015219368795907559088753657761117 38:1 52:1 438:1 446:1 683:1 829:1 938:1 1511:1 1600:1 1677:1 1834:1 1835:1 1837:1 2185:1 2866:1 2868:1 3045:1 3124:1 3190:1 3298:1 3348:1 #
-0.01747311040441406476686481141769 410:1 411:1 928:1 2185:1 2331:1 #
0.013930879278894164885471695924934 53:1 928:1 1142:1 1962:1 2003:1 3206:1 #
0.077051447804156514287399204476969 254:1 918:1 1837:1 2058:1 2185:1 2815:1 #
-0.13806703267375333710198503922584 111:1 401:1 1198:1 1481:1 1593:1 1837:1 2028:1 2185:1 2350:1 2628:1 2652:1 2868:1 3045:1 3290:1 #
-0.083564828659942622102185794119578 863:1 1152:1 1834:1 1835:1 2185:1 2508:1 2565:1 2868:1 3045:1 #
0.13806703267375333710198503922584 254:1 1154:1 1155:1 1801:1 1837:1 1878:1 1879:1 1921:1 2368:1 2411:1 2496:1 2502:1 3022:1 3070:1 #
0.027946938523252765063098479458858 22:1 24:1 39:1 53:1 111:1 158:1 172:1 196:1 197:1 204:1 286:1 389:1 448:1 464:1 543:1 582:1 587:1 635:1 723:1 727:1 741:1 781:1 813:1 821:1 860:1 896:1 908:1 928:1 1095:1 1109:1 1131:1 1143:1 1152:1 1155:1 1204:1 1207:1 1237:1 1275:1 1347:1 1349:1 1396:1 1447:1 1500:1 1550:1 1683:1 1719:1 1724:1 1822:1 1957:1 2028:1 2058:1 2062:1 2071:1 2124:1 2173:1 2200:1 2214:1 2234:1 2247:1 2253:1 2314:1 2316:1 2332:1 2393:1 2436:1 2442:1 2504:1 2540:1 2595:1 2622:1 2652:1 2656:1 2679:1 2690:1 2705:1 2827:1 2868:1 2878:1 2922:1 3005:1 3079:1 3151:1 3174:1 3296:1 3378:1 3383:1 #
0.13806703267375333710198503922584 53:1 635:1 940:1 1155:1 1406:1 1673:1 2008:1 2141:1 2922:1 3197:1 #
0.13806703267375333710198503922584 635:1 940:1 1155:1 1406:1 2003:1 2008:1 2868:1 3349:1 #
0.13806703267375333710198503922584 197:1 1152:1 1237:1 1406:1 1772:1 2003:1 2706:1 #
-0.049921220074356051354946828269021 316:1 1202:1 2185:1 2780:1 3151:1 #
-0.13806703267375333710198503922584 1225:1 1283:1 1396:1 1962:1 2039:1 2185:1 2196:1 2628:1 3045:1 #
-0.13806703267375333710198503922584 53:1 197:1 1155:1 1406:1 1775:1 2003:1 #
-0.047193993245027168748073620463401 53:1 449:1 1252:1 1962:1 2608:1 2628:1 #
0.076589679449391462329188584590156 829:1 2185:1 2442:1 2866:1 3070:1 #
-0.092638011601515468651513174336287 311:1 618:1 761:1 940:1 1837:1 2185:1 2461:1 2523:1 2948:1 3005:1 3024:1 #
0.050111410425407725000024328210202 129:1 254:1 311:1 1198:1 1878:1 2028:1 2868:1 2948:1 3045:1 3079:1 #
-0.0048793697689427850336385539264938 248:1 254:1 805:1 991:1 1837:1 1878:1 1879:1 2028:1 2185:1 2193:1 2614:1 2916:1 #
0.13806703267375333710198503922584 449:1 2185:1 2815:1 #
-0.13806703267375333710198503922584 254:1 1188:1 1837:1 2185:1 2868:1 3005:1 3296:1 #
-0.13806703267375333710198503922584 85:1 330:1 1073:1 1110:1 1511:1 1837:1 2185:1 2628:1 2868:1 3045:1 #
0.13806703267375333710198503922584 28:1 65:1 197:1 369:1 1155:1 1239:1 1308:1 1423:1 2003:1 2053:1 2532:1 2997:1 3112:1 #
0.11398052992862396648465761472835 24:1 54:1 76:1 117:1 197:1 225:1 718:1 1271:1 1447:1 1551:1 1692:1 2053:1 2149:1 2244:1 2266:1 2513:1 2801:1 #
0.13806703267375333710198503922584 53:1 197:1 1406:1 1785:1 #
0.13806703267375333710198503922584 197:1 890:1 938:1 1003:1 1113:1 2180:1 2652:1 2816:1 #
0.13806703267375333710198503922584 33:1 216:1 449:1 938:1 1155:1 2600:1 2652:1 3378:1 #
-0.13806703267375333710198503922584 53:1 449:1 1416:1 1785:1 2555:1 2637:1 2928:1 3378:1 #
-0.13806703267375333710198503922584 938:1 2450:1 3190:1 3378:1 #
-0.13806703267375333710198503922584 197:1 309:1 542:1 1406:1 1628:1 1634:1 1778:1 1834:1 1835:1 1904:1 2053:1 2066:1 2380:1 2612:1 2906:1 3040:1 3280:1 #
-0.13806703267375333710198503922584 449:1 1529:1 1807:1 2664:1 2769:1 2850:1 #
0.13806703267375333710198503922584 286:1 1511:1 1837:1 2185:1 2628:1 2868:1 3045:1 #
0.13806703267375333710198503922584 254:1 410:1 1155:1 1238:1 1837:1 1995:1 2185:1 2325:1 2939:1 3005:1 3032:1 3238:1 3296:1 #
0.028710435854643470005020944313401 254:1 1683:1 1837:1 1878:1 2185:1 2235:1 2868:1 3040:1 3045:1 #
0.13806703267375333710198503922584 1511:1 1593:1 1683:1 1837:1 2039:1 2185:1 2868:1 3045:1 #
0.13806703267375333710198503922584 254:1 1155:1 1837:1 2058:1 2185:1 2705:1 3045:1 #
-0.13806703267375333710198503922584 429:1 940:1 1155:1 1250:1 1396:1 1683:1 1837:1 2185:1 2214:1 3045:1 3272:1 #
-0.13806703267375333710198503922584 93:1 286:1 340:1 829:1 1187:1 1411:1 1511:1 1676:1 1837:1 2185:1 2652:1 2894:1 3070:1 #
-0.13806703267375333710198503922584 1155:1 1238:1 1511:1 1837:1 2053:1 2185:1 2513:1 3045:1 3290:1 #
-0.016324038635434100219523401165134 829:1 928:1 2185:1 2508:1 2866:1 2868:1 3045:1 #
-0.10425634207477242620942803341677 216:1 254:1 340:1 938:1 2028:1 2185:1 2330:1 2380:1 2652:1 #
0.13806703267375333710198503922584 829:1 928:1 2028:1 2289:1 2508:1 2850:1 #
0.072757190143797875747644354760268 449:1 543:1 573:1 602:1 1160:1 1776:1 2053:1 2690:1 2705:1 2927:1 3005:1 #
0.13806703267375333710198503922584 449:1 2021:1 2028:1 2663:1 3378:1 #
0.13806703267375333710198503922584 197:1 1529:1 2850:1 #
0.13806703267375333710198503922584 585:1 928:1 1251:1 2850:1 3014:1 3040:1 #
-0.13806703267375333710198503922584 412:1 1702:1 2028:1 2697:1 2781:1 2797:1 2868:1 3112:1 3190:1 3204:1 #
-0.12209649899194510713762440445862 928:1 1243:1 1294:1 2028:1 2321:1 2322:1 2863:1 #
-0.011306912992746004018029815085811 405:1 433:1 638:1 928:1 1029:1 1079:1 1081:1 1152:1 1164:1 1209:1 1233:1 1234:1 1621:1 1702:1 1897:1 1919:1 1987:1 2028:1 2234:1 2365:1 2515:1 2651:1 2709:1 3023:1 3179:1 3232:1 3273:1 #
-0.13806703267375333710198503922584 928:1 1251:1 3005:1 #
-0.13806703267375333710198503922584 928:1 1529:1 2868:1 #
0.088594201159008359458546522091638 31:1 144:1 254:1 330:1 653:1 683:1 717:1 790:1 1155:1 1238:1 1511:1 1575:1 1837:1 2053:1 2185:1 2608:1 2703:1 2724:1 2965:1 3045:1 #
0.033127469868241873895975402319891 426:1 2185:1 2762:1 3045:1 #
0.12553768095796632997540598353226 349:1 1511:1 1574:1 1775:1 1837:1 1879:1 2028:1 2185:1 2565:1 2652:1 2693:1 3045:1 #
-0.13806703267375333710198503922584 683:1 1511:1 2028:1 2185:1 2812:1 2849:1 3045:1 #
-0.089878167462410951671358816383872 164:1 254:1 345:1 362:1 639:1 645:1 890:1 892:1 991:1 1026:1 1147:1 1162:1 1237:1 1349:1 1352:1 1488:1 1670:1 1845:1 1995:1 2194:1 2386:1 2444:1 2512:1 2652:1 2745:1 2828:1 2868:1 2960:1 2965:1 3045:1 3059:1 3286:1 3348:1 #
-0.13806703267375333710198503922584 254:1 1511:1 1878:1 2028:1 2809:1 2812:1 3045:1 #
-0.027273423616296692262306322618315 254:1 662:1 1433:1 1511:1 #
-0.091019778882795804308969422891096 24:1 138:1 861:1 2053:1 2185:1 #
0.057807337572110831236393835297349 9:1 171:1 379:1 645:1 928:1 1837:1 2053:1 2781:1 2868:1 3005:1 3190:1 3316:1 3378:1 #
0.13806703267375333710198503922584 138:1 928:1 1416:1 1572:1 2868:1 3372:1 #
0.13806703267375333710198503922584 528:1 928:1 1365:1 1921:1 2697:1 3014:1 3112:1 #
0.13806703267375333710198503922584 928:1 1155:1 1957:1 2617:1 #
0.13806703267375333710198503922584 257:1 928:1 1248:1 2078:1 2868:1 2998:1 3076:1 #
-0.084832736746968021024351003234187 991:1 1941:1 2185:1 2728:1 #
-0.007198817656553573376965182717413 171:1 230:1 717:1 928:1 1155:1 3378:1 #
-0.13806703267375333710198503922584 138:1 369:1 928:1 1324:1 3022:1 #
-0.13806703267375333710198503922584 128:1 209:1 273:1 825:1 857:1 928:1 1155:1 #
-0.0031900392841517316404320592226895 196:1 197:1 262:1 1032:1 1511:1 1686:1 2145:1 2698:1 2737:1 #
0.13806703267375333710198503922584 618:1 991:1 1294:1 1511:1 2185:1 3199:1 #
0.05315954555978672640970117413417 59:1 254:1 301:1 340:1 919:1 1098:1 1207:1 1511:1 1522:1 1835:1 1837:1 1878:1 2058:1 2185:1 2717:1 2868:1 2964:1 3070:1 #
0.13806703267375333710198503922584 286:1 991:1 1511:1 1919:1 2185:1 2232:1 #
-0.10901716191416899182087263397989 724:1 991:1 1506:1 1879:1 2185:1 2232:1 3029:1 3175:1 3344:1 #
-0.11978565056626178098042601050111 405:1 635:1 1237:1 2185:1 2508:1 2868:1 3045:1 #
-0.12318292895238888706721525068133 197:1 1003:1 2267:1 2306:1 3022:1 #
-0.11520977768334060564736631704363 843:1 1155:1 1387:1 1793:1 2185:1 2815:1 #
-0.13806703267375333710198503922584 304:1 1511:1 2185:1 2236:1 3045:1 #
0.13806703267375333710198503922584 254:1 1155:1 1237:1 1778:1 1878:1 2028:1 2197:1 2697:1 2705:1 3002:1 3045:1 3112:1 #
0.079733084936354364780086712016782 24:1 254:1 273:1 362:1 668:1 754:1 938:1 1081:1 1155:1 1164:1 1237:1 1468:1 1524:1 1924:1 2003:1 2697:1 3011:1 3094:1 3292:1 3378:1 #
-0.13806703267375333710198503922584 197:1 1262:1 1349:1 2508:1 2868:1 3045:1 #
0.10514115212744232219499451730371 230:1 254:1 866:1 1243:1 1256:1 2200:1 2922:1 3005:1 3378:1 #
0.13806703267375333710198503922584 254:1 401:1 717:1 829:1 927:1 1017:1 1155:1 1529:1 2028:1 2612:1 3254:1 #
-0.04734796045053288326975859945378 254:1 1248:1 2028:1 2058:1 2705:1 #
-0.0020388596582620725251866478089369 22:1 254:1 810:1 1167:1 1312:1 1993:1 2028:1 2583:1 2679:1 2868:1 3292:1 #
-0.12107257124270445758362768629013 9:1 22:1 30:1 31:1 254:1 703:1 707:1 925:1 1791:1 1878:1 2159:1 2314:1 2322:1 2753:1 3005:1 3225:1 #
-0.13806703267375333710198503922584 2185:1 2450:1 2815:1 #
-0.060777911696117688233886866555622 23:1 24:1 31:1 34:1 53:1 254:1 1081:1 1153:1 1164:1 1349:1 1724:1 1744:1 1785:1 1915:1 2652:1 2705:1 2816:1 2868:1 3005:1 3011:1 3172:1 3296:1 #
0.13806703267375333710198503922584 197:1 928:1 1152:1 1628:1 1676:1 1837:1 1879:1 2015:1 2314:1 2765:1 2875:1 3096:1 #
-0.061557634726819188131230475846678 992:1 1575:1 2028:1 2185:1 2186:1 #
0.13806703267375333710198503922584 197:1 1593:1 1837:1 2185:1 2204:1 3045:1 #
0.13806703267375333710198503922584 713:1 1775:1 2185:1 2508:1 #
-0.13806703267375333710198503922584 1155:1 1775:1 2185:1 3045:1 3094:1 #
-0.13806703267375333710198503922584 1052:1 1834:1 1835:1 2008:1 2185:1 2608:1 #
-0.13806703267375333710198503922584 1155:1 2185:1 2532:1 2815:1 2850:1 #
-0.015042248761490524533446233590439 58:1 197:1 375:1 555:1 651:1 717:1 1015:1 1133:1 1143:1 1406:1 1629:1 1660:1 1837:1 2032:1 #
0.13806703267375333710198503922584 1676:1 2185:1 2815:1 #
0.13806703267375333710198503922584 254:1 2028:1 3005:1 3296:1 #
0.13806703267375333710198503922584 254:1 1738:1 2868:1 3005:1 3022:1 3086:1 3296:1 #
0.13806703267375333710198503922584 254:1 340:1 1128:1 1878:1 2472:1 2697:1 #
0.13806703267375333710198503922584 254:1 1879:1 2652:1 2868:1 3005:1 3296:1 #
0.0095876346558114479423640119648553 254:1 928:1 1188:1 1511:1 1587:1 1837:1 1930:1 2690:1 2898:1 2916:1 3022:1 3195:1 3296:1 #
-0.13806703267375333710198503922584 254:1 388:1 770:1 1137:1 1913:1 2068:1 2868:1 3296:1 #
-0.13806703267375333710198503922584 254:1 429:1 2008:1 2652:1 2705:1 3005:1 3027:1 3086:1 3296:1 #
-0.13806703267375333710198503922584 254:1 1879:1 2067:1 2193:1 2868:1 3086:1 #
-0.0496469453909441083006015560386 254:1 1081:1 1243:1 1766:1 1778:1 1878:1 2062:1 2221:1 2508:1 2697:1 2868:1 2929:1 3045:1 #
0.13806703267375333710198503922584 106:1 734:1 958:1 971:1 1155:1 1238:1 1620:1 1774:1 1834:1 1835:1 2185:1 #
0.13806703267375333710198503922584 1155:1 2185:1 2628:1 #
0.13806703267375333710198503922584 1155:1 2053:1 2185:1 2628:1 2792:1 #
0.13806703267375333710198503922584 1155:1 1293:1 2185:1 2628:1 #
0.13806703267375333710198503922584 143:1 1899:1 2185:1 2628:1 2866:1 3014:1 #
-0.13806703267375333710198503922584 2185:1 2868:1 3256:1 #
-0.13806703267375333710198503922584 254:1 2058:1 2705:1 #
0.13806703267375333710198503922584 138:1 928:1 1529:1 1772:1 1965:1 2026:1 #
-0.13806703267375333710198503922584 668:1 2185:1 2628:1 3022:1 3045:1 #
-0.028762957432825114745256200876611 673:1 861:1 1152:1 2185:1 3298:1 #
0.084937712971430295860741921387671 46:1 53:1 110:1 254:1 317:1 401:1 405:1 433:1 928:1 1186:1 1187:1 1198:1 1269:1 1529:1 1719:1 1837:1 1915:1 2008:1 2088:1 2508:1 2528:1 2850:1 2868:1 3054:1 3064:1 3237:1 3292:1 3398:1 #
0.085582757639997175669321904933895 31:1 254:1 1879:1 2058:1 2652:1 2868:1 3005:1 3086:1 #
0.13394976015573242800194009305415 128:1 928:1 1129:1 2003:1 2868:1 #
0.13806703267375333710198503922584 2185:1 2868:1 3040:1 3045:1 #
0.13806703267375333710198503922584 254:1 1191:1 1659:1 1879:1 3086:1 3296:1 #
-0.13806703267375333710198503922584 254:1 389:1 1155:1 1716:1 1879:1 2003:1 2058:1 3086:1 #
-0.13806703267375333710198503922584 197:1 254:1 297:1 298:1 645:1 938:1 1020:1 1155:1 1837:1 2003:1 2053:1 2956:1 3378:1 #
-0.13806703267375333710198503922584 928:1 1155:1 3014:1 3045:1 #
-0.13806703267375333710198503922584 215:1 254:1 563:1 1879:1 2053:1 2271:1 3022:1 3156:1 #
-0.12067827261242236591698429037933 128:1 254:1 301:1 399:1 481:1 587:1 928:1 1155:1 1473:1 1837:1 1879:1 2239:1 2350:1 2406:1 2652:1 2815:1 2899:1 3233:1 3378:1 #
-0.056369336709148044894934770354666 197:1 269:1 1511:1 2548:1 2966:1 #
0.13806703267375333710198503922584 717:1 2185:1 2456:1 2705:1 2769:1 3045:1 #
0.13806703267375333710198503922584 23:1 287:1 1834:1 2185:1 2762:1 2815:1 #
0.13806703267375333710198503922584 1022:1 1511:1 1834:1 1835:1 2185:1 2628:1 2815:1 2868:1 #
-0.13806703267375333710198503922584 172:1 219:1 577:1 668:1 669:1 717:1 754:1 832:1 928:1 1152:1 1326:1 1353:1 1447:1 1604:1 1683:1 1697:1 1879:1 2028:1 2185:1 2314:1 2442:1 2637:1 2652:1 2716:1 2762:1 2875:1 2989:1 3005:1 3045:1 #
-0.13806703267375333710198503922584 311:1 557:1 672:1 940:1 1022:1 1127:1 1511:1 1837:1 2185:1 2608:1 2815:1 2868:1 2948:1 3005:1 #
-0.13806703267375333710198503922584 71:1 330:1 1511:1 2185:1 3045:1 3065:1 #
0.13806703267375333710198503922584 53:1 254:1 1153:1 1155:1 1660:1 1915:1 2697:1 2703:1 3054:1 3094:1 3303:1 #
0.13806703267375333710198503922584 128:1 928:1 945:1 #
-0.13161265737168070799611996335443 53:1 254:1 800:1 847:1 928:1 1081:1 1090:1 1142:1 1153:1 1468:1 1724:1 1798:1 1879:1 1915:1 1989:1 2228:1 2286:1 2725:1 2922:1 3011:1 3040:1 #
-0.13806703267375333710198503922584 254:1 597:1 1312:1 1620:1 2697:1 2875:1 3112:1 #
-0.011348648566719981081729606842146 254:1 584:1 1081:1 1155:1 1628:1 1660:1 2506:1 2697:1 2741:1 3311:1 #
-0.13806703267375333710198503922584 927:1 2185:1 2508:1 2868:1 3045:1 #
-0.13806703267375333710198503922584 23:1 254:1 1155:1 2690:1 3296:1 #
-0.066154512777290355729498116943432 197:1 1109:1 1406:1 1921:1 2141:1 2583:1 2716:1 2818:1 3160:1 #
0.085018010650569908470686186774401 30:1 31:1 52:1 197:1 254:1 388:1 928:1 938:1 996:1 1018:1 1153:1 1317:1 1332:1 1369:1 1723:1 1837:1 1878:1 1879:1 2053:1 2185:1 2464:1 2565:1 2703:1 2817:1 3061:1 3190:1 3357:1 3378:1 #
0.13806703267375333710198503922584 311:1 642:1 940:1 1406:1 1837:1 2185:1 2330:1 3045:1 #
0.13806703267375333710198503922584 254:1 410:1 991:1 1481:1 1837:1 1878:1 2028:1 3045:1 #
0.13806703267375333710198503922584 254:1 1238:1 2185:1 #
-0.093520136382624116655470913883619 197:1 340:1 717:1 1234:1 1406:1 1592:1 1697:1 1764:1 1777:1 1794:1 1837:1 1921:1 1983:1 2053:1 2185:1 2817:1 3045:1 #
-0.13806703267375333710198503922584 216:1 244:1 938:1 992:1 1153:1 1837:1 1915:1 2091:1 2185:1 2652:1 2868:1 3190:1 3258:1 3378:1 #
-0.007187026991781928289548808663767 143:1 172:1 557:1 734:1 917:1 938:1 992:1 1000:1 1152:1 1155:1 1238:1 1419:1 1575:1 1660:1 1837:1 1900:1 1921:1 2105:1 2185:1 2565:1 2652:1 2763:1 2922:1 3206:1 #
0.13806703267375333710198503922584 254:1 1879:1 3005:1 3086:1 3195:1 #
0.13508893310204617144165695208358 38:1 254:1 2608:1 2690:1 #
0.13806703267375333710198503922584 254:1 1236:1 1750:1 1778:1 1879:1 2199:1 2518:1 2697:1 #
0.13806703267375333710198503922584 254:1 1778:1 1879:1 2697:1 3112:1 #
0.13806703267375333710198503922584 254:1 1081:1 2697:1 3112:1 #
-0.073114838805796028564643052050087 22:1 31:1 38:1 254:1 584:1 941:1 1303:1 1834:1 1835:1 1837:1 2028:1 2185:1 2248:1 2411:1 2619:1 2628:1 2697:1 #
-0.13806703267375333710198503922584 52:1 254:1 1350:1 1694:1 1778:1 2069:1 2697:1 2735:1 #
-0.035209384510885198549257069089435 197:1 1164:1 1919:1 2028:1 2982:1 #
-0.046951805603597560057060888993874 433:1 940:1 1164:1 1343:1 1406:1 2028:1 2330:1 #
-0.077143374283466681351484339757008 129:1 254:1 717:1 1878:1 2028:1 2189:1 2225:1 2298:1 2508:1 2546:1 3045:1 #
0.088527745811812649789906970454467 307:1 309:1 894:1 1229:1 1500:1 1683:1 1809:1 1895:1 2053:1 2095:1 2185:1 2516:1 2652:1 2964:1 3059:1 3079:1 3175:1 3347:1 3348:1 #
0.13806703267375333710198503922584 254:1 1238:1 1837:1 2185:1 2652:1 2868:1 3373:1 #
0.13412179275651267551516809817258 330:1 859:1 1198:1 1628:1 1837:1 2185:1 2815:1 2868:1 3151:1 3290:1 #
0.075995437507278731925630665955396 59:1 178:1 493:1 547:1 587:1 1022:1 1089:1 1198:1 1207:1 1349:1 1620:1 1628:1 1685:1 1962:1 2286:1 2472:1 2868:1 2945:1 2993:1 3022:1 3190:1 3280:1 #
-0.13806703267375333710198503922584 23:1 553:1 721:1 1003:1 1100:1 1429:1 1676:1 1837:1 1855:1 1879:1 2185:1 2762:1 2815:1 3183:1 3297:1 #
-0.13806703267375333710198503922584 362:1 1198:1 2185:1 2481:1 3045:1 #
-0.13806703267375333710198503922584 75:1 166:1 196:1 286:1 464:1 723:1 928:1 1109:1 1837:1 1899:1 2185:1 2815:1 2817:1 3022:1 #
-0.015257773711523568010983709086759 48:1 129:1 278:1 405:1 411:1 651:1 1248:1 1255:1 1575:1 1628:1 1683:1 1695:1 1837:1 2185:1 2393:1 2558:1 2762:1 2840:1 3040:1 #
-0.13806703267375333710198503922584 1198:1 1837:1 2185:1 2762:1 2817:1 2850:1 #
0.13806703267375333710198503922584 254:1 1109:1 1127:1 1152:1 1468:1 1480:1 1775:1 1785:1 1837:1 1844:1 2028:1 2067:1 2642:1 2652:1 2816:1 2818:1 3005:1 #
0.036064838424694260765601683260684 140:1 197:1 254:1 482:1 582:1 597:1 998:1 1173:1 1239:1 1251:1 1597:1 1834:1 1835:1 1837:1 1930:1 2028:1 2108:1 2190:1 2271:1 2377:1 2615:1 2642:1 2723:1 2738:1 2795:1 2958:1 3005:1 3274:1 3298:1 #
0.13806703267375333710198503922584 646:1 928:1 #
0.13806703267375333710198503922584 197:1 1406:1 2347:1 2690:1 2868:1 #
-0.13806703267375333710198503922584 197:1 1511:1 2652:1 #
-0.010055855160525557084882919411939 22:1 23:1 24:1 27:1 28:1 30:1 31:1 35:1 92:1 111:1 172:1 177:1 185:1 195:1 196:1 238:1 254:1 273:1 278:1 286:1 302:1 305:1 330:1 340:1 363:1 376:1 393:1 401:1 405:1 429:1 464:1 533:1 584:1 595:1 614:1 624:1 648:1 684:1 693:1 717:1 723:1 738:1 743:1 754:1 762:1 764:1 774:1 837:1 867:1 884:1 927:1 928:1 953:1 1006:1 1081:1 1083:1 1109:1 1152:1 1155:1 1179:1 1189:1 1198:1 1207:1 1231:1 1237:1 1250:1 1275:1 1280:1 1291:1 1362:1 1388:1 1462:1 1526:1 1575:1 1621:1 1628:1 1660:1 1665:1 1683:1 1696:1 1697:1 1724:1 1731:1 1740:1 1745:1 1748:1 1750:1 1751:1 1777:1 1786:1 1798:1 1837:1 1845:1 1857:1 1865:1 1879:1 1908:1 1962:1 1981:1 1989:1 2003:1 2009:1 2013:1 2028:1 2039:1 2066:1 2145:1 2173:1 2182:1 2204:1 2225:1 2228:1 2241:1 2248:1 2292:1 2314:1 2316:1 2332:1 2349:1 2354:1 2398:1 2406:1 2471:1 2494:1 2500:1 2504:1 2508:1 2542:1 2546:1 2548:1 2576:1 2603:1 2608:1 2628:1 2637:1 2652:1 2676:1 2697:1 2737:1 2761:1 2779:1 2795:1 2815:1 2827:1 2843:1 2868:1 2947:1 2948:1 2951:1 2994:1 3005:1 3014:1 3015:1 3045:1 3051:1 3054:1 3060:1 3124:1 3156:1 3162:1 3179:1 3225:1 3246:1 3258:1 3280:1 3290:1 3292:1 3296:1 3298:1 3324:1 #
0.13806703267375333710198503922584 1511:1 2185:1 2817:1 #
-0.13806703267375333710198503922584 254:1 901:1 1017:1 1081:1 1152:1 1155:1 1774:1 1778:1 2260:1 2350:1 2506:1 2697:1 2815:1 2868:1 3022:1 3112:1 3270:1 #
-0.056261620337910468736541957923691 53:1 124:1 144:1 320:1 717:1 744:1 793:1 829:1 928:1 1014:1 1152:1 1353:1 1500:1 1645:1 1930:1 2028:1 2316:1 2622:1 2720:1 3018:1 3124:1 3170:1 3276:1 3298:1 3356:1 #
-0.13806703267375333710198503922584 254:1 1878:1 2028:1 2868:1 #
-0.040277004184331804959029454948904 112:1 254:1 353:1 458:1 683:1 1645:1 1658:1 1834:1 1835:1 2028:1 2652:1 2705:1 3296:1 #
-0.13806703267375333710198503922584 254:1 1878:1 2816:1 #
0.13806703267375333710198503922584 429:1 1155:1 1593:1 1707:1 2185:1 2443:1 2769:1 3045:1 #
-0.028477162123423039458147698610446 429:1 639:1 1155:1 1238:1 1282:1 1554:1 1774:1 1775:1 1793:1 2185:1 2218:1 2638:1 2796:1 2868:1 #
-0.13806703267375333710198503922584 210:1 2185:1 3005:1 #
-0.13806703267375333710198503922584 2185:1 2568:1 3005:1 #
0.0034557768237075295152116449770574 254:1 286:1 405:1 717:1 1837:1 2185:1 2234:1 2612:1 2843:1 3045:1 #
0.13806703267375333710198503922584 22:1 23:1 197:1 254:1 448:1 543:1 1187:1 1837:1 1878:1 2053:1 2464:1 2762:1 3134:1 #
0.13806703267375333710198503922584 216:1 254:1 938:1 1248:1 1787:1 1878:1 2749:1 #
0.13806703267375333710198503922584 254:1 1878:1 1896:1 2092:1 2506:1 3290:1 #
0.032408694968818825554723872528484 128:1 138:1 208:1 928:1 1237:1 2053:1 2406:1 2725:1 2943:1 3378:1 #
-0.13806703267375333710198503922584 106:1 254:1 512:1 965:1 1198:1 1214:1 1237:1 1511:1 1764:1 1837:1 3117:1 3378:1 #
-0.078614155214164843643587232691061 31:1 254:1 546:1 1613:1 1744:1 1837:1 1878:1 2053:1 2398:1 2628:1 #
0.086539130684715290242614571525337 668:1 2185:1 2815:1 #
0.038859386586727003021213278088908 40:1 2185:1 2868:1 3045:1 #
0.13806703267375333710198503922584 1511:1 1697:1 2185:1 #
0.13806703267375333710198503922584 1238:1 1511:1 2185:1 2481:1 2866:1 #
0.13806703267375333710198503922584 1052:1 1857:1 2185:1 2815:1 2868:1 #
0.13806703267375333710198503922584 2185:1 2350:1 2815:1 #
0.13806703267375333710198503922584 919:1 1052:1 2185:1 #
-0.13806703267375333710198503922584 1119:1 1404:1 1660:1 2185:1 2866:1 3238:1 #
-0.1267658607899612155378576971998 153:1 388:1 1077:1 1450:1 2185:1 2368:1 2469:1 3097:1 #
-0.13806703267375333710198503922584 866:1 2185:1 2437:1 2481:1 2866:1 #
-0.13806703267375333710198503922584 1857:1 2185:1 2762:1 3309:1 #
-0.13806703267375333710198503922584 1593:1 2185:1 2254:1 #
0.076644116502111309108258296873828 196:1 254:1 311:1 645:1 1808:1 1837:1 1976:1 2053:1 2338:1 2503:1 2707:1 3005:1 3206:1 3296:1 #
0.04365685875009619326680976314492 30:1 31:1 254:1 645:1 1573:1 1837:1 1878:1 2365:1 2442:1 2508:1 2850:1 2868:1 3022:1 3045:1 3206:1 #
0.11028116319684998225536531890612 34:1 254:1 311:1 652:1 829:1 1719:1 1764:1 1765:1 2009:1 2028:1 2200:1 2494:1 2655:1 2705:1 2863:1 3022:1 3153:1 3224:1 3378:1 3386:1 #
0.13806703267375333710198503922584 44:1 254:1 292:1 542:1 1137:1 1511:1 1837:1 2039:1 2058:1 2091:1 2697:1 3005:1 3032:1 3149:1 3296:1 3378:1 #
-0.13806703267375333710198503922584 31:1 254:1 587:1 671:1 744:1 2629:1 2769:1 3296:1 #
-0.13806703267375333710198503922584 254:1 542:1 1962:1 2058:1 2267:1 3022:1 #
-0.13806703267375333710198503922584 254:1 798:1 1247:1 2058:1 2705:1 3045:1 #
-0.05712919498566945697426433525834 254:1 311:1 754:1 1295:1 1593:1 2068:1 2331:1 2452:1 2697:1 3022:1 3292:1 #
0.13806703267375333710198503922584 66:1 202:1 317:1 717:1 928:1 1837:1 1857:1 1921:1 2185:1 2494:1 2599:1 2628:1 2770:1 3070:1 #
0.13806703267375333710198503922584 405:1 1233:1 1575:1 1764:1 1777:1 1837:1 2185:1 2652:1 2762:1 2815:1 #
0.13806703267375333710198503922584 1081:1 1879:1 2185:1 2506:1 3162:1 #
-0.10458986774834827526703406874731 382:1 405:1 928:1 992:1 1120:1 1575:1 1837:1 2185:1 2440:1 2953:1 #
-0.13806703267375333710198503922584 928:1 1052:1 1597:1 1837:1 1857:1 2185:1 2248:1 2747:1 2863:1 3022:1 3219:1 #
0.13806703267375333710198503922584 254:1 793:1 938:1 1112:1 1198:1 1628:1 2916:1 3005:1 3298:1 #
0.13806703267375333710198503922584 145:1 254:1 1168:1 1243:1 #
0.13806703267375333710198503922584 254:1 354:1 1777:1 2058:1 2441:1 #
0.13806703267375333710198503922584 254:1 1252:1 1879:1 2058:1 3005:1 3022:1 3086:1 #
0.13806703267375333710198503922584 68:1 91:1 254:1 1452:1 1977:1 2359:1 2386:1 2686:1 #
-0.037159075570979679947747342794173 68:1 254:1 662:1 754:1 1198:1 1511:1 1724:1 1989:1 2028:1 2686:1 3234:1 3292:1 3304:1 #
-0.13806703267375333710198503922584 254:1 1511:1 1764:1 1879:1 2494:1 2652:1 #
-0.13806703267375333710198503922584 254:1 1243:1 2368:1 3086:1 3296:1 #
-0.13806703267375333710198503922584 254:1 1408:1 1921:1 2697:1 2714:1 3112:1 3206:1 #
0.062773827077032856580629527343262 880:1 928:1 2185:1 3079:1 3296:1 3348:1 3378:1 #
0.13806703267375333710198503922584 992:1 1198:1 1203:1 1575:1 1837:1 2028:1 2118:1 2185:1 2213:1 3045:1 #
0.13806703267375333710198503922584 928:1 2267:1 3162:1 3219:1 #
0.13806703267375333710198503922584 286:1 890:1 928:1 1152:1 1511:1 3022:1 #
-0.13806703267375333710198503922584 829:1 925:1 928:1 3005:1 #
-0.13806703267375333710198503922584 928:1 1775:1 2185:1 2508:1 3045:1 #
-0.13806703267375333710198503922584 197:1 960:1 1406:1 2583:1 3005:1 3162:1 #
-0.13806703267375333710198503922584 927:1 928:1 1719:1 2922:1 3376:1 #
0.13806703267375333710198503922584 254:1 1778:1 2652:1 2697:1 2868:1 3112:1 #
0.13806703267375333710198503922584 254:1 1778:1 1879:1 2697:1 2868:1 3112:1 #
0.13806703267375333710198503922584 2185:1 2762:1 3045:1 #
0.13806703267375333710198503922584 254:1 1778:1 2697:1 3112:1 #
0.13806703267375333710198503922584 138:1 435:1 928:1 1198:1 1737:1 1785:1 2652:1 2975:1 #
-0.10325521072623837504078636584381 571:1 897:1 1052:1 1441:1 1500:1 1609:1 1778:1 1837:1 2028:1 2185:1 2697:1 2817:1 2868:1 3112:1 #
-0.13806703267375333710198503922584 197:1 254:1 311:1 991:1 1837:1 2697:1 2868:1 3112:1 #
0.12302702656555254689951794944136 12:1 23:1 126:1 285:1 345:1 350:1 375:1 405:1 472:1 542:1 557:1 660:1 717:1 723:1 801:1 1017:1 1109:1 1155:1 1275:1 1511:1 1692:1 1722:1 1724:1 1962:1 2028:1 2030:1 2168:1 2185:1 2612:1 2652:1 2757:1 2827:1 2885:1 2917:1 3009:1 3045:1 3128:1 #
0.13806703267375333710198503922584 928:1 1349:1 2046:1 2248:1 3177:1 #
0.13806703267375333710198503922584 23:1 289:1 563:1 587:1 928:1 1206:1 1389:1 1946:1 2028:1 2407:1 2415:1 3206:1 3236:1 3331:1 #
0.13806703267375333710198503922584 197:1 1359:1 1406:1 3121:1 #
0.13806703267375333710198503922584 411:1 928:1 1152:1 2314:1 2652:1 #
-0.13806703267375333710198503922584 928:1 1152:1 1462:1 1511:1 1683:1 2381:1 2652:1 #
-0.13806703267375333710198503922584 928:1 1152:1 2028:1 2314:1 2703:1 2820:1 #
-0.13806703267375333710198503922584 1697:1 2043:1 2185:1 2546:1 2628:1 3045:1 #
-0.13806703267375333710198503922584 928:1 956:1 1620:1 2200:1 #
-0.13806703267375333710198503922584 890:1 928:1 1620:1 1930:1 #
0.13806703267375333710198503922584 197:1 254:1 1837:1 2185:1 2612:1 2815:1 2868:1 #
0.13806703267375333710198503922584 254:1 1878:1 1879:1 2185:1 2815:1 2868:1 #
0.13806703267375333710198503922584 254:1 1837:1 2185:1 2690:1 2868:1 #
-0.13806703267375333710198503922584 340:1 503:1 1248:1 1593:1 1835:1 2173:1 2185:1 2676:1 2868:1 3045:1 3298:1 #
-0.13806703267375333710198503922584 129:1 1957:1 2185:1 2868:1 #
-0.13806703267375333710198503922584 1695:1 2185:1 2868:1 #
0.13806703267375333710198503922584 924:1 928:1 957:1 1013:1 1152:1 1527:1 1921:1 1930:1 2138:1 3219:1 #
0.13806703267375333710198503922584 198:1 744:1 928:1 1480:1 2028:1 #
-0.025575087570713094659025088617454 173:1 254:1 924:1 1198:1 1349:1 1468:1 1837:1 2286:1 2411:1 2637:1 2652:1 2697:1 2713:1 2739:1 2769:1 3274:1 #
-0.062435417176535550065619162296571 254:1 491:1 587:1 1137:1 1155:1 1673:1 1834:1 1835:1 1905:1 2003:1 2309:1 2359:1 2530:1 2846:1 3274:1 3325:1 #
-0.13806703267375333710198503922584 254:1 1778:1 1879:1 #
-0.088907459592655502245150955786812 202:1 1152:1 1837:1 2141:1 2185:1 2470:1 2722:1 2724:1 3341:1 #
0.13806703267375333710198503922584 991:1 1511:1 2185:1 #
0.13806703267375333710198503922584 588:1 1511:1 2048:1 2250:1 2698:1 3173:1 3190:1 #
0.13806703267375333710198503922584 927:1 1250:1 2112:1 2185:1 3022:1 3045:1 3156:1 3306:1 #
0.13806703267375333710198503922584 1198:1 1593:1 2185:1 2703:1 #
0.13806703267375333710198503922584 144:1 1511:1 2185:1 #
-0.067606570754818823276721673209977 28:1 30:1 908:1 937:1 1052:1 1511:1 1761:1 2053:1 2185:1 2245:1 #
-0.06090096214169450627995416880367 197:1 280:1 318:1 410:1 1361:1 1879:1 #
-0.13806703267375333710198503922584 24:1 30:1 260:1 1575:1 2185:1 2703:1 #
-0.13806703267375333710198503922584 1236:1 2028:1 2185:1 #
-0.059141925862587672868553312355289 1137:1 1511:1 1723:1 2185:1 2236:1 #
0.13806703267375333710198503922584 23:1 254:1 724:1 1352:1 1394:1 1837:1 2139:1 2697:1 3094:1 3292:1 #
0.13806703267375333710198503922584 48:1 197:1 892:1 1529:1 1743:1 1837:1 1851:1 2003:1 2868:1 2874:1 3162:1 #
-0.13806703267375333710198503922584 23:1 254:1 1878:1 2509:1 3296:1 #
-0.13806703267375333710198503922584 66:1 253:1 254:1 1878:1 2599:1 2868:1 #
-0.13806703267375333710198503922584 254:1 304:1 1878:1 #
-0.13806703267375333710198503922584 197:1 892:1 1529:1 2015:1 3022:1 #
0.13806703267375333710198503922584 1775:1 2185:1 2377:1 #
0.13806703267375333710198503922584 38:1 1723:1 2185:1 #
0.13806703267375333710198503922584 1723:1 2185:1 #
0.13806703267375333710198503922584 173:1 680:1 778:1 898:1 1674:1 1683:1 2256:1 2481:1 2962:1 3190:1 3325:1 #
-0.11666571639817638339486904897058 410:1 631:1 680:1 1787:1 1837:1 2185:1 2675:1 3011:1 #
-0.11265621873344393299998245083771 304:1 1416:1 2185:1 2481:1 2697:1 3112:1 3162:1 #
-0.13806703267375333710198503922584 635:1 928:1 1416:1 1480:1 1837:1 2028:1 2185:1 2442:1 2628:1 2868:1 #
-0.13806703267375333710198503922584 286:1 1628:1 1837:1 2185:1 2375:1 #
0.13806703267375333710198503922584 2008:1 2185:1 2815:1 2868:1 #
0.13806703267375333710198503922584 31:1 254:1 2868:1 3005:1 3296:1 #
0.13806703267375333710198503922584 254:1 1479:1 2350:1 3005:1 3022:1 3138:1 #
0.13806703267375333710198503922584 254:1 723:1 3005:1 3296:1 #
-0.055348352368320349881081199328037 22:1 254:1 348:1 1835:1 2068:1 2637:1 2705:1 2816:1 3005:1 3094:1 3296:1 #
-0.13806703267375333710198503922584 197:1 226:1 2206:1 3005:1 #
-0.13806703267375333710198503922584 197:1 405:1 890:1 1052:1 1113:1 3005:1 #
-0.13806703267375333710198503922584 805:1 928:1 991:1 1930:1 2868:1 3005:1 #
0.13806703267375333710198503922584 717:1 1511:1 1837:1 2185:1 3175:1 #
0.11425465242479990179980120501568 129:1 866:1 928:1 1185:1 1673:1 2368:1 2652:1 2762:1 2820:1 3015:1 #
0.07175490385072745558314721847637 138:1 194:1 216:1 717:1 910:1 928:1 1249:1 1597:1 1652:1 1695:1 1777:1 1837:1 2013:1 2028:1 2104:1 2185:1 2283:1 2827:1 #
-0.071317093375481407924176835422259 129:1 471:1 588:1 651:1 717:1 1045:1 1109:1 1198:1 1204:1 1683:1 1777:1 2028:1 2185:1 2609:1 3151:1 3290:1 #
0.13806703267375333710198503922584 24:1 197:1 646:1 1113:1 1262:1 #
0.13806703267375333710198503922584 197:1 587:1 922:1 1628:1 1719:1 2214:1 #
0.081436595542230955091511646060098 197:1 208:1 938:1 1343:1 1349:1 1502:1 2053:1 2548:1 2868:1 3378:1 #
-0.047740923429334933270062890642293 196:1 197:1 1027:1 1275:1 1511:1 1665:1 2292:1 2652:1 2737:1 2966:1 3317:1 #
0.13806703267375333710198503922584 1052:1 2185:1 3070:1 #
-0.12316388656995702621799182452378 197:1 410:1 1332:1 #
-0.077563113678799297523447364710592 2145:1 2185:1 2628:1 2724:1 3186:1 #
-0.13806703267375333710198503922584 23:1 254:1 918:1 3296:1 #
0.12925232116404469784320951930567 1052:1 1151:1 1878:1 2028:1 2185:1 2629:1 2838:1 3045:1 3093:1 3290:1 #
0.13806703267375333710198503922584 23:1 24:1 945:1 1022:1 1500:1 1529:1 1834:1 2185:1 2576:1 2628:1 2676:1 2725:1 2868:1 3298:1 3378:1 #
0.13806703267375333710198503922584 330:1 938:1 991:1 1510:1 1515:1 1835:1 2185:1 #
-0.046571049574420174399502769801984 928:1 1249:1 1793:1 2185:1 2481:1 2508:1 2868:1 3045:1 #
-0.13806703267375333710198503922584 1155:1 2185:1 2489:1 3045:1 #
0.13806703267375333710198503922584 197:1 405:1 449:1 1237:1 1353:1 1718:1 1837:1 1894:1 1930:1 2066:1 2073:1 2108:1 2122:1 2943:1 3274:1 #
0.13806703267375333710198503922584 197:1 2155:1 #
0.13806703267375333710198503922584 254:1 584:1 1265:1 2221:1 2697:1 #
0.13806703267375333710198503922584 254:1 273:1 1142:1 1265:1 3156:1 #
0.13806703267375333710198503922584 254:1 1139:1 2697:1 3112:1 #
-0.13806703267375333710198503922584 254:1 723:1 1777:1 2049:1 2450:1 2652:1 2697:1 #
-0.13806703267375333710198503922584 1155:1 2028:1 2185:1 3045:1 #
-0.13806703267375333710198503922584 23:1 254:1 2612:1 #
-0.13806703267375333710198503922584 440:1 449:1 1511:1 1875:1 2553:1 3378:1 #
0.032304744428750024887175840149212 435:1 866:1 928:1 1719:1 2053:1 3345:1 #
0.13806703267375333710198503922584 717:1 1238:1 2185:1 3022:1 #
0.13806703267375333710198503922584 138:1 479:1 928:1 1962:1 2868:1 #
-0.13806703267375333710198503922584 928:1 1317:1 2868:1 3219:1 #
-0.064180609665118168449815527765168 320:1 725:1 928:1 1837:1 1860:1 1863:1 1872:1 2054:1 2508:1 2868:1 3045:1 #
-0.13806703267375333710198503922584 829:1 928:1 2508:1 2868:1 3045:1 #
-0.12143128642184701504458388399144 928:1 2368:1 2490:1 2747:1 3014:1 3219:1 #
0.13806703267375333710198503922584 1511:1 2028:1 2053:1 2185:1 3296:1 #
-0.13806703267375333710198503922584 138:1 413:1 2185:1 2815:1 #
-0.13806703267375333710198503922584 22:1 31:1 340:1 587:1 736:1 912:1 2053:1 2185:1 2432:1 2502:1 3045:1 3187:1 #
-0.13806703267375333710198503922584 1878:1 2053:1 2185:1 2306:1 2608:1 #
0.13806703267375333710198503922584 30:1 162:1 235:1 254:1 315:1 512:1 565:1 1393:1 1500:1 1837:1 2768:1 3161:1 #
0.13806703267375333710198503922584 381:1 449:1 1451:1 3022:1 #
0.13806703267375333710198503922584 449:1 928:1 2162:1 2277:1 2644:1 #
0.12119235082126604552410498172321 27:1 28:1 30:1 163:1 216:1 717:1 1230:1 1633:1 2185:1 2831:1 3020:1 3095:1 #
0.074811942559265015573188861708331 254:1 829:1 1764:1 1793:1 1837:1 2036:1 2690:1 #
-0.13806703267375333710198503922584 254:1 596:1 1628:1 1645:1 1764:1 3022:1 #
-0.092618472511578578409974227270141 254:1 1957:1 2185:1 2527:1 3014:1 #
-0.13806703267375333710198503922584 139:1 449:1 991:1 1868:1 2831:1 #
0.13806703267375333710198503922584 2185:1 2868:1 3045:1 #
0.13806703267375333710198503922584 533:1 1081:1 2053:1 2185:1 #
0.13806703267375333710198503922584 668:1 1072:1 1171:1 1878:1 2053:1 2185:1 #
0.13806703267375333710198503922584 533:1 2185:1 #
0.13806703267375333710198503922584 1816:1 2185:1 #
0.13806703267375333710198503922584 218:1 254:1 991:1 1198:1 1835:1 2053:1 2185:1 2815:1 #
-0.13806703267375333710198503922584 27:1 197:1 2053:1 2185:1 2378:1 3200:1 #
-0.016021059409537501821985117089753 22:1 111:1 144:1 829:1 837:1 928:1 1237:1 1834:1 1835:1 1837:1 1844:1 2185:1 2287:1 2628:1 2652:1 #
-0.13806703267375333710198503922584 1155:1 1238:1 2185:1 3094:1 #
0.13806703267375333710198503922584 254:1 992:1 1511:1 1891:1 2442:1 3005:1 3296:1 #
0.13806703267375333710198503922584 254:1 1879:1 3005:1 3022:1 3086:1 3195:1 #
-0.071332251340155208851889767629473 143:1 521:1 940:1 1198:1 1673:1 2022:1 2546:1 3005:1 3014:1 #
-0.13806703267375333710198503922584 2067:1 2185:1 2868:1 3005:1 #
0.04774956713618377923680213825719 1957:1 2062:1 2185:1 2815:1 #
0.13806703267375333710198503922584 197:1 423:1 2628:1 3045:1 #
0.013580648480833958438585007399979 103:1 134:1 197:1 430:1 460:1 649:1 718:1 754:1 1173:1 1194:1 1198:1 1248:1 1406:1 1530:1 1645:1 1724:1 2289:1 2572:1 2660:1 3045:1 3126:1 #
0.13806703267375333710198503922584 1261:1 2185:1 3022:1 #
-0.13806703267375333710198503922584 197:1 579:1 1883:1 2575:1 2792:1 2961:1 #
-0.0069545223097786136590148231562125 53:1 104:1 197:1 691:1 1406:1 1511:1 2053:1 2220:1 2494:1 2747:1 3153:1 #
-0.001074548654700122063410105965886 838:1 2185:1 2508:1 2622:1 2868:1 3045:1 #
-0.017512377178645316400107390109042 254:1 1188:1 1511:1 1837:1 2948:1 3195:1 #
0.1191363701026839222452125000018 1426:1 2185:1 3070:1 #
0.13806703267375333710198503922584 928:1 1930:1 2850:1 3014:1 #
0.13806703267375333710198503922584 420:1 635:1 1237:1 1879:1 2028:1 2035:1 2185:1 2381:1 2513:1 3296:1 #
-0.037886964621139773701230524238781 311:1 520:1 642:1 732:1 928:1 992:1 1837:1 1879:1 2028:1 2185:1 2416:1 2948:1 #
-0.13806703267375333710198503922584 254:1 1878:1 2028:1 2185:1 2373:1 2388:1 #
0.13806703267375333710198503922584 53:1 197:1 1410:1 1776:1 #
-0.13806703267375333710198503922584 197:1 1879:1 1930:1 2016:1 2718:1 3022:1 #
-0.13806703267375333710198503922584 52:1 197:1 1879:1 2516:1 2679:1 2951:1 #
-0.13806703267375333710198503922584 24:1 254:1 413:1 2690:1 3296:1 #
-0.13806703267375333710198503922584 928:1 1529:1 1775:1 2508:1 2850:1 #
-0.13806703267375333710198503922584 1834:1 1835:1 1850:1 2185:1 2408:1 #
0.13806703267375333710198503922584 120:1 888:1 946:1 1463:1 1847:1 2028:1 2053:1 2185:1 2575:1 3348:1 #
0.13806703267375333710198503922584 254:1 405:1 470:1 558:1 928:1 1155:1 1741:1 1754:1 1837:1 1878:1 2197:1 2267:1 2314:1 2948:1 3022:1 3070:1 3125:1 #
0.11543104543764214076073670867117 401:1 449:1 480:1 569:1 663:1 744:1 1152:1 1254:1 1524:1 1837:1 1876:1 2028:1 2314:1 2868:1 3125:1 #
0.13806703267375333710198503922584 829:1 928:1 1344:1 1834:1 1835:1 2866:1 #
0.13806703267375333710198503922584 928:1 1519:1 1957:1 2778:1 #
0.13806703267375333710198503922584 928:1 3178:1 #
0.13806703267375333710198503922584 928:1 1682:1 3370:1 3390:1 #
-0.13806703267375333710198503922584 254:1 1252:1 3339:1 3373:1 #
-0.13260111288029205467431381748611 25:1 254:1 405:1 1081:1 1766:1 1778:1 2695:1 2697:1 3038:1 3338:1 #
-0.13806703267375333710198503922584 144:1 928:1 1719:1 1878:1 2628:1 #
-0.13806703267375333710198503922584 928:1 1155:1 1238:1 2197:1 2279:1 #
0.13806703267375333710198503922584 2185:1 3014:1 3045:1 #
0.13806703267375333710198503922584 449:1 846:1 1879:1 1942:1 2012:1 2820:1 #
0.13806703267375333710198503922584 1778:1 2185:1 2746:1 2796:1 #
0.13806703267375333710198503922584 2185:1 2600:1 #
-0.13806703267375333710198503922584 773:1 1168:1 1957:1 2185:1 #
-0.13806703267375333710198503922584 2009:1 2185:1 #
-0.11624692465770769533861539457575 829:1 1236:1 1665:1 2185:1 #
-0.13806703267375333710198503922584 1475:1 2185:1 3022:1 #
0.13806703267375333710198503922584 254:1 573:1 1242:1 1878:1 #
0.13806703267375333710198503922584 90:1 254:1 717:1 919:1 1764:1 1878:1 2495:1 2597:1 #
0.10806135899371070718810727839809 254:1 1878:1 2068:1 3045:1 #
-0.13806703267375333710198503922584 254:1 1155:1 1878:1 2039:1 3045:1 #
0.022971948335744327152063704033935 286:1 931:1 2185:1 3070:1 #
-0.13806703267375333710198503922584 254:1 1724:1 1878:1 #
-0.13806703267375333710198503922584 254:1 635:1 1237:1 1878:1 2450:1 #
0.13806703267375333710198503922584 1212:1 1238:1 1683:1 2185:1 2367:1 #
0.13806703267375333710198503922584 2185:1 2506:1 2618:1 #
-0.13806703267375333710198503922584 2028:1 2185:1 #
-0.13806703267375333710198503922584 2185:1 2762:1 #
-0.13806703267375333710198503922584 1695:1 2185:1 #
0.13806703267375333710198503922584 156:1 254:1 942:1 1237:1 2868:1 3296:1 #
-0.13093731683802750653811131087423 53:1 1137:1 2185:1 2508:1 2868:1 3045:1 #
-0.13806703267375333710198503922584 173:1 254:1 2267:1 2868:1 3274:1 #
-0.13806703267375333710198503922584 254:1 375:1 1109:1 1878:1 2508:1 2868:1 3045:1 #
0.13806703267375333710198503922584 1589:1 1775:1 2185:1 2565:1 #
0.13806703267375333710198503922584 2155:1 2185:1 #
0.13806703267375333710198503922584 1818:1 2185:1 2994:1 #
0.13806703267375333710198503922584 2185:1 2724:1 2815:1 #
0.13806703267375333710198503922584 52:1 928:1 2028:1 2145:1 2758:1 2875:1 2970:1 3331:1 3348:1 #
-0.12963443690598164259597524505807 31:1 449:1 512:1 1207:1 1245:1 1571:1 1802:1 1837:1 1921:1 2167:1 #
-0.13806703267375333710198503922584 1857:1 2185:1 #
-0.13806703267375333710198503922584 190:1 197:1 2053:1 2121:1 2927:1 #
-0.13806703267375333710198503922584 1879:1 1973:1 1989:1 2185:1 2697:1 #
-0.13806703267375333710198503922584 704:1 2185:1 #
0.13806703267375333710198503922584 254:1 645:1 1879:1 2690:1 2868:1 3234:1 3274:1 #
0.054684394518629844683665908178227 22:1 254:1 1878:1 2868:1 3045:1 #
-0.12071876677353113316293331536144 254:1 1365:1 1620:1 1879:1 3156:1 3161:1 #
-0.10121479289801126044689993932479 30:1 254:1 405:1 1620:1 2169:1 2905:1 3292:1 #
-0.025707829002783563060452465265371 254:1 628:1 786:1 1879:1 2018:1 2705:1 3296:1 #
0.13806703267375333710198503922584 1242:1 2185:1 #
0.13806703267375333710198503922584 197:1 702:1 874:1 1647:1 1834:1 1835:1 2652:1 2812:1 3359:1 3362:1 #
-0.13806703267375333710198503922584 575:1 623:1 940:1 1152:1 1227:1 1406:1 1834:1 1835:1 2730:1 2738:1 #
-0.13806703267375333710198503922584 23:1 197:1 201:1 1062:1 1834:1 1958:1 #
0.12720495600938797053913731360808 448:1 928:1 2368:1 2831:1 3378:1 #
0.13806703267375333710198503922584 254:1 1137:1 1500:1 1571:1 1837:1 1930:1 2167:1 2185:1 2380:1 3070:1 #
-0.10891556718321948604710769359372 254:1 1766:1 1778:1 1879:1 2697:1 3014:1 #
-0.13806703267375333710198503922584 254:1 1252:1 1878:1 3184:1 #
0.13806703267375333710198503922584 197:1 1250:1 2008:1 2053:1 2214:1 2762:1 #
0.13806703267375333710198503922584 197:1 273:1 1406:1 #
0.1293465683054175474619995611647 163:1 197:1 700:1 880:1 1406:1 1503:1 1989:1 2200:1 2279:1 2367:1 #
0.13806703267375333710198503922584 197:1 273:1 1793:1 #
-0.13806703267375333710198503922584 197:1 317:1 1406:1 2868:1 3306:1 #
-0.13806703267375333710198503922584 197:1 1500:1 1628:1 #
-0.13806703267375333710198503922584 197:1 336:1 983:1 1198:1 2413:1 2472:1 2494:1 3352:1 #
-0.077349973122675164116657242630026 197:1 717:1 2576:1 2679:1 2706:1 2807:1 2927:1 2948:1 #
-0.13806703267375333710198503922584 197:1 1093:1 2868:1 3306:1 #
0.13806703267375333710198503922584 254:1 1772:1 1778:1 2284:1 2368:1 2697:1 #
0.13806703267375333710198503922584 1628:1 2185:1 3045:1 #
-0.13806703267375333710198503922584 24:1 1143:1 1772:1 2185:1 #
0.13806703267375333710198503922584 1052:1 2185:1 3045:1 #
0.13806703267375333710198503922584 194:1 928:1 #
0.13806703267375333710198503922584 449:1 1719:1 2494:1 2546:1 2703:1 3096:1 #
-0.13806703267375333710198503922584 449:1 1349:1 1500:1 3274:1 3356:1 #
-0.13806703267375333710198503922584 615:1 928:1 #
-0.13806703267375333710198503922584 928:1 1397:1 1571:1 #
-0.13806703267375333710198503922584 449:1 668:1 722:1 2628:1 2642:1 #
0.13806703267375333710198503922584 1238:1 1628:1 2185:1 #
-0.13806703267375333710198503922584 829:1 1155:1 1593:1 1935:1 1977:1 2185:1 2815:1 #
-0.078037402319898349634108569716773 605:1 1155:1 1196:1 1238:1 1844:1 2008:1 2185:1 #
-0.11069107582465738393029397457212 138:1 1236:1 1837:1 2185:1 #
0.13806703267375333710198503922584 448:1 928:1 1711:1 #
-0.13806703267375333710198503922584 928:1 1426:1 2331:1 2866:1 #
-0.13806703267375333710198503922584 892:1 928:1 1529:1 #
-0.13806703267375333710198503922584 177:1 892:1 928:1 1529:1 3022:1 #
0.13806703267375333710198503922584 1416:1 2185:1 2815:1 #
-0.13806703267375333710198503922584 2185:1 2454:1 3167:1 3178:1 #
-0.03258098979976686154769183190183 111:1 197:1 717:1 1511:1 2581:1 3048:1 #
-0.13806703267375333710198503922584 1750:1 2185:1 2868:1 #
-0.13806703267375333710198503922584 1155:1 2185:1 2762:1 2815:1 #
-0.13806703267375333710198503922584 356:1 1137:1 2028:1 2185:1 #
0.13806703267375333710198503922584 928:1 1566:1 1800:1 2347:1 #
-0.050150330200396331381540449001477 928:1 1167:1 1251:1 1728:1 3014:1 #
-0.13806703267375333710198503922584 53:1 410:1 928:1 980:1 1989:1 2373:1 #
0.13806703267375333710198503922584 919:1 2185:1 #
0.13806703267375333710198503922584 1081:1 2185:1 2377:1 2506:1 #
0.13806703267375333710198503922584 1238:1 2185:1 #
-0.069590231223196519216855904232943 555:1 843:1 957:1 1016:1 2147:1 2185:1 2796:1 #
0.13806703267375333710198503922584 2185:1 2815:1 3206:1 #
-0.13806703267375333710198503922584 1081:1 2185:1 #
-0.13806703267375333710198503922584 2185:1 2470:1 3206:1 #
-0.13806703267375333710198503922584 254:1 301:1 1155:1 1238:1 3357:1 #
-0.060916303373453370428869391162152 216:1 254:1 2455:1 2705:1 3296:1 #
-0.13806703267375333710198503922584 197:1 1171:1 1406:1 1523:1 2301:1 2583:1 #
-0.13806703267375333710198503922584 1683:1 2185:1 #
-0.13806703267375333710198503922584 1294:1 2185:1 2868:1 #
-0.13806703267375333710198503922584 1005:1 2185:1 3225:1 #
0.085080296163757465621735320837615 6:1 928:1 1682:1 1828:1 2259:1 3370:1 3390:1 #
0.13806703267375333710198503922584 254:1 1323:1 1779:1 1989:1 2697:1 3112:1 #
0.13806703267375333710198503922584 254:1 1879:1 2058:1 2351:1 3005:1 #
-0.13806703267375333710198503922584 254:1 1137:1 1142:1 1427:1 1468:1 2697:1 2905:1 3112:1 3277:1 #
-0.13806703267375333710198503922584 254:1 542:1 3022:1 3129:1 3274:1 #
0.13806703267375333710198503922584 1052:1 2185:1 2815:1 #
0.13806703267375333710198503922584 160:1 966:1 2185:1 2815:1 #
-0.089700869171057809325908749542577 254:1 286:1 714:1 2168:1 2621:1 3162:1 #
-0.1114334978034495909904322274997 220:1 405:1 928:1 1426:1 1766:1 #
0.13806703267375333710198503922584 254:1 425:1 2686:1 3005:1 3296:1 #
0.082087403882655576858873303081054 254:1 701:1 938:1 1879:1 2793:1 3257:1 3345:1 #
0.13471268832713925722721626243583 254:1 1628:1 2286:1 2652:1 2835:1 2844:1 3348:1 3370:1 #
0.13806703267375333710198503922584 254:1 1305:1 2655:1 2697:1 3112:1 #
-0.13806703267375333710198503922584 991:1 1152:1 1837:1 2028:1 2112:1 2185:1 2442:1 2481:1 2652:1 2866:1 3005:1 3045:1 #
-0.13806703267375333710198503922584 24:1 216:1 254:1 340:1 424:1 449:1 938:1 1349:1 1837:1 1878:1 1879:1 2053:1 3096:1 #
-0.13806703267375333710198503922584 254:1 260:1 348:1 402:1 475:1 1127:1 1198:1 1237:1 1243:1 1837:1 1957:1 2039:1 2185:1 2652:1 2769:1 2857:1 2868:1 3005:1 3175:1 #
-0.095182736586800362199589642386854 38:1 197:1 483:1 582:1 991:1 1113:1 1198:1 2905:1 3005:1 #
-0.13806703267375333710198503922584 160:1 254:1 1837:1 2185:1 2628:1 2868:1 3005:1 3195:1 #
0.13806703267375333710198503922584 53:1 717:1 829:1 928:1 2267:1 2442:1 2866:1 3022:1 #
0.046187102779361992321849328391181 24:1 53:1 129:1 171:1 301:1 704:1 829:1 928:1 991:1 1249:1 1829:1 1837:1 2028:1 2185:1 2868:1 3045:1 3206:1 #
0.13806703267375333710198503922584 254:1 286:1 1155:1 1837:1 1878:1 1945:1 1995:1 2185:1 2652:1 2690:1 3045:1 3151:1 3206:1 #
0.13806703267375333710198503922584 53:1 311:1 829:1 928:1 1785:1 #
0.13806703267375333710198503922584 129:1 717:1 1155:1 2028:1 2185:1 2494:1 2652:1 2653:1 3045:1 3094:1 3257:1 #
-0.13806703267375333710198503922584 928:1 1481:1 1511:1 2028:1 2513:1 3045:1 #
-0.13806703267375333710198503922584 1022:1 1511:1 1628:1 2185:1 3045:1 #
-0.13806703267375333710198503922584 197:1 315:1 717:1 845:1 1013:1 1093:1 1155:1 1511:1 1837:1 1919:1 2827:1 3045:1 #
-0.13806703267375333710198503922584 1511:1 2185:1 2812:1 3045:1 3325:1 #
0.13806703267375333710198503922584 197:1 827:1 1361:1 1511:1 1529:1 1635:1 1837:1 1930:1 1961:1 2039:1 2850:1 #
0.13806703267375333710198503922584 254:1 1433:1 1879:1 3005:1 3086:1 3296:1 #
0.068025376389029224011295582386083 336:1 1109:1 1481:1 2009:1 2185:1 2320:1 2737:1 3045:1 #
-0.13806703267375333710198503922584 144:1 254:1 1155:1 1238:1 1242:1 1837:1 1878:1 1908:1 2185:1 3373:1 #
0.10696496368067061333295697522772 928:1 1280:1 1511:1 1879:1 2009:1 2028:1 3045:1 3146:1 #
0.13806703267375333710198503922584 417:1 2185:1 2546:1 3045:1 #
-0.13806703267375333710198503922584 992:1 1575:1 1837:1 2112:1 2185:1 3045:1 #
-0.090021716847901098179640655416733 181:1 254:1 449:1 1237:1 1355:1 1432:1 1665:1 1837:1 1879:1 1995:1 2028:1 2053:1 2097:1 2133:1 2271:1 2530:1 2651:1 2737:1 2880:1 3125:1 3274:1 #
-0.13806703267375333710198503922584 197:1 254:1 786:1 1480:1 1511:1 1837:1 2314:1 2713:1 2820:1 2899:1 #
-0.049368666036284730713745716457197 254:1 1212:1 1660:1 1837:1 2185:1 2234:1 2367:1 2414:1 2438:1 2628:1 3125:1 #
-0.13806703267375333710198503922584 22:1 362:1 2053:1 2112:1 2185:1 3045:1 #
0.13806703267375333710198503922584 145:1 928:1 2968:1 #
0.13806703267375333710198503922584 53:1 197:1 713:1 1837:1 3022:1 #
-0.13806703267375333710198503922584 1775:1 1837:1 2185:1 2628:1 2868:1 3045:1 3290:1 #
-0.13806703267375333710198503922584 1481:1 1511:1 1724:1 2185:1 2815:1 2933:1 #
-0.13806703267375333710198503922584 717:1 1155:1 1995:1 2454:1 2652:1 2994:1 3190:1 3296:1 #
-0.086937640942570545976586515735107 410:1 2185:1 2214:1 2762:1 3106:1 #
0.13806703267375333710198503922584 144:1 2112:1 2185:1 3045:1 #
0.13806703267375333710198503922584 2112:1 2185:1 3045:1 #
0.13653622405545826068440362632828 578:1 1137:1 1152:1 1406:1 1837:1 2185:1 3045:1 #
0.13806703267375333710198503922584 24:1 71:1 2053:1 2185:1 2599:1 3045:1 #
0.13806703267375333710198503922584 1237:1 2185:1 2994:1 #
-0.13806703267375333710198503922584 1249:1 1481:1 1511:1 2028:1 2185:1 2442:1 2481:1 3045:1 #
0.046960226153178775965191249497366 104:1 429:1 1011:1 1089:1 1111:1 1203:1 1243:1 1250:1 1256:1 1303:1 1329:1 1733:1 1957:1 2028:1 2062:1 2214:1 2427:1 2533:1 2868:1 2969:1 3066:1 3190:1 3201:1 3259:1 #
0.02902831635897638526411235204705 159:1 254:1 1152:1 1402:1 1628:1 1837:1 2185:1 2379:1 2652:1 2719:1 2868:1 2929:1 3045:1 3274:1 #
-0.11841946943312710305296064916547 246:1 1105:1 1152:1 1155:1 1198:1 1593:1 1837:1 2185:1 2652:1 3005:1 3045:1 3116:1 #
-0.13806703267375333710198503922584 23:1 24:1 254:1 405:1 995:1 1837:1 1921:1 2053:1 2185:1 2815:1 2817:1 3385:1 #
0.13806703267375333710198503922584 53:1 330:1 348:1 1511:1 2185:1 3045:1 3325:1 #
0.089536838511836649989739100874431 1697:1 2185:1 2197:1 2481:1 2766:1 2815:1 #
0.13806703267375333710198503922584 145:1 197:1 668:1 #
0.13806703267375333710198503922584 945:1 2185:1 #
0.13806703267375333710198503922584 945:1 2185:1 2724:1 #
0.13806703267375333710198503922584 618:1 1511:1 1608:1 1837:1 2185:1 2661:1 2840:1 2965:1 3045:1 #
0.029144169853597093333696932404564 24:1 254:1 348:1 1523:1 1878:1 1879:1 2053:1 2868:1 3045:1 #
0.13806703267375333710198503922584 405:1 743:1 808:1 928:1 1198:1 1930:1 2697:1 2717:1 3112:1 #
0.012115786954898115357348586940134 928:1 1711:1 2003:1 2868:1 #
0.13806703267375333710198503922584 188:1 725:1 1756:1 1899:1 3190:1 3378:1 #
0.018791337779608938141073792849056 212:1 414:1 738:1 1109:1 1724:1 1844:1 1948:1 2185:1 2528:1 2815:1 3011:1 #
-0.13806703267375333710198503922584 991:1 2185:1 3005:1 #
0.13806703267375333710198503922584 721:1 1837:1 2185:1 2481:1 2483:1 2868:1 3045:1 #
0.13806703267375333710198503922584 1052:1 1857:1 2185:1 2815:1 #
0.13806703267375333710198503922584 449:1 2003:1 #
0.13806703267375333710198503922584 1238:1 1349:1 2185:1 3022:1 #
0.13806703267375333710198503922584 1238:1 2185:1 3022:1 #
0.13806703267375333710198503922584 945:1 2185:1 2868:1 #
-0.12101921873509097205001694419479 22:1 23:1 180:1 413:1 1239:1 1831:1 2003:1 2053:1 2903:1 3011:1 3190:1 #
-0.13806703267375333710198503922584 197:1 1930:1 2267:1 #
-0.00080929449020688171319293235939085 197:1 1109:1 1155:1 1250:1 1464:1 1568:1 1876:1 2015:1 2223:1 2267:1 2868:1 3014:1 3045:1 3261:1 #
-0.13806703267375333710198503922584 197:1 2868:1 3256:1 3378:1 #
-0.13806703267375333710198503922584 286:1 1708:1 2185:1 2373:1 3045:1 #
0.13806703267375333710198503922584 405:1 668:1 2185:1 2850:1 #
0.13806703267375333710198503922584 2185:1 2690:1 #
-0.13806703267375333710198503922584 1511:1 2185:1 2689:1 3045:1 #
-0.13806703267375333710198503922584 1511:1 2185:1 3045:1 3290:1 #
-0.13806703267375333710198503922584 723:1 1837:1 2185:1 2628:1 3045:1 #
-0.13806703267375333710198503922584 340:1 668:1 1011:1 1172:1 1198:1 1837:1 2024:1 2028:1 2185:1 2812:1 2815:1 #
-0.13806703267375333710198503922584 254:1 413:1 1250:1 1879:1 2690:1 2788:1 3156:1 #
0.13806703267375333710198503922584 197:1 1406:1 2583:1 2868:1 3045:1 #
0.061062886962950188585175226307911 197:1 2053:1 2868:1 3045:1 3381:1 #
-0.13806703267375333710198503922584 197:1 878:1 1187:1 1691:1 1993:1 #
-0.099693645566656177714470743467245 602:1 905:1 1433:1 1688:1 2781:1 3162:1 3190:1 3308:1 #
0.069927746193864742663137690215081 112:1 1071:1 2028:1 2185:1 3045:1 3290:1 #
0.13806703267375333710198503922584 1475:1 2185:1 3045:1 #
-0.13806703267375333710198503922584 717:1 2185:1 2200:1 2508:1 2868:1 3045:1 #
-0.13806703267375333710198503922584 1155:1 1238:1 2185:1 3014:1 3045:1 #
-0.13806703267375333710198503922584 41:1 254:1 542:1 829:1 1164:1 3378:1 #
-0.090567712331911104373105558806856 254:1 2058:1 2330:1 2705:1 #
0.13806703267375333710198503922584 31:1 208:1 717:1 2185:1 3011:1 3378:1 #
-0.13806703267375333710198503922584 413:1 1930:1 2185:1 2884:1 3045:1 #
-0.13806703267375333710198503922584 197:1 1873:1 1879:1 3245:1 #
0.13806703267375333710198503922584 2185:1 2481:1 3045:1 #
0.048885950537472397381399957794201 2185:1 2191:1 3045:1 #
-0.13806703267375333710198503922584 197:1 410:1 1361:1 2053:1 #
-0.10946583320758702939645701235349 197:1 410:1 1332:1 2795:1 #
-0.13806703267375333710198503922584 254:1 717:1 1837:1 2546:1 2612:1 2705:1 2868:1 3296:1 #
0.13806703267375333710198503922584 2028:1 2185:1 2815:1 #
-0.13806703267375333710198503922584 1232:1 2031:1 2185:1 2214:1 2652:1 2866:1 #
0.11155253379914926992189094789865 196:1 361:1 369:1 717:1 928:1 1511:1 1837:1 2003:1 3094:1 3156:1 #
0.13806703267375333710198503922584 22:1 2053:1 2185:1 3045:1 #
0.10294467984961748474592724278409 118:1 197:1 254:1 624:1 718:1 927:1 1013:1 1093:1 1269:1 1366:1 1405:1 1406:1 1837:1 1908:1 2036:1 2996:1 3225:1 3290:1 3292:1 #
0.13806703267375333710198503922584 197:1 309:1 1524:1 2652:1 #
0.13806703267375333710198503922584 180:1 2003:1 2781:1 2868:1 3190:1 #
-0.13806703267375333710198503922584 197:1 1719:1 2508:1 2868:1 3045:1 #
0.13806703267375333710198503922584 254:1 1359:1 3005:1 3296:1 #
-0.13806703267375333710198503922584 379:1 1317:1 1611:1 2781:1 3014:1 3190:1 3378:1 #
-0.13806703267375333710198503922584 197:1 1406:1 1993:1 2565:1 #
-0.13806703267375333710198503922584 53:1 197:1 1155:1 2003:1 #
0.13806703267375333710198503922584 197:1 1250:1 2214:1 2472:1 3223:1 #
0.078127322290685641270613359665731 2185:1 2316:1 2868:1 3045:1 #
-0.13806703267375333710198503922584 2008:1 2185:1 2868:1 #
0.07520934730963761694066960217242 138:1 197:1 478:1 559:1 597:1 626:1 741:1 1239:1 1406:1 1719:1 1837:1 2594:1 2723:1 2966:1 #
0.13806703267375333710198503922584 542:1 2781:1 2850:1 3190:1 #
0.13806703267375333710198503922584 254:1 1879:1 2351:1 2652:1 2868:1 3005:1 3373:1 #
0.13806703267375333710198503922584 1750:1 2185:1 2815:1 2868:1 #
0.13806703267375333710198503922584 1212:1 1238:1 2185:1 #
0.037308265343854903062226213705799 1092:1 1493:1 2028:1 2053:1 2185:1 2815:1 #
0.13806703267375333710198503922584 1786:1 2185:1 2815:1 #
0.13806703267375333710198503922584 31:1 1238:1 2053:1 2185:1 #
0.13806703267375333710198503922584 2028:1 2185:1 2815:1 3022:1 3290:1 #
0.045048663278683745425645668092329 464:1 1225:1 1280:1 1294:1 1777:1 2185:1 2815:1 2865:1 #
0.11588666854631454738999707387848 545:1 2185:1 2815:1 3371:1 #
0.072311385336388561695386556493759 1736:1 2028:1 2053:1 2185:1 2705:1 2868:1 3005:1 3032:1 3045:1 3296:1 #
0.13806703267375333710198503922584 2185:1 2248:1 3045:1 #
-0.13806703267375333710198503922584 892:1 928:1 1879:1 2185:1 2652:1 2868:1 #
-0.058967281700041604408646378487902 138:1 892:1 928:1 1302:1 1572:1 1930:1 3022:1 #
-0.13806703267375333710198503922584 254:1 1837:1 1878:1 2185:1 #
-0.13806703267375333710198503922584 1878:1 2185:1 #
-0.13806703267375333710198503922584 340:1 1593:1 1837:1 2028:1 2185:1 2639:1 3045:1 3206:1 #
0.13806703267375333710198503922584 254:1 1242:1 1349:1 2368:1 2608:1 #
0.13806703267375333710198503922584 254:1 1148:1 1155:1 1243:1 1277:1 1667:1 2200:1 3070:1 3094:1 #
0.075612160985174189931079524740198 197:1 2948:1 3045:1 3378:1 #
0.13806703267375333710198503922584 59:1 394:1 449:1 1168:1 1243:1 1793:1 1800:1 2652:1 #
0.033800561115551984447957778456839 111:1 379:1 396:1 401:1 463:1 582:1 717:1 765:1 878:1 928:1 998:1 1074:1 1088:1 1109:1 1141:1 1155:1 1178:1 1198:1 1223:1 1250:1 1285:1 1480:1 1493:1 1500:1 1706:1 1929:1 2028:1 2085:1 2094:1 2187:1 2235:1 2279:1 2283:1 2342:1 2528:1 2552:1 2578:1 2868:1 2873:1 2883:1 3014:1 3045:1 3123:1 3206:1 3236:1 3378:1 3379:1 #
-0.0010791990438165472657866539307747 39:1 63:1 254:1 266:1 681:1 709:1 1155:1 1719:1 1764:1 2652:1 2656:1 2919:1 3015:1 3182:1 #
-0.13806703267375333710198503922584 254:1 2775:1 2868:1 2873:1 3156:1 #
-0.13806703267375333710198503922584 254:1 555:1 1406:1 1785:1 1920:1 3156:1 3296:1 #
-0.13806703267375333710198503922584 197:1 542:1 1052:1 1113:1 1128:1 2868:1 #
0.055344712809768645267460840386775 30:1 254:1 272:1 384:1 410:1 1628:1 1702:1 1837:1 1878:1 2868:1 2875:1 2884:1 3045:1 3152:1 #
-0.13806703267375333710198503922584 2008:1 2185:1 2608:1 #
0.13806703267375333710198503922584 595:1 704:1 928:1 1081:1 2506:1 3206:1 3219:1 #
0.13806703267375333710198503922584 928:1 1776:1 #
0.13806703267375333710198503922584 928:1 1066:1 2046:1 3177:1 #
0.1287795062906305632033365782263 254:1 1659:1 1744:1 2612:1 2994:1 3296:1 #
-0.13806703267375333710198503922584 928:1 1155:1 1238:1 #
-0.13806703267375333710198503922584 197:1 1406:1 #
0.13806703267375333710198503922584 2185:1 2866:1 3045:1 #
0.081391014180818177514709077513544 772:1 928:1 1247:1 1793:1 1930:1 2812:1 2850:1 #
0.13661778926790327237661415438197 254:1 668:1 1659:1 1697:1 2141:1 2605:1 2868:1 3296:1 #
0.065272014066407160748362059621286 196:1 197:1 293:1 512:1 539:1 1218:1 1262:1 2003:1 2868:1 #
0.13806703267375333710198503922584 791:1 1942:1 2225:1 2472:1 3173:1 3190:1 #
0.13806703267375333710198503922584 738:1 1238:1 2053:1 2185:1 #
0.13806703267375333710198503922584 197:1 668:1 2003:1 #
0.13806703267375333710198503922584 197:1 2583:1 2868:1 3045:1 #
0.037703953307939318262409500448484 159:1 177:1 197:1 273:1 527:1 825:1 908:1 1058:1 1775:1 2053:1 2314:1 2359:1 2769:1 2863:1 2926:1 #
-0.13806703267375333710198503922584 829:1 2185:1 #
-0.13806703267375333710198503922584 1511:1 1890:1 2185:1 2481:1 2866:1 3045:1 #
-0.13806703267375333710198503922584 66:1 2185:1 2599:1 #
-0.13806703267375333710198503922584 923:1 1776:1 2185:1 2508:1 2868:1 3045:1 #
-0.13806703267375333710198503922584 304:1 1511:1 1683:1 1987:1 2185:1 2422:1 3045:1 #
-0.084269375320693007402894636470592 328:1 928:1 1243:1 1449:1 3162:1 #
-0.13806703267375333710198503922584 254:1 603:1 928:1 1764:1 1837:1 1971:1 2747:1 2868:1 3015:1 3219:1 3276:1 #
-0.090013051894531723173820125794009 403:1 928:1 991:1 1830:1 2716:1 3022:1 #
-0.0350375732188758295948538545872 111:1 138:1 624:1 928:1 1511:1 1837:1 1867:1 2652:1 3258:1 #
0.01777052634786892987284190326136 273:1 1092:1 1295:1 1491:1 2053:1 2062:1 2185:1 2259:1 2576:1 2883:1 3182:1 #
-0.1226786935591983318527553592503 668:1 969:1 1198:1 1736:1 1778:1 1837:1 2028:1 2141:1 2185:1 2697:1 2796:1 2817:1 3014:1 3112:1 3379:1 #
-0.13806703267375333710198503922584 413:1 2185:1 3045:1 #
-0.13806703267375333710198503922584 1198:1 1353:1 1500:1 2185:1 3047:1 #
0.13806703267375333710198503922584 1237:1 1238:1 2185:1 #
-0.047871573198079574174013117726645 53:1 196:1 197:1 405:1 683:1 1109:1 1411:1 1921:1 1995:1 2442:1 2528:1 2563:1 2965:1 3064:1 #
-0.13806703267375333710198503922584 171:1 2185:1 2696:1 #
-0.13806703267375333710198503922584 197:1 317:1 2718:1 #
-0.13806703267375333710198503922584 2185:1 #
-0.13806703267375333710198503922584 144:1 1238:1 1724:1 1837:1 2185:1 2508:1 2868:1 3045:1 #
-0.12778261131360449387450728409021 1164:1 1837:1 2185:1 2616:1 2843:1 3348:1 #
-0.13806703267375333710198503922584 861:1 1237:1 1837:1 2185:1 2248:1 2762:1 #
-0.0024697924027872976068809229843737 216:1 405:1 717:1 1198:1 1207:1 1237:1 1622:1 1660:1 2185:1 2251:1 2257:1 2508:1 2671:1 2737:1 2815:1 2868:1 #
0.13806703267375333710198503922584 1416:1 2185:1 2850:1 #
-0.054424019887483451873855244684819 744:1 753:1 991:1 1628:1 2185:1 #
-0.13806703267375333710198503922584 753:1 2028:1 2185:1 #
-0.036824533975161756471639051824241 27:1 196:1 254:1 671:1 773:1 1142:1 1628:1 1837:1 1878:1 2039:1 2058:1 2380:1 2652:1 #
0.099483944499792517635050614899228 53:1 197:1 1237:1 2690:1 #
-0.040252092593735945558197641958031 197:1 1168:1 1198:1 1200:1 1921:1 1993:1 2255:1 2583:1 2655:1 #
-0.13806703267375333710198503922584 197:1 1582:1 1879:1 2927:1 #
-0.02280730245396182104267168710976 424:1 864:1 1081:1 1416:1 1432:1 1857:1 2053:1 2185:1 2209:1 2331:1 2675:1 2915:1 #
-0.13806703267375333710198503922584 704:1 829:1 1251:1 1837:1 2185:1 2308:1 2825:1 2866:1 2868:1 3221:1 #
-0.13806703267375333710198503922584 254:1 1766:1 2697:1 #
-0.082612725550758422943253833636845 254:1 902:1 1137:1 1156:1 1427:1 1837:1 1908:1 1927:1 2185:1 2454:1 2531:1 3264:1 3373:1 #
0.040734413821763140739484754249133 122:1 254:1 2690:1 2868:1 3296:1 3373:1 #
0.0029695827799024591443777243426894 940:1 1406:1 2185:1 3070:1 #
0.089636609742263034794618192790949 59:1 1481:1 2185:1 2815:1 2866:1 #
-0.13806703267375333710198503922584 413:1 940:1 1052:1 1878:1 2036:1 2185:1 3045:1 #
-0.13806703267375333710198503922584 413:1 2185:1 2815:1 #
-0.13806703267375333710198503922584 248:1 1670:1 2185:1 2760:1 3005:1 #
0.13806703267375333710198503922584 2185:1 2762:1 2868:1 3045:1 #
-0.13806703267375333710198503922584 405:1 1237:1 1930:1 2167:1 2185:1 3234:1 #
-0.13806703015076152163409517470427 404:1 684:1 991:1 1621:1 2185:1 2225:1 2628:1 2702:1 3018:1 3045:1 #
-0.13806703267375333710198503922584 24:1 2185:1 #
0.039221953600394758587821542050733 2185:1 2292:1 3022:1 3045:1 #
-0.13806703267375333710198503922584 940:1 1673:1 2292:1 2508:1 2868:1 3045:1 #
-0.13806703267375333710198503922584 336:1 1155:1 1481:1 1837:1 2185:1 3045:1 3157:1 3290:1 #
-0.014159385039124838812085727113299 129:1 1198:1 1237:1 1929:1 2185:1 2508:1 2868:1 3045:1 #
-0.092719251356827694920959004321048 668:1 1371:1 2185:1 2508:1 2868:1 3045:1 #
-0.04231884522107875329366422079147 144:1 254:1 1137:1 1198:1 2185:1 2894:1 3391:1 #
-0.13806703267375333710198503922584 1198:1 1837:1 2185:1 2868:1 3151:1 #
-0.13806703267375333710198503922584 197:1 328:1 1243:1 #
-0.13806703267375333710198503922584 1155:1 1241:1 2185:1 2815:1 #
0.13806703267375333710198503922584 254:1 1957:1 2690:1 2760:1 #
0.12404127399813606735801130298569 254:1 1736:1 2690:1 3379:1 #
0.13806703267375333710198503922584 2185:1 2815:1 3022:1 #
0.022405232740959027393223834678793 57:1 188:1 1081:1 2185:1 2815:1 #
-0.088364372690776668561873918861238 163:1 232:1 254:1 376:1 449:1 683:1 1137:1 1153:1 1237:1 1288:1 1433:1 1593:1 1785:1 1837:1 1915:1 2028:1 2185:1 2552:1 2652:1 2817:1 3153:1 #
-0.059680311782063288905675335627166 254:1 286:1 744:1 1152:1 1511:1 1778:1 1879:1 2133:1 2697:1 2900:1 3090:1 3112:1 3162:1 3241:1 #
-0.013895177510529641007330781121709 22:1 23:1 24:1 31:1 216:1 254:1 348:1 405:1 429:1 484:1 505:1 636:1 717:1 744:1 963:1 1052:1 1342:1 1492:1 1611:1 1834:1 1835:1 1837:1 1879:1 2029:1 2053:1 2058:1 2185:1 2292:1 2349:1 2406:1 2410:1 2637:1 2670:1 3027:1 3098:1 3151:1 3378:1 #
0.037389633811199689261695056075041 197:1 514:1 3045:1 #
-0.13806703267375333710198503922584 254:1 1879:1 2322:1 2652:1 2705:1 3086:1 3296:1 #
-0.12714399767805323326896882463188 1750:1 2185:1 2470:1 2868:1 #
-0.13806703267375333710198503922584 413:1 1349:1 2185:1 2815:1 #
0.097909576386473406994781498724478 197:1 273:1 1879:1 2652:1 3293:1 #
0.13806703267375333710198503922584 254:1 2868:1 2994:1 3005:1 3238:1 3296:1 #
0.13806703267375333710198503922584 1878:1 2185:1 2868:1 3045:1 #
-0.13806703267375333710198503922584 197:1 639:1 1487:1 1620:1 2868:1 #
0.13806703267375333710198503922584 2185:1 2546:1 3070:1 #
-0.13806703267375333710198503922584 1052:1 1857:1 2185:1 #
-0.13806703267375333710198503922584 201:1 1415:1 2185:1 #
-0.13806703267375333710198503922584 2185:1 2568:1 #
0.13806703267375333710198503922584 1052:1 2185:1 2608:1 3045:1 #
0.040794558688041972216442587750862 197:1 1052:1 1605:1 1673:1 1835:1 1879:1 2185:1 2762:1 2812:1 3045:1 #
0.033407357598705833545693621999817 687:1 1152:1 1923:1 2185:1 2639:1 3070:1 #
-0.13806703267375333710198503922584 1052:1 2028:1 2185:1 #
0.077987691788494184486069116246654 928:1 1137:1 1480:1 1625:1 1719:1 1945:1 2028:1 #
0.13103908401863381683050135961821 75:1 928:1 1238:1 3131:1 #
-0.062030466982208536108611696135995 254:1 1031:1 1879:1 2444:1 2705:1 3086:1 3296:1 #
0.13806703267375333710198503922584 1878:1 2185:1 3045:1 #
0.13806703267375333710198503922584 41:1 2185:1 2868:1 3045:1 #
0.13806703267375333710198503922584 273:1 940:1 1673:1 2008:1 2868:1 #
0.074199044826497556615052531014953 278:1 2185:1 3045:1 #
0.13806703267375333710198503922584 2028:1 2185:1 3045:1 3290:1 #
-0.13806703267375333710198503922584 992:1 1575:1 2185:1 #
0.13806703267375333710198503922584 2028:1 2185:1 3045:1 #
-0.13806703267375333710198503922584 1236:1 2008:1 2185:1 #
-0.050489679663269906861877700521291 928:1 1155:1 1238:1 1416:1 1837:1 2028:1 2185:1 2704:1 #
0.13806703267375333710198503922584 1241:1 2185:1 2868:1 3045:1 #
0.13806703267375333710198503922584 1724:1 2185:1 3070:1 #
0.063765790283472123523011987344944 945:1 2028:1 2185:1 2200:1 3342:1 #
-0.079867828056530087987852084552287 543:1 596:1 1878:1 2200:1 2628:1 3005:1 3014:1 3190:1 #
-0.13806703267375333710198503922584 28:1 388:1 928:1 2053:1 2628:1 3022:1 #
0.1219283853367789383081998266789 2008:1 2185:1 3045:1 #
0.1094883216930039315784028985945 1497:1 1676:1 1857:1 1989:1 2185:1 2815:1 #
0.071785139229662689452915458332427 197:1 1706:1 1719:1 2053:1 2151:1 2200:1 2662:1 #
-0.0031286798233773559750614534635815 66:1 71:1 196:1 209:1 254:1 431:1 442:1 744:1 991:1 1027:1 1529:1 1628:1 1759:1 1834:1 1835:1 1837:1 1878:1 2185:1 2197:1 2511:1 2599:1 2619:1 2637:1 2717:1 2843:1 2965:1 #
-0.099441821925554230166000024837558 113:1 254:1 281:1 1328:1 1365:1 2286:1 2788:1 3156:1 3225:1 #
-0.13806703267375333710198503922584 991:1 1198:1 1398:1 1511:1 1628:1 1837:1 2028:1 2088:1 2185:1 2546:1 2762:1 3045:1 3309:1 #
-0.13806703267375333710198503922584 254:1 651:1 839:1 1878:1 #
-0.058856636076416120328946846029794 254:1 348:1 1099:1 1724:1 3162:1 3296:1 #
0.018971958863571614095633321994683 254:1 1238:1 1837:1 2185:1 2994:1 #
-0.017781015523375801740124657612796 66:1 254:1 362:1 1878:1 2599:1 #
-0.13806703267375333710198503922584 197:1 1406:1 1511:1 1686:1 2347:1 #
0.018801702256995928008720397883735 335:1 789:1 829:1 928:1 1480:1 1683:1 1719:1 1833:1 1837:1 1879:1 2039:1 3370:1 #
-0.13806703267375333710198503922584 928:1 2185:1 2508:1 2868:1 3045:1 #
-0.058788334383577341146764894119769 940:1 2102:1 2601:1 3027:1 3071:1 #
-0.13806703267375333710198503922584 286:1 2185:1 2234:1 #
-0.13806703267375333710198503922584 928:1 2003:1 2508:1 2868:1 3378:1 #
-0.13806703267375333710198503922584 826:1 928:1 1155:1 3014:1 3045:1 #
-0.085866585700541397940810384170618 197:1 346:1 410:1 2015:1 2649:1 #
0.0010418932203121937345169367716835 1081:1 2185:1 2872:1 3045:1 #
-0.067587169405536412503110454963462 138:1 246:1 1294:1 1719:1 2185:1 2508:1 2868:1 3045:1 3135:1 #
-0.13204107974437193084860098224453 48:1 624:1 928:1 1164:1 1416:1 2039:1 2841:1 #
-0.13806703267375333710198503922584 928:1 2450:1 #
0.055100020950987156631573071763341 927:1 2185:1 2815:1 #
-0.13806703267375333710198503922584 892:1 928:1 1628:1 1683:1 1777:1 #
-0.13806703267375333710198503922584 138:1 928:1 1011:1 2905:1 #
0.12836927711230849968870870725368 928:1 945:1 1558:1 #
-0.095721927593138425582885986386827 928:1 1317:1 3162:1 3219:1 #
-0.014721567925027720727393365507396 24:1 197:1 1406:1 1908:1 2053:1 2508:1 2797:1 2868:1 2966:1 3045:1 #
0.13806703267375333710198503922584 2185:1 2362:1 3045:1 #
0.13806703267375333710198503922584 2185:1 3045:1 #
-0.13806703267375333710198503922584 254:1 1643:1 2494:1 2705:1 3296:1 #
-0.13806703267375333710198503922584 668:1 717:1 1190:1 1660:1 2185:1 2628:1 #
-0.13806703267375333710198503922584 213:1 254:1 2267:1 2697:1 3162:1 #
0.070987121098053385104265089466935 802:1 928:1 1238:1 1930:1 3022:1 #
0.13806703267375333710198503922584 928:1 1930:1 2003:1 3022:1 #
0.13806703267375333710198503922584 254:1 645:1 1524:1 1621:1 3298:1 3378:1 #
0.13806703267375333710198503922584 254:1 1879:1 2652:1 3005:1 3022:1 3086:1 3195:1 #
-0.026564641635960516835579525718458 928:1 1052:1 1164:1 1349:1 1837:1 2185:1 2576:1 2697:1 2770:1 2837:1 3014:1 3112:1 3153:1 #
-0.10149966478193352126258020007299 254:1 1081:1 1219:1 2705:1 3011:1 3296:1 #
-0.13806703267375333710198503922584 254:1 2018:1 2705:1 3086:1 3296:1 #
0.12634650774327324529444638301356 138:1 273:1 928:1 2868:1 #
0.055028128245851341826533342782568 197:1 624:1 668:1 1628:1 1837:1 2015:1 2039:1 2649:1 2784:1 2850:1 2964:1 #
0.081463892623734601716734005094622 273:1 928:1 2762:1 #
-0.043873838043023048738344726871219 456:1 1052:1 1127:1 2185:1 2364:1 2762:1 3344:1 #
-0.13806703267375333710198503922584 197:1 1511:1 3005:1 3269:1 #
-0.11373166566341413874496879543585 362:1 2185:1 2840:1 2965:1 #
-0.13806703267375333710198503922584 1155:1 2028:1 2185:1 2815:1 #
-0.13806703267375333710198503922584 144:1 2185:1 #
0.13806703267375333710198503922584 1481:1 2028:1 2185:1 3045:1 #
0.12815065044575213448752037947997 928:1 2185:1 2812:1 3045:1 #
-0.083941985060324894596384126543853 301:1 805:1 1724:1 2185:1 2331:1 3348:1 #
-0.030012769785908732095291995278785 83:1 340:1 1697:1 1837:1 1849:1 2185:1 2499:1 2628:1 2868:1 3045:1 #
-0.021541671639631748691456891720009 1231:1 1772:1 1965:1 2047:1 2091:1 2185:1 2377:1 2454:1 2470:1 2481:1 3148:1 #
0.13806703267375333710198503922584 254:1 2058:1 2472:1 3005:1 #
0.062748671146778248197684035858401 163:1 449:1 701:1 1837:1 2174:1 2533:1 2676:1 2733:1 3190:1 3257:1 #
0.13806703267375333710198503922584 197:1 273:1 2347:1 2868:1 #
-0.13806703267375333710198503922584 53:1 197:1 2637:1 2894:1 #
0.13806703267375333710198503922584 928:1 1238:1 #
-0.07073307124880248708542751501227 254:1 456:1 991:1 1670:1 1995:1 2067:1 3296:1 #
-0.047946567619203808718886250517244 22:1 23:1 24:1 254:1 455:1 587:1 602:1 1857:1 2246:1 #
-0.053976206348400092294159691164168 20:1 254:1 2703:1 3014:1 3274:1 #
0.1363772612439521636495953771373 2185:1 2292:1 2494:1 3045:1 #
0.048885950537471252463905813101519 1047:1 2185:1 3045:1 #
-0.13806703267375333710198503922584 1155:1 1187:1 1238:1 2028:1 2053:1 2185:1 #
-0.085855299043589336505100106933241 224:1 375:1 651:1 717:1 1011:1 2100:1 2185:1 2380:1 #
-0.13806703267375333710198503922584 1155:1 1238:1 2185:1 3206:1 #
-0.039291346653153653989409832547608 829:1 1155:1 1238:1 2185:1 #
-0.13806703267375333710198503922584 254:1 1837:1 1878:1 2112:1 2185:1 2628:1 3014:1 3045:1 #
-0.062568712275473087336408184455649 254:1 1724:1 2508:1 2612:1 2868:1 3045:1 #
-0.13806703267375333710198503922584 1155:1 1238:1 1793:1 2185:1 #
-0.12243744396390555950748790792204 1052:1 1243:1 2185:1 2458:1 3290:1 #
-0.054459665440847911110910928300655 138:1 721:1 724:1 1167:1 1837:1 2185:1 2840:1 2843:1 3040:1 3153:1 3344:1 #
-0.13806703267375333710198503922584 992:1 1248:1 1575:1 2185:1 #
-0.11582433917864080885617994454151 1:1 2185:1 2454:1 2461:1 #
-0.13806703267375333710198503922584 861:1 2185:1 #
-0.014239538087955692577390998110332 115:1 1155:1 1238:1 1908:1 1927:1 2028:1 2185:1 2262:1 #
-0.086367952085366059278292993894866 216:1 334:1 340:1 1628:1 1837:1 2185:1 2628:1 2868:1 3045:1 #
-0.033000052668771290287352826453571 24:1 86:1 170:1 663:1 916:1 980:1 1844:1 2028:1 2185:1 2279:1 3230:1 #
0.045418838812116876790803132735164 465:1 595:1 622:1 940:1 1089:1 1480:1 1673:1 1718:1 1957:1 2066:1 3206:1 #
0.052727244964713267105782534827085 224:1 254:1 640:1 717:1 1238:1 1724:1 1837:1 1844:1 2185:1 #
0.1135452383595330072552087585791 254:1 1778:1 3005:1 3112:1 3296:1 #
0.13806703267375333710198503922584 2028:1 2185:1 2652:1 2815:1 #
-0.07958374141681565094863515241741 449:1 3014:1 3306:1 #
-0.03599779418161362654071666611344 940:1 2008:1 2755:1 3162:1 #
-0.13806703267375333710198503922584 254:1 2705:1 3022:1 3296:1 #
-0.07347203123399641266910720105443 340:1 928:1 1879:1 2366:1 #
0.13806703267375333710198503922584 2028:1 2185:1 2868:1 3045:1 #
0.13806703267375333710198503922584 254:1 1837:1 1878:1 2185:1 3045:1 #
0.054806572332648267886767712298024 1683:1 2185:1 2680:1 2868:1 3045:1 #
0.13806703267375333710198503922584 24:1 254:1 1878:1 3045:1 #
0.10174748626304734588909894910103 369:1 928:1 2003:1 #
0.082072012508911301731373555412574 1187:1 2185:1 3045:1 #
0.13806703267375333710198503922584 1052:1 1237:1 2185:1 3045:1 #
-0.13806703267375333710198503922584 717:1 2185:1 2450:1 #
0.05158491314450695808258018359993 31:1 254:1 991:1 1198:1 1878:1 2196:1 2264:1 3011:1 3070:1 #
-0.11820063776177136549705437573721 413:1 1724:1 2185:1 2815:1 #
-0.028337337332512094884018338802889 662:1 928:1 1511:1 1837:1 1930:1 3170:1 #
-0.068772379185024573589046781307843 138:1 892:1 928:1 1930:1 2717:1 #
0.035820986705269501626514028203019 155:1 2185:1 2820:1 3045:1 #
-0.13806703267375333710198503922584 1236:1 2185:1 #
-0.13806703267375333710198503922584 514:1 2185:1 2470:1 #
-0.13806703267375333710198503922584 1155:1 2185:1 2815:1 2866:1 #
0.13806703267375333710198503922584 514:1 2185:1 3045:1 #
-0.019293954972592498170458341633093 1256:1 1885:1 2185:1 2817:1 2863:1 3022:1 #
0.039069282805040385364581112526139 2185:1 2868:1 3013:1 3045:1 #
-0.040329702750895923824003830304719 2185:1 2470:1 2868:1 #
-0.13806703267375333710198503922584 861:1 2185:1 2762:1 #
-0.048013424062088243260415509894301 892:1 928:1 1930:1 3022:1 #
-0.044665142908020656620227128996703 413:1 1052:1 1857:1 2185:1 2762:1 2815:1 #
-0.035392157434855811559692995160731 356:1 928:1 1593:1 2481:1 2637:1 3298:1 #
-0.11970208554355050989403963512814 254:1 2362:1 2705:1 3296:1 #
-0.022425841795482143875561931167795 89:1 543:1 1447:1 1834:1 1835:1 2185:1 2377:1 2481:1 2705:1 #
-0.035957257084066614194473032739552 197:1 1511:1 2717:1 #
-0.13806703267375333710198503922584 254:1 1878:1 2028:1 2508:1 2868:1 3045:1 #
0.037190012359245488982040228620463 254:1 533:1 1837:1 2185:1 2690:1 #
0.023995540821334936792963432594661 53:1 197:1 582:1 744:1 1254:1 1930:1 2003:1 3298:1 #
0.027899806495293152930337043926556 2185:1 2350:1 3045:1 3206:1 #
-0.0083528992786583936697164531892668 216:1 286:1 1198:1 1237:1 1616:1 1830:1 1837:1 1993:1 2185:1 2292:1 #
-0.0065547137133890312141182299399134 30:1 158:1 340:1 1278:1 2185:1 2652:1 3206:1 3246:1 #
-0.099238210191153378159079068154824 1052:1 1155:1 2185:1 2762:1 2815:1 #
-0.0062552935573406296884679811398655 254:1 340:1 1250:1 1533:1 1837:1 2185:1 3037:1 3206:1 #
0.0094027300531306420156019143519188 1481:1 1912:1 2185:1 3045:1 #
0.0094411006581464063103226180828642 468:1 1481:1 2185:1 3045:1 #
0.016027694722619795913987061908301 1349:1 2185:1 2868:1 3045:1 #
-0.0013435600835574829179513978161253 254:1 336:1 1044:1 1277:1 1759:1 1777:1 1878:1 2039:1 2374:1 2494:1 2583:1 2612:1 2705:1 3194:1 3296:1 #
0.0030563205576059977904013198468647 469:1 2185:1 2576:1 3045:1 #
-0.033344129423054480465538063072017 254:1 1155:1 1237:1 2185:1 3014:1 3045:1 #
0.13806703267375333710198503922584 254:1 1878:1 2185:1 3045:1 #
0.013380760728433051948149667964572 286:1 928:1 1628:1 2815:1 3290:1 #
0.0053984935101131590468037657615241 254:1 668:1 2652:1 3005:1 3086:1 3195:1 #
0.004191452947429129965994931694695 22:1 254:1 1642:1 1878:1 2176:1 3045:1 #
0.00099608945248328426350092890118049 138:1 821:1 928:1 945:1 1182:1 1775:1 1786:1 1837:1 2539:1 2564:1 3036:1 #
-0.0066479133753008009394269706149316 197:1 380:1 2637:1 3124:1 #
0.0088654916328285270771258907984702 254:1 940:1 1673:1 1837:1 2690:1 #
-0.022663926268154485632599914879393 2185:1 2508:1 3045:1 3206:1 #
-0.0064173146876079492292865857905326 216:1 254:1 2350:1 2612:1 2628:1 2868:1 #
0.0020097601118293528278668791386963 24:1 512:1 1763:1 1837:1 2185:1 3070:1 #
-0.00020969202752522440673897674567883 492:1 2185:1 2508:1 2868:1 3045:1 #
5.2860178632842098563927868415391e-05 2:1 128:1 254:1 273:1 401:1 405:1 476:1 573:1 675:1 717:1 927:1 942:1 1007:1 1109:1 1114:1 1155:1 1290:1 1518:1 1589:1 1676:1 1724:1 1750:1 1785:1 1866:1 1869:1 1908:1 1963:1 1982:1 2028:1 2054:1 2106:1 2168:1 2513:1 2526:1 2583:1 2796:1 2800:1 2811:1 2868:1 2899:1 2924:1 3124:1 3152:1 3169:1 3177:1 3185:1 3263:1 3332:1 3378:1 3379:1 #
