SVM-light Version V6.01
0 # kernel type
3 # kernel parameter -d 
1 # kernel parameter -g 
1 # kernel parameter -s 
1 # kernel parameter -r 
empty# kernel parameter -u 
1976 # highest feature index 
1562 # number of training documents 
618 # number of support vectors plus 1 
-0.39035544 # threshold b, each following line is a SV (starting with alpha*y)
-0.17879662623830824830228891642037 21:1 363:1 381:1 1280:1 #
-0.13951340432693223880811217441078 26:1 1064:1 1518:1 #
-0.13634123521666433043186827944737 692:1 739:1 1280:1 1299:1 1358:1 #
-0.17879662623830824830228891642037 12:1 704:1 1064:1 1110:1 #
-0.17879662623830824830228891642037 345:1 506:1 1064:1 1299:1 #
-0.13495837444965558260534521650698 251:1 989:1 1064:1 1263:1 1674:1 #
0.17879662623830824830228891642037 692:1 1280:1 1429:1 #
-8.8964534089157635762812326163385e-08 363:1 1280:1 1478:1 1949:1 #
-0.17879662623830824830228891642037 361:1 619:1 1280:1 1518:1 #
0.17879662623830824830228891642037 692:1 1280:1 1358:1 1429:1 #
-0.17879662623830824830228891642037 534:1 678:1 952:1 1149:1 1186:1 1358:1 1721:1 #
-0.17879662623830824830228891642037 619:1 952:1 1280:1 1358:1 1698:1 1720:1 #
-0.17879662623830824830228891642037 849:1 952:1 1064:1 1157:1 1358:1 1381:1 1955:1 #
-0.17879662623830824830228891642037 952:1 1064:1 1358:1 1557:1 #
-0.17879662623830824830228891642037 251:1 952:1 1064:1 1157:1 1358:1 #
0.092892105098182034539355811375572 12:1 65:1 93:1 113:1 184:1 193:1 230:1 261:1 344:1 363:1 695:1 719:1 788:1 883:1 902:1 932:1 933:1 1094:1 1114:1 1150:1 1155:1 1189:1 1208:1 1218:1 1248:1 1280:1 1297:1 1299:1 1535:1 1545:1 1557:1 1561:1 1577:1 1591:1 1649:1 1674:1 1696:1 1726:1 1778:1 1849:1 1931:1 1938:1 1954:1 1961:1 1969:1 #
0.17879662623830824830228891642037 8:1 692:1 1280:1 #
0.12492857590637479470174753259926 35:1 203:1 346:1 623:1 634:1 692:1 1280:1 1296:1 1299:1 1344:1 1726:1 1950:1 #
0.018149729374356587258132478268635 2:1 12:1 56:1 103:1 134:1 190:1 194:1 248:1 276:1 291:1 308:1 328:1 381:1 415:1 417:1 418:1 486:1 500:1 552:1 606:1 716:1 773:1 956:1 966:1 1030:1 1042:1 1051:1 1135:1 1248:1 1254:1 1275:1 1280:1 1291:1 1299:1 1358:1 1384:1 1412:1 1463:1 1636:1 1664:1 1686:1 1692:1 1706:1 1712:1 1811:1 1816:1 1892:1 1930:1 1949:1 1950:1 #
0.17879662623830824830228891642037 1280:1 1397:1 #
0.17879662623830824830228891642037 51:1 346:1 692:1 1280:1 #
-0.17879662623830824830228891642037 12:1 37:1 93:1 371:1 403:1 445:1 692:1 891:1 1114:1 1280:1 1355:1 1358:1 1613:1 1621:1 1689:1 #
-0.12398562546707367348908235271665 22:1 151:1 152:1 154:1 203:1 304:1 346:1 348:1 416:1 492:1 594:1 659:1 777:1 1183:1 1251:1 1280:1 1347:1 1518:1 1826:1 #
-0.14888758654052064445139080817171 224:1 692:1 1090:1 1152:1 1280:1 #
-0.10372386215624961047776508848983 92:1 333:1 692:1 1114:1 1280:1 1299:1 1400:1 1608:1 1684:1 1856:1 #
0.17879662623830824830228891642037 823:1 952:1 1039:1 1064:1 1787:1 #
0.11038861219419843218148002961243 14:1 1064:1 1358:1 1743:1 #
-0.029158836960140342708935889959321 1064:1 1224:1 1642:1 1674:1 #
0.17879662623830824830228891642037 222:1 952:1 1280:1 1358:1 1587:1 #
0.17879662623830824830228891642037 104:1 952:1 994:1 1115:1 1280:1 1358:1 #
-0.17879662623830824830228891642037 952:1 1064:1 1157:1 1358:1 #
-0.17879662623830824830228891642037 91:1 98:1 269:1 418:1 1064:1 1358:1 #
0.17612269031972119237572371730494 333:1 465:1 692:1 719:1 1114:1 1280:1 1856:1 #
-0.17879662623830824830228891642037 203:1 1138:1 1280:1 1518:1 1949:1 #
0.11733040744274457478635298457448 327:1 379:1 380:1 449:1 554:1 619:1 732:1 739:1 773:1 854:1 891:1 961:1 1047:1 1108:1 1280:1 1299:1 1320:1 1347:1 1355:1 1358:1 1366:1 1423:1 1950:1 1964:1 #
-0.128418590362348233879785652789 363:1 403:1 1280:1 1546:1 #
0.17879662623830824830228891642037 135:1 291:1 619:1 1280:1 1299:1 1545:1 1600:1 1720:1 1739:1 1779:1 #
-0.17879662623830824830228891642037 30:1 416:1 619:1 854:1 1280:1 1504:1 1528:1 1751:1 #
-0.063061072367015330586426102854603 416:1 692:1 1114:1 1280:1 1299:1 1358:1 1366:1 1564:1 1587:1 #
-0.045814737424240505048178562219618 62:1 106:1 415:1 719:1 1280:1 1701:1 1749:1 1787:1 #
-0.17879662623830824830228891642037 224:1 692:1 1280:1 1804:1 1949:1 #
0.17879662623830824830228891642037 87:1 476:1 1064:1 1157:1 1172:1 1176:1 1295:1 1358:1 1412:1 1518:1 #
0.17879662623830824830228891642037 735:1 1064:1 1157:1 1358:1 #
0.043153196774471734575850945248021 154:1 184:1 342:1 685:1 1214:1 1280:1 1295:1 1358:1 1419:1 #
0.1515426248973736067515716285925 506:1 1280:1 1358:1 1847:1 #
0.14344561830683555392340622347547 1064:1 1731:1 1752:1 #
-0.17879662623830824830228891642037 1064:1 1172:1 1358:1 #
-0.17879662623830824830228891642037 1064:1 1224:1 1358:1 #
-0.17879662623830824830228891642037 1064:1 1358:1 #
-0.17879662623830824830228891642037 1172:1 1280:1 1642:1 #
-0.054515507960512230023475410689571 96:1 104:1 154:1 354:1 363:1 403:1 726:1 1064:1 1358:1 1688:1 1888:1 1922:1 #
0.17879662623830824830228891642037 39:1 416:1 425:1 692:1 952:1 1280:1 1486:1 #
0.17879662623830824830228891642037 193:1 692:1 952:1 1280:1 1505:1 #
0.066211622282851254062130408328812 203:1 278:1 1064:1 1073:1 1114:1 1358:1 1811:1 #
0.026682298456674465730875667190958 27:1 203:1 416:1 692:1 839:1 885:1 1114:1 1280:1 1557:1 1751:1 1922:1 1963:1 #
0.17879662623830824830228891642037 1064:1 1891:1 #
-0.17879662623830824830228891642037 692:1 952:1 1280:1 1557:1 1731:1 #
-0.17879662623830824830228891642037 22:1 416:1 650:1 1280:1 1714:1 1726:1 1796:1 1847:1 #
-0.14321298833403328654156894117477 692:1 933:1 999:1 1280:1 #
-0.17879662623830824830228891642037 692:1 1280:1 1487:1 1674:1 #
-0.17879662623830824830228891642037 692:1 1210:1 1280:1 1674:1 #
0.17879662623830824830228891642037 251:1 1064:1 1086:1 1358:1 #
0.17879662623830824830228891642037 80:1 94:1 1064:1 1358:1 #
-0.019732467745613782583724571395578 704:1 1064:1 1666:1 1787:1 #
0.0093124388999127668403721358458824 154:1 178:1 216:1 322:1 365:1 573:1 731:1 797:1 1064:1 1215:1 1262:1 1431:1 1489:1 1557:1 1631:1 1773:1 1783:1 1839:1 1914:1 #
0.16690000587022799094505387529352 872:1 1064:1 1358:1 #
-0.17879662623830824830228891642037 952:1 1064:1 1086:1 1358:1 #
0.17879662623830824830228891642037 403:1 506:1 1205:1 1280:1 1358:1 #
-0.17879662623830824830228891642037 18:1 79:1 154:1 335:1 611:1 883:1 935:1 1064:1 1358:1 1527:1 1917:1 #
0.047315789363245951137937339581185 22:1 154:1 160:1 228:1 285:1 388:1 403:1 611:1 619:1 692:1 823:1 875:1 936:1 1280:1 1731:1 1785:1 #
-0.13543927017659990186260188238521 394:1 703:1 1280:1 1701:1 #
0.17879662623830824830228891642037 154:1 203:1 371:1 381:1 692:1 933:1 1280:1 1720:1 #
0.02036951942064916393215767698166 22:1 295:1 692:1 830:1 1280:1 1506:1 #
0.067459644186606965154950898977404 30:1 44:1 160:1 430:1 692:1 698:1 1280:1 1939:1 #
-0.17879662623830824830228891642037 633:1 692:1 1280:1 1956:1 #
-0.17879662623830824830228891642037 385:1 670:1 692:1 1280:1 1848:1 #
-0.012389365197497524684333569666705 25:1 73:1 94:1 154:1 159:1 203:1 241:1 348:1 381:1 416:1 524:1 816:1 873:1 912:1 1045:1 1094:1 1267:1 1280:1 1284:1 1527:1 1582:1 1822:1 1954:1 1960:1 #
-0.17879662623830824830228891642037 139:1 381:1 1280:1 #
-0.17879662623830824830228891642037 103:1 129:1 154:1 663:1 679:1 692:1 1094:1 1111:1 1225:1 1280:1 #
0.17879662623830824830228891642037 151:1 655:1 952:1 1114:1 1149:1 1898:1 #
0.17879662623830824830228891642037 773:1 952:1 1280:1 1358:1 1702:1 #
0.17879662623830824830228891642037 1064:1 1186:1 1787:1 #
0.17879662623830824830228891642037 952:1 1219:1 1280:1 1358:1 1950:1 #
-0.17879662623830824830228891642037 203:1 1073:1 1149:1 1358:1 #
-0.17879662623830824830228891642037 952:1 1149:1 1157:1 1358:1 #
-0.17879662623830824830228891642037 1149:1 1358:1 1842:1 #
-0.17879662623830824830228891642037 154:1 773:1 1149:1 1347:1 1557:1 1616:1 #
0.17879662623830824830228891642037 189:1 719:1 1172:1 1280:1 1299:1 1772:1 #
0.084212558968887879506937110818399 415:1 692:1 845:1 1144:1 1279:1 1280:1 #
0.14599696963195221699471915144386 91:1 154:1 255:1 679:1 1094:1 1112:1 1280:1 1387:1 1500:1 1557:1 1731:1 1787:1 #
0.17879662623830824830228891642037 282:1 1280:1 1299:1 #
0.17879662623830824830228891642037 692:1 1124:1 1280:1 #
0.030291072948810095211147341842661 111:1 345:1 371:1 1280:1 1557:1 1949:1 #
-0.17879662623830824830228891642037 540:1 719:1 914:1 1280:1 #
-0.17879662623830824830228891642037 428:1 1196:1 1280:1 1950:1 #
-0.17879662623830824830228891642037 30:1 160:1 360:1 665:1 1280:1 1387:1 1748:1 1839:1 #
-0.14390139147028524480020905684796 295:1 692:1 1143:1 1280:1 1299:1 1643:1 #
0.055474098819634130863587273552184 92:1 540:1 1064:1 #
0.094861647831517917350829804945533 141:1 384:1 1280:1 1891:1 #
0.06747942159277729723410033102482 381:1 1064:1 1157:1 1575:1 #
0.14420219625123067985761338150041 1280:1 1358:1 1503:1 #
0.17879662623830824830228891642037 1149:1 1358:1 1503:1 #
-0.17879662623830824830228891642037 735:1 952:1 1280:1 1358:1 1557:1 #
-0.17879662623830824830228891642037 952:1 1280:1 1358:1 1557:1 #
-0.070988654057828365351312527309346 304:1 459:1 513:1 786:1 814:1 1064:1 1114:1 1146:1 1299:1 1358:1 1422:1 1865:1 #
-0.17879662623830824830228891642037 1114:1 1172:1 1280:1 1358:1 1642:1 #
-0.17879662623830824830228891642037 1114:1 1172:1 1280:1 1358:1 1780:1 #
0.17879662623830824830228891642037 23:1 235:1 295:1 533:1 592:1 710:1 1143:1 1218:1 1280:1 1299:1 1643:1 1853:1 #
0.17879662623830824830228891642037 30:1 823:1 1280:1 1374:1 1518:1 1674:1 #
0.17879662623830824830228891642037 381:1 952:1 1280:1 1584:1 #
0.17879662623830824830228891642037 1280:1 1962:1 #
0.1584629123253157301220994668256 5:1 30:1 94:1 195:1 416:1 945:1 1280:1 1311:1 1793:1 #
-0.072959189485986342127432635606965 5:1 21:1 22:1 30:1 173:1 264:1 309:1 310:1 381:1 403:1 634:1 664:1 1064:1 1118:1 1299:1 1460:1 1779:1 1877:1 #
-0.073182674902064037691928888307302 94:1 149:1 154:1 305:1 410:1 419:1 420:1 424:1 541:1 685:1 936:1 1069:1 1219:1 1280:1 1381:1 1669:1 1765:1 1814:1 1833:1 #
-0.17879662623830824830228891642037 22:1 23:1 986:1 1094:1 1189:1 1280:1 1357:1 1387:1 1726:1 1808:1 1887:1 #
-0.076304117481897484887021221311443 22:1 276:1 416:1 1280:1 1299:1 1643:1 1825:1 #
-0.17879662623830824830228891642037 1149:1 1186:1 1299:1 #
0.17879662623830824830228891642037 261:1 663:1 692:1 952:1 1280:1 1358:1 1510:1 1642:1 #
0.11343574322148100574914053595421 82:1 177:1 330:1 611:1 1112:1 1159:1 1172:1 1189:1 1280:1 1358:1 1406:1 1435:1 1627:1 1848:1 #
0.17879662623830824830228891642037 12:1 619:1 692:1 1280:1 1358:1 1557:1 1839:1 #
0.14385814424407128431226965403766 39:1 735:1 1114:1 1280:1 1358:1 1792:1 #
0.096737132080430929259584615920176 692:1 1280:1 1344:1 1726:1 #
-0.17879662623830824830228891642037 692:1 725:1 823:1 952:1 994:1 1252:1 1280:1 1358:1 #
-0.058664731473096205782713497001168 21:1 619:1 692:1 695:1 763:1 885:1 952:1 1027:1 1157:1 1280:1 1358:1 #
-0.060248428845092835692831556571036 295:1 381:1 549:1 634:1 692:1 952:1 1007:1 1280:1 1358:1 1717:1 #
-0.17879662623830824830228891642037 80:1 154:1 380:1 994:1 1280:1 1347:1 1358:1 1763:1 1910:1 #
-0.17879662623830824830228891642037 46:1 582:1 1280:1 1358:1 1543:1 1787:1 #
0.080378083403515224181212772691651 22:1 203:1 554:1 773:1 1002:1 1149:1 1218:1 1299:1 1366:1 1514:1 1577:1 1608:1 1661:1 1847:1 1954:1 #
0.17879662623830824830228891642037 120:1 353:1 498:1 549:1 1064:1 1186:1 1299:1 #
0.17879662623830824830228891642037 309:1 310:1 388:1 1064:1 1299:1 1577:1 1726:1 #
0.049762606078839713430461699772422 412:1 1280:1 1429:1 #
0.037241979469273503444703976583696 381:1 1280:1 1510:1 #
-0.17879662623830824830228891642037 735:1 1064:1 1366:1 1374:1 1557:1 1701:1 #
-0.17879662623830824830228891642037 28:1 94:1 416:1 1064:1 1578:1 #
-0.17879662623830824830228891642037 283:1 418:1 1064:1 1226:1 1344:1 1579:1 #
-0.17879662623830824830228891642037 275:1 418:1 839:1 933:1 1064:1 1731:1 #
0.054060744729279151810086290197432 154:1 307:1 403:1 622:1 692:1 697:1 1280:1 1358:1 1451:1 #
0.17879662623830824830228891642037 1280:1 1358:1 1381:1 1942:1 #
0.17879662623830824830228891642037 496:1 1280:1 1358:1 #
-0.17879662623830824830228891642037 5:1 132:1 143:1 467:1 640:1 645:1 842:1 1028:1 1114:1 1280:1 1358:1 1665:1 1922:1 #
-0.029196393892504973743839968847169 739:1 1219:1 1280:1 1299:1 1358:1 1419:1 1471:1 1854:1 #
-0.17879662623830824830228891642037 415:1 719:1 926:1 970:1 1152:1 1280:1 1358:1 1753:1 #
-0.17879662623830824830228891642037 26:1 381:1 756:1 1280:1 1358:1 #
-0.17879662623830824830228891642037 619:1 1280:1 1358:1 #
0.17879662623830824830228891642037 1064:1 1366:1 1422:1 #
0.036927572382834783493166241896688 28:1 416:1 1064:1 1157:1 #
0.17879662623830824830228891642037 92:1 418:1 849:1 1064:1 1528:1 #
0.17879662623830824830228891642037 92:1 1064:1 #
0.17879662623830824830228891642037 22:1 416:1 1280:1 1518:1 1950:1 #
-0.17879662623830824830228891642037 403:1 626:1 1064:1 1299:1 1528:1 1720:1 #
-0.17879662623830824830228891642037 184:1 731:1 884:1 1064:1 1301:1 1861:1 #
0.17879662623830824830228891642037 251:1 261:1 1064:1 1186:1 1358:1 1400:1 #
-0.17879662623830824830228891642037 1064:1 1405:1 #
-0.17879662623830824830228891642037 1064:1 1184:1 1261:1 #
0.17879662623830824830228891642037 102:1 619:1 1280:1 1358:1 #
0.10514341763332372969852457345041 80:1 619:1 1280:1 1358:1 #
-0.17879662623830824830228891642037 1088:1 1149:1 1358:1 #
-0.17879662623830824830228891642037 619:1 1280:1 1528:1 1685:1 #
-0.1192401914327316375663556868858 154:1 203:1 251:1 451:1 484:1 581:1 619:1 647:1 818:1 1064:1 1282:1 1310:1 1358:1 1493:1 1802:1 1839:1 #
-0.17879662623830824830228891642037 619:1 1280:1 1284:1 1528:1 #
0.094698439289845393052047484161449 403:1 413:1 824:1 1215:1 1246:1 1280:1 1383:1 1528:1 1839:1 #
0.17879662623830824830228891642037 93:1 251:1 709:1 1064:1 1146:1 #
0.17879662623830824830228891642037 1064:1 1146:1 1358:1 #
0.10645579585613931805632148552831 289:1 534:1 1064:1 1267:1 1296:1 1340:1 1377:1 1669:1 1787:1 1926:1 #
0.064962469071012621246730134316749 634:1 1064:1 1397:1 #
-0.17879662623830824830228891642037 154:1 224:1 251:1 773:1 823:1 1064:1 1219:1 1280:1 1381:1 1469:1 1608:1 #
-0.17879662623830824830228891642037 12:1 428:1 634:1 1064:1 1186:1 #
-0.17879662623830824830228891642037 933:1 1280:1 1284:1 #
0.013589181638467976928619229681772 691:1 794:1 1280:1 1962:1 #
0.17879662623830824830228891642037 1280:1 1429:1 1528:1 1698:1 #
0.048737054582689537385320477369532 268:1 381:1 649:1 1144:1 1280:1 1528:1 1856:1 #
0.040746660590247382738304793292627 94:1 154:1 289:1 719:1 735:1 913:1 1178:1 1280:1 1483:1 1974:1 #
0.17879662623830824830228891642037 12:1 1280:1 1338:1 1528:1 #
0.048381483265723425335469443098191 1280:1 1503:1 1528:1 #
-0.17879662623830824830228891642037 1044:1 1280:1 1296:1 1377:1 1574:1 1846:1 1847:1 1924:1 #
-0.17879662623830824830228891642037 59:1 94:1 289:1 1243:1 1280:1 1377:1 1625:1 #
-0.17879662623830824830228891642037 35:1 66:1 140:1 380:1 1276:1 1280:1 #
-0.17879662623830824830228891642037 1280:1 1528:1 1650:1 #
-0.17879662623830824830228891642037 427:1 1280:1 1422:1 1826:1 #
0.09390262836845594818235838374676 56:1 104:1 235:1 324:1 330:1 369:1 569:1 634:1 811:1 865:1 994:1 1064:1 1108:1 1157:1 1248:1 1257:1 1282:1 1298:1 1299:1 1358:1 1476:1 1571:1 1649:1 1651:1 1701:1 1731:1 1787:1 1946:1 #
0.17879662623830824830228891642037 154:1 270:1 416:1 554:1 752:1 857:1 1005:1 1064:1 1186:1 1280:1 1299:1 #
0.068079284166855921767158577040391 634:1 1064:1 1358:1 1934:1 #
0.025015745761969396254720265915239 977:1 1280:1 1358:1 1378:1 #
0.039823286675811517265621830574673 154:1 1064:1 1157:1 1186:1 1842:1 #
-0.17879662623830824830228891642037 26:1 93:1 154:1 559:1 983:1 1064:1 1224:1 1358:1 1503:1 1816:1 #
-0.0072307803407193876193970183408055 12:1 154:1 298:1 330:1 378:1 381:1 1064:1 1088:1 1358:1 1895:1 #
-0.17879662623830824830228891642037 12:1 1064:1 1157:1 1299:1 1358:1 #
-0.17879662623830824830228891642037 1064:1 1088:1 1358:1 #
0.17879662623830824830228891642037 823:1 1220:1 1280:1 1299:1 1608:1 1726:1 1947:1 #
0.17879662623830824830228891642037 823:1 1280:1 1299:1 1481:1 #
0.17879662623830824830228891642037 1221:1 1280:1 #
0.17879662623830824830228891642037 414:1 1280:1 1498:1 1846:1 #
0.17879662623830824830228891642037 1280:1 1458:1 1949:1 #
-0.17879662623830824830228891642037 261:1 296:1 446:1 524:1 566:1 663:1 670:1 1114:1 1280:1 1501:1 #
-0.17879662623830824830228891642037 933:1 1005:1 1280:1 1502:1 #
-0.17879662623830824830228891642037 1280:1 1787:1 #
-0.17879662623830824830228891642037 1010:1 1280:1 #
-0.17879662623830824830228891642037 1280:1 1659:1 #
0.17879662623830824830228891642037 22:1 428:1 944:1 1064:1 1295:1 1319:1 1358:1 1950:1 #
0.17879662623830824830228891642037 1051:1 1064:1 #
0.11968723699496840173761569303679 55:1 400:1 426:1 427:1 430:1 575:1 644:1 719:1 720:1 949:1 986:1 1000:1 1028:1 1073:1 1149:1 1189:1 1216:1 1265:1 1299:1 1355:1 1358:1 1403:1 1557:1 1577:1 1608:1 1674:1 1710:1 1720:1 1856:1 1889:1 #
-0.17879662623830824830228891642037 1299:1 1311:1 1325:1 1785:1 1950:1 #
-0.17879662623830824830228891642037 428:1 1064:1 1186:1 #
-0.17879662623830824830228891642037 1064:1 #
-0.17879662623830824830228891642037 896:1 1064:1 1674:1 #
0.12241818589400950412215962614937 76:1 93:1 154:1 287:1 381:1 1135:1 1280:1 1287:1 1374:1 1400:1 1496:1 #
0.055793313475208480833877899840445 21:1 154:1 286:1 296:1 567:1 735:1 1112:1 1280:1 1787:1 1974:1 #
0.17879662623830824830228891642037 12:1 506:1 1280:1 #
0.17879662623830824830228891642037 306:1 446:1 567:1 692:1 1280:1 1625:1 #
-0.17879662623830824830228891642037 23:1 416:1 692:1 914:1 1280:1 1358:1 #
-0.17879662623830824830228891642037 692:1 693:1 1189:1 1280:1 1674:1 #
0.026716118014032508298782886413392 1001:1 1020:1 1064:1 #
-0.17879662623830824830228891642037 692:1 1210:1 1280:1 1916:1 #
0.17879662623830824830228891642037 1064:1 1191:1 1528:1 #
0.0089320399589882977509081030120797 94:1 1064:1 1161:1 1296:1 1358:1 1510:1 1642:1 #
0.17879662623830824830228891642037 21:1 94:1 230:1 237:1 388:1 1064:1 #
0.0035074887187387139564354043841377 1064:1 1186:1 1358:1 1527:1 #
-0.11612881587272222416729050564754 381:1 418:1 425:1 712:1 1059:1 1064:1 1455:1 1708:1 1894:1 #
-0.17879662623830824830228891642037 634:1 1149:1 1528:1 #
-0.17879662623830824830228891642037 1064:1 1068:1 1787:1 #
-0.17879662623830824830228891642037 237:1 634:1 972:1 1064:1 1685:1 #
0.17879662623830824830228891642037 111:1 692:1 1108:1 1114:1 1280:1 1347:1 1451:1 #
0.1527082554201372732727293168864 279:1 692:1 1020:1 1280:1 #
-0.17879662623830824830228891642037 111:1 397:1 415:1 692:1 1280:1 #
-0.17879662623830824830228891642037 92:1 388:1 1280:1 1374:1 1589:1 1701:1 #
0.17879662623830824830228891642037 22:1 222:1 301:1 416:1 813:1 1149:1 1701:1 #
0.15691760057162348895865022768703 23:1 416:1 1149:1 1393:1 1415:1 #
0.17879662623830824830228891642037 1149:1 1394:1 #
0.17879662623830824830228891642037 1149:1 1831:1 #
0.17879662623830824830228891642037 805:1 1149:1 #
-0.17879662623830824830228891642037 1149:1 #
-0.17879662623830824830228891642037 1149:1 1842:1 #
-0.17879662623830824830228891642037 161:1 1149:1 1306:1 1842:1 #
-0.17879662623830824830228891642037 428:1 1149:1 1186:1 #
0.17879662623830824830228891642037 634:1 886:1 1110:1 1280:1 1848:1 #
0.17879662623830824830228891642037 134:1 304:1 346:1 1280:1 1358:1 1922:1 #
0.10868598645675772718099949543102 676:1 884:1 1030:1 1280:1 1358:1 1743:1 #
0.17879662623830824830228891642037 1280:1 1877:1 #
-0.17879662623830824830228891642037 203:1 381:1 450:1 523:1 582:1 1150:1 1163:1 1280:1 1358:1 #
-0.17879662623830824830228891642037 346:1 692:1 952:1 1280:1 1358:1 #
-0.17879662623830824830228891642037 952:1 1157:1 1280:1 1358:1 #
-0.17879662623830824830228891642037 999:1 1205:1 1280:1 1358:1 #
0.17879662623830824830228891642037 1149:1 1157:1 #
0.019512704140249519102479069943001 773:1 1149:1 1157:1 1608:1 #
0.052028967654530640374321848184991 160:1 386:1 740:1 852:1 1149:1 1296:1 1422:1 1681:1 1885:1 #
0.17879662623830824830228891642037 1149:1 1503:1 1528:1 #
-0.17879662623830824830228891642037 28:1 634:1 1149:1 1528:1 #
-0.17879662623830824830228891642037 1088:1 1149:1 1528:1 #
-0.17879662623830824830228891642037 464:1 491:1 773:1 982:1 1143:1 1280:1 1680:1 #
-0.17879662623830824830228891642037 773:1 833:1 1280:1 1925:1 1949:1 #
-0.17879662623830824830228891642037 704:1 1149:1 #
0.17879662623830824830228891642037 1280:1 1334:1 1358:1 #
0.17879662623830824830228891642037 1062:1 1280:1 1358:1 #
0.17879662623830824830228891642037 1134:1 1280:1 1358:1 #
0.17879662623830824830228891642037 736:1 1280:1 1358:1 #
0.17879662623830824830228891642037 1231:1 1280:1 1358:1 #
-0.17879662623830824830228891642037 1280:1 1284:1 1358:1 #
-0.17879662623830824830228891642037 719:1 914:1 1280:1 1358:1 1856:1 #
-0.17879662623830824830228891642037 619:1 1280:1 1299:1 1358:1 1962:1 #
0.17879662623830824830228891642037 203:1 1280:1 1528:1 1673:1 1751:1 #
-0.14362820257361252895833558795857 30:1 49:1 416:1 454:1 553:1 1094:1 1253:1 1268:1 1280:1 1300:1 1402:1 1608:1 1609:1 #
0.17879662623830824830228891642037 471:1 1280:1 1949:1 #
-0.17139649741588633413691411533364 94:1 160:1 269:1 1064:1 1160:1 1629:1 1750:1 1828:1 #
-0.17879662623830824830228891642037 814:1 1064:1 1395:1 1954:1 #
0.17879662623830824830228891642037 1280:1 1927:1 #
0.17879662623830824830228891642037 917:1 1280:1 #
-0.17879662623830824830228891642037 1280:1 1965:1 #
-0.17879662623830824830228891642037 910:1 1280:1 #
-0.17879662623830824830228891642037 587:1 745:1 990:1 1263:1 1280:1 #
-0.17879662623830824830228891642037 950:1 1280:1 #
-0.17879662623830824830228891642037 735:1 1280:1 #
0.17879662623830824830228891642037 203:1 295:1 709:1 814:1 1114:1 1149:1 #
0.17879662623830824830228891642037 256:1 1064:1 #
0.17879662623830824830228891642037 80:1 403:1 1280:1 #
-0.17879662623830824830228891642037 428:1 1149:1 1157:1 #
0.17879662623830824830228891642037 1280:1 1461:1 #
0.17879662623830824830228891642037 1072:1 1280:1 #
0.17879662623830824830228891642037 376:1 1280:1 #
0.094782603459559730540995303726959 639:1 1280:1 1388:1 1673:1 #
0.17879662623830824830228891642037 855:1 1280:1 #
-0.17879662623830824830228891642037 522:1 1169:1 1280:1 #
-0.17879662623830824830228891642037 403:1 709:1 999:1 1280:1 1642:1 #
-0.17879662623830824830228891642037 403:1 891:1 1280:1 #
0.11760320811988715650198145112881 277:1 1149:1 1157:1 1189:1 #
0.0056598319426028626671909549372685 25:1 27:1 198:1 202:1 299:1 381:1 416:1 459:1 534:1 669:1 864:1 1064:1 1068:1 1186:1 1306:1 1352:1 1484:1 1530:1 1608:1 1787:1 1839:1 #
-0.17879662623830824830228891642037 363:1 1149:1 #
0.013627760780737997736711264451515 134:1 154:1 160:1 255:1 289:1 346:1 617:1 798:1 854:1 927:1 991:1 1141:1 1266:1 1280:1 1374:1 1588:1 #
0.17879662623830824830228891642037 619:1 1280:1 1358:1 1962:1 #
0.17879662623830824830228891642037 472:1 1280:1 1358:1 #
-0.17879662623830824830228891642037 388:1 986:1 1189:1 1280:1 #
-0.17879662623830824830228891642037 1280:1 1487:1 1528:1 #
-0.15937450083789478361140368178894 242:1 366:1 398:1 406:1 679:1 986:1 1280:1 1528:1 1625:1 #
-0.17879662623830824830228891642037 619:1 1280:1 1281:1 #
-0.17879662623830824830228891642037 743:1 1280:1 1400:1 1479:1 1528:1 1539:1 1856:1 #
0.073547315297204554629395545362058 154:1 839:1 982:1 1241:1 1280:1 1422:1 1856:1 1942:1 #
0.12196856916937223735963868875842 348:1 1280:1 1510:1 1642:1 1676:1 #
0.17879662623830824830228891642037 1280:1 1390:1 #
0.17879662623830824830228891642037 1050:1 1280:1 #
-0.17879662623830824830228891642037 348:1 1157:1 1280:1 1299:1 #
-0.17879662623830824830228891642037 111:1 1033:1 1280:1 1846:1 #
0.17879662623830824830228891642037 372:1 1280:1 1670:1 #
0.17879662623830824830228891642037 1280:1 #
0.17879662623830824830228891642037 564:1 1280:1 #
-0.17879662623830824830228891642037 218:1 335:1 1280:1 1311:1 1467:1 1838:1 1914:1 #
0.17879662623830824830228891642037 619:1 692:1 1280:1 1720:1 1846:1 #
0.17879662623830824830228891642037 1280:1 1426:1 1603:1 #
0.17879662623830824830228891642037 1113:1 1280:1 #
0.12806104291715678100693764918105 119:1 597:1 962:1 1001:1 1280:1 #
-0.17879662623830824830228891642037 427:1 1280:1 1326:1 #
-0.17879662623830824830228891642037 61:1 308:1 580:1 638:1 772:1 1017:1 1070:1 1280:1 1751:1 #
0.17879662623830824830228891642037 1280:1 1618:1 #
0.17879662623830824830228891642037 1280:1 1821:1 #
0.17879662623830824830228891642037 598:1 1280:1 #
0.17879662623830824830228891642037 40:1 1280:1 #
-0.17879662623830824830228891642037 364:1 693:1 897:1 1280:1 #
-0.17879662623830824830228891642037 1138:1 1280:1 #
-0.17879662623830824830228891642037 139:1 473:1 1280:1 #
-0.17879662623830824830228891642037 389:1 950:1 1280:1 1602:1 1960:1 #
0.17879662623830824830228891642037 735:1 1557:1 1785:1 #
0.13133605122204433657273625613016 226:1 697:1 775:1 1280:1 1949:1 #
-0.17879662623830824830228891642037 1280:1 1284:1 1731:1 #
-0.09263329197947771376231429485415 154:1 440:1 619:1 695:1 795:1 986:1 1280:1 1448:1 1629:1 1666:1 1726:1 #
0.17879662623830824830228891642037 400:1 1280:1 #
-0.17879662623830824830228891642037 1088:1 1280:1 #
0.17879662623830824830228891642037 857:1 1280:1 #
-0.17879662623830824830228891642037 251:1 309:1 310:1 466:1 1280:1 1329:1 1400:1 1775:1 #
-0.17879662623830824830228891642037 597:1 1280:1 1518:1 1941:1 #
-0.17879662623830824830228891642037 276:1 456:1 571:1 1264:1 1280:1 1310:1 #
-0.17879662623830824830228891642037 72:1 1280:1 1487:1 #
0.015819135218386355667963272253473 154:1 232:1 506:1 808:1 1064:1 1280:1 1405:1 #
-0.17879662623830824830228891642037 12:1 388:1 506:1 952:1 1064:1 1358:1 #
-0.076172215048068508957967992500926 115:1 1114:1 1172:1 1280:1 1413:1 1652:1 1674:1 1969:1 #
-0.17136904720957649161938718407328 403:1 428:1 875:1 1280:1 1557:1 #
-0.15424921113012571294298425073066 81:1 90:1 203:1 582:1 987:1 1201:1 1280:1 1297:1 1361:1 1828:1 1855:1 #
0.012211878141258177693506681293911 80:1 413:1 1064:1 #
-0.17879662623830824830228891642037 1280:1 1528:1 1578:1 #
-0.092864598419489102765211896439723 476:1 588:1 1088:1 1280:1 1358:1 1922:1 #
0.14229738533360714036746230704011 855:1 1280:1 1937:1 #
0.023244516197118363087792403121057 1064:1 1101:1 1821:1 #
0.17879662623830824830228891642037 1280:1 1338:1 #
-0.10943557902918768509614722006518 94:1 368:1 704:1 1001:1 1280:1 #
-0.17879662623830824830228891642037 1210:1 1280:1 #
-0.17879662623830824830228891642037 1155:1 1280:1 1299:1 1429:1 #
-0.17879662623830824830228891642037 363:1 692:1 1280:1 #
-0.17879662623830824830228891642037 206:1 1280:1 1518:1 #
0.0039032820104062991919957603670355 56:1 1280:1 1358:1 1400:1 1962:1 #
0.10350461952392976672232549617547 406:1 941:1 1280:1 1358:1 1510:1 1642:1 #
0.14155694275042812746434606196999 789:1 875:1 1280:1 1358:1 1927:1 #
0.17879662623830824830228891642037 102:1 1280:1 #
-0.10937213328596362416078591195401 134:1 143:1 572:1 633:1 679:1 1071:1 1094:1 1141:1 1202:1 1280:1 1358:1 1525:1 1709:1 1846:1 #
0.17879662623830824830228891642037 692:1 1280:1 1939:1 #
0.027931170892015064199931373423169 590:1 692:1 1200:1 1280:1 #
0.048772347721001155229636481180933 692:1 1200:1 1227:1 1280:1 #
-0.17879662623830824830228891642037 442:1 713:1 941:1 1172:1 1280:1 #
-0.17879662623830824830228891642037 941:1 1172:1 1280:1 #
0.1411338810318019110212617306388 94:1 289:1 716:1 913:1 954:1 1280:1 #
0.17879662623830824830228891642037 1124:1 1280:1 #
0.1422973853336077232345502352473 95:1 376:1 1280:1 #
-0.17879662623830824830228891642037 224:1 1280:1 1442:1 #
-0.17879662623830824830228891642037 224:1 1016:1 1280:1 1478:1 #
0.17879662623830824830228891642037 679:1 1086:1 1280:1 1358:1 #
-0.032754199198368354195576301890469 21:1 154:1 693:1 944:1 1111:1 1280:1 1676:1 1684:1 1701:1 1725:1 1731:1 1785:1 1911:1 #
-0.17879662623830824830228891642037 621:1 1280:1 1299:1 1962:1 #
-0.17879662623830824830228891642037 956:1 1280:1 1299:1 1962:1 #
0.033828565153474481064233003735353 12:1 87:1 89:1 93:1 94:1 217:1 222:1 249:1 251:1 261:1 264:1 280:1 312:1 381:1 406:1 463:1 476:1 482:1 524:1 572:1 580:1 581:1 619:1 623:1 628:1 634:1 651:1 723:1 733:1 739:1 746:1 751:1 755:1 765:1 773:1 818:1 833:1 880:1 994:1 1001:1 1019:1 1027:1 1064:1 1068:1 1087:1 1101:1 1116:1 1126:1 1161:1 1172:1 1186:1 1194:1 1228:1 1236:1 1248:1 1284:1 1297:1 1299:1 1315:1 1335:1 1353:1 1358:1 1359:1 1362:1 1363:1 1364:1 1459:1 1532:1 1557:1 1559:1 1577:1 1665:1 1674:1 1692:1 1710:1 1722:1 1771:1 1856:1 1881:1 1925:1 1954:1 1962:1 #
0.15056685495466254343099876678025 151:1 152:1 403:1 415:1 1023:1 1064:1 1102:1 1172:1 1186:1 1306:1 1431:1 1485:1 1528:1 1643:1 #
0.13445831196267959972701078186219 476:1 531:1 1064:1 1154:1 1172:1 1177:1 1186:1 1297:1 1873:1 #
0.17879662623830824830228891642037 823:1 1135:1 1175:1 1280:1 1299:1 #
0.17879662623830824830228891642037 592:1 627:1 1280:1 1299:1 1930:1 1950:1 #
0.17879662623830824830228891642037 1280:1 1692:1 1826:1 #
0.17879662623830824830228891642037 251:1 403:1 1280:1 1429:1 #
0.09910381847655720666256939921368 30:1 1219:1 1280:1 1406:1 1424:1 1494:1 #
-0.17879662623830824830228891642037 413:1 999:1 1280:1 #
-0.0091465581095228672831032312728894 46:1 151:1 152:1 180:1 485:1 580:1 619:1 672:1 732:1 807:1 884:1 930:1 1153:1 1280:1 1518:1 1540:1 #
0.17879662623830824830228891642037 539:1 1064:1 #
0.17879662623830824830228891642037 768:1 1064:1 #
0.17879662623830824830228891642037 1064:1 1222:1 #
0.17879662623830824830228891642037 122:1 1064:1 #
0.077935071336087541338244477628905 24:1 94:1 151:1 152:1 175:1 381:1 522:1 576:1 890:1 1075:1 1280:1 1297:1 1346:1 1377:1 1490:1 #
-0.17879662623830824830228891642037 428:1 823:1 1280:1 #
-0.17879662623830824830228891642037 348:1 381:1 786:1 802:1 1280:1 1300:1 #
0.1031383689379777035544094587749 403:1 719:1 798:1 806:1 1280:1 1358:1 #
0.17879662623830824830228891642037 735:1 898:1 932:1 1280:1 1954:1 #
0.058115802063759283702104596613935 158:1 244:1 524:1 675:1 1005:1 1280:1 1545:1 #
-0.1542112047162719767889882405143 735:1 1280:1 1299:1 1429:1 1960:1 #
0.12826537149731878639791204932408 522:1 1280:1 1528:1 1962:1 #
0.17879662623830824830228891642037 1064:1 1606:1 #
0.17879662623830824830228891642037 1064:1 1211:1 #
-0.17879662623830824830228891642037 251:1 999:1 1280:1 #
0.17879662623830824830228891642037 348:1 442:1 1280:1 1510:1 #
-0.17879662623830824830228891642037 355:1 403:1 1280:1 1518:1 #
-0.17879662623830824830228891642037 15:1 1280:1 1518:1 #
0.17879662623830824830228891642037 295:1 814:1 1064:1 1358:1 #
0.17879662623830824830228891642037 403:1 567:1 1280:1 #
0.17879662623830824830228891642037 1020:1 1280:1 #
-0.17879662623830824830228891642037 51:1 304:1 1280:1 1487:1 #
-0.17879662623830824830228891642037 346:1 692:1 1280:1 1299:1 #
0.17879662623830824830228891642037 12:1 381:1 1280:1 1557:1 #
0.1075227367235391112698650317725 458:1 564:1 1280:1 #
0.17879662623830824830228891642037 1280:1 1358:1 1811:1 #
-0.039690453486376800484869420415635 189:1 737:1 1172:1 1280:1 1432:1 1674:1 #
-0.17879662623830824830228891642037 999:1 1280:1 #
-0.056956156703878664526730091210993 1073:1 1088:1 1149:1 #
-0.020755026620262365111280189466925 104:1 692:1 1280:1 1299:1 #
-0.17879662623830824830228891642037 1064:1 1224:1 #
-0.17879662623830824830228891642037 237:1 933:1 1064:1 1169:1 #
-0.039493255481745023760531410061958 21:1 107:1 151:1 152:1 192:1 224:1 344:1 418:1 492:1 522:1 848:1 883:1 955:1 1280:1 1417:1 1445:1 1510:1 1528:1 1829:1 #
-0.17879662623830824830228891642037 418:1 533:1 1064:1 1612:1 1623:1 #
-0.17879662623830824830228891642037 335:1 677:1 1023:1 1055:1 1064:1 1195:1 1301:1 1721:1 1813:1 #
0.1212324371457813160235517102592 116:1 154:1 217:1 529:1 634:1 755:1 1279:1 1280:1 1518:1 1950:1 #
0.17879662623830824830228891642037 231:1 1280:1 1518:1 1950:1 #
-0.17879662623830824830228891642037 203:1 217:1 360:1 777:1 813:1 1027:1 1280:1 1677:1 #
-0.17879662623830824830228891642037 255:1 1280:1 1701:1 1909:1 #
-0.17879662623830824830228891642037 692:1 704:1 1280:1 #
-0.17879662623830824830228891642037 87:1 914:1 1280:1 1540:1 1785:1 #
-0.12834826445798686034294178170967 734:1 1280:1 1598:1 1701:1 1848:1 #
-0.17879662623830824830228891642037 94:1 1064:1 1578:1 #
-0.17879662623830824830228891642037 704:1 1064:1 #
-0.17879662623830824830228891642037 198:1 864:1 926:1 1064:1 1224:1 #
0.064985546221368734043366544028686 115:1 201:1 299:1 304:1 346:1 692:1 946:1 1150:1 1280:1 1358:1 #
0.16578808290030119798608154724207 1280:1 1483:1 1641:1 1785:1 #
0.085906746448318874187499716299499 21:1 203:1 941:1 1273:1 1280:1 1618:1 1767:1 1839:1 #
0.17879662623830824830228891642037 5:1 597:1 823:1 933:1 1280:1 #
0.098893077168031043311380301474856 51:1 346:1 1280:1 1587:1 #
0.17879662623830824830228891642037 494:1 1055:1 1280:1 1721:1 1731:1 #
0.038725935310616715900877693457005 154:1 302:1 348:1 368:1 407:1 783:1 823:1 933:1 1028:1 1064:1 1279:1 1280:1 1738:1 1936:1 #
0.071001520264701023510411914685392 87:1 111:1 1280:1 1962:1 #
0.17879662623830824830228891642037 472:1 1280:1 #
-0.17879662623830824830228891642037 363:1 1280:1 #
-0.17879662623830824830228891642037 1280:1 1299:1 1962:1 #
0.17879662623830824830228891642037 203:1 1134:1 1280:1 #
0.092327801994739541746604061245307 291:1 1280:1 1324:1 #
0.042738949887268236349502359416874 291:1 607:1 636:1 1280:1 #
0.10908457825445096178729187386125 179:1 372:1 408:1 416:1 1280:1 1311:1 1642:1 #
0.14983806825935783169079229537601 491:1 1157:1 1280:1 #
-0.17879662623830824830228891642037 50:1 932:1 1088:1 1280:1 1871:1 1930:1 #
-0.15960888822498334183030976873852 203:1 267:1 1280:1 1587:1 1644:1 1701:1 1839:1 #
-0.17879662623830824830228891642037 381:1 1161:1 1172:1 1280:1 1678:1 1787:1 #
-0.17879662623830824830228891642037 51:1 346:1 1280:1 1299:1 1931:1 1949:1 #
-0.17879662623830824830228891642037 314:1 345:1 494:1 1280:1 1701:1 #
0.17879662623830824830228891642037 1280:1 1528:1 1960:1 1962:1 #
0.17879662623830824830228891642037 1280:1 1692:1 #
0.019346208809861806243723947318358 104:1 381:1 554:1 893:1 955:1 1027:1 1148:1 1275:1 1358:1 1465:1 1560:1 1649:1 1701:1 1726:1 1785:1 1800:1 1962:1 1964:1 #
0.17879662623830824830228891642037 50:1 1064:1 1378:1 #
0.17879662623830824830228891642037 1064:1 1246:1 #
0.17879662623830824830228891642037 663:1 1200:1 1280:1 #
0.17879662623830824830228891642037 92:1 1280:1 #
0.17879662623830824830228891642037 1280:1 1344:1 1969:1 #
0.0012514972080613360246731380343022 1056:1 1064:1 1186:1 1660:1 1787:1 #
0.17879662623830824830228891642037 346:1 1280:1 #
-0.014418709116422814137115082644414 4:1 203:1 428:1 679:1 1202:1 1280:1 1510:1 1642:1 #
-0.086338884603379337234763113428926 37:1 428:1 823:1 1280:1 #
0.17879662623830824830228891642037 1064:1 1962:1 #
-0.17879662623830824830228891642037 51:1 346:1 952:1 1280:1 1358:1 #
-0.17879662623830824830228891642037 92:1 952:1 978:1 1120:1 1155:1 1280:1 1358:1 #
0.17879662623830824830228891642037 621:1 1064:1 1503:1 #
0.17879662623830824830228891642037 786:1 1064:1 1157:1 #
0.17879662623830824830228891642037 1064:1 1792:1 #
0.17879662623830824830228891642037 1064:1 1101:1 1343:1 #
0.17879662623830824830228891642037 301:1 1064:1 #
0.17879662623830824830228891642037 1064:1 1113:1 #
0.17879662623830824830228891642037 40:1 1064:1 #
0.075263391349941588526206714959699 853:1 1027:1 1247:1 1280:1 1731:1 1885:1 #
0.17879662623830824830228891642037 295:1 1064:1 1082:1 #
0.017944948868413589798675999986699 1064:1 1073:1 1527:1 1557:1 1867:1 #
-0.17879662623830824830228891642037 94:1 1064:1 1172:1 1780:1 #
-0.17879662623830824830228891642037 295:1 476:1 1064:1 1299:1 #
-0.17879662623830824830228891642037 224:1 381:1 1064:1 1804:1 #
-0.04014032023435164242552986024748 19:1 340:1 367:1 695:1 849:1 928:1 1041:1 1064:1 1108:1 1297:1 1299:1 1632:1 #
0.033483405023812168321839521922811 22:1 23:1 51:1 92:1 289:1 388:1 406:1 495:1 679:1 955:1 1108:1 1114:1 1120:1 1141:1 1148:1 1155:1 1280:1 1358:1 1448:1 1674:1 1726:1 1747:1 1834:1 1876:1 #
0.069549297220137348829460677279712 12:1 21:1 22:1 23:1 28:1 30:1 43:1 51:1 98:1 103:1 220:1 224:1 564:1 623:1 634:1 740:1 823:1 835:1 839:1 918:1 1068:1 1280:1 1299:1 1358:1 1557:1 1577:1 1643:1 1880:1 #
0.063938721058630548776946511679853 154:1 463:1 540:1 657:1 840:1 1280:1 1284:1 1289:1 1557:1 1636:1 1712:1 1785:1 1930:1 #
-0.17879662623830824830228891642037 363:1 634:1 1149:1 #
0.0076605180845859743507531014472534 1280:1 1358:1 1557:1 1751:1 #
-0.14692396331085988414599796669791 12:1 735:1 937:1 1280:1 1327:1 1701:1 1792:1 #
-0.17879662623830824830228891642037 149:1 388:1 986:1 1280:1 #
-0.16741444204215852331607550240733 537:1 704:1 1280:1 #
-0.17879662623830824830228891642037 704:1 1280:1 #
-0.058681983483738972551257973009342 180:1 381:1 773:1 1172:1 1280:1 1780:1 #
0.046700348904465116550710490628262 91:1 459:1 506:1 513:1 723:1 1149:1 #
0.039907364114555705925102557785067 203:1 276:1 634:1 1073:1 1149:1 1577:1 #
0.17879662623830824830228891642037 864:1 1149:1 1186:1 #
-0.17879662623830824830228891642037 295:1 476:1 634:1 1064:1 1299:1 #
0.13244580805575240090021793548658 203:1 403:1 719:1 1280:1 1877:1 1949:1 #
0.17879662623830824830228891642037 381:1 540:1 1280:1 1962:1 #
0.17879662623830824830228891642037 51:1 1280:1 1939:1 #
0.17879662623830824830228891642037 343:1 1055:1 1280:1 1358:1 #
0.17879662623830824830228891642037 692:1 1280:1 1962:1 #
-0.15502757577930262322674082042795 640:1 1280:1 1414:1 1518:1 #
-0.17879662623830824830228891642037 363:1 735:1 1280:1 #
-0.17879662623830824830228891642037 1064:1 1299:1 1962:1 #
-0.15078528676882135828307696101547 418:1 540:1 914:1 1064:1 1366:1 1947:1 #
-0.17879662623830824830228891642037 472:1 952:1 1064:1 #
-0.17879662623830824830228891642037 202:1 1064:1 1088:1 #
0.020252441645744988230060101841445 217:1 235:1 592:1 865:1 883:1 1170:1 1248:1 1280:1 1299:1 1321:1 1347:1 1358:1 1557:1 1634:1 1947:1 1962:1 #
-0.17879662623830824830228891642037 428:1 1064:1 1157:1 #
-0.14094455765021260407188208318985 428:1 1064:1 1934:1 #
-0.008441066487200644952171302293209 1064:1 1172:1 1674:1 1856:1 #
0.02499475294246854273350066932835 291:1 1280:1 1358:1 #
-0.17879662623830824830228891642037 1280:1 1469:1 1518:1 1762:1 #
-0.17879662623830824830228891642037 1064:1 1299:1 1503:1 #
0.17879662623830824830228891642037 12:1 92:1 154:1 872:1 1064:1 1280:1 1327:1 1518:1 1731:1 1947:1 #
0.17879662623830824830228891642037 345:1 1157:1 1280:1 #
0.15755173265722052788895268804481 473:1 534:1 619:1 1280:1 1720:1 #
0.17879662623830824830228891642037 22:1 577:1 1280:1 #
-0.17879662623830824830228891642037 1010:1 1280:1 1518:1 #
0.045792561693404044975697075869903 346:1 1280:1 1358:1 1949:1 #
0.09750017990695905578668600810488 210:1 692:1 1280:1 1429:1 #
0.014989774299995957743125707395393 21:1 22:1 23:1 241:1 248:1 330:1 381:1 572:1 735:1 1051:1 1064:1 1299:1 1315:1 1358:1 1378:1 1387:1 1449:1 1538:1 1548:1 1557:1 1577:1 1787:1 1845:1 1882:1 #
0.17235951191827170170256522396812 202:1 1029:1 1064:1 1155:1 1934:1 #
0.17879662623830824830228891642037 1149:1 1186:1 #
0.17879662623830824830228891642037 295:1 476:1 1280:1 #
0.13383814073239683195559734940616 1064:1 1157:1 1540:1 #
-0.17879662623830824830228891642037 670:1 692:1 1280:1 1674:1 #
-0.09100517375759785421163172713932 22:1 62:1 154:1 276:1 418:1 801:1 815:1 1182:1 1280:1 1787:1 #
-0.065968600187832848735780544302543 154:1 903:1 1066:1 1280:1 1698:1 1701:1 #
0.046394980209161468254208671169181 100:1 154:1 292:1 381:1 540:1 655:1 1064:1 1149:1 1422:1 1465:1 1682:1 #
0.17879662623830824830228891642037 346:1 692:1 1280:1 1358:1 #
0.17879662623830824830228891642037 692:1 1157:1 1280:1 #
0.048745318458601860633905289432732 692:1 915:1 1200:1 1280:1 #
-0.12781473549297883707254186447244 180:1 994:1 1205:1 1280:1 1518:1 #
0.17879662623830824830228891642037 1149:1 1934:1 #
0.10447909679232841861917790993175 198:1 773:1 1149:1 1557:1 #
0.17292218605241144180340029379295 1064:1 1618:1 #
-0.080980818415951977273792294909072 861:1 1088:1 1149:1 1358:1 #
-0.17879662623830824830228891642037 1068:1 1088:1 1149:1 1358:1 #
-0.17879662623830824830228891642037 692:1 1280:1 1299:1 1939:1 #
-0.082729550404482668501948694483872 317:1 933:1 986:1 1280:1 1417:1 #
-0.13301227209734725609457939299318 251:1 986:1 1280:1 1861:1 #
-0.051461788719234034805705135795506 522:1 1169:1 1280:1 1518:1 #
0.023897546306868099053044574020532 345:1 506:1 1280:1 1358:1 1960:1 #
0.066652904305075547086723020129284 345:1 506:1 1064:1 #
0.14415026094502969566946148916031 1114:1 1280:1 1962:1 #
0.069808256280879277255735360085964 94:1 1280:1 1291:1 1294:1 1528:1 1927:1 #
0.016862141966908848755846150879734 42:1 129:1 154:1 285:1 353:1 652:1 1280:1 1501:1 1557:1 #
0.15261492364850517966523568702542 1068:1 1149:1 1557:1 #
0.092530625181190831463062806960806 92:1 634:1 1064:1 #
0.014168696587434224248847058902356 22:1 34:1 93:1 136:1 154:1 301:1 503:1 572:1 592:1 641:1 656:1 920:1 1064:1 1073:1 1117:1 1135:1 1299:1 1337:1 1528:1 1557:1 1576:1 #
0.037779389912220087688332625930343 619:1 773:1 1280:1 1557:1 #
0.17879662623830824830228891642037 1064:1 1144:1 #
0.17879662623830824830228891642037 1064:1 1942:1 #
0.096066143214235247271837181415322 574:1 1231:1 1280:1 1358:1 #
0.025710905434799306845672361987454 994:1 1280:1 1358:1 1557:1 1787:1 1856:1 #
0.1436269427195084602555397168544 154:1 401:1 739:1 1064:1 1280:1 1358:1 #
0.17879662623830824830228891642037 1086:1 1280:1 1358:1 #
0.056914184090981839725387203543505 203:1 1068:1 1114:1 1149:1 1469:1 1577:1 #
0.17879662623830824830228891642037 80:1 619:1 1280:1 #
0.016815670512373034201081267724476 94:1 823:1 1280:1 1737:1 #
0.17879662623830824830228891642037 472:1 1280:1 1528:1 #
0.17879662623830824830228891642037 381:1 773:1 1149:1 1557:1 #
0.17879662623830824830228891642037 634:1 1149:1 1157:1 #
0.021141123877542168651988419014742 10:1 857:1 1280:1 1477:1 1622:1 1760:1 #
0.040617781343663818260925069125733 1061:1 1280:1 1338:1 #
0.17879662623830824830228891642037 506:1 692:1 1280:1 #
0.0043107143478182978132973168783337 104:1 295:1 381:1 547:1 705:1 814:1 1280:1 1315:1 1587:1 #
-0.17879662623830824830228891642037 428:1 1064:1 1962:1 #
0.066024434495284667345771367763518 28:1 160:1 321:1 403:1 1250:1 1280:1 1358:1 1557:1 #
-0.036126080538455868085279121260101 261:1 276:1 388:1 693:1 1280:1 1674:1 #
-0.020157051879019585033381289917997 91:1 92:1 884:1 897:1 952:1 1280:1 #
-0.042066197632823827678993922063455 860:1 1280:1 1669:1 1701:1 1887:1 #
0.016935414029721779921588975525992 99:1 168:1 227:1 332:1 546:1 649:1 910:1 1064:1 1692:1 #
-0.054770331865211518973524107423145 12:1 105:1 1280:1 1701:1 1957:1 #
-0.051570863016207543760849318914552 525:1 1114:1 1130:1 1280:1 1701:1 1751:1 #
-0.099360406521025346204822881190921 8:1 403:1 952:1 1280:1 1358:1 #
0.053118628766713901767637651119003 1064:1 1373:1 1667:1 1934:1 #
0.0004489525828568638140571300798598 94:1 1064:1 1161:1 1279:1 1510:1 1787:1 #
-0.17879662623830824830228891642037 363:1 875:1 1280:1 #
-0.0011379265393998282303311686547431 112:1 154:1 172:1 759:1 798:1 1021:1 1064:1 1088:1 1100:1 1149:1 1158:1 1216:1 1626:1 1658:1 1801:1 1818:1 1861:1 1900:1 #
-0.0065607613373328699940545405411285 241:1 381:1 418:1 665:1 883:1 1155:1 1199:1 1280:1 1611:1 1679:1 1846:1 #
-0.13621981845743991179631393606542 380:1 1064:1 1186:1 1299:1 #
-0.10451136017830729707522863236591 278:1 295:1 1064:1 1299:1 #
0.009336675359137656254882031703346 12:1 15:1 28:1 31:1 50:1 51:1 56:1 75:1 79:1 89:1 117:1 118:1 154:1 203:1 234:1 254:1 264:1 291:1 299:1 327:1 338:1 347:1 349:1 380:1 451:1 506:1 518:1 529:1 536:1 575:1 582:1 623:1 648:1 684:1 719:1 773:1 814:1 821:1 834:1 850:1 851:1 878:1 943:1 952:1 998:1 1047:1 1078:1 1095:1 1114:1 1129:1 1156:1 1203:1 1218:1 1235:1 1269:1 1280:1 1285:1 1288:1 1299:1 1331:1 1347:1 1349:1 1353:1 1358:1 1383:1 1406:1 1428:1 1465:1 1506:1 1510:1 1514:1 1521:1 1528:1 1557:1 1577:1 1633:1 1703:1 1719:1 1759:1 1774:1 1846:1 1856:1 1861:1 1907:1 1921:1 1953:1 1954:1 1963:1 #
0.016256560513050827276870791138208 39:1 56:1 203:1 227:1 261:1 339:1 381:1 554:1 685:1 753:1 790:1 906:1 929:1 947:1 1064:1 1296:1 1354:1 1358:1 1377:1 1514:1 1517:1 1701:1 1728:1 1743:1 #
-0.027354051939135981541539877071045 666:1 719:1 1280:1 1299:1 #
-0.042784141150566147582257059411859 719:1 1280:1 1284:1 1518:1 #
0.039435772651623492157657580037267 696:1 1149:1 1157:1 #
0.039353960927157594085201708367094 1149:1 1157:1 1237:1 #
-0.065490963973236712702963302490389 295:1 814:1 1149:1 1299:1 #
0.1153107756000492506442967055591 79:1 1064:1 1157:1 #
0.17879662623830824830228891642037 1064:1 1397:1 #
0.12747459627430218764843061762804 1064:1 1378:1 1528:1 #
0.040926437651951509677505924855723 30:1 416:1 1064:1 1211:1 1719:1 #
0.011770484374308347666482355009521 629:1 839:1 861:1 1064:1 1157:1 #
-0.016707675000148417693290880947643 236:1 372:1 1280:1 1299:1 1787:1 #
-0.17879662623830824830228891642037 12:1 704:1 1280:1 #
-0.04984695854897871342137349870427 428:1 786:1 1146:1 1149:1 1186:1 1400:1 #
-0.017851023314660128399333771653801 363:1 1280:1 1625:1 #
0.0041325172744642807778903126347814 91:1 266:1 291:1 346:1 449:1 467:1 592:1 620:1 672:1 692:1 773:1 986:1 994:1 1065:1 1076:1 1200:1 1218:1 1280:1 1282:1 1472:1 1514:1 1542:1 1577:1 1608:1 1701:1 #
0.046902492080485982950399659330287 735:1 956:1 1280:1 1577:1 #
0.033942343290586519943818899491816 1064:1 1144:1 1358:1 #
0.074885804059500085672063107722352 1280:1 1720:1 1960:1 #
0.0165531304969451301123406494753 203:1 640:1 718:1 1280:1 1528:1 1557:1 1856:1 #
0.011048013914994237252842346208581 222:1 692:1 1273:1 1280:1 1906:1 #
0.020797033657111909515924352831462 154:1 381:1 1280:1 1469:1 1950:1 #
-0.0070447914915511087446953197854782 300:1 381:1 399:1 400:1 599:1 1064:1 1299:1 #
0.0062967657971310575168444323423955 1064:1 1692:1 1900:1 #
0.00058399441636410444160520949452575 388:1 709:1 1064:1 1557:1 #
-0.013045414227242395008299347125558 183:1 335:1 415:1 1064:1 1172:1 #
0.034772831778843472927409408157473 1280:1 1429:1 1538:1 #
0.09580447966990142394383411783565 346:1 1280:1 1528:1 #
0.0144427571904995472040766912869 209:1 697:1 1189:1 1280:1 1344:1 1528:1 #
0.046597054527712088167756832035593 346:1 1280:1 1358:1 #
0.15379360369571595801296837180416 1200:1 1280:1 #
-0.17879662623830824830228891642037 428:1 692:1 1280:1 1429:1 #
0.15458642486908297231096298673947 634:1 1149:1 1186:1 #
0.0077228732175506778837026367057206 403:1 567:1 1280:1 1528:1 #
0.0063145307544493038676147733667676 30:1 92:1 416:1 735:1 799:1 1358:1 1785:1 #
0.024525633287043876323840763120643 773:1 1280:1 1338:1 1608:1 #
0.003664712376265077346110254907785 12:1 506:1 709:1 1068:1 1280:1 1355:1 1931:1 #
0.021074006578567540393098767026459 590:1 1280:1 1429:1 #
0.04358668566556989781846098708229 381:1 1157:1 1280:1 1358:1 #
0.0015939594107172842286923586385683 92:1 783:1 1280:1 #
0.006849902220202608478516470569275 636:1 1280:1 1429:1 #
0.035059438906108415789919519056639 80:1 692:1 1280:1 #
0.0012551104837539197710966076826367 403:1 572:1 1114:1 1280:1 1358:1 1594:1 1962:1 #
0.00036557566937893588854269211196879 205:1 346:1 1280:1 1528:1 #
-0.00081707028770965192850106451061265 12:1 403:1 428:1 1280:1 1557:1 #
