SVM-light Version V6.01
0 # kernel type
3 # kernel parameter -d 
1 # kernel parameter -g 
1 # kernel parameter -s 
1 # kernel parameter -r 
empty# kernel parameter -u 
1825 # highest feature index 
1228 # number of training documents 
512 # number of support vectors plus 1 
-0.18059786 # threshold b, each following line is a SV (starting with alpha*y)
-0.14475616441385455446244634458708 169:1 380:1 532:1 549:1 562:1 808:1 902:1 979:1 1028:1 1655:1 #
-0.14475616441385455446244634458708 623:1 1081:1 1309:1 1411:1 1554:1 #
0.12580101508201632642958145424927 50:1 302:1 532:1 #
0.062102337076060387666132101003313 100:1 129:1 131:1 139:1 180:1 186:1 241:1 305:1 313:1 385:1 445:1 532:1 623:1 1172:1 1198:1 1334:1 1513:1 1629:1 1725:1 #
0.14475616441385455446244634458708 302:1 335:1 623:1 1259:1 #
0.12591224549308815960912966147589 42:1 335:1 340:1 418:1 549:1 623:1 802:1 1082:1 1251:1 1573:1 1605:1 #
0.086326230605504344906009350779641 562:1 1446:1 1753:1 1823:1 #
0.014784156087894680803307423389015 623:1 1096:1 1247:1 1605:1 1608:1 1814:1 #
0.14475616441385455446244634458708 532:1 1677:1 #
-0.069272000027277472189446427819348 260:1 557:1 623:1 1209:1 1254:1 1437:1 1714:1 #
-0.032541217995213735092452367325677 134:1 135:1 307:1 382:1 395:1 532:1 549:1 560:1 820:1 996:1 1175:1 1287:1 1311:1 1373:1 #
-0.14475616441385455446244634458708 313:1 335:1 532:1 853:1 #
-0.14475616441385455446244634458708 77:1 86:1 137:1 335:1 524:1 532:1 1066:1 1070:1 1406:1 #
-0.14475616441385455446244634458708 127:1 532:1 625:1 802:1 #
-0.04422151425691695642017364775711 5:1 532:1 543:1 549:1 736:1 779:1 853:1 866:1 941:1 942:1 999:1 1066:1 1128:1 1202:1 1480:1 1667:1 1737:1 1825:1 #
0.14475616441385455446244634458708 14:1 64:1 96:1 131:1 373:1 426:1 539:1 616:1 623:1 868:1 895:1 914:1 1028:1 1052:1 1259:1 1524:1 1759:1 1769:1 #
-0.14475616441385455446244634458708 405:1 623:1 1097:1 1562:1 #
0.14475616441385455446244634458708 131:1 211:1 623:1 696:1 824:1 868:1 1028:1 1199:1 1222:1 1257:1 1259:1 1279:1 #
0.095190823346725406128854274356854 40:1 613:1 623:1 1753:1 #
0.14475616441385455446244634458708 302:1 623:1 696:1 1484:1 1814:1 #
-0.064825811078299613865461026307457 14:1 254:1 462:1 512:1 519:1 623:1 987:1 1121:1 1675:1 #
0.00086094921326918157078456061981342 152:1 532:1 1259:1 1795:1 #
-0.14475616441385455446244634458708 313:1 793:1 #
-0.14418121315424747841404951032018 14:1 302:1 623:1 868:1 1199:1 1259:1 #
-0.14475616441385455446244634458708 302:1 623:1 696:1 868:1 1259:1 1805:1 #
0.14475616441385455446244634458708 532:1 853:1 1198:1 1411:1 #
0.14475616441385455446244634458708 14:1 532:1 853:1 1202:1 #
0.031378065052772637077982409437027 131:1 532:1 629:1 658:1 719:1 793:1 853:1 1028:1 1034:1 1273:1 1411:1 1672:1 #
0.089098403533619585648040128944558 221:1 239:1 380:1 515:1 532:1 718:1 853:1 870:1 904:1 930:1 999:1 1021:1 1081:1 1441:1 1518:1 1711:1 #
0.012899123120533708200530220722158 28:1 108:1 128:1 129:1 335:1 380:1 532:1 562:1 581:1 697:1 703:1 853:1 874:1 914:1 985:1 996:1 1354:1 1467:1 1496:1 #
-0.14475616441385455446244634458708 131:1 301:1 532:1 853:1 854:1 907:1 914:1 1021:1 1585:1 #
-0.14475616441385455446244634458708 407:1 536:1 793:1 853:1 997:1 1309:1 #
-0.12965262610774827556348043344769 5:1 75:1 263:1 380:1 453:1 532:1 682:1 766:1 800:1 814:1 853:1 967:1 1369:1 1474:1 1540:1 1604:1 1705:1 #
-0.14475616441385455446244634458708 532:1 853:1 878:1 1005:1 #
-0.055932651085536022605992911849171 355:1 532:1 853:1 1005:1 1562:1 #
0.14475616441385455446244634458708 532:1 942:1 1066:1 1795:1 #
0.14475616441385455446244634458708 302:1 623:1 1259:1 1805:1 #
0.14475616441385455446244634458708 623:1 868:1 1259:1 1384:1 #
0.14475616441385455446244634458708 597:1 623:1 868:1 1259:1 #
0.14475616441385455446244634458708 623:1 857:1 868:1 1259:1 #
-0.14475616441385455446244634458708 597:1 623:1 1259:1 1418:1 #
-0.14475616441385455446244634458708 597:1 623:1 776:1 1259:1 #
0.040230132419966729839799768342345 131:1 266:1 346:1 499:1 532:1 853:1 1069:1 1259:1 1554:1 1611:1 1795:1 #
-0.14475616441385455446244634458708 214:1 623:1 902:1 1028:1 1259:1 1605:1 1722:1 #
-0.081059506446409274049713644672011 38:1 623:1 829:1 1202:1 1259:1 1262:1 #
-0.14475616441385455446244634458708 532:1 1202:1 1795:1 #
0.12835860395674578149360911538679 532:1 554:1 1608:1 1672:1 #
0.14475616441385455446244634458708 532:1 693:1 #
0.027284770199075797370014129228366 83:1 335:1 623:1 1608:1 #
0.14475616441385455446244634458708 131:1 532:1 649:1 853:1 914:1 1576:1 1629:1 #
-0.14475616441385455446244634458708 25:1 64:1 131:1 311:1 335:1 380:1 426:1 623:1 914:1 941:1 1384:1 1411:1 1446:1 1550:1 #
-0.14475616441385455446244634458708 131:1 532:1 649:1 794:1 853:1 868:1 1043:1 1259:1 1677:1 #
-0.051271341221184152381340481952066 5:1 25:1 131:1 154:1 169:1 183:1 241:1 319:1 532:1 594:1 732:1 742:1 853:1 1202:1 1406:1 1523:1 #
-0.0015535856415880837811532844128237 5:1 131:1 169:1 335:1 355:1 499:1 532:1 787:1 853:1 863:1 1202:1 1567:1 1744:1 1819:1 #
-0.14475616441385455446244634458708 131:1 335:1 532:1 727:1 1021:1 1206:1 1608:1 #
0.14475616441385455446244634458708 97:1 286:1 299:1 623:1 659:1 866:1 881:1 1202:1 1259:1 1341:1 1513:1 #
0.0097218718794270068961349551273088 14:1 623:1 1259:1 1795:1 #
0.01970750379298411708584026769131 302:1 623:1 1259:1 1418:1 #
0.14475616441385455446244634458708 549:1 623:1 1202:1 1259:1 #
-0.14475616441385455446244634458708 302:1 623:1 719:1 868:1 1259:1 1264:1 1805:1 #
-0.14475616441385455446244634458708 623:1 786:1 1259:1 1724:1 #
-0.05711553054807397972192362090027 233:1 544:1 623:1 649:1 1384:1 1420:1 #
-0.14475616441385455446244634458708 549:1 623:1 1121:1 1420:1 #
-0.026442202292922080408832385955975 88:1 322:1 623:1 715:1 1121:1 1629:1 #
0.056035841763538651871812135141226 131:1 169:1 532:1 787:1 793:1 853:1 882:1 941:1 1167:1 1316:1 #
0.062480321211871241160462631114569 26:1 131:1 241:1 335:1 350:1 532:1 673:1 1364:1 1550:1 1667:1 #
0.078345122196665423208727929704764 131:1 335:1 399:1 532:1 543:1 948:1 1343:1 1550:1 1706:1 #
0.14475616441385455446244634458708 183:1 532:1 696:1 853:1 868:1 1495:1 #
0.062996810064616146074278901778598 100:1 116:1 131:1 258:1 273:1 335:1 359:1 399:1 410:1 426:1 532:1 801:1 914:1 1184:1 1202:1 1334:1 1467:1 1646:1 #
-0.14475616441385455446244634458708 405:1 532:1 543:1 862:1 1028:1 1113:1 1585:1 1759:1 #
-0.14475616441385455446244634458708 131:1 298:1 532:1 1066:1 1071:1 1090:1 1360:1 1406:1 1676:1 1791:1 #
0.14475616441385455446244634458708 354:1 532:1 623:1 1741:1 #
0.14475616441385455446244634458708 623:1 868:1 1411:1 1724:1 #
0.14475616441385455446244634458708 25:1 83:1 623:1 943:1 1172:1 1202:1 1420:1 1554:1 1585:1 1803:1 #
0.14475616441385455446244634458708 25:1 230:1 380:1 623:1 829:1 1081:1 1309:1 #
-0.027702392585224291932100015856122 137:1 623:1 815:1 1081:1 1253:1 1288:1 1562:1 #
0.14475616441385455446244634458708 86:1 380:1 455:1 623:1 1070:1 1309:1 1501:1 1702:1 #
-0.14061513066415931572095132651157 277:1 335:1 405:1 519:1 623:1 1108:1 1600:1 1714:1 #
-0.14475616441385455446244634458708 25:1 511:1 623:1 1070:1 1374:1 1501:1 #
-0.084896165891991295926466420951328 83:1 571:1 623:1 868:1 1259:1 #
-0.1417155904223341145176107147563 302:1 341:1 623:1 1052:1 1202:1 1418:1 1803:1 #
0.018767647895058026108472404303029 623:1 1259:1 1305:1 1393:1 1446:1 1550:1 1791:1 #
0.024030716480085954206424858625724 51:1 128:1 129:1 286:1 465:1 532:1 536:1 562:1 693:1 979:1 1002:1 1132:1 1225:1 1259:1 1341:1 1406:1 #
0.045500812456227869573499589250787 504:1 545:1 623:1 949:1 1297:1 1443:1 1506:1 1575:1 #
0.13838308136918703317164158761443 335:1 623:1 1446:1 1773:1 #
0.084641557748451237697118187952583 532:1 853:1 942:1 1066:1 1096:1 1247:1 #
0.14475616441385455446244634458708 532:1 1066:1 1406:1 1795:1 #
-0.14475616441385455446244634458708 61:1 532:1 912:1 1066:1 1420:1 #
-0.14475616441385455446244634458708 14:1 532:1 563:1 623:1 942:1 1066:1 1259:1 #
-0.026512900109911606560952890276894 532:1 648:1 762:1 770:1 853:1 997:1 1066:1 1272:1 #
-0.14475616441385455446244634458708 532:1 554:1 #
-0.14475616441385455446244634458708 395:1 532:1 1795:1 #
0.13085829204117677138086150989693 25:1 128:1 131:1 302:1 623:1 1186:1 1295:1 1305:1 1438:1 1682:1 1722:1 #
0.14475616441385455446244634458708 5:1 623:1 808:1 1305:1 1418:1 1717:1 #
0.046026942682173770104991916696235 5:1 25:1 131:1 253:1 476:1 534:1 549:1 623:1 649:1 914:1 1199:1 1308:1 1385:1 1418:1 1575:1 1671:1 #
0.082850305663374812503718658263097 23:1 25:1 65:1 131:1 270:1 272:1 331:1 380:1 615:1 623:1 646:1 669:1 787:1 894:1 940:1 949:1 994:1 1020:1 1163:1 1202:1 1406:1 1421:1 1572:1 1748:1 1805:1 #
0.14475616441385455446244634458708 131:1 302:1 519:1 623:1 770:1 1202:1 1216:1 1259:1 #
-0.011274145124902735029537304001224 32:1 131:1 258:1 323:1 334:1 354:1 376:1 530:1 623:1 873:1 914:1 979:1 1025:1 1109:1 1202:1 1216:1 1257:1 1305:1 1309:1 1334:1 1416:1 1501:1 1531:1 1562:1 1797:1 #
-0.14475616441385455446244634458708 5:1 83:1 131:1 532:1 623:1 853:1 1202:1 1259:1 1305:1 #
-0.14475616441385455446244634458708 131:1 241:1 380:1 818:1 940:1 1186:1 1259:1 1620:1 1629:1 1823:1 #
-0.14475616441385455446244634458708 25:1 128:1 302:1 549:1 623:1 1202:1 #
0.092734196129610368952711496604024 14:1 32:1 295:1 346:1 405:1 532:1 864:1 942:1 994:1 1112:1 1317:1 #
0.14475616441385455446244634458708 14:1 532:1 931:1 #
0.14475616441385455446244634458708 81:1 214:1 554:1 562:1 623:1 902:1 912:1 1067:1 1148:1 1562:1 #
0.14475616441385455446244634458708 532:1 912:1 1297:1 #
0.14475616441385455446244634458708 532:1 562:1 1677:1 #
-0.14475616441385455446244634458708 532:1 562:1 1138:1 #
-0.14475616441385455446244634458708 390:1 532:1 562:1 1096:1 #
-0.14475616441385455446244634458708 5:1 50:1 82:1 92:1 302:1 562:1 623:1 1079:1 1388:1 1411:1 1446:1 1646:1 1769:1 #
-0.14475616441385455446244634458708 14:1 532:1 #
-0.14475616441385455446244634458708 295:1 532:1 1714:1 #
-0.14475616441385455446244634458708 395:1 532:1 623:1 1795:1 #
0.14475616441385455446244634458708 623:1 868:1 1025:1 1259:1 1792:1 #
0.14475616441385455446244634458708 116:1 258:1 522:1 549:1 623:1 1202:1 1737:1 1762:1 1809:1 #
-0.10113198975178464000812539325125 302:1 380:1 623:1 1202:1 1205:1 1601:1 #
0.14475616441385455446244634458708 302:1 532:1 1259:1 #
-0.10035890689716198131975488649914 532:1 623:1 693:1 868:1 1259:1 #
-0.11082296017020359935045803467801 8:1 51:1 131:1 623:1 659:1 862:1 868:1 1259:1 1309:1 1376:1 1381:1 1446:1 1783:1 #
-0.14475616441385455446244634458708 14:1 131:1 549:1 623:1 868:1 1041:1 1114:1 1259:1 1446:1 #
-0.14475616441385455446244634458708 302:1 623:1 868:1 1025:1 1259:1 #
0.14475616441385455446244634458708 101:1 484:1 793:1 820:1 1028:1 1052:1 1128:1 1202:1 #
0.14475616441385455446244634458708 186:1 324:1 354:1 532:1 748:1 1554:1 #
0.14475616441385455446244634458708 14:1 57:1 99:1 131:1 186:1 392:1 532:1 757:1 1202:1 1203:1 1225:1 1279:1 1366:1 1445:1 1529:1 1722:1 1754:1 #
0.022626817736812649545230513581373 283:1 302:1 623:1 1259:1 1722:1 #
0.10102199146528542672562878124154 97:1 302:1 532:1 867:1 891:1 1411:1 1795:1 #
-0.14475616441385455446244634458708 260:1 335:1 346:1 405:1 793:1 943:1 1406:1 1420:1 1436:1 1554:1 #
-0.019785647312257011870562095623427 5:1 25:1 26:1 335:1 422:1 532:1 616:1 649:1 853:1 966:1 1079:1 1128:1 1202:1 1420:1 1744:1 1765:1 1805:1 #
-0.14475616441385455446244634458708 532:1 872:1 1096:1 1420:1 1722:1 #
-0.14475616441385455446244634458708 23:1 131:1 260:1 266:1 380:1 532:1 623:1 943:1 1046:1 1554:1 1714:1 #
0.14475616441385455446244634458708 221:1 591:1 623:1 868:1 1186:1 1259:1 1406:1 1526:1 #
0.14475616441385455446244634458708 519:1 623:1 770:1 1259:1 1446:1 #
0.09463235832072824926797238731524 302:1 623:1 1259:1 1640:1 1722:1 #
-0.14475616441385455446244634458708 169:1 194:1 471:1 621:1 623:1 922:1 1186:1 1411:1 1446:1 1769:1 1808:1 #
-0.14475616441385455446244634458708 14:1 623:1 628:1 786:1 806:1 853:1 1182:1 1199:1 1247:1 1406:1 #
-0.14475616441385455446244634458708 128:1 129:1 407:1 610:1 623:1 734:1 1357:1 #
-0.14475616441385455446244634458708 313:1 532:1 562:1 #
-0.14475616441385455446244634458708 26:1 402:1 623:1 868:1 1186:1 1259:1 1446:1 #
-0.14430371915820577877198616079113 258:1 1202:1 1823:1 #
0.14475616441385455446244634458708 302:1 868:1 940:1 1608:1 1675:1 #
0.14475616441385455446244634458708 461:1 532:1 1420:1 #
0.14475616441385455446244634458708 131:1 260:1 302:1 532:1 623:1 1714:1 #
-0.14475616441385455446244634458708 131:1 532:1 808:1 821:1 894:1 #
-0.14475616441385455446244634458708 131:1 221:1 260:1 269:1 532:1 623:1 696:1 1355:1 1714:1 #
-0.14475616441385455446244634458708 131:1 211:1 260:1 373:1 532:1 623:1 696:1 862:1 1079:1 1438:1 1460:1 #
-0.11210336610208232466234790081216 31:1 53:1 131:1 186:1 244:1 380:1 490:1 532:1 940:1 1562:1 1724:1 #
-0.017894842140736253593980009668485 131:1 302:1 623:1 1202:1 1331:1 1419:1 1608:1 1714:1 #
0.14475616441385455446244634458708 131:1 170:1 532:1 623:1 693:1 1096:1 #
0.14475616441385455446244634458708 128:1 129:1 451:1 519:1 623:1 628:1 770:1 1406:1 #
0.077242031590658663531279159997212 61:1 623:1 1066:1 1138:1 1259:1 1446:1 #
0.12836865798683885775410828955501 40:1 169:1 562:1 623:1 1816:1 #
0.14475616441385455446244634458708 519:1 623:1 770:1 1457:1 1562:1 #
-0.14475616441385455446244634458708 519:1 623:1 770:1 1227:1 1420:1 #
-0.14475616441385455446244634458708 519:1 623:1 628:1 770:1 989:1 1227:1 #
-0.14475616441385455446244634458708 32:1 335:1 519:1 623:1 770:1 1227:1 1420:1 #
-0.14475616441385455446244634458708 519:1 623:1 770:1 1150:1 1562:1 #
0.14475616441385455446244634458708 131:1 532:1 940:1 1714:1 1795:1 #
0.14475616441385455446244634458708 26:1 131:1 211:1 380:1 623:1 696:1 786:1 1253:1 1457:1 #
0.14475616441385455446244634458708 131:1 260:1 623:1 631:1 641:1 775:1 957:1 1013:1 1467:1 1533:1 1585:1 1714:1 1722:1 #
0.075082654942842386169843393872725 118:1 131:1 241:1 334:1 532:1 623:1 906:1 1257:1 1686:1 #
-0.14475616441385455446244634458708 532:1 1457:1 1722:1 #
-0.14475616441385455446244634458708 131:1 169:1 183:1 186:1 359:1 505:1 520:1 623:1 914:1 1199:1 1577:1 1636:1 1805:1 #
-0.071936015627196300825652031107893 14:1 100:1 116:1 131:1 180:1 258:1 532:1 885:1 993:1 1005:1 1066:1 1077:1 1130:1 1136:1 1279:1 1411:1 1442:1 1640:1 1714:1 1722:1 #
-0.043316271198628630845206544108805 131:1 425:1 532:1 689:1 762:1 786:1 853:1 1178:1 1259:1 1292:1 1442:1 1563:1 1680:1 1714:1 1762:1 #
0.14475616441385455446244634458708 88:1 117:1 131:1 383:1 519:1 623:1 719:1 770:1 1309:1 1551:1 #
0.11001611029730362645295826951042 30:1 31:1 221:1 246:1 302:1 327:1 519:1 610:1 623:1 770:1 853:1 1259:1 #
0.14475616441385455446244634458708 623:1 1202:1 1334:1 1420:1 1598:1 1805:1 #
0.14475616441385455446244634458708 455:1 519:1 623:1 770:1 1259:1 #
-0.14475616441385455446244634458708 623:1 827:1 1254:1 1257:1 1585:1 1706:1 #
-0.14475616441385455446244634458708 623:1 868:1 1259:1 1795:1 #
-0.14475616441385455446244634458708 385:1 623:1 957:1 1184:1 1250:1 1305:1 #
0.034273161328393454694296593743275 41:1 74:1 169:1 388:1 532:1 711:1 853:1 893:1 966:1 967:1 1369:1 1394:1 1479:1 1538:1 #
0.14257628268155120299098825853434 5:1 169:1 348:1 532:1 853:1 1194:1 #
0.13151273128532664502543525486544 52:1 346:1 354:1 507:1 532:1 1805:1 #
0.043288389921773008650607295066948 131:1 370:1 421:1 528:1 532:1 607:1 768:1 786:1 788:1 914:1 1216:1 1276:1 1302:1 1774:1 #
-0.14475616441385455446244634458708 532:1 853:1 1202:1 1253:1 1446:1 #
-0.14475616441385455446244634458708 532:1 802:1 853:1 902:1 #
-0.12783065956411304719964050491399 383:1 483:1 532:1 1202:1 1259:1 1715:1 1795:1 #
-0.14475616441385455446244634458708 532:1 851:1 #
0.14475616441385455446244634458708 623:1 746:1 868:1 #
0.016974032308982041350464697870848 2:1 51:1 131:1 317:1 431:1 450:1 571:1 623:1 819:1 1042:1 1117:1 1178:1 1293:1 1309:1 1596:1 1613:1 1621:1 #
0.032271218453751894517100851089708 418:1 543:1 623:1 849:1 1061:1 1272:1 1309:1 1316:1 1467:1 1529:1 1585:1 #
0.14475616441385455446244634458708 131:1 623:1 1096:1 1247:1 1420:1 1714:1 #
0.035216785941285168315406650663135 623:1 690:1 1199:1 1247:1 1656:1 1706:1 #
-0.14475616441385455446244634458708 131:1 302:1 623:1 625:1 1096:1 1196:1 1270:1 1420:1 1585:1 #
-0.08176862610541157927457334153587 37:1 131:1 270:1 272:1 403:1 559:1 623:1 641:1 874:1 1006:1 1064:1 1105:1 1121:1 1420:1 1727:1 #
-0.14475616441385455446244634458708 14:1 597:1 623:1 1225:1 1290:1 1309:1 1420:1 #
-0.11854262803191731312502099626727 131:1 180:1 187:1 267:1 565:1 592:1 623:1 761:1 874:1 1585:1 1738:1 #
-0.051374189770108026620309971121969 131:1 380:1 503:1 561:1 623:1 681:1 799:1 1047:1 1063:1 1128:1 1384:1 1459:1 1616:1 #
0.016239942421057359384084506359613 83:1 325:1 623:1 1259:1 #
0.14475616441385455446244634458708 532:1 794:1 853:1 1677:1 #
0.14475616441385455446244634458708 623:1 830:1 1621:1 #
-0.14475616441385455446244634458708 169:1 322:1 532:1 562:1 997:1 #
0.14475616441385455446244634458708 532:1 562:1 853:1 1524:1 #
-0.14475616441385455446244634458708 532:1 #
-0.14475616441385455446244634458708 532:1 562:1 868:1 1259:1 1795:1 #
-0.14475616441385455446244634458708 532:1 979:1 #
0.014996996342904536647644420099823 82:1 230:1 255:1 302:1 410:1 422:1 530:1 550:1 600:1 623:1 696:1 902:1 907:1 976:1 985:1 1111:1 1128:1 1186:1 1189:1 1368:1 1409:1 1433:1 1467:1 1484:1 1585:1 #
0.060279578952757810472729005368819 14:1 121:1 211:1 291:1 408:1 493:1 530:1 570:1 623:1 696:1 729:1 902:1 1096:1 1099:1 1128:1 1184:1 1189:1 1199:1 1364:1 1426:1 1467:1 1585:1 1597:1 1605:1 1683:1 #
0.14475616441385455446244634458708 51:1 131:1 302:1 519:1 536:1 623:1 770:1 957:1 1021:1 1164:1 1250:1 #
0.1053803859683525578905260999818 183:1 302:1 359:1 511:1 623:1 1406:1 1420:1 1722:1 #
0.14475616441385455446244634458708 131:1 180:1 335:1 499:1 532:1 597:1 623:1 1133:1 1259:1 #
-0.14475616441385455446244634458708 88:1 131:1 237:1 335:1 354:1 532:1 597:1 623:1 696:1 903:1 1186:1 1293:1 1550:1 1551:1 1737:1 1773:1 #
-0.14475616441385455446244634458708 335:1 623:1 696:1 1250:1 1384:1 1406:1 1584:1 1609:1 #
-0.14475616441385455446244634458708 128:1 129:1 183:1 335:1 470:1 623:1 1406:1 1585:1 1649:1 1748:1 #
-0.14475616441385455446244634458708 519:1 623:1 770:1 1608:1 1724:1 #
0.01478809953081960948395590094151 149:1 190:1 532:1 538:1 554:1 979:1 1091:1 1297:1 1320:1 1545:1 1597:1 1631:1 1655:1 #
0.026205535336159616055518029043014 31:1 32:1 51:1 131:1 247:1 311:1 519:1 550:1 554:1 586:1 623:1 696:1 1060:1 1076:1 1156:1 1199:1 1247:1 1465:1 1483:1 1664:1 1715:1 #
0.14475616441385455446244634458708 532:1 979:1 1057:1 1795:1 #
0.14475616441385455446244634458708 532:1 543:1 562:1 623:1 979:1 1093:1 1655:1 #
0.10165540316030953482684395794422 532:1 942:1 1066:1 1524:1 #
-0.14475616441385455446244634458708 532:1 868:1 979:1 1259:1 1795:1 #
-0.14475616441385455446244634458708 395:1 461:1 532:1 #
0.14475616441385455446244634458708 335:1 457:1 623:1 1420:1 1741:1 1814:1 #
0.14475616441385455446244634458708 50:1 597:1 623:1 1156:1 1190:1 1202:1 1598:1 #
0.14475616441385455446244634458708 8:1 335:1 623:1 1259:1 #
0.14475616441385455446244634458708 335:1 552:1 623:1 1621:1 #
0.14475616441385455446244634458708 169:1 335:1 623:1 1028:1 1186:1 1806:1 #
-0.14475616441385455446244634458708 335:1 641:1 793:1 997:1 #
-0.14475616441385455446244634458708 32:1 302:1 380:1 623:1 1202:1 1805:1 #
0.14475616441385455446244634458708 115:1 380:1 623:1 749:1 1576:1 #
-0.074839884801954179027738689455873 302:1 446:1 623:1 1202:1 1259:1 1655:1 1814:1 #
0.091349490333899288629915247383906 14:1 532:1 874:1 1446:1 #
0.14475616441385455446244634458708 521:1 532:1 #
0.14475616441385455446244634458708 532:1 1101:1 1259:1 #
0.14475616441385455446244634458708 232:1 532:1 1124:1 1234:1 1259:1 #
-0.14475616441385455446244634458708 532:1 1439:1 #
-0.14475616441385455446244634458708 101:1 532:1 1286:1 1442:1 #
-0.10843737147837766154889749259382 241:1 532:1 562:1 564:1 997:1 1259:1 1571:1 #
-0.14475616441385455446244634458708 313:1 532:1 554:1 #
0.083494839736175510691573720123415 302:1 610:1 623:1 1028:1 1290:1 1608:1 #
0.14475616441385455446244634458708 302:1 623:1 1096:1 1247:1 1585:1 1608:1 #
0.14475616441385455446244634458708 554:1 562:1 623:1 902:1 1202:1 1406:1 1446:1 1598:1 1605:1 #
0.091230468654702398523248518813489 190:1 562:1 623:1 966:1 991:1 1235:1 1378:1 1397:1 1805:1 #
-0.14475616441385455446244634458708 51:1 623:1 902:1 1096:1 1605:1 #
-0.14475616441385455446244634458708 169:1 214:1 623:1 902:1 1605:1 1803:1 #
-0.14475616441385455446244634458708 623:1 902:1 1096:1 1605:1 #
0.14475616441385455446244634458708 532:1 1259:1 1672:1 1805:1 #
0.14475616441385455446244634458708 461:1 532:1 #
0.14475616441385455446244634458708 241:1 532:1 1320:1 #
0.14475616441385455446244634458708 532:1 553:1 #
0.10645336482635578412292431949027 380:1 424:1 452:1 532:1 853:1 912:1 1148:1 1805:1 #
-0.14475616441385455446244634458708 793:1 828:1 1259:1 #
-0.14475616441385455446244634458708 296:1 532:1 1259:1 1563:1 1714:1 #
-0.14475616441385455446244634458708 549:1 793:1 1468:1 #
-0.029465920420029909770898157717056 277:1 532:1 635:1 868:1 1446:1 #
0.14475616441385455446244634458708 131:1 266:1 623:1 774:1 1259:1 1393:1 1541:1 1605:1 #
0.14475616441385455446244634458708 160:1 169:1 623:1 1250:1 1406:1 1523:1 #
-0.14475616441385455446244634458708 868:1 1259:1 1446:1 1823:1 #
-0.14475616441385455446244634458708 335:1 373:1 623:1 1045:1 1186:1 1334:1 1723:1 #
-0.14475616441385455446244634458708 131:1 266:1 563:1 610:1 623:1 1259:1 1517:1 #
-0.14475616441385455446244634458708 623:1 677:1 684:1 799:1 816:1 1006:1 1028:1 #
-0.14475616441385455446244634458708 597:1 610:1 623:1 1321:1 1702:1 #
-0.14475616441385455446244634458708 128:1 129:1 131:1 519:1 532:1 623:1 770:1 899:1 1070:1 1150:1 1420:1 1501:1 #
0.14475616441385455446244634458708 793:1 1714:1 #
0.14475616441385455446244634458708 793:1 905:1 1198:1 1411:1 #
0.14475616441385455446244634458708 793:1 1198:1 #
0.14475616441385455446244634458708 793:1 1194:1 1507:1 #
-0.14475616441385455446244634458708 793:1 1198:1 1202:1 #
-0.14475616441385455446244634458708 549:1 793:1 1411:1 1639:1 1697:1 #
-0.14475616441385455446244634458708 649:1 793:1 997:1 #
-0.14475616441385455446244634458708 155:1 793:1 851:1 #
-0.0056047878430274724464998925554937 313:1 793:1 1258:1 1623:1 #
0.14475616441385455446244634458708 76:1 549:1 623:1 1186:1 1259:1 1419:1 1529:1 #
0.030530905135755709300937610350957 5:1 373:1 623:1 923:1 1199:1 1259:1 1446:1 1723:1 1725:1 #
-0.14475616441385455446244634458708 623:1 1068:1 1081:1 1199:1 1529:1 #
0.14475616441385455446244634458708 532:1 1096:1 1795:1 #
-0.14475616441385455446244634458708 455:1 623:1 868:1 1259:1 1309:1 #
0.14475616441385455446244634458708 258:1 793:1 #
0.14475616441385455446244634458708 157:1 176:1 623:1 649:1 #
0.14475616441385455446244634458708 1198:1 1420:1 1823:1 #
-0.14475616441385455446244634458708 302:1 623:1 1061:1 1362:1 1585:1 1814:1 #
-0.14475616441385455446244634458708 81:1 128:1 153:1 623:1 652:1 907:1 912:1 1021:1 1050:1 1329:1 #
-0.14475616441385455446244634458708 302:1 349:1 486:1 623:1 1304:1 1585:1 1805:1 #
-0.14475616441385455446244634458708 562:1 597:1 623:1 1420:1 #
0.038197808704241671684531667096962 23:1 131:1 160:1 380:1 623:1 636:1 919:1 1199:1 1259:1 1388:1 1529:1 1589:1 1617:1 1783:1 1792:1 #
0.14475616441385455446244634458708 67:1 506:1 623:1 1259:1 1309:1 #
0.14475616441385455446244634458708 8:1 623:1 1259:1 1309:1 #
0.1066879891920699541252304243244 380:1 623:1 756:1 1259:1 1291:1 1418:1 1715:1 1773:1 1810:1 #
-0.14475616441385455446244634458708 623:1 997:1 1259:1 1309:1 #
-0.14475616441385455446244634458708 313:1 554:1 623:1 1309:1 #
-0.14475616441385455446244634458708 88:1 322:1 623:1 1081:1 1309:1 1812:1 #
0.14475616441385455446244634458708 131:1 532:1 623:1 873:1 1425:1 1446:1 1585:1 #
0.14475616441385455446244634458708 159:1 302:1 405:1 623:1 1420:1 #
0.033971781311268024750038563297494 302:1 372:1 623:1 1061:1 1186:1 1722:1 #
-0.14475616441385455446244634458708 131:1 390:1 623:1 1724:1 #
0.14475616441385455446244634458708 335:1 532:1 979:1 1446:1 #
0.14475616441385455446244634458708 1198:1 1309:1 1823:1 #
0.14369777021377150294512148320791 549:1 623:1 943:1 1001:1 1154:1 1233:1 1622:1 #
0.14475616441385455446244634458708 623:1 1051:1 #
-0.14475616441385455446244634458708 543:1 623:1 829:1 1202:1 1253:1 #
-0.04751581427761026460432347562346 51:1 221:1 623:1 691:1 996:1 997:1 1192:1 1783:1 #
0.02711938917466143530998756716599 14:1 25:1 131:1 359:1 532:1 549:1 554:1 623:1 664:1 931:1 1257:1 1464:1 1472:1 #
0.02916751865258836173833145721801 50:1 131:1 266:1 425:1 461:1 532:1 581:1 668:1 696:1 873:1 940:1 1167:1 1259:1 1360:1 1390:1 1484:1 1538:1 1585:1 1605:1 1706:1 1758:1 1769:1 1787:1 1805:1 #
0.14475616441385455446244634458708 562:1 623:1 1014:1 1244:1 1406:1 1714:1 #
0.067653771326366324290191300860897 103:1 114:1 169:1 200:1 295:1 600:1 623:1 888:1 #
0.14475616441385455446244634458708 377:1 623:1 673:1 762:1 1034:1 1066:1 1457:1 1554:1 1775:1 #
0.072711707288056343090332234169182 51:1 83:1 131:1 229:1 383:1 623:1 933:1 938:1 1199:1 1605:1 #
-0.14475616441385455446244634458708 335:1 597:1 623:1 1420:1 #
-0.14475616441385455446244634458708 131:1 266:1 597:1 623:1 1005:1 1259:1 1418:1 1717:1 #
0.14475616441385455446244634458708 532:1 543:1 831:1 1309:1 #
0.14475616441385455446244634458708 302:1 623:1 1420:1 1722:1 #
0.14475616441385455446244634458708 339:1 532:1 623:1 730:1 #
0.048273141168462894989854561345055 72:1 137:1 169:1 335:1 623:1 1420:1 1621:1 1757:1 #
0.13973155706711584689294625150069 82:1 93:1 131:1 263:1 266:1 331:1 372:1 438:1 623:1 853:1 1218:1 1420:1 #
0.14475616441385455446244634458708 83:1 335:1 623:1 1420:1 #
0.14475616441385455446244634458708 302:1 335:1 623:1 696:1 #
-0.14475616441385455446244634458708 623:1 829:1 1202:1 1309:1 #
0.051375489692383091711036513515864 5:1 131:1 287:1 532:1 623:1 655:1 847:1 853:1 894:1 957:1 1220:1 1259:1 1360:1 1409:1 1446:1 1585:1 #
0.031665686988388515310521853507453 40:1 128:1 129:1 208:1 211:1 263:1 276:1 294:1 532:1 641:1 649:1 662:1 707:1 853:1 963:1 1079:1 1261:1 1452:1 1504:1 #
0.036406731351785445727209378219413 96:1 113:1 131:1 374:1 623:1 655:1 1000:1 1259:1 1560:1 #
-0.14475616441385455446244634458708 131:1 313:1 623:1 #
0.14475616441385455446244634458708 623:1 829:1 1111:1 1186:1 #
0.14475616441385455446244634458708 405:1 623:1 829:1 1420:1 #
0.14475616441385455446244634458708 14:1 180:1 284:1 623:1 1186:1 #
0.14475616441385455446244634458708 622:1 623:1 1186:1 1806:1 #
0.1399076056526716294037271381967 25:1 382:1 623:1 746:1 1186:1 #
-0.14475616441385455446244634458708 354:1 395:1 623:1 649:1 1186:1 1529:1 #
-0.12364993003106382329914225692846 14:1 25:1 95:1 137:1 266:1 279:1 395:1 443:1 532:1 736:1 1247:1 1250:1 1605:1 1722:1 #
-0.10459438490380554287462189222424 123:1 383:1 532:1 770:1 785:1 1017:1 1147:1 1257:1 1260:1 1585:1 1645:1 1672:1 1759:1 #
-0.12081618045246225734423717312893 359:1 519:1 623:1 770:1 1097:1 1562:1 1722:1 #
-0.14475616441385455446244634458708 1823:1 #
0.036939408558387926140298418431485 5:1 27:1 40:1 51:1 84:1 94:1 122:1 146:1 151:1 158:1 169:1 223:1 255:1 302:1 335:1 336:1 373:1 401:1 542:1 557:1 610:1 623:1 643:1 656:1 666:1 756:1 766:1 934:1 949:1 966:1 973:1 1026:1 1028:1 1041:1 1047:1 1081:1 1134:1 1179:1 1189:1 1202:1 1207:1 1226:1 1257:1 1259:1 1267:1 1364:1 1407:1 1418:1 1423:1 1482:1 1487:1 1510:1 1526:1 1529:1 1560:1 1585:1 1587:1 1623:1 1660:1 1673:1 1686:1 1692:1 1717:1 1724:1 1790:1 1802:1 1805:1 1817:1 #
0.035938948310173801647948721438297 48:1 131:1 165:1 169:1 221:1 543:1 623:1 677:1 892:1 945:1 951:1 1070:1 1309:1 1602:1 #
0.14475616441385455446244634458708 86:1 211:1 623:1 696:1 1202:1 1361:1 1598:1 1805:1 #
0.028952124206654741150890330914081 302:1 623:1 1052:1 1259:1 #
0.045511427043893042110322966209424 5:1 169:1 189:1 216:1 532:1 571:1 603:1 623:1 666:1 1166:1 1471:1 1805:1 #
-0.14029782818782707276561438902718 239:1 383:1 413:1 623:1 696:1 1312:1 1384:1 1419:1 1420:1 #
-0.14475616441385455446244634458708 335:1 623:1 1131:1 1186:1 1411:1 1526:1 #
-0.050730177653385798153262697951504 90:1 131:1 302:1 623:1 946:1 1202:1 1519:1 #
-0.14475616441385455446244634458708 1066:1 1823:1 #
-0.11492019284271992596302425226895 260:1 286:1 623:1 628:1 654:1 753:1 786:1 1271:1 1361:1 #
-0.14475616441385455446244634458708 186:1 355:1 623:1 1114:1 #
-0.14475616441385455446244634458708 233:1 544:1 623:1 1121:1 1420:1 #
-0.14475616441385455446244634458708 549:1 623:1 1384:1 1420:1 #
-0.14475616441385455446244634458708 127:1 163:1 298:1 532:1 738:1 890:1 1301:1 1360:1 #
-0.14475616441385455446244634458708 131:1 260:1 387:1 532:1 623:1 1554:1 1714:1 #
-0.14475616441385455446244634458708 532:1 1442:1 1618:1 #
-0.14475616441385455446244634458708 83:1 293:1 623:1 1028:1 1186:1 1202:1 1305:1 1484:1 1571:1 1722:1 #
-0.14475616441385455446244634458708 73:1 169:1 502:1 853:1 997:1 1186:1 1722:1 1823:1 #
-0.14475616441385455446244634458708 335:1 623:1 1121:1 1259:1 #
-0.021611839931169826017898216719004 258:1 335:1 492:1 562:1 623:1 868:1 915:1 1186:1 1259:1 1594:1 #
-0.14475616441385455446244634458708 302:1 623:1 868:1 1186:1 1259:1 #
-0.14475616441385455446244634458708 577:1 623:1 1052:1 1411:1 1717:1 #
-0.057317609303127195485849654232879 186:1 623:1 688:1 1186:1 1199:1 1257:1 1304:1 1585:1 #
-0.14475616441385455446244634458708 14:1 623:1 1384:1 1420:1 #
-0.091446071256968811113985395877535 299:1 623:1 902:1 1096:1 #
0.14475616441385455446244634458708 580:1 623:1 1096:1 1795:1 #
0.13083743369939951350922058281867 549:1 623:1 1259:1 1795:1 #
0.054547347456881827010288787960235 623:1 696:1 1096:1 1318:1 1484:1 1506:1 1795:1 #
0.10425665252884834532931535022726 14:1 623:1 1420:1 1795:1 #
0.08253391109095259414729639502184 131:1 213:1 373:1 519:1 532:1 623:1 770:1 1200:1 1795:1 #
0.013508174051495944190115494620841 266:1 309:1 501:1 511:1 623:1 853:1 1081:1 1319:1 1420:1 1499:1 1598:1 1707:1 1711:1 #
-0.14475616441385455446244634458708 549:1 623:1 902:1 1359:1 1420:1 #
-0.14475616441385455446244634458708 623:1 721:1 1348:1 1562:1 1763:1 #
-0.14475616441385455446244634458708 169:1 395:1 623:1 843:1 1805:1 #
0.14475616441385455446244634458708 61:1 1066:1 1446:1 1823:1 #
0.074539807341074071356246122377343 699:1 1446:1 1458:1 1823:1 #
0.14475616441385455446244634458708 1259:1 1446:1 1823:1 #
0.14475616441385455446244634458708 293:1 421:1 623:1 649:1 1028:1 1186:1 1722:1 #
0.05489275632710442082151658382827 258:1 666:1 912:1 1165:1 1212:1 1823:1 #
-0.14475616441385455446244634458708 868:1 1198:1 1259:1 1823:1 #
-0.015979759898678416035755489588155 302:1 623:1 762:1 820:1 1066:1 1199:1 1202:1 1385:1 #
0.058784441935978648530181089881808 184:1 255:1 354:1 380:1 471:1 623:1 971:1 1026:1 1529:1 1759:1 1801:1 1805:1 #
0.14259680741368849221650805247918 128:1 129:1 549:1 623:1 1243:1 1247:1 1605:1 #
0.12550106158255602828432984097162 455:1 623:1 1309:1 1782:1 #
0.074139691616886410630016257528041 46:1 131:1 301:1 623:1 1020:1 1716:1 1792:1 #
0.14475616441385455446244634458708 116:1 258:1 623:1 1202:1 1598:1 #
0.058494498919428747352178277196799 40:1 74:1 75:1 83:1 84:1 258:1 301:1 408:1 562:1 623:1 666:1 738:1 967:1 983:1 1093:1 1202:1 1426:1 1516:1 1536:1 1748:1 #
0.14475616441385455446244634458708 122:1 530:1 623:1 1301:1 1418:1 #
-0.14475616441385455446244634458708 155:1 457:1 623:1 1121:1 1642:1 1805:1 #
-0.10994399925753307878384390505744 623:1 1046:1 1554:1 1585:1 #
-0.14475616441385455446244634458708 623:1 1384:1 1715:1 #
0.14475616441385455446244634458708 302:1 549:1 623:1 1420:1 #
0.068649614952322357552816356474068 302:1 623:1 846:1 1420:1 #
0.1423599281212246936423326815202 302:1 623:1 1420:1 1547:1 #
0.14475616441385455446244634458708 302:1 623:1 1420:1 1769:1 #
0.14475616441385455446244634458708 302:1 623:1 649:1 1420:1 #
-0.14475616441385455446244634458708 302:1 623:1 819:1 1202:1 #
-0.14475616441385455446244634458708 302:1 623:1 876:1 1202:1 1805:1 #
0.12424905820444030746241281804032 793:1 1419:1 1467:1 1550:1 #
0.063755093542087179492305892836157 35:1 255:1 380:1 546:1 615:1 623:1 1186:1 1259:1 1636:1 #
0.054575518482723531232814195846004 37:1 101:1 623:1 956:1 1067:1 1146:1 1259:1 1371:1 #
-0.14475616441385455446244634458708 302:1 623:1 868:1 1259:1 1675:1 #
0.030085904171259059136644964382867 131:1 302:1 354:1 610:1 623:1 819:1 1259:1 1293:1 #
0.14475616441385455446244634458708 562:1 623:1 1067:1 1309:1 #
0.14475616441385455446244634458708 623:1 1114:1 1467:1 #
0.049601474902220402118935282942402 302:1 405:1 623:1 1259:1 1406:1 #
0.022843584827395655573178956387892 14:1 131:1 179:1 383:1 571:1 623:1 696:1 927:1 1467:1 1484:1 1571:1 #
-0.14475616441385455446244634458708 623:1 1384:1 1420:1 1814:1 #
-0.0025582419079866218145080658530333 623:1 1186:1 1202:1 1792:1 #
0.020883912783657747336274468352713 27:1 623:1 719:1 943:1 1467:1 1554:1 1763:1 #
0.1124361691811458785483779365677 553:1 623:1 630:1 1186:1 1259:1 1346:1 #
0.063957684774123418902647131289996 1467:1 1823:1 #
-0.14475616441385455446244634458708 623:1 902:1 1096:1 1420:1 #
0.14475616441385455446244634458708 455:1 623:1 819:1 1259:1 #
0.078525310894181826748550179218 455:1 549:1 623:1 708:1 #
-0.14475616441385455446244634458708 549:1 597:1 623:1 1420:1 #
-0.14475616441385455446244634458708 395:1 623:1 696:1 1529:1 #
-0.14475616441385455446244634458708 532:1 853:1 1079:1 1411:1 #
-0.14475616441385455446244634458708 395:1 532:1 1554:1 1795:1 #
-0.14475616441385455446244634458708 532:1 562:1 1202:1 1795:1 #
0.11934851935331831918052358787463 14:1 83:1 131:1 260:1 532:1 623:1 1155:1 1511:1 1534:1 1722:1 #
0.14475616441385455446244634458708 532:1 829:1 1208:1 #
0.14475616441385455446244634458708 532:1 829:1 #
0.14475616441385455446244634458708 329:1 532:1 829:1 #
0.13401075705174711472089654762385 23:1 241:1 532:1 617:1 1093:1 #
-0.14475616441385455446244634458708 77:1 436:1 532:1 1115:1 1442:1 #
-0.14475616441385455446244634458708 532:1 625:1 816:1 1096:1 1500:1 #
-0.14475616441385455446244634458708 313:1 532:1 912:1 #
-0.0039368854948803305021653997641806 532:1 1096:1 1202:1 1795:1 #
0.14475616441385455446244634458708 302:1 549:1 623:1 1259:1 #
0.14475616441385455446244634458708 335:1 793:1 1259:1 1446:1 #
0.14475616441385455446244634458708 14:1 169:1 200:1 623:1 1273:1 #
-0.14475616441385455446244634458708 13:1 623:1 1105:1 1562:1 #
-0.14475616441385455446244634458708 455:1 623:1 1202:1 1722:1 #
-0.14475616441385455446244634458708 302:1 623:1 1202:1 1309:1 #
0.14365799526861930401899769549345 623:1 1420:1 1621:1 1722:1 #
0.14475616441385455446244634458708 8:1 532:1 719:1 #
0.042926560742686165061954284283274 302:1 350:1 519:1 532:1 543:1 1715:1 1745:1 #
0.14475616441385455446244634458708 532:1 1524:1 #
-0.067005340134071958435590943281568 14:1 380:1 532:1 576:1 725:1 979:1 1003:1 1202:1 1207:1 1707:1 1795:1 #
-0.11884425284250585419520973573526 302:1 623:1 766:1 1202:1 1364:1 1419:1 #
0.14475616441385455446244634458708 532:1 1259:1 1672:1 #
0.14475616441385455446244634458708 793:1 1446:1 #
-0.10121344860701175782935479219304 82:1 331:1 623:1 868:1 1795:1 #
-0.052036066715586387632086484700267 31:1 131:1 241:1 517:1 623:1 649:1 1147:1 1265:1 1304:1 1550:1 1571:1 1585:1 #
-0.055685606630809264538939373778703 131:1 245:1 260:1 335:1 423:1 623:1 649:1 1155:1 1311:1 1714:1 1776:1 1783:1 #
0.034966418753768262195347205079088 32:1 83:1 380:1 552:1 623:1 677:1 1052:1 1060:1 1605:1 1715:1 1803:1 #
0.067070331621667519939045121191157 40:1 302:1 307:1 407:1 623:1 708:1 853:1 1403:1 1411:1 1442:1 1467:1 1683:1 #
0.038278890186899089398409046225424 51:1 543:1 623:1 1309:1 1792:1 #
0.14475616441385455446244634458708 562:1 623:1 1420:1 1795:1 #
0.064988501356791406049495662955451 32:1 137:1 149:1 623:1 966:1 1096:1 1247:1 1364:1 1805:1 #
-0.14475616441385455446244634458708 562:1 623:1 868:1 1259:1 1795:1 #
0.14475616441385455446244634458708 169:1 405:1 455:1 623:1 #
-0.14475616441385455446244634458708 302:1 405:1 623:1 1202:1 1484:1 #
0.14349341762055198290504165470338 532:1 901:1 1795:1 #
0.042491822872939497002242603684863 532:1 562:1 641:1 1795:1 #
0.14475616441385455446244634458708 623:1 641:1 1096:1 1247:1 #
0.020597147654385548898314794996622 217:1 302:1 306:1 380:1 623:1 1300:1 1413:1 1702:1 #
0.014669453203646673142279688306644 266:1 623:1 641:1 1247:1 #
0.047599596453280393348883592352649 25:1 380:1 532:1 1677:1 #
-0.14475616441385455446244634458708 532:1 997:1 #
-0.1340890197198319477855932291277 475:1 532:1 651:1 1259:1 1442:1 1724:1 #
-0.14475616441385455446244634458708 313:1 532:1 #
-0.14475616441385455446244634458708 519:1 571:1 623:1 742:1 1066:1 1263:1 1714:1 #
-0.13934109238841277389475692416454 302:1 623:1 1202:1 1465:1 #
-0.1137854049602159967058412348706 302:1 590:1 623:1 1202:1 #
0.14475616441385455446244634458708 302:1 407:1 532:1 1259:1 #
-0.11890899077332768574155608121146 131:1 532:1 617:1 891:1 1442:1 1585:1 #
-0.14475616441385455446244634458708 532:1 829:1 868:1 1259:1 #
0.089618355951107578349912330395455 505:1 623:1 1186:1 1446:1 #
0.14475616441385455446244634458708 302:1 532:1 #
-0.14475616441385455446244634458708 302:1 623:1 1202:1 1730:1 #
-0.14475616441385455446244634458708 278:1 519:1 623:1 770:1 1562:1 #
-0.095429409476528032074682528218545 335:1 623:1 902:1 1476:1 1605:1 #
0.035793580768436812633570553998652 131:1 137:1 175:1 180:1 530:1 532:1 849:1 914:1 1184:1 1254:1 1259:1 1578:1 1625:1 1646:1 1706:1 #
0.017908927967200588549090412016085 16:1 84:1 342:1 454:1 485:1 532:1 552:1 562:1 662:1 698:1 1028:1 #
0.015833014026771334570309335276761 302:1 519:1 623:1 641:1 696:1 742:1 1189:1 1309:1 #
0.080540494084040223365938970800926 273:1 532:1 1795:1 #
-0.14475616441385455446244634458708 532:1 868:1 1259:1 1795:1 #
-0.07411301188017976881994286486588 180:1 623:1 1121:1 1411:1 1547:1 #
-0.043982648835753583582697245901727 485:1 623:1 1312:1 1384:1 #
-0.015378095047217228003022526650057 623:1 1272:1 1312:1 1350:1 1384:1 #
0.063096367942742578871495595649321 131:1 260:1 461:1 477:1 532:1 623:1 1259:1 1795:1 #
0.043491816355745838151847237895709 5:1 131:1 150:1 335:1 532:1 623:1 914:1 943:1 1101:1 1550:1 1646:1 1658:1 1667:1 1706:1 1730:1 1739:1 #
0.14475616441385455446244634458708 1198:1 1823:1 #
0.10447008724681842994908009814026 83:1 532:1 1142:1 #
0.0487245031953991297735129251123 131:1 358:1 407:1 532:1 940:1 1028:1 1199:1 1259:1 1467:1 1585:1 #
-0.056727000456511911252732716093305 623:1 736:1 1384:1 #
-0.14475616441385455446244634458708 302:1 623:1 868:1 1259:1 #
-0.060594370332289176905860017541272 18:1 623:1 902:1 1605:1 1814:1 #
-0.092919451985604722965561563796655 302:1 623:1 763:1 868:1 1259:1 #
0.14475616441385455446244634458708 532:1 1420:1 1795:1 #
-0.13360527880075456774733311249292 395:1 532:1 1138:1 #
-0.13944768528050266453988115245011 532:1 902:1 1096:1 #
-0.033256302165696700889885306651195 32:1 125:1 260:1 623:1 1228:1 1257:1 1259:1 1339:1 1714:1 1783:1 #
0.038124526707038232375968078713413 317:1 535:1 623:1 829:1 1045:1 1189:1 1686:1 #
0.14475616441385455446244634458708 335:1 623:1 1247:1 1605:1 #
0.060480681132980350367400745881241 83:1 623:1 1240:1 1817:1 #
0.097905542409156054439733907202026 23:1 623:1 746:1 1420:1 #
0.14475616441385455446244634458708 258:1 532:1 1138:1 #
0.0015339854119950275829903363344897 5:1 19:1 84:1 197:1 270:1 272:1 274:1 380:1 532:1 543:1 662:1 853:1 1120:1 1313:1 1316:1 1367:1 1647:1 1759:1 #
0.081314081255996664698848519492458 83:1 532:1 853:1 1398:1 #
0.067513071568206309280846255660435 302:1 623:1 1259:1 1746:1 #
0.033102853989168228021622297774229 197:1 302:1 623:1 639:1 1259:1 #
0.01062402142460316945005160960136 255:1 623:1 1621:1 #
0.080189678511034243046928793319239 532:1 696:1 1484:1 1677:1 #
-0.017890380061071534112393521809281 88:1 186:1 380:1 462:1 597:1 610:1 623:1 713:1 714:1 1203:1 1551:1 #
-0.037947390530181542012133633079429 23:1 155:1 302:1 380:1 623:1 720:1 1202:1 1623:1 #
-0.067019524627695517549064163631556 263:1 302:1 623:1 868:1 1259:1 1743:1 #
0.0079666611936430285767496428661616 88:1 115:1 131:1 322:1 331:1 532:1 623:1 853:1 938:1 940:1 1091:1 1259:1 1372:1 1384:1 1446:1 1608:1 1792:1 #
0.069930530821633252180902218242409 793:1 1598:1 #
0.072424606572259159209536960588594 169:1 302:1 623:1 941:1 1085:1 #
-0.048477409304854300609033401769921 8:1 623:1 1202:1 1249:1 1259:1 #
0.0085571900852274580123735248093908 532:1 1420:1 1467:1 1554:1 #
-0.062389195839840649870922106856597 302:1 623:1 946:1 1202:1 #
0.14475616441385455446244634458708 532:1 623:1 1795:1 #
0.04429174667735786413702570030182 42:1 380:1 532:1 543:1 604:1 1309:1 #
0.016618104505853520391767119690485 139:1 380:1 428:1 532:1 549:1 615:1 668:1 691:1 798:1 853:1 941:1 1066:1 1067:1 1726:1 #
0.045836583759792486059136962239791 83:1 335:1 552:1 623:1 #
0.14475616441385455446244634458708 532:1 1259:1 1795:1 #
0.025855387114469691178797461361683 321:1 380:1 793:1 1198:1 1429:1 #
-0.073894972486203414074878992323647 319:1 532:1 562:1 868:1 1259:1 1795:1 #
-0.079038299908131340321126856451883 313:1 532:1 1096:1 #
0.032659629924101818421178222706658 532:1 543:1 623:1 831:1 1309:1 #
0.0021062866265684682988423848115644 8:1 623:1 696:1 1420:1 1706:1 1769:1 #
0.018540555319737177936145755552388 532:1 942:1 1066:1 1702:1 1795:1 #
-0.0047199161697065519782690046213247 241:1 532:1 1202:1 1297:1 #
0.0095068609031080698879012658153442 623:1 641:1 1253:1 1446:1 #
-0.0014943991404983147930352060939185 532:1 562:1 1202:1 1263:1 1795:1 #
-0.00064914488686479302013282444150377 623:1 696:1 829:1 868:1 1253:1 1259:1 #
