SVM-light Version V6.01
0 # kernel type
3 # kernel parameter -d 
1 # kernel parameter -g 
1 # kernel parameter -s 
1 # kernel parameter -r 
empty# kernel parameter -u 
3628 # highest feature index 
4284 # number of training documents 
1112 # number of support vectors plus 1 
0.44073357 # threshold b, each following line is a SV (starting with alpha*y)
0.10166562581891006034062741036905 419:1 1293:1 2741:1 3060:1 3191:1 3239:1 3442:1 3473:1 #
-0.14843336798397074871580514354719 1515:1 1767:1 1963:1 2304:1 2516:1 3144:1 3239:1 #
-0.14843336798397074871580514354719 69:1 1584:1 1612:1 2307:1 2785:1 3239:1 3547:1 #
-0.14843336798397074871580514354719 1209:1 1307:1 1841:1 2785:1 #
-0.075662120605415453256092916944908 419:1 485:1 714:1 778:1 1157:1 1767:1 2020:1 2205:1 2304:1 3060:1 3239:1 3251:1 3520:1 3559:1 3599:1 #
0.057163070684759009765230075572617 724:1 975:1 1757:1 1859:1 2615:1 2785:1 2823:1 3060:1 3605:1 #
0.14843336798397074871580514354719 2350:1 2779:1 2861:1 #
0.14843336798397074871580514354719 1157:1 1866:1 1963:1 2160:1 2469:1 2785:1 3239:1 #
0.14843336798397074871580514354719 2216:1 2779:1 3263:1 #
0.047504991204582354413776812407377 2785:1 3164:1 3239:1 3611:1 #
0.14843336798397074871580514354719 3196:1 3392:1 #
-0.11648745986279315789424515514838 20:1 1157:1 1352:1 1577:1 1612:1 1961:1 1962:1 1963:1 2160:1 2200:1 2600:1 2649:1 2705:1 2716:1 2785:1 2823:1 2995:1 3263:1 #
-0.14843336798397074871580514354719 1313:1 2020:1 2345:1 2785:1 3053:1 3060:1 3164:1 3263:1 #
-0.12251409582081494720195991021683 266:1 419:1 2083:1 2205:1 3211:1 3473:1 #
0.033119759698068657050029628408083 394:1 1775:1 2110:1 2785:1 3239:1 #
0.14843336798397074871580514354719 266:1 407:1 448:1 522:1 548:1 587:1 1025:1 1209:1 1515:1 1767:1 1866:1 2823:1 2861:1 2885:1 2953:1 3060:1 3164:1 3211:1 3223:1 3227:1 3239:1 3261:1 3351:1 3489:1 3520:1 #
0.14843336798397074871580514354719 343:1 2460:1 #
0.14843336798397074871580514354719 29:1 1871:1 2028:1 2304:1 2666:1 #
0.14843336798397074871580514354719 2304:1 2666:1 2713:1 #
0.14843336798397074871580514354719 2304:1 3205:1 3520:1 #
0.14843336798397074871580514354719 2304:1 2713:1 3205:1 3281:1 #
-0.14843336798397074871580514354719 2785:1 3351:1 #
0.14843336798397074871580514354719 985:1 1574:1 1701:1 2785:1 2825:1 3605:1 #
-0.14843336798397074871580514354719 298:1 2216:1 2304:1 3205:1 3520:1 #
-0.14843336798397074871580514354719 448:1 2216:1 3205:1 3223:1 3227:1 3520:1 #
0.035432178240526419898959176180142 26:1 28:1 32:1 33:1 35:1 70:1 125:1 145:1 258:1 276:1 283:1 359:1 412:1 419:1 441:1 449:1 492:1 579:1 593:1 661:1 682:1 684:1 699:1 709:1 749:1 755:1 766:1 788:1 860:1 1004:1 1035:1 1053:1 1101:1 1125:1 1156:1 1157:1 1205:1 1206:1 1258:1 1265:1 1283:1 1290:1 1293:1 1313:1 1320:1 1344:1 1352:1 1366:1 1385:1 1452:1 1455:1 1484:1 1488:1 1502:1 1524:1 1545:1 1546:1 1612:1 1635:1 1638:1 1684:1 1691:1 1853:1 1873:1 1888:1 1918:1 1944:1 1963:1 1994:1 2007:1 2020:1 2037:1 2048:1 2079:1 2118:1 2160:1 2234:1 2255:1 2276:1 2282:1 2311:1 2330:1 2354:1 2363:1 2396:1 2447:1 2450:1 2486:1 2548:1 2561:1 2563:1 2567:1 2569:1 2611:1 2632:1 2746:1 2753:1 2772:1 2779:1 2785:1 2811:1 2823:1 2885:1 2886:1 2907:1 2915:1 2917:1 2978:1 3016:1 3110:1 3146:1 3152:1 3192:1 3205:1 3209:1 3231:1 3239:1 3348:1 3370:1 3418:1 3530:1 3557:1 3605:1 #
-0.14843336798397074871580514354719 2785:1 3611:1 #
0.14843336798397074871580514354719 1605:1 2785:1 #
0.14843336798397074871580514354719 1484:1 2350:1 2779:1 3239:1 #
0.14843336798397074871580514354719 980:1 2750:1 2779:1 2785:1 #
-0.00078039813708351312478844752362761 20:1 21:1 23:1 25:1 26:1 28:1 29:1 33:1 92:1 118:1 179:1 186:1 195:1 202:1 203:1 249:1 266:1 289:1 296:1 299:1 316:1 320:1 341:1 350:1 375:1 391:1 409:1 412:1 419:1 448:1 485:1 553:1 606:1 619:1 633:1 647:1 681:1 720:1 727:1 749:1 754:1 766:1 776:1 788:1 797:1 801:1 812:1 867:1 895:1 916:1 962:1 964:1 990:1 1052:1 1124:1 1125:1 1157:1 1206:1 1209:1 1239:1 1249:1 1258:1 1271:1 1288:1 1293:1 1352:1 1360:1 1377:1 1444:1 1472:1 1555:1 1634:1 1682:1 1726:1 1735:1 1767:1 1771:1 1792:1 1813:1 1814:1 1841:1 1853:1 1861:1 1868:1 1870:1 1871:1 1872:1 1902:1 1911:1 1924:1 1968:1 1981:1 1985:1 1994:1 2020:1 2088:1 2101:1 2107:1 2124:1 2131:1 2134:1 2160:1 2179:1 2213:1 2279:1 2309:1 2326:1 2349:1 2375:1 2377:1 2391:1 2396:1 2439:1 2453:1 2455:1 2469:1 2488:1 2496:1 2548:1 2563:1 2632:1 2649:1 2659:1 2661:1 2666:1 2708:1 2712:1 2713:1 2748:1 2774:1 2779:1 2802:1 2810:1 2823:1 2852:1 2869:1 2916:1 2939:1 2960:1 2978:1 2998:1 3016:1 3027:1 3060:1 3141:1 3144:1 3146:1 3196:1 3205:1 3211:1 3212:1 3239:1 3242:1 3244:1 3252:1 3316:1 3348:1 3351:1 3378:1 3441:1 3464:1 3479:1 3506:1 3515:1 3516:1 3520:1 3522:1 #
-0.14843336798397074871580514354719 811:1 2785:1 #
-0.14843336798397074871580514354719 1822:1 2785:1 #
0.077483783050180998763778461579932 2785:1 2823:1 2998:1 3073:1 3515:1 3611:1 #
-0.0038847220424452232924450445494813 1517:1 1742:1 2200:1 2453:1 2483:1 2785:1 2802:1 2884:1 3060:1 3225:1 #
0.015687223318047571057887168421985 164:1 251:1 393:1 394:1 418:1 419:1 448:1 449:1 565:1 595:1 611:1 695:1 809:1 1105:1 1141:1 1206:1 1240:1 1271:1 1313:1 1358:1 1462:1 1513:1 1594:1 1630:1 1899:1 1961:1 1962:1 1963:1 2020:1 2031:1 2057:1 2067:1 2101:1 2442:1 2640:1 2641:1 2704:1 2725:1 2748:1 2779:1 2785:1 2861:1 2956:1 2963:1 3227:1 3520:1 3525:1 #
0.14843336798397074871580514354719 1209:1 1308:1 1360:1 1612:1 1902:1 2205:1 2216:1 2802:1 #
0.14843336798397074871580514354719 432:1 1209:1 1612:1 1963:1 2214:1 2216:1 2885:1 3520:1 #
0.14843336798397074871580514354719 1698:1 1841:1 1963:1 2785:1 3060:1 3547:1 #
0.14843336798397074871580514354719 139:1 241:1 749:1 778:1 1024:1 1271:1 1841:1 1961:1 1962:1 2013:1 2160:1 2712:1 2785:1 2979:1 3144:1 3438:1 3507:1 #
0.050479786813267923939463344140677 2785:1 2904:1 3239:1 #
-0.14843336798397074871580514354719 749:1 1963:1 2304:1 2785:1 2885:1 3223:1 3263:1 3520:1 #
-0.12720031492614281010133936433704 28:1 29:1 48:1 204:1 208:1 1209:1 1484:1 1750:1 2200:1 2453:1 2689:1 2713:1 2779:1 3517:1 #
-0.14843336798397074871580514354719 29:1 327:1 1735:1 1963:1 2600:1 2759:1 2785:1 3281:1 3392:1 #
-0.14843336798397074871580514354719 266:1 419:1 719:1 1209:1 2175:1 2861:1 #
0.088394762858796147031448242614715 448:1 1427:1 2130:1 2785:1 3227:1 3239:1 #
0.050524760222736428416645537708973 1526:1 2785:1 3239:1 #
0.079093029172028941897742981836927 25:1 26:1 1484:1 2020:1 2083:1 2209:1 2579:1 2649:1 2785:1 3060:1 3239:1 #
0.14843336798397074871580514354719 1555:1 2020:1 2785:1 3239:1 #
0.14843336798397074871580514354719 1766:1 1866:1 3060:1 #
-0.14843336798397074871580514354719 448:1 449:1 1258:1 1859:1 2083:1 2345:1 2666:1 3060:1 3074:1 3227:1 3239:1 #
0.0077575398922125867254284692364763 140:1 141:1 164:1 221:1 449:1 539:1 572:1 809:1 853:1 1209:1 1233:1 1356:1 1522:1 1583:1 1767:1 1961:1 1962:1 2265:1 2291:1 2314:1 2330:1 2378:1 2716:1 2785:1 2852:1 3016:1 3055:1 3060:1 3239:1 3441:1 3509:1 3522:1 #
0.092615556890541572698793970630504 266:1 2785:1 3239:1 3254:1 #
-0.14843336798397074871580514354719 449:1 1209:1 3211:1 3239:1 #
-0.14843336798397074871580514354719 1484:1 2666:1 2751:1 2785:1 3060:1 3239:1 #
0.14843336798397074871580514354719 449:1 749:1 1209:1 1963:1 2205:1 2304:1 2885:1 #
0.14843336798397074871580514354719 709:1 1209:1 1961:1 1962:1 2216:1 2885:1 3520:1 #
0.14843336798397074871580514354719 1607:1 1866:1 2516:1 2885:1 3211:1 3520:1 #
0.14843336798397074871580514354719 749:1 963:1 1963:1 2205:1 2247:1 2304:1 2411:1 2979:1 3473:1 #
0.14843336798397074871580514354719 465:1 1280:1 2130:1 2175:1 2200:1 3101:1 3605:1 #
0.14843336798397074871580514354719 1582:1 2785:1 #
0.14843336798397074871580514354719 266:1 1993:1 3239:1 3392:1 #
-0.14843336798397074871580514354719 266:1 1991:1 2785:1 #
-0.14843336798397074871580514354719 1484:1 1718:1 2785:1 2928:1 #
-0.13312093549208720011378659364709 545:1 1293:1 1392:1 1725:1 1866:1 3060:1 3103:1 3138:1 3316:1 #
-0.14843336798397074871580514354719 2020:1 2785:1 3164:1 #
0.056760403477638929348181306977494 35:1 36:1 56:1 78:1 145:1 246:1 412:1 613:1 657:1 724:1 938:1 990:1 993:1 1209:1 1271:1 1430:1 1440:1 1488:1 1511:1 1612:1 1637:1 1786:1 1859:1 1862:1 1871:1 1925:1 1976:1 1989:1 2007:1 2021:1 2031:1 2179:1 2272:1 2290:1 2488:1 2539:1 2593:1 2666:1 2785:1 2816:1 2899:1 2941:1 3041:1 3060:1 3062:1 3239:1 3327:1 3572:1 3605:1 #
0.14843336798397074871580514354719 214:1 566:1 730:1 1008:1 1102:1 1353:1 2304:1 2516:1 2779:1 3554:1 #
0.14843336798397074871580514354719 1258:1 2785:1 3239:1 3470:1 #
-0.14843336798397074871580514354719 324:1 424:1 489:1 619:1 700:1 1124:1 1209:1 1307:1 1735:1 1771:1 1972:1 1989:1 1990:1 2076:1 2209:1 2409:1 2621:1 2712:1 2785:1 2823:1 2941:1 3263:1 3605:1 #
0.14843336798397074871580514354719 343:1 1766:1 1963:1 2116:1 3520:1 #
-0.14843336798397074871580514354719 207:1 266:1 299:1 498:1 749:1 753:1 1209:1 1210:1 1247:1 1293:1 1670:1 1735:1 1841:1 1993:1 2013:1 2078:1 2383:1 2533:1 2663:1 2823:1 2930:1 2941:1 3223:1 3239:1 3263:1 3294:1 3335:1 3351:1 3396:1 3425:1 3473:1 3492:1 3520:1 #
-0.14843336798397074871580514354719 134:1 937:1 1871:1 1963:1 2083:1 2449:1 2785:1 2823:1 3184:1 3225:1 3239:1 #
-0.02656988713718019118337210215941 9:1 503:1 685:1 749:1 1057:1 1124:1 1209:1 1313:1 1476:1 2088:1 2282:1 2301:1 2488:1 2649:1 2785:1 3146:1 3205:1 #
0.14843336798397074871580514354719 822:1 2666:1 2785:1 3053:1 3158:1 #
0.14843336798397074871580514354719 208:1 568:1 749:1 806:1 1030:1 2666:1 2785:1 2794:1 2885:1 3025:1 3379:1 3619:1 #
0.066347606461685110224024697345158 77:1 117:1 133:1 148:1 318:1 412:1 450:1 466:1 578:1 611:1 715:1 780:1 958:1 1064:1 1171:1 1207:1 1209:1 1218:1 1271:1 1340:1 1476:1 1637:1 1643:1 1735:1 1787:1 1803:1 1822:1 1829:1 1901:1 1957:1 1963:1 1987:1 1994:1 2125:1 2179:1 2180:1 2197:1 2220:1 2263:1 2282:1 2385:1 2402:1 2426:1 2453:1 2468:1 2666:1 2684:1 2712:1 2785:1 2802:1 2818:1 3060:1 3106:1 3201:1 3263:1 3292:1 #
0.14843336798397074871580514354719 299:1 576:1 1207:1 1367:1 1962:1 1963:1 2216:1 2703:1 3559:1 3599:1 #
0.14843336798397074871580514354719 9:1 230:1 1092:1 1258:1 1280:1 2107:1 2130:1 2175:1 2179:1 2287:1 2835:1 2885:1 3211:1 #
-0.14843336798397074871580514354719 21:1 1207:1 1967:1 2027:1 2785:1 3205:1 3559:1 3599:1 #
-0.14843336798397074871580514354719 448:1 1209:1 1307:1 2785:1 3227:1 #
-0.057214251954060262039813977708036 151:1 1866:1 3559:1 3599:1 #
-0.14843336798397074871580514354719 11:1 2785:1 3559:1 3599:1 #
-0.14843336798397074871580514354719 2785:1 3559:1 3599:1 #
0.14843336798397074871580514354719 3205:1 3229:1 3473:1 3520:1 #
0.14843336798397074871580514354719 29:1 311:1 312:1 324:1 448:1 600:1 749:1 980:1 1206:1 1209:1 1484:1 1754:1 1963:1 2020:1 2304:1 2785:1 3239:1 3351:1 #
-0.14843336798397074871580514354719 373:1 2779:1 2785:1 #
-0.12133263404979691135743280483439 811:1 2644:1 2785:1 #
-0.14843336798397074871580514354719 825:1 2785:1 3611:1 #
-0.14843336798397074871580514354719 343:1 448:1 749:1 825:1 1209:1 1484:1 1763:1 1767:1 1866:1 1963:1 2785:1 3060:1 3227:1 3239:1 3326:1 #
0.14843336798397074871580514354719 1820:1 2785:1 #
-0.06262096907249459221134202380199 47:1 459:1 482:1 677:1 749:1 973:1 1055:1 1234:1 1258:1 1612:1 1648:1 1771:1 1841:1 1963:1 2160:1 2175:1 2271:1 2736:1 3011:1 3060:1 3121:1 3239:1 3605:1 #
0.14843336798397074871580514354719 327:1 419:1 661:1 1293:1 1735:1 2121:1 2823:1 3205:1 3281:1 3405:1 3473:1 3599:1 #
0.14843336798397074871580514354719 424:1 1903:1 2350:1 2869:1 3303:1 3559:1 3599:1 #
0.14843336798397074871580514354719 20:1 2143:1 2666:1 2785:1 #
0.14843336798397074871580514354719 1209:1 1353:1 1866:1 3205:1 3520:1 3559:1 3599:1 #
0.14843336798397074871580514354719 77:1 249:1 483:1 645:1 1465:1 1767:1 1981:1 1994:1 2666:1 2785:1 3374:1 #
-0.08531919674724457169912028575709 315:1 719:1 924:1 1677:1 2169:1 2350:1 2503:1 2596:1 2779:1 2857:1 2960:1 #
-0.13689183848557670564183297301497 20:1 776:1 1584:1 2785:1 3209:1 #
-0.065472777853657238011919616837986 19:1 2304:1 2640:1 2779:1 #
-0.14843336798397074871580514354719 2304:1 2779:1 #
-0.024491623570252987751594275778189 1329:1 2666:1 2712:1 2785:1 3060:1 3239:1 #
0.014989870188929251340614889898006 2311:1 2785:1 3239:1 #
0.059347031787051411633182596006009 1841:1 2175:1 2861:1 #
0.027438319943316885618500577947998 11:1 150:1 203:1 246:1 448:1 484:1 516:1 625:1 631:1 726:1 878:1 1055:1 1079:1 1209:1 1314:1 1484:1 1585:1 1703:1 1712:1 1888:1 2042:1 2083:1 2396:1 2539:1 2564:1 2632:1 2785:1 2846:1 3019:1 3205:1 3227:1 3239:1 3294:1 3567:1 #
0.13001692333779066301779892000923 448:1 1963:1 2785:1 3060:1 3227:1 3239:1 #
0.14057544214925019043782583594293 448:1 1698:1 2785:1 3060:1 3227:1 #
0.12159512844059118530370966482224 2047:1 2160:1 2785:1 2926:1 2950:1 3164:1 3291:1 #
-0.031124762621155668829153739807225 749:1 2216:1 2244:1 3205:1 3242:1 3520:1 #
0.14843336798397074871580514354719 2160:1 3060:1 3196:1 3473:1 #
-0.14843336798397074871580514354719 20:1 448:1 1962:1 2200:1 2666:1 2785:1 3060:1 3164:1 3239:1 #
0.14843336798397074871580514354719 1209:1 2205:1 2216:1 2885:1 #
0.14843336798397074871580514354719 749:1 2290:1 2785:1 3291:1 #
0.14843336798397074871580514354719 220:1 394:1 868:1 1209:1 1239:1 1258:1 1432:1 1494:1 1589:1 1911:1 2200:1 2216:1 2401:1 2539:1 3016:1 3060:1 3446:1 3476:1 #
-0.06373070975055154796518053217369 173:1 419:1 699:1 705:1 709:1 750:1 975:1 1218:1 1260:1 1293:1 1308:1 1432:1 1562:1 1631:1 1717:1 1990:1 2216:1 2295:1 2461:1 2539:1 2861:1 2885:1 3205:1 3281:1 3316:1 3457:1 3515:1 3520:1 #
-0.14843336798397074871580514354719 2785:1 3086:1 #
-0.077093839213600467985543218674138 1191:1 1612:1 2476:1 2785:1 3239:1 #
-0.14843336798397074871580514354719 2216:1 2712:1 2885:1 3053:1 3263:1 3448:1 3520:1 #
-0.14843336798397074871580514354719 1290:1 1963:1 1967:1 2216:1 2785:1 2885:1 3263:1 3520:1 #
0.14843336798397074871580514354719 20:1 448:1 2785:1 3060:1 3227:1 3239:1 #
0.14843336798397074871580514354719 373:1 825:1 2785:1 3060:1 3164:1 3239:1 #
0.021048739247497887105975422628035 20:1 448:1 482:1 865:1 985:1 1515:1 1637:1 1682:1 1700:1 2308:1 2330:1 2514:1 2785:1 3060:1 3227:1 #
0.13070001113650633883800367129879 825:1 1771:1 2785:1 3060:1 3164:1 3239:1 #
-0.14843336798397074871580514354719 419:1 825:1 1209:1 2205:1 2785:1 3164:1 3205:1 3211:1 3239:1 #
0.010241693795241493813996669359767 118:1 203:1 503:1 625:1 748:1 856:1 1209:1 1258:1 1285:1 1484:1 1629:1 1649:1 1730:1 1841:1 1859:1 1871:1 1896:1 1902:1 2123:1 2269:1 2337:1 2488:1 2779:1 2785:1 2802:1 2952:1 3060:1 3164:1 3205:1 3239:1 3308:1 3321:1 3515:1 3541:1 3542:1 3606:1 #
-0.14843336798397074871580514354719 749:1 2216:1 3205:1 3242:1 3520:1 #
-0.14843336798397074871580514354719 1209:1 2785:1 3164:1 3211:1 3239:1 #
-0.037153774446847274981475806043818 448:1 1209:1 1787:1 1963:1 2365:1 2785:1 3164:1 3211:1 3223:1 3239:1 #
0.14843336798397074871580514354719 1866:1 1963:1 2216:1 2885:1 3205:1 3520:1 #
0.14843336798397074871580514354719 1209:1 2216:1 2885:1 3520:1 #
0.14843336798397074871580514354719 2216:1 2861:1 3223:1 3520:1 #
0.14843336798397074871580514354719 671:1 2216:1 3520:1 #
0.14843336798397074871580514354719 299:1 350:1 783:1 1209:1 1271:1 1871:1 1963:1 2785:1 3263:1 #
-0.14843336798397074871580514354719 315:1 389:1 839:1 1030:1 1484:1 2713:1 3251:1 #
-0.054680827404691594029184642522523 506:1 749:1 1221:1 1963:1 2216:1 3060:1 3205:1 3221:1 3242:1 3520:1 3599:1 #
0.14843336798397074871580514354719 2216:1 2736:1 2861:1 3405:1 #
0.03664899676732412403534766554003 1150:1 2130:1 2785:1 3146:1 3239:1 3605:1 #
0.053032670080581628679894379274629 20:1 21:1 23:1 625:1 743:1 825:1 972:1 1867:1 1967:1 2397:1 2404:1 2785:1 2926:1 3164:1 3205:1 #
0.14843336798397074871580514354719 134:1 1258:1 1271:1 2083:1 2785:1 3211:1 #
-0.14843336798397074871580514354719 272:1 1209:1 2785:1 3211:1 3239:1 #
0.14843336798397074871580514354719 448:1 857:1 1194:1 1209:1 2779:1 2785:1 3211:1 3227:1 3239:1 #
0.14843336798397074871580514354719 1285:1 1961:1 1962:1 2160:1 2666:1 2785:1 3164:1 3263:1 #
-0.14843336798397074871580514354719 2304:1 2785:1 #
-0.14843336798397074871580514354719 857:1 1484:1 1792:1 1896:1 1961:1 1962:1 1963:1 2600:1 2628:1 2785:1 3263:1 #
-0.14843336798397074871580514354719 299:1 373:1 448:1 1563:1 1961:1 1962:1 2461:1 2785:1 3227:1 #
-0.14843336798397074871580514354719 29:1 448:1 578:1 625:1 715:1 1206:1 1342:1 2785:1 3227:1 #
-0.025683318902382130943795601751845 448:1 568:1 1274:1 1515:1 1767:1 1961:1 1962:1 2304:1 2350:1 2542:1 2779:1 3227:1 #
0.043324552667627226620883362784298 1444:1 1698:1 1720:1 1866:1 1963:1 1993:1 2179:1 2216:1 2812:1 3060:1 3205:1 3405:1 3520:1 3599:1 #
0.14843336798397074871580514354719 364:1 1521:1 1994:1 2216:1 3060:1 3520:1 #
0.14843336798397074871580514354719 2216:1 3060:1 3196:1 3520:1 #
0.1361569414910297759480073409577 48:1 266:1 1993:1 2216:1 2762:1 2861:1 3007:1 3060:1 3205:1 3520:1 #
0.14843336798397074871580514354719 472:1 2216:1 3060:1 3205:1 3281:1 3328:1 3520:1 #
-0.14843336798397074871580514354719 2214:1 2216:1 3060:1 3205:1 #
-0.14843336798397074871580514354719 47:1 394:1 408:1 1121:1 1607:1 1866:1 1885:1 2112:1 2160:1 2819:1 3239:1 3520:1 #
-0.078558453132137606722551481652772 400:1 1994:1 2160:1 2216:1 2973:1 3205:1 3520:1 #
-0.14843336798397074871580514354719 1001:1 2216:1 3060:1 3205:1 #
-0.14843336798397074871580514354719 20:1 1484:1 2200:1 2785:1 #
0.14843336798397074871580514354719 78:1 299:1 1432:1 1484:1 1698:1 1961:1 1962:1 1990:1 2312:1 2539:1 2780:1 2785:1 3146:1 3211:1 #
0.050171068990167107248812072839428 1912:1 2785:1 3239:1 3316:1 #
-0.021408180693408305345082354165243 20:1 741:1 887:1 940:1 1295:1 1829:1 2000:1 2454:1 2785:1 #
0.14843336798397074871580514354719 266:1 315:1 448:1 501:1 778:1 1612:1 1963:1 1964:1 2205:1 2785:1 3227:1 3263:1 3396:1 3559:1 3599:1 #
0.055095857492448954695341001297493 806:1 2200:1 2374:1 2785:1 3239:1 #
-0.14843336798397074871580514354719 394:1 1175:1 1313:1 1484:1 1961:1 1962:1 1963:1 2170:1 2200:1 2201:1 2713:1 2785:1 2802:1 2999:1 3211:1 3263:1 #
-0.14843336798397074871580514354719 21:1 1258:1 1994:1 2563:1 2785:1 2823:1 3223:1 3571:1 3605:1 #
-0.076914017419551047871628668417543 20:1 21:1 23:1 30:1 620:1 938:1 1209:1 1990:1 2272:1 2345:1 2785:1 3211:1 3239:1 3538:1 #
-0.14843336798397074871580514354719 448:1 1308:1 2539:1 2785:1 3227:1 #
0.14843336798397074871580514354719 233:1 579:1 1206:1 1209:1 1313:1 1552:1 1725:1 1753:1 1866:1 1963:1 3060:1 3239:1 3316:1 3441:1 #
0.14843336798397074871580514354719 705:1 2160:1 2304:1 3205:1 3520:1 #
0.1480209821318890506258725281441 11:1 48:1 373:1 625:1 1581:1 2350:1 3007:1 3060:1 3205:1 3454:1 #
0.14843336798397074871580514354719 1866:1 3060:1 3205:1 3520:1 #
-0.14843336798397074871580514354719 749:1 1258:1 2216:1 2304:1 3205:1 3520:1 #
-0.14843336798397074871580514354719 1800:1 2175:1 2628:1 3060:1 #
0.12369768143754945877166306900108 688:1 2388:1 2779:1 2785:1 3239:1 #
-0.047447964114784649258815818484436 1552:1 1725:1 2304:1 3060:1 #
-0.14843336798397074871580514354719 2216:1 2885:1 3239:1 3520:1 #
0.1452474353688853192512198120312 28:1 41:1 1191:1 2200:1 2785:1 3223:1 3243:1 3326:1 3538:1 #
0.14843336798397074871580514354719 1124:1 1307:1 2664:1 2785:1 3223:1 #
0.14650478392334537192098764535331 21:1 298:1 341:1 603:1 1387:1 1871:1 1963:1 1994:1 2160:1 2294:1 2785:1 3211:1 3239:1 3547:1 #
0.14843336798397074871580514354719 412:1 1004:1 1486:1 1640:1 1837:1 1967:1 2173:1 2200:1 2666:1 2785:1 2936:1 3500:1 3611:1 #
0.08943266846872487130237772134933 209:1 449:1 3239:1 #
-0.14040854256541976385896930423769 226:1 266:1 1871:1 1993:1 1994:1 2522:1 2785:1 3158:1 3547:1 #
0.14843336798397074871580514354719 266:1 419:1 2785:1 3060:1 3239:1 #
-0.14843336798397074871580514354719 778:1 1743:1 1961:1 1962:1 1967:1 2455:1 2748:1 2785:1 2789:1 3223:1 3328:1 #
0.14843336798397074871580514354719 448:1 1866:1 3205:1 3227:1 3520:1 #
0.14843336798397074871580514354719 441:1 1631:1 2350:1 3205:1 3396:1 #
-0.14843336798397074871580514354719 28:1 448:1 2200:1 2304:1 2516:1 3227:1 3239:1 #
-0.14843336798397074871580514354719 263:1 324:1 448:1 709:1 2785:1 3205:1 3227:1 3351:1 3520:1 #
-0.14843336798397074871580514354719 448:1 449:1 2114:1 2279:1 3227:1 #
-0.14843336798397074871580514354719 1967:1 2445:1 2785:1 3223:1 #
0.14843336798397074871580514354719 266:1 403:1 1001:1 2175:1 2885:1 #
0.12229436126301417020467710017328 232:1 263:1 299:1 578:1 842:1 870:1 887:1 985:1 1030:1 1209:1 1233:1 1430:1 1476:1 1607:1 1612:1 1637:1 1724:1 1803:1 1871:1 1918:1 2031:1 2112:1 2539:1 2785:1 2852:1 3016:1 3053:1 3060:1 3239:1 #
0.14843336798397074871580514354719 29:1 156:1 363:1 1866:1 1963:1 2712:1 2785:1 3129:1 3515:1 #
0.14843336798397074871580514354719 825:1 1484:1 1961:1 1962:1 2020:1 2649:1 2785:1 3164:1 3239:1 #
-0.081917931257259324340225248306524 786:1 809:1 974:1 1187:1 1191:1 1484:1 1622:1 1866:1 1961:1 1962:1 1963:1 2020:1 2785:1 3164:1 3356:1 #
-0.082263969450382223858042607389507 510:1 1271:1 1841:1 2350:1 2666:1 2749:1 2779:1 3060:1 3239:1 #
-0.036468862469638055334719695110834 1157:1 1541:1 2109:1 3473:1 #
-0.13230582252559258682467202561384 203:1 1484:1 1612:1 1841:1 2785:1 3239:1 3567:1 #
0.14843336798397074871580514354719 448:1 449:1 1515:1 1767:1 1866:1 2332:1 2946:1 3227:1 #
0.04263303636669428520189484288494 289:1 309:1 448:1 677:1 2130:1 2175:1 2200:1 3101:1 3223:1 3227:1 3605:1 #
0.14843336798397074871580514354719 419:1 448:1 1077:1 1293:1 1484:1 1963:1 2216:1 2279:1 2785:1 3239:1 3242:1 3351:1 3405:1 3520:1 3599:1 #
-0.14843336798397074871580514354719 20:1 266:1 811:1 2200:1 2785:1 #
0.14843336798397074871580514354719 448:1 449:1 3060:1 3227:1 3239:1 #
-0.14843336798397074871580514354719 448:1 1866:1 3227:1 3239:1 3498:1 #
-0.13744140531575391173113587228727 299:1 531:1 677:1 1197:1 1206:1 1545:1 1800:1 1902:1 1963:1 1994:1 2128:1 2175:1 2464:1 #
-0.069672911729962150317874147731345 448:1 1124:1 1866:1 2979:1 3002:1 3104:1 3227:1 3239:1 3351:1 3528:1 #
-0.14843336798397074871580514354719 449:1 1899:1 2666:1 3239:1 #
-0.02733587474893738392123232472386 1800:1 2175:1 2666:1 3060:1 3239:1 #
0.068393783049555345598946587415412 266:1 1994:1 2785:1 3056:1 3219:1 3239:1 3515:1 #
0.14843336798397074871580514354719 21:1 203:1 209:1 1209:1 1841:1 1866:1 1963:1 2083:1 2785:1 2818:1 3065:1 3205:1 3211:1 3520:1 #
0.14843336798397074871580514354719 1209:1 1632:1 2785:1 2802:1 2823:1 #
0.14843336798397074871580514354719 1071:1 1763:1 2172:1 2304:1 2310:1 2785:1 #
0.086829614848500685786447661484999 13:1 21:1 129:1 298:1 354:1 359:1 389:1 419:1 493:1 567:1 579:1 696:1 749:1 754:1 836:1 1070:1 1157:1 1209:1 1352:1 1612:1 1803:1 1839:1 1841:1 2088:1 2160:1 2162:1 2304:1 2330:1 2785:1 2823:1 2932:1 3016:1 3075:1 3106:1 3207:1 3239:1 3319:1 #
-0.14843336798397074871580514354719 209:1 2785:1 #
-0.0038300333333790921759576253435853 20:1 21:1 23:1 29:1 48:1 78:1 156:1 299:1 315:1 317:1 373:1 441:1 870:1 962:1 1005:1 1072:1 1076:1 1179:1 1208:1 1209:1 1250:1 1308:1 1345:1 1432:1 1618:1 1632:1 1663:1 1725:1 1813:1 1818:1 1843:1 1911:1 2026:1 2036:1 2037:1 2083:1 2134:1 2160:1 2304:1 2539:1 2712:1 2779:1 2795:1 2991:1 3158:1 3223:1 3245:1 3296:1 3343:1 3348:1 3351:1 3352:1 3546:1 #
-0.14843336798397074871580514354719 419:1 448:1 2785:1 3227:1 #
-0.14843336798397074871580514354719 341:1 412:1 1632:1 1994:1 2047:1 2785:1 2802:1 2823:1 3417:1 #
0.019608844821170617889194431882061 589:1 1975:1 2175:1 2200:1 2345:1 2826:1 3205:1 3281:1 3328:1 #
0.043651008998917793790806030074236 469:1 541:1 611:1 713:1 1215:1 1961:1 1962:1 2083:1 2200:1 2209:1 2433:1 2563:1 2666:1 2785:1 3263:1 3418:1 3452:1 3596:1 #
0.14843336798397074871580514354719 448:1 2350:1 3227:1 3239:1 #
-0.012261603124474579340486002365651 350:1 611:1 1157:1 2175:1 2884:1 3452:1 #
-0.14843336798397074871580514354719 373:1 448:1 889:1 1124:1 1313:1 2279:1 2785:1 3041:1 3211:1 3227:1 3239:1 3431:1 #
-0.13339265220075838258573242001148 1209:1 2350:1 2779:1 3211:1 3239:1 #
-0.14843336798397074871580514354719 132:1 1233:1 1484:1 1584:1 1735:1 1963:1 2237:1 2298:1 2332:1 2649:1 2712:1 2732:1 2785:1 3135:1 3239:1 3405:1 #
-0.14843336798397074871580514354719 449:1 2666:1 3060:1 3239:1 #
-0.14843336798397074871580514354719 2785:1 3405:1 #
0.14843336798397074871580514354719 21:1 23:1 238:1 299:1 412:1 749:1 1209:1 1271:1 1725:1 2020:1 2093:1 2094:1 2119:1 2216:1 2453:1 2649:1 2973:1 3060:1 3137:1 3196:1 #
0.14843336798397074871580514354719 118:1 748:1 1030:1 1258:1 1909:1 2216:1 2383:1 2678:1 2717:1 2823:1 3060:1 3274:1 3372:1 3402:1 #
0.14843336798397074871580514354719 299:1 1612:1 2031:1 2628:1 2785:1 3060:1 3105:1 #
-0.13759625966620034343002032528602 1963:1 2350:1 2439:1 2711:1 2779:1 2785:1 2928:1 2948:1 #
-0.14843336798397074871580514354719 266:1 1030:1 1488:1 2282:1 2785:1 3060:1 3205:1 3268:1 #
-0.14843336798397074871580514354719 1247:1 2216:1 3060:1 3205:1 3396:1 #
0.14843336798397074871580514354719 289:1 2175:1 2293:1 3060:1 3605:1 #
0.14843336798397074871580514354719 1994:1 2400:1 2563:1 2779:1 2785:1 #
0.14843336798397074871580514354719 26:1 28:1 704:1 1161:1 1209:1 1484:1 1687:1 1844:1 1866:1 2160:1 2200:1 2772:1 2779:1 3227:1 3263:1 3488:1 3520:1 #
0.14843336798397074871580514354719 1987:1 2666:1 2785:1 #
0.077720244016897033212387668754673 33:1 34:1 41:1 47:1 448:1 475:1 481:1 648:1 788:1 794:1 1090:1 1206:1 1209:1 1233:1 1334:1 1402:1 1413:1 1750:1 1760:1 1963:1 1998:1 2124:1 2160:1 2297:1 2304:1 2403:1 2448:1 2462:1 2516:1 2572:1 2785:1 3088:1 3140:1 3227:1 3233:1 #
-0.14843336798397074871580514354719 41:1 449:1 741:1 1271:1 1963:1 2020:1 2439:1 2785:1 #
-0.14843336798397074871580514354719 118:1 248:1 625:1 754:1 2150:1 2200:1 2466:1 2785:1 3610:1 3611:1 #
-0.010702287369893061924619459546193 96:1 299:1 412:1 1157:1 1207:1 1209:1 1376:1 1576:1 2160:1 2169:1 2200:1 2453:1 2785:1 3060:1 3144:1 3164:1 #
-0.14843336798397074871580514354719 1841:1 2094:1 2160:1 2216:1 2823:1 3205:1 3520:1 #
-0.14843336798397074871580514354719 23:1 1209:1 1307:1 2130:1 2200:1 2350:1 2779:1 #
0.14843336798397074871580514354719 419:1 1293:1 2785:1 2861:1 3060:1 #
0.14843336798397074871580514354719 1994:1 2823:1 3060:1 3205:1 3281:1 3396:1 3473:1 #
0.14843336798397074871580514354719 2216:1 2823:1 3060:1 3205:1 3281:1 3473:1 #
0.14843336798397074871580514354719 2304:1 3060:1 3205:1 #
-0.14843336798397074871580514354719 1521:1 1994:1 2885:1 3060:1 3281:1 3473:1 3520:1 #
0.054341541595373438200411442267068 825:1 2785:1 3239:1 #
-0.14843336798397074871580514354719 806:1 1258:1 3060:1 3473:1 3520:1 3576:1 #
-0.14234012789189640080245169428963 2304:1 2772:1 3060:1 3198:1 3227:1 #
0.072805106683746262374867797007028 21:1 135:1 448:1 2279:1 2785:1 2926:1 #
0.14843336798397074871580514354719 23:1 99:1 448:1 689:1 1527:1 1963:1 2200:1 2785:1 3227:1 #
0.0023204873540329210186705655161177 600:1 1484:1 2020:1 2785:1 3060:1 3239:1 #
0.053596142035084080867957112559452 681:1 726:1 1129:1 1239:1 1484:1 1583:1 1585:1 1658:1 1739:1 1837:1 1963:1 2015:1 2160:1 2200:1 2713:1 2785:1 2951:1 2959:1 #
0.14843336798397074871580514354719 2083:1 2785:1 #
0.14843336798397074871580514354719 449:1 1209:1 1484:1 2020:1 3160:1 3164:1 #
0.14843336798397074871580514354719 2175:1 2998:1 #
-0.0032913602876885714350330136568346 72:1 230:1 441:1 596:1 1206:1 1209:1 1484:1 2515:1 2713:1 2797:1 #
0.056231506165425174104122163498687 26:1 202:1 946:1 1963:1 1994:1 2304:1 2516:1 2785:1 3060:1 3205:1 3334:1 3520:1 #
-0.026288410114677206869115977383444 417:1 719:1 1030:1 1161:1 1195:1 1484:1 1657:1 1961:1 1962:1 1963:1 2160:1 2653:1 2713:1 3209:1 3515:1 #
-0.14843336798397074871580514354719 309:1 528:1 1484:1 1963:1 2175:1 2289:1 2785:1 #
0.14843336798397074871580514354719 746:1 932:1 1195:1 1210:1 1313:1 1563:1 2112:1 2383:1 2950:1 3473:1 3520:1 #
0.14843336798397074871580514354719 405:1 951:1 1612:1 2200:1 2214:1 3473:1 3520:1 #
0.14843336798397074871580514354719 349:1 696:1 715:1 1767:1 1866:1 1963:1 1994:1 2460:1 2655:1 3212:1 3223:1 3520:1 #
0.14843336798397074871580514354719 709:1 778:1 2455:1 3473:1 3520:1 #
0.14799662853399586648350805262453 10:1 749:1 1091:1 1521:1 1615:1 1910:1 1975:1 2020:1 2785:1 3060:1 3343:1 3520:1 3611:1 #
-0.14843336798397074871580514354719 28:1 1209:1 2785:1 3211:1 3239:1 #
-0.14843336798397074871580514354719 47:1 1317:1 2200:1 2216:1 2276:1 2649:1 3205:1 3239:1 3520:1 3605:1 #
-0.044083079258222170049297261584798 967:1 1220:1 2020:1 2112:1 3473:1 3520:1 #
-0.14843336798397074871580514354719 173:1 1866:1 2020:1 3205:1 3259:1 3294:1 3520:1 #
-0.14843336798397074871580514354719 567:1 578:1 1505:1 2314:1 3205:1 3473:1 3520:1 #
0.14843336798397074871580514354719 392:1 449:1 1484:1 1517:1 1822:1 1845:1 2522:1 2541:1 #
0.14843336798397074871580514354719 159:1 309:1 677:1 2124:1 2175:1 3053:1 3211:1 #
0.067971759200700657133076276750216 309:1 528:1 677:1 2124:1 2175:1 3060:1 #
-0.14843336798397074871580514354719 309:1 425:1 677:1 2175:1 2861:1 #
0.14843336798397074871580514354719 2131:1 3205:1 3351:1 3473:1 3520:1 #
-0.011178290557819735295819185694199 238:1 449:1 504:1 579:1 700:1 749:1 1033:1 1209:1 1218:1 1226:1 1258:1 1432:1 1585:1 1632:1 1735:1 2124:1 2160:1 2345:1 2513:1 2539:1 2822:1 2885:1 3146:1 3164:1 3196:1 3205:1 3211:1 3351:1 3515:1 #
-0.14843336798397074871580514354719 1612:1 2124:1 2175:1 2293:1 2433:1 3105:1 3605:1 #
-0.14843336798397074871580514354719 1767:1 2304:1 3239:1 #
0.051549394620866821614679764707034 204:1 1073:1 1593:1 1681:1 1963:1 2200:1 2304:1 2350:1 2425:1 2516:1 2772:1 2785:1 3120:1 3227:1 3312:1 #
0.14843336798397074871580514354719 324:1 2216:1 2751:1 2861:1 #
0.031527668933305261211863523840293 20:1 21:1 126:1 705:1 806:1 810:1 1157:1 1255:1 1258:1 1365:1 1787:1 1792:1 1961:1 1962:1 2133:1 2160:1 2200:1 2785:1 3239:1 3605:1 #
0.14843336798397074871580514354719 503:1 1555:1 2020:1 2713:1 2772:1 3060:1 3227:1 #
0.14843336798397074871580514354719 448:1 1766:1 1866:1 1963:1 2516:1 3227:1 3520:1 #
-0.034133214955594688710949213827917 1767:1 1866:1 1989:1 2884:1 #
-0.10291406909398155555823706208685 20:1 21:1 23:1 26:1 28:1 29:1 203:1 232:1 590:1 694:1 855:1 964:1 1124:1 1133:1 1692:1 1837:1 1888:1 1903:1 1981:1 2396:1 2621:1 2785:1 3002:1 3060:1 3104:1 3152:1 #
-0.14843336798397074871580514354719 29:1 448:1 2200:1 2785:1 3227:1 #
-0.14843336798397074871580514354719 448:1 1866:1 3060:1 3227:1 #
-0.064217002143062029695386172534199 21:1 48:1 448:1 566:1 927:1 931:1 1010:1 1195:1 1363:1 1963:1 1964:1 2201:1 2304:1 2332:1 2779:1 2869:1 3180:1 3227:1 3303:1 3554:1 #
0.097608855454522566730268806622917 175:1 299:1 322:1 419:1 518:1 522:1 548:1 578:1 579:1 592:1 646:1 662:1 719:1 749:1 831:1 1193:1 1207:1 1209:1 1412:1 1442:1 1466:1 1612:1 1632:1 1702:1 1735:1 1786:1 1987:1 2037:1 2160:1 2209:1 2231:1 2276:1 2304:1 2321:1 2349:1 2712:1 2823:1 2953:1 2980:1 3053:1 3086:1 3104:1 3263:1 3351:1 3448:1 3520:1 #
0.14843336798397074871580514354719 134:1 1612:1 1929:1 2785:1 3164:1 #
0.14843336798397074871580514354719 315:1 962:1 1209:1 1539:1 1637:1 2083:1 2175:1 2200:1 2345:1 3041:1 3205:1 #
0.14843336798397074871580514354719 1612:1 1899:1 2785:1 3221:1 #
-0.0090806694832872292266756630851887 33:1 34:1 179:1 412:1 419:1 758:1 924:1 980:1 1064:1 1111:1 1209:1 1258:1 1583:1 1637:1 1803:1 2083:1 2213:1 2216:1 2508:1 3201:1 3223:1 #
-0.14843336798397074871580514354719 1637:1 2785:1 2899:1 #
-0.066696459069919777906676472412073 1484:1 1725:1 1985:1 2109:1 2578:1 2713:1 3221:1 3583:1 #
-0.14843336798397074871580514354719 134:1 1209:1 2083:1 2785:1 #
-0.027768312798800775381691252619021 1822:1 2522:1 2541:1 2785:1 #
-0.09961962521855899366229891711555 225:1 299:1 343:1 670:1 847:1 1080:1 1168:1 1207:1 1228:1 1312:1 1702:1 1725:1 1963:1 2037:1 2109:1 2160:1 2385:1 2408:1 2823:1 2950:1 3090:1 3172:1 3239:1 3473:1 #
0.034215700843174566558868576748864 448:1 654:1 754:1 870:1 1039:1 1205:1 1209:1 1290:1 1484:1 1859:1 2020:1 2091:1 2108:1 2123:1 2130:1 2170:1 2186:1 2649:1 2736:1 2760:1 2779:1 2781:1 2785:1 2979:1 3223:1 3227:1 3239:1 3405:1 3606:1 3611:1 #
0.14843336798397074871580514354719 104:1 448:1 1209:1 2785:1 3227:1 #
-0.14843336798397074871580514354719 25:1 412:1 450:1 1632:1 2200:1 2785:1 2802:1 3053:1 #
0.14843336798397074871580514354719 72:1 226:1 1735:1 1841:1 2037:1 2652:1 2785:1 2897:1 3202:1 #
0.14843336798397074871580514354719 29:1 266:1 2062:1 2785:1 2998:1 3074:1 #
-0.14159907781582106722773062301712 930:1 1197:1 2751:1 2785:1 3310:1 #
0.12715015170820875844981401314726 772:1 829:1 1129:1 1239:1 1308:1 1378:1 1570:1 1902:1 2394:1 2461:1 2539:1 2785:1 3010:1 3108:1 3321:1 #
-0.14843336798397074871580514354719 21:1 83:1 348:1 749:1 1071:1 1191:1 1963:1 2175:1 2200:1 2216:1 2785:1 2861:1 3453:1 3605:1 #
-0.076522834553072710539467493617849 1538:1 1584:1 1612:1 2785:1 3239:1 #
-0.14843336798397074871580514354719 425:1 449:1 1963:1 1994:1 2216:1 2785:1 2823:1 3205:1 3263:1 3520:1 #
-0.14843336798397074871580514354719 21:1 266:1 2785:1 #
-0.14843336798397074871580514354719 1555:1 2020:1 2785:1 #
0.14843336798397074871580514354719 1209:1 1866:1 1993:1 3211:1 3239:1 #
0.14843336798397074871580514354719 448:1 2160:1 2785:1 3227:1 3239:1 #
0.090537493576204858269917963298212 79:1 141:1 625:1 749:1 1124:1 1271:1 1864:1 1866:1 1994:1 2083:1 2284:1 2466:1 2724:1 2772:1 2801:1 3227:1 #
0.14843336798397074871580514354719 448:1 2304:1 2785:1 3227:1 3239:1 #
-0.14843336798397074871580514354719 1866:1 2973:1 3239:1 #
-0.14843336798397074871580514354719 1866:1 1932:1 3239:1 #
-0.14843336798397074871580514354719 252:1 1866:1 2649:1 3120:1 3239:1 #
-0.039977493898321302123743947731782 448:1 681:1 1209:1 2785:1 3211:1 3227:1 3239:1 3604:1 #
-0.14843336798397074871580514354719 448:1 1209:1 1866:1 2861:1 3227:1 #
0.031188527582496482215557165318387 25:1 26:1 29:1 441:1 713:1 1583:1 1787:1 1911:1 1963:1 2216:1 2540:1 2785:1 2885:1 3223:1 3263:1 3605:1 #
0.098764477496975450199201418399753 91:1 449:1 750:1 1157:1 1376:1 1484:1 1649:1 1698:1 1767:1 1960:1 1963:1 1989:1 1994:1 2020:1 2105:1 3060:1 #
0.14843336798397074871580514354719 1751:1 1918:1 2216:1 2785:1 3060:1 #
-0.14843336798397074871580514354719 2666:1 2785:1 2861:1 3060:1 #
0.05892622336676232169816458394962 449:1 1293:1 2861:1 3223:1 #
-0.14843336798397074871580514354719 449:1 609:1 859:1 970:1 1206:1 1788:1 1963:1 2487:1 2785:1 3060:1 3205:1 3573:1 #
-0.14843336798397074871580514354719 122:1 1107:1 2216:1 3205:1 #
-0.14843336798397074871580514354719 23:1 1258:1 1313:1 1583:1 1963:1 2160:1 2785:1 3060:1 3164:1 3239:1 3538:1 #
0.14843336798397074871580514354719 2160:1 2785:1 3239:1 #
0.14843336798397074871580514354719 1209:1 1866:1 2179:1 3211:1 3239:1 #
0.14843336798397074871580514354719 448:1 1866:1 3083:1 #
0.14843336798397074871580514354719 1612:1 1866:1 2214:1 #
0.14843336798397074871580514354719 1840:1 1866:1 #
-0.14843336798397074871580514354719 1866:1 2214:1 3559:1 #
-0.14843336798397074871580514354719 266:1 343:1 749:1 1209:1 1252:1 1258:1 1427:1 1484:1 1866:1 1993:1 2179:1 2640:1 2756:1 2861:1 3146:1 3223:1 3291:1 3384:1 3605:1 #
-0.049482778527531488810264903577263 419:1 448:1 778:1 1866:1 3227:1 #
-0.12583717587909337698448553055641 20:1 29:1 424:1 726:1 1868:1 2256:1 2266:1 2350:1 2479:1 2563:1 3019:1 #
-0.14843336798397074871580514354719 104:1 1866:1 2205:1 3223:1 #
0.14843336798397074871580514354719 448:1 1963:1 2216:1 2279:1 2706:1 2785:1 2885:1 3060:1 3104:1 3239:1 3520:1 #
-0.14843336798397074871580514354719 357:1 425:1 2216:1 3205:1 3239:1 3465:1 3520:1 #
0.14843336798397074871580514354719 818:1 922:1 1735:1 2555:1 2785:1 3403:1 3465:1 #
0.025237595193878525900998965880717 520:1 2590:1 2785:1 3239:1 #
0.090162870985477247542938528113154 21:1 23:1 135:1 449:1 566:1 631:1 646:1 878:1 1055:1 1186:1 1209:1 1484:1 1963:1 1967:1 2010:1 2778:1 2785:1 3028:1 3239:1 3405:1 #
-0.14843336798397074871580514354719 1612:1 2179:1 2785:1 3105:1 3239:1 3611:1 #
-0.14843336798397074871580514354719 1076:1 1612:1 2020:1 2354:1 2779:1 2785:1 3239:1 3611:1 #
-0.14843336798397074871580514354719 348:1 749:1 1484:1 1963:1 2785:1 3239:1 3611:1 #
0.14843336798397074871580514354719 1866:1 2205:1 3205:1 #
0.14843336798397074871580514354719 1786:1 1866:1 2205:1 3205:1 #
0.14843336798397074871580514354719 1866:1 2205:1 3205:1 3229:1 #
0.14843336798397074871580514354719 2205:1 3205:1 3473:1 #
0.14843336798397074871580514354719 3205:1 3396:1 3473:1 #
-0.14843336798397074871580514354719 135:1 709:1 1308:1 2205:1 2747:1 3060:1 3473:1 3520:1 #
-0.14843336798397074871580514354719 1899:1 2216:1 3205:1 3520:1 #
-0.14843336798397074871580514354719 1918:1 2205:1 2216:1 2980:1 3205:1 #
0.12916378137175518747703506505786 749:1 1076:1 1583:1 1775:1 1813:1 1841:1 2145:1 2160:1 2350:1 2779:1 3164:1 3239:1 #
0.071678042702817135189974351305864 69:1 348:1 749:1 1365:1 1554:1 1597:1 1961:1 1962:1 1963:1 2013:1 2159:1 2354:1 2655:1 2785:1 2995:1 3263:1 3351:1 3559:1 3599:1 #
0.14843336798397074871580514354719 208:1 1612:1 2785:1 3604:1 #
0.10777562875551444099286868549825 20:1 29:1 749:1 809:1 835:1 933:1 958:1 1124:1 1151:1 1209:1 1449:1 1796:1 1961:1 1962:1 1994:1 2276:1 2439:1 2503:1 2751:1 2785:1 2875:1 3239:1 #
0.04283140313043407032544962476095 315:1 625:1 1994:1 2047:1 2593:1 2785:1 2926:1 2950:1 #
-0.14843336798397074871580514354719 299:1 472:1 749:1 1963:1 2350:1 2385:1 2785:1 #
-0.023772909813563343484066336941396 1612:1 1841:1 2785:1 2818:1 2995:1 3239:1 #
-0.14843336798397074871580514354719 108:1 118:1 1612:1 2785:1 3239:1 #
-0.14721550716053294349805469209969 1209:1 2785:1 3211:1 3239:1 3281:1 #
0.14843336798397074871580514354719 2216:1 3196:1 3520:1 #
0.14843336798397074871580514354719 21:1 2200:1 2216:1 2861:1 3473:1 3520:1 #
0.14843336798397074871580514354719 3205:1 3211:1 3473:1 3520:1 #
-0.14457386104812350313686408753711 26:1 77:1 749:1 1140:1 1258:1 1293:1 1961:1 1962:1 2216:1 2474:1 3027:1 3205:1 3520:1 #
-0.14843336798397074871580514354719 2885:1 2895:1 3405:1 3473:1 3520:1 #
0.078826561520648930070365167921409 2350:1 2442:1 2779:1 3239:1 #
0.14843336798397074871580514354719 2861:1 3473:1 3520:1 #
0.14843336798397074871580514354719 332:1 1484:1 2785:1 3211:1 3239:1 #
0.14843336798397074871580514354719 266:1 620:1 1209:1 2785:1 3239:1 #
0.028462709022422642834992956295537 719:1 749:1 1229:1 1484:1 1786:1 2785:1 3239:1 #
-0.0075003629884815188610946989911099 746:1 1121:1 2304:1 2420:1 2828:1 3396:1 #
-0.14843336798397074871580514354719 448:1 2304:1 3227:1 #
0.14843336798397074871580514354719 3205:1 3223:1 3473:1 3520:1 #
0.14843336798397074871580514354719 749:1 1612:1 1866:1 1899:1 1975:1 3559:1 3599:1 #
-0.14843336798397074871580514354719 2304:1 2823:1 2885:1 3060:1 3520:1 #
-0.14843336798397074871580514354719 1866:1 2205:1 3205:1 3396:1 3559:1 #
0.0060219434326266307877517647284549 705:1 857:1 1792:1 2785:1 3239:1 #
0.00083506179707440539999874218324294 1484:1 2760:1 2785:1 3164:1 3239:1 #
-0.14843336798397074871580514354719 1866:1 3559:1 3599:1 #
0.14843336798397074871580514354719 2785:1 3120:1 3211:1 #
0.14843336798397074871580514354719 1209:1 2160:1 2785:1 3164:1 #
0.14843336798397074871580514354719 315:1 1209:1 1530:1 1687:1 2785:1 3611:1 #
-0.14843336798397074871580514354719 20:1 208:1 1994:1 2160:1 2348:1 2785:1 3164:1 3547:1 #
-0.14843336798397074871580514354719 21:1 2200:1 2304:1 2785:1 3223:1 #
-0.14843336798397074871580514354719 825:1 2160:1 2785:1 3164:1 #
-0.14843336798397074871580514354719 1282:1 1687:1 2785:1 #
0.14843336798397074871580514354719 1336:1 1963:1 2376:1 2713:1 3473:1 3559:1 3599:1 #
-0.0045807933754966959072341126102401 419:1 825:1 2160:1 2666:1 2785:1 3060:1 3083:1 3164:1 3239:1 #
-0.14843336798397074871580514354719 1209:1 2861:1 3473:1 #
-0.010713365770455540379457737287794 389:1 589:1 1209:1 1963:1 2086:1 2160:1 2175:1 2669:1 2778:1 #
-0.12309107655502600497943177515481 5:1 2260:1 2332:1 2389:1 3060:1 3473:1 3556:1 #
0.14843336798397074871580514354719 135:1 174:1 531:1 751:1 1866:1 2160:1 2785:1 #
-0.14843336798397074871580514354719 200:1 2385:1 2785:1 #
0.034020649580968592706753383936302 103:1 143:1 204:1 449:1 480:1 682:1 750:1 788:1 1230:1 1254:1 1258:1 1313:1 1484:1 1638:1 1750:1 1841:1 2435:1 2746:1 2833:1 3239:1 3317:1 #
0.14843336798397074871580514354719 448:1 449:1 1220:1 1841:1 1899:1 3227:1 #
-0.11061709777088045425497142559834 273:1 432:1 448:1 1484:1 1866:1 1963:1 2785:1 3227:1 3520:1 #
-0.14843336798397074871580514354719 448:1 2785:1 3164:1 3227:1 #
-0.090785952812147185930768955586245 448:1 1899:1 2666:1 2785:1 3164:1 3227:1 3326:1 #
-0.051935289401271018949746149928615 29:1 448:1 1967:1 2568:1 2785:1 3060:1 3227:1 #
-0.14843336798397074871580514354719 448:1 983:1 2785:1 3227:1 3599:1 #
0.14843336798397074871580514354719 553:1 2205:1 2304:1 3060:1 #
0.12171515357181945937714573346966 23:1 1766:1 2200:1 2216:1 2823:1 3229:1 3281:1 3396:1 3473:1 #
0.12364960528213149448806262853395 170:1 299:1 345:1 394:1 419:1 852:1 1142:1 1191:1 1309:1 1487:1 1607:1 1840:1 1909:1 1963:1 2160:1 2170:1 2220:1 2304:1 2399:1 2591:1 2812:1 3060:1 3278:1 3385:1 #
-0.14843336798397074871580514354719 368:1 579:1 1106:1 1486:1 1607:1 1702:1 1775:1 1841:1 1918:1 2216:1 2680:1 3239:1 3421:1 #
-0.14843336798397074871580514354719 21:1 47:1 2200:1 2304:1 2713:1 3239:1 #
-0.14843336798397074871580514354719 77:1 441:1 449:1 993:1 1612:1 2200:1 3239:1 #
0.14843336798397074871580514354719 1333:1 2778:1 2785:1 2897:1 #
-0.14843336798397074871580514354719 1430:1 1963:1 2216:1 2304:1 2979:1 3205:1 3239:1 3520:1 #
0.14843336798397074871580514354719 448:1 1307:1 2785:1 3227:1 #
0.14843336798397074871580514354719 234:1 448:1 2785:1 3227:1 #
0.14843336798397074871580514354719 448:1 2785:1 2926:1 3227:1 #
0.14843336798397074871580514354719 108:1 448:1 1963:1 2785:1 3164:1 3227:1 3239:1 #
0.14843336798397074871580514354719 448:1 1612:1 2705:1 2785:1 3227:1 3263:1 #
-0.14843336798397074871580514354719 448:1 1161:1 1484:1 1963:1 2350:1 2785:1 3060:1 3227:1 #
-0.14843336798397074871580514354719 425:1 1841:1 2785:1 3239:1 3520:1 #
-0.14843336798397074871580514354719 448:1 2160:1 2785:1 3227:1 #
-0.14843336798397074871580514354719 448:1 1866:1 1963:1 2785:1 3227:1 #
-0.14843336798397074871580514354719 2109:1 3473:1 #
0.14843336798397074871580514354719 2200:1 2216:1 2861:1 3473:1 3598:1 #
0.091634199975627481093987114491028 266:1 1191:1 1963:1 2056:1 2175:1 3239:1 3618:1 #
0.14843336798397074871580514354719 2304:1 2388:1 3205:1 3520:1 #
-0.14843336798397074871580514354719 1055:1 2216:1 2304:1 2861:1 3066:1 3205:1 #
-0.13611472897689777528107413218095 80:1 119:1 238:1 266:1 340:1 419:1 919:1 1432:1 1803:1 1994:1 2175:1 2178:1 2821:1 3622:1 #
-0.14843336798397074871580514354719 749:1 2094:1 2216:1 2973:1 3205:1 3520:1 #
-0.14843336798397074871580514354719 1786:1 2216:1 3205:1 3520:1 #
-0.14843336798397074871580514354719 749:1 1767:1 1963:1 1994:1 2182:1 2216:1 3205:1 3520:1 #
0.14843336798397074871580514354719 448:1 1963:1 2785:1 3227:1 3239:1 #
0.14843336798397074871580514354719 448:1 1484:1 2785:1 3227:1 3239:1 #
0.13571061449771276707920719672984 20:1 448:1 1228:1 1764:1 1952:1 2785:1 3227:1 3239:1 #
0.07556617047538585763000185124838 412:1 448:1 2515:1 2785:1 3227:1 3239:1 #
0.14843336798397074871580514354719 448:1 2083:1 2785:1 3060:1 3227:1 #
-0.14843336798397074871580514354719 299:1 350:1 883:1 2785:1 3060:1 3239:1 #
-0.14843336798397074871580514354719 448:1 2785:1 3227:1 #
-0.14843336798397074871580514354719 174:1 1841:1 2785:1 3060:1 #
0.14843336798397074871580514354719 2350:1 3205:1 3520:1 #
0.14843336798397074871580514354719 28:1 491:1 1866:1 3205:1 3520:1 #
0.14843336798397074871580514354719 1866:1 3205:1 3520:1 #
-0.14843336798397074871580514354719 1548:1 1787:1 2083:1 2276:1 2692:1 3144:1 3473:1 3520:1 #
-0.14843336798397074871580514354719 1191:1 1612:1 2388:1 2785:1 3239:1 #
-0.14843336798397074871580514354719 1787:1 2216:1 2276:1 2692:1 3205:1 3239:1 3520:1 #
0.14843336798397074871580514354719 47:1 93:1 1206:1 1460:1 1573:1 1736:1 1963:1 2235:1 2304:1 2656:1 2785:1 2975:1 #
0.14843336798397074871580514354719 1871:1 2216:1 2785:1 3060:1 3239:1 #
-0.14843336798397074871580514354719 101:1 343:1 1206:1 1612:1 1813:1 1866:1 1963:1 2160:1 2785:1 2823:1 3108:1 3239:1 3346:1 #
-0.14843336798397074871580514354719 531:1 600:1 1313:1 1484:1 1698:1 1963:1 2304:1 2396:1 2785:1 2885:1 3520:1 #
-0.13259075970218522910748504273215 1352:1 1515:1 1612:1 1767:1 1866:1 1963:1 1989:1 2785:1 3239:1 #
-0.14843336798397074871580514354719 1612:1 2388:1 2785:1 3239:1 #
-0.14843336798397074871580514354719 338:1 1206:1 1963:1 2179:1 2304:1 2979:1 3104:1 3239:1 3302:1 #
0.14843336798397074871580514354719 187:1 2216:1 2898:1 3060:1 #
0.14843336798397074871580514354719 2216:1 2861:1 3520:1 #
0.14843336798397074871580514354719 161:1 671:1 980:1 2216:1 3520:1 #
0.14843336798397074871580514354719 2216:1 2861:1 3223:1 #
-0.14843336798397074871580514354719 705:1 2304:1 #
-0.14098805797998614774968473284389 2214:1 2216:1 2951:1 3060:1 #
-0.14843336798397074871580514354719 1209:1 2216:1 2861:1 3520:1 #
-0.13871013376516275195093896854814 394:1 1418:1 1617:1 2160:1 2216:1 2823:1 3060:1 #
-0.14843336798397074871580514354719 1209:1 2216:1 2861:1 #
0.016359937348044296251403650899192 21:1 441:1 1195:1 1206:1 1866:1 1963:1 2785:1 3239:1 #
-0.14843336798397074871580514354719 1871:1 2160:1 2785:1 3060:1 #
-0.14843336798397074871580514354719 1271:1 1841:1 2699:1 2785:1 3060:1 #
-0.14843336798397074871580514354719 2785:1 3060:1 3281:1 #
-0.14843336798397074871580514354719 749:1 1866:1 2020:1 2244:1 3196:1 3242:1 #
0.14843336798397074871580514354719 2304:1 3205:1 #
0.14843336798397074871580514354719 1308:1 2345:1 2861:1 3392:1 #
0.038873293072868214670378961272945 449:1 1055:1 1484:1 1574:1 2886:1 2921:1 3239:1 3538:1 #
0.14843336798397074871580514354719 578:1 685:1 3239:1 3473:1 #
0.14843336798397074871580514354719 23:1 2304:1 3205:1 3520:1 #
-0.14843336798397074871580514354719 2101:1 2304:1 3239:1 #
0.14843336798397074871580514354719 1217:1 1841:1 1871:1 2020:1 2785:1 3060:1 #
0.14843336798397074871580514354719 266:1 1430:1 2785:1 3060:1 3326:1 #
0.14332238602641186875352730112354 15:1 709:1 931:1 1050:1 1545:1 1961:1 1962:1 1963:1 2160:1 2205:1 2566:1 2713:1 2785:1 2920:1 3164:1 3377:1 3608:1 #
0.14843336798397074871580514354719 2785:1 2925:1 3060:1 #
-0.030911037821895293725704689791201 20:1 21:1 23:1 29:1 449:1 924:1 1314:1 1421:1 1544:1 1637:1 1961:1 1962:1 2310:1 2412:1 2439:1 2596:1 3211:1 #
-0.14843336798397074871580514354719 751:1 2691:1 3473:1 3564:1 #
-0.042582251078701338631304906812147 206:1 625:1 685:1 871:1 1030:1 1258:1 1993:1 2037:1 2160:1 2216:1 2241:1 2818:1 2864:1 2979:1 2988:1 3170:1 3239:1 #
-0.14843336798397074871580514354719 2056:1 3392:1 #
-0.14843336798397074871580514354719 1993:1 3473:1 #
0.14843336798397074871580514354719 1363:1 1866:1 1963:1 2216:1 2785:1 3239:1 #
0.14843336798397074871580514354719 2216:1 3060:1 3196:1 #
0.14843336798397074871580514354719 238:1 749:1 1963:1 2304:1 2785:1 3554:1 #
-0.14843336798397074871580514354719 54:1 749:1 1030:1 1963:1 2216:1 2219:1 3239:1 3560:1 #
0.14843336798397074871580514354719 29:1 1209:1 1600:1 1698:1 2785:1 2872:1 3060:1 #
0.14843336798397074871580514354719 20:1 29:1 249:1 1124:1 2012:1 2200:1 2350:1 2779:1 2869:1 3303:1 #
0.14843336798397074871580514354719 11:1 1314:1 2350:1 2631:1 2826:1 #
0.13207301364334472770778461381269 204:1 214:1 975:1 1427:1 1430:1 1608:1 2200:1 2713:1 3060:1 3605:1 #
0.14843336798397074871580514354719 20:1 2108:1 2713:1 2779:1 3164:1 #
-0.14843336798397074871580514354719 2779:1 2785:1 3405:1 #
-0.14843336798397074871580514354719 700:1 1228:1 1476:1 1890:1 1903:1 2785:1 2869:1 3060:1 #
-0.014961246271481210001752515381668 1295:1 2350:1 2779:1 #
-0.14843336798397074871580514354719 266:1 419:1 1060:1 1866:1 1975:1 2350:1 #
-0.14843336798397074871580514354719 28:1 709:1 1242:1 2175:1 3060:1 3528:1 #
-0.14843336798397074871580514354719 1961:1 1962:1 2304:1 3520:1 #
0.14843336798397074871580514354719 266:1 531:1 2785:1 3239:1 #
0.14843336798397074871580514354719 201:1 272:1 2785:1 2803:1 3221:1 #
0.14843336798397074871580514354719 1337:1 1866:1 2785:1 #
-0.14843336798397074871580514354719 2785:1 3060:1 #
-0.074417839384485498510635181901307 348:1 749:1 1866:1 1963:1 1975:1 2713:1 2802:1 3037:1 3405:1 #
-0.080078133291463612919436343418056 127:1 1209:1 1866:1 1909:1 2205:1 2785:1 3205:1 #
0.050475190387756552201636850440991 1495:1 2785:1 3239:1 #
-0.14843336798397074871580514354719 480:1 1872:1 2785:1 3454:1 #
0.14843336798397074871580514354719 448:1 715:1 1801:1 1994:1 2304:1 3164:1 3281:1 3405:1 #
0.14843336798397074871580514354719 119:1 749:1 1258:1 2200:1 2260:1 2433:1 2785:1 3106:1 3194:1 #
0.13178751826334442198707108673261 257:1 340:1 1027:1 2748:1 2785:1 3326:1 #
0.14843336798397074871580514354719 2114:1 2785:1 3326:1 #
0.14843336798397074871580514354719 1548:1 2785:1 3273:1 #
0.14843336798397074871580514354719 299:1 324:1 1258:1 2785:1 3239:1 #
-0.14843336798397074871580514354719 174:1 2785:1 3164:1 #
-0.14843336798397074871580514354719 2785:1 3164:1 #
-0.14843336798397074871580514354719 2785:1 3281:1 3478:1 #
-0.14843336798397074871580514354719 2785:1 3281:1 #
-0.14843336798397074871580514354719 2183:1 2785:1 3281:1 #
0.14843336798397074871580514354719 2:1 9:1 449:1 454:1 472:1 1030:1 1124:1 1352:1 1430:1 1963:1 2746:1 3473:1 #
8.6563099944169223935903911826273e-09 29:1 449:1 625:1 1333:1 1677:1 2200:1 2779:1 2897:1 #
0.14843336798397074871580514354719 289:1 394:1 812:1 1820:1 1963:1 2304:1 2364:1 3060:1 #
0.14843336798397074871580514354719 449:1 2316:1 #
-0.14843336798397074871580514354719 29:1 449:1 2304:1 2772:1 3227:1 #
-0.14843336798397074871580514354719 449:1 2628:1 3060:1 #
-0.14843336798397074871580514354719 174:1 449:1 3060:1 #
-0.14843336798397074871580514354719 449:1 611:1 2884:1 3146:1 #
0.14843336798397074871580514354719 946:1 2160:1 2785:1 3164:1 #
0.14843336798397074871580514354719 285:1 2785:1 3164:1 3227:1 3239:1 #
0.14843336798397074871580514354719 266:1 1584:1 2785:1 3036:1 3239:1 #
0.14843336798397074871580514354719 2785:1 3239:1 3346:1 #
-0.087500183299615300058782452197192 419:1 625:1 685:1 838:1 1167:1 1258:1 1367:1 1854:1 1907:1 1963:1 2214:1 2216:1 2488:1 2586:1 3090:1 3239:1 #
-0.029813282898740415399752023972724 23:1 1209:1 1866:1 2785:1 3211:1 3239:1 #
-0.14843336798397074871580514354719 1282:1 2216:1 3205:1 3239:1 #
0.088638696366471592114066879730672 112:1 449:1 985:1 1782:1 3060:1 3529:1 #
0.14843336798397074871580514354719 449:1 861:1 #
0.14843336798397074871580514354719 449:1 465:1 3060:1 3605:1 #
0.14843336798397074871580514354719 243:1 412:1 419:1 449:1 2460:1 2995:1 3071:1 #
0.14843336798397074871580514354719 1359:1 1800:1 2175:1 3060:1 #
-0.14843336798397074871580514354719 692:1 2128:1 2175:1 3060:1 3605:1 #
-0.14843336798397074871580514354719 2175:1 3605:1 #
-0.14843336798397074871580514354719 266:1 2785:1 3060:1 #
-0.14843336798397074871580514354719 419:1 528:1 705:1 1293:1 2175:1 2528:1 3426:1 3605:1 #
0.14843336798397074871580514354719 448:1 661:1 1440:1 1481:1 1484:1 1650:1 1866:1 2020:1 2785:1 3164:1 3227:1 3606:1 #
0.14843336798397074871580514354719 2216:1 3196:1 #
0.083459705037281048389807835974352 603:1 1124:1 1195:1 1866:1 2020:1 2048:1 2105:1 2130:1 2200:1 3031:1 3146:1 3177:1 3205:1 3454:1 3611:1 #
-0.14843336798397074871580514354719 448:1 449:1 3227:1 #
-0.14843336798397074871580514354719 1295:1 1484:1 2713:1 #
-0.14843336798397074871580514354719 448:1 778:1 1001:1 1866:1 3227:1 #
0.019125620748757708039500258223597 1206:1 1271:1 2175:1 2293:1 2649:1 2710:1 3060:1 3239:1 #
0.14843336798397074871580514354719 266:1 2785:1 3196:1 #
-0.016034155267791807414345939264422 1285:1 2007:1 2160:1 2179:1 2631:1 2785:1 2802:1 2810:1 3475:1 #
0.14843336798397074871580514354719 677:1 2175:1 3605:1 #
0.14843336798397074871580514354719 962:1 2175:1 2736:1 2820:1 3060:1 #
-0.14843336798397074871580514354719 1210:1 2175:1 2666:1 3060:1 3239:1 #
-0.14843336798397074871580514354719 1124:1 2200:1 2785:1 #
-0.14843336798397074871580514354719 20:1 893:1 1005:1 2130:1 2785:1 #
-0.14843336798397074871580514354719 1994:1 2563:1 2779:1 2785:1 #
-0.14843336798397074871580514354719 1353:1 2785:1 #
0.074303348323378759499036050328868 424:1 1993:1 2214:1 2861:1 3392:1 #
0.14843336798397074871580514354719 2124:1 2128:1 2175:1 3060:1 #
0.14843336798397074871580514354719 102:1 545:1 2131:1 2145:1 2216:1 2445:1 #
-0.14843336798397074871580514354719 266:1 2785:1 3559:1 3599:1 #
-0.095440910152002567112816677763476 412:1 424:1 2216:1 2383:1 2823:1 3135:1 3599:1 #
-0.14843336798397074871580514354719 432:1 2216:1 2779:1 3239:1 3520:1 #
-0.14843336798397074871580514354719 667:1 2175:1 2519:1 3223:1 3449:1 #
0.14843336798397074871580514354719 28:1 2785:1 3120:1 #
0.14843336798397074871580514354719 9:1 1124:1 1816:1 1994:1 2374:1 2785:1 2885:1 3120:1 #
0.14843336798397074871580514354719 20:1 1353:1 2200:1 2290:1 2785:1 #
0.14843336798397074871580514354719 21:1 1698:1 2785:1 3211:1 #
-0.14843336798397074871580514354719 20:1 2785:1 3060:1 #
-0.14843336798397074871580514354719 1555:1 2020:1 2785:1 3060:1 #
-0.14843336798397074871580514354719 2785:1 3060:1 3611:1 #
-0.14843336798397074871580514354719 1771:1 2785:1 3060:1 3316:1 #
-0.14843336798397074871580514354719 1075:1 1994:1 2785:1 3060:1 #
0.14843336798397074871580514354719 749:1 1209:1 2216:1 3263:1 3520:1 #
0.047737291627391688353387877441492 449:1 1997:1 2678:1 2745:1 2779:1 3133:1 3239:1 3465:1 #
0.14843336798397074871580514354719 472:1 1277:1 1521:1 1820:1 1841:1 1859:1 2216:1 2517:1 2794:1 2823:1 3452:1 3520:1 #
0.14843336798397074871580514354719 2785:1 2850:1 3060:1 3625:1 #
0.14843336798397074871580514354719 1650:1 2785:1 3060:1 #
0.14843336798397074871580514354719 1313:1 2785:1 3060:1 3239:1 #
0.14843336798397074871580514354719 2083:1 2785:1 3060:1 #
-0.14843336798397074871580514354719 2785:1 3473:1 #
0.14843336798397074871580514354719 563:1 1786:1 2175:1 3205:1 3227:1 3520:1 #
-0.011540961896156727573004019404834 309:1 1454:1 2175:1 2385:1 2411:1 2414:1 2898:1 3016:1 3045:1 3211:1 #
-0.14843336798397074871580514354719 449:1 2020:1 3060:1 3164:1 #
-0.14843336798397074871580514354719 241:1 1837:1 2175:1 2396:1 3111:1 3621:1 #
-0.14843336798397074871580514354719 1909:1 2160:1 2350:1 #
0.14843336798397074871580514354719 266:1 2640:1 2785:1 3223:1 #
0.14843336798397074871580514354719 549:1 2785:1 2951:1 3223:1 #
0.14843336798397074871580514354719 266:1 952:1 2785:1 #
-0.14843336798397074871580514354719 263:1 266:1 2785:1 3223:1 #
-0.14843336798397074871580514354719 266:1 1030:1 2785:1 3205:1 #
-0.14843336798397074871580514354719 2785:1 3223:1 #
-0.14843336798397074871580514354719 266:1 2785:1 #
0.14843336798397074871580514354719 404:1 557:1 2175:1 3060:1 #
0.14843336798397074871580514354719 20:1 1994:1 2823:1 3060:1 3205:1 3281:1 3473:1 3520:1 #
0.14843336798397074871580514354719 289:1 2175:1 3449:1 3605:1 #
0.14843336798397074871580514354719 462:1 499:1 825:1 2216:1 2861:1 3060:1 3473:1 3599:1 #
0.14843336798397074871580514354719 223:1 2175:1 #
-0.14843336798397074871580514354719 2666:1 2861:1 3060:1 3473:1 3520:1 #
-0.14843336798397074871580514354719 319:1 673:1 749:1 2031:1 2823:1 3060:1 3473:1 3474:1 3528:1 #
-0.14843336798397074871580514354719 2666:1 2861:1 3060:1 3473:1 #
-0.14843336798397074871580514354719 2885:1 3060:1 3473:1 3520:1 #
0.0038165779284379786583103477681789 449:1 531:1 3239:1 #
0.14843336798397074871580514354719 171:1 266:1 1307:1 2785:1 #
0.14843336798397074871580514354719 266:1 432:1 2785:1 3239:1 #
0.14843336798397074871580514354719 1555:1 2020:1 2785:1 3223:1 3239:1 #
-0.14843336798397074871580514354719 1545:1 1612:1 2175:1 3239:1 3605:1 #
-0.14843336798397074871580514354719 425:1 977:1 1099:1 1993:1 2175:1 2330:1 3239:1 #
-0.14843336798397074871580514354719 1612:1 2785:1 2823:1 3039:1 3239:1 3515:1 #
0.14843336798397074871580514354719 3060:1 3205:1 3473:1 3520:1 #
0.14843336798397074871580514354719 2823:1 3060:1 3205:1 3473:1 3520:1 #
0.14843336798397074871580514354719 3205:1 3473:1 3520:1 #
-0.14843336798397074871580514354719 1030:1 2785:1 3060:1 3205:1 3520:1 #
0.14843336798397074871580514354719 102:1 234:1 1612:1 2214:1 2779:1 2785:1 2857:1 3239:1 #
0.14843336798397074871580514354719 1612:1 2785:1 3263:1 3559:1 3599:1 #
0.14843336798397074871580514354719 503:1 2304:1 3060:1 #
-0.14843336798397074871580514354719 403:1 578:1 1057:1 1207:1 2020:1 2304:1 2979:1 3196:1 #
-0.14843336798397074871580514354719 319:1 432:1 1866:1 2160:1 3239:1 #
0.14843336798397074871580514354719 391:1 1308:1 2047:1 2279:1 2785:1 2791:1 #
0.14843336798397074871580514354719 1250:1 2785:1 #
0.14843336798397074871580514354719 21:1 1450:1 2785:1 2852:1 2899:1 #
-0.14843336798397074871580514354719 266:1 1209:1 2785:1 3196:1 #
-0.12731790932550421380220484479651 266:1 274:1 306:1 595:1 1105:1 1326:1 1468:1 2661:1 2785:1 #
-0.14843336798397074871580514354719 2539:1 2785:1 #
0.14843336798397074871580514354719 309:1 373:1 528:1 2175:1 3239:1 #
0.14843336798397074871580514354719 2175:1 2914:1 #
0.080588769064891721538579361094889 29:1 578:1 1854:1 2200:1 2340:1 2453:1 2595:1 2785:1 3239:1 3351:1 #
0.14843336798397074871580514354719 2094:1 2861:1 2973:1 3473:1 #
-0.14843336798397074871580514354719 1620:1 2175:1 2530:1 3156:1 #
-0.14843336798397074871580514354719 862:1 1800:1 2112:1 2175:1 2303:1 #
-0.14843336798397074871580514354719 289:1 1209:1 2175:1 3605:1 #
0.14843336798397074871580514354719 266:1 2083:1 2785:1 #
0.14843336798397074871580514354719 1261:1 2785:1 #
0.14843336798397074871580514354719 2785:1 3338:1 #
-0.14843336798397074871580514354719 1315:1 1612:1 2072:1 2595:1 2785:1 3239:1 #
-0.14843336798397074871580514354719 1612:1 2476:1 2785:1 3239:1 #
-0.14843336798397074871580514354719 690:1 1612:1 2785:1 3239:1 #
-0.14843336798397074871580514354719 1612:1 2785:1 3239:1 #
-0.14843336798397074871580514354719 2200:1 2785:1 #
0.14843336798397074871580514354719 2175:1 2998:1 3605:1 #
0.14843336798397074871580514354719 2175:1 2998:1 3060:1 3605:1 #
0.14843336798397074871580514354719 2124:1 2175:1 2233:1 3223:1 3605:1 #
-0.087920413784972548110197010373668 1077:1 3223:1 3251:1 3473:1 3599:1 #
-0.093345887305980451698061983734078 2175:1 3211:1 3605:1 #
-0.14843336798397074871580514354719 1209:1 2785:1 3211:1 3239:1 #
0.14843336798397074871580514354719 1057:1 2785:1 3239:1 3547:1 #
0.14843336798397074871580514354719 620:1 1209:1 1326:1 2785:1 3205:1 3239:1 3291:1 #
0.14843336798397074871580514354719 69:1 702:1 2304:1 2785:1 3239:1 #
0.14843336798397074871580514354719 800:1 2785:1 #
0.14843336798397074871580514354719 3196:1 3473:1 3520:1 #
0.14843336798397074871580514354719 343:1 840:1 #
0.14843336798397074871580514354719 449:1 3196:1 #
0.14843336798397074871580514354719 343:1 2925:1 3223:1 #
0.14843336798397074871580514354719 343:1 1801:1 #
0.14843336798397074871580514354719 1017:1 2785:1 3060:1 3473:1 #
0.14843336798397074871580514354719 749:1 1266:1 2785:1 #
0.14843336798397074871580514354719 104:1 2785:1 #
0.14843336798397074871580514354719 1628:1 2785:1 #
-0.14843336798397074871580514354719 2268:1 2785:1 #
-0.03646886246963781941232696226507 1157:1 2109:1 2735:1 3473:1 #
-0.14843336798397074871580514354719 2779:1 2785:1 #
-0.14843336798397074871580514354719 324:1 2785:1 #
0.14843336798397074871580514354719 1866:1 3060:1 3205:1 3599:1 #
-0.14843336798397074871580514354719 2785:1 #
-0.14843336798397074871580514354719 1611:1 2785:1 #
-0.14843336798397074871580514354719 2620:1 2785:1 #
-0.14843336798397074871580514354719 664:1 2785:1 #
0.14843336798397074871580514354719 1293:1 2785:1 3138:1 3196:1 #
-0.14843336798397074871580514354719 20:1 2785:1 #
-0.14843336798397074871580514354719 979:1 1523:1 1536:1 2785:1 #
0.052670683687596059341373688766907 74:1 394:1 436:1 449:1 566:1 641:1 852:1 858:1 952:1 1142:1 1195:1 1928:1 1963:1 2304:1 2376:1 2505:1 2692:1 2708:1 2713:1 2801:1 3154:1 #
0.14843336798397074871580514354719 685:1 1484:1 1961:1 1962:1 2785:1 3239:1 #
0.14843336798397074871580514354719 28:1 1333:1 2785:1 #
0.020714417370024856834831439300615 28:1 1427:1 2130:1 2200:1 2517:1 2785:1 3326:1 3514:1 3596:1 3605:1 #
-0.14843336798397074871580514354719 1484:1 2457:1 3473:1 #
-0.14843336798397074871580514354719 1280:1 2020:1 2175:1 3351:1 3520:1 3528:1 #
0.14843336798397074871580514354719 825:1 1859:1 2200:1 2236:1 2493:1 2785:1 3339:1 3348:1 #
0.14843336798397074871580514354719 825:1 2785:1 3164:1 3326:1 #
0.088578064590463051475310862770129 1583:1 2160:1 2785:1 3239:1 #
0.14843336798397074871580514354719 1698:1 2785:1 3211:1 #
-0.14843336798397074871580514354719 23:1 740:1 1767:1 1918:1 2200:1 2785:1 #
-0.14843336798397074871580514354719 1583:1 2160:1 2785:1 #
-0.14843336798397074871580514354719 2785:1 3086:1 3164:1 #
-0.14843336798397074871580514354719 1290:1 2200:1 2785:1 #
0.14843336798397074871580514354719 705:1 1866:1 3205:1 3520:1 #
0.14843336798397074871580514354719 457:1 677:1 1032:1 1591:1 1735:1 2175:1 2646:1 #
0.14843336798397074871580514354719 677:1 1547:1 2175:1 #
-0.14843336798397074871580514354719 350:1 677:1 2175:1 #
-0.019062976206390334216189685889731 183:1 190:1 1076:1 1209:1 1766:1 2020:1 2130:1 2160:1 2654:1 2713:1 2810:1 2979:1 3599:1 #
0.050479786813268180678537788708127 2398:1 2785:1 3239:1 #
0.052333438320592028103472870270707 234:1 2160:1 2200:1 2785:1 2925:1 3164:1 #
0.14843336798397074871580514354719 1484:1 2290:1 2785:1 #
-0.14843336798397074871580514354719 770:1 1220:1 2160:1 2785:1 3164:1 #
-0.14843336798397074871580514354719 2160:1 2785:1 3164:1 #
-0.078062362609258889589725072255533 266:1 1209:1 2785:1 3211:1 3239:1 #
-0.14843336798397074871580514354719 2160:1 2785:1 #
-0.14843336798397074871580514354719 889:1 2785:1 3164:1 #
0.14843336798397074871580514354719 1766:1 2216:1 3229:1 #
0.12320412306325845275267738543334 419:1 528:1 749:1 2128:1 2175:1 3035:1 3239:1 #
0.13619430710472554824086444114073 404:1 1766:1 2175:1 2179:1 3223:1 #
0.14843336798397074871580514354719 244:1 749:1 2175:1 2233:1 3083:1 #
0.14843336798397074871580514354719 289:1 2175:1 #
0.14843336798397074871580514354719 2460:1 2785:1 #
-0.14843336798397074871580514354719 309:1 528:1 924:1 2175:1 #
0.14843336798397074871580514354719 2160:1 2785:1 3164:1 3239:1 #
0.14843336798397074871580514354719 2083:1 2785:1 3164:1 #
0.11572046464059677906011103232231 439:1 1510:1 1649:1 2052:1 2165:1 2785:1 3164:1 3223:1 3321:1 3529:1 #
0.14843336798397074871580514354719 840:1 2785:1 #
0.14843336798397074871580514354719 29:1 341:1 412:1 1076:1 1800:1 2160:1 2175:1 2998:1 #
0.14843336798397074871580514354719 266:1 1994:1 2160:1 2304:1 2823:1 2861:1 3060:1 3520:1 #
-0.14843336798397074871580514354719 2304:1 3060:1 #
-0.099652426536597116246696259622695 2304:1 2467:1 3060:1 #
0.14843336798397074871580514354719 1735:1 2649:1 2785:1 3223:1 3239:1 #
0.1434275257061373154421346498566 832:1 2785:1 3086:1 3239:1 3611:1 #
0.14843336798397074871580514354719 289:1 1899:1 2304:1 3125:1 #
0.14843336798397074871580514354719 1307:1 1484:1 2785:1 #
0.14843336798397074871580514354719 1307:1 2785:1 3281:1 #
0.14843336798397074871580514354719 1918:1 2785:1 3060:1 3120:1 #
0.14843336798397074871580514354719 2785:1 3060:1 3120:1 #
0.14843336798397074871580514354719 266:1 1993:1 2083:1 3392:1 #
0.076286984614761618739287030166452 266:1 419:1 691:1 778:1 1583:1 1792:1 2175:1 2446:1 2861:1 #
0.047780627581461093678072415968927 2330:1 2785:1 3239:1 #
-0.068771113028695873836682039836887 266:1 350:1 412:1 2785:1 2823:1 2931:1 3060:1 3599:1 #
-0.14843336798397074871580514354719 448:1 1871:1 2785:1 3060:1 3227:1 #
-0.14843336798397074871580514354719 363:1 449:1 1430:1 1612:1 1963:1 2785:1 2995:1 3239:1 #
-0.14843336798397074871580514354719 1191:1 1811:1 1963:1 2497:1 2666:1 2713:1 2785:1 3060:1 3239:1 #
-0.12297312388304332264610252423154 134:1 296:1 350:1 1963:1 2083:1 2237:1 2785:1 2862:1 3060:1 #
0.11070102892143372785849209094522 47:1 203:1 299:1 324:1 328:1 389:1 611:1 1060:1 1209:1 1258:1 1285:1 1326:1 1439:1 1469:1 1577:1 1584:1 1594:1 1629:1 1698:1 1747:1 1831:1 1911:1 2309:1 2502:1 2503:1 2661:1 2785:1 3211:1 3288:1 #
0.14843336798397074871580514354719 78:1 448:1 579:1 645:1 975:1 1767:1 1961:1 1962:1 1994:1 2263:1 2583:1 3473:1 3520:1 #
0.14843336798397074871580514354719 671:1 1866:1 3520:1 #
0.14843336798397074871580514354719 1866:1 1990:1 1994:1 2772:1 3227:1 3263:1 #
0.14843336798397074871580514354719 20:1 122:1 1206:1 1767:1 1866:1 1961:1 1962:1 1963:1 1987:1 2032:1 2216:1 2504:1 2713:1 3060:1 3317:1 3321:1 3606:1 #
-0.14843336798397074871580514354719 926:1 2304:1 2772:1 3120:1 3227:1 #
-0.14843336798397074871580514354719 102:1 2145:1 2216:1 2779:1 #
-0.14843336798397074871580514354719 119:1 412:1 670:1 1397:1 1961:1 1962:1 1963:1 2350:1 2516:1 2674:1 3158:1 3179:1 3595:1 #
-0.13358769055836888783872495878313 421:1 2216:1 3064:1 3205:1 3396:1 #
-0.14843336798397074871580514354719 1993:1 3392:1 #
0.041959737068658291281320060761573 20:1 21:1 23:1 29:1 78:1 263:1 341:1 441:1 503:1 625:1 631:1 749:1 1312:1 1313:1 1314:1 1399:1 1432:1 1583:1 1612:1 1749:1 1841:1 1949:1 2007:1 2030:1 2563:1 2666:1 2713:1 2779:1 3060:1 3169:1 3239:1 3263:1 3281:1 3417:1 3425:1 3552:1 #
0.14843336798397074871580514354719 1313:1 1687:1 1787:1 1963:1 2216:1 2785:1 3263:1 3473:1 #
-0.0086186368043301257724220221234646 20:1 21:1 23:1 29:1 151:1 373:1 441:1 448:1 579:1 737:1 754:1 831:1 870:1 1209:1 1258:1 1271:1 1295:1 1767:1 1993:1 2453:1 2469:1 2514:1 2785:1 2885:1 3016:1 3053:1 3161:1 3205:1 3211:1 3227:1 3239:1 3430:1 3577:1 #
-0.14843336798397074871580514354719 889:1 1313:1 1766:1 2785:1 3520:1 #
-0.14843336798397074871580514354719 60:1 1716:1 1866:1 1963:1 2205:1 2785:1 2885:1 3205:1 3223:1 #
-0.14843336798397074871580514354719 425:1 749:1 2785:1 3239:1 #
-0.14843336798397074871580514354719 315:1 749:1 2216:1 2649:1 2885:1 3239:1 3281:1 #
0.14843336798397074871580514354719 2216:1 2861:1 3405:1 3520:1 #
-0.14843336798397074871580514354719 419:1 448:1 994:1 1293:1 1994:1 2214:1 2216:1 2998:1 3060:1 3164:1 3396:1 3456:1 #
-0.14843336798397074871580514354719 852:1 975:1 1157:1 1544:1 1735:1 1792:1 1963:1 2013:1 2175:1 2213:1 2748:1 3512:1 3605:1 #
-0.14843336798397074871580514354719 449:1 #
-0.14843336798397074871580514354719 449:1 1109:1 2047:1 2712:1 #
-0.14843336798397074871580514354719 449:1 746:1 3086:1 #
-0.14843336798397074871580514354719 266:1 425:1 2785:1 2861:1 #
-0.14843336798397074871580514354719 299:1 1612:1 2785:1 3239:1 #
-0.14843336798397074871580514354719 661:1 1209:1 1293:1 2785:1 3211:1 3239:1 #
-0.14254042079736556347668852140487 432:1 811:1 825:1 2205:1 2785:1 3164:1 3281:1 #
0.14843336798397074871580514354719 887:1 1584:1 1612:1 1725:1 1961:1 1962:1 2785:1 2823:1 3194:1 3263:1 3316:1 #
0.07513777282513922628481850551907 448:1 1040:1 1183:1 1841:1 1895:1 2037:1 2276:1 2732:1 2785:1 3093:1 3227:1 3263:1 3578:1 #
-0.14843336798397074871580514354719 1961:1 1962:1 2785:1 3060:1 3227:1 3599:1 #
-0.14843336798397074871580514354719 778:1 1209:1 1307:1 2037:1 2071:1 2205:1 2785:1 #
-0.14843336798397074871580514354719 1792:1 2785:1 #
-0.095827811066877502388372533914662 566:1 1556:1 1963:1 2094:1 2304:1 2327:1 2785:1 3223:1 #
-0.10158351512278454564786045466462 11:1 1311:1 1539:1 2785:1 3211:1 #
-0.14843336798397074871580514354719 324:1 449:1 647:1 867:1 1891:1 2309:1 2377:1 2666:1 2779:1 3060:1 3120:1 3164:1 3209:1 3239:1 3405:1 #
-0.051825780543517094289818203378672 1332:1 1430:1 1819:1 1963:1 1993:1 2094:1 2216:1 2649:1 2864:1 3239:1 3520:1 #
-0.14843336798397074871580514354719 343:1 1040:1 1206:1 1353:1 1484:1 1771:1 1963:1 2200:1 2438:1 2785:1 2885:1 3060:1 3520:1 #
-0.14843336798397074871580514354719 825:1 2785:1 2882:1 3351:1 3611:1 #
-0.14843336798397074871580514354719 2179:1 2785:1 #
-0.14843336798397074871580514354719 2020:1 2785:1 2790:1 3247:1 #
0.14843336798397074871580514354719 266:1 2785:1 3223:1 3239:1 #
-0.14843336798397074871580514354719 317:1 625:1 719:1 1127:1 1447:1 2105:1 2216:1 2885:1 2931:1 3263:1 #
-0.14843336798397074871580514354719 806:1 2216:1 3239:1 3520:1 #
-0.14843336798397074871580514354719 685:1 1813:1 1866:1 1993:1 1994:1 2810:1 3204:1 3239:1 #
-0.1189990601325809915778108916129 343:1 670:1 962:1 1080:1 1725:1 1961:1 1962:1 2139:1 3331:1 3348:1 #
0.057210806278361808763222029483586 20:1 21:1 23:1 29:1 272:1 625:1 724:1 819:1 1209:1 1594:1 1637:1 1698:1 2779:1 2785:1 2885:1 3041:1 3060:1 3522:1 #
0.14843336798397074871580514354719 1903:1 3205:1 3303:1 3392:1 #
0.14843336798397074871580514354719 1650:1 2785:1 #
0.14843336798397074871580514354719 1333:1 2785:1 #
0.14843336798397074871580514354719 1280:1 1589:1 1963:1 2175:1 2912:1 3060:1 3605:1 #
-0.053277072729107470550058422986694 661:1 853:1 1293:1 1465:1 2131:1 2160:1 2385:1 2399:1 2648:1 2785:1 3205:1 3209:1 3211:1 3325:1 #
-0.14843336798397074871580514354719 1209:1 2861:1 3392:1 #
-0.14843336798397074871580514354719 1484:1 1555:1 2020:1 2785:1 #
0.14843336798397074871580514354719 13:1 449:1 3205:1 3520:1 #
0.14843336798397074871580514354719 625:1 749:1 2350:1 3205:1 #
-0.14843336798397074871580514354719 2094:1 2216:1 3205:1 3520:1 #
-0.086404116211373407918650002557115 932:1 1220:1 1258:1 2020:1 2463:1 3473:1 3520:1 #
0.14843336798397074871580514354719 2785:1 3606:1 #
0.14843336798397074871580514354719 2290:1 2785:1 #
0.14843336798397074871580514354719 2785:1 2926:1 #
-0.14843336798397074871580514354719 1871:1 2522:1 2539:1 2541:1 2785:1 #
-0.14843336798397074871580514354719 448:1 2365:1 2785:1 #
-0.0087302333478595488952533898441288 350:1 1124:1 2200:1 2785:1 3337:1 #
-0.0056711089217439782442231610559702 8:1 20:1 23:1 29:1 266:1 348:1 570:1 637:1 675:1 681:1 1083:1 1158:1 1191:1 1197:1 1209:1 1248:1 1282:1 1290:1 1484:1 1486:1 1529:1 1568:1 1583:1 1584:1 1649:1 1764:1 1833:1 1993:1 2009:1 2040:1 2160:1 2240:1 2441:1 2503:1 2563:1 2643:1 2785:1 2823:1 2845:1 2886:1 2920:1 2977:1 2998:1 3155:1 3164:1 3205:1 3373:1 3523:1 #
-0.14843336798397074871580514354719 266:1 350:1 2179:1 2785:1 3205:1 3520:1 #
-0.07507996560646409966999215157557 715:1 749:1 1124:1 1841:1 2216:1 2973:1 3104:1 3205:1 3455:1 3520:1 #
-0.072687436770125166130007698939153 178:1 677:1 712:1 1876:1 1963:1 2175:1 2459:1 2666:1 2823:1 3060:1 3120:1 #
0.14843336798397074871580514354719 2216:1 2785:1 3060:1 3239:1 #
0.14843336798397074871580514354719 1899:1 1963:1 2216:1 2785:1 3239:1 #
0.14843336798397074871580514354719 1963:1 2216:1 2785:1 2861:1 3473:1 3598:1 #
0.14843336798397074871580514354719 1027:1 1030:1 1136:1 1144:1 1205:1 1390:1 1430:1 1725:1 2013:1 2237:1 2666:1 2785:1 2823:1 2953:1 2972:1 3060:1 3104:1 3111:1 3116:1 3209:1 3263:1 3343:1 #
0.092292958736849756151698898065661 1993:1 2861:1 3392:1 #
0.14843336798397074871580514354719 23:1 284:1 705:1 2785:1 2810:1 3013:1 3120:1 #
-0.14843336798397074871580514354719 1633:1 2568:1 2785:1 #
0.14843336798397074871580514354719 343:1 2897:1 3223:1 #
0.14843336798397074871580514354719 1484:1 2751:1 2785:1 3239:1 #
0.14843336798397074871580514354719 1307:1 2785:1 #
0.14843336798397074871580514354719 424:1 2214:1 2785:1 3196:1 #
0.14843336798397074871580514354719 1632:1 2785:1 3196:1 #
0.14843336798397074871580514354719 2785:1 2925:1 #
-0.14843336798397074871580514354719 373:1 1612:1 1649:1 2785:1 3239:1 #
-0.14843336798397074871580514354719 909:1 1324:1 2112:1 2684:1 2785:1 #
-0.14843336798397074871580514354719 2785:1 3002:1 #
0.069149971704307131026290278441593 73:1 274:1 1525:1 1792:1 2007:1 2179:1 2785:1 3239:1 3273:1 #
0.14843336798397074871580514354719 2396:1 2785:1 2861:1 #
0.14843336798397074871580514354719 1258:1 1813:1 1862:1 2785:1 3239:1 #
0.14843336798397074871580514354719 234:1 2785:1 #
0.14843336798397074871580514354719 47:1 2712:1 2785:1 3239:1 #
0.14843336798397074871580514354719 2175:1 3205:1 #
0.14843336798397074871580514354719 449:1 3086:1 3239:1 #
0.14843336798397074871580514354719 21:1 2785:1 3060:1 3227:1 3239:1 3599:1 #
0.14843336798397074871580514354719 449:1 2160:1 3239:1 #
0.14843336798397074871580514354719 1293:1 2785:1 3196:1 #
0.14843336798397074871580514354719 1293:1 1899:1 2460:1 2785:1 #
0.14843336798397074871580514354719 298:1 749:1 1963:1 1989:1 2713:1 2779:1 2826:1 3520:1 #
-0.074835978440401990097186057937506 60:1 247:1 472:1 1899:1 2021:1 2216:1 3303:1 3455:1 #
-0.14843336798397074871580514354719 2350:1 2772:1 2779:1 3227:1 #
-0.14843336798397074871580514354719 634:1 1866:1 3144:1 3239:1 3242:1 #
-0.14843336798397074871580514354719 1866:1 2216:1 2628:1 3239:1 #
-0.056378640782212274817908337354311 28:1 221:1 348:1 428:1 625:1 748:1 759:1 845:1 1112:1 1430:1 1432:1 1725:1 1890:1 1903:1 2160:1 2279:1 2359:1 2779:1 2785:1 2869:1 3164:1 3308:1 3441:1 #
0.060313081439803357952644802253417 449:1 3223:1 3239:1 #
-0.14843336798397074871580514354719 155:1 2785:1 3060:1 #
-0.079560891089088689454023040070751 244:1 490:1 1293:1 1872:1 2175:1 2276:1 3020:1 3111:1 3223:1 3348:1 3449:1 #
-0.14843336798397074871580514354719 266:1 2175:1 2666:1 2861:1 3060:1 #
-0.14843336798397074871580514354719 449:1 2160:1 #
-0.14843336798397074871580514354719 266:1 419:1 1209:1 3196:1 3392:1 #
-0.14843336798397074871580514354719 1251:1 2467:1 3392:1 #
-0.14843336798397074871580514354719 1165:1 1293:1 1813:1 2304:1 3104:1 3239:1 3455:1 #
-0.14843336798397074871580514354719 2772:1 2785:1 3060:1 3227:1 #
-0.14843336798397074871580514354719 448:1 2785:1 3060:1 3227:1 #
-0.14843336798397074871580514354719 2628:1 2785:1 3060:1 #
-0.14843336798397074871580514354719 2216:1 2276:1 2649:1 3205:1 3239:1 3520:1 #
-0.10071329170125838115001926098557 21:1 23:1 48:1 516:1 975:1 2128:1 2175:1 2689:1 3287:1 3456:1 #
-0.14843336798397074871580514354719 1866:1 3197:1 3223:1 #
-0.14843336798397074871580514354719 274:1 306:1 365:1 1583:1 2785:1 #
-0.034086772630398547156982402839276 350:1 422:1 749:1 1206:1 1223:1 1520:1 1725:1 1792:1 1859:1 1990:1 2083:1 2160:1 2260:1 2350:1 2810:1 2972:1 3060:1 3261:1 #
-0.052229698665766058351955791749788 29:1 132:1 348:1 350:1 749:1 868:1 1239:1 1963:1 2200:1 2785:1 #
0.13686388443872010700630426072166 11:1 1581:1 1631:1 2350:1 2433:1 3328:1 #
0.1273948790286775212265979462245 625:1 2773:1 2949:1 3205:1 3328:1 3392:1 #
0.14843336798397074871580514354719 2304:1 3205:1 3229:1 #
0.14843336798397074871580514354719 266:1 2785:1 2926:1 #
-0.021291293737453153428473839881008 636:1 954:1 1293:1 1735:1 1967:1 2216:1 2337:1 2823:1 3205:1 3281:1 #
-0.14843336798397074871580514354719 1994:1 2823:1 2885:1 3281:1 3473:1 #
-0.08926105750281160267078917058825 147:1 225:1 419:1 1209:1 1271:1 1293:1 1372:1 1735:1 1782:1 1866:1 1963:1 2672:1 2772:1 3196:1 3227:1 3520:1 #
-0.10268473968838430498973224302972 448:1 1584:1 1961:1 1962:1 1994:1 2785:1 3010:1 3223:1 3227:1 3384:1 #
-0.10205488866933859481989088635601 20:1 21:1 448:1 473:1 506:1 1011:1 1331:1 1737:1 1866:1 2200:1 2466:1 3227:1 3273:1 3520:1 3554:1 #
-0.14843336798397074871580514354719 448:1 449:1 3060:1 3227:1 #
-0.14843336798397074871580514354719 449:1 1841:1 1963:1 2785:1 3568:1 #
0.14843336798397074871580514354719 1605:1 2785:1 2823:1 3291:1 #
0.14843336798397074871580514354719 343:1 1650:1 #
0.14843336798397074871580514354719 343:1 671:1 #
0.14843336798397074871580514354719 449:1 3326:1 #
0.14843336798397074871580514354719 2785:1 3326:1 #
-0.14843336798397074871580514354719 1308:1 1800:1 2175:1 3605:1 #
-0.14615986162800384540183529225033 412:1 825:1 1521:1 1866:1 2802:1 3465:1 #
-0.14843336798397074871580514354719 441:1 1197:1 1880:1 1896:1 2175:1 #
-0.042294896586278267480718540127782 23:1 311:1 312:1 769:1 1767:1 1871:1 2001:1 2130:1 2200:1 2375:1 2785:1 2885:1 3072:1 #
-0.1124304904197235138729737968788 1209:1 2785:1 2925:1 #
0.14843336798397074871580514354719 448:1 985:1 2785:1 3060:1 3227:1 #
0.11274634822159353142456694740758 448:1 1903:1 1933:1 2785:1 2869:1 3227:1 3239:1 #
0.14843336798397074871580514354719 448:1 2779:1 2785:1 3227:1 3239:1 #
0.14843336798397074871580514354719 21:1 1866:1 1963:1 2772:1 2785:1 3227:1 3239:1 3405:1 #
-0.14843336798397074871580514354719 448:1 2517:1 2779:1 2785:1 3227:1 #
-0.14843336798397074871580514354719 425:1 2785:1 3239:1 #
-0.14843336798397074871580514354719 1584:1 1612:1 2785:1 2818:1 3078:1 3239:1 #
-0.14843336798397074871580514354719 1612:1 2045:1 2785:1 3239:1 #
-0.13691900975481785529552780644735 1195:1 1612:1 2332:1 2709:1 2785:1 3239:1 3500:1 #
0.14843336798397074871580514354719 2216:1 3263:1 3520:1 #
0.14843336798397074871580514354719 1766:1 1866:1 2516:1 3520:1 #
0.14843336798397074871580514354719 2124:1 2175:1 3060:1 3605:1 #
0.14843336798397074871580514354719 449:1 985:1 3223:1 #
-0.11980532994189115048033755783763 266:1 985:1 2216:1 2484:1 2618:1 2810:1 3599:1 #
-0.14843336798397074871580514354719 659:1 2216:1 2904:1 3205:1 3520:1 #
-0.14843336798397074871580514354719 1275:1 2216:1 3205:1 3520:1 #
-0.14843336798397074871580514354719 2216:1 2257:1 3205:1 3520:1 #
0.089961485460670995162324459215597 491:1 1195:1 1771:1 1866:1 1963:1 2785:1 3053:1 3078:1 3239:1 3568:1 #
0.078104519135963834663982652273262 203:1 306:1 1961:1 1962:1 2229:1 2785:1 3239:1 #
0.14843336798397074871580514354719 266:1 1896:1 2785:1 3239:1 #
-0.14843336798397074871580514354719 1866:1 2785:1 #
-0.012965935627174865474309228829952 203:1 419:1 1309:1 1515:1 1725:1 1767:1 1866:1 1902:1 1963:1 2535:1 2655:1 2891:1 #
-0.14843336798397074871580514354719 1295:1 2785:1 3060:1 #
-0.14843336798397074871580514354719 1670:1 1767:1 1866:1 2823:1 2844:1 #
-0.14843336798397074871580514354719 449:1 2216:1 3405:1 #
-0.10649276648145805657108553532453 449:1 1076:1 1087:1 1994:1 2160:1 2275:1 2332:1 2985:1 3060:1 #
0.14843336798397074871580514354719 171:1 1307:1 2779:1 2785:1 #
0.14843336798397074871580514354719 434:1 483:1 2785:1 3120:1 #
0.14843336798397074871580514354719 171:1 1307:1 2785:1 #
-0.14843336798397074871580514354719 23:1 1209:1 1967:1 2785:1 3239:1 3291:1 #
-0.14843336798397074871580514354719 448:1 2785:1 3227:1 3235:1 #
-0.14843336798397074871580514354719 210:1 1918:1 1975:1 2785:1 3199:1 #
-0.14843336798397074871580514354719 1430:1 2785:1 2802:1 3060:1 #
0.14843336798397074871580514354719 705:1 1994:1 2128:1 2823:1 3205:1 3454:1 3473:1 3520:1 #
0.14843336798397074871580514354719 449:1 1484:1 3239:1 #
0.14843336798397074871580514354719 449:1 1866:1 3239:1 #
0.14843336798397074871580514354719 449:1 2216:1 3263:1 #
0.14843336798397074871580514354719 20:1 449:1 3239:1 #
-0.14843336798397074871580514354719 449:1 1612:1 2388:1 3239:1 #
-0.064118591016516859881768652940082 449:1 887:1 1283:1 2153:1 2885:1 #
-0.14843336798397074871580514354719 1552:1 1725:1 1866:1 3223:1 #
0.061158706299473217238293898390111 21:1 23:1 1064:1 1188:1 1191:1 1333:1 1803:1 1955:1 2047:1 2503:1 2785:1 3217:1 #
-0.14843336798397074871580514354719 889:1 2785:1 3473:1 #
-0.14843336798397074871580514354719 347:1 1484:1 2785:1 2999:1 3384:1 3405:1 #
0.14843336798397074871580514354719 1866:1 2861:1 #
-0.14843336798397074871580514354719 806:1 3473:1 3520:1 #
-0.068020120622374766194973005895008 322:1 2109:1 3203:1 3473:1 #
-0.14843336798397074871580514354719 1866:1 2779:1 #
-0.14843336798397074871580514354719 921:1 2128:1 2175:1 3251:1 #
-0.14843336798397074871580514354719 1866:1 #
0.14843336798397074871580514354719 1991:1 2785:1 3239:1 #
0.082116696604324371233651902457495 1698:1 1963:1 1967:1 2179:1 2350:1 2586:1 2785:1 3288:1 3405:1 #
0.14843336798397074871580514354719 1484:1 2785:1 2904:1 3239:1 #
0.14843336798397074871580514354719 2216:1 3263:1 #
-0.14843336798397074871580514354719 1841:1 2350:1 #
-0.14843336798397074871580514354719 425:1 749:1 1841:1 2350:1 3239:1 #
0.10684526113841137651139234776565 323:1 1841:1 1842:1 1899:1 2309:1 2785:1 3239:1 3351:1 3520:1 #
-0.14843336798397074871580514354719 1866:1 1963:1 2569:1 2785:1 #
-0.14843336798397074871580514354719 225:1 880:1 1308:1 1990:1 2539:1 2609:1 2785:1 #
0.14843336798397074871580514354719 2020:1 3239:1 3473:1 #
0.14843336798397074871580514354719 2350:1 2779:1 3239:1 #
0.14843336798397074871580514354719 448:1 1307:1 2279:1 2785:1 3164:1 #
-0.14843336798397074871580514354719 48:1 2101:1 2128:1 2175:1 2640:1 3605:1 #
-0.14843336798397074871580514354719 1209:1 2175:1 2293:1 3211:1 3239:1 #
0.14843336798397074871580514354719 448:1 2304:1 3227:1 3263:1 #
0.038421370692031851790115837275152 357:1 739:1 1993:1 2175:1 3239:1 #
-0.03729940457645794515961767956469 26:1 28:1 260:1 498:1 834:1 1961:1 1962:1 2379:1 2785:1 3002:1 3107:1 3346:1 #
-0.028520400637763041601369096156304 2:1 1258:1 1624:1 1755:1 1869:1 2200:1 2216:1 2869:1 3303:1 #
0.14843336798397074871580514354719 2350:1 3239:1 #
0.10005478467616678306395527897621 208:1 2388:1 2785:1 3239:1 #
0.014201956347114757031602216841293 301:1 417:1 612:1 749:1 1191:1 1207:1 1841:1 2037:1 2160:1 2295:1 2380:1 2410:1 2785:1 3060:1 3164:1 3223:1 3239:1 3605:1 #
-0.14843336798397074871580514354719 1209:1 2083:1 2350:1 2785:1 #
0.061096455739584588917612251179889 412:1 1963:1 2785:1 2995:1 3042:1 3239:1 #
0.057720062319348806878505087070153 16:1 1967:1 1994:1 2244:1 2785:1 3263:1 #
0.071119394378502454046042657864746 611:1 1637:1 2200:1 2640:1 2778:1 2785:1 2823:1 3405:1 #
0.14843336798397074871580514354719 1583:1 2160:1 2216:1 2785:1 3263:1 #
-0.015546626242787778618414940012826 35:1 138:1 203:1 263:1 341:1 419:1 448:1 647:1 919:1 1111:1 1283:1 1343:1 1352:1 1519:1 1632:1 1735:1 1792:1 1899:1 2112:1 2453:1 2466:1 2588:1 2785:1 2810:1 2931:1 2957:1 3016:1 3227:1 3405:1 #
-0.14843336798397074871580514354719 893:1 1989:1 1994:1 2592:1 2785:1 2995:1 #
-0.14843336798397074871580514354719 174:1 2785:1 #
-0.14843336798397074871580514354719 319:1 2785:1 #
-0.14843336798397074871580514354719 709:1 2216:1 3205:1 3520:1 #
0.14843336798397074871580514354719 1293:1 2785:1 3239:1 #
0.14843336798397074871580514354719 2268:1 2785:1 3239:1 #
0.14843336798397074871580514354719 1175:1 2785:1 3239:1 #
0.14843336798397074871580514354719 883:1 2785:1 3239:1 #
-0.14843336798397074871580514354719 719:1 2785:1 #
-0.10399628389095059988189717614659 106:1 404:1 611:1 857:1 1961:1 1962:1 2175:1 2200:1 2528:1 2802:1 2822:1 #
-0.052044752131101525149947661930128 203:1 448:1 570:1 754:1 1205:1 1258:1 1553:1 1767:1 1866:1 1963:1 1994:1 2160:1 2712:1 2823:1 3227:1 #
0.14843336798397074871580514354719 2785:1 3060:1 3326:1 #
0.14843336798397074871580514354719 2785:1 3120:1 3405:1 #
0.14843336798397074871580514354719 234:1 2785:1 3405:1 #
0.14843336798397074871580514354719 2216:1 2785:1 3263:1 #
0.14839464932319212930877938561025 266:1 724:1 1307:1 2091:1 2200:1 2785:1 #
-0.13911662401150629020385451894981 21:1 1822:1 1866:1 1871:1 1967:1 2785:1 2898:1 #
0.14843336798397074871580514354719 2124:1 2175:1 3060:1 #
-0.1347911789264387705244985227182 1030:1 2216:1 3205:1 #
0.14843336798397074871580514354719 225:1 1993:1 2609:1 3060:1 3239:1 3392:1 #
0.14843336798397074871580514354719 234:1 343:1 #
-0.081999787764370613007969268437591 394:1 1505:1 1866:1 3297:1 #
-0.063673901045351311012154837953858 2503:1 2785:1 2802:1 #
-0.093005486856301389231305165594677 854:1 1522:1 2112:1 2916:1 3392:1 3599:1 #
0.14843336798397074871580514354719 266:1 2785:1 3239:1 #
-0.032776311907151765845380708697121 199:1 299:1 635:1 1007:1 1152:1 1753:1 2216:1 2885:1 3239:1 3351:1 3371:1 3422:1 3520:1 #
-0.088152916292396160669042615154467 47:1 700:1 1753:1 2216:1 2276:1 3239:1 #
-0.14843336798397074871580514354719 1899:1 2666:1 3239:1 3473:1 #
0.14843336798397074871580514354719 1862:1 2175:1 2293:1 3205:1 3520:1 #
0.044745740309958516311983345303815 809:1 831:1 838:1 919:1 1233:1 1313:1 1442:1 1612:1 1637:1 1890:1 2112:1 2149:1 2785:1 2852:1 3060:1 3157:1 3263:1 3303:1 3379:1 #
-0.054481478746385099409810237602869 350:1 1313:1 2214:1 2374:1 2785:1 3205:1 3520:1 #
-0.14843336798397074871580514354719 1484:1 1657:1 2250:1 2568:1 2713:1 3520:1 #
0.14843336798397074871580514354719 964:1 2785:1 3239:1 #
0.14843336798397074871580514354719 1918:1 2785:1 3239:1 #
-0.14843336798397074871580514354719 2666:1 2785:1 3060:1 3239:1 3473:1 #
-0.14843336798397074871580514354719 2666:1 2779:1 2785:1 3060:1 3164:1 3239:1 #
-0.14843336798397074871580514354719 2666:1 2785:1 3060:1 3164:1 3239:1 #
0.023854332962063642953332021079405 20:1 449:1 1333:1 1963:1 2200:1 2304:1 2516:1 2713:1 3423:1 #
-0.13763901156809174586292954245437 1308:1 2205:1 3351:1 3473:1 #
0.037170645545500292927787455710131 23:1 221:1 225:1 788:1 899:1 913:1 1136:1 1157:1 1209:1 1246:1 1340:1 1484:1 1544:1 1594:1 1735:1 1774:1 1792:1 1837:1 2200:1 2425:1 2760:1 2779:1 2785:1 2893:1 3055:1 3106:1 3326:1 3405:1 3611:1 #
0.051462763618392602660289725235998 732:1 1293:1 1313:1 1735:1 2785:1 3060:1 3111:1 3239:1 3476:1 #
0.14843336798397074871580514354719 2785:1 2998:1 3465:1 #
0.13695386455542524206663301811204 2713:1 2779:1 2998:1 #
0.036478792530007617123111174350925 840:1 1866:1 1963:1 2516:1 2713:1 2785:1 #
0.030446749955049874636348050671586 35:1 449:1 1629:1 3151:1 3227:1 3239:1 #
-0.14843336798397074871580514354719 1430:1 2666:1 2785:1 3060:1 3239:1 3520:1 #
0.14843336798397074871580514354719 441:1 528:1 2175:1 2200:1 2528:1 3205:1 3328:1 #
0.091574668163825603817151943530916 1521:1 1677:1 2175:1 2200:1 2823:1 2851:1 2944:1 3060:1 #
0.14843336798397074871580514354719 449:1 985:1 3060:1 #
0.045623745877757249100881153935916 21:1 448:1 553:1 693:1 1209:1 1963:1 2205:1 2503:1 2779:1 2785:1 3227:1 3263:1 #
0.010240602971047303021423502400467 48:1 495:1 705:1 912:1 2160:1 2666:1 2785:1 3158:1 3239:1 3263:1 3452:1 #
-0.14843336798397074871580514354719 1484:1 1994:1 2304:1 2779:1 3060:1 #
-0.057387709100635245218491320429166 542:1 1030:1 1167:1 1313:1 2216:1 2282:1 2523:1 2536:1 2649:1 2817:1 3263:1 #
-0.14843336798397074871580514354719 1059:1 1563:1 2304:1 3083:1 #
-0.051323529231541632766866456449861 589:1 630:1 825:1 924:1 1209:1 1888:1 2175:1 2200:1 2517:1 2649:1 2778:1 2899:1 3205:1 3223:1 3328:1 #
0.14843336798397074871580514354719 1555:1 2020:1 2350:1 3060:1 3239:1 #
0.14843336798397074871580514354719 449:1 951:1 985:1 1994:1 2020:1 2823:1 3164:1 3281:1 #
-0.14843336798397074871580514354719 373:1 2785:1 #
0.14843336798397074871580514354719 1484:1 2785:1 3239:1 #
-0.14843336798397074871580514354719 448:1 2666:1 2785:1 3060:1 3164:1 3239:1 #
-0.14843336798397074871580514354719 299:1 419:1 932:1 1209:1 1293:1 1379:1 2020:1 3196:1 3211:1 3239:1 3351:1 3473:1 #
-0.13516288306069487723526378886163 29:1 1484:1 1963:1 2600:1 2785:1 #
-0.11353804287214770696312626796498 664:1 1258:1 1553:1 1717:1 1963:1 2160:1 2354:1 2488:1 2785:1 3211:1 3239:1 #
-0.14843336798397074871580514354719 119:1 748:1 2678:1 3473:1 #
0.0031763766371257213909362615567034 67:1 299:1 322:1 417:1 676:1 1209:1 1227:1 1378:1 1792:1 1911:1 1956:1 2037:1 2160:1 2310:1 2388:1 2458:1 2503:1 2536:1 2754:1 2785:1 3006:1 3060:1 3164:1 3223:1 3239:1 3515:1 3568:1 3594:1 3605:1 #
-0.11660119100807724012991428708119 266:1 1209:1 2160:1 2216:1 2869:1 3196:1 3303:1 #
0.14843336798397074871580514354719 394:1 2216:1 3263:1 #
0.14843336798397074871580514354719 1866:1 3205:1 3229:1 3520:1 #
-0.0024804817723511575142114615744049 20:1 21:1 147:1 230:1 675:1 845:1 1209:1 1271:1 1484:1 2020:1 2082:1 2105:1 2107:1 2465:1 2611:1 2785:1 2978:1 3030:1 3060:1 3146:1 3164:1 3209:1 3391:1 3508:1 #
-0.12900363673157760890930489949824 1190:1 2020:1 2130:1 2713:1 2802:1 3164:1 #
-0.057977311643531190266109831554786 319:1 1258:1 1866:1 2815:1 2885:1 2916:1 3239:1 #
-0.14843336798397074871580514354719 1295:1 2785:1 3488:1 #
-0.14843336798397074871580514354719 2350:1 3559:1 3599:1 #
-0.044602027030265146978482704298585 21:1 1555:1 1871:1 2020:1 2522:1 2541:1 2785:1 #
0.14843336798397074871580514354719 28:1 2785:1 3239:1 #
0.14843336798397074871580514354719 419:1 825:1 2785:1 3060:1 3164:1 3239:1 #
0.074798224296182908021890511918173 20:1 531:1 2785:1 3239:1 #
-0.0066934266812553001521624018721468 705:1 778:1 806:1 1735:1 2205:1 2216:1 2849:1 #
-0.14483641837762245563325791408715 812:1 1484:1 1612:1 2524:1 2785:1 2797:1 3239:1 #
-0.14843336798397074871580514354719 266:1 2666:1 2785:1 3060:1 3239:1 #
0.033178912388587521176130934463799 71:1 201:1 299:1 324:1 724:1 1258:1 1846:1 1859:1 2539:1 2785:1 3205:1 3605:1 #
0.092510967182720602042245161555911 501:1 778:1 1963:1 2304:1 2516:1 2666:1 2713:1 2823:1 3060:1 3263:1 3381:1 #
0.14843336798397074871580514354719 2785:1 3196:1 #
-0.14843336798397074871580514354719 2467:1 2785:1 3346:1 #
-0.14843336798397074871580514354719 1221:1 2214:1 2304:1 3223:1 #
-0.061201839850636499673619539407809 579:1 1554:1 1725:1 2159:1 2304:1 2327:1 #
0.14843336798397074871580514354719 2785:1 3239:1 #
0.14843336798397074871580514354719 1293:1 2785:1 2861:1 #
0.079229475160093737473587793829211 289:1 1484:1 1631:1 1733:1 2362:1 2713:1 3204:1 #
-0.031951155937024827702330753709248 816:1 893:1 1491:1 1866:1 2800:1 3253:1 #
-0.010938401762554500820656677717579 748:1 1195:1 1725:1 1866:1 3308:1 #
0.12323532637761330787995461832907 53:1 1584:1 2170:1 2200:1 2785:1 3239:1 #
-0.10190719769869141519968991360656 1918:1 2666:1 2785:1 3060:1 3239:1 #
-0.085717502394064476467505642176548 324:1 2666:1 2785:1 3060:1 3239:1 #
-0.04828575836328420634036007186296 266:1 1338:1 2666:1 2785:1 3060:1 3239:1 #
0.14843336798397074871580514354719 1484:1 2020:1 2785:1 3060:1 3164:1 3239:1 #
-0.14843336798397074871580514354719 449:1 2885:1 3060:1 #
-0.14272716874173821399729433778703 700:1 2785:1 3569:1 #
0.12021841476106313872929121089328 1841:1 1911:1 2088:1 2290:1 2785:1 3060:1 #
0.14843336798397074871580514354719 1989:1 2785:1 3239:1 #
0.13384383935545732247085481958493 1767:1 1971:1 2785:1 3060:1 3239:1 3611:1 #
-0.032898961220125207127740196710874 246:1 501:1 778:1 1181:1 1293:1 1479:1 2205:1 2216:1 3520:1 #
-0.14843336798397074871580514354719 2216:1 2604:1 3205:1 3520:1 #
0.049178285224770156014439947966821 645:1 705:1 1359:1 1866:1 2123:1 2516:1 #
-0.14843336798397074871580514354719 1209:1 2785:1 3211:1 3239:1 3473:1 #
-0.14843336798397074871580514354719 394:1 425:1 1505:1 3239:1 3473:1 #
-0.14843336798397074871580514354719 1209:1 2785:1 2861:1 3211:1 #
-0.14843336798397074871580514354719 350:1 1313:1 2785:1 3060:1 3205:1 3520:1 #
-0.091169010310431203292225177392538 685:1 1209:1 1607:1 2304:1 2649:1 3016:1 3239:1 #
-0.080667715711272777734386352221918 2109:1 2160:1 2751:1 3473:1 #
-0.046018530137572483118546529112791 449:1 1735:1 2160:1 2600:1 3164:1 #
0.0021214479708574350731720148388604 20:1 21:1 25:1 26:1 28:1 29:1 33:1 34:1 151:1 225:1 313:1 359:1 364:1 380:1 383:1 387:1 405:1 412:1 490:1 579:1 587:1 619:1 677:1 685:1 693:1 709:1 749:1 761:1 899:1 926:1 1002:1 1088:1 1106:1 1121:1 1124:1 1146:1 1148:1 1195:1 1206:1 1208:1 1209:1 1312:1 1314:1 1345:1 1430:1 1454:1 1488:1 1521:1 1563:1 1566:1 1583:1 1612:1 1695:1 1767:1 1786:1 1792:1 1853:1 1862:1 1905:1 1911:1 1918:1 1994:1 2046:1 2107:1 2124:1 2160:1 2186:1 2228:1 2276:1 2278:1 2332:1 2354:1 2478:1 2504:1 2513:1 2557:1 2569:1 2675:1 2785:1 2823:1 2837:1 2885:1 2950:1 2996:1 3007:1 3016:1 3041:1 3060:1 3116:1 3130:1 3205:1 3209:1 3211:1 3212:1 3223:1 3235:1 3239:1 3244:1 3246:1 3283:1 3298:1 3303:1 3311:1 3393:1 3405:1 3445:1 3449:1 3491:1 3522:1 3597:1 #
0.061501739214998685234547792788362 1993:1 2061:1 2785:1 3223:1 3239:1 #
0.14843336798397074871580514354719 2861:1 3473:1 #
-0.14689002874855744407156521447178 1555:1 2020:1 2628:1 2785:1 3060:1 #
-0.14843336798397074871580514354719 2785:1 2802:1 3405:1 #
-0.11898491516405984569360043678898 263:1 2785:1 3351:1 #
-0.052658482414441022678719406258097 1515:1 1767:1 2350:1 2820:1 3242:1 #
-0.14843336798397074871580514354719 748:1 1725:1 1866:1 2678:1 3060:1 #
0.091733977965121338282727947444073 1484:1 1555:1 1961:1 2020:1 2785:1 3060:1 3239:1 #
0.095275405500726370600084180750855 1764:1 1792:1 2785:1 3239:1 #
0.058924636139418097580122690715143 424:1 2785:1 3060:1 3239:1 3294:1 #
-0.14843336798397074871580514354719 1209:1 2785:1 3211:1 3239:1 3520:1 #
-0.093280859032573007483257754302031 1687:1 1841:1 1866:1 3351:1 #
-0.03398197392986997827923900672431 2109:1 3378:1 3473:1 #
0.14843336798397074871580514354719 266:1 1963:1 2785:1 2861:1 3611:1 #
-0.14843336798397074871580514354719 1077:1 2216:1 3205:1 3599:1 #
-0.097594747729540784475510406537069 1263:1 2304:1 2961:1 #
0.14843336798397074871580514354719 2350:1 3223:1 3239:1 #
0.035394170695302443196972319583438 434:1 2073:1 2785:1 2823:1 3120:1 #
0.14843336798397074871580514354719 2785:1 3239:1 3611:1 #
-0.087483326421057050481522310292348 1584:1 1612:1 1963:1 2160:1 2785:1 3239:1 3515:1 #
-0.051796126145426495124279853143889 497:1 2216:1 2362:1 2823:1 3425:1 3520:1 #
-0.051947771552772414871412820502883 448:1 1767:1 1866:1 2610:1 3227:1 #
0.016948511868694754456399209630035 1109:1 1153:1 1608:1 2531:1 2785:1 3239:1 #
0.022239229411724733415089971799716 412:1 1401:1 1590:1 2785:1 3225:1 3239:1 #
-0.03627260305658555616936666865513 1206:1 1209:1 1307:1 1484:1 2160:1 2785:1 3164:1 3495:1 #
-0.03017921765606558157091221517021 1787:1 1891:1 1994:1 2785:1 3002:1 #
0.14843336798397074871580514354719 1698:1 2785:1 #
-0.087902799776854612101573138716049 889:1 2785:1 #
0.14843336798397074871580514354719 2779:1 2785:1 3239:1 #
-0.0079814047753868685303180185997007 1209:1 2140:1 3211:1 3239:1 3473:1 3520:1 #
-0.13651672916404067326112681257655 266:1 319:1 2785:1 #
-0.14843336798397074871580514354719 266:1 2522:1 2541:1 2785:1 #
-0.14843336798397074871580514354719 1209:1 2785:1 3211:1 3239:1 3611:1 #
-0.10251886252929530429778282041298 21:1 2885:1 3473:1 3520:1 #
0.074307251662141304837660982229863 2503:1 2785:1 3326:1 #
-0.14127096614337986135723213010351 343:1 350:1 #
0.14843336798397074871580514354719 600:1 1484:1 2785:1 3239:1 #
-0.035893042094909510808520280988887 1866:1 2564:1 3348:1 3559:1 3599:1 #
-0.14843336798397074871580514354719 2885:1 3223:1 3473:1 3520:1 #
-0.14843336798397074871580514354719 2350:1 2666:1 2779:1 3060:1 3239:1 #
-0.10425987963745372844037717641186 2517:1 2666:1 2785:1 3060:1 3239:1 3520:1 #
0.044031212730825754209096345448415 1859:1 1866:1 1990:1 2200:1 2516:1 3164:1 3606:1 #
-0.018607838586649320944399477184561 1107:1 1257:1 1963:1 1994:1 2216:1 2649:1 2810:1 2885:1 3263:1 #
-0.031531836331998658318198636152374 171:1 448:1 2785:1 2802:1 3227:1 #
-0.089052265067254512964645130068675 2666:1 2785:1 3060:1 3196:1 #
-0.14843336798397074871580514354719 2666:1 3060:1 3239:1 3473:1 #
0.0084575699826715186602221763223497 116:1 749:1 825:1 1390:1 1637:1 1782:1 1888:1 1901:1 2503:1 2514:1 2639:1 2759:1 2785:1 3041:1 3060:1 #
0.0028155610100800642324470057786812 25:1 26:1 55:1 133:1 186:1 225:1 253:1 285:1 289:1 502:1 593:1 631:1 828:1 878:1 891:1 1344:1 1727:1 1773:1 1837:1 1902:1 1961:1 1962:1 1967:1 1994:1 2160:1 2456:1 2462:1 2516:1 2517:1 2785:1 2947:1 3067:1 3181:1 3298:1 3387:1 3605:1 3627:1 #
0.034395268048352162226777295472857 1280:1 2124:1 2175:1 #
0.021724095393986311147704881818754 1484:1 2354:1 2785:1 3239:1 3405:1 #
-0.14843336798397074871580514354719 1295:1 2785:1 #
0.108182907115931453700952147301 749:1 2216:1 3263:1 3520:1 #
-0.0099363471845922476249901578171375 311:1 312:1 737:1 2216:1 2279:1 2604:1 3199:1 3520:1 #
-0.13147654017620366562191236425861 28:1 2600:1 2785:1 #
-0.0071024442893493962974948985333867 299:1 449:1 1612:1 1722:1 1841:1 3105:1 3235:1 3239:1 #
0.014351678214804592173536867960593 2150:1 2785:1 3060:1 3239:1 3515:1 #
0.036703488160953673391517781965376 2200:1 2785:1 3239:1 3605:1 #
0.025967239693300656067087572864693 449:1 3164:1 3239:1 #
-0.0072813999377168373700053294328427 494:1 1866:1 2160:1 2714:1 3351:1 3520:1 #
-0.0062491684019076246259238871516573 449:1 924:1 1637:1 2596:1 2666:1 3060:1 3239:1 #
0.023029472495474618415345346988943 29:1 1866:1 1963:1 2785:1 3239:1 #
-0.0019611999614020706426964490987075 20:1 2200:1 2216:1 2785:1 #
