SVM-light Version V6.01
0 # kernel type
3 # kernel parameter -d 
1 # kernel parameter -g 
1 # kernel parameter -s 
1 # kernel parameter -r 
empty# kernel parameter -u 
2637 # highest feature index 
2533 # number of training documents 
567 # number of support vectors plus 1 
0.67408997 # threshold b, each following line is a SV (starting with alpha*y)
-0.14327007389166479534026166220428 13:1 1773:1 1860:1 2199:1 #
-0.14327007389166479534026166220428 781:1 1316:1 1854:1 2062:1 #
0.028682594658095025147437340251599 226:1 589:1 596:1 1036:1 1058:1 1062:1 1517:1 1550:1 1556:1 1854:1 1939:1 2199:1 2245:1 2595:1 #
-0.078741771402635551968529625810334 226:1 476:1 1174:1 1609:1 2045:1 2062:1 2070:1 2199:1 #
-0.069870967492848087831980308237689 287:1 439:1 606:1 616:1 2062:1 2199:1 2399:1 #
0.14327007389166479534026166220428 1570:1 2062:1 #
0.14327007389166479534026166220428 67:1 730:1 1290:1 2062:1 2120:1 2199:1 #
0.012170857989140040911202333973051 48:1 240:1 2153:1 2199:1 #
0.017112975490430979569334013490334 489:1 491:1 1482:1 1826:1 2062:1 2138:1 2199:1 #
0.14327007389166479534026166220428 402:1 2062:1 2199:1 #
-0.14327007389166479534026166220428 16:1 24:1 31:1 226:1 240:1 266:1 361:1 393:1 404:1 411:1 576:1 603:1 675:1 718:1 811:1 1290:1 1517:1 1658:1 1754:1 1826:1 1854:1 1916:1 1931:1 2062:1 2106:1 2196:1 2199:1 2271:1 2293:1 2460:1 2524:1 #
-0.013772017563163492515077024336279 26:1 86:1 226:1 603:1 970:1 1495:1 1570:1 1592:1 1660:1 1705:1 2332:1 #
-0.14327007389166479534026166220428 67:1 730:1 1290:1 1422:1 1570:1 2062:1 2120:1 #
-0.14327007389166479534026166220428 226:1 1222:1 1290:1 1570:1 2062:1 2120:1 2199:1 #
-0.14327007389166479534026166220428 40:1 162:1 226:1 438:1 596:1 811:1 907:1 1014:1 1189:1 1290:1 1402:1 1422:1 1451:1 1517:1 1543:1 1570:1 1605:1 1693:1 1740:1 1761:1 2062:1 2088:1 2094:1 2199:1 #
0.14327007389166479534026166220428 11:1 13:1 33:1 222:1 224:1 604:1 781:1 1061:1 1089:1 1362:1 1605:1 1609:1 1761:1 2088:1 2265:1 2467:1 #
0.14327007389166479534026166220428 226:1 294:1 576:1 647:1 693:1 695:1 781:1 972:1 1062:1 1068:1 1189:1 1259:1 1272:1 1571:1 1605:1 1608:1 2097:1 2524:1 #
0.14327007389166479534026166220428 24:1 294:1 309:1 488:1 781:1 807:1 1263:1 1760:1 #
0.14327007389166479534026166220428 275:1 294:1 488:1 781:1 791:1 1219:1 1854:1 #
0.14327007389166479534026166220428 96:1 404:1 596:1 781:1 1833:1 2557:1 2637:1 #
-0.14327007389166479534026166220428 411:1 811:1 1773:1 2199:1 #
-0.14327007389166479534026166220428 33:1 781:1 1316:1 1854:1 2062:1 2557:1 #
-0.14327007389166479534026166220428 275:1 959:1 1693:1 1854:1 2326:1 #
-0.047165640543108747206879627356102 1339:1 1484:1 1514:1 2085:1 2199:1 2249:1 2375:1 2468:1 #
-0.048808115787424395659588327589518 781:1 1258:1 1492:1 1639:1 1854:1 #
0.012742938456919044795667694813801 49:1 67:1 103:1 119:1 188:1 275:1 294:1 316:1 329:1 335:1 343:1 348:1 384:1 411:1 419:1 442:1 449:1 486:1 504:1 520:1 542:1 570:1 576:1 591:1 596:1 713:1 715:1 718:1 730:1 769:1 789:1 860:1 885:1 961:1 979:1 987:1 1009:1 1014:1 1018:1 1026:1 1027:1 1079:1 1085:1 1090:1 1133:1 1158:1 1291:1 1316:1 1343:1 1367:1 1413:1 1432:1 1446:1 1460:1 1483:1 1517:1 1526:1 1570:1 1609:1 1658:1 1701:1 1769:1 1773:1 1801:1 1804:1 1826:1 1839:1 1847:1 1853:1 1854:1 1887:1 1894:1 1923:1 1927:1 2001:1 2006:1 2041:1 2043:1 2085:1 2099:1 2153:1 2160:1 2185:1 2199:1 2200:1 2203:1 2214:1 2234:1 2249:1 2274:1 2308:1 2464:1 2470:1 2481:1 2509:1 2513:1 2570:1 2577:1 2605:1 2609:1 2617:1 #
0.14327007389166479534026166220428 71:1 131:1 294:1 501:1 730:1 843:1 905:1 1409:1 1422:1 1464:1 1570:1 1658:1 1705:1 1728:1 1854:1 2012:1 2120:1 2289:1 2524:1 2585:1 2603:1 2621:1 #
0.14327007389166479534026166220428 108:1 144:1 226:1 542:1 611:1 1014:1 1089:1 1219:1 1290:1 1342:1 1570:1 1769:1 1798:1 2199:1 2595:1 #
0.14327007389166479534026166220428 226:1 294:1 334:1 468:1 491:1 529:1 736:1 932:1 1033:1 1570:1 1728:1 2120:1 2153:1 2249:1 2289:1 #
0.14327007389166479534026166220428 2062:1 2088:1 2199:1 #
0.14327007389166479534026166220428 33:1 2062:1 2199:1 #
-0.0030589519472003427573436606934365 7:1 11:1 85:1 96:1 136:1 281:1 311:1 415:1 542:1 606:1 616:1 698:1 758:1 973:1 1007:1 1079:1 1219:1 1232:1 1296:1 1339:1 1574:1 1658:1 1696:1 1839:1 1867:1 1888:1 1964:1 2062:1 2088:1 2199:1 2265:1 2419:1 #
-0.043240286474248559867028518510779 40:1 122:1 275:1 309:1 339:1 355:1 363:1 606:1 893:1 1014:1 1219:1 1318:1 1556:1 1690:1 1769:1 1888:1 2047:1 2088:1 2091:1 2199:1 2308:1 2577:1 2595:1 #
-0.065514148729736279563873324605083 81:1 226:1 240:1 542:1 1600:1 1969:1 2137:1 2199:1 2245:1 2595:1 #
0.14327007389166479534026166220428 224:1 811:1 819:1 1222:1 1609:1 1773:1 2199:1 2245:1 #
0.14327007389166479534026166220428 1609:1 1773:1 1988:1 2199:1 #
0.14327007389166479534026166220428 1609:1 1773:1 2199:1 #
0.14327007389166479534026166220428 186:1 419:1 727:1 1511:1 1570:1 1773:1 1833:1 1881:1 2062:1 2070:1 2339:1 #
0.14327007389166479534026166220428 1609:1 1773:1 2185:1 2199:1 #
-0.025811802935229884864432037261395 226:1 404:1 435:1 436:1 542:1 1034:1 1517:1 1549:1 1923:1 2199:1 2223:1 2375:1 #
0.14327007389166479534026166220428 11:1 1003:1 1570:1 1645:1 1660:1 2062:1 #
-0.0084965223106006210196383676702681 325:1 1089:1 1422:1 1570:1 1769:1 1943:1 1977:1 2524:1 #
-0.14327007389166479534026166220428 542:1 1517:1 1570:1 1773:1 1801:1 2062:1 #
0.14327007389166479534026166220428 730:1 1290:1 1943:1 2062:1 2199:1 #
0.061092374307566497948496220260495 67:1 96:1 226:1 385:1 1296:1 1395:1 1446:1 1459:1 2062:1 2120:1 2122:1 2199:1 2530:1 2549:1 2595:1 #
0.14327007389166479534026166220428 11:1 24:1 226:1 781:1 1356:1 1428:1 1705:1 2062:1 2308:1 #
-0.10470218693872060389260525425925 1351:1 1596:1 2199:1 #
0.14327007389166479534026166220428 226:1 353:1 1034:1 1556:1 1738:1 1854:1 2062:1 2199:1 2293:1 #
0.039573257711048720475233153592853 38:1 226:1 413:1 542:1 644:1 709:1 857:1 1014:1 1570:1 1693:1 1771:1 2062:1 2088:1 2199:1 2530:1 #
-0.030874543656050069256879808676786 226:1 439:1 679:1 1034:1 1609:1 1769:1 2062:1 2199:1 2394:1 #
-0.14327007389166479534026166220428 11:1 24:1 363:1 1026:1 1705:1 2062:1 2120:1 2414:1 2557:1 #
0.14327007389166479534026166220428 530:1 2088:1 2199:1 #
-0.14327007389166479534026166220428 68:1 226:1 781:1 873:1 1137:1 1853:1 2001:1 2062:1 2098:1 2199:1 #
-0.14327007389166479534026166220428 156:1 226:1 275:1 429:1 542:1 596:1 781:1 811:1 819:1 823:1 1014:1 1062:1 1079:1 1117:1 1145:1 1240:1 1427:1 1512:1 1517:1 1637:1 1693:1 1775:1 1939:1 1977:1 2062:1 2199:1 2215:1 2245:1 2293:1 #
0.14327007389166479534026166220428 1316:1 1351:1 1438:1 1510:1 1570:1 #
0.10031285555589614100213680103479 264:1 276:1 363:1 419:1 453:1 542:1 606:1 621:1 663:1 730:1 731:1 736:1 772:1 781:1 801:1 823:1 825:1 851:1 856:1 932:1 951:1 1026:1 1079:1 1175:1 1362:1 1517:1 1699:1 1740:1 1745:1 1771:1 1773:1 1848:1 1891:1 1924:1 2044:1 2097:1 2126:1 2153:1 2265:1 2308:1 2331:1 2374:1 2420:1 2467:1 2481:1 2567:1 #
0.14327007389166479534026166220428 40:1 134:1 343:1 1570:1 1592:1 2201:1 2607:1 #
0.14327007389166479534026166220428 7:1 400:1 1399:1 1570:1 1939:1 #
-0.11420114862286620538434078753198 7:1 266:1 281:1 294:1 373:1 392:1 607:1 715:1 902:1 907:1 923:1 1018:1 1062:1 1119:1 1362:1 1366:1 1460:1 1570:1 1739:1 1771:1 1816:1 1828:1 1831:1 1854:1 1924:1 1939:1 2048:1 2088:1 2153:1 2469:1 #
0.14327007389166479534026166220428 676:1 2017:1 2199:1 2301:1 #
-0.02997263819441231200157993441735 663:1 811:1 1189:1 1316:1 1858:1 2180:1 2199:1 #
-0.054441810168922119550494187478762 419:1 1089:1 1570:1 2308:1 2603:1 #
0.14327007389166479534026166220428 1570:1 2153:1 #
0.12634101993580648670700838920311 29:1 31:1 33:1 41:1 42:1 222:1 224:1 226:1 240:1 316:1 329:1 438:1 691:1 1034:1 1133:1 1471:1 1493:1 1773:1 1781:1 1819:1 1863:1 2062:1 2199:1 2375:1 2555:1 2557:1 2595:1 #
-0.14327007389166479534026166220428 2199:1 2308:1 2519:1 #
0.046143242492602765114639851162792 226:1 585:1 758:1 781:1 944:1 965:1 1021:1 1101:1 1212:1 1293:1 1799:1 2069:1 2199:1 2557:1 #
-0.0070973989954097177479397373645043 226:1 285:1 358:1 624:1 651:1 1338:1 1516:1 1517:1 1570:1 1773:1 1860:1 2199:1 2232:1 #
0.14327007389166479534026166220428 137:1 152:1 226:1 1355:1 1609:1 1698:1 1773:1 1937:1 2199:1 #
-0.14327007389166479534026166220428 1773:1 1939:1 2199:1 #
-0.14327007389166479534026166220428 154:1 226:1 359:1 404:1 751:1 877:1 1299:1 1556:1 1738:1 1773:1 2028:1 2088:1 2131:1 2153:1 2199:1 #
-0.025086078907998680953550518779593 7:1 226:1 620:1 1773:1 1939:1 2199:1 #
0.14327007389166479534026166220428 1543:1 2062:1 2120:1 2199:1 #
-0.013805288853126530118631265509066 134:1 421:1 456:1 477:1 488:1 501:1 541:1 599:1 613:1 785:1 872:1 1079:1 1106:1 1160:1 1180:1 1241:1 1517:1 1609:1 1658:1 1773:1 1854:1 1863:1 2199:1 2257:1 2479:1 2577:1 2595:1 #
0.14327007389166479534026166220428 68:1 226:1 635:1 1570:1 1646:1 1717:1 1765:1 1977:1 #
0.14327007389166479534026166220428 866:1 1089:1 1293:1 1570:1 1860:1 #
0.14327007389166479534026166220428 155:1 644:1 1067:1 1570:1 #
0.14327007389166479534026166220428 24:1 294:1 1104:1 1516:1 1517:1 2088:1 2217:1 2580:1 #
0.14327007389166479534026166220428 816:1 1034:1 1472:1 1502:1 1519:1 1570:1 #
0.0069399942030612853452464783288178 89:1 1003:1 1625:1 1833:1 2062:1 2120:1 2199:1 2333:1 2577:1 #
-0.072202623358831694022619274164754 240:1 644:1 1570:1 1699:1 1854:1 #
-0.078427428130529996952446936120396 1422:1 1428:1 1570:1 1608:1 1728:1 1839:1 2409:1 #
0.087923840179297316210771384703548 294:1 460:1 1089:1 1519:1 1658:1 1750:1 1854:1 2326:1 #
-0.12187409938613909254900846690362 24:1 1160:1 1592:1 2201:1 2255:1 #
0.14327007389166479534026166220428 1609:1 1773:1 1848:1 2185:1 2199:1 #
0.14327007389166479534026166220428 413:1 419:1 542:1 585:1 596:1 1475:1 1517:1 1559:1 1570:1 1609:1 1616:1 1769:1 1773:1 1801:1 1853:1 1858:1 1923:1 1964:1 2199:1 2308:1 2481:1 #
0.087903178768020603928157186146564 222:1 224:1 242:1 393:1 1016:1 1079:1 1289:1 1338:1 1660:1 1705:1 1773:1 2062:1 2199:1 #
-0.14327007389166479534026166220428 1773:1 2062:1 2185:1 2199:1 #
-0.14327007389166479534026166220428 31:1 226:1 542:1 1015:1 1052:1 1222:1 1325:1 1609:1 2062:1 2185:1 2199:1 2511:1 2603:1 #
-0.14327007389166479534026166220428 1089:1 1316:1 2199:1 #
0.10985100402984612766310590359353 294:1 334:1 439:1 542:1 867:1 1427:1 1809:1 1943:1 1958:1 2079:1 2175:1 2199:1 2362:1 2490:1 #
-0.14327007389166479534026166220428 154:1 318:1 1556:1 2199:1 2557:1 2595:1 #
0.14327007389166479534026166220428 7:1 1854:1 2118:1 2120:1 2605:1 #
0.14327007389166479534026166220428 24:1 488:1 1854:1 2085:1 #
0.14327007389166479534026166220428 1854:1 1867:1 1980:1 2118:1 2120:1 #
0.14327007389166479534026166220428 757:1 1422:1 1854:1 2118:1 #
-0.14327007389166479534026166220428 529:1 730:1 1278:1 1422:1 1570:1 1761:1 1854:1 1977:1 2120:1 2153:1 #
-0.1061468565587029011521025267939 811:1 1433:1 2199:1 2308:1 #
-0.047939187090522875078768549883534 67:1 603:1 973:1 1014:1 1189:1 1660:1 1751:1 2088:1 2120:1 2199:1 #
-0.10604640252087980945017164913224 42:1 781:1 932:1 1854:1 2218:1 #
-0.14327007389166479534026166220428 24:1 488:1 1728:1 1773:1 1854:1 #
0.03500119538531868551567427516602 226:1 355:1 603:1 735:1 1525:1 1896:1 2062:1 2199:1 2245:1 #
0.14327007389166479534026166220428 96:1 226:1 609:1 614:1 725:1 1453:1 1784:1 2182:1 2199:1 #
0.14327007389166479534026166220428 31:1 226:1 334:1 542:1 1240:1 2062:1 2199:1 2595:1 #
0.14327007389166479534026166220428 226:1 1079:1 1258:1 1570:1 1761:1 2062:1 2199:1 #
0.14327007389166479534026166220428 24:1 226:1 794:1 811:1 1556:1 2199:1 #
0.062660232049628492023707337921223 250:1 2062:1 2199:1 #
-0.048127550927174196637725600567137 224:1 226:1 616:1 644:1 654:1 1079:1 1210:1 1693:1 1867:1 2062:1 2173:1 2199:1 2355:1 2614:1 #
-0.062677856932705222625656915624859 294:1 428:1 1090:1 1570:1 1943:1 2097:1 #
0.050541022815257720390835771695492 177:1 520:1 2062:1 2148:1 2199:1 #
-0.14327007389166479534026166220428 1230:1 2199:1 2481:1 #
0.061397628753603238072056313967551 29:1 41:1 42:1 133:1 222:1 224:1 271:1 438:1 603:1 781:1 823:1 1014:1 1066:1 1196:1 1393:1 1416:1 1773:1 1801:1 2152:1 2153:1 2216:1 2488:1 2602:1 #
0.14327007389166479534026166220428 240:1 488:1 572:1 1854:1 2173:1 2326:1 #
0.14327007389166479534026166220428 12:1 155:1 328:1 781:1 1506:1 1591:1 1658:1 1854:1 2111:1 #
0.14327007389166479534026166220428 73:1 1542:1 1570:1 1854:1 2419:1 #
-0.064385451107005692295004450897977 292:1 334:1 603:1 755:1 812:1 982:1 1597:1 1693:1 1853:1 2034:1 2163:1 2326:1 2602:1 #
-0.13849013762011494477199846642179 155:1 316:1 728:1 736:1 1090:1 1196:1 1362:1 1627:1 2118:1 2234:1 #
-0.14327007389166479534026166220428 334:1 530:1 1570:1 1773:1 1801:1 2062:1 #
-0.14327007389166479534026166220428 427:1 488:1 635:1 1062:1 1570:1 1705:1 #
-0.048330316568768343088446926003598 1605:1 2199:1 2557:1 #
0.14327007389166479534026166220428 7:1 226:1 451:1 811:1 1119:1 1189:1 1296:1 1939:1 2118:1 2199:1 2245:1 #
0.084055319091600272374265045982611 17:1 176:1 226:1 294:1 451:1 457:1 496:1 629:1 877:1 1137:1 1293:1 1543:1 1564:1 1983:1 2199:1 2242:1 2518:1 2524:1 #
0.079511178730093640121268094844709 29:1 69:1 133:1 162:1 439:1 700:1 1034:1 1865:1 2062:1 2199:1 2200:1 2352:1 2358:1 2637:1 #
0.14327007389166479534026166220428 793:1 1441:1 2070:1 2199:1 #
0.018442757595519033986253276680145 52:1 294:1 541:1 902:1 1133:1 1160:1 1226:1 1375:1 1441:1 1529:1 1552:1 1574:1 1773:1 1781:1 1862:1 2062:1 2120:1 2199:1 2336:1 2362:1 2380:1 2469:1 2496:1 2511:1 #
-0.13356556970619246071940722231375 13:1 68:1 96:1 438:1 826:1 1296:1 1351:1 1769:1 1854:1 2199:1 #
-0.14327007389166479534026166220428 294:1 972:1 1483:1 1697:1 1994:1 2199:1 2595:1 #
-0.14327007389166479534026166220428 1316:1 1854:1 2062:1 2199:1 2595:1 #
-0.14327007389166479534026166220428 52:1 294:1 1816:1 1854:1 1916:1 2199:1 2362:1 #
-0.14327007389166479534026166220428 29:1 2120:1 2199:1 2637:1 #
0.14327007389166479534026166220428 400:1 488:1 1062:1 1570:1 #
0.14327007389166479534026166220428 993:1 1062:1 1570:1 1660:1 2153:1 #
0.14327007389166479534026166220428 241:1 400:1 603:1 1061:1 1062:1 1079:1 1570:1 1721:1 1728:1 2325:1 #
-0.14327007389166479534026166220428 7:1 226:1 279:1 328:1 781:1 1119:1 1289:1 1660:1 2345:1 #
-0.056279911171025182037297440729162 609:1 1062:1 1089:1 1377:1 1570:1 1769:1 1784:1 2182:1 #
-0.036686164374756413675271460306249 210:1 895:1 1272:1 1571:1 1609:1 1857:1 1929:1 2199:1 #
-0.024799780916978902967073850049928 114:1 134:1 603:1 1592:1 1609:1 2199:1 #
0.028511085846889192702002802093375 13:1 29:1 31:1 42:1 128:1 294:1 373:1 411:1 530:1 621:1 645:1 671:1 843:1 863:1 909:1 1015:1 1744:1 1826:1 1854:1 2199:1 2216:1 2308:1 2350:1 #
0.14327007389166479534026166220428 1483:1 1773:1 2199:1 #
0.14327007389166479534026166220428 68:1 488:1 895:1 1290:1 1580:1 1854:1 2094:1 2199:1 2481:1 #
0.068536131858084270440656382561428 465:1 551:1 581:1 675:1 902:1 928:1 1517:1 1770:1 1826:1 1854:1 1995:1 2199:1 2481:1 #
-0.14327007389166479534026166220428 309:1 400:1 1148:1 1409:1 1798:1 2199:1 2330:1 #
-0.14327007389166479534026166220428 781:1 820:1 1290:1 2062:1 2120:1 #
-0.14327007389166479534026166220428 1290:1 1483:1 1826:1 2199:1 #
-0.019103627499004086076617170419922 222:1 224:1 294:1 616:1 1346:1 1625:1 1826:1 1833:1 1860:1 2199:1 #
-0.14327007389166479534026166220428 294:1 1230:1 1826:1 2199:1 #
0.14327007389166479534026166220428 226:1 327:1 747:1 781:1 1178:1 1705:1 2425:1 #
0.14327007389166479534026166220428 31:1 52:1 250:1 724:1 1289:1 1422:1 2098:1 2326:1 #
0.14327007389166479534026166220428 671:1 781:1 1014:1 1422:1 1645:1 1861:1 #
-0.080163439604986508335571215866366 309:1 1219:1 1916:1 2199:1 2469:1 2595:1 #
-0.053119410524295800068994566345282 154:1 877:1 1323:1 1625:1 2199:1 2317:1 2389:1 #
0.14327007389166479534026166220428 2062:1 2199:1 #
-0.031468076647965581571497750701383 154:1 226:1 596:1 781:1 836:1 892:1 1137:1 1459:1 1759:1 2199:1 #
-0.051758074678107862665044081040833 616:1 1079:1 1351:1 1556:1 1625:1 2062:1 2199:1 #
0.14327007389166479534026166220428 108:1 1137:1 1219:1 1459:1 1591:1 1784:1 2199:1 #
0.14327007389166479534026166220428 1113:1 1826:1 1860:1 2199:1 #
0.14327007389166479534026166220428 294:1 411:1 1826:1 2199:1 #
0.14327007389166479534026166220428 108:1 355:1 363:1 1798:1 2199:1 #
0.14327007389166479534026166220428 541:1 1400:1 2182:1 2199:1 2366:1 2399:1 2595:1 #
-0.14327007389166479534026166220428 11:1 133:1 156:1 226:1 284:1 1079:1 1086:1 1289:1 1510:1 2199:1 2275:1 #
-0.11664819584943929287046415765872 31:1 73:1 218:1 412:1 453:1 576:1 586:1 613:1 1014:1 1034:1 1079:1 1151:1 1318:1 1734:1 1839:1 1854:1 2062:1 2088:1 2199:1 2399:1 #
-0.10624184028373824528745927864293 120:1 504:1 542:1 603:1 791:1 807:1 1219:1 1266:1 1901:1 2199:1 2542:1 #
-0.11541636249794443025429302451812 40:1 404:1 509:1 606:1 877:1 1014:1 1030:1 1189:1 1220:1 1697:1 2088:1 2199:1 2214:1 2305:1 2481:1 2557:1 #
-0.081224509791912757883380891144043 31:1 419:1 553:1 603:1 842:1 1189:1 1769:1 2137:1 2199:1 2465:1 #
0.14327007389166479534026166220428 192:1 614:1 781:1 892:1 950:1 #
-0.048055046022630561186606001911059 226:1 614:1 932:1 1198:1 1492:1 2118:1 2182:1 2199:1 2245:1 2366:1 #
-0.086848001524017587327008982356347 747:1 1511:1 2118:1 2469:1 #
-0.14327007389166479534026166220428 411:1 843:1 1609:1 2199:1 #
-0.02523381840702322229108567341882 8:1 96:1 182:1 240:1 404:1 614:1 2033:1 2199:1 2372:1 #
-0.0025743528539134562412027396050007 240:1 294:1 791:1 796:1 1175:1 1219:1 1570:1 1709:1 1845:1 2190:1 #
0.14327007389166479534026166220428 262:1 711:1 1079:1 1135:1 1289:1 1514:1 2199:1 2268:1 2308:1 #
0.14327007389166479534026166220428 1486:1 1773:1 2199:1 #
0.14327007389166479534026166220428 603:1 781:1 1089:1 1110:1 1315:1 1658:1 1864:1 1980:1 #
0.14327007389166479534026166220428 13:1 40:1 162:1 226:1 334:1 781:1 1089:1 1217:1 1289:1 1570:1 1874:1 #
0.14327007389166479534026166220428 1062:1 2118:1 2153:1 #
-0.034351480262385228336974307694618 1058:1 1089:1 1338:1 1459:1 1570:1 1773:1 1801:1 2245:1 #
-0.020994025453595622360269956629963 11:1 226:1 811:1 1029:1 1277:1 1556:1 1642:1 1836:1 1916:1 1979:1 2199:1 2327:1 2595:1 2603:1 #
-0.10142595824062199116877280857807 294:1 519:1 645:1 1916:1 2199:1 2362:1 #
-0.05264193993440473978706606317246 33:1 155:1 1570:1 1784:1 1861:1 2164:1 #
0.080934876072589839735016425947833 69:1 155:1 394:1 455:1 495:1 745:1 823:1 955:1 1110:1 1149:1 1243:1 1316:1 1421:1 1492:1 1517:1 1586:1 1589:1 1664:1 1726:1 1740:1 1765:1 1767:1 1801:1 1854:1 1943:1 2081:1 2199:1 2214:1 2245:1 2257:1 2304:1 2400:1 2459:1 2470:1 2595:1 #
0.14327007389166479534026166220428 444:1 843:1 1519:1 1769:1 2088:1 2185:1 2199:1 2308:1 2420:1 #
0.14327007389166479534026166220428 67:1 209:1 1943:1 1977:1 2199:1 #
0.14327007389166479534026166220428 843:1 889:1 1316:1 2062:1 2070:1 2199:1 2432:1 #
-0.14327007389166479534026166220428 444:1 1316:1 1854:1 2062:1 2199:1 #
-0.14327007389166479534026166220428 2062:1 2199:1 2308:1 2399:1 #
-0.14327007389166479534026166220428 1316:1 1854:1 2062:1 2199:1 #
-0.14327007389166479534026166220428 1316:1 2062:1 2070:1 2199:1 #
0.11664814955559482667624138230167 7:1 542:1 1079:1 1570:1 1854:1 2153:1 #
0.14327007389166479534026166220428 294:1 400:1 494:1 1362:1 1570:1 1854:1 1915:1 2073:1 2308:1 2602:1 #
-0.043336146272704344217796545990495 423:1 502:1 843:1 1362:1 1609:1 2199:1 #
-0.14327007389166479534026166220428 414:1 419:1 889:1 1079:1 1570:1 #
-0.0044310917974242428063469390053797 7:1 11:1 195:1 210:1 294:1 585:1 636:1 665:1 727:1 738:1 781:1 1044:1 1098:1 1559:1 1609:1 1658:1 1766:1 1927:1 1931:1 2273:1 #
-0.109482572967646379913375653814 1017:1 1570:1 1591:1 #
-0.14327007389166479534026166220428 67:1 294:1 311:1 1327:1 1570:1 1980:1 #
0.086502316090188519082104789958976 309:1 2062:1 2199:1 #
0.14327007389166479534026166220428 269:1 1847:1 1854:1 2040:1 2062:1 2120:1 2199:1 #
0.043227757630578199365967151379664 309:1 622:1 2062:1 2199:1 2522:1 2605:1 #
0.14327007389166479534026166220428 53:1 226:1 1034:1 1450:1 2062:1 2098:1 2199:1 2375:1 #
-0.044982746121527063254408318471178 187:1 250:1 942:1 1129:1 1469:1 1734:1 1740:1 1746:1 1769:1 2000:1 2199:1 #
0.14327007389166479534026166220428 1425:1 2062:1 2199:1 #
-0.072359589523995501703090837963828 166:1 444:1 1083:1 1135:1 1362:1 2199:1 2245:1 2308:1 #
-0.14327007389166479534026166220428 31:1 998:1 1304:1 1480:1 1658:1 2062:1 2070:1 2144:1 2199:1 2308:1 2412:1 #
0.14327007389166479534026166220428 11:1 390:1 1570:1 2062:1 #
0.14327007389166479534026166220428 987:1 1570:1 2062:1 2085:1 #
-0.14327007389166479534026166220428 226:1 474:1 781:1 973:1 1822:1 1964:1 2062:1 2198:1 #
-0.10891237126417364911024066032041 222:1 226:1 468:1 524:1 681:1 1289:1 1515:1 1570:1 2420:1 #
-0.14327007389166479534026166220428 572:1 616:1 2062:1 2199:1 #
-0.14327007389166479534026166220428 542:1 1316:1 1854:1 2062:1 2199:1 #
-0.14327007389166479534026166220428 616:1 1079:1 2062:1 2199:1 #
0.058577556015139704836958145506287 33:1 69:1 96:1 180:1 311:1 349:1 603:1 748:1 920:1 955:1 1081:1 1325:1 1753:1 1958:1 2199:1 2362:1 2595:1 #
-0.051241187075406806339383791737419 1609:1 2199:1 2481:1 2595:1 2637:1 #
0.14327007389166479534026166220428 328:1 572:1 676:1 811:1 1083:1 1119:1 1219:1 1612:1 1932:1 2199:1 2593:1 #
0.14327007389166479534026166220428 279:1 294:1 2199:1 #
0.12735770688795786109714924805303 207:1 419:1 460:1 1079:1 1258:1 1304:1 1422:1 1658:1 1750:1 1787:1 1854:1 2326:1 #
-0.035349892236402565004471654219742 811:1 968:1 1034:1 1399:1 2199:1 #
-0.078965568568138508331877289947442 811:1 1605:1 1798:1 2199:1 #
-0.013172987626721976983645845393767 220:1 1344:1 1570:1 1784:1 #
-0.14327007389166479534026166220428 353:1 1034:1 1771:1 2199:1 #
-0.14327007389166479534026166220428 959:1 1099:1 1854:1 2326:1 #
0.14327007389166479534026166220428 226:1 263:1 542:1 585:1 635:1 736:1 811:1 932:1 1446:1 1570:1 1645:1 1705:1 2001:1 2199:1 2253:1 2308:1 2366:1 2395:1 2524:1 2530:1 #
0.14327007389166479534026166220428 147:1 316:1 2062:1 2199:1 2308:1 #
0.14327007389166479534026166220428 24:1 404:1 2062:1 #
0.14327007389166479534026166220428 24:1 42:1 404:1 2062:1 #
0.14327007389166479534026166220428 1839:1 2062:1 2199:1 #
0.13885081739504581688215978374501 42:1 594:1 603:1 1075:1 2199:1 2335:1 2595:1 #
-0.08222377777161360423718861056841 24:1 709:1 1500:1 1645:1 1711:1 1931:1 2572:1 #
-0.14327007389166479534026166220428 781:1 1608:1 2062:1 2120:1 2605:1 #
0.14327007389166479534026166220428 222:1 713:1 877:1 1089:1 1325:1 1854:1 2199:1 2202:1 2305:1 2606:1 #
0.14327007389166479534026166220428 134:1 353:1 411:1 444:1 1168:1 1771:1 2088:1 2199:1 2245:1 #
0.14327007389166479534026166220428 718:1 1771:1 2076:1 2199:1 #
0.14327007389166479534026166220428 835:1 1460:1 1946:1 2199:1 2399:1 #
0.14327007389166479534026166220428 488:1 1014:1 1517:1 1693:1 1734:1 1854:1 2326:1 #
-0.14327007389166479534026166220428 33:1 603:1 793:1 2199:1 2308:1 2532:1 #
-0.14327007389166479534026166220428 1217:1 2199:1 #
-0.037325876494098263191911968306158 419:1 953:1 1014:1 1517:1 1571:1 1609:1 1894:1 2150:1 2199:1 2637:1 #
-0.030162904010668286497454104733151 318:1 1014:1 1220:1 1660:1 1850:1 2199:1 #
0.081228924720533501879771165476996 24:1 111:1 293:1 411:1 593:1 594:1 765:1 872:1 945:1 1135:1 #
0.14327007389166479534026166220428 1484:1 2326:1 2569:1 #
0.14327007389166479534026166220428 781:1 2153:1 #
-0.077054577300634946590562890378351 504:1 2187:1 2326:1 2602:1 #
-0.046910837715453512775098943166086 703:1 992:1 1693:1 2326:1 #
-0.0032001872781835948196527130704681 294:1 370:1 374:1 542:1 644:1 667:1 723:1 867:1 907:1 1219:1 1385:1 1387:1 1492:1 1598:1 1728:1 1732:1 1888:1 1891:1 2006:1 2182:1 2188:1 2326:1 #
-0.089493929085473752915724787726504 1935:1 2326:1 2483:1 #
0.14327007389166479534026166220428 254:1 889:1 1608:1 1745:1 1923:1 2199:1 2265:1 2636:1 #
0.14327007389166479534026166220428 275:1 320:1 1014:1 2099:1 2165:1 2199:1 2211:1 2603:1 #
0.14327007389166479534026166220428 226:1 316:1 645:1 758:1 1189:1 1542:1 1570:1 1608:1 2199:1 2308:1 #
0.14327007389166479534026166220428 811:1 1090:1 2151:1 2199:1 #
-0.14327007389166479534026166220428 226:1 609:1 1089:1 1570:1 2199:1 2495:1 #
-0.14327007389166479534026166220428 411:1 972:1 2199:1 2281:1 2308:1 #
-0.14327007389166479534026166220428 730:1 781:1 2062:1 2120:1 2570:1 #
0.11652027023185269893890136927439 374:1 438:1 512:1 542:1 663:1 668:1 737:1 867:1 1026:1 1079:1 1123:1 1219:1 1316:1 1362:1 1568:1 2068:1 2153:1 2326:1 2333:1 #
0.14327007389166479534026166220428 144:1 594:1 973:1 1219:1 1474:1 2326:1 #
0.14327007389166479534026166220428 38:1 603:1 1289:1 1376:1 1854:1 2326:1 2557:1 #
0.14327007389166479534026166220428 7:1 1101:1 1119:1 2069:1 2326:1 #
-0.14327007389166479534026166220428 1608:1 1635:1 1943:1 2326:1 #
-0.081006839608891142989754996506235 136:1 206:1 222:1 224:1 294:1 499:1 519:1 645:1 1219:1 1289:1 1854:1 1916:1 2199:1 2239:1 2278:1 2308:1 2362:1 2556:1 2615:1 #
-0.051364591614350925408150061457491 542:1 936:1 1219:1 1398:1 1484:1 1514:1 1705:1 2199:1 2399:1 #
0.14327007389166479534026166220428 13:1 222:1 385:1 419:1 541:1 596:1 707:1 811:1 972:1 1221:1 1517:1 1773:1 1800:1 2035:1 2120:1 2185:1 2199:1 #
0.14327007389166479534026166220428 16:1 226:1 411:1 1289:1 2199:1 #
0.14327007389166479534026166220428 1834:1 2062:1 2199:1 #
-0.13683834414610218654928530668258 240:1 242:1 411:1 596:1 899:1 1511:1 1517:1 1767:1 1773:1 1863:1 1938:1 2199:1 #
-0.14327007389166479534026166220428 573:1 811:1 819:1 2199:1 2335:1 #
-0.069201251160837293219252330800373 325:1 616:1 872:1 973:1 1079:1 1109:1 1658:1 2062:1 2199:1 2537:1 #
-0.097710401040776495573680904271896 69:1 96:1 2120:1 2199:1 #
0.14327007389166479534026166220428 1428:1 2199:1 2406:1 #
0.14327007389166479534026166220428 1428:1 1860:1 2199:1 #
0.14327007389166479534026166220428 196:1 1079:1 1951:1 2199:1 2406:1 2637:1 #
0.14327007389166479534026166220428 196:1 763:1 1079:1 1951:1 2199:1 2406:1 2637:1 #
-0.14327007389166479534026166220428 495:1 1346:1 1860:1 2199:1 #
-0.14327007389166479534026166220428 96:1 477:1 1119:1 1605:1 1724:1 2199:1 2524:1 2637:1 #
-0.14327007389166479534026166220428 1742:1 2199:1 #
-0.14327007389166479534026166220428 274:1 2199:1 #
0.1209907667232474198781844165751 31:1 83:1 146:1 848:1 1298:1 1441:1 1660:1 1854:1 2199:1 2538:1 #
-0.14327007389166479534026166220428 226:1 811:1 1095:1 1609:1 1854:1 2062:1 2199:1 2267:1 #
-0.14327007389166479534026166220428 13:1 1773:1 2062:1 2070:1 2199:1 #
-0.14327007389166479534026166220428 13:1 1351:1 2199:1 #
-0.14327007389166479534026166220428 13:1 1034:1 2199:1 2538:1 #
0.14327007389166479534026166220428 1079:1 1346:1 2199:1 2245:1 2400:1 2520:1 #
0.14327007389166479534026166220428 780:1 2199:1 2503:1 #
0.14327007389166479534026166220428 1269:1 2199:1 #
0.14327007389166479534026166220428 488:1 2199:1 #
-0.14327007389166479534026166220428 1017:1 2199:1 #
-0.13980173950157495643686900166358 42:1 273:1 276:1 294:1 328:1 572:1 603:1 699:1 1570:1 2088:1 2097:1 2503:1 #
-0.14327007389166479534026166220428 178:1 572:1 1079:1 1570:1 #
0.14327007389166479534026166220428 1570:1 1692:1 1854:1 2062:1 #
0.14327007389166479534026166220428 363:1 1570:1 1623:1 1939:1 2062:1 #
-0.14327007389166479534026166220428 1255:1 1570:1 1660:1 1854:1 #
-0.042173528591137342258488018842399 67:1 1570:1 1660:1 1943:1 2524:1 #
-0.071375001126131640272198808361281 889:1 1570:1 2125:1 #
-0.14327007389166479534026166220428 1240:1 1570:1 1761:1 1854:1 #
-0.044829697731502061996966546075782 29:1 163:1 522:1 603:1 607:1 614:1 1062:1 1137:1 1459:1 1486:1 1570:1 2245:1 #
0.14327007389166479534026166220428 29:1 1171:1 1736:1 2199:1 2362:1 #
0.14327007389166479534026166220428 411:1 2199:1 #
0.14327007389166479534026166220428 1189:1 1428:1 2040:1 2120:1 2152:1 2199:1 2570:1 #
0.14327007389166479534026166220428 29:1 603:1 676:1 805:1 2094:1 2199:1 #
-0.095398860364741960848888879809238 29:1 42:1 606:1 902:1 1239:1 1449:1 1492:1 1604:1 1609:1 1909:1 1937:1 2027:1 2062:1 2199:1 2573:1 #
-0.045909368718812147702745818378389 411:1 576:1 718:1 1290:1 1609:1 2098:1 2199:1 #
-0.092967788828556011115900048480398 42:1 222:1 224:1 645:1 1302:1 1826:1 1916:1 2199:1 #
-0.14327007389166479534026166220428 1089:1 2120:1 2199:1 #
-0.0019654861480462278502945316915884 865:1 1570:1 1703:1 1778:1 2049:1 2163:1 2423:1 #
-0.14327007389166479534026166220428 781:1 973:1 2062:1 #
-0.14327007389166479534026166220428 196:1 411:1 781:1 1938:1 #
-0.14327007389166479534026166220428 542:1 634:1 663:1 1062:1 1137:1 1459:1 1570:1 1645:1 2245:1 #
0.14327007389166479534026166220428 226:1 959:1 1570:1 1799:1 2062:1 2199:1 #
-0.085729329629071385210359323991725 42:1 69:1 182:1 222:1 223:1 224:1 226:1 419:1 603:1 609:1 747:1 817:1 975:1 1083:1 1132:1 1229:1 1235:1 1405:1 1415:1 1819:1 1877:1 1977:1 2069:1 2199:1 2203:1 2245:1 2291:1 #
-0.12407936505195335530338240914716 24:1 226:1 1108:1 1339:1 1660:1 1939:1 2199:1 2308:1 2445:1 #
-0.14327007389166479534026166220428 616:1 2062:1 2199:1 #
0.14327007389166479534026166220428 781:1 1079:1 2153:1 #
-0.14090781742324914871389296422421 468:1 1061:1 1189:1 1570:1 #
-0.013017350410942636271260930413973 736:1 1570:1 1810:1 2265:1 #
-0.14327007389166479534026166220428 1079:1 2308:1 2326:1 #
-0.049700245243320832766453776230264 736:1 932:1 1772:1 1977:1 2249:1 2326:1 2481:1 2570:1 #
0.14327007389166479534026166220428 24:1 222:1 224:1 404:1 793:1 2062:1 #
-0.082497664111274363052395131035155 24:1 222:1 224:1 320:1 404:1 444:1 611:1 962:1 1145:1 1220:1 2570:1 #
0.10605462548118693710819115949562 22:1 49:1 52:1 89:1 294:1 542:1 566:1 586:1 596:1 615:1 663:1 1132:1 1193:1 1225:1 1289:1 1338:1 1351:1 1483:1 1508:1 1566:1 1761:1 1773:1 1785:1 1801:1 1833:1 1875:1 1888:1 2115:1 2229:1 2258:1 2308:1 2326:1 2333:1 2481:1 2577:1 2601:1 #
0.14327007389166479534026166220428 1854:1 1863:1 1981:1 2199:1 #
0.14327007389166479534026166220428 132:1 226:1 372:1 405:1 855:1 1556:1 2199:1 2335:1 2595:1 #
0.14327007389166479534026166220428 1773:1 1801:1 2062:1 2199:1 2444:1 2577:1 #
0.14327007389166479534026166220428 13:1 52:1 525:1 713:1 1422:1 1854:1 1860:1 2199:1 #
0.021465542169181717896409011814285 39:1 119:1 160:1 162:1 195:1 219:1 222:1 224:1 309:1 398:1 419:1 462:1 472:1 545:1 893:1 902:1 1014:1 1194:1 1199:1 1212:1 1280:1 1355:1 1620:1 1769:1 1773:1 1809:1 1819:1 1833:1 1844:1 1931:1 2120:1 2185:1 2199:1 2214:1 2245:1 2329:1 2333:1 2335:1 2361:1 2406:1 2502:1 #
0.14327007389166479534026166220428 1089:1 1770:1 2199:1 #
0.097890127520685640827302620436967 1206:1 1770:1 1939:1 2199:1 2335:1 #
0.14327007389166479534026166220428 794:1 2199:1 #
0.14327007389166479534026166220428 11:1 1185:1 1747:1 2019:1 2199:1 2364:1 #
0.14327007389166479534026166220428 1656:1 1988:1 2199:1 2637:1 #
0.12740035290847578908213222348422 96:1 411:1 476:1 542:1 621:1 886:1 1090:1 1188:1 1826:1 2072:1 2199:1 2225:1 2238:1 #
0.14327007389166479534026166220428 645:1 2088:1 2199:1 2478:1 2539:1 #
0.079076665865360357132729518525593 24:1 41:1 42:1 175:1 217:1 226:1 294:1 309:1 329:1 604:1 640:1 737:1 803:1 943:1 1112:1 1117:1 1771:1 1901:1 2217:1 2371:1 2566:1 #
0.14327007389166479534026166220428 69:1 96:1 1293:1 1860:1 2199:1 #
0.079072858253971187170172640890087 52:1 57:1 318:1 877:1 1264:1 2030:1 2062:1 2199:1 2215:1 2496:1 #
0.14327007389166479534026166220428 676:1 819:1 2199:1 2245:1 #
0.067034598911704781909470796108508 603:1 630:1 1457:1 1463:1 1556:1 1583:1 2062:1 2120:1 2199:1 2335:1 #
-0.12045692552907280581386828544055 226:1 863:1 1407:1 1422:1 1428:1 1570:1 2199:1 2441:1 2493:1 2578:1 #
-0.12900087647670319124237892083329 162:1 541:1 785:1 1330:1 1773:1 1863:1 1888:1 2199:1 2637:1 #
-0.091477228848793418203300120694621 437:1 793:1 893:1 1427:1 2120:1 2199:1 #
-0.14327007389166479534026166220428 155:1 2000:1 2199:1 #
-0.05932538651110930150167632746161 162:1 226:1 330:1 485:1 539:1 566:1 811:1 823:1 1106:1 1593:1 1705:1 2199:1 2295:1 2581:1 #
0.058282023871108305790311732152986 542:1 621:1 718:1 841:1 1062:1 1088:1 1218:1 1441:1 1570:1 1750:1 1980:1 2119:1 2158:1 2263:1 2361:1 2380:1 2602:1 #
0.089225909595064850643453269185557 130:1 253:1 287:1 311:1 400:1 603:1 781:1 1014:1 1090:1 1212:1 1383:1 1618:1 1693:1 1848:1 1939:1 #
0.14327007389166479534026166220428 1570:1 2153:1 2278:1 #
-0.14327007389166479534026166220428 542:1 676:1 1220:1 1570:1 1705:1 1744:1 2199:1 #
-0.14327007389166479534026166220428 24:1 1483:1 2088:1 2602:1 #
-0.0049868539615111739243813460120691 460:1 730:1 1258:1 1570:1 1750:1 2120:1 2618:1 #
-0.098535959119931154637228587489517 7:1 374:1 488:1 542:1 747:1 867:1 1521:1 1658:1 1773:1 1854:1 2097:1 2176:1 2188:1 2199:1 2253:1 2457:1 2516:1 2600:1 #
0.14327007389166479534026166220428 179:1 411:1 811:1 1854:1 2199:1 #
0.14327007389166479534026166220428 51:1 483:1 811:1 843:1 885:1 1079:1 1394:1 1854:1 2120:1 2199:1 #
0.14327007389166479534026166220428 1119:1 1427:1 1939:1 2199:1 #
0.14327007389166479534026166220428 42:1 447:1 490:1 960:1 1094:1 1329:1 1560:1 1860:1 2199:1 #
-0.14327007389166479534026166220428 1316:1 1854:1 1860:1 2199:1 #
-0.14327007389166479534026166220428 294:1 411:1 645:1 1773:1 1826:1 2199:1 #
-0.14327007389166479534026166220428 42:1 603:1 1609:1 1854:1 2199:1 #
-0.029928366769416677589665809477992 294:1 320:1 363:1 596:1 877:1 1014:1 1096:1 1351:1 1362:1 1725:1 1771:1 2120:1 2199:1 2265:1 2333:1 2362:1 #
0.14327007389166479534026166220428 542:1 676:1 2199:1 #
-0.13421101948078420496024421026959 69:1 96:1 139:1 226:1 404:1 419:1 542:1 1117:1 1771:1 2199:1 2504:1 #
0.14327007389166479534026166220428 72:1 92:1 309:1 411:1 603:1 645:1 747:1 1826:1 2199:1 #
0.084954502898383132958315400173888 67:1 71:1 294:1 411:1 875:1 933:1 1555:1 1826:1 2129:1 2199:1 2555:1 #
0.12232087427484962527390877085054 294:1 892:1 1014:1 1330:1 1863:1 2199:1 2211:1 2501:1 2602:1 2637:1 #
0.018598278550152287647012627758158 67:1 106:1 139:1 462:1 537:1 661:1 700:1 806:1 883:1 902:1 971:1 1286:1 1618:1 1686:1 1769:1 1832:1 1849:1 1853:1 1909:1 1961:1 2161:1 2175:1 2185:1 2199:1 2245:1 2267:1 2274:1 2333:1 2362:1 2368:1 2500:1 2501:1 2524:1 2618:1 2637:1 #
-0.14327007389166479534026166220428 1201:1 2182:1 2199:1 2565:1 #
-0.14327007389166479534026166220428 468:1 2199:1 #
-0.14327007389166479534026166220428 81:1 334:1 2137:1 2199:1 2442:1 #
-0.14327007389166479534026166220428 226:1 1609:1 1747:1 1949:1 2062:1 2199:1 #
-0.14327007389166479534026166220428 7:1 226:1 316:1 542:1 1289:1 1609:1 1711:1 1875:1 2118:1 2199:1 #
-0.077143550900724361385485394748684 42:1 222:1 1034:1 2199:1 2249:1 #
-0.076876839111872777299261372263572 24:1 226:1 336:1 542:1 654:1 974:1 1351:1 1497:1 1854:1 2199:1 2333:1 #
-0.14327007389166479534026166220428 275:1 318:1 1219:1 2199:1 #
0.14327007389166479534026166220428 203:1 411:1 1854:1 2199:1 #
0.14327007389166479534026166220428 132:1 785:1 1854:1 1860:1 1863:1 2199:1 #
-0.049721630427226687354291811971052 353:1 454:1 1773:1 1860:1 2199:1 2324:1 #
-0.081144077902809891300606182085176 516:1 1014:1 1773:1 1860:1 2199:1 2265:1 2369:1 #
-0.030333528410472491293470298501234 73:1 1773:1 1860:1 2199:1 #
-0.14327007389166479534026166220428 294:1 411:1 1773:1 1826:1 2199:1 #
0.14327007389166479534026166220428 24:1 83:1 226:1 596:1 688:1 711:1 811:1 2014:1 2199:1 2598:1 #
0.14327007389166479534026166220428 542:1 1145:1 1549:1 2062:1 2199:1 #
-0.14327007389166479534026166220428 226:1 1570:1 1608:1 1854:1 1931:1 2062:1 2120:1 2199:1 #
-0.084045242372227199623146987050859 542:1 616:1 1222:1 1378:1 2062:1 2088:1 2199:1 #
-0.14327007389166479534026166220428 616:1 1660:1 2062:1 2199:1 2577:1 #
0.14327007389166479534026166220428 24:1 42:1 404:1 541:1 603:1 1427:1 1860:1 #
0.14327007389166479534026166220428 195:1 275:1 837:1 1252:1 2040:1 2199:1 2570:1 #
0.1026371694472866941127975337622 13:1 197:1 207:1 1289:1 2047:1 2088:1 2199:1 #
-0.14327007389166479534026166220428 67:1 1089:1 2120:1 2199:1 #
-0.14327007389166479534026166220428 2000:1 2199:1 #
-0.14327007389166479534026166220428 1916:1 2199:1 2595:1 #
0.14327007389166479534026166220428 542:1 2062:1 2199:1 2469:1 #
0.14327007389166479534026166220428 477:1 2062:1 2199:1 #
-0.093123071492714079577801555842598 474:1 579:1 771:1 2199:1 2469:1 #
-0.14327007389166479534026166220428 504:1 1771:1 2199:1 #
0.034919791686284680498619792388126 67:1 294:1 411:1 1076:1 1289:1 1574:1 1660:1 1941:1 2199:1 2269:1 #
0.14327007389166479534026166220428 902:1 1517:1 1770:1 1826:1 1854:1 2199:1 #
0.14327007389166479534026166220428 411:1 987:1 2199:1 #
0.14327007389166479534026166220428 676:1 2199:1 #
0.14327007389166479534026166220428 1441:1 2199:1 #
0.14327007389166479534026166220428 210:1 1833:1 2088:1 2130:1 2199:1 2320:1 #
-0.14327007389166479534026166220428 294:1 553:1 1951:1 2137:1 2199:1 #
0.14327007389166479534026166220428 699:1 2062:1 2199:1 2460:1 #
0.14047602075111606523272200774954 7:1 542:1 843:1 1939:1 2199:1 2253:1 2297:1 2460:1 #
0.14327007389166479534026166220428 11:1 1269:1 2199:1 #
-0.14327007389166479534026166220428 355:1 781:1 1351:1 1854:1 2062:1 2145:1 #
-0.066746247507848299740373931854265 24:1 222:1 224:1 404:1 968:1 1034:1 1589:1 2040:1 2165:1 2249:1 2375:1 2548:1 #
-0.14327007389166479534026166220428 1079:1 1227:1 1514:1 2199:1 2375:1 #
-0.14327007389166479534026166220428 812:1 932:1 1784:1 2094:1 2326:1 2420:1 #
-0.14327007389166479534026166220428 1624:1 2088:1 2173:1 2326:1 #
-0.074020433147405403917495902987866 222:1 224:1 553:1 811:1 1079:1 1642:1 1780:1 1839:1 2199:1 2209:1 #
-0.028659206752372656801242101209937 11:1 811:1 1025:1 1605:1 2199:1 #
0.14327007389166479534026166220428 24:1 404:1 2062:1 2098:1 #
0.14327007389166479534026166220428 226:1 2062:1 2199:1 2595:1 #
0.064869259026079734153924505335453 272:1 542:1 1003:1 1014:1 1220:1 1239:1 1660:1 1699:1 2153:1 2199:1 2570:1 #
0.14327007389166479534026166220428 1290:1 2062:1 2199:1 2595:1 #
0.14327007389166479534026166220428 226:1 2062:1 2199:1 2339:1 #
-0.14327007389166479534026166220428 11:1 67:1 973:1 1187:1 1351:1 1570:1 2062:1 2333:1 #
-0.14327007389166479534026166220428 42:1 1773:1 2062:1 2070:1 2199:1 #
-0.14327007389166479534026166220428 573:1 781:1 2062:1 2308:1 #
0.14327007389166479534026166220428 572:1 1289:1 2199:1 2536:1 2601:1 #
0.14327007389166479534026166220428 69:1 96:1 1428:1 1735:1 2199:1 2406:1 #
0.14327007389166479534026166220428 1189:1 1473:1 1570:1 1660:1 1854:1 2153:1 #
-0.14327007389166479534026166220428 69:1 96:1 614:1 823:1 1306:1 2199:1 #
-0.0317299374292627917037989959681 40:1 41:1 137:1 195:1 226:1 593:1 781:1 1034:1 1289:1 1492:1 1573:1 1660:1 2199:1 2255:1 #
-0.14327007389166479534026166220428 1605:1 2199:1 2595:1 #
-0.088294315218547941848115101493022 96:1 226:1 318:1 434:1 529:1 1854:1 2199:1 2477:1 2637:1 #
-0.094600887287534060621219111908431 226:1 1128:1 1517:1 1839:1 2176:1 2199:1 #
0.14327007389166479534026166220428 67:1 2062:1 2199:1 #
0.14327007389166479534026166220428 811:1 2062:1 2199:1 #
0.14327007389166479534026166220428 1826:1 2062:1 2199:1 #
0.14327007389166479534026166220428 2062:1 2199:1 2557:1 #
0.14327007389166479534026166220428 1875:1 2062:1 2199:1 #
-0.14327007389166479534026166220428 504:1 1802:1 1826:1 2199:1 2444:1 #
-0.14327007389166479534026166220428 444:1 1483:1 2199:1 #
-0.068773053085423738184367437042965 1061:1 1738:1 2120:1 2199:1 #
-0.14327007389166479534026166220428 542:1 2000:1 2199:1 #
0.14327007389166479534026166220428 411:1 645:1 1854:1 2199:1 #
0.14327007389166479534026166220428 403:1 645:1 1302:1 1441:1 2199:1 #
0.031377800985567340374959854898407 24:1 42:1 121:1 127:1 216:1 240:1 256:1 318:1 404:1 411:1 603:1 607:1 675:1 867:1 1101:1 1546:1 1574:1 1658:1 2069:1 2111:1 2199:1 2204:1 2453:1 2487:1 2558:1 2575:1 #
-0.091441779490237726224499681393354 257:1 1549:1 1595:1 2118:1 2365:1 2597:1 #
-0.14327007389166479534026166220428 412:1 613:1 1660:1 1854:1 2199:1 #
-0.14327007389166479534026166220428 730:1 1089:1 1422:1 1943:1 2118:1 #
-0.12678867859337297763211438450526 1665:1 2070:1 2199:1 #
-0.096858897628451637307200883242331 538:1 2070:1 2199:1 #
-0.084078986499902086393376521300524 226:1 517:1 614:1 785:1 811:1 950:1 1207:1 1227:1 1633:1 1803:1 1863:1 2199:1 2245:1 2265:1 #
-0.03226617245619991386496039353915 729:1 781:1 1026:1 1289:1 1372:1 1900:1 1921:1 2308:1 #
-0.13541699349803884566689760049485 781:1 1699:1 1854:1 #
-0.14327007389166479534026166220428 1034:1 1079:1 2199:1 2375:1 #
-0.014527241400230874249221990623937 715:1 1034:1 1090:1 1397:1 1667:1 2199:1 2420:1 2464:1 #
-0.0078749374902863308878231407561543 29:1 31:1 33:1 35:1 38:1 41:1 42:1 47:1 48:1 114:1 121:1 133:1 134:1 205:1 221:1 269:1 279:1 281:1 294:1 328:1 334:1 342:1 596:1 738:1 791:1 902:1 932:1 938:1 1014:1 1105:1 1135:1 1176:1 1219:1 1238:1 1240:1 1255:1 1322:1 1398:1 1504:1 1517:1 1582:1 1592:1 1609:1 1621:1 1705:1 1854:1 1855:1 1858:1 1878:1 1884:1 1896:1 1923:1 1924:1 2070:1 2097:1 2211:1 2234:1 2257:1 2326:1 2345:1 2347:1 2413:1 2483:1 2510:1 2513:1 2528:1 #
-0.077395852520317595657495246541657 29:1 31:1 33:1 488:1 603:1 712:1 736:1 821:1 843:1 889:1 932:1 1510:1 1570:1 1577:1 1773:1 1806:1 2152:1 2508:1 #
-0.14327007389166479534026166220428 1062:1 1980:1 2120:1 2199:1 #
0.078402807640999189198183216831239 64:1 811:1 2062:1 2199:1 2602:1 #
-0.14327007389166479534026166220428 11:1 226:1 811:1 1025:1 1609:1 1839:1 2062:1 2199:1 #
-0.14327007389166479534026166220428 1183:1 2199:1 2308:1 #
-0.14327007389166479534026166220428 24:1 404:1 616:1 2062:1 2481:1 #
-0.14327007389166479534026166220428 542:1 616:1 811:1 2062:1 2199:1 #
-0.06028022032466648361115346688166 33:1 309:1 330:1 1026:1 1109:1 1127:1 1348:1 1359:1 1423:1 1511:1 1517:1 1570:1 1926:1 2062:1 2084:1 2120:1 2303:1 #
-0.14327007389166479534026166220428 616:1 1160:1 2062:1 2199:1 #
-0.00083275317783920970848149378795711 95:1 137:1 316:1 389:1 413:1 438:1 467:1 488:1 572:1 877:1 902:1 1094:1 1184:1 1238:1 1492:1 1570:1 1584:1 1627:1 1773:1 1848:1 1923:1 1933:1 2224:1 2251:1 2255:1 2296:1 2315:1 2330:1 2388:1 2456:1 2472:1 2485:1 2602:1 2635:1 #
-0.14327007389166479534026166220428 1362:1 1609:1 2199:1 2265:1 2406:1 #
-0.045164779155708545399505737805157 294:1 363:1 603:1 867:1 1403:1 1609:1 1784:1 2090:1 2199:1 #
-0.13141674408020634357008304959891 294:1 645:1 1826:1 1916:1 2199:1 #
0.14327007389166479534026166220428 404:1 2062:1 2199:1 #
0.14327007389166479534026166220428 542:1 2062:1 2199:1 #
-0.14327007389166479534026166220428 96:1 222:1 224:1 404:1 614:1 1316:1 1570:1 1769:1 1854:1 2062:1 2072:1 2366:1 #
-0.14327007389166479534026166220428 7:1 781:1 1773:1 2062:1 2605:1 #
-0.14327007389166479534026166220428 351:1 1422:1 1570:1 2062:1 2120:1 #
0.14327007389166479534026166220428 811:1 1089:1 1833:1 2199:1 2595:1 #
-0.067637388677863646835319855199486 438:1 1609:1 2022:1 2062:1 2070:1 2133:1 2199:1 #
0.14327007389166479534026166220428 24:1 614:1 2062:1 2199:1 #
-0.057287189800481856660763213540122 381:1 1354:1 1570:1 1658:1 2220:1 #
-0.14327007389166479534026166220428 24:1 294:1 542:1 1609:1 2088:1 2199:1 #
0.14327007389166479534026166220428 404:1 2062:1 2088:1 2199:1 #
-0.089683956543329917954210372954549 1018:1 1099:1 2088:1 2199:1 2483:1 #
0.14327007389166479534026166220428 31:1 69:1 96:1 603:1 2062:1 2199:1 #
-0.096891191991194822175081924342521 791:1 1219:1 1244:1 1514:1 2199:1 2399:1 #
-0.14327007389166479534026166220428 355:1 419:1 1484:1 1514:1 2199:1 #
-0.14327007389166479534026166220428 1605:1 2088:1 2199:1 #
-0.14327007389166479534026166220428 96:1 404:1 614:1 874:1 2182:1 2199:1 #
0.14327007389166479534026166220428 2062:1 2199:1 2262:1 #
-0.14327007389166479534026166220428 24:1 488:1 1773:1 2621:1 #
-0.14327007389166479534026166220428 294:1 2097:1 2199:1 2308:1 #
-0.14327007389166479534026166220428 1570:1 1699:1 1854:1 #
-0.14327007389166479534026166220428 1428:1 1492:1 1570:1 #
0.14327007389166479534026166220428 294:1 584:1 1517:1 1770:1 2088:1 2199:1 2362:1 #
-0.0079207290978709141149316508290212 294:1 736:1 791:1 1018:1 1219:1 1570:1 1810:1 2088:1 #
-0.13816176020881471009360552670842 615:1 781:1 1219:1 #
-0.025509770180290016611257541967461 226:1 309:1 781:1 1137:1 1189:1 1609:1 1773:1 1980:1 2062:1 2185:1 2199:1 2524:1 #
0.14327007389166479534026166220428 2062:1 2199:1 2450:1 #
-0.082025131667637307675278179885936 736:1 883:1 2326:1 2483:1 #
-0.14327007389166479534026166220428 1605:1 2199:1 2637:1 #
-0.051254098875781646527105550603665 1605:1 2199:1 2255:1 2595:1 2612:1 #
-0.14327007389166479534026166220428 265:1 811:1 1609:1 1833:1 2199:1 #
-0.14327007389166479534026166220428 390:1 1773:1 1860:1 2199:1 #
0.026868538903144691815105815635434 13:1 46:1 162:1 222:1 224:1 1066:1 1286:1 1693:1 1854:1 1964:1 2062:1 2120:1 2185:1 2199:1 2253:1 2501:1 2631:1 #
-0.002057156832697136592674747035403 736:1 932:1 1003:1 1570:1 1627:1 #
0.14327007389166479534026166220428 207:1 1289:1 2088:1 2199:1 #
-0.11921253457453417912148552204599 1977:1 2221:1 2326:1 #
0.14327007389166479534026166220428 1062:1 1570:1 1645:1 2153:1 #
0.089614274298734475365790785872377 11:1 390:1 2062:1 2088:1 2326:1 #
-0.001191361873720855153388487046584 220:1 560:1 943:1 1057:1 1079:1 1351:1 1854:1 1975:1 2015:1 2118:1 2303:1 2308:1 2334:1 2539:1 2602:1 #
-0.0313238627993166623975085371967 222:1 224:1 538:1 896:1 985:1 1062:1 1451:1 1645:1 1711:1 1819:1 2070:1 2094:1 2199:1 #
-0.10450816045347346983085401461722 24:1 318:1 456:1 #
-0.04995443363869363911922150123246 275:1 603:1 959:1 1099:1 1570:1 2335:1 #
-0.0043064751963684767474549452970223 196:1 224:1 294:1 513:1 601:1 606:1 781:1 1202:1 1728:1 1765:1 1787:1 1825:1 2308:1 2521:1 #
-0.022791261059248058007398185509373 29:1 363:1 981:1 1025:1 1609:1 1726:1 1923:1 2199:1 2577:1 #
-0.14327007389166479534026166220428 226:1 613:1 2199:1 #
-0.033921455662527917607196314975226 2:1 66:1 603:1 637:1 1592:1 1839:1 2201:1 2326:1 2514:1 #
-0.14327007389166479534026166220428 1034:1 2199:1 #
-0.0088352927070644553947387223047372 67:1 207:1 294:1 542:1 781:1 1181:1 1608:1 1658:1 1977:1 1980:1 2097:1 2253:1 2445:1 #
-0.009924128229588852212472716018965 31:1 240:1 328:1 823:1 932:1 1219:1 1500:1 1643:1 1854:1 2051:1 2118:1 #
-0.14327007389166479534026166220428 444:1 616:1 2062:1 2199:1 #
-0.017729613712449372037172068417021 29:1 382:1 468:1 542:1 1189:1 1422:1 1570:1 1782:1 1854:1 2022:1 2462:1 #
-0.029968981796080863128084459390266 24:1 488:1 606:1 1773:1 1901:1 2217:1 #
-0.05028393786693072936566650810164 1034:1 2023:1 2199:1 #
-0.050130458686423372272056298015741 170:1 1034:1 2199:1 #
-0.050183542470529071688467581680015 1034:1 2199:1 2486:1 #
-0.036254369935476642161642502060204 226:1 457:1 614:1 1222:1 1492:1 1939:1 2199:1 2577:1 #
-0.050130458686423517988828280067537 1034:1 2004:1 2199:1 #
0.07894554219262002459078786387181 30:1 781:1 885:1 1079:1 1803:1 2153:1 #
-0.021820062180957042197171347197582 24:1 155:1 262:1 404:1 654:1 715:1 1048:1 1230:1 1517:1 1667:1 1931:1 2130:1 2182:1 2245:1 2481:1 2607:1 #
0.029784265940204866091045587950248 400:1 566:1 902:1 1375:1 1613:1 1773:1 1923:1 2062:1 2124:1 2199:1 #
-0.018370381892980194860065523698722 961:1 1035:1 1079:1 1233:1 1565:1 1773:1 1929:1 2088:1 2199:1 #
-0.030695652817540688278574734226822 1773:1 1840:1 2199:1 2595:1 #
-0.030695652817540674400786926412366 1674:1 1773:1 2199:1 2595:1 #
-0.030685065110038899083289010150111 1773:1 1829:1 2199:1 2595:1 #
-0.061490537216914262219624731642398 155:1 1034:1 2199:1 #
-0.036581004251306233066021178501614 542:1 1034:1 2199:1 #
-0.062448126420031356553774770645759 730:1 781:1 1129:1 1290:1 2062:1 2120:1 #
-0.041688091406186650322851505734434 31:1 737:1 811:1 1570:1 1888:1 #
-0.033010115035727372045926131249871 363:1 603:1 728:1 1570:1 1854:1 2219:1 2321:1 2483:1 #
-0.030859829191663447345295168133816 7:1 781:1 1119:1 1137:1 2159:1 #
-0.027340144958249355117141377036205 572:1 1570:1 2231:1 2503:1 #
0.068071347023002798382051992120978 594:1 1441:1 1854:1 2199:1 #
0.1323602903952290910094546916298 1819:1 2062:1 2199:1 #
0.038954684248730289675144433658716 1770:1 1833:1 2194:1 2199:1 2333:1 #
-0.03447251939425961114737972934563 7:1 166:1 474:1 785:1 837:1 1522:1 1773:1 1939:1 2199:1 2524:1 2602:1 #
-0.13276496337783905143936635795399 1062:1 1773:1 1860:1 2199:1 #
-0.050885950701962265330102752614039 438:1 2199:1 2308:1 2327:1 #
-0.01344000419983307041682518701009 474:1 1465:1 1484:1 1514:1 2199:1 2470:1 #
-0.041272964526108374405666268103232 294:1 736:1 747:1 1570:1 1627:1 1643:1 2088:1 #
-0.019876186250890201523411349171511 406:1 555:1 1549:1 1570:1 2190:1 2431:1 #
-0.030829492345378465417704560991297 328:1 1462:1 1570:1 #
-0.035384425182052592351311659513158 668:1 781:1 1709:1 1845:1 #
-0.14327007389166479534026166220428 1570:1 1943:1 #
-0.0027201859362759122328012661995444 91:1 111:1 188:1 226:1 973:1 1123:1 1170:1 1570:1 1645:1 1761:1 #
-0.024892783026530234530282470473139 185:1 1570:1 2223:1 #
0.063809800108167030741057601517241 210:1 2062:1 2199:1 #
-0.053708184958271232289916952140629 108:1 542:1 1222:1 1605:1 2199:1 #
0.0032250080099014816724378729162481 24:1 111:1 226:1 240:1 250:1 293:1 404:1 411:1 604:1 678:1 811:1 872:1 877:1 965:1 1034:1 1058:1 1075:1 1101:1 1515:1 1556:1 1762:1 1767:1 1811:1 1886:1 2006:1 2035:1 2069:1 2158:1 2161:1 2199:1 2303:1 2451:1 2459:1 2595:1 2618:1 #
0.010732976726253002155986315813152 24:1 226:1 488:1 1289:1 1660:1 1854:1 2199:1 #
-0.0073280351716059465710939591076567 11:1 69:1 196:1 226:1 530:1 754:1 992:1 1015:1 1350:1 1609:1 2199:1 2245:1 #
-0.062170100919209742018622932846483 69:1 1609:1 2199:1 2265:1 2595:1 #
-0.052564793593143838146275470535329 11:1 1609:1 1658:1 2199:1 #
-0.019461099887786593304328519593582 318:1 576:1 1492:1 1496:1 1515:1 1556:1 2199:1 2481:1 2595:1 #
-0.0203272450006579258330319248671 932:1 1219:1 1570:1 2051:1 2088:1 2597:1 #
-0.024433897446337390219062157825647 432:1 1570:1 1784:1 #
-0.026736277292745389694283986159462 226:1 1468:1 2199:1 2308:1 #
-0.0029902590032693334744229307631258 432:1 1041:1 1516:1 1568:1 1645:1 1773:1 2326:1 #
-0.016136773234963878304037976363361 96:1 706:1 1517:1 1773:1 2003:1 2199:1 2583:1 2595:1 #
-0.0026251776945377452640584259313528 96:1 781:1 819:1 886:1 1517:1 2085:1 2284:1 2308:1 2524:1 2577:1 #
-0.0064629007030741402947682239243932 276:1 561:1 781:1 1293:1 1492:1 #
-0.024534512629433031377645946236044 1517:1 2308:1 2326:1 #
-0.0028423000086867915986443833276098 33:1 42:1 73:1 97:1 215:1 226:1 627:1 877:1 1071:1 1234:1 1426:1 1725:1 1773:1 1923:1 2002:1 2199:1 2253:1 2577:1 #
-0.0028456163161877526604492949502401 7:1 40:1 210:1 226:1 316:1 596:1 811:1 813:1 1014:1 1339:1 1609:1 1923:1 2070:1 2199:1 2595:1 #
-0.0019245300592830463879551183836725 42:1 542:1 603:1 781:1 1123:1 1289:1 1773:1 2494:1 #
-0.0058948173900164931721112893114878 1223:1 1773:1 1860:1 2199:1 #
-0.0056863147602588086371167008792327 1773:1 1860:1 2199:1 2214:1 #
0.012790071182147127321071522487728 542:1 2062:1 2199:1 2253:1 #
-0.0043498034617725864908743815817616 1018:1 1627:1 2326:1 #
-0.0060986999313373518177838761289422 41:1 811:1 1609:1 1854:1 2199:1 #
0.0062191325139681966072124907896068 1090:1 2062:1 2199:1 #
-0.0014415614291645912920653005429017 226:1 419:1 542:1 1136:1 1514:1 1570:1 1705:1 2199:1 #
