SVM-light Version V6.01
0 # kernel type
3 # kernel parameter -d 
1 # kernel parameter -g 
1 # kernel parameter -s 
1 # kernel parameter -r 
empty# kernel parameter -u 
4534 # highest feature index 
12352 # number of training documents 
2392 # number of support vectors plus 1 
-0.41787566 # threshold b, each following line is a SV (starting with alpha*y)
-0.17493358674428077792484259589401 770:1 1661:1 1728:1 2237:1 2842:1 3001:1 #
-0.17493358674428077792484259589401 1997:1 2666:1 3001:1 #
-0.17493358674428077792484259589401 2630:1 2666:1 4002:1 #
-0.17493358674428077792484259589401 929:1 1596:1 2660:1 2989:1 3776:1 3827:1 #
-0.17493358674428077792484259589401 3001:1 3819:1 4205:1 #
-0.17493358674428077792484259589401 520:1 718:1 2922:1 3001:1 3349:1 3571:1 #
0.17493358674428077792484259589401 111:1 3001:1 3660:1 #
0.17242670400823451037908284888545 85:1 1661:1 3001:1 3819:1 #
-0.10654317769791869785489524247168 718:1 885:1 1055:1 2620:1 2666:1 3001:1 3032:1 3488:1 3865:1 #
0.013225362770635205877933771034805 1101:1 1644:1 1661:1 3001:1 #
-0.17493358674428077792484259589401 28:1 1711:1 2029:1 2828:1 4050:1 #
-0.17493358674428077792484259589401 2828:1 3370:1 3832:1 4050:1 #
-0.17493358674428077792484259589401 426:1 1924:1 2029:1 2791:1 2828:1 3001:1 4050:1 4110:1 4376:1 #
-0.17493358674428077792484259589401 1466:1 1552:1 1661:1 1680:1 2233:1 2243:1 2501:1 2767:1 2828:1 3001:1 3923:1 4014:1 4376:1 #
-0.17493358674428077792484259589401 1534:1 2828:1 4002:1 4050:1 #
0.17493358674428077792484259589401 64:1 255:1 280:1 520:1 524:1 611:1 621:1 653:1 720:1 756:1 765:1 770:1 773:1 929:1 1037:1 1311:1 1519:1 1534:1 1596:1 1617:1 1647:1 1669:1 1789:1 1803:1 1958:1 2219:1 2243:1 2306:1 2321:1 2346:1 2368:1 2390:1 2438:1 2558:1 2628:1 2705:1 2709:1 2725:1 2861:1 3001:1 3020:1 3075:1 3102:1 3113:1 3130:1 3259:1 3370:1 3417:1 3425:1 3552:1 3554:1 3630:1 3632:1 3648:1 3776:1 3790:1 3832:1 3994:1 4000:1 4002:1 4110:1 4116:1 4150:1 4191:1 4312:1 4439:1 4492:1 #
0.050769275003269387358528774711885 247:1 275:1 338:1 369:1 370:1 460:1 498:1 509:1 515:1 592:1 718:1 863:1 896:1 984:1 1175:1 1193:1 1339:1 1419:1 1437:1 1448:1 1466:1 1530:1 1531:1 1534:1 1644:1 1731:1 1967:1 1986:1 2012:1 2029:1 2057:1 2148:1 2193:1 2195:1 2221:1 2237:1 2426:1 2558:1 2599:1 2620:1 2623:1 2630:1 2709:1 2733:1 2767:1 2778:1 2903:1 2961:1 3035:1 3123:1 3222:1 3289:1 3360:1 3390:1 3554:1 3611:1 3652:1 3653:1 3671:1 3758:1 3788:1 3819:1 3905:1 4000:1 4002:1 4140:1 4150:1 4185:1 4204:1 4220:1 4221:1 4286:1 4373:1 4444:1 #
0.1282921911367526646152725788852 929:1 2526:1 2630:1 2842:1 3775:1 3831:1 4002:1 4116:1 #
0.039743820399824027200796905390234 148:1 271:1 748:1 800:1 929:1 943:1 1389:1 1433:1 1466:1 1531:1 1534:1 1590:1 1673:1 1803:1 1979:1 2034:1 2088:1 2233:1 2237:1 2286:1 2304:1 2321:1 2426:1 2558:1 2631:1 2660:1 2838:1 2891:1 3463:1 3819:1 3843:1 4373:1 #
0.17493358674428077792484259589401 1534:1 2630:1 2666:1 4002:1 #
-0.17493358674428077792484259589401 1531:1 1534:1 2630:1 3142:1 3554:1 4116:1 #
-0.12405633569892897394293385104902 130:1 414:1 523:1 929:1 970:1 1448:1 1534:1 1589:1 1661:1 2049:1 2219:1 2321:1 2549:1 2630:1 2685:1 3117:1 3128:1 3198:1 3220:1 3349:1 4013:1 4014:1 4023:1 4065:1 4116:1 #
-0.17493358674428077792484259589401 1534:1 2660:1 3556:1 4116:1 #
0.17493358674428077792484259589401 292:1 1534:1 1680:1 2630:1 3994:1 #
-0.17493358674428077792484259589401 36:1 1534:1 2630:1 2814:1 4002:1 4412:1 #
-0.044125656466489374118999933216401 148:1 255:1 1466:1 2530:1 3001:1 3651:1 3652:1 4002:1 4427:1 #
0.17493358674428077792484259589401 1661:1 3001:1 3349:1 #
0.17493358674428077792484259589401 770:1 2501:1 2666:1 2828:1 3001:1 3370:1 3832:1 #
-0.17493358674428077792484259589401 417:1 2221:1 3001:1 3360:1 3994:1 4260:1 #
-0.17493358674428077792484259589401 65:1 173:1 588:1 769:1 771:1 1511:1 1661:1 1680:1 1775:1 1961:1 2050:1 2272:1 2501:1 2558:1 2666:1 2746:1 2767:1 2922:1 3001:1 3215:1 3345:1 3346:1 3832:1 4014:1 4504:1 #
0.15245220983691032401452503108885 1924:1 3001:1 3331:1 3355:1 3819:1 4113:1 #
0.093636990306256634442050312827632 499:1 1661:1 3001:1 4206:1 #
-0.17493358674428077792484259589401 31:1 148:1 1117:1 1466:1 1661:1 2501:1 2767:1 2828:1 2996:1 3001:1 3219:1 3645:1 3832:1 4002:1 4084:1 4314:1 #
-0.17493358674428077792484259589401 445:1 2501:1 2666:1 2828:1 3001:1 3554:1 3832:1 4222:1 #
0.17493358674428077792484259589401 770:1 1534:1 2660:1 4002:1 4116:1 #
0.17493358674428077792484259589401 770:1 1534:1 2660:1 2810:1 4002:1 4050:1 #
0.17493358674428077792484259589401 770:1 1534:1 2660:1 4116:1 #
-0.17493358674428077792484259589401 736:1 2666:1 3001:1 #
0.17493358674428077792484259589401 1534:1 2660:1 3312:1 4002:1 #
0.17493358674428077792484259589401 1661:1 2195:1 3001:1 3787:1 #
-0.17493358674428077792484259589401 1534:1 2660:1 3331:1 4116:1 #
-0.17493358674428077792484259589401 1534:1 2660:1 3331:1 #
-0.083209218447993962830544489861495 321:1 800:1 1803:1 2660:1 3994:1 4002:1 #
-0.17493358674428077792484259589401 1534:1 1650:1 2660:1 4002:1 #
-0.17493358674428077792484259589401 2332:1 3001:1 3819:1 #
0.066770910948431877462994066263491 210:1 1570:1 1985:1 2666:1 2767:1 2828:1 4150:1 #
-0.17493358674428077792484259589401 770:1 2195:1 3001:1 #
0.17493358674428077792484259589401 3001:1 3652:1 #
0.15565231685571451203387027817371 69:1 2340:1 2501:1 2660:1 3001:1 3128:1 3331:1 #
-0.033808198857619729815748854662161 271:1 800:1 881:1 1331:1 1650:1 1985:1 2025:1 2501:1 2580:1 2630:1 2666:1 2767:1 3001:1 3098:1 3135:1 3417:1 3832:1 #
-0.17359982632768425347968843652779 100:1 605:1 1123:1 1350:1 1552:1 1596:1 2237:1 2495:1 2496:1 2501:1 2558:1 2630:1 2666:1 2767:1 2807:1 2828:1 2842:1 3001:1 3293:1 3377:1 4133:1 4159:1 4216:1 4444:1 #
-0.17493358674428077792484259589401 2501:1 2630:1 2666:1 2767:1 2828:1 3001:1 3554:1 3730:1 4002:1 4050:1 4113:1 4376:1 #
-0.17493358674428077792484259589401 863:1 929:1 1466:1 1952:1 2501:1 2630:1 2666:1 2767:1 3001:1 4084:1 #
-0.17493358674428077792484259589401 929:1 1821:1 2501:1 2630:1 2666:1 2828:1 3832:1 #
-0.17493358674428077792484259589401 1730:1 2029:1 2989:1 3001:1 3787:1 #
0.17493358674428077792484259589401 2029:1 2660:1 3776:1 3994:1 4002:1 #
0.020379315556288083582936465631974 540:1 1347:1 1433:1 1661:1 2814:1 3001:1 3994:1 4014:1 #
0.17493358674428077792484259589401 1617:1 2186:1 2660:1 3809:1 #
0.17493358674428077792484259589401 522:1 1244:1 2630:1 2989:1 3776:1 4222:1 #
-0.17493358674428077792484259589401 2666:1 3001:1 3349:1 #
-0.17493358674428077792484259589401 189:1 255:1 1531:1 1730:1 1872:1 2029:1 2660:1 2922:1 3349:1 3556:1 #
-0.17493358674428077792484259589401 1311:1 2660:1 3994:1 #
-0.17493358674428077792484259589401 2029:1 2660:1 3331:1 #
-0.17493358674428077792484259589401 770:1 2660:1 4014:1 #
0.17493358674428077792484259589401 3001:1 3556:1 4002:1 #
0.088659159756133518182075192726188 148:1 248:1 375:1 476:1 773:1 874:1 929:1 985:1 1068:1 1466:1 1531:1 1534:1 1596:1 1637:1 1667:1 1691:1 2195:1 2501:1 2580:1 2630:1 2794:1 3310:1 3395:1 3497:1 3527:1 3554:1 3795:1 3796:1 3797:1 3827:1 4014:1 4504:1 #
0.12135042712731378133916848582885 1448:1 1534:1 1596:1 2148:1 2501:1 2630:1 2666:1 2767:1 2828:1 3827:1 3832:1 #
0.17493358674428077792484259589401 1534:1 2501:1 2630:1 2666:1 3001:1 #
0.17493358674428077792484259589401 1532:1 2426:1 2903:1 3001:1 3331:1 3349:1 #
-0.17493358674428077792484259589401 1534:1 1661:1 2501:1 2666:1 2794:1 2828:1 3001:1 4116:1 #
-0.17493358674428077792484259589401 1074:1 1532:1 1534:1 1666:1 2195:1 2501:1 2666:1 2828:1 2921:1 3001:1 3832:1 3974:1 #
-0.17493358674428077792484259589401 105:1 148:1 210:1 438:1 509:1 607:1 718:1 756:1 819:1 929:1 1347:1 1352:1 1367:1 1534:1 1545:1 1661:1 1803:1 1985:1 2195:1 2279:1 2501:1 2641:1 2666:1 2755:1 2828:1 2842:1 3001:1 3052:1 3091:1 3261:1 3301:1 3361:1 4050:1 4185:1 4286:1 4376:1 4433:1 #
-0.17493358674428077792484259589401 524:1 929:1 1534:1 2501:1 2666:1 2828:1 2922:1 3001:1 3180:1 3331:1 3349:1 4039:1 4050:1 4116:1 #
-0.17493358674428077792484259589401 1534:1 2501:1 2666:1 2828:1 3001:1 4002:1 #
0.17493358674428077792484259589401 837:1 2631:1 2660:1 #
0.17493358674428077792484259589401 148:1 1650:1 2660:1 4014:1 #
0.020407343053088465578692733970456 1054:1 2666:1 2828:1 3554:1 #
-0.17493358674428077792484259589401 321:1 3001:1 3819:1 4014:1 #
0.17493358674428077792484259589401 2029:1 3001:1 3331:1 #
-0.17493358674428077792484259589401 2630:1 3056:1 3630:1 4504:1 #
-0.17493358674428077792484259589401 148:1 445:1 1362:1 1435:1 2195:1 2630:1 2767:1 2802:1 3026:1 3417:1 3755:1 4014:1 4384:1 4409:1 #
-0.17493358674428077792484259589401 2272:1 2630:1 2937:1 3630:1 4504:1 #
-0.17493358674428077792484259589401 275:1 1511:1 2660:1 3331:1 3370:1 4222:1 #
-0.066786178753324071388774996194115 639:1 748:1 1462:1 1531:1 1596:1 1873:1 2660:1 2767:1 3074:1 3417:1 3712:1 3895:1 4478:1 #
0.17493358674428077792484259589401 85:1 2418:1 2666:1 2828:1 3787:1 3819:1 #
0.041840993159772306431154476058509 1459:1 2501:1 2666:1 2733:1 2794:1 2828:1 3001:1 #
0.072259368753803371321353665734932 2666:1 2828:1 3233:1 3417:1 #
0.17493358674428077792484259589401 1407:1 1820:1 2279:1 3001:1 #
0.049851150563989136965670212475743 26:1 28:1 2666:1 2814:1 2828:1 3308:1 #
-0.17493358674428077792484259589401 32:1 1661:1 2501:1 2666:1 2722:1 2814:1 2828:1 3001:1 3524:1 #
-0.17493358674428077792484259589401 1661:1 2243:1 2501:1 2666:1 2828:1 3001:1 #
-0.17493358674428077792484259589401 28:1 474:1 1661:1 2501:1 2516:1 2666:1 2828:1 3001:1 4002:1 #
-0.17493358674428077792484259589401 210:1 1661:1 2501:1 2666:1 2828:1 3001:1 4002:1 #
-0.17493358674428077792484259589401 64:1 248:1 375:1 1466:1 1661:1 2501:1 2630:1 2666:1 2828:1 3001:1 4084:1 4300:1 4381:1 #
-0.17493358674428077792484259589401 1464:1 1534:1 1539:1 2321:1 3001:1 3527:1 3832:1 4337:1 4504:1 #
0.17493358674428077792484259589401 1524:1 2705:1 3001:1 3630:1 #
-0.17493358674428077792484259589401 2666:1 3001:1 3848:1 #
-0.020101934489570493641563686537665 426:1 436:1 1466:1 2630:1 3792:1 3856:1 4134:1 4197:1 #
0.17493358674428077792484259589401 2272:1 3001:1 4336:1 4412:1 #
-0.17493358674428077792484259589401 1534:1 2630:1 3776:1 4116:1 #
-0.17493358674428077792484259589401 288:1 929:1 2630:1 2767:1 2768:1 #
-0.17493358674428077792484259589401 481:1 1534:1 2346:1 2630:1 2794:1 3832:1 #
-0.17493358674428077792484259589401 548:1 1511:1 2630:1 2767:1 3248:1 4245:1 4444:1 #
0.12974621234123609458954717865709 230:1 1661:1 2427:1 2814:1 3001:1 4039:1 #
0.17493358674428077792484259589401 1661:1 2012:1 2814:1 3001:1 3819:1 #
-0.036345806763361077074137028830592 834:1 3001:1 3370:1 3832:1 #
0.17493358674428077792484259589401 174:1 522:1 1617:1 2666:1 2767:1 3001:1 3331:1 3790:1 #
0.17493358674428077792484259589401 69:1 148:1 1741:1 2501:1 2666:1 2828:1 3001:1 #
-0.17493358674428077792484259589401 1661:1 1975:1 2195:1 2501:1 2666:1 2828:1 3001:1 3074:1 4014:1 4412:1 #
-0.17493358674428077792484259589401 1118:1 2306:1 2501:1 2522:1 2666:1 2828:1 3001:1 4197:1 #
-0.17493358674428077792484259589401 37:1 2501:1 2595:1 2666:1 2828:1 3001:1 #
0.17493358674428077792484259589401 28:1 948:1 1466:1 2630:1 3370:1 3417:1 4095:1 #
0.17493358674428077792484259589401 407:1 1466:1 1534:1 2034:1 2630:1 2767:1 3186:1 #
0.17493358674428077792484259589401 1418:1 1534:1 2186:1 2630:1 2767:1 3130:1 #
0.17493358674428077792484259589401 37:1 369:1 400:1 411:1 718:1 929:1 1067:1 1219:1 1318:1 1355:1 1534:1 1947:1 1970:1 2237:1 2558:1 2630:1 2932:1 3258:1 3847:1 #
0.17493358674428077792484259589401 370:1 2029:1 2630:1 2767:1 3775:1 4444:1 #
-0.17493358674428077792484259589401 1511:1 2630:1 2767:1 2842:1 2864:1 3130:1 #
-0.17493358674428077792484259589401 452:1 509:1 2558:1 2567:1 2630:1 2963:1 3370:1 4014:1 4504:1 #
-0.17493358674428077792484259589401 1466:1 1531:1 2195:1 2630:1 2767:1 3403:1 3545:1 3809:1 #
-0.052309761215545459711595555063468 36:1 65:1 115:1 127:1 174:1 271:1 294:1 311:1 354:1 370:1 385:1 479:1 499:1 520:1 592:1 718:1 750:1 758:1 809:1 814:1 829:1 863:1 894:1 929:1 931:1 943:1 959:1 960:1 973:1 1170:1 1311:1 1466:1 1511:1 1530:1 1531:1 1534:1 1570:1 1596:1 1644:1 1647:1 1666:1 1720:1 1723:1 1782:1 1872:1 1922:1 1931:1 1985:1 2029:1 2035:1 2192:1 2237:1 2279:1 2346:1 2557:1 2573:1 2574:1 2611:1 2619:1 2663:1 2666:1 2675:1 2709:1 2714:1 2767:1 2775:1 2777:1 2795:1 2828:1 2856:1 3032:1 3035:1 3165:1 3185:1 3210:1 3323:1 3401:1 3410:1 3425:1 3464:1 3530:1 3613:1 3658:1 3796:1 3832:1 3882:1 3883:1 3923:1 4000:1 4073:1 4095:1 4116:1 4150:1 4222:1 4376:1 4384:1 4407:1 4409:1 4534:1 #
-0.17493358674428077792484259589401 1050:1 1466:1 2279:1 2630:1 3349:1 4050:1 #
0.17493358674428077792484259589401 235:1 770:1 2195:1 2501:1 2666:1 2828:1 3001:1 3370:1 3832:1 4002:1 #
0.15037377744836352699842052516033 210:1 271:1 718:1 1088:1 1591:1 2195:1 2237:1 2501:1 2666:1 2681:1 2705:1 2828:1 3001:1 3832:1 3888:1 4113:1 #
0.050137626167416494971096341259909 248:1 2501:1 2666:1 2794:1 2828:1 3001:1 3098:1 3832:1 4002:1 #
0.17493358674428077792484259589401 669:1 3001:1 3832:1 3884:1 #
0.17493358674428077792484259589401 2501:1 2666:1 2828:1 3001:1 3032:1 4197:1 4527:1 #
0.17493358674428077792484259589401 3001:1 3807:1 #
-0.17493358674428077792484259589401 436:1 929:1 1534:1 2346:1 2501:1 2551:1 2666:1 2671:1 2828:1 3001:1 #
-0.17493358674428077792484259589401 1119:1 2501:1 2666:1 2828:1 3001:1 4002:1 #
0.17493358674428077792484259589401 885:1 929:1 1311:1 2029:1 2219:1 2557:1 2630:1 2963:1 4050:1 4054:1 #
0.10711687792665859630947267078227 536:1 1266:1 1506:1 1511:1 1882:1 2029:1 2501:1 2630:1 3001:1 3141:1 3331:1 #
-0.17493358674428077792484259589401 2002:1 2666:1 3001:1 #
-0.17493358674428077792484259589401 1666:1 2666:1 3001:1 #
0.14436584833188836896056272962596 385:1 875:1 881:1 919:1 961:1 1060:1 1473:1 1531:1 1975:1 2630:1 2961:1 3554:1 3895:1 4202:1 #
-0.17493358674428077792484259589401 248:1 1175:1 1219:1 2195:1 2630:1 3653:1 #
-0.17493358674428077792484259589401 248:1 2390:1 2630:1 3832:1 4391:1 #
-0.17493358674428077792484259589401 770:1 2501:1 2558:1 2630:1 2660:1 3011:1 3130:1 3536:1 3832:1 4084:1 #
-0.069913922898794222948737342449022 49:1 456:1 656:1 1078:1 1170:1 1596:1 1637:1 1803:1 1881:1 2029:1 2172:1 2549:1 2556:1 2580:1 2630:1 2859:1 3030:1 4002:1 4050:1 4063:1 4067:1 4233:1 4243:1 #
-0.17493358674428077792484259589401 540:1 2018:1 2630:1 4002:1 4050:1 #
-0.17493358674428077792484259589401 2423:1 3001:1 3331:1 3370:1 #
-0.17493358674428077792484259589401 36:1 174:1 456:1 756:1 2666:1 3001:1 3091:1 3128:1 3417:1 3536:1 3630:1 #
0.091085437947324626728473617731652 686:1 2018:1 2340:1 3001:1 3718:1 4382:1 #
0.17493358674428077792484259589401 1534:1 2666:1 3001:1 4002:1 #
-0.17493358674428077792484259589401 1466:1 1534:1 2029:1 2501:1 2666:1 2828:1 3001:1 3115:1 3331:1 3488:1 4150:1 #
-0.17493358674428077792484259589401 186:1 275:1 427:1 579:1 929:1 1466:1 1617:1 1639:1 1661:1 2029:1 2141:1 2501:1 2582:1 2666:1 2767:1 2814:1 2828:1 3001:1 4465:1 #
-0.17493358674428077792484259589401 770:1 1534:1 2195:1 2501:1 2666:1 2828:1 3001:1 4014:1 #
0.17493358674428077792484259589401 86:1 265:1 1123:1 1466:1 2237:1 2630:1 #
0.17493358674428077792484259589401 611:1 3001:1 #
-0.17493358674428077792484259589401 770:1 1831:1 2164:1 3001:1 #
0.080355042054254144368030665646074 970:1 2516:1 2630:1 3712:1 3972:1 #
0.023340814243202768346607811622562 1820:1 2814:1 3001:1 3571:1 #
-0.17493358674428077792484259589401 1596:1 1625:1 2304:1 2630:1 3563:1 3760:1 #
-0.17493358674428077792484259589401 1398:1 1433:1 1511:1 2219:1 2630:1 2978:1 3206:1 4220:1 4376:1 #
-0.17493358674428077792484259589401 370:1 428:1 2418:1 2630:1 2794:1 #
-0.17493358674428077792484259589401 2148:1 2666:1 3001:1 3349:1 #
0.01553493871986777984106620209559 3001:1 3624:1 4412:1 #
0.17493358674428077792484259589401 255:1 770:1 999:1 1534:1 2501:1 2666:1 2828:1 2865:1 3001:1 4014:1 #
0.17493358674428077792484259589401 770:1 1466:1 1534:1 2501:1 2666:1 2828:1 3001:1 3787:1 3832:1 #
0.17493358674428077792484259589401 770:1 1534:1 2501:1 2666:1 2828:1 3001:1 #
0.17493358674428077792484259589401 770:1 863:1 1534:1 2501:1 2666:1 2828:1 3001:1 #
0.094642548403743656515452187250048 2464:1 2666:1 2828:1 #
-0.17493358674428077792484259589401 770:1 1534:1 2501:1 2666:1 2828:1 3001:1 3633:1 #
-0.17493358674428077792484259589401 770:1 1534:1 2501:1 2666:1 2828:1 3001:1 4197:1 #
-0.17493358674428077792484259589401 355:1 1331:1 1534:1 1794:1 2189:1 2237:1 2243:1 2501:1 2517:1 2534:1 2666:1 3001:1 3360:1 #
-0.17493358674428077792484259589401 64:1 1534:1 2237:1 2501:1 2666:1 2828:1 3001:1 3458:1 4376:1 #
-0.17493358674428077792484259589401 770:1 1534:1 2501:1 2666:1 2828:1 3001:1 3349:1 #
0.17493358674428077792484259589401 1661:1 1905:1 2660:1 #
0.17493358674428077792484259589401 1466:1 2018:1 2630:1 2767:1 2777:1 #
0.17493358674428077792484259589401 1661:1 2668:1 3001:1 #
0.017008190869552099883099671728814 929:1 1339:1 2279:1 2630:1 3056:1 3653:1 3819:1 4014:1 4116:1 4376:1 #
0.17493358674428077792484259589401 368:1 2029:1 2630:1 #
-0.17493358674428077792484259589401 576:1 1394:1 2425:1 2630:1 2767:1 3832:1 #
-0.17493358674428077792484259589401 174:1 255:1 2593:1 2630:1 2767:1 #
0.1463912176884267501986158777072 857:1 2666:1 2828:1 3112:1 4260:1 #
-0.17493358674428077792484259589401 770:1 2630:1 2767:1 3141:1 3417:1 3554:1 3796:1 4095:1 #
0.061839064740898813665737066003203 28:1 249:1 271:1 275:1 278:1 418:1 426:1 460:1 569:1 654:1 729:1 984:1 1008:1 1038:1 1433:1 1442:1 1466:1 1531:1 1534:1 1869:1 1962:1 1967:1 2021:1 2192:1 2237:1 2426:1 2501:1 2558:1 2706:1 2718:1 2799:1 2828:1 2842:1 3001:1 3031:1 3091:1 3210:1 3212:1 3356:1 3363:1 3491:1 3519:1 3554:1 3856:1 3967:1 4097:1 4150:1 4197:1 4220:1 4222:1 #
0.17493358674428077792484259589401 1534:1 2666:1 3001:1 3311:1 #
0.17493358674428077792484259589401 770:1 1534:1 2501:1 2660:1 2666:1 2828:1 #
0.17493358674428077792484259589401 770:1 1534:1 1952:1 2501:1 2660:1 3001:1 3633:1 3994:1 #
-0.055258435414747841818439155758824 589:1 718:1 846:1 1532:1 1534:1 1691:1 1721:1 1895:1 2029:1 2583:1 2660:1 2666:1 2725:1 2746:1 2828:1 3072:1 3310:1 3342:1 3449:1 3595:1 3653:1 3923:1 3994:1 4493:1 #
-0.17493358674428077792484259589401 269:1 445:1 770:1 2099:1 2279:1 2501:1 3001:1 3032:1 4014:1 4188:1 4286:1 #
-0.17493358674428077792484259589401 369:1 1534:1 2501:1 2558:1 2660:1 3001:1 3331:1 3861:1 #
-0.17493358674428077792484259589401 770:1 2937:1 3001:1 #
-0.17493358674428077792484259589401 770:1 1466:1 2346:1 3001:1 #
0.047606268911834559443008174639544 1566:1 1730:1 2404:1 3001:1 3787:1 4050:1 #
0.095671938407363890655155103104335 391:1 541:1 726:1 1495:1 1511:1 1530:1 2630:1 2767:1 4318:1 #
-0.17493358674428077792484259589401 1193:1 1534:1 1609:1 2426:1 2443:1 3001:1 3075:1 #
-0.17493358674428077792484259589401 1466:1 3001:1 3370:1 4220:1 #
-0.17493358674428077792484259589401 2828:1 3370:1 3775:1 3832:1 #
-0.17493358674428077792484259589401 275:1 579:1 755:1 773:1 1244:1 1374:1 1403:1 1433:1 1466:1 1491:1 1534:1 1617:1 1661:1 1985:1 2018:1 2029:1 2306:1 2666:1 2767:1 2828:1 2842:1 3296:1 3548:1 3554:1 3832:1 3964:1 4396:1 #
-0.17493358674428077792484259589401 404:1 1661:1 2767:1 2828:1 #
0.17493358674428077792484259589401 370:1 755:1 770:1 1534:1 1596:1 1803:1 2124:1 2501:1 2580:1 2978:1 3001:1 3331:1 4376:1 #
-0.17493358674428077792484259589401 1534:1 2110:1 2443:1 3001:1 3560:1 #
0.17493358674428077792484259589401 1534:1 2501:1 2558:1 2666:1 3001:1 3554:1 3787:1 4116:1 #
-0.17493358674428077792484259589401 2195:1 2501:1 2630:1 2751:1 3497:1 #
0.1399461238289180786686927149276 1005:1 1162:1 2501:1 3001:1 3143:1 3511:1 3554:1 3795:1 4260:1 #
-0.17493358674428077792484259589401 25:1 1534:1 1596:1 1680:1 1730:1 2000:1 2029:1 2501:1 2814:1 2907:1 3001:1 3056:1 3418:1 4412:1 4504:1 #
-0.069630094242151982508737262378418 122:1 148:1 469:1 885:1 1018:1 1442:1 1485:1 1596:1 1730:1 2148:1 2426:1 2501:1 2593:1 2753:1 2962:1 3001:1 3258:1 3787:1 4215:1 #
-0.1018574418389130015194510292531 735:1 1534:1 1704:1 2501:1 2558:1 3001:1 3424:1 3745:1 3787:1 #
-0.11330133241580266079129302170259 189:1 351:1 1534:1 2501:1 3001:1 3312:1 3787:1 #
-0.026303807023187904950978222018421 148:1 364:1 1193:1 1311:1 1465:1 1534:1 1570:1 1610:1 2501:1 3001:1 4150:1 #
0.17493358674428077792484259589401 588:1 1075:1 1661:1 1707:1 4286:1 #
0.17493358674428077792484259589401 130:1 548:1 1495:1 2828:1 3142:1 3215:1 4188:1 #
0.063706690357557396731102983267192 609:1 863:1 1407:1 2426:1 2630:1 2842:1 3601:1 #
0.019076634979981368922530293730233 929:1 1967:1 2195:1 2279:1 2384:1 2443:1 2666:1 2767:1 2828:1 3370:1 3449:1 3595:1 3832:1 4084:1 4294:1 #
-0.17493358674428077792484259589401 1803:1 2666:1 3001:1 4188:1 #
-0.17493358674428077792484259589401 370:1 509:1 1534:1 1617:1 1985:1 2580:1 2666:1 2767:1 2828:1 #
0.17493358674428077792484259589401 28:1 1466:1 1650:1 3001:1 3056:1 #
-0.17493358674428077792484259589401 86:1 139:1 418:1 540:1 728:1 1355:1 1420:1 2004:1 2279:1 2480:1 2530:1 2666:1 2932:1 3001:1 3284:1 3429:1 3545:1 3758:1 3776:1 4014:1 4084:1 #
-0.17493358674428077792484259589401 1466:1 1680:1 2195:1 2279:1 2660:1 3994:1 4084:1 #
-0.17493358674428077792484259589401 24:1 770:1 2195:1 2501:1 2580:1 3001:1 3130:1 4084:1 #
0.17493358674428077792484259589401 929:1 1534:1 1661:1 2611:1 3001:1 3417:1 3793:1 3796:1 #
0.17493358674428077792484259589401 57:1 275:1 681:1 1325:1 1466:1 1596:1 1661:1 2306:1 2495:1 2496:1 2501:1 2660:1 2767:1 3001:1 3293:1 3311:1 3349:1 3563:1 3762:1 3809:1 3856:1 4149:1 #
0.07118524442356710668633468230837 189:1 2501:1 2593:1 3001:1 3181:1 3331:1 3787:1 4014:1 4185:1 #
0.13792664967223494665304883710633 32:1 400:1 1661:1 1930:1 2110:1 2315:1 2443:1 2620:1 2814:1 3001:1 3028:1 4014:1 4444:1 #
0.17493358674428077792484259589401 929:1 1534:1 1661:1 2018:1 2315:1 3001:1 3796:1 #
-0.17493358674428077792484259589401 43:1 235:1 516:1 929:1 1534:1 1661:1 2220:1 2767:1 3001:1 3814:1 4300:1 #
-0.17493358674428077792484259589401 275:1 1534:1 2443:1 3001:1 3311:1 3331:1 3787:1 #
-0.17493358674428077792484259589401 65:1 298:1 405:1 544:1 1068:1 1433:1 1661:1 2338:1 2821:1 3001:1 3393:1 3729:1 4014:1 4023:1 4504:1 #
-0.17493358674428077792484259589401 1661:1 2018:1 2464:1 3001:1 4002:1 #
-0.17493358674428077792484259589401 62:1 1910:1 3001:1 #
0.16387471733796615813716357479279 370:1 470:1 792:1 1985:1 2279:1 2663:1 2666:1 2828:1 3349:1 #
0.17493358674428077792484259589401 174:1 255:1 481:1 2029:1 2195:1 2666:1 2799:1 2828:1 3944:1 #
-0.17493358674428077792484259589401 59:1 1024:1 1775:1 1985:1 2666:1 3001:1 3998:1 #
0.17493358674428077792484259589401 2666:1 2828:1 3417:1 #
-0.17493358674428077792484259589401 64:1 385:1 1219:1 1637:1 2501:1 2630:1 2666:1 2828:1 #
-0.17493358674428077792484259589401 588:1 2501:1 2666:1 2828:1 3370:1 3832:1 #
-0.17493358674428077792484259589401 929:1 2666:1 2828:1 3370:1 3832:1 #
0.17493358674428077792484259589401 86:1 385:1 445:1 494:1 770:1 1534:1 1680:1 2164:1 2814:1 3001:1 3488:1 4002:1 #
0.17493358674428077792484259589401 540:1 770:1 773:1 1526:1 1534:1 2246:1 2814:1 3001:1 3994:1 4028:1 #
0.17493358674428077792484259589401 275:1 770:1 1534:1 3001:1 3311:1 #
0.17493358674428077792484259589401 770:1 1534:1 1680:1 3001:1 3994:1 #
0.17493358674428077792484259589401 24:1 770:1 1534:1 3001:1 #
-0.17493358674428077792484259589401 770:1 1060:1 1534:1 3001:1 3775:1 3894:1 #
-0.045024067053455456288713065760021 770:1 1466:1 1947:1 1967:1 2206:1 2434:1 2705:1 2709:1 3001:1 3035:1 #
-0.17493358674428077792484259589401 522:1 1730:1 2227:1 3001:1 #
-0.17493358674428077792484259589401 770:1 1534:1 2702:1 2814:1 3001:1 3790:1 #
-0.17493358674428077792484259589401 770:1 1355:1 1534:1 3001:1 3554:1 3775:1 3776:1 4504:1 #
0.17493358674428077792484259589401 2321:1 2443:1 3001:1 3787:1 3832:1 #
0.17493358674428077792484259589401 2666:1 2828:1 3653:1 3819:1 #
0.17493358674428077792484259589401 929:1 2377:1 2630:1 2666:1 3219:1 3370:1 3832:1 #
-0.17493358674428077792484259589401 148:1 1975:1 2666:1 3001:1 3554:1 #
0.17493358674428077792484259589401 1511:1 2501:1 2630:1 2666:1 2767:1 2828:1 4002:1 #
-0.17493358674428077792484259589401 773:1 1511:1 2501:1 2630:1 2767:1 2828:1 3295:1 3527:1 4014:1 #
-0.17493358674428077792484259589401 1534:1 2426:1 2501:1 2630:1 2666:1 2828:1 4002:1 #
-0.17493358674428077792484259589401 1534:1 2501:1 2630:1 2666:1 2828:1 #
-0.17493358674428077792484259589401 428:1 1534:1 2321:1 2501:1 2630:1 2666:1 2828:1 3032:1 3277:1 3417:1 4041:1 #
0.031372881250355970361720636674363 2922:1 3001:1 3331:1 3536:1 #
0.17493358674428077792484259589401 28:1 1661:1 3001:1 #
0.17493358674428077792484259589401 64:1 1730:1 2922:1 3001:1 4050:1 4197:1 #
-0.17493358674428077792484259589401 1534:1 3001:1 3312:1 3787:1 #
-0.00065091266034277299370319758153869 153:1 1426:1 1807:1 2501:1 3001:1 3994:1 4002:1 #
-0.17493358674428077792484259589401 2306:1 2922:1 3001:1 3633:1 4050:1 4260:1 #
-0.17493358674428077792484259589401 64:1 2922:1 3001:1 3895:1 4260:1 #
-0.17493358674428077792484259589401 64:1 1807:1 2922:1 3001:1 3032:1 3895:1 4260:1 #
-0.17493358674428077792484259589401 929:1 2306:1 2586:1 2666:1 2903:1 3001:1 3417:1 3446:1 4050:1 4110:1 #
-0.048976916523714227047481273302765 577:1 1466:1 1519:1 2558:1 2666:1 2888:1 3001:1 3056:1 3349:1 3488:1 3536:1 3652:1 3758:1 3769:1 3832:1 3944:1 #
0.17493358674428077792484259589401 404:1 770:1 1534:1 2501:1 2660:1 2666:1 2767:1 2828:1 #
-0.17493358674428077792484259589401 770:1 3001:1 3355:1 3787:1 3968:1 #
0.041507383128473455957685445127936 1534:1 1692:1 2501:1 2630:1 2666:1 2828:1 #
0.17493358674428077792484259589401 770:1 1534:1 2501:1 2630:1 3001:1 3342:1 4002:1 #
0.050592208667877537620061190182241 123:1 1661:1 2068:1 2443:1 2501:1 2630:1 3001:1 3719:1 #
-0.17493358674428077792484259589401 1511:1 1534:1 1692:1 2501:1 2630:1 2828:1 2963:1 #
-0.17493358674428077792484259589401 509:1 770:1 1466:1 1661:1 1680:1 2321:1 2501:1 2630:1 2767:1 2828:1 3001:1 3660:1 4002:1 #
-0.17493358674428077792484259589401 1661:1 2501:1 2630:1 2828:1 4002:1 #
-0.17493358674428077792484259589401 385:1 1316:1 1355:1 1466:1 1532:1 1661:1 2164:1 2501:1 2558:1 2630:1 2828:1 3044:1 4002:1 #
0.17493358674428077792484259589401 64:1 1722:1 3001:1 3349:1 4050:1 4260:1 #
0.14248932971843361605657207746845 1540:1 1661:1 2501:1 3001:1 3745:1 4000:1 4110:1 4389:1 #
0.17493358674428077792484259589401 509:1 2018:1 3001:1 4260:1 #
0.04925892720563736920658115536753 756:1 896:1 1219:1 2641:1 2814:1 2873:1 3001:1 3121:1 3349:1 3449:1 4300:1 4400:1 #
0.17493358674428077792484259589401 169:1 769:1 1466:1 3001:1 3651:1 3702:1 4260:1 #
-0.03197194464094698512779402221895 248:1 348:1 366:1 394:1 579:1 756:1 975:1 981:1 1249:1 1365:1 1466:1 1496:1 1512:1 1666:1 1722:1 1822:1 1901:1 2175:1 2217:1 2221:1 2321:1 2465:1 2620:1 2835:1 2997:1 3001:1 3070:1 3078:1 3082:1 3128:1 3389:1 3398:1 3409:1 3595:1 3722:1 3797:1 3953:1 3994:1 4014:1 4164:1 4449:1 #
-0.17493358674428077792484259589401 3001:1 3331:1 3554:1 3994:1 4031:1 #
-0.095315019577220674862338967159303 770:1 1495:1 2035:1 2814:1 3001:1 3349:1 3377:1 #
-0.17493358674428077792484259589401 770:1 1803:1 3001:1 4222:1 #
-0.17493358674428077792484259589401 2018:1 3001:1 3331:1 #
0.064303668678805117608909824866714 2243:1 2666:1 2828:1 4150:1 #
0.053513016665452814435433026574174 178:1 492:1 817:1 1331:1 1338:1 1511:1 1623:1 2173:1 2501:1 2828:1 2932:1 2936:1 2963:1 3011:1 3268:1 3311:1 3370:1 3656:1 4317:1 #
-0.17493358674428077792484259589401 2029:1 2630:1 3712:1 #
0.17493358674428077792484259589401 245:1 3001:1 #
-0.022020870362227943500821325528705 394:1 2501:1 2630:1 2660:1 2666:1 4197:1 #
-0.17493358674428077792484259589401 1534:1 2159:1 2666:1 2767:1 2828:1 #
-0.17493358674428077792484259589401 800:1 1534:1 2443:1 3001:1 4260:1 #
0.17493358674428077792484259589401 770:1 1534:1 2821:1 3001:1 3633:1 4014:1 4104:1 #
-0.11240873161438601213202304052174 370:1 428:1 3001:1 3776:1 3832:1 #
0.010563415069490234357574287571424 112:1 116:1 1211:1 2842:1 3001:1 3056:1 #
-0.17493358674428077792484259589401 227:1 275:1 770:1 929:1 984:1 1244:1 1905:1 1945:1 2705:1 3001:1 #
-0.12723765887879401326188144594198 69:1 372:1 770:1 835:1 929:1 943:1 1311:1 1466:1 2767:1 2844:1 3001:1 4165:1 #
-0.17493358674428077792484259589401 770:1 1524:1 1531:1 1617:1 1967:1 2799:1 3001:1 3918:1 #
-0.17493358674428077792484259589401 742:1 1534:1 3001:1 3745:1 #
0.17493358674428077792484259589401 210:1 810:1 2219:1 2346:1 2666:1 2828:1 #
0.17493358674428077792484259589401 770:1 1466:1 1534:1 2501:1 2630:1 2767:1 3001:1 3130:1 3832:1 4084:1 #
0.17493358674428077792484259589401 2501:1 2666:1 2828:1 3001:1 4314:1 #
0.13805053552069496136667225982819 275:1 1117:1 2630:1 3342:1 #
-0.06156687821724499826148147008098 721:1 1985:1 2029:1 2204:1 3001:1 3149:1 #
-0.17493358674428077792484259589401 1916:1 2443:1 2501:1 2660:1 2666:1 3178:1 3284:1 #
-0.13401726154773832555555657108926 400:1 579:1 1091:1 1466:1 1531:1 1534:1 1661:1 2187:1 2279:1 2336:1 2340:1 2390:1 2484:1 2593:1 2828:1 2835:1 3370:1 3385:1 3529:1 3536:1 3633:1 3720:1 3832:1 3908:1 4104:1 4488:1 #
-0.17493358674428077792484259589401 1534:1 1661:1 2215:1 2501:1 2660:1 2666:1 2711:1 3001:1 3139:1 3787:1 3796:1 3822:1 3832:1 #
-0.17493358674428077792484259589401 1534:1 2666:1 2828:1 3178:1 #
0.17493358674428077792484259589401 770:1 929:1 3001:1 3370:1 4002:1 #
0.17493358674428077792484259589401 770:1 929:1 1534:1 2567:1 3001:1 4002:1 4014:1 4116:1 #
0.17493358674428077792484259589401 770:1 3001:1 3370:1 4002:1 #
0.17493358674428077792484259589401 770:1 929:1 1534:1 2418:1 3001:1 #
0.17493358674428077792484259589401 288:1 770:1 929:1 3001:1 3370:1 3832:1 #
-0.17493358674428077792484259589401 770:1 1637:1 3001:1 #
-0.17493358674428077792484259589401 929:1 3001:1 3331:1 3349:1 3370:1 4050:1 4220:1 #
-0.17493358674428077792484259589401 770:1 929:1 2270:1 3001:1 3352:1 3554:1 #
-0.17493358674428077792484259589401 770:1 863:1 929:1 3001:1 #
0.033787608990803047470663500462251 130:1 1470:1 2666:1 2828:1 3663:1 #
0.17493358674428077792484259589401 2630:1 3295:1 3694:1 3719:1 4014:1 #
0.17493358674428077792484259589401 1661:1 1665:1 3001:1 #
0.17493358674428077792484259589401 1534:1 2666:1 2936:1 3001:1 4505:1 #
0.17493358674428077792484259589401 275:1 2501:1 2666:1 2828:1 3001:1 3032:1 3142:1 3277:1 3311:1 #
-0.17493358674428077792484259589401 28:1 1534:1 2666:1 2814:1 2828:1 4002:1 4116:1 #
-0.17493358674428077792484259589401 600:1 1534:1 2029:1 2501:1 2666:1 2828:1 #
-0.17493358674428077792484259589401 25:1 1074:1 1311:1 1511:1 1534:1 2666:1 2667:1 2814:1 2828:1 2932:1 3550:1 4519:1 #
-0.17493358674428077792484259589401 700:1 2666:1 3001:1 #
0.17493358674428077792484259589401 26:1 3001:1 3056:1 3121:1 #
0.17493358674428077792484259589401 929:1 1637:1 1661:1 2922:1 3001:1 #
0.17493358674428077792484259589401 929:1 3001:1 4220:1 #
-0.025760029627682087122186871397389 2172:1 2338:1 3001:1 #
-0.17493358674428077792484259589401 271:1 288:1 611:1 929:1 1407:1 1466:1 2110:1 2237:1 2870:1 3001:1 3370:1 3832:1 4330:1 #
0.17493358674428077792484259589401 970:1 1807:1 2705:1 3001:1 3972:1 #
-0.17493358674428077792484259589401 3001:1 3370:1 3832:1 3944:1 #
-0.17493358674428077792484259589401 3001:1 3370:1 3556:1 3832:1 #
0.12080311132860292733237628226561 1466:1 2660:1 3016:1 3390:1 4330:1 4412:1 #
0.17493358674428077792484259589401 1336:1 2666:1 2814:1 2828:1 2891:1 3417:1 4197:1 #
0.17493358674428077792484259589401 3001:1 3349:1 4050:1 #
0.033349435299985422109791954881075 26:1 28:1 59:1 771:1 943:1 1419:1 1566:1 1573:1 2753:1 2767:1 3001:1 3331:1 3967:1 #
0.06203484626265961393576375826342 1513:1 1534:1 2666:1 2828:1 3214:1 #
-0.17493358674428077792484259589401 26:1 770:1 1661:1 2501:1 2660:1 2814:1 2828:1 4002:1 #
-0.17493358674428077792484259589401 770:1 1637:1 1666:1 2660:1 2767:1 2922:1 3113:1 4050:1 4468:1 #
-0.17493358674428077792484259589401 1534:1 1630:1 2377:1 2516:1 2666:1 2828:1 4302:1 4376:1 #
-0.17493358674428077792484259589401 37:1 1661:1 2828:1 #
-0.17493358674428077792484259589401 26:1 1534:1 2516:1 2666:1 2828:1 #
0.17493358674428077792484259589401 770:1 1531:1 2495:1 2496:1 2566:1 3001:1 3370:1 3832:1 #
0.14671733719782450999780110123538 445:1 929:1 1311:1 1644:1 2029:1 2237:1 3001:1 3032:1 3355:1 3414:1 3463:1 3464:1 3554:1 3832:1 4444:1 #
0.17493358674428077792484259589401 770:1 3001:1 3056:1 3370:1 3827:1 3832:1 #
0.17493358674428077792484259589401 1661:1 1878:1 2029:1 2580:1 3001:1 3832:1 #
0.17493358674428077792484259589401 929:1 2982:1 3001:1 3370:1 3832:1 4050:1 #
-0.17493358674428077792484259589401 37:1 104:1 269:1 365:1 522:1 881:1 1596:1 2052:1 2138:1 2666:1 3001:1 3048:1 3219:1 3501:1 3564:1 3613:1 3832:1 3847:1 4050:1 #
-0.17493358674428077792484259589401 358:1 929:1 3001:1 3832:1 3994:1 #
-0.051576031404237741850860032855053 1078:1 1448:1 2814:1 3001:1 3370:1 3832:1 4294:1 #
0.17493358674428077792484259589401 1534:1 2279:1 2501:1 2660:1 2666:1 2794:1 2828:1 3113:1 #
0.17493358674428077792484259589401 1534:1 2501:1 2660:1 2666:1 2828:1 #
0.0049526923043992235676236113306459 212:1 769:1 896:1 929:1 1214:1 1519:1 1878:1 1988:1 2286:1 2547:1 3001:1 3230:1 3463:1 3757:1 4304:1 4528:1 #
-0.17493358674428077792484259589401 1534:1 2501:1 2666:1 2828:1 3295:1 4220:1 #
-0.17493358674428077792484259589401 770:1 929:1 1534:1 2346:1 2501:1 2666:1 2828:1 3001:1 4197:1 #
0.14864586282012187679058001776866 25:1 26:1 28:1 37:1 540:1 773:1 2516:1 3001:1 3163:1 3814:1 4217:1 #
0.091789496364058392741114289492543 2495:1 2496:1 2660:1 2666:1 2842:1 3331:1 3357:1 #
0.17493358674428077792484259589401 1074:1 1661:1 2306:1 3001:1 3787:1 #
0.17493358674428077792484259589401 27:1 37:1 598:1 770:1 1433:1 2814:1 3001:1 3370:1 3564:1 3611:1 3832:1 4140:1 #
0.050214119154088666940882745848285 1637:1 2650:1 2665:1 3001:1 3331:1 #
-0.13612575414585453836835426955076 770:1 2279:1 2660:1 3827:1 4188:1 #
-0.17493358674428077792484259589401 655:1 2443:1 2660:1 2794:1 3098:1 3107:1 #
-0.17493358674428077792484259589401 327:1 1433:1 1661:1 2413:1 2427:1 2557:1 2828:1 3028:1 3370:1 3611:1 3832:1 3896:1 4050:1 #
0.17493358674428077792484259589401 770:1 1060:1 1534:1 1985:1 2501:1 2666:1 2828:1 3001:1 3178:1 #
0.11632674933406833561733151327644 288:1 929:1 1531:1 1680:1 2630:1 3377:1 3632:1 3994:1 #
-0.10614416419044149508810193083264 879:1 1534:1 3001:1 3417:1 #
-0.17493358674428077792484259589401 468:1 1869:1 2501:1 2558:1 2630:1 2666:1 3001:1 3032:1 3359:1 3966:1 #
-0.17493358674428077792484259589401 770:1 1028:1 1661:1 1665:1 2501:1 2828:1 3001:1 3832:1 #
0.17493358674428077792484259589401 509:1 588:1 3527:1 #
0.17493358674428077792484259589401 2630:1 2814:1 4002:1 4050:1 #
0.17493358674428077792484259589401 3001:1 3787:1 4381:1 #
0.17493358674428077792484259589401 227:1 2660:1 3331:1 3349:1 4188:1 #
-0.17493358674428077792484259589401 369:1 509:1 1466:1 1534:1 2418:1 2501:1 2660:1 2767:1 3331:1 4050:1 4116:1 #
-0.17493358674428077792484259589401 368:1 2029:1 2660:1 3130:1 4475:1 #
-0.17493358674428077792484259589401 1534:1 1650:1 2660:1 3787:1 4002:1 #
0.17493358674428077792484259589401 355:1 770:1 1534:1 3001:1 3832:1 #
0.17244613828112156928007436818007 100:1 370:1 943:1 1466:1 1567:1 1701:1 2192:1 2279:1 2346:1 2495:1 2501:1 2666:1 2828:1 3001:1 4197:1 4216:1 4288:1 #
-0.17493358674428077792484259589401 64:1 1807:1 2430:1 3001:1 3032:1 3895:1 4260:1 #
0.17493358674428077792484259589401 358:1 863:1 2501:1 2666:1 2828:1 3001:1 3360:1 3417:1 4205:1 #
-0.17493358674428077792484259589401 1596:1 1939:1 2501:1 2666:1 2828:1 3001:1 #
-0.17493358674428077792484259589401 2501:1 2666:1 2828:1 3001:1 3527:1 4002:1 #
-0.17493358674428077792484259589401 149:1 793:1 2501:1 2828:1 2865:1 3001:1 3178:1 3213:1 3305:1 #
-0.17493358674428077792484259589401 248:1 1985:1 2666:1 2828:1 3370:1 3832:1 #
-0.17493358674428077792484259589401 400:1 929:1 2315:1 2666:1 3001:1 4492:1 #
0.17493358674428077792484259589401 770:1 1534:1 2660:1 2767:1 #
0.13553367679183500604800372002501 929:1 2346:1 2501:1 2660:1 2666:1 2828:1 #
0.17493358674428077792484259589401 770:1 929:1 1534:1 2660:1 #
-0.17493358674428077792484259589401 481:1 770:1 1534:1 2660:1 #
-0.17493358674428077792484259589401 770:1 1137:1 1992:1 2660:1 3605:1 #
-0.17493358674428077792484259589401 770:1 1466:1 2660:1 #
-0.14769961793376554237688935700135 394:1 770:1 1775:1 1869:1 1985:1 2306:1 2660:1 2767:1 2997:1 3135:1 3297:1 3341:1 3630:1 4044:1 4050:1 4356:1 #
-0.13420977038625703237073594209505 2583:1 2666:1 3001:1 3536:1 #
0.00035717617831977085214242850774724 370:1 2195:1 3001:1 3360:1 4084:1 #
0.17493358674428077792484259589401 25:1 28:1 904:1 2501:1 2516:1 2666:1 2814:1 2828:1 3001:1 3331:1 3370:1 3595:1 3994:1 #
0.17493358674428077792484259589401 69:1 1596:1 1661:1 2558:1 2666:1 2828:1 3001:1 3284:1 3527:1 3860:1 #
-0.17493358674428077792484259589401 32:1 385:1 548:1 1534:1 1923:1 2368:1 2501:1 2558:1 2666:1 2810:1 2814:1 3001:1 4050:1 4188:1 4286:1 #
0.1097020518109855374833117025446 275:1 1583:1 1964:1 2148:1 2660:1 3130:1 4376:1 4490:1 #
-0.17493358674428077792484259589401 879:1 1534:1 3001:1 #
0.17493358674428077792484259589401 481:1 770:1 1534:1 2660:1 2799:1 #
0.17493358674428077792484259589401 248:1 1466:1 2195:1 2501:1 2660:1 3417:1 3575:1 3633:1 3776:1 4002:1 4150:1 #
0.17493358674428077792484259589401 770:1 1519:1 1534:1 1985:1 2015:1 2660:1 3672:1 #
-0.15720018560408677288364742707927 2195:1 2660:1 3360:1 3417:1 4212:1 #
-0.17493358674428077792484259589401 770:1 929:1 1947:1 3001:1 #
-0.17493358674428077792484259589401 509:1 2018:1 2660:1 3417:1 4091:1 4504:1 #
-0.17493358674428077792484259589401 1123:1 1407:1 2660:1 3417:1 #
0.096916339244491556126348541511106 944:1 1337:1 2501:1 2630:1 3001:1 3130:1 3745:1 4381:1 #
0.17493358674428077792484259589401 117:1 275:1 278:1 770:1 1466:1 1708:1 1872:1 1980:1 2008:1 2448:1 2501:1 2767:1 2810:1 2996:1 3001:1 3113:1 3370:1 4050:1 4416:1 #
0.031366822959056905872898823872674 2122:1 2922:1 3001:1 3331:1 3349:1 3760:1 #
0.17493358674428077792484259589401 382:1 383:1 524:1 2501:1 2516:1 2554:1 3001:1 3127:1 3178:1 3349:1 3556:1 3613:1 3683:1 3899:1 #
0.17493358674428077792484259589401 3001:1 3020:1 3488:1 3588:1 3605:1 #
0.17493358674428077792484259589401 1661:1 3001:1 4197:1 #
-0.17493358674428077792484259589401 536:1 863:1 1464:1 1534:1 1549:1 1913:1 1985:1 2179:1 2501:1 3001:1 3796:1 4222:1 #
-0.17493358674428077792484259589401 28:1 667:1 770:1 1722:1 1975:1 2501:1 2828:1 3001:1 4150:1 #
-0.17493358674428077792484259589401 770:1 1511:1 1803:1 2330:1 2501:1 2767:1 2842:1 3001:1 3041:1 3258:1 3284:1 3645:1 4002:1 4116:1 4228:1 #
-0.17493358674428077792484259589401 248:1 770:1 1469:1 2501:1 3001:1 3464:1 3832:1 3903:1 3994:1 #
-0.17493358674428077792484259589401 37:1 169:1 287:1 654:1 718:1 885:1 1122:1 1466:1 2501:1 3001:1 3059:1 3225:1 3847:1 3994:1 4222:1 #
0.17493358674428077792484259589401 1534:1 2660:1 2666:1 4039:1 #
0.17493358674428077792484259589401 474:1 1666:1 2660:1 #
-0.036345806763361750146845707831744 1323:1 3001:1 3370:1 3832:1 #
0.17493358674428077792484259589401 342:1 1534:1 2215:1 2660:1 2921:1 #
0.17493358674428077792484259589401 607:1 1534:1 2660:1 #
-0.17493358674428077792484259589401 1534:1 1661:1 2660:1 4116:1 #
-0.17493358674428077792484259589401 544:1 756:1 1175:1 1534:1 1639:1 1646:1 1958:1 2057:1 2660:1 2767:1 2815:1 #
0.17493358674428077792484259589401 418:1 770:1 1394:1 1420:1 1466:1 1781:1 1807:1 1985:1 2501:1 2932:1 3001:1 3787:1 4044:1 4220:1 4224:1 #
-0.17493358674428077792484259589401 770:1 3001:1 3629:1 #
-0.17493358674428077792484259589401 2148:1 2195:1 2306:1 2666:1 3001:1 4014:1 #
-0.17493358674428077792484259589401 469:1 1464:1 3001:1 3787:1 #
0.17493358674428077792484259589401 1650:1 3001:1 #
-0.17493358674428077792484259589401 69:1 1240:1 1531:1 2630:1 2666:1 2932:1 3788:1 3860:1 #
-0.17493358674428077792484259589401 370:1 889:1 2314:1 2666:1 3001:1 3595:1 #
-0.087406703466495164200900092055235 69:1 155:1 2666:1 2695:1 2932:1 3001:1 3768:1 #
-0.17493358674428077792484259589401 445:1 588:1 842:1 2501:1 2630:1 2666:1 2733:1 4446:1 #
0.17493358674428077792484259589401 25:1 26:1 28:1 37:1 543:1 770:1 773:1 929:1 1534:1 2340:1 2814:1 2936:1 3001:1 3994:1 4002:1 4028:1 4116:1 #
0.17493358674428077792484259589401 393:1 756:1 770:1 1219:1 1534:1 1639:1 1985:1 2195:1 2443:1 2767:1 3001:1 4116:1 4444:1 #
0.17493358674428077792484259589401 770:1 929:1 1534:1 2219:1 2426:1 3001:1 4116:1 #
0.17493358674428077792484259589401 770:1 929:1 1534:1 3001:1 4002:1 4116:1 #
-0.17493358674428077792484259589401 1534:1 2580:1 3001:1 3331:1 3787:1 4116:1 #
-0.17493358674428077792484259589401 770:1 929:1 1803:1 2215:1 2306:1 3001:1 #
-0.17493358674428077792484259589401 275:1 1534:1 3001:1 3331:1 3787:1 4116:1 #
-0.17493358674428077792484259589401 929:1 1534:1 3001:1 3331:1 #
0.11648666038791810617425426244154 2195:1 3001:1 3575:1 4014:1 4150:1 #
0.089183235397233717733911362302024 1529:1 1596:1 2666:1 2828:1 #
0.17493358674428077792484259589401 757:1 2630:1 3645:1 3775:1 4314:1 #
0.17493358674428077792484259589401 770:1 1534:1 2660:1 4050:1 4245:1 #
-0.10870598670812092745308063967968 2008:1 3001:1 3819:1 4002:1 #
-0.15530951668127124243312664475525 25:1 2501:1 2660:1 2666:1 2828:1 3118:1 3527:1 4002:1 #
0.054881873658880565847173471638598 1661:1 2767:1 3001:1 3261:1 #
0.17493358674428077792484259589401 509:1 2215:1 3001:1 3331:1 3488:1 3787:1 #
0.019387427920343223985977232359801 275:1 736:1 2195:1 2404:1 2921:1 3001:1 3331:1 3787:1 4014:1 #
0.018880214646058404021067289590974 339:1 375:1 2666:1 2828:1 #
0.17493358674428077792484259589401 2195:1 3001:1 4412:1 #
0.16909623022845157724880493788078 248:1 370:1 1596:1 1985:1 2666:1 2828:1 #
-0.17493358674428077792484259589401 404:1 1534:1 3001:1 3331:1 3787:1 #
-0.17493358674428077792484259589401 1534:1 3001:1 3331:1 3787:1 #
0.17493358674428077792484259589401 2018:1 2666:1 2828:1 3527:1 4002:1 #
0.17493358674428077792484259589401 2666:1 3001:1 3360:1 3370:1 4002:1 #
0.17493358674428077792484259589401 174:1 2593:1 2660:1 2666:1 4002:1 #
0.17493358674428077792484259589401 2666:1 3001:1 3370:1 4002:1 #
-0.17493358674428077792484259589401 1534:1 2501:1 2666:1 2828:1 3001:1 3135:1 #
-0.17493358674428077792484259589401 2554:1 2666:1 2828:1 3370:1 3832:1 #
-0.17493358674428077792484259589401 148:1 296:1 2666:1 2828:1 3370:1 3832:1 #
-0.05567978090357206949478907631601 67:1 1791:1 2666:1 2675:1 2828:1 3370:1 4002:1 #
-0.17493358674428077792484259589401 2666:1 2828:1 3370:1 3832:1 #
0.17493358674428077792484259589401 1534:1 1661:1 1913:1 3001:1 3796:1 4014:1 #
0.17493358674428077792484259589401 544:1 1637:1 1661:1 2502:1 3001:1 3787:1 4037:1 #
-0.17493358674428077792484259589401 579:1 770:1 773:1 1661:1 2814:1 3001:1 3633:1 #
0.1532552488509003052463697258645 370:1 1661:1 3001:1 3041:1 #
-0.17493358674428077792484259589401 1170:1 2767:1 2962:1 3001:1 3819:1 4014:1 4185:1 #
-0.048447392071921120682009842539628 37:1 218:1 228:1 519:1 882:1 931:1 1482:1 1531:1 1596:1 1669:1 1810:1 2186:1 2630:1 2855:1 3056:1 3613:1 3804:1 4002:1 4376:1 #
-0.17493358674428077792484259589401 770:1 3001:1 3390:1 4014:1 4416:1 #
0.17493358674428077792484259589401 770:1 1534:1 2501:1 2660:1 2666:1 2828:1 3832:1 #
0.17493358674428077792484259589401 929:1 1318:1 1534:1 2304:1 2660:1 3098:1 3331:1 3417:1 4002:1 #
-0.17493358674428077792484259589401 1534:1 2630:1 3824:1 #
-0.17493358674428077792484259589401 1661:1 2390:1 2828:1 3832:1 #
-0.17493358674428077792484259589401 1661:1 2828:1 3832:1 #
-0.058004643250448545410691281176696 392:1 629:1 770:1 2237:1 3001:1 3554:1 3756:1 #
0.17493358674428077792484259589401 770:1 1938:1 2155:1 3001:1 3370:1 3994:1 4002:1 #
0.17493358674428077792484259589401 38:1 212:1 385:1 1407:1 1534:1 1810:1 2340:1 2553:1 2768:1 3001:1 3370:1 3554:1 3650:1 3804:1 4014:1 4504:1 #
0.17493358674428077792484259589401 1426:1 2029:1 3001:1 3994:1 4002:1 #
0.17493358674428077792484259589401 387:1 1531:1 1730:1 2029:1 3001:1 3130:1 3994:1 4002:1 #
0.17493358674428077792484259589401 355:1 3001:1 3745:1 3832:1 #
0.0073788799469687556611963152874978 110:1 2666:1 2828:1 3011:1 4433:1 #
-0.17493358674428077792484259589401 2501:1 2828:1 2842:1 3001:1 3994:1 4002:1 4272:1 4309:1 4394:1 #
0.0043967665018880197277950649947798 105:1 1905:1 2390:1 2501:1 2630:1 2666:1 2828:1 3052:1 3141:1 3832:1 #
0.065928494828858499876567123010318 1639:1 1661:1 2443:1 2630:1 #
-0.17493358674428077792484259589401 1534:1 1722:1 3001:1 3312:1 #
-0.17493358674428077792484259589401 770:1 1807:1 3001:1 #
0.17493358674428077792484259589401 770:1 1534:1 2713:1 2767:1 3001:1 3189:1 #
0.17493358674428077792484259589401 2029:1 2215:1 2501:1 2666:1 2828:1 3001:1 3832:1 #
0.1526008239828340606880630048181 509:1 1661:1 3001:1 3863:1 #
-0.17493358674428077792484259589401 2630:1 2666:1 2996:1 3832:1 #
-0.17493358674428077792484259589401 1322:1 1637:1 2630:1 2666:1 2922:1 4050:1 #
0.17493358674428077792484259589401 509:1 1661:1 2243:1 3001:1 #
0.075641976519909878695635541134834 148:1 640:1 943:1 1466:1 1531:1 1542:1 1910:1 2426:1 2501:1 2558:1 2566:1 2828:1 3001:1 3016:1 3059:1 3225:1 3457:1 3787:1 4110:1 4197:1 4416:1 #
0.17493358674428077792484259589401 37:1 1433:1 1466:1 2660:1 3213:1 3368:1 #
0.17493358674428077792484259589401 2501:1 2666:1 2828:1 3001:1 3312:1 #
0.17493358674428077792484259589401 1617:1 2501:1 2666:1 2828:1 3001:1 3787:1 3809:1 #
0.035971490568889756545001290533037 1661:1 3001:1 3360:1 4014:1 #
-0.17493358674428077792484259589401 210:1 770:1 929:1 1661:1 1947:1 2501:1 2828:1 3001:1 #
-0.17493358674428077792484259589401 708:1 829:1 840:1 1511:1 1531:1 1534:1 2338:1 2340:1 2501:1 2516:1 2828:1 3001:1 4104:1 4458:1 #
0.027676841507566083550040403338244 173:1 536:1 579:1 756:1 773:1 1601:1 2297:1 2425:1 2630:1 2814:1 2842:1 3056:1 3359:1 3894:1 4084:1 4094:1 #
0.061966872276675147301894241991249 20:1 255:1 522:1 536:1 943:1 1064:1 1117:1 1333:1 1534:1 1580:1 1680:1 1731:1 1775:1 1819:1 1869:1 2029:1 2630:1 2666:1 2961:1 3507:1 3832:1 3891:1 4050:1 4113:1 #
0.17493358674428077792484259589401 639:1 1680:1 2630:1 2767:1 2996:1 3994:1 #
0.17493358674428077792484259589401 1426:1 2377:1 2630:1 3994:1 4002:1 #
-0.17493358674428077792484259589401 400:1 1545:1 2445:1 2630:1 3449:1 3595:1 #
-0.17493358674428077792484259589401 174:1 255:1 2630:1 #
-0.17493358674428077792484259589401 2630:1 3403:1 3809:1 #
0.17493358674428077792484259589401 69:1 704:1 1596:1 1661:1 2558:1 2666:1 2828:1 3001:1 3284:1 3527:1 3860:1 #
0.17493358674428077792484259589401 611:1 1617:1 3001:1 3141:1 #
-0.11628989715896058398936219191455 148:1 426:1 474:1 659:1 1466:1 1489:1 1661:1 1680:1 1775:1 2018:1 2190:1 2666:1 2717:1 2767:1 2794:1 2842:1 3001:1 3059:1 3165:1 3504:1 3506:1 3994:1 4481:1 #
-0.17493358674428077792484259589401 26:1 2501:1 2666:1 2814:1 2828:1 3001:1 3349:1 #
0.11939476746204613633040025888477 445:1 2501:1 3001:1 3074:1 3593:1 #
-0.17493358674428077792484259589401 64:1 2666:1 2828:1 3001:1 4002:1 4050:1 4314:1 #
0.17493358674428077792484259589401 770:1 1534:1 2630:1 #
0.17493358674428077792484259589401 770:1 1534:1 2630:1 3838:1 #
0.17493358674428077792484259589401 1637:1 2318:1 2630:1 4376:1 #
0.15938023234313905551751133771177 677:1 1051:1 2630:1 2767:1 3463:1 3994:1 #
0.17493358674428077792484259589401 255:1 1534:1 1775:1 2630:1 #
-0.17493358674428077792484259589401 579:1 773:1 1302:1 1534:1 1661:1 2553:1 2558:1 2630:1 2733:1 3053:1 3986:1 #
0.10109826508727624838623881942112 1466:1 2074:1 2099:1 2279:1 2501:1 2666:1 2828:1 3001:1 #
-0.17493358674428077792484259589401 37:1 2630:1 2982:1 3777:1 4376:1 #
-0.10420711585739532434313758813005 255:1 771:1 1596:1 2426:1 2496:1 2630:1 3348:1 3665:1 3824:1 3832:1 4384:1 #
-0.17493358674428077792484259589401 1637:1 2630:1 2666:1 3056:1 #
-0.17493358674428077792484259589401 423:1 1365:1 2630:1 3142:1 3832:1 4269:1 #
0.0041209923762285738738087026433732 357:1 385:1 536:1 548:1 1373:1 1511:1 2195:1 2501:1 2630:1 3001:1 3442:1 3770:1 3994:1 4014:1 #
0.0050212460773970913827102258153445 339:1 375:1 1154:1 1476:1 2321:1 2630:1 2767:1 #
-0.17493358674428077792484259589401 770:1 3001:1 3832:1 #
-0.17493358674428077792484259589401 593:1 1661:1 1985:1 2279:1 2784:1 2828:1 3001:1 3832:1 #
-0.17493358674428077792484259589401 1637:1 2922:1 3001:1 3890:1 4260:1 #
-0.17493358674428077792484259589401 483:1 874:1 1000:1 1355:1 1596:1 1985:1 2279:1 2751:1 3001:1 3030:1 4050:1 #
-0.17493358674428077792484259589401 509:1 770:1 1041:1 2439:1 2470:1 3001:1 3610:1 3787:1 3832:1 #
0.034620118510744458950600943580866 579:1 773:1 1302:1 2557:1 2630:1 2814:1 4014:1 4162:1 #
-0.013450668406872765339721276234286 150:1 332:1 718:1 1137:1 1534:1 3001:1 3312:1 3488:1 3787:1 #
0.17493358674428077792484259589401 2593:1 2630:1 2666:1 4002:1 #
0.17493358674428077792484259589401 2593:1 2630:1 2666:1 3024:1 4002:1 #
0.072759390317925651259223229772033 26:1 312:1 1433:1 2243:1 2346:1 2495:1 2496:1 2501:1 2630:1 2705:1 3787:1 4245:1 4412:1 #
0.1589042814902772160490229680363 814:1 2186:1 3001:1 3136:1 #
-0.17493358674428077792484259589401 248:1 773:1 2630:1 3501:1 #
-0.17493358674428077792484259589401 773:1 2630:1 3633:1 4002:1 #
-0.1542520552874446781999040467781 28:1 2630:1 2666:1 4002:1 #
-0.17493358674428077792484259589401 263:1 288:1 2630:1 2666:1 4002:1 #
0.17493358674428077792484259589401 28:1 588:1 632:1 1041:1 1580:1 2501:1 2558:1 2842:1 3001:1 3121:1 3832:1 4396:1 #
0.17493358674428077792484259589401 288:1 770:1 929:1 2279:1 3001:1 3370:1 3832:1 #
0.17493358674428077792484259589401 2501:1 2666:1 3001:1 3331:1 4197:1 #
0.057984352269622216335953623911337 2508:1 2558:1 3001:1 3554:1 4504:1 #
0.17493358674428077792484259589401 2270:1 2321:1 3001:1 #
-0.13947679495318329734310225376248 248:1 770:1 1201:1 2390:1 2501:1 2627:1 3001:1 3611:1 3832:1 4026:1 4140:1 4188:1 4205:1 #
0.17493358674428077792484259589401 1117:1 1534:1 2630:1 2666:1 4002:1 #
0.058959762696531026193724756012671 36:1 37:1 667:1 693:1 1175:1 1830:1 2018:1 2549:1 2828:1 3297:1 3526:1 3745:1 4181:1 #
0.043419554304921822995844138404209 387:1 509:1 1661:1 2630:1 3772:1 #
0.17493358674428077792484259589401 718:1 1466:1 1905:1 2443:1 2561:1 2630:1 #
-0.10731490670071477944169657803286 988:1 1601:1 1869:1 2219:1 2495:1 2496:1 2630:1 2666:1 2842:1 3074:1 3135:1 4014:1 4412:1 #
-0.17493358674428077792484259589401 1511:1 1534:1 2630:1 2767:1 2842:1 3056:1 3359:1 4094:1 #
-0.04684662412755066090985778259892 28:1 40:1 592:1 1029:1 1534:1 1567:1 2340:1 2411:1 2630:1 2774:1 2794:1 2842:1 3124:1 3128:1 3225:1 3359:1 4303:1 #
-0.17493358674428077792484259589401 1578:1 2018:1 2029:1 2630:1 2814:1 3712:1 #
-0.17493358674428077792484259589401 2330:1 2593:1 2660:1 3824:1 4504:1 #
0.17493358674428077792484259589401 248:1 565:1 770:1 1534:1 3001:1 #
0.17493358674428077792484259589401 770:1 1466:1 1534:1 3001:1 3011:1 3887:1 4002:1 #
0.17493358674428077792484259589401 770:1 3001:1 3370:1 3832:1 #
-0.17493358674428077792484259589401 770:1 2557:1 3001:1 3832:1 #
-0.17493358674428077792484259589401 770:1 2148:1 2502:1 3001:1 #
-0.17493358674428077792484259589401 1938:1 2666:1 3001:1 3633:1 #
0.17493358674428077792484259589401 2194:1 2390:1 2630:1 3645:1 #
-0.17493358674428077792484259589401 770:1 1232:1 1466:1 2215:1 3001:1 3613:1 #
0.17493358674428077792484259589401 2029:1 2390:1 2630:1 2767:1 3410:1 4050:1 #
0.075429657836494162781448835630727 1666:1 2244:1 2630:1 3032:1 3081:1 4116:1 #
0.17493358674428077792484259589401 1355:1 1511:1 2029:1 2630:1 2767:1 3418:1 4050:1 4458:1 #
-0.17493358674428077792484259589401 602:1 3001:1 3819:1 #
0.00021941458776372061204550101276567 548:1 2052:1 2131:1 2349:1 2630:1 2767:1 3501:1 4084:1 #
-0.17493358674428077792484259589401 130:1 548:1 2630:1 2746:1 2767:1 3369:1 4504:1 #
0.17493358674428077792484259589401 1661:1 2272:1 3001:1 3133:1 #
-0.17493358674428077792484259589401 548:1 1730:1 2029:1 2558:1 2630:1 2767:1 #
0.17493358674428077792484259589401 770:1 1311:1 1534:1 1596:1 2557:1 3001:1 #
0.17493358674428077792484259589401 404:1 1032:1 1881:1 3001:1 4197:1 #
-0.17493358674428077792484259589401 69:1 770:1 1668:1 3001:1 3056:1 #
0.17493358674428077792484259589401 150:1 263:1 1869:1 2219:1 2495:1 2496:1 3001:1 3809:1 4222:1 4286:1 #
0.17493358674428077792484259589401 1661:1 3001:1 3135:1 #
-0.17493358674428077792484259589401 997:1 1534:1 2557:1 3001:1 3331:1 4014:1 #
-0.17493358674428077792484259589401 1534:1 3001:1 4014:1 4412:1 #
-0.17493358674428077792484259589401 1117:1 1534:1 1644:1 1666:1 1775:1 2495:1 2496:1 3001:1 3529:1 3645:1 #
-0.17493358674428077792484259589401 790:1 1117:1 1534:1 2666:1 2828:1 3001:1 4409:1 #
0.17493358674428077792484259589401 3001:1 4418:1 #
0.17493358674428077792484259589401 69:1 2501:1 2666:1 2828:1 3001:1 4260:1 #
-0.17493358674428077792484259589401 544:1 547:1 1596:1 2373:1 2666:1 3001:1 3370:1 3832:1 3847:1 4023:1 4050:1 #
0.17493358674428077792484259589401 770:1 1420:1 1534:1 3001:1 4002:1 4116:1 4416:1 #
0.17493358674428077792484259589401 174:1 255:1 1534:1 2443:1 2660:1 3417:1 #
0.17493358674428077792484259589401 148:1 770:1 1534:1 2660:1 #
0.17493358674428077792484259589401 111:1 770:1 1534:1 2660:1 4140:1 #
-0.17493358674428077792484259589401 321:1 3001:1 3178:1 3819:1 #
-0.17493358674428077792484259589401 173:1 642:1 1534:1 1617:1 2666:1 2725:1 2828:1 3128:1 3554:1 3796:1 4116:1 #
-0.17493358674428077792484259589401 235:1 1534:1 1863:1 2426:1 2828:1 4240:1 #
-0.17493358674428077792484259589401 1311:1 1534:1 2164:1 2666:1 2828:1 3554:1 #
0.17493358674428077792484259589401 2666:1 3001:1 3370:1 3832:1 #
0.17493358674428077792484259589401 1506:1 1975:1 2029:1 2558:1 2630:1 3001:1 3776:1 #
0.17493358674428077792484259589401 1637:1 2501:1 3001:1 3056:1 3331:1 3370:1 3417:1 4220:1 #
0.17493358674428077792484259589401 255:1 3001:1 3370:1 3571:1 #
-0.17493358674428077792484259589401 3001:1 3370:1 3575:1 3832:1 #
-0.17493358674428077792484259589401 825:1 2558:1 3001:1 3142:1 4504:1 #
-0.17493358674428077792484259589401 370:1 2029:1 3001:1 #
-0.17493358674428077792484259589401 148:1 1531:1 3001:1 3020:1 3488:1 3787:1 3832:1 4220:1 4396:1 #
0.17493358674428077792484259589401 1534:1 2666:1 2733:1 2828:1 #
0.17493358674428077792484259589401 1170:1 1534:1 2666:1 2828:1 #
0.023570420358375140240658751622504 69:1 1661:1 1986:1 3001:1 #
0.17493358674428077792484259589401 885:1 929:1 1596:1 3001:1 3556:1 3729:1 3776:1 #
0.17493358674428077792484259589401 2666:1 2828:1 2907:1 3554:1 #
-0.17493358674428077792484259589401 422:1 1534:1 1707:1 2666:1 2828:1 #
-0.17493358674428077792484259589401 1534:1 2666:1 2767:1 2828:1 #
-0.17493358674428077792484259589401 1534:1 1803:1 2666:1 2828:1 #
-0.17493358674428077792484259589401 604:1 1534:1 2558:1 2666:1 2828:1 4014:1 #
0.17493358674428077792484259589401 1073:1 1465:1 1545:1 1610:1 1730:1 2501:1 3001:1 3832:1 #
0.17493358674428077792484259589401 2038:1 2932:1 3001:1 3142:1 3832:1 #
0.17493358674428077792484259589401 1730:1 2989:1 3001:1 3832:1 #
-0.17493358674428077792484259589401 602:1 2270:1 3001:1 3819:1 #
-0.11344228550622022233529406776142 182:1 210:1 522:1 536:1 707:1 718:1 756:1 1531:1 1730:1 1938:1 1978:1 2335:1 2340:1 2501:1 2630:1 2666:1 2789:1 2989:1 3001:1 3056:1 3359:1 3593:1 4286:1 #
-0.17493358674428077792484259589401 1878:1 2006:1 2495:1 2496:1 2558:1 2848:1 2916:1 3001:1 3832:1 4065:1 #
-0.17493358674428077792484259589401 59:1 2558:1 3001:1 3003:1 3832:1 3994:1 #
-0.17493358674428077792484259589401 1878:1 2029:1 2436:1 3001:1 3832:1 #
-0.03951251840216414568107694549326 131:1 279:1 459:1 519:1 733:1 772:1 1396:1 1578:1 1670:1 2476:1 2558:1 2751:1 3001:1 3178:1 3527:1 3536:1 3692:1 3748:1 3832:1 3916:1 3949:1 4014:1 4065:1 4084:1 4191:1 4504:1 #
0.099728712386548026835875191409286 1534:1 2026:1 2666:1 2712:1 2828:1 3186:1 #
-0.17288342113890203810555590280273 770:1 931:1 2706:1 3001:1 #
-0.17493358674428077792484259589401 2501:1 2666:1 2828:1 3001:1 3135:1 3142:1 3692:1 4504:1 #
-0.058421933003392219341254332221069 540:1 683:1 720:1 1188:1 1509:1 1823:1 2186:1 2348:1 2536:1 2666:1 2767:1 2814:1 3001:1 3135:1 3509:1 3840:1 4198:1 4336:1 4458:1 #
0.17493358674428077792484259589401 37:1 1534:1 2717:1 3001:1 3003:1 3417:1 3554:1 3847:1 #
0.17493358674428077792484259589401 611:1 1469:1 1532:1 1803:1 2029:1 2387:1 2426:1 2501:1 3001:1 4014:1 #
-0.17493358674428077792484259589401 37:1 1534:1 1661:1 3001:1 3360:1 #
-0.17493358674428077792484259589401 2029:1 3001:1 3133:1 3331:1 4113:1 #
-0.17493358674428077792484259589401 37:1 524:1 1711:1 2767:1 3001:1 3556:1 #
-0.17493358674428077792484259589401 1466:1 1534:1 3001:1 3790:1 #
0.17493358674428077792484259589401 773:1 2666:1 2794:1 2828:1 3135:1 3633:1 #
0.17493358674428077792484259589401 456:1 2666:1 3001:1 3135:1 3345:1 #
0.13838239223848020076346188034222 1311:1 1596:1 1653:1 2219:1 2666:1 2828:1 3377:1 3832:1 4460:1 #
0.17493358674428077792484259589401 2922:1 3001:1 3331:1 3349:1 #
-0.17493358674428077792484259589401 2666:1 2828:1 3370:1 4245:1 #
-0.17493358674428077792484259589401 248:1 1534:1 1735:1 1981:1 2666:1 2828:1 3554:1 #
-0.17493358674428077792484259589401 773:1 2630:1 2996:1 3417:1 3633:1 3645:1 #
0.17493358674428077792484259589401 1534:1 2558:1 3001:1 3777:1 4504:1 #
0.10351754611472888112366774748807 267:1 509:1 1074:1 1333:1 1466:1 1661:1 2215:1 2501:1 2660:1 2767:1 3001:1 3211:1 3536:1 #
0.17493358674428077792484259589401 474:1 1534:1 3001:1 4002:1 4116:1 #
0.049904256760364230915971717195134 509:1 1466:1 1661:1 3001:1 4031:1 #
-0.17493358674428077792484259589401 2219:1 2630:1 2751:1 #
-0.058099241560085237989774498146289 34:1 148:1 262:1 288:1 385:1 773:1 910:1 1014:1 1119:1 1333:1 1466:1 1626:1 1731:1 1734:1 1881:1 1905:1 2156:1 2195:1 2259:1 2501:1 2660:1 2967:1 3001:1 3095:1 3106:1 3165:1 3633:1 3994:1 4197:1 4416:1 #
-0.11302674828536908580023379045087 371:1 770:1 2501:1 2900:1 3001:1 3211:1 3564:1 3809:1 4002:1 4014:1 #
-0.17493358674428077792484259589401 28:1 1534:1 1910:1 2501:1 2558:1 2660:1 2814:1 3001:1 4002:1 4412:1 4458:1 #
-0.1165828124539171478657451075378 275:1 1469:1 2282:1 2794:1 3001:1 3166:1 3371:1 3994:1 4002:1 #
0.17493358674428077792484259589401 248:1 1365:1 2666:1 2828:1 4409:1 #
0.17493358674428077792484259589401 1233:1 2666:1 2828:1 3370:1 #
0.17493358674428077792484259589401 2666:1 2828:1 3370:1 #
0.17493358674428077792484259589401 2443:1 2666:1 2828:1 3370:1 3877:1 #
0.17493358674428077792484259589401 428:1 1596:1 2666:1 2828:1 #
-0.17493358674428077792484259589401 25:1 26:1 278:1 563:1 1534:1 1596:1 2426:1 2666:1 2792:1 2828:1 3297:1 4145:1 #
-0.17493358674428077792484259589401 579:1 773:1 1534:1 1661:1 2666:1 2828:1 3135:1 #
-0.17493358674428077792484259589401 1661:1 2443:1 2828:1 #
-0.17493358674428077792484259589401 355:1 1534:1 2666:1 2828:1 #
0.17493358674428077792484259589401 1999:1 2018:1 2501:1 2922:1 2996:1 3001:1 3166:1 4002:1 4260:1 #
0.17493358674428077792484259589401 800:1 1573:1 1650:1 2501:1 3001:1 3429:1 3800:1 4002:1 #
0.17493358674428077792484259589401 770:1 1534:1 2373:1 3001:1 4002:1 #
0.17493358674428077792484259589401 770:1 1534:1 3001:1 4002:1 #
0.17493358674428077792484259589401 2666:1 2828:1 3011:1 #
0.17493358674428077792484259589401 579:1 1692:1 2666:1 2828:1 #
-0.038495663550445681500011829712093 64:1 770:1 873:1 1459:1 3001:1 3712:1 3895:1 3923:1 4504:1 #
-0.0043160006358089440803293967974241 37:1 40:1 1596:1 1830:1 2138:1 2443:1 2549:1 2865:1 3001:1 3390:1 4416:1 #
0.049624547190682301300856948955698 26:1 104:1 184:1 756:1 1386:1 1433:1 2443:1 2828:1 2900:1 3219:1 3653:1 3819:1 3836:1 4493:1 #
0.17493358674428077792484259589401 1570:1 2346:1 2666:1 2828:1 #
0.17493358674428077792484259589401 69:1 148:1 1598:1 1617:1 2666:1 2828:1 4150:1 #
0.17493358674428077792484259589401 773:1 2501:1 2630:1 2666:1 2828:1 3994:1 4188:1 #
-0.17493358674428077792484259589401 725:1 2666:1 3001:1 #
0.17493358674428077792484259589401 148:1 770:1 1534:1 3001:1 #
0.17493358674428077792484259589401 770:1 1534:1 2557:1 2814:1 2963:1 3001:1 3545:1 4198:1 #
0.17493358674428077792484259589401 718:1 770:1 1534:1 2259:1 3001:1 #
-0.094438968466589529038301975560898 190:1 770:1 1433:1 1534:1 3001:1 3837:1 #
-0.17493358674428077792484259589401 1534:1 1656:1 2828:1 2922:1 3615:1 #
-0.17493358674428077792484259589401 255:1 1534:1 3001:1 3113:1 4504:1 #
-0.17493358674428077792484259589401 1534:1 2828:1 3442:1 #
0.17493358674428077792484259589401 275:1 1149:1 2143:1 2767:1 3001:1 #
0.17493358674428077792484259589401 324:1 544:1 2630:1 3056:1 3360:1 3501:1 3827:1 3832:1 4023:1 #
0.17493358674428077792484259589401 2501:1 2593:1 2630:1 2666:1 2767:1 3001:1 4002:1 #
0.15748909741176733700918077829556 385:1 2029:1 2439:1 2501:1 2666:1 2828:1 3001:1 3417:1 3782:1 3832:1 4263:1 #
0.12590444134398917630512926280062 2179:1 2195:1 2666:1 2828:1 3001:1 3417:1 3832:1 4368:1 #
0.17493358674428077792484259589401 2321:1 2443:1 3001:1 3832:1 #
-0.1492090827228815808069839476957 1047:1 1073:1 1637:1 2195:1 2501:1 2554:1 2630:1 2666:1 3001:1 3923:1 4050:1 #
-0.17493358674428077792484259589401 148:1 418:1 881:1 1557:1 2195:1 2501:1 2666:1 3001:1 3390:1 3832:1 #
-0.17493358674428077792484259589401 25:1 26:1 474:1 2516:1 2666:1 3001:1 3297:1 3394:1 3832:1 3994:1 4116:1 #
0.17493358674428077792484259589401 150:1 1773:1 3001:1 #
0.17493358674428077792484259589401 261:1 770:1 1534:1 1625:1 2660:1 3189:1 4504:1 #
0.17493358674428077792484259589401 588:1 1534:1 1661:1 3284:1 #
0.17493358674428077792484259589401 770:1 1534:1 2814:1 3001:1 4504:1 #
-0.17493358674428077792484259589401 723:1 1542:1 2660:1 2712:1 2767:1 #
-0.13371572175403326210307852761616 331:1 770:1 2660:1 4002:1 #
-0.17493358674428077792484259589401 509:1 770:1 2660:1 3554:1 3626:1 3944:1 3960:1 #
-0.17493358674428077792484259589401 37:1 770:1 2195:1 2660:1 2814:1 3349:1 #
-0.17493358674428077792484259589401 770:1 2443:1 2660:1 #
0.17493358674428077792484259589401 634:1 2501:1 2666:1 2865:1 2932:1 3001:1 3032:1 3331:1 #
0.055130486965624142525754791677173 26:1 28:1 31:1 271:1 1210:1 1466:1 1709:1 1713:1 1818:1 1879:1 2339:1 2346:1 3001:1 3210:1 4277:1 4294:1 4412:1 #
0.0842895585963369942117395794412 2365:1 2666:1 2828:1 3032:1 3074:1 3277:1 #
0.17493358674428077792484259589401 1914:1 3001:1 3832:1 #
0.0024359523592439552390487289557086 698:1 988:1 1661:1 2695:1 2963:1 3001:1 3135:1 4014:1 4412:1 #
-0.17493358674428077792484259589401 28:1 602:1 1661:1 2501:1 2828:1 3001:1 3473:1 3819:1 #
-0.17493358674428077792484259589401 1661:1 2501:1 2828:1 3001:1 4002:1 #
-0.17493358674428077792484259589401 44:1 1534:1 1661:1 2501:1 3001:1 3130:1 3345:1 3370:1 3787:1 3832:1 #
0.17493358674428077792484259589401 56:1 2660:1 2794:1 3787:1 4220:1 #
0.17493358674428077792484259589401 2422:1 2516:1 2557:1 2660:1 #
0.17493358674428077792484259589401 1661:1 2443:1 3001:1 #
-0.17493358674428077792484259589401 143:1 475:1 588:1 1424:1 1580:1 1968:1 2373:1 2666:1 3422:1 #
-0.17493358674428077792484259589401 877:1 2557:1 3001:1 3994:1 4002:1 4321:1 #
-0.17493358674428077792484259589401 621:1 2660:1 2666:1 4000:1 #
-0.027319955878344435312721216746468 639:1 861:1 1146:1 1175:1 1534:1 2057:1 2666:1 2794:1 3001:1 3102:1 3128:1 3478:1 3653:1 3914:1 3926:1 3940:1 3945:1 4065:1 4125:1 #
-0.17493358674428077792484259589401 1534:1 2660:1 4412:1 #
0.15170625830390810362402476130228 26:1 28:1 1661:1 2279:1 2501:1 2660:1 3001:1 3258:1 3277:1 #
-0.17493358674428077792484259589401 2443:1 2666:1 3001:1 #
0.17493358674428077792484259589401 25:1 26:1 28:1 37:1 327:1 1661:1 2279:1 3001:1 3994:1 4104:1 4376:1 4383:1 #
-0.10482012367138132669097672078351 278:1 2666:1 2746:1 3001:1 4373:1 #
-0.17493358674428077792484259589401 26:1 327:1 1433:1 1534:1 2279:1 2321:1 2557:1 2584:1 2814:1 3001:1 3368:1 #
-0.17493358674428077792484259589401 26:1 28:1 3001:1 3277:1 3360:1 3417:1 4212:1 #
-0.17493358674428077792484259589401 1927:1 3001:1 3331:1 3527:1 4458:1 #
-0.17493358674428077792484259589401 1824:1 2029:1 2346:1 3001:1 3331:1 3487:1 3647:1 3832:1 #
0.17493358674428077792484259589401 275:1 445:1 1534:1 3001:1 3796:1 #
0.17493358674428077792484259589401 1534:1 2580:1 2660:1 2666:1 #
0.17493358674428077792484259589401 1534:1 1639:1 2660:1 2666:1 #
0.17493358674428077792484259589401 579:1 2666:1 2828:1 3527:1 #
-0.17493358674428077792484259589401 1534:1 2279:1 2666:1 2828:1 #
-0.17493358674428077792484259589401 1534:1 1570:1 2666:1 2828:1 4150:1 #
-0.17493358674428077792484259589401 1534:1 2304:1 2666:1 2828:1 #
0.17493358674428077792484259589401 189:1 602:1 2593:1 3001:1 3819:1 4002:1 #
0.17493358674428077792484259589401 548:1 736:1 771:1 3001:1 3059:1 3331:1 3554:1 #
0.098524282077679992131180597425555 230:1 1355:1 1874:1 2195:1 2321:1 2427:1 3001:1 #
0.17493358674428077792484259589401 1730:1 2029:1 3001:1 3994:1 4002:1 #
0.17493358674428077792484259589401 2025:1 3001:1 3554:1 3696:1 3782:1 3819:1 #
-0.059528876192103931386245818657699 1519:1 2760:1 2799:1 3001:1 3180:1 3994:1 4002:1 4039:1 #
-0.17493358674428077792484259589401 579:1 757:1 1697:1 2018:1 2501:1 2660:1 2666:1 3001:1 #
-0.17493358674428077792484259589401 1466:1 1910:1 2068:1 2233:1 2501:1 2767:1 3001:1 3554:1 4028:1 #
0.17493358674428077792484259589401 770:1 1534:1 2666:1 2828:1 2842:1 3001:1 4116:1 #
0.17493358674428077792484259589401 174:1 1066:1 1534:1 2666:1 2828:1 #
0.17493358674428077792484259589401 2418:1 2666:1 2828:1 3417:1 3536:1 4116:1 #
0.078742243810966117134597652693628 148:1 1343:1 1348:1 1534:1 1596:1 1937:1 2084:1 2501:1 2903:1 3001:1 3331:1 3554:1 4260:1 4510:1 #
-0.17493358674428077792484259589401 1661:1 2794:1 2828:1 2963:1 4002:1 #
-0.17493358674428077792484259589401 1661:1 1669:1 2828:1 #
-0.17493358674428077792484259589401 1661:1 2828:1 4188:1 #
-0.17493358674428077792484259589401 601:1 1661:1 2828:1 #
-0.17493358674428077792484259589401 210:1 1661:1 2828:1 #
0.17493358674428077792484259589401 460:1 863:1 982:1 1469:1 1534:1 2321:1 2501:1 2733:1 3001:1 3034:1 3461:1 4197:1 #
0.17493358674428077792484259589401 445:1 1804:1 2501:1 3001:1 3536:1 4002:1 #
0.16008765987245038298070198834466 445:1 1394:1 2501:1 3001:1 4150:1 #
-0.17493358674428077792484259589401 548:1 1534:1 1566:1 3001:1 3331:1 4116:1 #
-0.17493358674428077792484259589401 292:1 1534:1 1730:1 1793:1 1803:1 2501:1 3001:1 #
-0.17493358674428077792484259589401 1534:1 2195:1 3001:1 3331:1 4116:1 #
-0.17493358674428077792484259589401 929:1 1534:1 1596:1 1650:1 2041:1 2501:1 2666:1 3001:1 3345:1 3463:1 #
-0.17493358674428077792484259589401 427:1 1177:1 1706:1 2195:1 2501:1 2944:1 3001:1 3856:1 4050:1 #
0.17493358674428077792484259589401 770:1 1534:1 2373:1 2999:1 3001:1 #
0.17493358674428077792484259589401 770:1 1534:1 3001:1 4050:1 #
0.12400286115033325173850897726879 2050:1 3001:1 3102:1 3965:1 #
0.10828751781378483098894349723196 2666:1 2828:1 3311:1 4002:1 #
-0.17493358674428077792484259589401 523:1 576:1 756:1 770:1 1336:1 1985:1 2274:1 2501:1 2767:1 2828:1 3001:1 3135:1 3827:1 3994:1 #
0.17493358674428077792484259589401 770:1 1534:1 2823:1 3001:1 4116:1 #
-0.17493358674428077792484259589401 1068:1 1118:1 2767:1 2828:1 2997:1 #
-0.17493358674428077792484259589401 3001:1 3370:1 4220:1 #
-0.17493358674428077792484259589401 1730:1 2029:1 2660:1 #
-0.17493358674428077792484259589401 3001:1 3819:1 4260:1 #
0.17493358674428077792484259589401 708:1 2195:1 2272:1 2412:1 3001:1 3331:1 3527:1 3575:1 4005:1 #
0.17493358674428077792484259589401 1123:1 1534:1 3001:1 3297:1 3331:1 #
0.0052645528644092018030753443724734 608:1 708:1 1534:1 1661:1 1666:1 2443:1 2501:1 2666:1 3001:1 3331:1 #
0.17493358674428077792484259589401 1646:1 2195:1 3001:1 #
-0.17493358674428077792484259589401 445:1 1123:1 1448:1 1534:1 1644:1 2029:1 2767:1 2996:1 3001:1 #
-0.17493358674428077792484259589401 1534:1 2219:1 2666:1 2828:1 2842:1 3001:1 3529:1 3827:1 #
0.17493358674428077792484259589401 1596:1 2630:1 2767:1 2866:1 2996:1 3368:1 #
0.17493358674428077792484259589401 2630:1 3219:1 3360:1 4212:1 #
0.17493358674428077792484259589401 1688:1 2035:1 2630:1 3377:1 3775:1 #
-0.0082542630378854182915393522534941 248:1 274:1 369:1 1816:1 2272:1 2501:1 3001:1 3100:1 3133:1 3704:1 4110:1 4196:1 4197:1 4507:1 #
-0.17493358674428077792484259589401 385:1 1596:1 1804:1 2630:1 #
-0.17493358674428077792484259589401 770:1 1947:1 3001:1 #
-0.17493358674428077792484259589401 1666:1 2422:1 2630:1 3532:1 4044:1 #
0.092910233777433848256777082497138 1466:1 1644:1 1967:1 2666:1 2828:1 3529:1 #
0.17493358674428077792484259589401 248:1 452:1 1511:1 1534:1 1680:1 2666:1 3001:1 4376:1 #
0.17493358674428077792484259589401 1534:1 2666:1 2794:1 3001:1 #
0.13068160868624459358677825093764 3001:1 3499:1 4220:1 #
-0.17493358674428077792484259589401 28:1 770:1 959:1 3001:1 3032:1 3210:1 3967:1 #
-0.17493358674428077792484259589401 718:1 757:1 962:1 1394:1 1530:1 1885:1 2620:1 2666:1 3001:1 3032:1 4000:1 4119:1 #
-0.17493358674428077792484259589401 770:1 929:1 1534:1 1761:1 2666:1 2828:1 3001:1 3863:1 #
-0.17493358674428077792484259589401 770:1 926:1 3001:1 3032:1 3210:1 3967:1 #
0.17493358674428077792484259589401 1666:1 2195:1 2630:1 3832:1 4212:1 4504:1 #
0.17493358674428077792484259589401 385:1 1637:1 1742:1 2346:1 2630:1 3857:1 #
0.17493358674428077792484259589401 385:1 1505:1 2630:1 3895:1 #
-0.088776773198504452255797048110253 934:1 2630:1 2963:1 3527:1 3832:1 4376:1 #
-0.17493358674428077792484259589401 1466:1 1545:1 2630:1 2767:1 3011:1 4300:1 #
0.17493358674428077792484259589401 770:1 999:1 1534:1 2474:1 2501:1 2666:1 2828:1 3001:1 3032:1 #
0.17493358674428077792484259589401 770:1 880:1 1534:1 2666:1 3001:1 4417:1 #
0.17493358674428077792484259589401 87:1 770:1 1534:1 3001:1 #
-0.17493358674428077792484259589401 1534:1 3001:1 3331:1 3360:1 #
-0.17493358674428077792484259589401 769:1 1534:1 2346:1 2598:1 2705:1 3001:1 3258:1 3360:1 4113:1 4286:1 4433:1 4504:1 #
0.016850370536127954462779499067437 275:1 1080:1 2143:1 2630:1 2767:1 #
0.0022171942545502459215311930051939 81:1 295:1 707:1 929:1 1148:1 1190:1 1562:1 1827:1 1869:1 2660:1 3030:1 3178:1 3595:1 3809:1 3847:1 4147:1 4493:1 #
0.040806265723909523890355899311544 292:1 2118:1 2558:1 2630:1 3069:1 3189:1 3668:1 3825:1 #
-0.17493358674428077792484259589401 1637:1 2666:1 3001:1 #
-0.17493358674428077792484259589401 2195:1 2660:1 2666:1 4014:1 #
-0.17493358674428077792484259589401 770:1 2630:1 #
-0.17493358674428077792484259589401 499:1 770:1 2195:1 2660:1 4074:1 #
0.0038605867256499594442065159682898 1524:1 2705:1 2875:1 3001:1 3331:1 4113:1 #
0.17493358674428077792484259589401 2666:1 2842:1 3001:1 3331:1 #
0.17493358674428077792484259589401 912:1 1134:1 1177:1 1642:1 1666:1 1803:1 2029:1 2580:1 2666:1 2919:1 2932:1 3001:1 3032:1 3331:1 3345:1 3787:1 #
0.17493358674428077792484259589401 3001:1 3331:1 4188:1 #
0.11887349928102249052574990173525 1320:1 1757:1 2767:1 3001:1 3318:1 3832:1 #
-0.17493358674428077792484259589401 1534:1 2237:1 2705:1 2767:1 2956:1 3001:1 3331:1 #
-0.17493358674428077792484259589401 275:1 1534:1 3001:1 3331:1 4116:1 #
-0.17493358674428077792484259589401 1333:1 1524:1 2666:1 2705:1 2932:1 3001:1 4113:1 #
-0.17493358674428077792484259589401 1534:1 1803:1 3001:1 3331:1 #
0.17493358674428077792484259589401 1068:1 2711:1 2767:1 3001:1 3139:1 3341:1 3554:1 4014:1 #
0.10147694889373175264335458223286 1531:1 1661:1 2272:1 3001:1 3059:1 #
0.05460607852153737118428011854121 604:1 1240:1 2195:1 2666:1 2828:1 3827:1 4014:1 4376:1 #
0.17493358674428077792484259589401 770:1 1534:1 3001:1 3360:1 #
-0.17493358674428077792484259589401 26:1 28:1 1532:1 1661:1 2828:1 3128:1 3630:1 4014:1 4197:1 #
-0.17493358674428077792484259589401 1661:1 2496:1 2733:1 2828:1 2867:1 #
-0.17493358674428077792484259589401 248:1 1257:1 2828:1 2864:1 3192:1 3541:1 3554:1 3680:1 #
0.17493358674428077792484259589401 770:1 929:1 1466:1 1534:1 1981:1 3001:1 3994:1 4191:1 4302:1 4383:1 #
0.17493358674428077792484259589401 474:1 1534:1 3001:1 #
0.17493358674428077792484259589401 1534:1 1557:1 2666:1 3001:1 #
-0.17493358674428077792484259589401 1534:1 1730:1 2443:1 2989:1 3001:1 3787:1 3842:1 4084:1 #
-0.038515212822273929560434879704189 770:1 1303:1 3001:1 3349:1 #
-0.17493358674428077792484259589401 370:1 770:1 3001:1 4014:1 4376:1 4458:1 #
0.064854786826778226815903849455935 370:1 436:1 510:1 520:1 825:1 948:1 1168:1 1617:1 1964:1 2194:1 2496:1 2501:1 2799:1 2828:1 2896:1 2906:1 3080:1 3165:1 3370:1 3488:1 3658:1 3712:1 3786:1 4185:1 4210:1 #
0.073041871211932146712442204261606 124:1 1571:1 2666:1 2828:1 #
-0.17493358674428077792484259589401 3001:1 3305:1 3745:1 #
0.17493358674428077792484259589401 173:1 248:1 576:1 756:1 1985:1 2666:1 2828:1 3128:1 #
-0.17493358674428077792484259589401 28:1 1534:1 2666:1 2814:1 2828:1 #
-0.17493358674428077792484259589401 1534:1 2321:1 2666:1 2828:1 #
-0.14402687962467736193516998355335 148:1 770:1 1289:1 1466:1 2705:1 2932:1 3001:1 4097:1 #
-0.17493358674428077792484259589401 1534:1 2418:1 2558:1 2666:1 2828:1 3261:1 #
0.17493358674428077792484259589401 1661:1 2306:1 2922:1 3001:1 3966:1 #
0.17493358674428077792484259589401 1661:1 2148:1 2306:1 3001:1 4188:1 #
0.11078943494680651427053419411095 148:1 364:1 1661:1 3001:1 3140:1 #
-0.17493358674428077792484259589401 1741:1 2593:1 2922:1 3001:1 #
-0.17493358674428077792484259589401 770:1 1355:1 2195:1 2501:1 2799:1 3001:1 4014:1 #
-0.13365364676168187130222975156357 222:1 474:1 2501:1 2801:1 2865:1 3001:1 3032:1 4222:1 4411:1 #
-0.17493358674428077792484259589401 770:1 1007:1 1466:1 2501:1 2630:1 3001:1 #
0.17493358674428077792484259589401 1661:1 2195:1 3001:1 4014:1 #
-0.17493358674428077792484259589401 863:1 929:1 2660:1 2666:1 #
-0.17493358674428077792484259589401 148:1 2660:1 2666:1 #
0.17493358674428077792484259589401 770:1 1534:1 2443:1 3001:1 4116:1 #
0.17493358674428077792484259589401 770:1 1534:1 1698:1 2318:1 3001:1 4002:1 4014:1 4116:1 #
-0.17493358674428077792484259589401 305:1 770:1 773:1 2814:1 3001:1 4188:1 #
-0.0052605796658237412299907731494386 2666:1 3001:1 3003:1 3098:1 3209:1 4188:1 #
0.035898510945333271526802576545379 1119:1 2666:1 2828:1 #
-0.17493358674428077792484259589401 1534:1 1666:1 1985:1 2666:1 2767:1 2828:1 3001:1 #
-0.17493358674428077792484259589401 1534:1 2443:1 2666:1 2828:1 #
-0.17493358674428077792484259589401 1117:1 1534:1 2666:1 2828:1 3370:1 #
-0.17493358674428077792484259589401 1240:1 1534:1 2666:1 2828:1 #
0.17493358674428077792484259589401 2814:1 2842:1 3001:1 4014:1 4391:1 4444:1 4458:1 #
0.17493358674428077792484259589401 2480:1 2558:1 2842:1 3001:1 3359:1 #
0.17493358674428077792484259589401 741:1 1910:1 2123:1 2501:1 2660:1 3001:1 3032:1 3098:1 #
-0.098572470363044978336475310243259 37:1 2079:1 2195:1 2306:1 2666:1 2900:1 3001:1 3543:1 #
0.17493358674428077792484259589401 1730:1 2989:1 3001:1 4002:1 #
0.12316157671300664855351669757511 2666:1 2828:1 3787:1 #
-0.093247667486803839653752845606505 150:1 770:1 1153:1 1531:1 1730:1 1893:1 2227:1 2288:1 2501:1 2558:1 2705:1 3001:1 3259:1 3791:1 4113:1 #
-0.17493358674428077792484259589401 460:1 929:1 2501:1 3001:1 3745:1 3819:1 3922:1 4002:1 4050:1 #
-0.15451426546879828971547965466016 474:1 1117:1 2501:1 3001:1 3258:1 4002:1 4332:1 #
-0.10335038427767517799082952478784 716:1 770:1 1449:1 1805:1 2501:1 2558:1 2842:1 3001:1 3086:1 3747:1 #
0.17493358674428077792484259589401 770:1 1511:1 1534:1 1985:1 2501:1 2660:1 2666:1 2767:1 2828:1 3261:1 3832:1 #
0.17493358674428077792484259589401 929:1 1534:1 2630:1 2666:1 #
0.17493358674428077792484259589401 1534:1 1666:1 2630:1 2666:1 4504:1 #
0.17493358674428077792484259589401 1534:1 2630:1 2666:1 #
0.17493358674428077792484259589401 106:1 370:1 2431:1 2666:1 2767:1 2828:1 3032:1 3233:1 3261:1 3564:1 3613:1 #
-0.17493358674428077792484259589401 174:1 825:1 2630:1 2666:1 #
-0.17493358674428077792484259589401 2195:1 2219:1 2630:1 2666:1 3349:1 #
-0.17493358674428077792484259589401 2630:1 2666:1 #
0.17493358674428077792484259589401 2443:1 3001:1 3819:1 4002:1 4140:1 #
-0.17493358674428077792484259589401 885:1 1531:1 1534:1 1650:1 1985:1 2279:1 3001:1 3787:1 3832:1 #
-0.17493358674428077792484259589401 1534:1 2306:1 3001:1 3331:1 #
-0.17493358674428077792484259589401 755:1 1311:1 1466:1 2516:1 3001:1 4222:1 4504:1 #
0.11045614000249225072902703459476 934:1 1441:1 2501:1 2666:1 2828:1 3551:1 #
0.17493358674428077792484259589401 417:1 2018:1 2110:1 2666:1 2828:1 3832:1 3994:1 #
0.048207693912058556529043329419437 588:1 925:1 962:1 1286:1 1752:1 2195:1 2321:1 2558:1 2767:1 2849:1 2997:1 3020:1 3032:1 4282:1 #
-0.17493358674428077792484259589401 770:1 2195:1 2272:1 3001:1 #
-0.17493358674428077792484259589401 36:1 83:1 369:1 2447:1 2501:1 2558:1 2660:1 2955:1 3106:1 3377:1 3994:1 4383:1 #
-0.17493358674428077792484259589401 79:1 385:1 2029:1 2666:1 2828:1 3488:1 #
0.17493358674428077792484259589401 770:1 929:1 1534:1 2346:1 3001:1 #
0.17493358674428077792484259589401 193:1 770:1 1534:1 2050:1 3001:1 #
0.17493358674428077792484259589401 770:1 1117:1 1534:1 3001:1 #
0.17493358674428077792484259589401 536:1 770:1 1534:1 2763:1 3001:1 #
0.17493358674428077792484259589401 770:1 1433:1 1534:1 3001:1 3368:1 #
0.14615165863829229775383566902747 581:1 773:1 3001:1 3056:1 #
-0.17493358674428077792484259589401 770:1 2195:1 2443:1 3001:1 4014:1 #
-0.17493358674428077792484259589401 548:1 770:1 863:1 1739:1 2195:1 3001:1 3032:1 3828:1 4372:1 #
-0.17493358674428077792484259589401 770:1 1985:1 3001:1 3032:1 3355:1 4113:1 #
0.17493358674428077792484259589401 2666:1 2828:1 4002:1 #
-0.17493358674428077792484259589401 929:1 1534:1 2666:1 2828:1 4002:1 4116:1 #
-0.17493358674428077792484259589401 1534:1 2346:1 2666:1 2828:1 #
-0.17493358674428077792484259589401 1534:1 2666:1 2828:1 4150:1 #
-0.17493358674428077792484259589401 25:1 1534:1 2666:1 2814:1 2828:1 #
0.1686239298279208487230107493815 619:1 1524:1 1532:1 1741:1 2705:1 3001:1 3331:1 3390:1 #
0.065477361678341852724294369636482 385:1 773:1 1068:1 1331:1 1448:1 1617:1 1900:1 2029:1 2501:1 2815:1 3001:1 3028:1 3358:1 3443:1 3554:1 4326:1 4458:1 #
0.17493358674428077792484259589401 1466:1 2558:1 2794:1 3001:1 3198:1 #
0.074274346031293222991642721808603 769:1 1661:1 3001:1 3246:1 #
-0.035435811194665121914848526785136 548:1 770:1 2263:1 2390:1 3001:1 3225:1 3742:1 3884:1 4074:1 #
-0.17493358674428077792484259589401 227:1 1041:1 1466:1 2604:1 2794:1 3001:1 3331:1 3832:1 3838:1 4396:1 #
-0.17493358674428077792484259589401 275:1 770:1 3001:1 3311:1 #
-0.17493358674428077792484259589401 1433:1 1534:1 2666:1 2814:1 3001:1 3368:1 4197:1 #
0.00058881041392390865308464897864837 1466:1 1531:1 2619:1 2666:1 2828:1 3787:1 #
0.17493358674428077792484259589401 426:1 929:1 2666:1 2828:1 4222:1 #
0.17493358674428077792484259589401 2666:1 2828:1 3113:1 #
-0.021090956355263586891046756477408 26:1 289:1 2195:1 2427:1 2666:1 2885:1 3001:1 3008:1 3611:1 #
-0.17493358674428077792484259589401 2233:1 2630:1 2666:1 4197:1 #
-0.17493358674428077792484259589401 2233:1 2666:1 3001:1 3554:1 3775:1 #
0.17493358674428077792484259589401 770:1 1534:1 2767:1 3001:1 3370:1 3832:1 3994:1 #
0.17493358674428077792484259589401 227:1 770:1 2018:1 3001:1 #
-0.17493358674428077792484259589401 2346:1 2767:1 3001:1 3370:1 3571:1 3787:1 3832:1 4294:1 #
-0.17493358674428077792484259589401 2566:1 3001:1 3370:1 4220:1 #
-0.17493358674428077792484259589401 770:1 1596:1 2501:1 2828:1 3001:1 #
0.17493358674428077792484259589401 1117:1 1692:1 2195:1 2630:1 3360:1 3832:1 #
0.040186291113190185375625418373602 64:1 1531:1 1637:1 2922:1 3001:1 3571:1 4050:1 #
0.17493358674428077792484259589401 1232:1 1466:1 1534:1 1625:1 2186:1 2195:1 2418:1 2630:1 3189:1 3918:1 #
0.17493358674428077792484259589401 1534:1 2630:1 2666:1 4050:1 #
0.17493358674428077792484259589401 174:1 1534:1 2219:1 2377:1 2630:1 2666:1 2767:1 3554:1 3645:1 #
-0.17493358674428077792484259589401 1534:1 2666:1 2828:1 3011:1 #
-0.17493358674428077792484259589401 1492:1 1534:1 2018:1 2666:1 2828:1 2996:1 4002:1 4222:1 #
-0.17493358674428077792484259589401 1534:1 2666:1 2828:1 #
-0.17493358674428077792484259589401 248:1 1365:1 1534:1 2666:1 2828:1 2997:1 #
0.17493358674428077792484259589401 1650:1 2443:1 2501:1 3001:1 #
-0.17493358674428077792484259589401 718:1 770:1 999:1 2443:1 2501:1 3001:1 4216:1 #
-0.16800114473373306545056493632728 298:1 1661:1 2537:1 2666:1 2814:1 3001:1 3135:1 #
-0.17493358674428077792484259589401 481:1 775:1 1534:1 1923:1 2501:1 3001:1 3331:1 3417:1 3633:1 #
0.17493358674428077792484259589401 2075:1 2666:1 2828:1 3349:1 #
0.03297864818890755556068938858516 1709:1 2501:1 2666:1 2828:1 3001:1 #
0.17493358674428077792484259589401 2666:1 2828:1 4197:1 #
-0.17493358674428077792484259589401 1661:1 2828:1 4197:1 #
-0.17493358674428077792484259589401 929:1 1722:1 2828:1 3113:1 4197:1 4321:1 #
-0.17493358674428077792484259589401 1661:1 2828:1 3349:1 #
-0.17493358674428077792484259589401 854:1 2828:1 #
-0.17493358674428077792484259589401 2828:1 3370:1 3457:1 4376:1 #
0.17493358674428077792484259589401 37:1 770:1 1534:1 2814:1 3001:1 #
0.17493358674428077792484259589401 445:1 770:1 1466:1 1534:1 2501:1 3001:1 #
-0.17493358674428077792484259589401 879:1 1466:1 1534:1 2501:1 2907:1 3001:1 3056:1 3625:1 3827:1 4050:1 4481:1 #
-0.17493358674428077792484259589401 1466:1 2580:1 2666:1 3001:1 #
-0.17493358674428077792484259589401 770:1 2195:1 3001:1 4050:1 #
0.17493358674428077792484259589401 1244:1 1531:1 3001:1 #
0.17493358674428077792484259589401 2029:1 3001:1 3571:1 3994:1 4002:1 #
-0.17493358674428077792484259589401 519:1 537:1 1534:1 2828:1 4412:1 #
-0.17493358674428077792484259589401 391:1 1534:1 2828:1 #
-0.17493358674428077792484259589401 1534:1 2666:1 2828:1 4002:1 #
0.17493358674428077792484259589401 469:1 1730:1 2733:1 3001:1 3630:1 3787:1 #
0.17493358674428077792484259589401 645:1 1065:1 1326:1 1576:1 1617:1 2867:1 3001:1 #
-0.17493358674428077792484259589401 418:1 1466:1 2355:1 3001:1 3994:1 4014:1 #
-0.095131999850945128671675377063366 227:1 1531:1 1730:1 1985:1 2029:1 2304:1 2558:1 2903:1 3001:1 #
-0.17493358674428077792484259589401 929:1 1356:1 2443:1 2558:1 2963:1 3001:1 3887:1 #
0.17493358674428077792484259589401 2148:1 2746:1 3001:1 3331:1 #
-0.17493358674428077792484259589401 602:1 2377:1 3001:1 3819:1 #
0.17493358674428077792484259589401 770:1 1534:1 1803:1 2501:1 2666:1 2828:1 3001:1 3832:1 #
0.040184555251977394085827199887717 78:1 806:1 1299:1 2666:1 2767:1 2828:1 2842:1 3997:1 #
0.060022285035191504098950332490858 481:1 1240:1 2195:1 2666:1 2799:1 2828:1 #
-0.10412173853616771279639863223565 637:1 1065:1 1336:1 1617:1 2501:1 2666:1 3001:1 3628:1 3762:1 3785:1 #
-0.17493358674428077792484259589401 1596:1 2630:1 2989:1 3142:1 #
-0.17493358674428077792484259589401 2011:1 2211:1 2666:1 3001:1 3372:1 3832:1 #
0.17493358674428077792484259589401 227:1 1730:1 2029:1 2558:1 3001:1 4367:1 #
0.026514283278381116371047454549625 26:1 1848:1 1965:1 2270:1 2381:1 2557:1 3001:1 #
0.14179659335398112074422272144147 235:1 1615:1 1680:1 1985:1 2195:1 2501:1 2558:1 2963:1 3001:1 3842:1 3895:1 4376:1 4410:1 #
0.17493358674428077792484259589401 26:1 2709:1 3001:1 3148:1 3819:1 4381:1 #
-0.17493358674428077792484259589401 770:1 2195:1 2270:1 3001:1 3807:1 #
-0.17493358674428077792484259589401 770:1 2195:1 2306:1 2794:1 3001:1 #
-0.17493358674428077792484259589401 770:1 1244:1 1637:1 1666:1 2195:1 2501:1 3001:1 #
-0.17493358674428077792484259589401 770:1 3001:1 3133:1 3719:1 #
0.10952324256182999206998829322401 734:1 2554:1 2666:1 2828:1 3349:1 3832:1 #
0.071350628728835421843434971833631 522:1 1514:1 2501:1 2630:1 2666:1 2828:1 #
-0.17493358674428077792484259589401 548:1 770:1 3001:1 #
0.16624164721294057422973367010854 2272:1 2666:1 2828:1 #
-0.17493358674428077792484259589401 106:1 2029:1 2666:1 2828:1 3052:1 #
-0.17493358674428077792484259589401 26:1 28:1 209:1 581:1 588:1 707:1 2365:1 2666:1 2814:1 #
-0.17493358674428077792484259589401 600:1 2029:1 2666:1 2828:1 #
-0.17493358674428077792484259589401 1534:1 2666:1 2828:1 3390:1 #
0.17493358674428077792484259589401 770:1 3001:1 3370:1 #
-0.17493358674428077792484259589401 275:1 1661:1 2501:1 2828:1 3001:1 3342:1 3349:1 4260:1 #
-0.17493358674428077792484259589401 126:1 929:1 2666:1 2709:1 3001:1 3148:1 #
-0.17493358674428077792484259589401 770:1 2148:1 3001:1 3095:1 3130:1 3832:1 #
-0.17493358674428077792484259589401 2390:1 2666:1 3001:1 3832:1 #
-0.16863351699950207551736980349233 1531:1 2029:1 2310:1 2630:1 3776:1 4150:1 4504:1 #
0.17493358674428077792484259589401 1596:1 2501:1 2666:1 2828:1 3001:1 3133:1 #
0.17493358674428077792484259589401 1534:1 1985:1 2279:1 2666:1 3001:1 3512:1 #
-0.17493358674428077792484259589401 227:1 1534:1 3001:1 3331:1 #
-0.17493358674428077792484259589401 278:1 1534:1 3001:1 3331:1 #
-0.17493358674428077792484259589401 1534:1 2443:1 3001:1 3331:1 #
-0.17493358674428077792484259589401 1534:1 3001:1 3331:1 #
-0.051645491001082267923383284369265 885:1 929:1 1311:1 2029:1 3001:1 #
0.17493358674428077792484259589401 2195:1 2480:1 2660:1 4014:1 #
-0.17493358674428077792484259589401 1637:1 2660:1 2666:1 3649:1 #
0.17493358674428077792484259589401 770:1 1534:1 2767:1 3001:1 #
0.17493358674428077792484259589401 370:1 718:1 857:1 2990:1 3001:1 3003:1 3331:1 3923:1 4000:1 4260:1 #
0.17493358674428077792484259589401 148:1 1534:1 2666:1 3001:1 #
0.17493358674428077792484259589401 1117:1 1534:1 2666:1 3001:1 #
0.17493358674428077792484259589401 1534:1 2443:1 2666:1 3001:1 3897:1 #
0.17493358674428077792484259589401 1881:1 1994:1 2195:1 2501:1 2671:1 3001:1 #
0.17493358674428077792484259589401 1462:1 2390:1 3001:1 3032:1 3442:1 4002:1 #
0.17493358674428077792484259589401 770:1 1117:1 1442:1 1466:1 1534:1 1620:1 2195:1 2501:1 2901:1 3001:1 3421:1 4376:1 #
0.17493358674428077792484259589401 248:1 2330:1 3001:1 4220:1 #
-0.17493358674428077792484259589401 274:1 2219:1 2666:1 2865:1 3001:1 3133:1 #
-0.056557176717192458870187010688824 174:1 255:1 2630:1 3345:1 3536:1 #
-0.17493358674428077792484259589401 370:1 428:1 1068:1 2630:1 #
0.17493358674428077792484259589401 1730:1 3001:1 4095:1 #
-0.17493358674428077792484259589401 773:1 2630:1 2767:1 3377:1 3527:1 #
0.17493358674428077792484259589401 174:1 1458:1 2029:1 3001:1 3368:1 3633:1 4002:1 4050:1 4197:1 4383:1 #
0.17493358674428077792484259589401 1515:1 1534:1 2666:1 3001:1 3828:1 #
-0.17493358674428077792484259589401 379:1 1534:1 2144:1 3001:1 3297:1 3331:1 #
-0.17493358674428077792484259589401 1534:1 3001:1 3331:1 4107:1 #
0.13281058416426724799741521110263 938:1 2666:1 2828:1 3224:1 3536:1 #
0.047813934515166280070364024368246 2279:1 2501:1 2666:1 2705:1 2828:1 3001:1 3446:1 4294:1 #
-0.17493358674428077792484259589401 524:1 2666:1 2828:1 #
-0.17493358674428077792484259589401 524:1 1570:1 2346:1 2666:1 2828:1 #
0.17493358674428077792484259589401 1730:1 2148:1 2989:1 3001:1 4014:1 #
0.15096217033298092724535877096059 69:1 588:1 788:1 2997:1 3331:1 3967:1 #
-0.17493358674428077792484259589401 26:1 1650:1 2418:1 2501:1 2814:1 3001:1 4444:1 #
0.17493358674428077792484259589401 15:1 313:1 483:1 2029:1 2216:1 2443:1 2585:1 2666:1 2828:1 3178:1 #
0.018577729470812941875434987082372 2666:1 2828:1 3180:1 3876:1 #
0.068978878382192285179108637294121 2195:1 2666:1 2828:1 4376:1 #
-0.17493358674428077792484259589401 2828:1 3178:1 3527:1 #
-0.039311715279381875820519098851946 509:1 1582:1 2164:1 2558:1 2630:1 3527:1 #
0.17493358674428077792484259589401 202:1 2029:1 3001:1 3994:1 4002:1 4444:1 #
-0.10035638625002456236767756081463 2195:1 2306:1 2346:1 2666:1 3001:1 #
0.17493358674428077792484259589401 341:1 1650:1 3001:1 4205:1 #
-0.17493358674428077792484259589401 1975:1 2501:1 2666:1 3001:1 3074:1 4014:1 4412:1 #
-0.17493358674428077792484259589401 770:1 1661:1 2501:1 2828:1 3001:1 4002:1 #
0.077914759920946249915907344529842 321:1 2014:1 2018:1 2501:1 2666:1 2828:1 3001:1 3130:1 3178:1 #
0.17493358674428077792484259589401 2018:1 3001:1 3994:1 4002:1 4260:1 #
0.17493358674428077792484259589401 404:1 3001:1 3575:1 4002:1 #
0.17493358674428077792484259589401 369:1 2558:1 3001:1 #
0.17493358674428077792484259589401 2534:1 2558:1 3001:1 4284:1 #
0.17493358674428077792484259589401 258:1 929:1 1466:1 2501:1 2922:1 3001:1 3417:1 3475:1 3545:1 #
-0.17493358674428077792484259589401 2272:1 2553:1 2630:1 2666:1 2922:1 3219:1 3360:1 #
-0.17493358674428077792484259589401 588:1 2666:1 4222:1 #
0.17493358674428077792484259589401 770:1 1093:1 1534:1 1908:1 2666:1 3001:1 3814:1 #
-0.010631384589742644275478511417532 770:1 1037:1 1433:1 2630:1 3225:1 3632:1 4188:1 #
0.071261002987272378805805317369959 1869:1 2501:1 2666:1 2767:1 2828:1 2842:1 3001:1 3075:1 3526:1 3554:1 #
0.17493358674428077792484259589401 2666:1 2828:1 4409:1 #
0.11702412136113568563722253657033 773:1 3001:1 3571:1 3601:1 #
-0.17493358674428077792484259589401 394:1 1534:1 2136:1 2666:1 2828:1 3370:1 3923:1 4116:1 #
0.17493358674428077792484259589401 36:1 1534:1 2666:1 2814:1 3001:1 #
0.17493358674428077792484259589401 1534:1 2666:1 3001:1 4116:1 #
0.17493358674428077792484259589401 929:1 1534:1 2666:1 3001:1 #
0.17493358674428077792484259589401 1534:1 2630:1 2666:1 3832:1 4116:1 #
0.17493358674428077792484259589401 770:1 929:1 1534:1 3001:1 4198:1 #
-0.17493358674428077792484259589401 274:1 2666:1 3001:1 3032:1 3133:1 #
0.17493358674428077792484259589401 3001:1 4014:1 4338:1 #
0.17493358674428077792484259589401 3001:1 4002:1 4412:1 #
0.17493358674428077792484259589401 1534:1 2666:1 3001:1 #
-0.042975625069693747237753456147402 64:1 174:1 2666:1 3001:1 3536:1 #
0.17493358674428077792484259589401 1910:1 2828:1 #
0.17493358674428077792484259589401 948:1 1466:1 2660:1 #
-0.17493358674428077792484259589401 1661:1 1910:1 2828:1 4002:1 #
-0.17493358674428077792484259589401 428:1 2828:1 #
-0.17493358674428077792484259589401 448:1 2828:1 3370:1 #
0.17493358674428077792484259589401 1534:1 2666:1 3001:1 4193:1 #
-0.17493358674428077792484259589401 436:1 1569:1 2660:1 2666:1 #
0.16263995144154605454467343861324 64:1 2110:1 2620:1 2666:1 2828:1 #
0.17493358674428077792484259589401 393:1 1068:1 2029:1 2666:1 2767:1 2828:1 #
0.17493358674428077792484259589401 26:1 2666:1 2814:1 2828:1 #
0.019930903569951918807845459014061 149:1 727:1 1331:1 2666:1 2698:1 2828:1 #
0.17493358674428077792484259589401 1534:1 2630:1 2666:1 2814:1 3020:1 4504:1 #
0.17493358674428077792484259589401 436:1 770:1 1534:1 3001:1 #
0.17493358674428077792484259589401 2279:1 2418:1 2666:1 2828:1 #
0.17493358674428077792484259589401 929:1 1534:1 1549:1 2666:1 2828:1 3712:1 4014:1 #
0.076373443749427671889407065464184 260:1 608:1 1775:1 2666:1 2828:1 #
0.17493358674428077792484259589401 929:1 2501:1 2630:1 3001:1 3331:1 3731:1 #
-0.17493358674428077792484259589401 588:1 2666:1 #
-0.17493358674428077792484259589401 426:1 1310:1 2338:1 2501:1 2828:1 3001:1 3261:1 #
0.019938120590122291458934356001009 31:1 2666:1 2794:1 2828:1 #
0.050762244297105560408844837638753 2195:1 2666:1 2828:1 #
-0.17493358674428077792484259589401 929:1 2660:1 2666:1 3056:1 #
-0.17493358674428077792484259589401 2660:1 2666:1 #
-0.065307355328859562071386335446732 770:1 779:1 3001:1 3633:1 #
-0.01285052140899260730844133604478 1534:1 1735:1 3001:1 4194:1 #
0.14149257624050121107117661267694 128:1 370:1 394:1 476:1 678:1 2097:1 2501:1 2565:1 2643:1 2791:1 3001:1 3165:1 3360:1 3593:1 3827:1 4095:1 4416:1 #
-0.17493358674428077792484259589401 26:1 1117:1 1394:1 1466:1 2501:1 2666:1 3001:1 4014:1 #
0.17493358674428077792484259589401 1534:1 2666:1 3001:1 4222:1 #
0.17493358674428077792484259589401 2666:1 2828:1 3819:1 #
0.17493358674428077792484259589401 1117:1 3001:1 3302:1 3819:1 4412:1 #
0.17493358674428077792484259589401 1661:1 2908:1 3001:1 3032:1 3059:1 3787:1 #
-0.17493358674428077792484259589401 130:1 1661:1 2828:1 4188:1 #
0.17493358674428077792484259589401 2480:1 3001:1 4002:1 #
0.17493358674428077792484259589401 2842:1 3001:1 3645:1 4014:1 4381:1 #
0.12584625680881217357764967346156 28:1 271:1 1343:1 1433:1 1534:1 1958:1 2191:1 2666:1 2931:1 3001:1 3121:1 3763:1 #
-0.17493358674428077792484259589401 2321:1 2660:1 2666:1 2842:1 4002:1 #
0.16948023498301845179980773536954 984:1 1210:1 1534:1 2501:1 2666:1 2828:1 3001:1 #
0.17493358674428077792484259589401 3001:1 3358:1 4002:1 #
0.17493358674428077792484259589401 2237:1 2666:1 2828:1 3345:1 #
0.17493358674428077792484259589401 536:1 1534:1 1730:1 2195:1 2501:1 2828:1 3001:1 3056:1 3633:1 #
0.11887557536389126155995654698927 1704:1 2501:1 2785:1 3001:1 3556:1 3745:1 #
0.17493358674428077792484259589401 3001:1 4002:1 4050:1 #
0.17493358674428077792484259589401 2516:1 3001:1 3349:1 3556:1 #
-0.17493358674428077792484259589401 2243:1 2828:1 3527:1 #
-0.17493358674428077792484259589401 2828:1 3342:1 3370:1 3832:1 #
-0.17493358674428077792484259589401 934:1 2828:1 3527:1 #
-0.17493358674428077792484259589401 2828:1 3527:1 #
-0.17493358674428077792484259589401 2050:1 2660:1 3349:1 4504:1 #
-0.047748885781798075522708302287356 2630:1 2666:1 4002:1 4337:1 #
-0.17493358674428077792484259589401 1534:1 3001:1 4116:1 4381:1 #
-0.14709988371031793019660938171 370:1 387:1 562:1 772:1 1534:1 1641:1 1691:1 2501:1 2732:1 3001:1 3333:1 3554:1 4190:1 #
-0.17493358674428077792484259589401 458:1 1534:1 2828:1 2832:1 4376:1 #
-0.17493358674428077792484259589401 57:1 296:1 382:1 383:1 1530:1 1534:1 2195:1 2814:1 3001:1 3314:1 3758:1 4076:1 4412:1 #
-0.17493358674428077792484259589401 1534:1 2195:1 3001:1 3331:1 #
0.17493358674428077792484259589401 1730:1 2660:1 3370:1 3994:1 4002:1 #
0.17493358674428077792484259589401 2660:1 2666:1 3370:1 3556:1 4002:1 4014:1 #
0.17493358674428077792484259589401 770:1 2604:1 2666:1 2828:1 3527:1 4014:1 4504:1 #
0.17493358674428077792484259589401 1661:1 2557:1 3001:1 3527:1 #
-0.1695269919563839877696409530472 3001:1 3142:1 #
-0.042940113283374839459050065215706 218:1 339:1 375:1 1100:1 2049:1 2593:1 2630:1 2671:1 2769:1 2842:1 2922:1 3872:1 3938:1 3952:1 #
-0.17493358674428077792484259589401 417:1 866:1 2418:1 2660:1 3994:1 #
-0.17493358674428077792484259589401 69:1 999:1 2390:1 2666:1 3001:1 #
-0.17493358674428077792484259589401 1944:1 2660:1 #
-0.17493358674428077792484259589401 69:1 999:1 2666:1 3001:1 #
0.018584518659442567783957045435272 189:1 248:1 538:1 885:1 1310:1 1534:1 1596:1 1669:1 2136:1 2219:1 3001:1 3144:1 3556:1 3775:1 3776:1 3832:1 #
-0.17493358674428077792484259589401 229:1 385:1 1466:1 2666:1 2712:1 2865:1 2932:1 3001:1 #
0.060033300126149109765538725014267 271:1 387:1 509:1 829:1 1063:1 1466:1 1647:1 2186:1 2195:1 2304:1 2495:1 2496:1 2558:1 2814:1 3001:1 3421:1 3809:1 3832:1 3928:1 4222:1 4259:1 4384:1 4433:1 #
0.17493358674428077792484259589401 1333:1 1637:1 2377:1 2989:1 3001:1 3360:1 3776:1 3832:1 4260:1 #
0.045211892605089940011531268737599 149:1 814:1 929:1 1289:1 1311:1 1511:1 1647:1 2029:1 2330:1 2630:1 2963:1 3032:1 3165:1 3536:1 3827:1 4014:1 4084:1 4116:1 #
-0.17493358674428077792484259589401 128:1 3001:1 3832:1 3994:1 #
-0.17493358674428077792484259589401 3001:1 3370:1 3832:1 4050:1 #
-0.17493358674428077792484259589401 1469:1 3001:1 3832:1 3994:1 #
0.17493358674428077792484259589401 1534:1 2660:1 2666:1 #
0.17493358674428077792484259589401 59:1 1570:1 1711:1 2346:1 2666:1 2828:1 #
0.17493358674428077792484259589401 2148:1 3001:1 3331:1 3349:1 4188:1 #
0.17493358674428077792484259589401 2436:1 2660:1 #
0.094703631576782645873358035260026 1216:1 3001:1 4127:1 #
-0.17493358674428077792484259589401 31:1 1534:1 2110:1 2216:1 2620:1 2666:1 2799:1 2828:1 2937:1 4000:1 #
-0.17493358674428077792484259589401 2660:1 2767:1 #
0.14822271895456023971249237547454 148:1 268:1 602:1 913:1 2425:1 2501:1 2630:1 2922:1 3001:1 3832:1 3923:1 4014:1 4412:1 #
0.17493358674428077792484259589401 460:1 1469:1 1632:1 1985:1 2767:1 3001:1 4002:1 #
0.17493358674428077792484259589401 1661:1 2746:1 3001:1 3177:1 4031:1 4433:1 #
0.045694719759101415368363063862489 770:1 929:1 1534:1 1680:1 2279:1 2585:1 3001:1 4033:1 4050:1 #
0.17493358674428077792484259589401 999:1 1661:1 3001:1 4197:1 #
-0.17493358674428077792484259589401 1108:1 1661:1 1861:1 1905:1 2828:1 3001:1 4002:1 4003:1 #
-0.16465732534606927761622330308455 28:1 327:1 1882:1 1910:1 1985:1 2767:1 2814:1 3001:1 3633:1 4383:1 #
-0.17493358674428077792484259589401 1539:1 1810:1 2443:1 3001:1 3804:1 3836:1 3895:1 3928:1 #
-0.17493358674428077792484259589401 1625:1 3001:1 3189:1 3895:1 3923:1 #
-0.1524256638559906840146851436657 104:1 248:1 385:1 426:1 624:1 835:1 929:1 1333:1 1433:1 1570:1 1652:1 1882:1 2346:1 2666:1 2900:1 3001:1 3564:1 4050:1 4419:1 #
0.17493358674428077792484259589401 770:1 2660:1 3370:1 3832:1 #
0.17493358674428077792484259589401 368:1 2029:1 3001:1 #
0.17206029872516967471618443141779 423:1 1531:1 2660:1 3298:1 3349:1 4050:1 #
0.17493358674428077792484259589401 1355:1 2029:1 2630:1 3458:1 4050:1 #
-0.17493358674428077792484259589401 368:1 1596:1 2630:1 #
-0.17493358674428077792484259589401 770:1 929:1 2148:1 2630:1 #
-0.17493358674428077792484259589401 368:1 2630:1 2794:1 #
-0.17493358674428077792484259589401 929:1 2029:1 2418:1 2630:1 3827:1 #
0.17493358674428077792484259589401 174:1 255:1 2501:1 2666:1 2828:1 3001:1 3536:1 #
0.17493358674428077792484259589401 1661:1 2306:1 2922:1 3001:1 3895:1 #
0.078312709963755888775693847492221 984:1 1266:1 1751:1 1869:1 1880:1 2052:1 2516:1 2553:1 2666:1 2828:1 3001:1 3108:1 3219:1 3818:1 4155:1 4286:1 #
0.17493358674428077792484259589401 428:1 3001:1 3297:1 4383:1 4497:1 #
0.076770014544350437257769215193548 548:1 929:1 1532:1 3001:1 4084:1 #
-0.17493358674428077792484259589401 210:1 1661:1 2501:1 2751:1 2828:1 3001:1 #
-0.17493358674428077792484259589401 708:1 1545:1 3001:1 3003:1 3113:1 3141:1 4050:1 #
-0.17493358674428077792484259589401 2377:1 2666:1 3001:1 #
-0.17493358674428077792484259589401 474:1 683:1 756:1 1498:1 2373:1 2501:1 2666:1 2767:1 2842:1 3001:1 3904:1 4050:1 4197:1 #
-0.17493358674428077792484259589401 634:1 770:1 1545:1 2501:1 3001:1 3059:1 4197:1 #
0.17493358674428077792484259589401 174:1 255:1 1534:1 1625:1 2340:1 2443:1 2501:1 2630:1 2666:1 3001:1 3536:1 3556:1 4002:1 4116:1 #
0.17493358674428077792484259589401 1650:1 2630:1 3832:1 3847:1 #
0.17493358674428077792484259589401 245:1 1292:1 1532:1 2630:1 2842:1 #
0.17493358674428077792484259589401 509:1 1617:1 2630:1 3167:1 #
0.17493358674428077792484259589401 2195:1 2630:1 3342:1 4014:1 #
-0.17493358674428077792484259589401 277:1 2018:1 2630:1 2922:1 #
-0.17493358674428077792484259589401 2660:1 2922:1 3895:1 4260:1 #
-0.17493358674428077792484259589401 2660:1 4212:1 #
-0.17493358674428077792484259589401 2630:1 #
-0.072876937332670116420629824460775 575:1 736:1 770:1 3001:1 3787:1 #
-0.17493358674428077792484259589401 2418:1 2963:1 3001:1 3656:1 3819:1 4260:1 #
0.17493358674428077792484259589401 602:1 929:1 1596:1 2471:1 3001:1 3165:1 3355:1 3652:1 #
-0.17493358674428077792484259589401 1534:1 2666:1 2828:1 3001:1 #
-0.17493358674428077792484259589401 426:1 773:1 1302:1 2060:1 2666:1 3001:1 4014:1 4180:1 4444:1 #
-0.17493358674428077792484259589401 275:1 394:1 770:1 787:1 1534:1 1639:1 1661:1 1708:1 2195:1 2254:1 2438:1 2828:1 3011:1 3311:1 3349:1 3554:1 3923:1 4150:1 4402:1 4416:1 4534:1 #
-0.17493358674428077792484259589401 2195:1 2666:1 3001:1 4014:1 #
0.072386782915666053606074115123192 522:1 2377:1 2660:1 2767:1 3349:1 3630:1 3967:1 4023:1 #
0.17493358674428077792484259589401 600:1 1355:1 1730:1 2630:1 4095:1 4374:1 #
0.012084121337445092453366513041146 355:1 1775:1 3001:1 4391:1 #
0.17493358674428077792484259589401 2050:1 2630:1 2792:1 #
0.17493358674428077792484259589401 1336:1 2630:1 #
-0.17493358674428077792484259589401 1596:1 1804:1 2630:1 2767:1 #
-0.17493358674428077792484259589401 1193:1 1853:1 2630:1 3856:1 #
-0.17493358674428077792484259589401 1534:1 1666:1 2630:1 3776:1 4116:1 #
0.17493358674428077792484259589401 426:1 2666:1 2828:1 4216:1 #
0.17493358674428077792484259589401 65:1 2666:1 2725:1 2828:1 3135:1 4014:1 #
-0.17493358674428077792484259589401 548:1 1185:1 1680:1 2501:1 2666:1 2814:1 2842:1 3001:1 3075:1 3135:1 3418:1 4005:1 4504:1 #
-0.17493358674428077792484259589401 2666:1 2842:1 3001:1 3056:1 3349:1 3827:1 4458:1 #
-0.17493358674428077792484259589401 59:1 509:1 2666:1 3001:1 #
-0.17493358674428077792484259589401 37:1 2666:1 3001:1 4002:1 4222:1 #
-0.17493358674428077792484259589401 2666:1 3001:1 3284:1 4189:1 #
0.17493358674428077792484259589401 2195:1 2236:1 2630:1 4197:1 #
