SVM-light Version V6.01
0 # kernel type
3 # kernel parameter -d 
1 # kernel parameter -g 
1 # kernel parameter -s 
1 # kernel parameter -r 
empty# kernel parameter -u 
4212 # highest feature index 
5207 # number of training documents 
1498 # number of support vectors plus 1 
0.53313738 # threshold b, each following line is a SV (starting with alpha*y)
0.11845299724423520582039515147699 92:1 570:1 919:1 1175:1 1388:1 1465:1 1702:1 1703:1 1797:1 1905:1 2062:1 2299:1 2343:1 2868:1 2969:1 3067:1 3527:1 3866:1 4076:1 4124:1 #
-0.12896853770395486082911418179719 779:1 1285:1 1468:1 2251:1 2343:1 3563:1 #
0.12896853770395486082911418179719 2969:1 3702:1 #
-0.12896853770395486082911418179719 56:1 789:1 1090:1 1245:1 2849:1 3376:1 3764:1 4076:1 #
0.12896853770395486082911418179719 1164:1 4076:1 4188:1 #
2.7869562136088285847813103383863e-07 619:1 3764:1 4076:1 #
0.12896853770395486082911418179719 118:1 2984:1 3339:1 3563:1 3902:1 #
0.10425881293937309945984992509693 167:1 265:1 708:1 1401:1 1465:1 1979:1 2343:1 2872:1 3024:1 3563:1 3709:1 3830:1 3962:1 4032:1 #
0.011788695526616550790510729029847 588:1 2297:1 2450:1 2870:1 2969:1 3513:1 3551:1 #
-0.12896853770395486082911418179719 150:1 213:1 558:1 1356:1 1451:1 1465:1 2251:1 2299:1 2343:1 2649:1 2969:1 3291:1 3620:1 4076:1 #
-0.12896853770395486082911418179719 434:1 2343:1 2984:1 3162:1 #
-0.12896853770395486082911418179719 2194:1 2543:1 2969:1 3109:1 3339:1 3563:1 #
-0.12896853770395486082911418179719 92:1 265:1 499:1 588:1 836:1 2609:1 2969:1 3339:1 #
-0.12896853770395486082911418179719 265:1 588:1 836:1 1465:1 2969:1 3109:1 3339:1 3563:1 #
-0.12896853770395486082911418179719 1239:1 1455:1 1465:1 1702:1 2299:1 2343:1 2969:1 2984:1 3563:1 3702:1 #
-0.10078436170360575985238682505951 777:1 1884:1 2450:1 2969:1 #
0.12896853770395486082911418179719 92:1 491:1 884:1 1579:1 1599:1 1702:1 1787:1 2296:1 2297:1 2343:1 2371:1 2969:1 3234:1 #
-0.12896853770395486082911418179719 955:1 2343:1 #
0.12896853770395486082911418179719 176:1 396:1 458:1 1242:1 1450:1 1465:1 1884:1 2296:1 2297:1 2343:1 2649:1 #
-0.12896853770395486082911418179719 92:1 118:1 176:1 265:1 1575:1 2299:1 2969:1 3067:1 3764:1 3895:1 #
-0.12896853770395486082911418179719 92:1 118:1 344:1 884:1 1120:1 1572:1 1991:1 2299:1 2348:1 2371:1 2649:1 2791:1 3764:1 3794:1 4076:1 #
-0.12896853770395486082911418179719 1414:1 1617:1 1658:1 2001:1 2296:1 2297:1 2563:1 2582:1 2714:1 2888:1 3363:1 3574:1 3704:1 3764:1 4076:1 4081:1 #
-0.12896853770395486082911418179719 118:1 265:1 516:1 1242:1 1465:1 1884:1 2296:1 2297:1 2299:1 2343:1 3764:1 #
0.12896853770395486082911418179719 547:1 2343:1 2450:1 #
-0.10687936457154030567284763719726 19:1 213:1 243:1 818:1 1455:1 1703:1 2152:1 2296:1 2297:1 2567:1 2582:1 2742:1 2868:1 2893:1 2984:1 3234:1 3527:1 #
0.12896853770395486082911418179719 283:1 588:1 836:1 1455:1 1865:1 2251:1 2299:1 2450:1 2609:1 2969:1 3203:1 3563:1 4189:1 #
0.12896853770395486082911418179719 92:1 136:1 588:1 836:1 1455:1 2194:1 2299:1 2371:1 2383:1 2438:1 2543:1 2567:1 2609:1 2649:1 2969:1 3262:1 3305:1 3524:1 #
0.12896853770395486082911418179719 1164:1 2969:1 3563:1 #
0.12896853770395486082911418179719 283:1 2039:1 2299:1 2450:1 2969:1 #
0.12896853770395486082911418179719 588:1 836:1 1455:1 2299:1 2609:1 2969:1 3262:1 3563:1 3794:1 4076:1 #
-0.026939914090004676155976071072473 588:1 1465:1 1702:1 2609:1 2686:1 2969:1 3429:1 3563:1 #
-0.12896853770395486082911418179719 1905:1 2299:1 2969:1 3109:1 3339:1 3563:1 #
0.019723639032445176161312261342573 118:1 2299:1 2450:1 2969:1 3743:1 #
-0.037873958634768674358372919641624 210:1 2343:1 2490:1 2872:1 3990:1 #
-0.038806726162945198721487827242527 167:1 1103:1 1306:1 1455:1 1905:1 2299:1 2349:1 2450:1 2715:1 2753:1 2969:1 3157:1 3843:1 #
0.08985034603132603658881549790749 20:1 118:1 558:1 752:1 786:1 857:1 1153:1 1377:1 1381:1 1762:1 2293:1 2299:1 2313:1 2330:1 2543:1 2547:1 2582:1 2694:1 2825:1 2912:1 2984:1 3655:1 3888:1 3986:1 4076:1 4146:1 #
0.12896853770395486082911418179719 25:1 28:1 50:1 1050:1 1134:1 1388:1 1579:1 2028:1 2116:1 2299:1 2343:1 2781:1 3109:1 3234:1 3363:1 3723:1 3764:1 #
0.12896853770395486082911418179719 2343:1 3339:1 #
-0.12896853770395486082911418179719 265:1 1465:1 2349:1 2969:1 3262:1 3730:1 #
0.12896853770395486082911418179719 243:1 265:1 496:1 1192:1 1582:1 2055:1 2343:1 2475:1 2582:1 2768:1 2841:1 3627:1 4037:1 #
-0.12896853770395486082911418179719 1572:1 1718:1 3234:1 #
0.12896853770395486082911418179719 283:1 836:1 1358:1 1905:1 2299:1 2349:1 2868:1 3234:1 3709:1 3717:1 #
-0.035623131770851246269415923961787 19:1 29:1 1461:1 2299:1 2343:1 2582:1 2984:1 3109:1 3162:1 3234:1 3563:1 3764:1 3846:1 #
-0.0031741251927364130640263351068597 19:1 265:1 299:1 347:1 519:1 578:1 895:1 898:1 996:1 1451:1 1465:1 1622:1 1703:1 1884:1 2066:1 2159:1 2263:1 2296:1 2297:1 2299:1 2343:1 2543:1 2582:1 2788:1 2984:1 3016:1 3234:1 3629:1 3665:1 3739:1 3931:1 3983:1 4130:1 4188:1 #
-0.017322490460041226750798060152192 178:1 841:1 1134:1 1307:1 1365:1 1388:1 1407:1 1471:1 1485:1 1579:1 1877:1 2036:1 2343:1 2371:1 2404:1 2582:1 3292:1 3775:1 #
-0.12896853770395486082911418179719 1884:1 2450:1 2969:1 3103:1 #
0.12896853770395486082911418179719 118:1 178:1 496:1 569:1 570:1 1175:1 1455:1 1465:1 1702:1 1905:1 2299:1 2313:1 2567:1 2969:1 3262:1 3350:1 #
0.12896853770395486082911418179719 2969:1 3109:1 3262:1 #
0.12896853770395486082911418179719 482:1 588:1 836:1 2102:1 2348:1 2558:1 2969:1 #
0.12896853770395486082911418179719 434:1 827:1 836:1 1455:1 1855:1 2349:1 2543:1 2609:1 2969:1 #
0.0502350830659398298050355435862 18:1 20:1 850:1 1738:1 2181:1 2217:1 2343:1 2348:1 2450:1 2751:1 #
-0.12896853770395486082911418179719 1455:1 2194:1 2450:1 2969:1 4076:1 #
-0.12896853770395486082911418179719 1455:1 2450:1 2969:1 4076:1 #
-0.12896853770395486082911418179719 547:1 2094:1 2450:1 4076:1 #
-0.12896853770395486082911418179719 746:1 2379:1 2969:1 4076:1 #
0.0043756031419137243060335507038872 32:1 92:1 97:1 115:1 148:1 195:1 277:1 342:1 344:1 369:1 373:1 404:1 405:1 422:1 521:1 593:1 701:1 725:1 749:1 883:1 884:1 919:1 1095:1 1344:1 1388:1 1451:1 1452:1 1455:1 1461:1 1464:1 1515:1 1758:1 1810:1 1815:1 1855:1 1905:1 1942:1 1980:1 2094:1 2158:1 2234:1 2265:1 2318:1 2339:1 2394:1 2404:1 2455:1 2507:1 2611:1 2846:1 2871:1 2880:1 2914:1 2969:1 2974:1 3038:1 3134:1 3185:1 3234:1 3250:1 3255:1 3264:1 3290:1 3339:1 3349:1 3362:1 3430:1 3452:1 3521:1 3563:1 3665:1 3668:1 3702:1 3709:1 3717:1 3720:1 3739:1 3794:1 3825:1 3841:1 3854:1 3878:1 3895:1 4081:1 4188:1 #
0.058297535944265239937767120181888 25:1 723:1 1060:1 1431:1 1718:1 2226:1 2234:1 2299:1 2343:1 2393:1 2582:1 2914:1 2984:1 3109:1 3234:1 3563:1 3623:1 3702:1 #
0.12896853770395486082911418179719 92:1 1175:1 1595:1 1702:1 2299:1 2349:1 2543:1 2842:1 2969:1 2984:1 3109:1 3157:1 3234:1 3290:1 3563:1 3668:1 3709:1 3764:1 3866:1 3959:1 #
0.12896853770395486082911418179719 270:1 329:1 812:1 1213:1 1605:1 1695:1 1698:1 2027:1 2299:1 2343:1 2511:1 2582:1 2984:1 3137:1 3146:1 3290:1 3563:1 3611:1 3717:1 3947:1 4179:1 #
0.12896853770395486082911418179719 118:1 329:1 2036:1 3603:1 3730:1 #
-0.037644480858701305503455358802967 383:1 692:1 1153:1 1227:1 1465:1 1477:1 1702:1 1905:1 2059:1 2137:1 2299:1 2349:1 2969:1 2984:1 3262:1 3290:1 3563:1 3709:1 4188:1 #
-0.0015724910803026038389612617507396 56:1 118:1 176:1 667:1 814:1 1213:1 1257:1 1630:1 1718:1 1884:1 2299:1 2338:1 2781:1 2940:1 2984:1 3234:1 3262:1 3563:1 3645:1 3764:1 3888:1 4133:1 #
-0.029764032947025287345610422562459 92:1 104:1 118:1 399:1 488:1 570:1 884:1 1211:1 1452:1 1702:1 1877:1 2053:1 2299:1 2313:1 2362:1 2969:1 2984:1 2992:1 3262:1 3290:1 3563:1 3611:1 3709:1 3922:1 #
-0.043905390967679903957421316817999 92:1 243:1 265:1 270:1 283:1 1063:1 1787:1 1905:1 2299:1 2423:1 2969:1 2984:1 3036:1 3137:1 3222:1 3290:1 3353:1 3987:1 4081:1 #
-0.095962498882713354042550690792268 12:1 92:1 118:1 136:1 156:1 265:1 344:1 706:1 712:1 812:1 868:1 1455:1 1515:1 1527:1 1580:1 1698:1 1855:1 1884:1 1905:1 1938:1 2123:1 2299:1 2450:1 2543:1 2567:1 2746:1 2812:1 2841:1 2868:1 2969:1 2984:1 3151:1 3234:1 3290:1 3302:1 3503:1 3505:1 3563:1 3620:1 3764:1 3823:1 4033:1 4076:1 4188:1 #
0.12896853770395486082911418179719 20:1 1203:1 1465:1 2036:1 2085:1 3162:1 3618:1 3730:1 4076:1 #
0.12896853770395486082911418179719 18:1 19:1 20:1 29:1 78:1 214:1 797:1 856:1 1050:1 1083:1 1224:1 1884:1 2051:1 2348:1 2349:1 2450:1 2590:1 2960:1 2969:1 3362:1 3600:1 #
0.12872500928936342345920706975448 38:1 268:1 303:1 467:1 482:1 838:1 898:1 1012:1 1148:1 1452:1 1527:1 1698:1 1877:1 1884:1 2014:1 2036:1 2062:1 2103:1 2216:1 2343:1 2436:1 2643:1 2714:1 2936:1 3044:1 3087:1 3091:1 3434:1 3534:1 3636:1 4188:1 #
-0.12896853770395486082911418179719 1455:1 2217:1 2343:1 2349:1 2450:1 2969:1 #
0.12896853770395486082911418179719 18:1 19:1 220:1 1120:1 1452:1 2394:1 3075:1 3773:1 4076:1 4100:1 #
-0.12896853770395486082911418179719 316:1 490:1 588:1 723:1 836:1 863:1 919:1 1429:1 1452:1 1507:1 1510:1 2027:1 2152:1 2331:1 2343:1 2349:1 2415:1 2791:1 2805:1 3157:1 3161:1 3234:1 3324:1 3530:1 3563:1 3614:1 3624:1 3702:1 3730:1 3794:1 #
-0.032989089768582335882030065477011 28:1 266:1 588:1 606:1 797:1 884:1 987:1 1265:1 1431:1 1469:1 1633:1 1651:1 2031:1 2036:1 2062:1 2234:1 2343:1 2407:1 2609:1 2914:1 3077:1 3145:1 3284:1 3375:1 3543:1 3633:1 3714:1 3820:1 4037:1 #
0.12896853770395486082911418179719 18:1 19:1 20:1 723:1 860:1 1465:1 1563:1 1703:1 2582:1 2649:1 2969:1 3195:1 3527:1 3615:1 4097:1 #
-0.12896853770395486082911418179719 1455:1 1465:1 1472:1 1622:1 2299:1 2450:1 2969:1 4076:1 4098:1 4124:1 #
-0.12896853770395486082911418179719 18:1 19:1 20:1 286:1 723:1 1203:1 1465:1 1787:1 1841:1 2331:1 2343:1 2513:1 2582:1 2969:1 4077:1 #
0.12896853770395486082911418179719 1:1 669:1 1760:1 1905:1 2299:1 2684:1 2969:1 3350:1 #
0.12896853770395486082911418179719 1905:1 3702:1 #
-0.056912960751037265649809882006593 309:1 383:1 947:1 1083:1 1224:1 1884:1 2027:1 2343:1 2492:1 2636:1 2781:1 2868:1 2869:1 2969:1 3060:1 3656:1 3702:1 4076:1 #
0.12896853770395486082911418179719 92:1 97:1 269:1 395:1 1175:1 1703:1 1718:1 1884:1 1905:1 2299:1 2582:1 3089:1 3262:1 3527:1 3539:1 3563:1 4006:1 #
0.12896853770395486082911418179719 92:1 265:1 812:1 1572:1 1884:1 1905:1 2299:1 2371:1 2969:1 3234:1 3794:1 #
-0.055264030246706168092440947248178 455:1 919:1 1317:1 1344:1 1436:1 2181:1 2966:1 4076:1 #
-0.063699115433693040411178287740768 2062:1 2343:1 3089:1 3407:1 #
-0.12896853770395486082911418179719 92:1 93:1 265:1 1175:1 1884:1 2802:1 2969:1 3290:1 3339:1 4037:1 #
-0.12896853770395486082911418179719 2412:1 3109:1 3764:1 4076:1 #
-0.12896853770395486082911418179719 265:1 1328:1 1465:1 2969:1 3363:1 3563:1 #
0.12896853770395486082911418179719 55:1 63:1 69:1 501:1 574:1 684:1 723:1 779:1 846:1 884:1 903:1 1078:1 1129:1 1195:1 1285:1 1344:1 1599:1 1611:1 1965:1 2343:1 2606:1 2753:1 2788:1 2791:1 2872:1 2901:1 2942:1 3618:1 3714:1 3888:1 4210:1 #
0.030480786682822828825845107303394 18:1 19:1 29:1 243:1 441:1 723:1 850:1 970:1 1263:1 1451:1 1903:1 2181:1 2216:1 2343:1 2465:1 2582:1 2869:1 3222:1 3234:1 3419:1 3574:1 4140:1 #
0.050748847596421391148435731111022 266:1 468:1 619:1 884:1 947:1 1119:1 1153:1 1388:1 1906:1 2088:1 2185:1 2235:1 2255:1 2343:1 2441:1 2543:1 2915:1 3016:1 3022:1 3262:1 3349:1 3730:1 3841:1 4081:1 #
-0.092463911778497998028569782036357 265:1 1465:1 1718:1 2950:1 3026:1 3627:1 4076:1 #
0.12896853770395486082911418179719 18:1 118:1 365:1 669:1 779:1 1455:1 2299:1 2343:1 2672:1 2756:1 2969:1 3764:1 #
-0.12896853770395486082911418179719 18:1 28:1 884:1 1285:1 1436:1 2036:1 2297:1 2299:1 2332:1 2343:1 2483:1 2543:1 2672:1 2924:1 3234:1 3794:1 3959:1 4076:1 #
0.12896853770395486082911418179719 2343:1 2423:1 2450:1 3563:1 #
0.021017163759434208392118392794146 2054:1 2450:1 2969:1 3563:1 #
0.12896853770395486082911418179719 2795:1 2969:1 3764:1 #
-0.12896853770395486082911418179719 118:1 1452:1 1515:1 1905:1 2394:1 3234:1 3483:1 3764:1 #
0.12896853770395486082911418179719 104:1 169:1 280:1 996:1 1175:1 1455:1 1465:1 1703:1 1884:1 2173:1 2299:1 2343:1 2349:1 2429:1 2889:1 2969:1 2984:1 3036:1 3339:1 3569:1 4201:1 #
0.12896853770395486082911418179719 56:1 265:1 283:1 344:1 1203:1 1465:1 1515:1 1905:1 2125:1 2299:1 2349:1 2421:1 2450:1 2543:1 2673:1 2969:1 3157:1 3709:1 3717:1 #
0.1030323760036272739970542033916 265:1 361:1 411:1 494:1 840:1 895:1 932:1 1104:1 1268:1 1367:1 1451:1 1461:1 1465:1 1491:1 1495:1 1557:1 1595:1 1718:1 1854:1 1858:1 2079:1 2296:1 2297:1 2299:1 2343:1 2667:1 2969:1 3096:1 3109:1 3259:1 3263:1 3290:1 3299:1 3424:1 4188:1 #
0.12896853770395486082911418179719 838:1 2299:1 2343:1 2984:1 3339:1 3563:1 #
-0.031541545078415514358205484768405 1643:1 2267:1 2609:1 2969:1 3709:1 #
-0.080783808190906650215090678557317 308:1 2859:1 4076:1 #
-0.12896853770395486082911418179719 499:1 2969:1 3764:1 #
-0.12896853770395486082911418179719 18:1 1609:1 2343:1 #
-0.12896853770395486082911418179719 1455:1 1465:1 2158:1 2234:1 2299:1 2343:1 2649:1 2969:1 3339:1 #
0.12896853770395486082911418179719 1572:1 3234:1 3563:1 3764:1 4076:1 #
0.12896853770395486082911418179719 3234:1 3563:1 3764:1 4076:1 #
0.12896853770395486082911418179719 2052:1 3234:1 3739:1 3867:1 4076:1 #
0.12896853770395486082911418179719 211:1 1461:1 1574:1 4188:1 #
0.12896853770395486082911418179719 309:1 588:1 864:1 2686:1 3234:1 3895:1 4076:1 #
0.12896853770395486082911418179719 265:1 1465:1 2086:1 2343:1 2969:1 3675:1 #
-0.12896853770395486082911418179719 521:1 1758:1 2582:1 2984:1 3234:1 3739:1 3902:1 4076:1 4194:1 #
-0.049425054137122691189087930752066 18:1 19:1 20:1 136:1 266:1 352:1 897:1 1224:1 1430:1 1437:1 1515:1 1632:1 1658:1 1698:1 1821:1 1839:1 2194:1 2235:1 2313:1 2328:1 2543:1 2584:1 2686:1 2771:1 2872:1 2905:1 2988:1 3043:1 3067:1 3089:1 3331:1 3485:1 3490:1 3502:1 3505:1 3543:1 3563:1 3569:1 4076:1 #
-0.12896853770395486082911418179719 405:1 723:1 2582:1 3234:1 3959:1 4076:1 #
-0.12896853770395486082911418179719 521:1 2349:1 3563:1 3668:1 3739:1 4076:1 #
0.12896853770395486082911418179719 30:1 92:1 118:1 213:1 547:1 558:1 1104:1 1175:1 1455:1 1465:1 1668:1 1702:1 1703:1 1718:1 2152:1 2299:1 2342:1 2343:1 2667:1 2942:1 2969:1 3085:1 3527:1 3655:1 4073:1 4188:1 #
0.12896853770395486082911418179719 92:1 182:1 344:1 449:1 895:1 1006:1 1012:1 1067:1 1455:1 1625:1 1884:1 2134:1 2158:1 2251:1 2343:1 2582:1 2649:1 2841:1 3290:1 3445:1 3518:1 3649:1 4056:1 #
0.12896853770395486082911418179719 1252:1 1465:1 1655:1 1905:1 1913:1 2297:1 2299:1 2338:1 2343:1 2649:1 2679:1 2887:1 2969:1 3109:1 4073:1 #
0.12896853770395486082911418179719 92:1 118:1 822:1 838:1 845:1 1159:1 1175:1 1185:1 1538:1 2053:1 2234:1 2299:1 2343:1 3485:1 4007:1 #
-0.12896853770395486082911418179719 28:1 118:1 496:1 568:1 838:1 884:1 1012:1 1465:1 1515:1 1575:1 2218:1 2299:1 2343:1 2450:1 2543:1 2834:1 2969:1 3157:1 3686:1 3794:1 #
-0.066459196125294037194031204762723 18:1 92:1 277:1 884:1 1451:1 1698:1 1702:1 1905:1 2299:1 2343:1 2506:1 2543:1 2582:1 2609:1 2686:1 2969:1 3113:1 3262:1 3730:1 #
-0.12896853770395486082911418179719 857:1 1455:1 1465:1 1702:1 1703:1 1905:1 2152:1 2299:1 2371:1 2567:1 2872:1 2969:1 3479:1 3527:1 3579:1 3717:1 3764:1 4032:1 #
-0.12896853770395486082911418179719 458:1 2125:1 2343:1 #
-0.12896853770395486082911418179719 18:1 38:1 92:1 275:1 345:1 668:1 810:1 1702:1 1905:1 2299:1 2313:1 2450:1 2722:1 4188:1 #
-0.12896853770395486082911418179719 2343:1 3234:1 3563:1 #
-0.12896853770395486082911418179719 2251:1 3234:1 4076:1 #
0.040847918295204087291150329974698 55:1 668:1 825:1 884:1 919:1 1431:1 1877:1 2036:1 2158:1 2188:1 2618:1 2872:1 3042:1 3134:1 3362:1 3563:1 3663:1 3764:1 3815:1 4076:1 4081:1 4150:1 #
0.12896853770395486082911418179719 94:1 208:1 344:1 391:1 405:1 434:1 499:1 521:1 588:1 656:1 701:1 723:1 836:1 884:1 1009:1 1055:1 1215:1 1249:1 1269:1 1451:1 1498:1 1527:1 1532:1 1575:1 1610:1 1900:1 1993:1 2041:1 2095:1 2123:1 2158:1 2234:1 2349:1 2700:1 2924:1 2984:1 3093:1 3109:1 3157:1 3234:1 3243:1 3331:1 3353:1 3563:1 3717:1 3730:1 3764:1 3794:1 3823:1 4136:1 #
0.12896853770395486082911418179719 194:1 521:1 723:1 1718:1 1792:1 1884:1 2238:1 2338:1 2486:1 2507:1 2584:1 2984:1 3362:1 3739:1 #
-0.059211889320716540319189391539112 74:1 220:1 274:1 405:1 434:1 1028:1 1050:1 1090:1 1120:1 1324:1 1344:1 1718:1 1905:1 1991:1 2053:1 2095:1 2338:1 2742:1 2744:1 2869:1 2928:1 3485:1 3764:1 3859:1 3895:1 4140:1 #
-0.12896853770395486082911418179719 28:1 1451:1 1701:1 1884:1 2450:1 2969:1 #
-0.050577485753185914829632707778728 92:1 95:1 167:1 250:1 356:1 523:1 723:1 752:1 770:1 789:1 843:1 851:1 1241:1 1758:1 1792:1 1884:1 2009:1 2028:1 2116:1 2123:1 2205:1 2251:1 2286:1 2343:1 2349:1 2404:1 2450:1 2567:1 2649:1 2658:1 2778:1 3124:1 3234:1 3271:1 3601:1 3645:1 3722:1 3723:1 3736:1 3764:1 3899:1 4002:1 4061:1 4073:1 #
0.12896853770395486082911418179719 1431:1 1465:1 1515:1 1608:1 1702:1 2795:1 2969:1 4030:1 #
0.12896853770395486082911418179719 1465:1 1988:1 2649:1 2969:1 3234:1 3563:1 4076:1 #
0.12896853770395486082911418179719 118:1 1452:1 1575:1 2243:1 2299:1 2543:1 3730:1 3796:1 4076:1 4188:1 #
0.036605881430587142166821479349892 92:1 265:1 884:1 1515:1 1702:1 1787:1 2299:1 2371:1 2969:1 3339:1 #
0.12896853770395486082911418179719 118:1 819:1 1515:1 2299:1 2371:1 2450:1 2969:1 3505:1 #
0.12896853770395486082911418179719 92:1 118:1 265:1 540:1 2299:1 2343:1 2543:1 4188:1 #
0.12896853770395486082911418179719 18:1 118:1 435:1 801:1 838:1 1175:1 1465:1 2299:1 2343:1 2349:1 2582:1 2681:1 2969:1 3426:1 3620:1 3786:1 4032:1 #
-0.12896853770395486082911418179719 92:1 884:1 1455:1 1702:1 2450:1 2969:1 3823:1 #
-0.010221848768739686882933703770959 18:1 29:1 50:1 92:1 118:1 136:1 199:1 294:1 482:1 564:1 836:1 1039:1 1203:1 1244:1 1481:1 1515:1 1527:1 1575:1 1905:1 1965:1 2299:1 2343:1 2368:1 2371:1 2475:1 2543:1 2582:1 2805:1 2847:1 2969:1 2984:1 3059:1 3217:1 3290:1 3878:1 4076:1 4188:1 #
-0.12896853770395486082911418179719 1053:1 2969:1 #
-0.087556936194657458694123874920479 283:1 470:1 895:1 1175:1 1388:1 1465:1 1905:1 2299:1 2543:1 2914:1 2969:1 3109:1 3563:1 3702:1 #
0.12896853770395486082911418179719 1884:1 1905:1 1909:1 2232:1 2299:1 2338:1 2343:1 3046:1 3109:1 3186:1 3290:1 3474:1 3543:1 3743:1 3927:1 4190:1 #
0.12896853770395486082911418179719 118:1 1153:1 1455:1 1656:1 1905:1 2296:1 2297:1 3157:1 #
0.12896853770395486082911418179719 18:1 1431:1 1884:1 2343:1 2795:1 3262:1 #
0.077092333745204980055554244700033 519:1 623:1 789:1 1455:1 1718:1 1801:1 1948:1 2296:1 2297:1 2714:1 2763:1 2889:1 2984:1 2985:1 3513:1 3552:1 3563:1 3794:1 3888:1 #
-0.12896853770395486082911418179719 895:1 1884:1 2969:1 3764:1 #
-0.12896853770395486082911418179719 1431:1 1461:1 1884:1 2795:1 3234:1 3764:1 #
-0.12896853770395486082911418179719 1455:1 1461:1 1905:1 2942:1 3339:1 #
-0.12896853770395486082911418179719 92:1 265:1 1104:1 1884:1 2343:1 2667:1 3764:1 #
0.12896853770395486082911418179719 186:1 399:1 717:1 884:1 1388:1 1465:1 2243:1 2299:1 2543:1 2969:1 3157:1 3305:1 3563:1 3751:1 4076:1 #
0.10885716844460406604877533709441 15:1 344:1 706:1 712:1 723:1 822:1 870:1 1358:1 1388:1 1455:1 1465:1 1553:1 1610:1 1702:1 1836:1 1846:1 2036:1 2234:1 2343:1 2371:1 2543:1 2567:1 2640:1 2667:1 2672:1 2712:1 2868:1 2960:1 2969:1 3024:1 3068:1 3109:1 3234:1 3340:1 3500:1 3503:1 3563:1 3613:1 3647:1 3651:1 3895:1 3978:1 4076:1 #
0.014230280935613444023846163588587 2181:1 2187:1 2343:1 2582:1 2940:1 3668:1 4189:1 #
0.12896853770395486082911418179719 2969:1 3044:1 3764:1 #
0.12896853770395486082911418179719 19:1 20:1 136:1 265:1 399:1 884:1 898:1 1148:1 1305:1 1465:1 1905:1 2158:1 2299:1 2543:1 2969:1 3343:1 #
-0.12896853770395486082911418179719 1455:1 2450:1 2543:1 2969:1 #
-0.12896853770395486082911418179719 455:1 2343:1 3109:1 3563:1 3764:1 #
0.12896853770395486082911418179719 1461:1 2646:1 3764:1 4188:1 #
-0.12896853770395486082911418179719 92:1 265:1 828:1 898:1 1014:1 1278:1 1388:1 1451:1 1455:1 1698:1 1905:1 2036:1 2243:1 2299:1 2543:1 2893:1 2969:1 3046:1 3058:1 3137:1 3273:1 3305:1 3563:1 3580:1 4056:1 4076:1 4185:1 #
-0.12896853770395486082911418179719 18:1 809:1 2299:1 2450:1 2582:1 2680:1 2969:1 3157:1 4076:1 4098:1 4188:1 #
0.12896853770395486082911418179719 1172:1 1431:1 1515:1 1884:1 2343:1 2795:1 3262:1 3615:1 #
0.12896853770395486082911418179719 558:1 1431:1 1884:1 2795:1 3764:1 4076:1 #
0.12896853770395486082911418179719 1965:1 2450:1 2969:1 #
0.12896853770395486082911418179719 1431:1 1455:1 1519:1 2343:1 2366:1 2922:1 #
0.12896853770395486082911418179719 1884:1 2343:1 2795:1 3703:1 #
-0.12896853770395486082911418179719 92:1 265:1 1431:1 1884:1 2343:1 2795:1 3764:1 #
0.10192031557364919502894906599977 29:1 92:1 1702:1 1824:1 2102:1 2158:1 2313:1 2969:1 3764:1 #
-0.12896853770395486082911418179719 18:1 19:1 20:1 29:1 92:1 127:1 243:1 265:1 286:1 434:1 559:1 1328:1 2091:1 2294:1 2343:1 2450:1 2888:1 3767:1 #
-0.12896853770395486082911418179719 669:1 838:1 1242:1 2343:1 2672:1 3627:1 #
-0.12896853770395486082911418179719 25:1 160:1 329:1 399:1 884:1 1299:1 1455:1 1527:1 2061:1 2343:1 2911:1 3324:1 3483:1 3513:1 3563:1 3709:1 3794:1 3815:1 3869:1 3882:1 3959:1 4015:1 4017:1 #
0.12896853770395486082911418179719 1965:1 2969:1 3339:1 3730:1 #
0.061422717352036915183788323702174 37:1 92:1 118:1 265:1 277:1 284:1 502:1 588:1 789:1 884:1 886:1 892:1 898:1 928:1 986:1 1451:1 1538:1 1616:1 1702:1 1714:1 1854:1 1880:1 2036:1 2077:1 2143:1 2158:1 2296:1 2297:1 2299:1 2649:1 2969:1 2984:1 3109:1 3115:1 3157:1 3229:1 3234:1 3291:1 3483:1 3494:1 3563:1 3717:1 3794:1 4130:1 4188:1 #
0.12896853770395486082911418179719 19:1 92:1 118:1 809:1 1203:1 1884:1 2299:1 2969:1 2984:1 3234:1 #
0.10473005463705251094630455099832 92:1 123:1 271:1 397:1 588:1 667:1 732:1 822:1 1148:1 1451:1 1455:1 1532:1 1579:1 1742:1 2036:1 2188:1 2191:1 2299:1 2371:1 2397:1 2543:1 2649:1 2825:1 2868:1 2914:1 2969:1 2984:1 3169:1 3217:1 3467:1 3494:1 3655:1 3993:1 4066:1 4076:1 4188:1 #
0.12896853770395486082911418179719 28:1 29:1 399:1 1215:1 2299:1 2582:1 2969:1 2984:1 3056:1 3290:1 3419:1 3959:1 4076:1 #
-0.10982606241354553322508991186623 29:1 293:1 667:1 889:1 1175:1 1465:1 1718:1 1799:1 1909:1 2299:1 2371:1 2523:1 2567:1 2649:1 2774:1 2969:1 2984:1 3162:1 3290:1 3362:1 3543:1 3618:1 #
0.12896853770395486082911418179719 283:1 2924:1 3339:1 #
-0.12896853770395486082911418179719 92:1 101:1 104:1 718:1 1461:1 1512:1 1905:1 2232:1 2299:1 2649:1 2969:1 3224:1 3234:1 3262:1 3730:1 #
0.12896853770395486082911418179719 996:1 2969:1 3702:1 #
-0.12896853770395486082911418179719 368:1 1465:1 1702:1 1703:1 1718:1 2299:1 2606:1 2969:1 2984:1 3234:1 3527:1 3730:1 4104:1 #
0.12896853770395486082911418179719 78:1 283:1 546:1 723:1 1905:1 2662:1 2978:1 3262:1 3339:1 3563:1 3717:1 4188:1 #
0.12896853770395486082911418179719 658:1 812:1 1884:1 2299:1 2450:1 2969:1 4076:1 #
0.12896853770395486082911418179719 1465:1 2343:1 2772:1 3339:1 3563:1 #
0.12896853770395486082911418179719 2450:1 2969:1 3730:1 4076:1 #
0.12896853770395486082911418179719 30:1 213:1 361:1 1321:1 1455:1 1703:1 2152:1 2343:1 2545:1 2753:1 3109:1 3290:1 3374:1 3527:1 3730:1 4188:1 #
-0.12896853770395486082911418179719 2343:1 3109:1 3339:1 3563:1 #
-0.12896853770395486082911418179719 1203:1 1431:1 1465:1 1884:1 2343:1 2795:1 2969:1 3339:1 #
-0.12896853770395486082911418179719 30:1 1104:1 1465:1 1661:1 1703:1 1801:1 1884:1 1949:1 2314:1 2336:1 2349:1 2649:1 2969:1 3339:1 3527:1 #
-0.10718456580034715908134046458144 1090:1 2299:1 3029:1 3730:1 4076:1 #
0.12896853770395486082911418179719 18:1 92:1 104:1 118:1 277:1 283:1 884:1 1175:1 1515:1 1527:1 1553:1 1905:1 2036:1 2125:1 2299:1 2342:1 2746:1 2984:1 3103:1 3234:1 4188:1 #
0.12896853770395486082911418179719 92:1 220:1 265:1 293:1 458:1 581:1 740:1 1015:1 1090:1 1455:1 1515:1 1718:1 1821:1 2226:1 2234:1 2299:1 2338:1 2343:1 2450:1 2543:1 2969:1 2984:1 3103:1 3414:1 3544:1 4125:1 #
-0.12896853770395486082911418179719 1884:1 2969:1 3339:1 #
0.043098584532575902328321859613425 1579:1 1787:1 2299:1 2371:1 2958:1 2969:1 2984:1 3234:1 3563:1 3794:1 #
0.056554372237003130985399934615998 92:1 434:1 2299:1 2649:1 2969:1 2984:1 3234:1 3503:1 3730:1 #
-0.12896853770395486082911418179719 283:1 763:1 812:1 1515:1 1787:1 1905:1 2173:1 2299:1 2984:1 3594:1 4188:1 #
-0.12896853770395486082911418179719 92:1 265:1 1579:1 1905:1 2299:1 2371:1 2969:1 2984:1 3234:1 3959:1 4188:1 #
-0.020503519216025126170599435226904 92:1 434:1 588:1 822:1 884:1 1175:1 1884:1 2036:1 2158:1 2194:1 2299:1 2868:1 3009:1 3361:1 3362:1 3563:1 3702:1 3717:1 4076:1 4081:1 4128:1 4188:1 #
-0.12896853770395486082911418179719 92:1 1515:1 1891:1 2000:1 2299:1 2371:1 2543:1 2649:1 2969:1 2984:1 3234:1 3612:1 #
0.12896853770395486082911418179719 1465:1 1702:1 2343:1 2371:1 2450:1 3109:1 3563:1 #
0.12896853770395486082911418179719 1431:1 1465:1 1702:1 1884:1 2343:1 2795:1 3933:1 #
0.12896853770395486082911418179719 1175:1 1465:1 2343:1 3339:1 3563:1 #
0.12896853770395486082911418179719 642:1 1120:1 1461:1 2036:1 3109:1 3339:1 3563:1 #
-0.12896853770395486082911418179719 723:1 773:1 910:1 1465:1 1702:1 2343:1 2349:1 2806:1 2969:1 3024:1 3290:1 3730:1 #
-0.12896853770395486082911418179719 29:1 92:1 515:1 1702:1 2343:1 2582:1 2969:1 3290:1 3794:1 #
0.11942961813126500014714537201144 884:1 2450:1 2969:1 3823:1 #
-0.084879161275403111619475282623171 2343:1 2636:1 3109:1 3339:1 3563:1 #
-0.12896853770395486082911418179719 2137:1 2969:1 #
-0.12896853770395486082911418179719 92:1 1175:1 2343:1 2475:1 3081:1 3234:1 #
0.12896853770395486082911418179719 55:1 118:1 511:1 610:1 857:1 1077:1 1368:1 1553:1 1579:1 1608:1 1854:1 1905:1 1944:1 2299:1 2543:1 2872:1 2887:1 3109:1 3579:1 3594:1 3854:1 4032:1 4076:1 4136:1 4188:1 #
0.12896853770395486082911418179719 25:1 35:1 232:1 463:1 884:1 1455:1 1884:1 1905:1 2194:1 2299:1 2349:1 2582:1 3107:1 3362:1 3367:1 3372:1 3563:1 3794:1 3854:1 4188:1 #
-0.015573803935333207365543373157379 118:1 265:1 391:1 399:1 415:1 588:1 836:1 884:1 1388:1 1465:1 1515:1 1532:1 1702:1 1855:1 1884:1 2226:1 2299:1 2349:1 2543:1 2673:1 2969:1 2972:1 3234:1 3764:1 4076:1 #
-0.12896853770395486082911418179719 1455:1 2969:1 3339:1 #
-0.12896853770395486082911418179719 268:1 1133:1 1175:1 1190:1 1414:1 1465:1 1905:1 2260:1 2296:1 2299:1 2371:1 2374:1 2969:1 3089:1 3109:1 3339:1 3563:1 3764:1 4018:1 4188:1 #
-0.12896853770395486082911418179719 104:1 118:1 344:1 434:1 884:1 1164:1 1855:1 1884:1 1905:1 2299:1 2397:1 2984:1 3544:1 3563:1 3764:1 4128:1 #
-0.12896853770395486082911418179719 92:1 97:1 101:1 167:1 190:1 265:1 344:1 588:1 674:1 836:1 884:1 1020:1 1188:1 1461:1 1884:1 1905:1 2036:1 2123:1 2194:1 2299:1 2343:1 2506:1 2543:1 2640:1 2969:1 3224:1 3271:1 3339:1 3386:1 3419:1 3563:1 3675:1 3738:1 4006:1 4073:1 4076:1 4188:1 #
0.12896853770395486082911418179719 56:1 2567:1 2969:1 3339:1 #
0.12896853770395486082911418179719 2218:1 2232:1 2343:1 3702:1 #
0.12896853770395486082911418179719 92:1 1702:1 2343:1 2450:1 3271:1 3463:1 3717:1 #
0.12896853770395486082911418179719 1175:1 1702:1 2567:1 2969:1 3290:1 3702:1 #
0.12896853770395486082911418179719 18:1 540:1 838:1 2094:1 2343:1 2869:1 3290:1 #
-0.10930120594014643142788401064536 20:1 303:1 1455:1 2507:1 2582:1 3372:1 3563:1 #
-0.035864659717529133453606249304357 18:1 29:1 37:1 344:1 364:1 926:1 1153:1 1560:1 1718:1 1884:1 2053:1 2219:1 2235:1 2251:1 2299:1 2313:1 2338:1 2349:1 2507:1 2582:1 2972:1 2984:1 3062:1 3349:1 3563:1 3882:1 3895:1 #
-0.12896853770395486082911418179719 1461:1 1703:1 2251:1 2753:1 3527:1 3569:1 3627:1 3655:1 #
-0.12896853770395486082911418179719 1455:1 1465:1 2649:1 2969:1 3702:1 #
0.12896853770395486082911418179719 895:1 1388:1 2915:1 2969:1 3089:1 3284:1 3764:1 #
-0.0028438861076618654304126732057512 6:1 369:1 380:1 409:1 903:1 947:1 1553:1 1575:1 1905:1 2228:1 2251:1 2296:1 2297:1 2299:1 2313:1 2543:1 2582:1 2744:1 2781:1 2969:1 3157:1 3380:1 3570:1 3709:1 4005:1 #
0.12896853770395486082911418179719 92:1 243:1 277:1 455:1 656:1 763:1 779:1 1718:1 1806:1 1884:1 1905:1 2072:1 2239:1 2299:1 2338:1 2343:1 2349:1 2566:1 2667:1 3162:1 3483:1 3563:1 3594:1 3731:1 3888:1 3899:1 4106:1 4176:1 4188:1 #
0.12896853770395486082911418179719 15:1 36:1 118:1 176:1 300:1 723:1 1189:1 1465:1 2299:1 2609:1 2649:1 2906:1 2969:1 3109:1 3234:1 3339:1 #
0.12896853770395486082911418179719 1431:1 1905:1 2343:1 2795:1 3234:1 3764:1 #
-0.12896853770395486082911418179719 283:1 1455:1 2125:1 3339:1 #
-0.12896853770395486082911418179719 70:1 92:1 265:1 449:1 469:1 701:1 723:1 1313:1 1451:1 1488:1 1515:1 1579:1 1601:1 1621:1 2036:1 2234:1 2523:1 2543:1 2859:1 2969:1 3091:1 3157:1 3234:1 3457:1 3709:1 3775:1 3794:1 4076:1 #
-0.12896853770395486082911418179719 56:1 92:1 155:1 723:1 1033:1 1215:1 1216:1 1451:1 1600:1 2649:1 2969:1 3992:1 #
-0.12896853770395486082911418179719 92:1 265:1 413:1 455:1 723:1 2123:1 2238:1 2299:1 2343:1 2486:1 2969:1 3088:1 3089:1 3210:1 3370:1 4072:1 #
-0.031004096665007079003384404813914 19:1 78:1 344:1 491:1 546:1 871:1 918:1 996:1 1465:1 1548:1 1702:1 2299:1 2439:1 2609:1 2825:1 2851:1 2879:1 2969:1 3093:1 3234:1 3395:1 3665:1 #
-0.12896853770395486082911418179719 51:1 92:1 491:1 1465:1 2299:1 2513:1 2649:1 2969:1 3178:1 3280:1 #
0.12896853770395486082911418179719 283:1 284:1 1455:1 2742:1 3404:1 3717:1 #
0.12896853770395486082911418179719 2969:1 3764:1 #
0.12896853770395486082911418179719 1455:1 2361:1 3262:1 3730:1 3823:1 4076:1 #
0.054904677578270819071626362983807 274:1 302:1 344:1 667:1 989:1 1029:1 1050:1 1164:1 1224:1 1455:1 1485:1 1698:1 1750:1 1877:1 1884:1 1909:1 2023:1 2116:1 2194:1 2251:1 2397:1 2492:1 2969:1 3243:1 3323:1 3521:1 3559:1 3563:1 3764:1 #
0.12896853770395486082911418179719 20:1 1485:1 2047:1 2313:1 2365:1 2846:1 3109:1 3349:1 3519:1 4076:1 #
-0.087767097299415147704237938341976 1455:1 1579:1 1718:1 2299:1 2475:1 2855:1 2984:1 3474:1 3702:1 3717:1 3764:1 3823:1 4076:1 #
-0.12896853770395486082911418179719 20:1 283:1 2582:1 3109:1 3563:1 3764:1 #
-0.12896853770395486082911418179719 2349:1 3062:1 3290:1 3563:1 3668:1 4076:1 4188:1 #
-0.10731284329108363440052897885835 265:1 657:1 836:1 1455:1 1465:1 2343:1 3234:1 3563:1 3764:1 #
0.024999118311591985580610852935024 61:1 92:1 197:1 373:1 507:1 658:1 884:1 1052:1 1067:1 1246:1 1279:1 1481:1 1515:1 1527:1 1810:1 2036:1 2058:1 2181:1 2649:1 2721:1 2969:1 3285:1 3290:1 3388:1 3627:1 3983:1 4108:1 4132:1 #
0.12896853770395486082911418179719 19:1 136:1 155:1 344:1 853:1 1033:1 2649:1 2969:1 3331:1 3627:1 3958:1 #
-0.12896853770395486082911418179719 1203:1 1465:1 1469:1 1762:1 2969:1 #
-0.12896853770395486082911418179719 892:1 1572:1 1718:1 2299:1 2349:1 2450:1 2969:1 3262:1 3500:1 3853:1 3863:1 #
0.12896853770395486082911418179719 2343:1 2984:1 3339:1 3730:1 #
-0.12896853770395486082911418179719 92:1 283:1 1884:1 2450:1 2649:1 3103:1 #
-0.12896853770395486082911418179719 822:1 2361:1 2450:1 3461:1 4076:1 #
-0.12896853770395486082911418179719 92:1 1257:1 1843:1 2620:1 2649:1 2969:1 3978:1 #
0.12896853770395486082911418179719 884:1 2299:1 2984:1 3009:1 3271:1 3563:1 3588:1 3764:1 4076:1 4081:1 #
-0.023887445086835171204064920402743 283:1 344:1 2791:1 2969:1 #
-0.061293279872211385572722264214462 1455:1 2450:1 2969:1 3559:1 4098:1 #
0.12896853770395486082911418179719 1579:1 1703:1 1718:1 1905:1 2695:1 3109:1 3234:1 3527:1 #
-0.12137215871201617600760869208898 19:1 82:1 405:1 511:1 836:1 884:1 1465:1 1702:1 1769:1 1849:1 1854:1 1884:1 1905:1 2194:1 2299:1 2343:1 2371:1 2403:1 2567:1 2582:1 2609:1 2889:1 2969:1 3305:1 3339:1 3475:1 3563:1 4188:1 #
0.12896853770395486082911418179719 92:1 1909:1 2299:1 2649:1 2969:1 2984:1 3543:1 #
-0.12896853770395486082911418179719 118:1 243:1 277:1 319:1 779:1 884:1 1455:1 1854:1 1905:1 2299:1 2969:1 3651:1 3764:1 4081:1 #
0.12896853770395486082911418179719 265:1 344:1 1465:1 2450:1 2969:1 3271:1 #
0.12896853770395486082911418179719 1465:1 1549:1 1702:1 1855:1 2450:1 2969:1 #
0.12896853770395486082911418179719 2343:1 3563:1 3702:1 #
0.12896853770395486082911418179719 92:1 265:1 1455:1 2620:1 2969:1 #
0.057044626155469964345900990565497 155:1 723:1 910:1 919:1 1216:1 1465:1 1572:1 1702:1 2152:1 2166:1 2299:1 2343:1 2806:1 2969:1 3228:1 3305:1 #
-0.12896853770395486082911418179719 265:1 1465:1 1572:1 1579:1 2348:1 2969:1 3563:1 #
-0.12896853770395486082911418179719 167:1 1120:1 2450:1 3563:1 4076:1 #
-0.12896853770395486082911418179719 583:1 2349:1 2795:1 2969:1 3234:1 3563:1 3709:1 #
-0.051266664380078513785221616672061 118:1 343:1 919:1 3505:1 #
-0.12896853770395486082911418179719 119:1 2450:1 2969:1 3109:1 3331:1 3563:1 #
0.12896853770395486082911418179719 118:1 243:1 369:1 838:1 1854:1 2299:1 2343:1 2349:1 2543:1 2606:1 2940:1 3361:1 3651:1 #
0.12896853770395486082911418179719 1431:1 1609:1 1628:1 1884:1 2299:1 2343:1 3262:1 #
0.12896853770395486082911418179719 265:1 884:1 1465:1 1905:1 2299:1 2343:1 3234:1 3764:1 #
0.035972058352036706541099420064711 296:1 540:1 798:1 970:1 1175:1 1188:1 1465:1 1498:1 2152:1 2343:1 2582:1 2969:1 4188:1 #
-0.12896853770395486082911418179719 283:1 763:1 856:1 1273:1 1437:1 1461:1 2173:1 2299:1 2343:1 2349:1 2450:1 2553:1 2718:1 2984:1 3113:1 3290:1 3618:1 4033:1 #
-0.12896853770395486082911418179719 3563:1 4076:1 #
-0.0074898693576157483395294711669976 779:1 970:1 1034:1 1055:1 1285:1 2969:1 3271:1 3563:1 4037:1 #
-0.11716220491162492034487030423406 18:1 92:1 118:1 268:1 314:1 1026:1 1086:1 1148:1 1492:1 1515:1 1849:1 2005:1 2123:1 2299:1 2343:1 2567:1 2649:1 2887:1 3005:1 3044:1 3291:1 3485:1 3764:1 3838:1 #
0.014932864143705018925012417696507 24:1 92:1 588:1 1175:1 1702:1 1922:1 2343:1 2455:1 2549:1 2623:1 3584:1 3764:1 #
0.12896853770395486082911418179719 2450:1 2969:1 3563:1 3709:1 4081:1 #
0.12896853770395486082911418179719 92:1 2507:1 2649:1 2969:1 3563:1 4076:1 #
0.12896853770395486082911418179719 2969:1 3109:1 3563:1 #
0.12896853770395486082911418179719 38:1 789:1 1258:1 2450:1 2658:1 2936:1 2969:1 3563:1 3882:1 3983:1 4141:1 #
-0.12087737555545371992415937256737 270:1 1213:1 2299:1 2848:1 3271:1 3372:1 3418:1 4076:1 4081:1 #
-0.12896853770395486082911418179719 458:1 1431:1 2543:1 2795:1 2969:1 3109:1 3702:1 3794:1 #
0.12896853770395486082911418179719 283:1 2450:1 2969:1 3730:1 #
-0.12896853770395486082911418179719 265:1 723:1 873:1 1465:1 1610:1 2582:1 2969:1 3290:1 3563:1 #
-0.040189250914618085408491765520012 92:1 265:1 435:1 1455:1 1781:1 2501:1 2940:1 2969:1 3373:1 3645:1 3914:1 #
-0.12896853770395486082911418179719 886:1 1465:1 2036:1 2243:1 2299:1 2816:1 2969:1 2984:1 3563:1 4076:1 #
-0.030700845372324588739010309268451 884:1 1465:1 1595:1 1702:1 2969:1 3234:1 3262:1 #
-0.12896853770395486082911418179719 1455:1 2450:1 2969:1 3563:1 #
0.12896853770395486082911418179719 1884:1 2343:1 2795:1 3262:1 #
0.12896853770395486082911418179719 480:1 716:1 1104:1 1451:1 1718:1 2036:1 2047:1 2234:1 2299:1 2543:1 2667:1 3485:1 4033:1 4076:1 #
0.12896853770395486082911418179719 118:1 401:1 455:1 587:1 674:1 1451:1 1455:1 1582:1 1941:1 2343:1 #
0.12896853770395486082911418179719 18:1 19:1 20:1 118:1 344:1 369:1 1050:1 1090:1 1515:1 1905:1 2152:1 2299:1 2672:1 2869:1 3290:1 3376:1 3838:1 4183:1 #
-0.12896853770395486082911418179719 243:1 822:1 884:1 1159:1 1172:1 1341:1 1451:1 1965:1 2299:1 2343:1 2361:1 2611:1 2868:1 4076:1 #
-0.11520125432496505779589313078759 118:1 816:1 1068:1 1344:1 1582:1 2125:1 2343:1 2744:1 3086:1 3453:1 3764:1 3838:1 #
-0.037609329697720302043695284055502 779:1 1250:1 1437:1 1625:1 1823:1 2062:1 2343:1 2676:1 2812:1 2907:1 3362:1 #
0.12896853770395486082911418179719 25:1 28:1 29:1 530:1 547:1 583:1 852:1 1389:1 1455:1 1579:1 2036:1 2226:1 2299:1 2614:1 2742:1 2969:1 3243:1 3563:1 3794:1 4111:1 #
-0.080489029272411277693421993717493 177:1 1572:1 3234:1 4076:1 #
0.12896853770395486082911418179719 28:1 265:1 836:1 1465:1 2393:1 2582:1 2969:1 3109:1 #
0.12896853770395486082911418179719 1461:1 2609:1 3764:1 4188:1 #
0.12896853770395486082911418179719 265:1 434:1 588:1 712:1 1455:1 1465:1 1904:1 2299:1 2349:1 2361:1 2450:1 2686:1 2781:1 2969:1 3234:1 3580:1 3764:1 4076:1 #
0.12299104613858166668016735911806 1461:1 2034:1 2984:1 3339:1 #
-0.12896853770395486082911418179719 265:1 365:1 1431:1 1465:1 1884:1 2795:1 2969:1 3764:1 #
-0.1006479628558724637166221782536 399:1 434:1 1718:1 1855:1 2299:1 2667:1 3546:1 4076:1 #
-0.12896853770395486082911418179719 1461:1 2984:1 3429:1 3563:1 #
0.080000342501707372155905773070117 92:1 1965:1 1988:1 2299:1 2343:1 2649:1 2942:1 2984:1 3234:1 3290:1 3563:1 #
0.12896853770395486082911418179719 1431:1 1465:1 1702:1 1884:1 2299:1 2343:1 2795:1 2984:1 3062:1 3290:1 4076:1 4124:1 4178:1 #
0.12896853770395486082911418179719 283:1 765:1 884:1 1379:1 2868:1 3755:1 4076:1 #
0.12896853770395486082911418179719 1515:1 1784:1 1837:1 2299:1 2343:1 2486:1 3345:1 4076:1 4098:1 #
0.12896853770395486082911418179719 884:1 1452:1 1461:1 1884:1 2299:1 2394:1 3234:1 3794:1 4076:1 #
-0.12896853770395486082911418179719 380:1 2299:1 2343:1 3563:1 3794:1 4030:1 #
-0.12896853770395486082911418179719 1436:1 1465:1 2946:1 2969:1 2971:1 3305:1 3563:1 #
-0.12219068361550233792200970128761 25:1 342:1 405:1 1175:1 1465:1 2969:1 #
-0.099316052769868296001831708963437 1364:1 1388:1 1452:1 1905:1 2299:1 2343:1 2490:1 3134:1 #
0.12896853770395486082911418179719 1090:1 1884:1 2969:1 3505:1 3563:1 3730:1 3764:1 #
-0.0046470132483740784340442431243901 19:1 138:1 651:1 1176:1 1451:1 1718:1 1869:1 1937:1 3126:1 3349:1 3841:1 4094:1 4096:1 #
0.12896853770395486082911418179719 1465:1 1702:1 1718:1 1905:1 2567:1 2969:1 3339:1 3563:1 #
0.12896853770395486082911418179719 1465:1 2527:1 2969:1 3109:1 3305:1 #
0.12896853770395486082911418179719 265:1 1465:1 2338:1 2969:1 3109:1 #
-0.12896853770395486082911418179719 1431:1 1465:1 1884:1 2649:1 2795:1 2969:1 3764:1 #
-0.12896853770395486082911418179719 82:1 1465:1 2582:1 2631:1 2649:1 2686:1 2969:1 3109:1 3339:1 3563:1 #
-0.12896853770395486082911418179719 558:1 1175:1 1461:1 1465:1 1643:1 1884:1 2251:1 2969:1 3339:1 4188:1 #
-0.12896853770395486082911418179719 1465:1 1702:1 2969:1 3109:1 3563:1 3764:1 #
-0.074774539449897828302660229837784 118:1 1528:1 2343:1 2417:1 #
0.12896853770395486082911418179719 92:1 118:1 265:1 301:1 1175:1 1641:1 2036:1 2123:1 2266:1 2299:1 2343:1 2349:1 2455:1 3730:1 4020:1 #
0.12896853770395486082911418179719 746:1 1279:1 1905:1 2036:1 2053:1 2299:1 3089:1 3251:1 3854:1 3939:1 4030:1 4188:1 #
0.072730759823342788772393419094442 303:1 691:1 1097:1 1201:1 1234:1 1455:1 2086:1 2152:1 2296:1 2297:1 2299:1 2386:1 2413:1 2676:1 2869:1 3362:1 3372:1 3468:1 3794:1 4081:1 #
0.12896853770395486082911418179719 1472:1 1808:1 2349:1 2786:1 3944:1 4076:1 #
0.12896853770395486082911418179719 92:1 657:1 836:1 838:1 1172:1 1203:1 1455:1 2299:1 2343:1 2969:1 3262:1 3794:1 3871:1 #
-0.12713890443644623728935982853727 265:1 1465:1 1469:1 2343:1 2969:1 #
-0.025730921077463570628696132303048 226:1 282:1 574:1 667:1 779:1 1014:1 1388:1 1431:1 1455:1 1490:1 1839:1 2102:1 2338:1 2343:1 2394:1 2529:1 2796:1 2832:1 2850:1 3111:1 3426:1 3521:1 3543:1 3665:1 3673:1 3714:1 #
-0.020827352118788080431732723241112 1344:1 2338:1 2343:1 2349:1 3670:1 3709:1 3717:1 3911:1 #
-0.12896853770395486082911418179719 1465:1 1702:1 2343:1 3234:1 #
-0.046923453664445127775373123313329 886:1 891:1 918:1 2200:1 2969:1 #
0.12896853770395486082911418179719 36:1 2348:1 2582:1 3339:1 4076:1 #
0.12896853770395486082911418179719 1884:1 2795:1 2969:1 3262:1 #
0.07944168793674684370120786525149 82:1 1165:1 1286:1 1465:1 1483:1 1542:1 1910:1 2296:1 2297:1 2299:1 2583:1 2609:1 2645:1 2772:1 2835:1 2969:1 2984:1 3198:1 3234:1 3390:1 4056:1 4071:1 #
-0.12230194819978716658237516412555 1:1 219:1 658:1 838:1 1569:1 2343:1 2602:1 2925:1 2942:1 #
-0.12896853770395486082911418179719 488:1 996:1 1461:1 1579:1 1688:1 2452:1 3436:1 3675:1 3718:1 #
-0.12896853770395486082911418179719 405:1 1388:1 1905:1 2232:1 2233:1 2299:1 2868:1 3134:1 3290:1 4076:1 #
0.0097386296180500021846260239044568 64:1 82:1 145:1 250:1 269:1 292:1 344:1 360:1 369:1 379:1 501:1 553:1 619:1 723:1 847:1 870:1 884:1 886:1 947:1 1088:1 1094:1 1096:1 1099:1 1150:1 1163:1 1189:1 1196:1 1253:1 1256:1 1279:1 1349:1 1351:1 1451:1 1455:1 1465:1 1527:1 1564:1 1579:1 1595:1 1639:1 1653:1 1840:1 1901:1 2003:1 2036:1 2053:1 2188:1 2244:1 2299:1 2343:1 2349:1 2528:1 2543:1 2661:1 2748:1 2752:1 2772:1 2803:1 2828:1 2957:1 2969:1 3093:1 3109:1 3157:1 3173:1 3237:1 3243:1 3339:1 3456:1 3491:1 3521:1 3559:1 3668:1 3745:1 3770:1 3794:1 3823:1 3859:1 4025:1 4097:1 4156:1 4182:1 4188:1 4193:1 4194:1 #
0.12896853770395486082911418179719 536:1 2450:1 2969:1 #
0.12896853770395486082911418179719 56:1 92:1 118:1 176:1 265:1 2243:1 2299:1 2349:1 2513:1 2878:1 2969:1 2984:1 3109:1 3272:1 3373:1 3519:1 3645:1 #
0.12896853770395486082911418179719 92:1 1492:1 1702:1 1917:1 2194:1 2299:1 2343:1 2450:1 2567:1 2969:1 3620:1 4059:1 #
0.10992698883295208556187816384409 8:1 92:1 243:1 265:1 658:1 723:1 825:1 1388:1 1702:1 1877:1 2027:1 2169:1 2513:1 2969:1 3631:1 3700:1 3709:1 3850:1 #
0.12896853770395486082911418179719 92:1 1175:1 1461:1 1572:1 2297:1 2379:1 2543:1 2969:1 3339:1 3430:1 #
-0.11279946506664322025681457262181 92:1 118:1 143:1 265:1 283:1 1224:1 1854:1 2299:1 2543:1 2788:1 2799:1 2969:1 3036:1 3290:1 #
-0.12896853770395486082911418179719 92:1 1718:1 1884:1 2299:1 2338:1 2969:1 3290:1 3305:1 #
-0.12896853770395486082911418179719 92:1 265:1 1527:1 2969:1 3803:1 #
0.12896853770395486082911418179719 265:1 884:1 1455:1 1465:1 1884:1 2251:1 2299:1 2343:1 2824:1 2868:1 3505:1 3764:1 3854:1 4076:1 4127:1 #
0.036938414732477532764765015826924 19:1 1026:1 1152:1 1451:1 1461:1 1492:1 2125:1 2181:1 3234:1 3267:1 3563:1 3764:1 #
0.12896853770395486082911418179719 996:1 1455:1 3234:1 3794:1 4076:1 #
0.12896853770395486082911418179719 1685:1 1884:1 2343:1 3262:1 #
-0.12896853770395486082911418179719 342:1 396:1 919:1 2299:1 2349:1 2868:1 2969:1 3109:1 3505:1 3717:1 3764:1 4076:1 4124:1 #
-0.12896853770395486082911418179719 1461:1 2349:1 3668:1 3730:1 4188:1 #
-0.12896853770395486082911418179719 25:1 30:1 84:1 92:1 1104:1 1175:1 1561:1 2036:1 2343:1 2349:1 2667:1 3234:1 3859:1 3866:1 #
-0.12896853770395486082911418179719 92:1 1175:1 1884:1 2646:1 2969:1 3339:1 #
0.12896853770395486082911418179719 1608:1 1714:1 1846:1 1854:1 2299:1 2543:1 2969:1 3109:1 3696:1 4024:1 #
0.12896853770395486082911418179719 92:1 265:1 1703:1 2969:1 3081:1 3527:1 3563:1 #
0.12896853770395486082911418179719 434:1 1575:1 2969:1 3717:1 #
0.12896853770395486082911418179719 92:1 1579:1 1702:1 1787:1 1905:1 2299:1 2969:1 3301:1 3339:1 #
0.12896853770395486082911418179719 1461:1 1988:1 2969:1 3563:1 #
-0.12896853770395486082911418179719 265:1 836:1 1465:1 2609:1 2969:1 3262:1 3563:1 #
-0.12896853770395486082911418179719 499:1 1465:1 1553:1 1702:1 2969:1 3339:1 #
-0.12896853770395486082911418179719 723:1 884:1 1175:1 1465:1 1698:1 1702:1 1884:1 2299:1 2969:1 2984:1 3339:1 3397:1 4087:1 #
0.12896853770395486082911418179719 1461:1 1600:1 1905:1 2349:1 3234:1 3290:1 3730:1 #
-0.12268504774838041859741366579328 36:1 56:1 344:1 405:1 565:1 646:1 786:1 884:1 894:1 971:1 1388:1 1579:1 1905:1 2360:1 2543:1 3290:1 3309:1 3563:1 3764:1 4076:1 4199:1 #
-0.12896853770395486082911418179719 369:1 895:1 2299:1 2969:1 3086:1 #
0.12896853770395486082911418179719 317:1 557:1 752:1 1443:1 1452:1 1455:1 1465:1 1515:1 1527:1 2043:1 2226:1 2299:1 2361:1 2868:1 2984:1 3178:1 3290:1 3531:1 3730:1 3996:1 4076:1 #
0.12896853770395486082911418179719 723:1 1600:1 2349:1 3234:1 4076:1 #
-0.12896853770395486082911418179719 434:1 723:1 2349:1 2415:1 2543:1 2946:1 2971:1 4076:1 #
-0.011595275978484382434219313040558 18:1 19:1 20:1 39:1 136:1 253:1 281:1 475:1 883:1 1050:1 1083:1 1224:1 1674:1 1714:1 1877:1 1884:1 1982:1 2234:1 2251:1 2481:1 2507:1 2513:1 2714:1 2748:1 2869:1 2882:1 3103:1 3109:1 3126:1 3141:1 3290:1 3331:1 3403:1 3404:1 3854:1 3908:1 4076:1 #
-0.12896853770395486082911418179719 1455:1 2343:1 2450:1 2969:1 3823:1 #
-0.12896853770395486082911418179719 213:1 3234:1 3563:1 4076:1 #
0.12896853770395486082911418179719 1242:1 3764:1 4076:1 #
0.12896853770395486082911418179719 588:1 666:1 1175:1 1465:1 1703:1 2152:1 2343:1 2582:1 2677:1 2969:1 2993:1 3527:1 #
0.12896853770395486082911418179719 20:1 265:1 534:1 884:1 937:1 1465:1 1656:1 1698:1 1718:1 2299:1 2969:1 3089:1 3474:1 3503:1 #
-0.12896853770395486082911418179719 1431:1 1884:1 1988:1 2795:1 2969:1 #
0.12896853770395486082911418179719 1846:1 1884:1 2371:1 2984:1 3339:1 4076:1 #
0.12896853770395486082911418179719 1103:1 1461:1 2831:1 3109:1 3563:1 4188:1 #
0.12896853770395486082911418179719 1515:1 1553:1 2450:1 2543:1 2969:1 3109:1 3302:1 4076:1 #
0.12896853770395486082911418179719 836:1 1714:1 2212:1 2299:1 2702:1 2969:1 3109:1 4076:1 #
-0.12896853770395486082911418179719 1461:1 4188:1 #
-0.12896853770395486082911418179719 15:1 996:1 2969:1 #
-0.092841822091250969517517432905152 539:1 1455:1 2450:1 2969:1 #
-0.12896853770395486082911418179719 4016:1 4076:1 4188:1 #
-0.12896853770395486082911418179719 1053:1 4076:1 4188:1 #
0.12896853770395486082911418179719 92:1 251:1 428:1 836:1 1120:1 1455:1 1674:1 1702:1 2299:1 2343:1 2349:1 2371:1 2868:1 2969:1 3118:1 3157:1 3580:1 3764:1 4076:1 #
0.11337670708512891104557951393872 2343:1 3769:1 3794:1 #
0.12896853770395486082911418179719 1203:1 1455:1 1465:1 2292:1 2299:1 2450:1 2485:1 2854:1 2969:1 3717:1 #
-0.12896853770395486082911418179719 92:1 118:1 884:1 1175:1 1455:1 1515:1 2299:1 2450:1 2623:1 2969:1 3290:1 3563:1 3823:1 #
0.12896853770395486082911418179719 884:1 1278:1 2343:1 3764:1 #
0.12896853770395486082911418179719 884:1 2343:1 3339:1 3823:1 #
0.12896853770395486082911418179719 28:1 55:1 240:1 1415:1 1461:1 1579:1 1884:1 4188:1 #
0.12896853770395486082911418179719 118:1 176:1 330:1 1224:1 1884:1 3767:1 #
0.12896853770395486082911418179719 118:1 1050:1 1083:1 1455:1 1582:1 2027:1 2768:1 #
0.12896853770395486082911418179719 29:1 189:1 283:1 2582:1 #
-0.022998200029035194280613296768934 1884:1 2922:1 2969:1 3764:1 #
-0.12896853770395486082911418179719 29:1 1431:1 1718:1 1884:1 2922:1 3764:1 #
-0.12896853770395486082911418179719 2194:1 2969:1 3709:1 3717:1 3854:1 3893:1 #
-0.12896853770395486082911418179719 1839:1 2343:1 3717:1 3794:1 #
0.12896853770395486082911418179719 29:1 265:1 884:1 1455:1 1465:1 1553:1 1575:1 2299:1 2343:1 2543:1 2872:1 2969:1 3115:1 3559:1 3563:1 3794:1 4076:1 #
-0.12896853770395486082911418179719 547:1 1455:1 2349:1 2450:1 2969:1 #
-0.12896853770395486082911418179719 399:1 884:1 1258:1 1465:1 1854:1 1905:1 2299:1 2371:1 2868:1 2969:1 3305:1 3362:1 3654:1 3720:1 #
-0.12896853770395486082911418179719 71:1 265:1 498:1 1465:1 1515:1 1787:1 1883:1 2030:1 2299:1 2582:1 2737:1 2969:1 2984:1 3062:1 3157:1 3430:1 3552:1 3730:1 4076:1 4188:1 #
-0.12896853770395486082911418179719 265:1 414:1 491:1 1465:1 1698:1 2969:1 3056:1 3109:1 3563:1 3764:1 #
0.12896853770395486082911418179719 1027:1 1884:1 2795:1 2969:1 #
0.02111845557361164207876846887757 303:1 319:1 498:1 822:1 1431:1 1546:1 1627:1 1792:1 1796:1 2299:1 2707:1 3372:1 3947:1 4081:1 4188:1 4203:1 #
0.12896853770395486082911418179719 19:1 3132:1 3234:1 3339:1 3372:1 #
0.12896853770395486082911418179719 822:1 1884:1 2343:1 3290:1 3488:1 3764:1 #
-0.12896853770395486082911418179719 283:1 2450:1 2969:1 3109:1 3563:1 #
-0.12896853770395486082911418179719 499:1 2343:1 3764:1 #
-0.12896853770395486082911418179719 2343:1 3959:1 #
0.12896853770395486082911418179719 265:1 884:1 1310:1 1465:1 1579:1 2299:1 2349:1 2450:1 2969:1 3271:1 3552:1 3823:1 4076:1 #
-0.12896853770395486082911418179719 283:1 1871:1 4188:1 #
0.12896853770395486082911418179719 92:1 213:1 265:1 1455:1 1718:1 2299:1 2868:1 2969:1 3203:1 4076:1 #
0.12896853770395486082911418179719 211:1 265:1 1465:1 1574:1 1905:1 2299:1 2969:1 3234:1 #
-0.12896853770395486082911418179719 1455:1 1679:1 1905:1 2450:1 2969:1 #
0.12896853770395486082911418179719 473:1 2343:1 2507:1 3563:1 4090:1 #
-0.12896853770395486082911418179719 20:1 55:1 841:1 903:1 1388:1 1624:1 1642:1 1718:1 2133:1 2299:1 2313:1 2414:1 2450:1 2543:1 2836:1 2872:1 2969:1 2984:1 3369:1 3437:1 3563:1 3739:1 4093:1 #
-0.12896853770395486082911418179719 1455:1 2299:1 2450:1 2969:1 2984:1 3339:1 #
0.12896853770395486082911418179719 344:1 748:1 1762:1 2062:1 2343:1 2349:1 2455:1 3109:1 4017:1 #
0.12896853770395486082911418179719 1341:1 1843:1 2343:1 3764:1 4043:1 #
0.12896853770395486082911418179719 1175:1 1465:1 1905:1 2100:1 2241:1 2343:1 3479:1 4032:1 #
0.12896853770395486082911418179719 2343:1 3701:1 3895:1 #
-0.12896853770395486082911418179719 92:1 265:1 1884:1 2343:1 3615:1 3764:1 #
-0.12896853770395486082911418179719 92:1 1175:1 1572:1 2343:1 #
-0.12896853770395486082911418179719 723:1 2343:1 2349:1 3730:1 #
-0.12896853770395486082911418179719 499:1 2343:1 3339:1 #
-0.12896853770395486082911418179719 723:1 1965:1 2343:1 2349:1 3234:1 #
0.12896853770395486082911418179719 1455:1 2299:1 2526:1 2543:1 2617:1 2969:1 2984:1 3024:1 3339:1 3730:1 #
0.12896853770395486082911418179719 642:1 1012:1 1431:1 1884:1 2152:1 2582:1 2795:1 2969:1 2984:1 3262:1 3445:1 3563:1 3858:1 #
0.073710781964188967774198602000979 41:1 118:1 378:1 658:1 852:1 904:1 928:1 995:1 1046:1 1465:1 1630:1 1680:1 1713:1 1758:1 1781:1 2125:1 2299:1 2454:1 2582:1 2705:1 2969:1 2976:1 2984:1 3304:1 3428:1 3494:1 3525:1 3616:1 3709:1 3772:1 3885:1 3970:1 #
-0.045122039857861763467727911347538 2516:1 2969:1 3717:1 #
-0.12896853770395486082911418179719 1575:1 1988:1 2299:1 2969:1 2984:1 3234:1 3563:1 #
-0.11679499385101388408969569354667 29:1 928:1 1111:1 1180:1 1452:1 1610:1 1718:1 1739:1 2145:1 2299:1 2880:1 2984:1 3666:1 3709:1 3730:1 #
-0.049544780038604699368143258197961 1575:1 2299:1 2868:1 2969:1 2984:1 3089:1 4076:1 #
0.12896853770395486082911418179719 92:1 2273:1 2343:1 3305:1 #
0.12896853770395486082911418179719 344:1 723:1 1451:1 1884:1 1909:1 2158:1 2343:1 2349:1 2818:1 3262:1 3323:1 3794:1 4001:1 4146:1 #
0.12896853770395486082911418179719 344:1 723:1 1451:1 1884:1 1909:1 2343:1 2349:1 2818:1 3262:1 3323:1 3794:1 4146:1 #
0.080664812718329259588756485754857 92:1 2272:1 2969:1 3068:1 3305:1 4162:1 #
-0.011702492231269250380631952168642 28:1 92:1 147:1 238:1 623:1 697:1 1030:1 1105:1 1172:1 1579:1 1582:1 1679:1 2037:1 2082:1 2125:1 2134:1 2198:1 2343:1 2413:1 2463:1 2693:1 2742:1 2772:1 2915:1 2969:1 2983:1 3017:1 3162:1 3260:1 3290:1 3429:1 3563:1 3618:1 4064:1 4079:1 #
0.1107470564271037516412832246715 283:1 2077:1 2299:1 2450:1 2969:1 #
-0.12896853770395486082911418179719 660:1 996:1 1909:1 3563:1 4076:1 4094:1 #
0.0022106718192133867871562724616297 18:1 19:1 20:1 29:1 344:1 391:1 455:1 482:1 580:1 588:1 928:1 1083:1 1186:1 1469:1 1512:1 1582:1 1622:1 1712:1 1865:1 1877:1 1884:1 1909:1 2051:1 2161:1 2255:1 2343:1 2448:1 2927:1 3543:1 3599:1 3714:1 3730:1 3794:1 3893:1 #
-0.10807951274383184592231543774687 1175:1 1465:1 2969:1 3717:1 4036:1 #
-0.12896853770395486082911418179719 92:1 884:1 1203:1 1572:1 1575:1 2344:1 2693:1 2969:1 3157:1 3234:1 3794:1 3895:1 #
-0.019318173985687723398507742444963 810:1 1455:1 1465:1 1702:1 2299:1 2343:1 2450:1 2969:1 #
-0.12896853770395486082911418179719 723:1 884:1 2513:1 2969:1 3109:1 3717:1 3764:1 3794:1 3984:1 #
0.12896853770395486082911418179719 75:1 101:1 1461:1 2060:1 2299:1 2846:1 3109:1 3224:1 3563:1 #
-0.0017967009673711001414148080712607 19:1 29:1 303:1 1787:1 1905:1 2241:1 2299:1 2582:1 3162:1 3232:1 3234:1 3262:1 3372:1 3768:1 4068:1 #
0.12896853770395486082911418179719 547:1 729:1 1649:1 1804:1 2349:1 2969:1 3109:1 3290:1 3563:1 #
0.12896853770395486082911418179719 886:1 950:1 1465:1 1905:1 2297:1 2299:1 2343:1 2969:1 3059:1 4188:1 #
0.12896853770395486082911418179719 167:1 243:1 884:1 1455:1 1854:1 2215:1 2969:1 #
-0.0067984774169719246889043162695998 547:1 1103:1 1527:1 2243:1 2299:1 2343:1 2349:1 2379:1 2528:1 2969:1 2984:1 3186:1 3262:1 3290:1 #
-0.12896853770395486082911418179719 1884:1 2450:1 2969:1 #
-0.12896853770395486082911418179719 1465:1 1484:1 2299:1 2343:1 2772:1 2969:1 3062:1 3290:1 3339:1 3968:1 #
-0.12896853770395486082911418179719 2299:1 2343:1 2450:1 2969:1 2984:1 3109:1 3339:1 3563:1 #
0.12896853770395486082911418179719 92:1 265:1 434:1 2969:1 3234:1 #
0.12896853770395486082911418179719 92:1 265:1 434:1 1515:1 2158:1 2969:1 #
0.12896853770395486082911418179719 92:1 265:1 1718:1 2277:1 #
-0.028144804083121383736498799521542 118:1 136:1 564:1 884:1 886:1 1311:1 1465:1 1515:1 2299:1 2543:1 2969:1 2984:1 3011:1 3115:1 3162:1 3234:1 3262:1 3290:1 3516:1 3563:1 3618:1 3764:1 4076:1 #
0.12896853770395486082911418179719 1431:1 2795:1 3764:1 4076:1 #
-0.12896853770395486082911418179719 344:1 2343:1 3056:1 4151:1 #
-0.12896853770395486082911418179719 434:1 822:1 3516:1 4076:1 4188:1 #
0.12896853770395486082911418179719 884:1 1698:1 2094:1 2343:1 3702:1 #
0.010110783839239046236202490547385 299:1 625:1 1703:1 2299:1 2343:1 2788:1 2984:1 3067:1 3339:1 3563:1 3645:1 #
0.12896853770395486082911418179719 283:1 2450:1 2969:1 #
-0.12896853770395486082911418179719 2343:1 4016:1 #
0.12896853770395486082911418179719 1905:1 2299:1 2343:1 2450:1 2567:1 2969:1 3109:1 3234:1 3563:1 3764:1 #
-0.12896853770395486082911418179719 1553:1 1859:1 2299:1 2343:1 2878:1 2984:1 3109:1 3563:1 3764:1 #
-0.12896853770395486082911418179719 1643:1 2969:1 3109:1 3563:1 3764:1 #
-0.12896853770395486082911418179719 420:1 2343:1 2415:1 2567:1 3024:1 3234:1 3563:1 #
-0.060776683650757737376046918598149 283:1 488:1 1715:1 2299:1 2984:1 3109:1 3186:1 3234:1 3563:1 3764:1 #
-0.065649044540243117751288082217798 268:1 884:1 886:1 1465:1 1702:1 1884:1 2343:1 2543:1 3044:1 3339:1 #
0.12896853770395486082911418179719 1159:1 1455:1 2234:1 2450:1 2969:1 3290:1 #
0.12896853770395486082911418179719 1455:1 2969:1 #
0.12896853770395486082911418179719 92:1 723:1 2372:1 2969:1 3391:1 3503:1 3627:1 4076:1 #
0.12896853770395486082911418179719 836:1 2393:1 2969:1 3109:1 #
0.12896853770395486082911418179719 1455:1 1535:1 2036:1 2415:1 2969:1 3452:1 3794:1 #
-0.12896853770395486082911418179719 19:1 92:1 399:1 884:1 945:1 1053:1 1175:1 1702:1 1718:1 1855:1 2036:1 2299:1 2582:1 2609:1 2969:1 2984:1 3036:1 3339:1 4111:1 #
-0.12896853770395486082911418179719 1465:1 1843:1 1884:1 2450:1 2649:1 2969:1 #
-0.12896853770395486082911418179719 1465:1 1884:1 2450:1 2649:1 2969:1 #
-0.12896853770395486082911418179719 1455:1 2299:1 2450:1 2969:1 2984:1 3513:1 #
0.12896853770395486082911418179719 884:1 2343:1 3262:1 3563:1 3764:1 #
0.10440685204210543857161752612228 337:1 619:1 659:1 707:1 709:1 884:1 1035:1 1197:1 1455:1 1482:1 1748:1 1846:1 2063:1 2299:1 2418:1 2633:1 2960:1 3024:1 3109:1 3290:1 3372:1 3563:1 3739:1 3764:1 3938:1 3959:1 4094:1 4188:1 #
0.12896853770395486082911418179719 667:1 1036:1 2343:1 2696:1 3089:1 3234:1 4103:1 4135:1 #
-0.12896853770395486082911418179719 1579:1 2036:1 2219:1 2349:1 3009:1 3349:1 3372:1 3563:1 #
-0.12896853770395486082911418179719 118:1 3764:1 #
-0.12896853770395486082911418179719 20:1 118:1 3764:1 #
-0.12896853770395486082911418179719 344:1 1685:1 2234:1 2299:1 2969:1 3262:1 3563:1 #
-0.12896853770395486082911418179719 20:1 27:1 283:1 1519:1 2582:1 2936:1 #
0.12896853770395486082911418179719 167:1 1025:1 1515:1 2299:1 2450:1 2543:1 2969:1 3302:1 3570:1 3717:1 4076:1 #
0.032420782370927596349741151016133 488:1 1703:1 2296:1 2297:1 2450:1 2969:1 2984:1 3527:1 #
-0.1077500044381107524582574797023 265:1 786:1 1465:1 1515:1 1579:1 2299:1 2543:1 2984:1 3234:1 4076:1 #
-0.12896853770395486082911418179719 167:1 2299:1 2450:1 2969:1 2984:1 3506:1 3665:1 3730:1 4076:1 #
0.12896853770395486082911418179719 1461:1 3109:1 3764:1 #
0.12896853770395486082911418179719 118:1 1229:1 2984:1 #
-0.12896853770395486082911418179719 369:1 560:1 2969:1 #
-0.12345304709014365274200031308283 1455:1 1461:1 1905:1 3339:1 3751:1 #
-0.12896853770395486082911418179719 118:1 2273:1 #
-0.12896853770395486082911418179719 56:1 118:1 2887:1 3086:1 3611:1 3764:1 #
0.081093555033059858128119401499134 368:1 667:1 879:1 996:1 1216:1 1363:1 1451:1 1465:1 1610:1 2217:1 2299:1 2343:1 2352:1 2424:1 2649:1 2806:1 2811:1 2868:1 3234:1 3331:1 3363:1 3365:1 3411:1 3572:1 3709:1 4076:1 #
0.12896853770395486082911418179719 25:1 265:1 434:1 1465:1 2241:1 2299:1 2343:1 2785:1 2969:1 3046:1 3563:1 3714:1 #
0.11737136279570872798849734408577 265:1 1465:1 2343:1 2969:1 2984:1 3234:1 3339:1 3563:1 #
-0.12896853770395486082911418179719 265:1 1465:1 2343:1 2825:1 2969:1 3302:1 3363:1 #
-0.12896853770395486082911418179719 265:1 884:1 1465:1 1702:1 1884:1 2158:1 2343:1 2969:1 3339:1 #
-0.12896853770395486082911418179719 1175:1 1465:1 2299:1 2343:1 2969:1 2984:1 3234:1 #
-0.086966312965508663079816642493824 716:1 943:1 1175:1 1465:1 1707:1 2299:1 2343:1 2489:1 2747:1 2886:1 2969:1 3099:1 3385:1 3563:1 #
-0.12896853770395486082911418179719 265:1 1465:1 2969:1 3563:1 #
0.12896853770395486082911418179719 1461:1 3125:1 3730:1 4188:1 #
0.12896853770395486082911418179719 283:1 3923:1 4188:1 #
0.12896853770395486082911418179719 18:1 19:1 449:1 518:1 708:1 1192:1 1663:1 1718:1 2313:1 2674:1 2742:1 3537:1 #
0.12896853770395486082911418179719 265:1 488:1 1118:1 1120:1 1465:1 2343:1 2969:1 3234:1 #
-0.12896853770395486082911418179719 283:1 1461:1 2349:1 4188:1 #
-0.12896853770395486082911418179719 1461:1 3109:1 3563:1 3764:1 4188:1 #
0.085134819272022793645859906064288 1358:1 1572:1 3234:1 3339:1 3563:1 4076:1 #
0.12896853770395486082911418179719 265:1 1465:1 1679:1 1724:1 2969:1 #
0.12896853770395486082911418179719 265:1 1465:1 1600:1 2343:1 2969:1 2984:1 3056:1 #
-0.12896853770395486082911418179719 102:1 265:1 1203:1 1465:1 2296:1 2297:1 2969:1 3262:1 #
-0.12896853770395486082911418179719 19:1 1465:1 1905:1 2582:1 2649:1 2969:1 3234:1 #
-0.12896853770395486082911418179719 265:1 1465:1 2343:1 3375:1 #
-0.12896853770395486082911418179719 1611:1 2343:1 2620:1 2872:1 2969:1 #
-0.12896853770395486082911418179719 434:1 1044:1 2343:1 3234:1 #
0.12824763628377544577574553841259 167:1 843:1 1622:1 1703:1 1884:1 1905:1 2028:1 2053:1 2066:1 2299:1 2349:1 2646:1 2782:1 2824:1 2868:1 3186:1 3234:1 3483:1 3527:1 3764:1 4076:1 4124:1 #
0.12896853770395486082911418179719 365:1 1104:1 1461:1 1905:1 2299:1 2343:1 2427:1 2582:1 2667:1 3109:1 3544:1 3794:1 #
-0.11136859753435006392674466724202 265:1 283:1 515:1 667:1 1266:1 1465:1 1467:1 1515:1 1905:1 2299:1 2672:1 2969:1 3115:1 3234:1 3262:1 3764:1 4076:1 #
-0.034870135400959303972889813394431 419:1 1012:1 1296:1 2805:1 3079:1 3109:1 3559:1 3563:1 3764:1 4076:1 4081:1 #
0.12896853770395486082911418179719 836:1 1175:1 1465:1 2475:1 2969:1 2984:1 3081:1 3234:1 3563:1 4188:1 #
0.12896853770395486082911418179719 1242:1 1455:1 1465:1 1702:1 2125:1 2343:1 3290:1 3752:1 #
0.12896853770395486082911418179719 420:1 2969:1 3563:1 #
0.098162399116273266197474356431485 580:1 1431:1 2102:1 2415:1 2582:1 2969:1 3158:1 3563:1 4188:1 #
0.12896853770395486082911418179719 118:1 1554:1 1988:1 2158:1 2567:1 3563:1 #
-0.12896853770395486082911418179719 18:1 717:1 2036:1 2313:1 2343:1 #
0.11460428327040662888069988412099 18:1 240:1 265:1 1465:1 2299:1 2343:1 2969:1 2984:1 3563:1 4071:1 4136:1 #
-0.12896853770395486082911418179719 1451:1 2343:1 3126:1 3667:1 3709:1 3730:1 #
-0.12896853770395486082911418179719 1465:1 1702:1 2299:1 2969:1 3301:1 3730:1 #
0.12896853770395486082911418179719 20:1 283:1 913:1 1153:1 1847:1 2349:1 2893:1 3234:1 3994:1 4076:1 #
-0.052678721325936275765577931906591 20:1 138:1 1369:1 1718:1 2582:1 #
0.12896853770395486082911418179719 496:1 1793:1 2058:1 2299:1 2984:1 3764:1 4076:1 #
0.12896853770395486082911418179719 104:1 2194:1 3563:1 3867:1 4076:1 #
-0.12896853770395486082911418179719 836:1 2158:1 3234:1 3563:1 4076:1 #
-0.12896853770395486082911418179719 3563:1 4076:1 4188:1 #
-0.12896853770395486082911418179719 1623:1 3563:1 3888:1 4076:1 #
0.12896853770395486082911418179719 265:1 838:1 1153:1 1465:1 1841:1 2296:1 2299:1 2313:1 2343:1 2628:1 2969:1 3219:1 #
0.12896853770395486082911418179719 92:1 2527:1 2649:1 2969:1 3109:1 #
0.12896853770395486082911418179719 3339:1 4076:1 #
0.12896853770395486082911418179719 1461:1 2984:1 3290:1 3764:1 #
-0.091152739296991178163942493029026 547:1 715:1 1419:1 1579:1 2299:1 2969:1 2984:1 3263:1 3285:1 3331:1 #
-0.063644987389953888712312846109853 29:1 92:1 265:1 344:1 588:1 836:1 884:1 1083:1 1175:1 1381:1 1388:1 1450:1 1465:1 1839:1 1884:1 2027:1 2036:1 2299:1 2518:1 2582:1 2609:1 2969:1 2984:1 3026:1 3532:1 3702:1 3714:1 3751:1 3959:1 4073:1 #
-0.12896853770395486082911418179719 92:1 2299:1 2371:1 2567:1 2649:1 2969:1 2984:1 3234:1 #
0.045316355801126743940709928892829 19:1 32:1 105:1 188:1 281:1 482:1 574:1 744:1 1112:1 1179:1 1388:1 1432:1 1455:1 1461:1 1515:1 1579:1 1698:1 1703:1 1851:1 1909:1 2058:1 2492:1 2684:1 2938:1 3071:1 3185:1 3271:1 3287:1 3290:1 3349:1 3376:1 3521:1 3563:1 3730:1 3794:1 3841:1 3888:1 3925:1 3990:1 4033:1 4089:1 4137:1 #
0.12896853770395486082911418179719 2251:1 3563:1 3764:1 4076:1 4188:1 #
0.12896853770395486082911418179719 2158:1 3563:1 3764:1 4076:1 #
0.12896853770395486082911418179719 3339:1 3563:1 4076:1 #
-0.12896853770395486082911418179719 1461:1 3109:1 3563:1 3764:1 #
-0.12896853770395486082911418179719 1120:1 1718:1 3109:1 3563:1 3764:1 #
-0.12896853770395486082911418179719 2423:1 3109:1 3563:1 3764:1 4076:1 #
-0.049259512579269082444000105169835 1104:1 1718:1 2299:1 2507:1 2984:1 3109:1 3563:1 #
0.1113822881929072833306904044548 2299:1 2450:1 2513:1 2969:1 2984:1 3247:1 3978:1 #
0.12896853770395486082911418179719 405:1 2297:1 2450:1 2567:1 2969:1 3234:1 3353:1 #
0.12896853770395486082911418179719 424:1 1466:1 1724:1 2299:1 2969:1 2984:1 #
0.12896853770395486082911418179719 283:1 2969:1 3563:1 3764:1 #
-0.12896853770395486082911418179719 2299:1 2450:1 2887:1 2969:1 3089:1 3362:1 #
0.12896853770395486082911418179719 1461:1 2232:1 3109:1 3702:1 3739:1 #
0.12896853770395486082911418179719 723:1 2343:1 2349:1 3764:1 #
0.12896853770395486082911418179719 1461:1 1698:1 3563:1 3702:1 #
-0.12896853770395486082911418179719 1461:1 2804:1 #
-0.12896853770395486082911418179719 104:1 251:1 1461:1 2984:1 3796:1 #
-0.070205840252181836436129458434152 449:1 797:1 1461:1 2490:1 3134:1 3284:1 3925:1 #
0.12896853770395486082911418179719 188:1 580:1 1455:1 2299:1 2450:1 2714:1 2969:1 3290:1 3563:1 3574:1 3655:1 4076:1 #
0.12896853770395486082911418179719 55:1 118:1 511:1 1944:1 2887:1 3594:1 #
0.12896853770395486082911418179719 283:1 1572:1 2348:1 3419:1 #
-0.12896853770395486082911418179719 283:1 288:1 1153:1 1620:1 #
-0.12896853770395486082911418179719 283:1 1083:1 2027:1 2116:1 2232:1 #
-0.12896853770395486082911418179719 2543:1 2969:1 3563:1 #
-0.12896853770395486082911418179719 3056:1 4076:1 #
-0.12896853770395486082911418179719 1175:1 1431:1 1465:1 1884:1 2343:1 2795:1 3764:1 #
-0.12896853770395486082911418179719 534:1 550:1 596:1 723:1 1055:1 1417:1 1465:1 2299:1 2343:1 2349:1 2672:1 2969:1 3127:1 #
-0.12896853770395486082911418179719 51:1 55:1 341:1 1253:1 1461:1 1688:1 1784:1 1905:1 2241:1 2299:1 2582:1 2768:1 3236:1 3623:1 4188:1 #
-0.046974052162318764847004359808125 265:1 1275:1 1465:1 1527:1 2102:1 2299:1 2372:1 2374:1 2825:1 2969:1 3103:1 3290:1 3717:1 #
-0.12896853770395486082911418179719 1905:1 1965:1 2349:1 2969:1 #
0.12896853770395486082911418179719 2415:1 2969:1 3103:1 3918:1 #
0.031749195823614434486259483492177 1431:1 1702:1 2123:1 2543:1 2872:1 2969:1 3563:1 3764:1 #
0.12896853770395486082911418179719 55:1 2450:1 2969:1 3500:1 4073:1 #
-0.12896853770395486082911418179719 2450:1 2543:1 2969:1 3109:1 3563:1 #
-0.12896853770395486082911418179719 92:1 1431:1 1884:1 2649:1 2795:1 2969:1 3764:1 #
-0.12896853770395486082911418179719 1431:1 1884:1 2450:1 2795:1 2969:1 #
-0.12896853770395486082911418179719 2217:1 2450:1 2969:1 3109:1 3563:1 #
-0.12896853770395486082911418179719 365:1 2450:1 2969:1 3109:1 3563:1 #
0.12896853770395486082911418179719 650:1 723:1 1388:1 1493:1 1884:1 1905:1 1999:1 2234:1 2299:1 2349:1 2374:1 2582:1 2969:1 3179:1 3373:1 3794:1 #
0.12896853770395486082911418179719 184:1 1055:1 1452:1 1884:1 2272:1 2299:1 2343:1 2394:1 2868:1 4076:1 #
0.12896853770395486082911418179719 167:1 369:1 822:1 1014:1 1283:1 1905:1 2071:1 2299:1 2343:1 #
-0.12896853770395486082911418179719 1041:1 2299:1 2338:1 2343:1 3474:1 #
-0.0049880012022480747779784593376462 138:1 413:1 527:1 635:1 1312:1 1369:1 1455:1 2299:1 2343:1 2349:1 2567:1 2729:1 3631:1 3794:1 4096:1 #
-0.04473556997177952770927689130076 92:1 104:1 118:1 168:1 482:1 927:1 1253:1 1648:1 1698:1 1787:1 2062:1 2299:1 2343:1 2649:1 3796:1 #
0.12896853770395486082911418179719 268:1 1465:1 2393:1 2649:1 2969:1 2983:1 3109:1 #
0.12896853770395486082911418179719 2226:1 2338:1 2969:1 3109:1 #
0.12896853770395486082911418179719 240:1 1465:1 2649:1 2969:1 2984:1 4188:1 #
0.11832821559640858966044874023282 19:1 781:1 1026:1 1787:1 2450:1 2969:1 3300:1 #
-0.12896853770395486082911418179719 2969:1 4076:1 #
-0.12896853770395486082911418179719 886:1 1465:1 1762:1 2267:1 2969:1 #
-0.12896853770395486082911418179719 2969:1 3243:1 #
0.12896853770395486082911418179719 88:1 265:1 2343:1 2450:1 2969:1 #
0.12896853770395486082911418179719 1141:1 2299:1 2343:1 3474:1 3563:1 3764:1 #
0.12896853770395486082911418179719 92:1 2343:1 2649:1 3382:1 3696:1 #
0.12896853770395486082911418179719 92:1 265:1 268:1 1344:1 2007:1 2343:1 2915:1 3107:1 3563:1 3675:1 #
0.12896853770395486082911418179719 884:1 1592:1 2708:1 2969:1 #
0.12896853770395486082911418179719 118:1 1884:1 2299:1 2969:1 3794:1 #
0.12896853770395486082911418179719 884:1 2753:1 2876:1 2969:1 3066:1 #
-0.12896853770395486082911418179719 92:1 268:1 619:1 2374:1 2487:1 2649:1 2969:1 #
-0.12896853770395486082911418179719 2348:1 3372:1 3383:1 4030:1 #
-0.011454601994367678494124440646829 299:1 496:1 1252:1 2299:1 2788:1 2929:1 2984:1 4076:1 #
0.12896853770395486082911418179719 996:1 1465:1 2649:1 2969:1 3234:1 3401:1 #
-0.12896853770395486082911418179719 1465:1 1572:1 1703:1 2154:1 2299:1 2649:1 2969:1 3234:1 3271:1 3527:1 #
-0.12896853770395486082911418179719 1465:1 1702:1 2969:1 2984:1 3234:1 #
-0.12896853770395486082911418179719 265:1 1465:1 2158:1 2299:1 2371:1 2969:1 2984:1 3234:1 #
0.12896853770395486082911418179719 633:1 4076:1 #
0.12896853770395486082911418179719 1226:1 4076:1 #
0.12896853770395486082911418179719 1437:1 2343:1 2507:1 4090:1 #
-0.12896853770395486082911418179719 1090:1 1909:1 3376:1 4076:1 #
-0.12896853770395486082911418179719 283:1 354:1 482:1 1258:1 2872:1 3764:1 #
-0.12896853770395486082911418179719 2226:1 3062:1 4076:1 #
-0.12053587574455881803459078582819 20:1 1609:1 2343:1 2582:1 #
-0.12896853770395486082911418179719 2343:1 3730:1 #
0.12896853770395486082911418179719 265:1 434:1 1465:1 2415:1 2969:1 3314:1 #
0.12896853770395486082911418179719 1461:1 1574:1 3234:1 #
0.12896853770395486082911418179719 434:1 2336:1 2969:1 #
-0.12896853770395486082911418179719 2234:1 2609:1 2969:1 3709:1 #
-0.12896853770395486082911418179719 2969:1 3563:1 #
-0.12896853770395486082911418179719 3796:1 4076:1 #
-0.12896853770395486082911418179719 213:1 2969:1 #
0.12896853770395486082911418179719 1905:1 2299:1 2358:1 3372:1 #
0.12896853770395486082911418179719 884:1 1515:1 1572:1 1579:1 3301:1 3569:1 3794:1 4076:1 #
0.12896853770395486082911418179719 3089:1 3764:1 4076:1 #
0.12896853770395486082911418179719 2343:1 2478:1 #
-0.12896853770395486082911418179719 260:1 434:1 4076:1 #
-0.12896853770395486082911418179719 434:1 2343:1 3234:1 #
0.12896853770395486082911418179719 723:1 1965:1 2450:1 2969:1 3563:1 #
0.11820070794939770142395474294972 7:1 723:1 1138:1 2450:1 2582:1 2969:1 3709:1 4076:1 #
0.12896853770395486082911418179719 265:1 2036:1 2969:1 3293:1 3563:1 #
0.12896853770395486082911418179719 2450:1 2611:1 2969:1 3563:1 #
-0.12896853770395486082911418179719 20:1 2969:1 3089:1 3709:1 3764:1 #
-0.12896853770395486082911418179719 723:1 2969:1 #
0.12896853770395486082911418179719 1574:1 2343:1 3234:1 #
0.12896853770395486082911418179719 3234:1 3764:1 4076:1 #
0.12896853770395486082911418179719 884:1 3234:1 3764:1 4076:1 #
-0.12896853770395486082911418179719 29:1 3234:1 4076:1 #
0.12896853770395486082911418179719 629:1 818:1 2969:1 3115:1 3244:1 #
0.12896853770395486082911418179719 92:1 621:1 787:1 1203:1 2809:1 2969:1 3059:1 #
0.12896853770395486082911418179719 1347:1 2969:1 #
0.12896853770395486082911418179719 114:1 2916:1 2969:1 #
0.12896853770395486082911418179719 73:1 103:1 303:1 1819:1 2472:1 2924:1 2969:1 3331:1 #
-0.12896853770395486082911418179719 277:1 884:1 2450:1 2969:1 3109:1 3563:1 #
-0.051271568235749388764421752284761 18:1 2343:1 2742:1 3162:1 3403:1 3714:1 3848:1 #
-0.12896853770395486082911418179719 2873:1 2969:1 #
-0.12896853770395486082911418179719 2969:1 #
-0.12896853770395486082911418179719 815:1 2969:1 #
0.12896853770395486082911418179719 447:1 723:1 1343:1 1455:1 1600:1 1679:1 2145:1 2343:1 2443:1 3056:1 3374:1 3563:1 3709:1 #
0.12896853770395486082911418179719 2226:1 2527:1 2969:1 3109:1 #
0.12896853770395486082911418179719 1215:1 1465:1 2302:1 2312:1 2969:1 2977:1 2984:1 #
-0.12896853770395486082911418179719 4076:1 4188:1 #
-0.12896853770395486082911418179719 1461:1 1905:1 3036:1 3290:1 4188:1 #
0.12896853770395486082911418179719 283:1 3234:1 3764:1 #
0.031053109414947450278576823734511 1718:1 2175:1 3339:1 3563:1 #
-0.12896853770395486082911418179719 723:1 2969:1 3109:1 3563:1 3764:1 #
-0.1074074050977071453916167342868 118:1 465:1 1388:1 1607:1 3013:1 3563:1 3661:1 #
-0.12896853770395486082911418179719 1905:1 2251:1 2299:1 2969:1 3109:1 3563:1 3764:1 #
-0.12896853770395486082911418179719 2969:1 3109:1 3563:1 3764:1 #
0.12896853770395486082911418179719 281:1 867:1 1437:1 1909:1 2684:1 3016:1 3483:1 3539:1 3712:1 4074:1 4076:1 #
0.12896853770395486082911418179719 2094:1 2343:1 3339:1 #
-0.098353487424093943847225318677374 684:1 3123:1 3718:1 3848:1 4076:1 #
0.12896853770395486082911418179719 482:1 1573:1 2343:1 2805:1 3764:1 #
-0.12896853770395486082911418179719 1465:1 1702:1 2299:1 2343:1 2969:1 2984:1 #
-0.068188114529903851024350558418519 936:1 1455:1 1579:1 2125:1 2299:1 2969:1 2984:1 3290:1 3339:1 #
0.12896853770395486082911418179719 1461:1 3503:1 3563:1 4188:1 #
0.12896853770395486082911418179719 2139:1 3503:1 3563:1 4076:1 4188:1 #
0.12896853770395486082911418179719 369:1 1338:1 1497:1 1553:1 1905:1 2094:1 3094:1 3717:1 3743:1 3886:1 3961:1 4062:1 4188:1 #
0.054150680225013285429280784910588 857:1 1153:1 1203:1 1465:1 2343:1 3479:1 4032:1 #
-0.12896853770395486082911418179719 1904:1 3717:1 4076:1 4188:1 #
-0.12896853770395486082911418179719 1455:1 3339:1 4076:1 #
0.12896853770395486082911418179719 1465:1 1702:1 2343:1 2507:1 2969:1 4004:1 #
-0.12517229995351877858134059806616 265:1 1465:1 2343:1 2567:1 3234:1 3321:1 #
0.12896853770395486082911418179719 19:1 309:1 2969:1 3339:1 #
-0.058949076735550325067958254976475 1055:1 1436:1 1515:1 2590:1 2969:1 #
-0.01677717136050871707397824650343 27:1 1120:1 1991:1 2217:1 2343:1 2611:1 2717:1 2984:1 3233:1 3730:1 #
0.12896853770395486082911418179719 329:1 2559:1 3563:1 4076:1 4188:1 #
0.12896853770395486082911418179719 1988:1 2194:1 3563:1 4076:1 #
0.12896853770395486082911418179719 1164:1 3563:1 4076:1 4188:1 #
-0.12896853770395486082911418179719 23:1 344:1 2214:1 2296:1 2297:1 2299:1 2704:1 3109:1 3426:1 3563:1 3764:1 4076:1 4188:1 #
-0.12896853770395486082911418179719 1164:1 3109:1 3563:1 3983:1 4076:1 #
-0.12896853770395486082911418179719 511:1 2299:1 2884:1 2984:1 3563:1 4076:1 #
-0.12896853770395486082911418179719 1159:1 3161:1 3403:1 3563:1 4076:1 #
0.12896853770395486082911418179719 265:1 1465:1 2343:1 2969:1 3675:1 #
0.12896853770395486082911418179719 1159:1 2343:1 2969:1 #
-0.12896853770395486082911418179719 265:1 1465:1 2226:1 2251:1 2969:1 3036:1 #
-0.024704257082906667941646361441599 1370:1 1561:1 1905:1 4188:1 #
0.12896853770395486082911418179719 1718:1 2338:1 3474:1 #
-0.12896853770395486082911418179719 1465:1 1884:1 2338:1 2969:1 3305:1 3474:1 #
-0.12896853770395486082911418179719 1572:1 2343:1 3234:1 #
-0.12896853770395486082911418179719 2343:1 2779:1 3234:1 #
-0.039722044890657559612634486256866 955:1 2343:1 3234:1 #
0.12896853770395486082911418179719 2415:1 2969:1 4106:1 #
0.12896853770395486082911418179719 1592:1 2708:1 2969:1 #
-0.12896853770395486082911418179719 2532:1 2969:1 #
0.12896853770395486082911418179719 118:1 213:1 1104:1 1175:1 1465:1 1759:1 1834:1 2299:1 2343:1 2667:1 2940:1 2984:1 3234:1 3696:1 #
0.12896853770395486082911418179719 93:1 2450:1 2802:1 2969:1 #
0.12896853770395486082911418179719 283:1 3702:1 #
0.12896853770395486082911418179719 1461:1 2582:1 2984:1 3234:1 3563:1 3764:1 #
0.12896853770395486082911418179719 1461:1 2452:1 3339:1 3563:1 #
0.12896853770395486082911418179719 118:1 1615:1 2349:1 3143:1 3563:1 4189:1 #
0.01597500963530606998830307929893 2450:1 2924:1 2969:1 #
0.12896853770395486082911418179719 3563:1 3764:1 4076:1 #
0.12896853770395486082911418179719 1135:1 1331:1 1465:1 1877:1 2157:1 2649:1 2969:1 #
0.12896853770395486082911418179719 1465:1 1595:1 1817:1 1905:1 2210:1 2331:1 2649:1 2676:1 2969:1 3807:1 #
0.12896853770395486082911418179719 118:1 269:1 1465:1 1516:1 1640:1 1734:1 2173:1 2313:1 2582:1 2649:1 2969:1 2984:1 3490:1 3655:1 #
0.12896853770395486082911418179719 1159:1 2343:1 #
0.039856529494486390985397150643621 367:1 1164:1 1449:1 1905:1 2299:1 2579:1 4188:1 #
0.12896853770395486082911418179719 996:1 2343:1 3613:1 #
0.12896853770395486082911418179719 2450:1 2969:1 2984:1 #
0.12252908928469655180926167759026 588:1 836:1 1465:1 1519:1 1702:1 2969:1 3563:1 3702:1 #
0.12896853770395486082911418179719 1164:1 3563:1 4076:1 #
0.12896853770395486082911418179719 92:1 1702:1 2343:1 2969:1 3234:1 3563:1 3764:1 #
-0.12896853770395486082911418179719 369:1 496:1 569:1 716:1 816:1 1344:1 1455:1 1574:1 2036:1 2066:1 2320:1 2342:1 2343:1 2441:1 2590:1 2825:1 3056:1 3157:1 3243:1 3290:1 3445:1 3794:1 4188:1 #
-0.12896853770395486082911418179719 118:1 176:1 3764:1 #
-0.12896853770395486082911418179719 341:1 712:1 996:1 2181:1 2343:1 2543:1 2648:1 2699:1 3453:1 3563:1 #
-0.12896853770395486082911418179719 276:1 1020:1 1175:1 1515:1 1579:1 2058:1 2296:1 2297:1 2343:1 2868:1 2969:1 3302:1 3655:1 3854:1 4076:1 #
-0.12896853770395486082911418179719 28:1 309:1 884:1 2234:1 2343:1 2941:1 3882:1 4188:1 #
0.12896853770395486082911418179719 1465:1 1843:1 2243:1 2299:1 2338:1 2969:1 2984:1 3109:1 3305:1 3959:1 4188:1 #
0.12896853770395486082911418179719 1465:1 2338:1 2969:1 3109:1 3305:1 #
0.12896853770395486082911418179719 56:1 265:1 283:1 344:1 1203:1 1465:1 1515:1 1542:1 1905:1 2125:1 2299:1 2349:1 2421:1 2450:1 2543:1 2582:1 2673:1 2969:1 3157:1 3709:1 3717:1 #
0.12896853770395486082911418179719 1465:1 2251:1 2393:1 2969:1 3109:1 3305:1 #
0.12896853770395486082911418179719 92:1 305:1 1431:1 1461:1 1517:1 1905:1 2299:1 2349:1 2393:1 2649:1 2969:1 3109:1 4188:1 #
-0.12896853770395486082911418179719 6:1 154:1 723:1 1465:1 1553:1 2969:1 3709:1 #
-0.12896853770395486082911418179719 118:1 265:1 1465:1 1905:1 2299:1 2888:1 2969:1 3764:1 #
-0.12896853770395486082911418179719 265:1 1465:1 1760:1 1905:1 2969:1 3234:1 #
-0.12896853770395486082911418179719 265:1 1465:1 1956:1 2060:1 2969:1 #
0.12896853770395486082911418179719 822:1 1404:1 1455:1 2299:1 2343:1 2543:1 3234:1 3764:1 4076:1 #
0.12896853770395486082911418179719 1424:1 1718:1 1787:1 2062:1 2299:1 2343:1 3361:1 4188:1 #
0.12896853770395486082911418179719 862:1 2141:1 2343:1 3290:1 #
0.12896853770395486082911418179719 28:1 2299:1 2343:1 3174:1 3262:1 3339:1 3730:1 #
0.12896853770395486082911418179719 498:1 668:1 1452:1 1905:1 2036:1 2046:1 2296:1 2297:1 2299:1 2343:1 2634:1 3220:1 #
-0.12896853770395486082911418179719 92:1 857:1 919:1 1026:1 1461:1 1492:1 1846:1 2299:1 2600:1 2649:1 2888:1 2914:1 3243:1 3263:1 3620:1 3696:1 4032:1 4076:1 4136:1 #
-0.033606323369332884165583408275779 786:1 1103:1 1192:1 1455:1 1714:1 1905:1 2053:1 2299:1 2543:1 2828:1 2869:1 2969:1 3290:1 3426:1 3677:1 3884:1 #
-0.12896853770395486082911418179719 7:1 723:1 731:1 1238:1 1662:1 2343:1 2450:1 2582:1 2969:1 2972:1 3709:1 #
0.12896853770395486082911418179719 369:1 669:1 2343:1 2672:1 2969:1 3627:1 3651:1 #
0.12896853770395486082911418179719 1575:1 2299:1 2672:1 2858:1 2969:1 3588:1 3651:1 3764:1 4076:1 4188:1 #
0.12896853770395486082911418179719 167:1 1455:1 1461:1 2450:1 #
0.12896853770395486082911418179719 303:1 3288:1 3372:1 3959:1 #
-0.036051372463611855434528763453272 18:1 19:1 20:1 25:1 28:1 29:1 55:1 226:1 303:1 723:1 1215:1 1216:1 1369:1 1415:1 1455:1 1458:1 1465:1 1579:1 1610:1 1842:1 2027:1 2338:1 2492:1 2584:1 2892:1 3042:1 3089:1 3362:1 3451:1 3545:1 3563:1 3644:1 3651:1 3676:1 3705:1 3717:1 3764:1 3867:1 3885:1 4076:1 4201:1 #
-0.12896853770395486082911418179719 499:1 1472:1 2349:1 2450:1 2969:1 #
-0.12896853770395486082911418179719 1461:1 2969:1 #
-0.055396011656023515234981147159488 13:1 99:1 101:1 288:1 667:1 668:1 680:1 884:1 1106:1 1203:1 1465:1 1884:1 2543:1 2622:1 2716:1 2969:1 3011:1 3171:1 3242:1 3445:1 3519:1 3620:1 3651:1 3681:1 3696:1 3764:1 3927:1 4066:1 4092:1 4188:1 #
-0.11584049627758775946606562001762 274:1 1582:1 3109:1 3563:1 3702:1 3730:1 4076:1 #
-0.12896853770395486082911418179719 928:1 964:1 1465:1 2343:1 2969:1 3730:1 #
0.12896853770395486082911418179719 1175:1 1465:1 2299:1 2343:1 2984:1 3339:1 #
-0.12896853770395486082911418179719 996:1 1175:1 1465:1 2969:1 3234:1 #
-0.12896853770395486082911418179719 92:1 265:1 836:1 2969:1 3234:1 3563:1 #
-0.099489344263781601118701303221314 884:1 1175:1 1465:1 1702:1 1884:1 2158:1 2543:1 2926:1 2969:1 3115:1 3702:1 #
-0.10100764204248720290468810389939 118:1 176:1 455:1 644:1 896:1 1297:1 1451:1 1718:1 2062:1 2218:1 2299:1 2343:1 2349:1 2714:1 2882:1 3130:1 3363:1 3574:1 3747:1 3764:1 3769:1 3888:1 3895:1 4027:1 4188:1 #
-0.12896853770395486082911418179719 56:1 118:1 1703:1 2159:1 2349:1 3651:1 3655:1 3764:1 #
-0.09164656084997264973157626855027 405:1 1452:1 1698:1 2299:1 2343:1 2394:1 2768:1 2895:1 3483:1 #
-0.12896853770395486082911418179719 303:1 328:1 667:1 691:1 1153:1 2582:1 2869:1 3112:1 3372:1 4188:1 #
-0.12896853770395486082911418179719 167:1 1164:1 1854:1 1905:1 2299:1 2343:1 2450:1 2543:1 3109:1 3513:1 3563:1 #
0.12896853770395486082911418179719 2251:1 2969:1 3339:1 3563:1 #
0.12896853770395486082911418179719 440:1 458:1 566:1 658:1 723:1 835:1 1330:1 1905:1 1922:1 2185:1 2342:1 2874:1 2888:1 2892:1 2969:1 3505:1 3668:1 #
0.086212134480229810074014551446453 30:1 265:1 1884:1 2371:1 2567:1 2969:1 3563:1 3764:1 3794:1 #
0.12896853770395486082911418179719 265:1 297:1 1527:1 2969:1 3563:1 #
0.12896853770395486082911418179719 265:1 1178:1 1465:1 2969:1 3563:1 #
-0.12896853770395486082911418179719 265:1 1164:1 1455:1 1465:1 2969:1 3563:1 3823:1 #
-0.12896853770395486082911418179719 265:1 383:1 1465:1 2969:1 3563:1 3722:1 #
-0.12896853770395486082911418179719 92:1 522:1 918:1 1172:1 1595:1 1702:1 2924:1 2969:1 3425:1 3516:1 3563:1 #
-0.12896853770395486082911418179719 18:1 586:1 884:1 1461:1 2158:1 2349:1 2567:1 2984:1 3234:1 3563:1 #
0.12896853770395486082911418179719 56:1 92:1 2299:1 2343:1 2649:1 2768:1 2984:1 3384:1 3527:1 3607:1 #
0.083356868833474415114714872743207 118:1 2296:1 2297:1 2507:1 2869:1 2938:1 3563:1 3620:1 3685:1 #
0.12896853770395486082911418179719 588:1 836:1 1465:1 1579:1 1702:1 2036:1 2343:1 2371:1 3730:1 3764:1 #
-0.12896853770395486082911418179719 283:1 547:1 919:1 1358:1 1527:1 2137:1 2243:1 2299:1 2984:1 3271:1 3327:1 3563:1 3983:1 4076:1 #
-0.12896853770395486082911418179719 318:1 1129:1 1455:1 2338:1 3764:1 3769:1 3823:1 3888:1 4076:1 #
-0.12896853770395486082911418179719 886:1 1455:1 1465:1 2343:1 2969:1 3081:1 3290:1 3764:1 3959:1 #
-0.12896853770395486082911418179719 283:1 1575:1 2125:1 2969:1 3764:1 #
0.12896853770395486082911418179719 905:1 919:1 1175:1 1498:1 1693:1 1781:1 1833:1 2582:1 2969:1 3445:1 3624:1 #
0.12896853770395486082911418179719 895:1 1189:1 1455:1 1577:1 1854:1 1905:1 2349:1 2543:1 3651:1 3764:1 4129:1 4161:1 #
-0.12896853770395486082911418179719 30:1 92:1 1104:1 1703:1 1884:1 2349:1 2649:1 2667:1 2969:1 3353:1 3527:1 #
-0.12896853770395486082911418179719 2582:1 2969:1 4076:1 #
0.12896853770395486082911418179719 136:1 268:1 1455:1 1988:1 2194:1 2299:1 2330:1 2543:1 2714:1 3452:1 3655:1 4076:1 #
0.12896853770395486082911418179719 283:1 373:1 884:1 1718:1 2299:1 2349:1 3407:1 3440:1 #
-0.12896853770395486082911418179719 167:1 369:1 1455:1 2299:1 2450:1 2543:1 2969:1 4076:1 #
-0.12896853770395486082911418179719 757:1 1203:1 1465:1 1905:1 2299:1 2543:1 2969:1 3109:1 3339:1 3563:1 #
-0.12896853770395486082911418179719 352:1 1452:1 1703:1 2984:1 3234:1 3563:1 4076:1 #
-0.12896853770395486082911418179719 2611:1 2969:1 #
-0.11607463145509809565592007629675 884:1 1159:1 1465:1 1515:1 2299:1 2343:1 2969:1 3093:1 3262:1 3500:1 3563:1 4073:1 #
-0.12896853770395486082911418179719 2343:1 2969:1 3563:1 #
-0.12896853770395486082911418179719 283:1 2969:1 #
-0.12896853770395486082911418179719 2158:1 2969:1 #
-0.12896853770395486082911418179719 265:1 1465:1 1618:1 2299:1 2343:1 2348:1 2609:1 2969:1 3234:1 #
-0.12896853770395486082911418179719 56:1 118:1 3651:1 3764:1 #
-0.12896853770395486082911418179719 118:1 145:1 176:1 2940:1 3627:1 3645:1 #
-0.12896853770395486082911418179719 28:1 56:1 908:1 1773:1 2194:1 2313:1 2343:1 3262:1 3563:1 3588:1 3764:1 #
-0.12896853770395486082911418179719 19:1 657:1 836:1 982:1 2343:1 2609:1 3290:1 3313:1 3407:1 #
-0.12896853770395486082911418179719 56:1 118:1 283:1 3651:1 3764:1 #
0.12896853770395486082911418179719 1465:1 2226:1 2338:1 2372:1 2969:1 3109:1 #
0.11154964138177553278907794265251 154:1 243:1 460:1 919:1 1465:1 1750:1 2299:1 2748:1 2799:1 2868:1 2969:1 4076:1 #
0.12896853770395486082911418179719 1905:1 2450:1 2969:1 3563:1 #
0.071444297831891531713743859199894 68:1 92:1 265:1 2343:1 2795:1 2969:1 3234:1 3527:1 3602:1 3764:1 #
0.12896853770395486082911418179719 2969:1 2984:1 3339:1 #
-0.12896853770395486082911418179719 92:1 588:1 1419:1 1702:1 2036:1 2066:1 2299:1 2343:1 2714:1 2741:1 2946:1 2969:1 2971:1 2984:1 3174:1 3570:1 4188:1 #
-0.12896853770395486082911418179719 92:1 167:1 265:1 618:1 1461:1 2299:1 2343:1 2379:1 2450:1 2649:1 2748:1 2775:1 2804:1 2871:1 3717:1 #
-0.023958123601652454859323171376673 101:1 147:1 265:1 884:1 1461:1 1465:1 1515:1 1674:1 2299:1 2343:1 2404:1 3224:1 3429:1 3563:1 #
-0.12896853770395486082911418179719 1465:1 1826:1 1905:1 2327:1 2371:1 2386:1 2649:1 2947:1 #
0.12896853770395486082911418179719 56:1 92:1 265:1 2969:1 3764:1 4076:1 #
0.12896853770395486082911418179719 1468:1 2969:1 3764:1 #
-0.12896853770395486082911418179719 1455:1 2343:1 2450:1 2969:1 #
0.12896853770395486082911418179719 1515:1 2134:1 2181:1 2969:1 3089:1 3764:1 #
0.12896853770395486082911418179719 92:1 2343:1 2412:1 2772:1 2969:1 3764:1 #
-0.12896853770395486082911418179719 399:1 884:1 1054:1 1388:1 1567:1 2299:1 2791:1 2984:1 3594:1 3764:1 4076:1 #
-0.12896853770395486082911418179719 499:1 1344:1 2582:1 3764:1 4076:1 4146:1 #
-0.12896853770395486082911418179719 790:1 838:1 1884:1 2036:1 2102:1 2299:1 2343:1 2984:1 3115:1 3234:1 3764:1 #
-0.11308286862884037171639306507132 118:1 458:1 1465:1 1703:1 1760:1 2649:1 2969:1 3067:1 3271:1 3527:1 3563:1 3709:1 #
-0.067120586705122262105582819913252 1461:1 2490:1 3185:1 3888:1 #
0.12896853770395486082911418179719 1175:1 1465:1 2969:1 3147:1 3570:1 #
0.12896853770395486082911418179719 92:1 300:1 731:1 811:1 886:1 996:1 1313:1 1334:1 2465:1 2649:1 2969:1 3234:1 4188:1 #
0.12896853770395486082911418179719 92:1 1153:1 1702:1 2969:1 2984:1 #
-0.0083527729989536017574103254901274 27:1 560:1 795:1 883:1 1120:1 2299:1 2343:1 3126:1 3290:1 #
0.12896853770395486082911418179719 1465:1 1702:1 1824:1 2095:1 2969:1 3702:1 #
-0.12896853770395486082911418179719 1321:1 2296:1 2297:1 2753:1 4076:1 4188:1 #
-0.12896853770395486082911418179719 723:1 2343:1 2349:1 2969:1 3290:1 #
-0.12896853770395486082911418179719 970:1 1461:1 2216:1 2582:1 4188:1 #
0.12896853770395486082911418179719 265:1 1465:1 2299:1 2343:1 2984:1 3234:1 3563:1 3764:1 #
0.10467535584160608808090842103411 157:1 243:1 638:1 838:1 913:1 1169:1 1202:1 1455:1 2296:1 2297:1 2343:1 2349:1 2450:1 2515:1 2582:1 2914:1 2969:1 3240:1 3537:1 3620:1 3855:1 3859:1 4076:1 4188:1 #
-0.12896853770395486082911418179719 1498:1 1515:1 2343:1 2582:1 3062:1 3445:1 3743:1 #
0.12896853770395486082911418179719 29:1 92:1 1164:1 1321:1 1702:1 2226:1 2299:1 2371:1 2969:1 3109:1 3563:1 #
0.12896853770395486082911418179719 1515:1 1637:1 2232:1 2969:1 3854:1 #
0.12896853770395486082911418179719 1077:1 1465:1 2649:1 2969:1 3513:1 3563:1 3734:1 4058:1 #
-0.065588632855016815170756672159769 911:1 1465:1 1469:1 1519:1 2299:1 2649:1 2912:1 2969:1 3234:1 4076:1 #
-0.015088384195275370350253218987291 18:1 266:1 1718:1 1937:1 3518:1 3614:1 #
0.12896853770395486082911418179719 2984:1 3234:1 3764:1 4076:1 #
0.084105892735711951235799688220141 1431:1 1451:1 1455:1 1792:1 2299:1 2507:1 2984:1 3234:1 3372:1 3484:1 3764:1 3959:1 #
-0.12896853770395486082911418179719 441:1 1090:1 1461:1 1909:1 2313:1 2984:1 3505:1 3730:1 #
-0.12896853770395486082911418179719 1153:1 1461:1 2791:1 3234:1 3479:1 4032:1 #
0.043361816545100205499974066469804 1560:1 1953:1 2299:1 2343:1 2543:1 2984:1 3339:1 3563:1 #
0.090179756384904372068511690940795 265:1 449:1 619:1 723:1 1029:1 1159:1 1392:1 1465:1 1630:1 2943:1 2969:1 #
0.075979166493543442983948921209958 84:1 863:1 1465:1 1579:1 1611:1 1644:1 1660:1 2343:1 2450:1 2644:1 2851:1 2969:1 3026:1 3544:1 3743:1 4077:1 #
0.12896853770395486082911418179719 1203:1 1257:1 1465:1 2102:1 2969:1 3374:1 4073:1 #
0.1067377368434672679775587766926 570:1 884:1 1175:1 1465:1 1702:1 1855:1 2450:1 2969:1 3115:1 #
0.12896853770395486082911418179719 1465:1 2649:1 2695:1 2969:1 #
-0.12896853770395486082911418179719 448:1 2137:1 2969:1 3563:1 #
0.11509362940826298182805942360574 2299:1 2450:1 2969:1 4076:1 4116:1 #
0.12896853770395486082911418179719 265:1 1465:1 2299:1 2969:1 3198:1 #
0.12896853770395486082911418179719 2299:1 2969:1 3563:1 3702:1 4076:1 #
0.12896853770395486082911418179719 29:1 265:1 884:1 1310:1 1465:1 1579:1 2296:1 2299:1 2349:1 2450:1 2969:1 3271:1 3552:1 3823:1 4076:1 #
0.12896853770395486082911418179719 265:1 1461:1 2299:1 2969:1 3717:1 3764:1 #
0.12896853770395486082911418179719 2969:1 3675:1 #
0.10887648365137413131176202796269 18:1 19:1 20:1 29:1 265:1 455:1 691:1 731:1 970:1 1029:1 1375:1 1465:1 1498:1 1801:1 2086:1 2313:1 2343:1 2770:1 2969:1 3668:1 3688:1 4188:1 #
-0.11865031606193232605050980055239 92:1 265:1 2060:1 2969:1 3895:1 #
0.059247353447873150888991489182445 18:1 35:1 152:1 227:1 265:1 293:1 547:1 919:1 1465:1 1598:1 1734:1 1761:1 2173:1 2296:1 2297:1 2299:1 2343:1 2344:1 2348:1 2349:1 2582:1 2739:1 2969:1 2984:1 3983:1 4056:1 #
0.12896853770395486082911418179719 723:1 2343:1 2582:1 3764:1 #
0.12896853770395486082911418179719 633:1 2343:1 3563:1 3702:1 #
0.12896853770395486082911418179719 92:1 265:1 947:1 2969:1 3563:1 4156:1 #
0.12896853770395486082911418179719 30:1 92:1 265:1 1104:1 1884:1 2667:1 2969:1 3171:1 3794:1 #
0.12896853770395486082911418179719 92:1 265:1 434:1 2969:1 3702:1 #
-0.085154179890820191900502322823741 1461:1 1515:1 2123:1 3302:1 4188:1 #
0.12896853770395486082911418179719 167:1 265:1 1153:1 1465:1 2969:1 4032:1 #
-0.12896853770395486082911418179719 884:1 1579:1 2969:1 2984:1 3764:1 #
-0.12896853770395486082911418179719 838:1 1575:1 1579:1 2299:1 2343:1 2969:1 3769:1 3794:1 #
-0.12896853770395486082911418179719 97:1 547:1 814:1 1465:1 1548:1 1702:1 1816:1 2059:1 2296:1 2297:1 2299:1 2349:1 2543:1 2942:1 2969:1 3311:1 3971:1 4076:1 4111:1 #
-0.12896853770395486082911418179719 838:1 1465:1 1702:1 1905:1 2261:1 2299:1 2343:1 2732:1 2969:1 3516:1 3730:1 #
-0.12896853770395486082911418179719 391:1 1310:1 1388:1 1465:1 1549:1 1575:1 1702:1 2095:1 2299:1 2343:1 2969:1 3157:1 3764:1 #
0.12896853770395486082911418179719 1970:1 3743:1 4076:1 #
0.12896853770395486082911418179719 911:1 1151:1 1572:1 1580:1 1810:1 2343:1 3303:1 3339:1 #
0.12896853770395486082911418179719 1461:1 1609:1 3186:1 4188:1 #
0.12896853770395486082911418179719 283:1 2543:1 2779:1 3234:1 3764:1 #
0.12896853770395486082911418179719 498:1 2343:1 2940:1 3290:1 3983:1 #
-0.12896853770395486082911418179719 303:1 1431:1 2829:1 2848:1 3372:1 3717:1 #
-0.12896853770395486082911418179719 1905:1 2672:1 3627:1 3655:1 4188:1 #
-0.12896853770395486082911418179719 583:1 1431:1 2343:1 2349:1 2795:1 3234:1 3563:1 3709:1 #
-0.12896853770395486082911418179719 104:1 118:1 712:1 836:1 1359:1 1905:1 2036:1 2299:1 2908:1 3483:1 3529:1 3702:1 #
-0.12896853770395486082911418179719 35:1 838:1 2343:1 #
0.12896853770395486082911418179719 342:1 482:1 1461:1 1465:1 1702:1 1855:1 2158:1 2299:1 2349:1 2969:1 3157:1 3764:1 #
-0.048845343364394860907751194645243 92:1 499:1 588:1 836:1 1270:1 1583:1 1702:1 2005:1 2158:1 2234:1 2575:1 2887:1 2969:1 2984:1 3344:1 3452:1 3598:1 3764:1 4132:1 4136:1 #
-0.12896853770395486082911418179719 92:1 405:1 1702:1 2299:1 2969:1 3743:1 #
-0.12896853770395486082911418179719 265:1 588:1 1465:1 2313:1 2343:1 2686:1 2969:1 3234:1 #
-0.12896853770395486082911418179719 92:1 265:1 884:1 1884:1 2582:1 2795:1 2969:1 3290:1 3764:1 #
-0.12896853770395486082911418179719 1854:1 2218:1 2299:1 2450:1 2543:1 2969:1 3109:1 3234:1 3563:1 3717:1 3764:1 #
-0.12896853770395486082911418179719 28:1 521:1 1549:1 2296:1 2299:1 2343:1 2482:1 2603:1 3157:1 3234:1 3620:1 3702:1 #
-0.12896853770395486082911418179719 1515:1 2251:1 2795:1 2969:1 3362:1 3764:1 #
-0.12896853770395486082911418179719 38:1 2914:1 2969:1 #
-0.12896853770395486082911418179719 895:1 1575:1 2969:1 3563:1 3764:1 #
-0.12896853770395486082911418179719 92:1 265:1 2299:1 2371:1 2567:1 2969:1 2984:1 3234:1 3664:1 #
-0.12896853770395486082911418179719 1153:1 1461:1 1777:1 4188:1 #
-0.037007539998542289538807636972706 895:1 1077:1 1153:1 1388:1 1451:1 1455:1 1630:1 1654:1 2299:1 2314:1 2343:1 2483:1 2492:1 2540:1 2543:1 2556:1 2868:1 2931:1 2984:1 3017:1 3055:1 3103:1 3581:1 3820:1 3854:1 4076:1 #
-0.12896853770395486082911418179719 274:1 1029:1 1461:1 2036:1 2404:1 #
0.11493024426274466021080655764308 20:1 547:1 912:1 1127:1 1904:1 2343:1 2450:1 2463:1 2464:1 3691:1 #
0.097044105740402078486006587354495 19:1 92:1 176:1 708:1 1305:1 1344:1 2251:1 2590:1 2649:1 2969:1 3376:1 3543:1 3569:1 4179:1 #
0.12896853770395486082911418179719 118:1 176:1 243:1 1543:1 1698:1 2194:1 2294:1 2299:1 2969:1 2984:1 3565:1 #
0.12896853770395486082911418179719 1437:1 2343:1 3503:1 3563:1 #
-0.073990443223889354462663447975501 19:1 20:1 1431:1 1884:1 2450:1 2795:1 2969:1 3615:1 #
-0.12896853770395486082911418179719 19:1 667:1 2218:1 2237:1 2299:1 2343:1 2969:1 3234:1 3563:1 #
0.12896853770395486082911418179719 786:1 1153:1 2343:1 #
0.0024216038103257162862613771636688 38:1 337:1 365:1 717:1 884:1 993:1 1120:1 1388:1 1485:1 1713:1 1895:1 2543:1 2567:1 2969:1 3206:1 3290:1 3764:1 4188:1 #
0.12896853770395486082911418179719 1600:1 2251:1 3056:1 4076:1 #
0.12896853770395486082911418179719 2695:1 4076:1 4188:1 #
0.12896853770395486082911418179719 5:1 884:1 1388:1 1455:1 1643:1 2185:1 2343:1 2845:1 3794:1 #
0.12896853770395486082911418179719 833:1 1120:1 1455:1 2299:1 2450:1 2969:1 2984:1 3234:1 3563:1 3764:1 #
0.12267671149878167646818383218488 101:1 387:1 521:1 723:1 850:1 1455:1 1842:1 2181:1 2216:1 2233:1 2234:1 2450:1 2848:1 2969:1 3224:1 3243:1 3374:1 3739:1 3856:1 4111:1 #
0.12896853770395486082911418179719 2969:1 3083:1 3234:1 3500:1 3764:1 #
0.12896853770395486082911418179719 588:1 2450:1 2609:1 2969:1 #
0.12896853770395486082911418179719 56:1 723:1 2450:1 2969:1 #
0.12896853770395486082911418179719 211:1 1461:1 1574:1 2582:1 2984:1 3234:1 #
0.12896853770395486082911418179719 92:1 836:1 2393:1 2711:1 2763:1 2969:1 3109:1 #
0.12896853770395486082911418179719 92:1 174:1 806:1 2008:1 2226:1 2338:1 2969:1 3109:1 3563:1 #
0.12896853770395486082911418179719 2343:1 2768:1 3527:1 3607:1 #
-0.12896853770395486082911418179719 369:1 1905:1 2299:1 2450:1 2969:1 3109:1 3563:1 #
-0.12896853770395486082911418179719 2349:1 3361:1 3527:1 3569:1 4076:1 #
-0.12896853770395486082911418179719 1458:1 2027:1 2338:1 4076:1 #
-0.12896853770395486082911418179719 179:1 434:1 1904:1 2343:1 #
-0.0011261772650644544507131383781484 19:1 20:1 214:1 548:1 1090:1 1465:1 1702:1 1703:1 1758:1 2299:1 2371:1 2386:1 2582:1 2969:1 2984:1 3376:1 4084:1 #
-0.12896853770395486082911418179719 265:1 1465:1 2343:1 2924:1 3234:1 #
0.036193834569150887259247895144654 838:1 1418:1 2299:1 2343:1 2969:1 3563:1 3764:1 #
0.12896853770395486082911418179719 3383:1 3764:1 4076:1 #
0.067055488372603153091056071843923 29:1 786:1 1153:1 1498:1 2204:1 2299:1 2343:1 2349:1 2832:1 #
-0.12896853770395486082911418179719 1455:1 2450:1 2969:1 #
0.12896853770395486082911418179719 2343:1 3383:1 3702:1 #
0.0030616913949058450691853572322998 104:1 118:1 329:1 1825:1 2507:1 3483:1 3563:1 3645:1 4121:1 #
-0.12896853770395486082911418179719 723:1 2343:1 2349:1 3290:1 3563:1 #
-0.12896853770395486082911418179719 2343:1 3563:1 3933:1 #
-0.12896853770395486082911418179719 1609:1 1679:1 2343:1 3563:1 #
-0.055454542660007814791622848815678 405:1 490:1 884:1 1451:1 1473:1 1790:1 2027:1 2102:1 2181:1 2343:1 2450:1 2543:1 2648:1 2757:1 3271:1 3474:1 3563:1 3789:1 #
0.12896853770395486082911418179719 283:1 488:1 779:1 1839:1 2299:1 2543:1 2984:1 3794:1 #
-0.12896853770395486082911418179719 1455:1 2450:1 2969:1 2984:1 #
-0.12896853770395486082911418179719 1451:1 1461:1 2234:1 2543:1 3234:1 #
-0.12896853770395486082911418179719 1884:1 2795:1 2969:1 3764:1 #
-0.12896853770395486082911418179719 265:1 1104:1 1515:1 1855:1 1905:1 2299:1 2343:1 2667:1 2969:1 3109:1 3234:1 3519:1 3764:1 #
-0.12896853770395486082911418179719 773:1 1492:1 2343:1 2969:1 3730:1 3854:1 #
-0.12896853770395486082911418179719 2094:1 2343:1 3109:1 3764:1 #
-0.12896853770395486082911418179719 1455:1 1703:1 2152:1 2343:1 2450:1 2969:1 3527:1 #
0.12896853770395486082911418179719 1461:1 2349:1 2984:1 3234:1 3867:1 #
0.12896853770395486082911418179719 1461:1 2331:1 3867:1 #
0.12896853770395486082911418179719 1461:1 1465:1 1718:1 2137:1 2156:1 2969:1 3305:1 #
0.12896853770395486082911418179719 240:1 1461:1 2331:1 #
0.12896853770395486082911418179719 1718:1 2036:1 2338:1 3302:1 3474:1 #
-0.12896853770395486082911418179719 1461:1 1905:1 2349:1 3234:1 #
-0.098713525674218344230226307445264 455:1 658:1 1609:1 1718:1 1752:1 1991:1 #
-0.12896853770395486082911418179719 1572:1 1718:1 2667:1 4104:1 #
-0.12896853770395486082911418179719 1461:1 2348:1 #
-0.039180572252500101004812904648134 883:1 1718:1 2027:1 2338:1 3126:1 3474:1 3670:1 #
0.12896853770395486082911418179719 2343:1 2423:1 2450:1 #
-0.094709287209055650902378431510442 18:1 980:1 1424:1 2343:1 2582:1 2678:1 2959:1 3709:1 3729:1 #
-0.12896853770395486082911418179719 92:1 996:1 1175:1 2969:1 3234:1 #
-0.12896853770395486082911418179719 4030:1 4076:1 4188:1 #
-0.01419938865094792085352892740957 25:1 488:1 1029:1 1213:1 1567:1 2027:1 2296:1 3079:1 4076:1 #
-0.12896853770395486082911418179719 970:1 2216:1 2582:1 3271:1 3723:1 4076:1 #
-0.12896853770395486082911418179719 92:1 265:1 1461:1 2348:1 #
-0.12896853770395486082911418179719 723:1 2450:1 2969:1 3109:1 3563:1 #
-0.11076098870280591535131264890879 136:1 202:1 285:1 1465:1 1702:1 2299:1 2343:1 2475:1 2567:1 2620:1 2969:1 2984:1 3017:1 3081:1 3730:1 4188:1 #
-0.060592093247412388834494123557306 1465:1 1707:1 1794:1 2194:1 2226:1 2299:1 2772:1 2969:1 2998:1 3262:1 4031:1 #
-0.017590575538728045468239713500225 396:1 399:1 437:1 458:1 884:1 1148:1 1388:1 1436:1 1465:1 2036:1 2299:1 2343:1 2868:1 2895:1 2984:1 3362:1 4076:1 #
0.12896853770395486082911418179719 2814:1 2942:1 3419:1 3563:1 4076:1 #
0.12896853770395486082911418179719 3233:1 3339:1 4076:1 #
0.12896853770395486082911418179719 3339:1 3730:1 4076:1 #
0.12896853770395486082911418179719 2361:1 3339:1 3461:1 4076:1 #
-0.12896853770395486082911418179719 2543:1 4076:1 #
-0.12896853770395486082911418179719 919:1 1344:1 2349:1 3505:1 4076:1 #
0.12896853770395486082911418179719 2241:1 2343:1 2349:1 3056:1 3450:1 #
0.12896853770395486082911418179719 1159:1 2343:1 2969:1 3563:1 #
0.12896853770395486082911418179719 223:1 441:1 2343:1 2542:1 2940:1 3188:1 3645:1 #
0.12896853770395486082911418179719 92:1 479:1 1153:1 1175:1 2343:1 #
0.12896853770395486082911418179719 18:1 28:1 1905:1 1909:1 2299:1 2348:1 3376:1 3543:1 4076:1 #
0.12896853770395486082911418179719 265:1 1388:1 1465:1 1718:1 2543:1 2782:1 2810:1 3066:1 #
0.12896853770395486082911418179719 1164:1 4076:1 #
0.12896853770395486082911418179719 1164:1 3730:1 4076:1 4188:1 #
0.12896853770395486082911418179719 57:1 251:1 1104:1 1718:1 2349:1 2667:1 3539:1 #
-0.12896853770395486082911418179719 1461:1 2858:1 3109:1 3339:1 #
0.12896853770395486082911418179719 588:1 1451:1 1965:1 2543:1 2609:1 3339:1 3563:1 4076:1 #
0.12896853770395486082911418179719 726:1 1572:1 1904:1 2343:1 2582:1 2848:1 3867:1 #
0.12896853770395486082911418179719 1988:1 2343:1 2924:1 3234:1 3353:1 #
0.12896853770395486082911418179719 37:1 309:1 712:1 1724:1 2237:1 2969:1 3234:1 3959:1 #
0.12896853770395486082911418179719 118:1 822:1 3634:1 #
-0.12896853770395486082911418179719 283:1 396:1 3959:1 #
-0.12896853770395486082911418179719 198:1 1278:1 1465:1 4076:1 #
-0.12896853770395486082911418179719 3234:1 3563:1 4076:1 #
-0.12896853770395486082911418179719 1609:1 1718:1 #
-0.12896853770395486082911418179719 56:1 118:1 1905:1 3764:1 #
-0.042253096583303374755846704147189 212:1 488:1 814:1 822:1 825:1 886:1 1153:1 1465:1 1517:1 1560:1 1575:1 1702:1 1837:1 1904:1 2015:1 2343:1 2602:1 2698:1 2880:1 2969:1 3339:1 3362:1 3709:1 3815:1 3854:1 4010:1 4073:1 4081:1 #
-0.12896853770395486082911418179719 118:1 3058:1 3483:1 3751:1 3764:1 #
-0.081950391660878349475716220240429 18:1 19:1 20:1 312:1 1455:1 1758:1 2290:1 2450:1 2582:1 2853:1 2969:1 4188:1 #
0.12896853770395486082911418179719 283:1 1465:1 1702:1 2969:1 2979:1 3764:1 #
-0.053428673838461324119286643963278 71:1 92:1 588:1 836:1 2036:1 2125:1 2343:1 2609:1 2649:1 2653:1 2868:1 3203:1 3453:1 3717:1 3885:1 3895:1 4076:1 #
-0.12896853770395486082911418179719 92:1 265:1 588:1 2609:1 2969:1 3109:1 3563:1 3702:1 #
-0.12896853770395486082911418179719 56:1 92:1 167:1 1455:1 1579:1 1846:1 2299:1 2343:1 2450:1 2969:1 2984:1 3089:1 3262:1 3305:1 3764:1 3886:1 4076:1 #
0.12896853770395486082911418179719 283:1 723:1 2349:1 2423:1 3730:1 3764:1 #
-0.12534302188731391569653794704209 118:1 752:1 1090:1 1538:1 2299:1 2472:1 3527:1 3730:1 4076:1 #
-0.12896853770395486082911418179719 118:1 2299:1 2343:1 2348:1 3186:1 #
-0.12896853770395486082911418179719 375:1 2062:1 2543:1 2969:1 3302:1 #
-0.12896853770395486082911418179719 1690:1 1718:1 2742:1 3730:1 #
-0.11477722100913868852334331904785 434:1 1228:1 2343:1 2361:1 3461:1 3530:1 #
0.12896853770395486082911418179719 2343:1 3234:1 3764:1 #
0.12896853770395486082911418179719 2203:1 2343:1 3234:1 3764:1 #
0.12896853770395486082911418179719 2343:1 3089:1 3764:1 #
-0.12896853770395486082911418179719 344:1 564:1 2343:1 2349:1 #
-0.034584696650657026362196688751283 499:1 1175:1 1465:1 2158:1 2343:1 3339:1 #
0.12896853770395486082911418179719 25:1 92:1 656:1 1175:1 1515:1 1553:1 1622:1 2299:1 2543:1 2582:1 2868:1 2984:1 3109:1 3302:1 3314:1 3563:1 3854:1 4076:1 #
0.12896853770395486082911418179719 2450:1 2582:1 2969:1 3709:1 3869:1 #
0.12896853770395486082911418179719 1465:1 2226:1 2338:1 2649:1 2969:1 3109:1 #
0.12896853770395486082911418179719 56:1 2450:1 2969:1 #
0.12896853770395486082911418179719 118:1 1461:1 2299:1 2450:1 2969:1 #
-0.058259333185222673956449312981931 1224:1 1396:1 1455:1 1506:1 1713:1 2450:1 2582:1 2969:1 #
-0.12896853770395486082911418179719 56:1 118:1 3764:1 #
0.12896853770395486082911418179719 2080:1 2343:1 2507:1 3563:1 #
0.12896853770395486082911418179719 2343:1 3503:1 #
0.12896853770395486082911418179719 455:1 2343:1 3959:1 4106:1 #
0.12896853770395486082911418179719 283:1 3563:1 3702:1 #
-0.12896853770395486082911418179719 588:1 836:1 2343:1 2344:1 3563:1 #
-0.12896853770395486082911418179719 2296:1 2297:1 2343:1 3748:1 #
-0.12896853770395486082911418179719 708:1 1090:1 1515:1 1909:1 2343:1 #
-0.12896853770395486082911418179719 268:1 2343:1 2923:1 #
-0.12896853770395486082911418179719 265:1 329:1 1455:1 1465:1 2969:1 #
